-1.436168607324361801e-02
-2.533318288624286652e-02
-2.667828090488910675e-02
2.561280271038413048e-03
-2.925705164670944214e-02
-4.978841170668601990e-03
-1.067647896707057953e-02
-2.886400558054447174e-03
2.118831314146518707e-02
-5.357617884874343872e-02
-4.323368519544601440e-02
-2.873038686811923981e-02
6.024941429495811462e-02
4.572157561779022217e-02
-7.525017950683832169e-03
-3.295632451772689819e-02
-3.890986321493983269e-03
-1.392261683940887451e-02
-1.907522976398468018e-02
-1.314690150320529938e-02
-2.476179972290992737e-02
-5.894029885530471802e-02
7.922591269016265869e-02
-1.488751079887151718e-02
-2.383461035788059235e-02
-4.545235633850097656e-02
9.671987034380435944e-03
-2.637640386819839478e-02
-3.136404603719711304e-02
-3.150008851662278175e-03
3.123190067708492279e-02
1.683373004198074341e-02
-4.003964364528656006e-02
-5.289614200592041016e-02
-3.860146924853324890e-02
-3.900394542142748833e-03
-4.580492898821830750e-02
-4.078853130340576172e-02
-2.315165102481842041e-02
3.346447600051760674e-03
-1.871968619525432587e-02
6.373372673988342285e-02
3.491986915469169617e-02
-3.733425587415695190e-02
-3.059775941073894501e-02
-2.322271652519702911e-02
2.507384307682514191e-02
-1.913577690720558167e-02
-5.539701669476926327e-04
-2.558359690010547638e-02
-2.990962704643607140e-03
6.137150339782238007e-03
-2.082215994596481323e-02
-2.061786316335201263e-02
7.211460266262292862e-03
-2.162521472200751305e-03
-5.328887142241001129e-03
-7.656645495444536209e-03
-2.563642337918281555e-02
-1.698362268507480621e-02
-2.381569333374500275e-02
-1.283866446465253830e-02
-1.387672312557697296e-02
2.533084340393543243e-02
-5.152585729956626892e-02
-5.869274958968162537e-03
1.065351162105798721e-02
5.356675945222377777e-03
4.404169693589210510e-02
7.758693397045135498e-02
-9.327508509159088135e-02
-2.580559626221656799e-02
-2.943936735391616821e-02
-5.036781355738639832e-02
-9.534502774477005005e-02
-5.584760755300521851e-02
-4.988532600691542029e-05
-5.690459907054901123e-02
2.157316170632839203e-02
8.802722208201885223e-03
3.506690636277198792e-02
-4.258078336715698242e-02
-6.925015151500701904e-02
3.002468496561050415e-02
2.111661061644554138e-02
-1.674610102782025933e-04
-9.390858933329582214e-03
1.046885922551155090e-02
9.295102208852767944e-03
-5.878665298223495483e-02
-3.953700885176658630e-02
7.178601808845996857e-03
1.215287204831838608e-02
-4.748019576072692871e-02
-4.934372752904891968e-02
-1.217935793101787567e-02
-5.047307908535003662e-02
-3.343537449836730957e-02
-2.115033008158206940e-02
-5.140861496329307556e-02
-3.127053007483482361e-02
-3.710535541176795959e-02
-4.391191154718399048e-02
5.089648999273777008e-03
6.386453658342361450e-02
-4.633643478155136108e-02
-3.046381101012229919e-02
-7.760429382324218750e-02
4.995326325297355652e-02
-6.298818439245223999e-02
-2.247518301010131836e-02
4.795102402567863464e-02
-4.928147536702454090e-04
-2.689824625849723816e-02
4.348646476864814758e-02
-9.942586533725261688e-03
-1.330312900245189667e-02
1.000499911606311798e-02
4.728588741272687912e-03
-1.276297494769096375e-02
-8.434854447841644287e-02
-6.690492387861013412e-03
-5.276252701878547668e-02
9.441171772778034210e-03
1.776451477780938148e-03
-2.827508188784122467e-02
-3.991273790597915649e-02
8.078729733824729919e-03
1.864280551671981812e-02
-8.725577034056186676e-03
-6.729701533913612366e-03
-1.521016936749219894e-03
-4.018881916999816895e-02
1.537140924483537674e-02
1.915614493191242218e-02
-9.705359116196632385e-03
-1.039772946387529373e-02
4.355766996741294861e-02
3.660867363214492798e-02
-5.400895327329635620e-02
-5.799313634634017944e-02
4.063920676708221436e-02
3.683861345052719116e-02
-3.209267510101199150e-03
2.204248216003179550e-03
-1.231067031621932983e-01
-3.856366872787475586e-02
4.488043032324640080e-06
1.850580610334873199e-02
-1.070885453373193741e-02
-1.421118155121803284e-02
-2.784069627523422241e-02
1.697701634839177132e-03
-1.830414310097694397e-02
-1.529612392187118530e-02
-4.351349920034408569e-02
-2.802307903766632080e-02
-7.013380527496337891e-04
6.286250054836273193e-02
-1.370157394558191299e-02
7.307421881705522537e-03
-2.139845862984657288e-02
-7.740884274244308472e-02
-2.294695377349853516e-02
4.770072922110557556e-02
-6.767393089830875397e-03
1.826322078704833984e-02
-1.384030748158693314e-02
-3.021480888128280640e-02
-1.094186399132013321e-02
-3.030869644135236740e-03
3.933609649538993835e-02
2.892034873366355896e-02
-2.311361953616142273e-02
3.118485445156693459e-03
8.926630765199661255e-02
4.449964035302400589e-04
-1.183046121150255203e-02
-1.195272989571094513e-02
-1.574607193470001221e-02
-8.746203780174255371e-02
-2.299891225993633270e-02
-1.518437359482049942e-02
-4.152950271964073181e-02
1.116968765854835510e-01
-4.280245304107666016e-02
3.038549982011318207e-02
8.394284546375274658e-02
-3.789470065385103226e-03
-2.727820165455341339e-02
-4.080788418650627136e-02
4.770148545503616333e-02
3.248585015535354614e-02
3.584402427077293396e-02
-2.021970227360725403e-02
-4.230129346251487732e-02
2.862734906375408173e-02
-3.963324055075645447e-02
-7.717788685113191605e-03
-9.076218307018280029e-02
-4.123988747596740723e-02
-4.085032560396939516e-05
-1.420730818063020706e-02
-8.952552080154418945e-02
-5.390997044742107391e-03
-3.032252751290798187e-02
3.683021664619445801e-02
-1.622069068253040314e-02
-4.199225455522537231e-03
-3.381685928616207093e-06
-5.108651518821716309e-02
4.371385276317596436e-02
6.078917533159255981e-02
-2.474161423742771149e-02
1.260915957391262054e-02
1.337506808340549469e-03
-3.366501256823539734e-02
-3.733703121542930603e-02
8.879516273736953735e-02
2.996164187788963318e-02
-7.484751939773559570e-02
5.142944678664207458e-02
-4.934493079781532288e-02
-3.836340503767132759e-03
-4.863145761191844940e-03
-6.982599943876266479e-02
6.720518693327903748e-03
-3.136561019800865324e-07
-7.416911888867616653e-03
2.859139256179332733e-02
2.126820385456085205e-02
-3.849574178457260132e-02
2.527427393943071365e-03
-2.639045007526874542e-02
3.127114847302436829e-02
-2.728514932096004486e-02
1.305991411209106445e-02
1.708950474858283997e-02
1.111394353210926056e-02
-4.509044811129570007e-02
-3.102737851440906525e-02
-1.584471948444843292e-02
-1.308447681367397308e-03
4.633781500160694122e-03
-8.775434643030166626e-02
5.831091850996017456e-02
-2.927307039499282837e-02
-1.428215648047626019e-03
-1.020042784512042999e-02
-3.921686112880706787e-02
1.728223264217376709e-02
-1.574180496390908957e-04
-3.776492550969123840e-02
-2.448928356170654297e-02
7.752220146358013153e-03
2.585663925856351852e-03
1.513805985450744629e-02
-2.898105047643184662e-02
-3.155942261219024658e-02
4.680127650499343872e-02
-3.518150374293327332e-02
-4.794219881296157837e-02
-1.539199892431497574e-02
-6.719836592674255371e-02
-2.480911836028099060e-02
3.086548671126365662e-02
5.943765491247177124e-02
3.997810557484626770e-02
-5.905266851186752319e-02
-1.209311559796333313e-01
9.350585751235485077e-03
-1.116228383034467697e-02
-3.021520562469959259e-02
-2.981343865394592285e-02
4.119297862052917480e-02
1.012974302284419537e-03
-9.032380767166614532e-03
-3.689227998256683350e-02
-9.752336889505386353e-03
2.755941450595855713e-02
-3.617959842085838318e-02
4.869619011878967285e-02
-4.199763387441635132e-02
-9.850518777966499329e-03
5.490122362971305847e-02
-3.194955736398696899e-02
-2.669096738100051880e-02
-7.211679076135624200e-06
4.688514396548271179e-02
8.667317219078540802e-03
-2.080924343317747116e-03
-4.791030733031220734e-06
-2.829651348292827606e-02
7.632353901863098145e-02
9.230714291334152222e-02
-2.681280300021171570e-02
-3.948963433504104614e-02
1.917753554880619049e-02
-3.906188649125397205e-04
6.421608477830886841e-02
1.197359524667263031e-02
-1.479278434999287128e-03
1.159164309501647949e-02
4.698919132351875305e-02
-6.170221418142318726e-02
-1.451712218113243580e-03
-7.407852262258529663e-02
-1.993041299283504486e-02
-7.425278308801352978e-04
-5.247876048088073730e-02
3.295002877712249756e-02
-2.743003144860267639e-02
1.375680207274854183e-03
-3.250478208065032959e-02
7.904592901468276978e-02
-2.362314797937870026e-02
-5.167673407413531095e-06
-2.376777864992618561e-02
-3.825411573052406311e-02
-2.659173682332038879e-02
-2.574937045574188232e-02
-3.463027253746986389e-02
-1.639091497054323554e-04
-1.546521298587322235e-02
-3.153232857584953308e-02
3.710325062274932861e-02
3.282907884567975998e-03
-3.947411105036735535e-02
-2.185727469623088837e-02
-3.264741972088813782e-04
-1.001981785520911217e-03
-3.647938370704650879e-02
-1.856031082570552826e-02
-5.863129720091819763e-02
-2.010321943089365959e-03
-1.900500431656837463e-02
1.171329990029335022e-02
1.870758086442947388e-02
-1.029483415186405182e-02
-3.143200650811195374e-02
-5.381570197641849518e-03
-5.162323266267776489e-02
-7.793141412548720837e-05
-2.537639193178620189e-05
2.605227567255496979e-02
-7.306342013180255890e-04
6.046678498387336731e-02
-3.282544901594519615e-03
1.767795346677303314e-02
-1.977585954591631889e-03
-6.695811753161251545e-04
-8.527949452400207520e-03
-2.962734736502170563e-02
-2.573488652706146240e-02
-3.862420469522476196e-02
-2.215372957289218903e-02
-2.261616475880146027e-02
-9.976785629987716675e-03
-3.034003451466560364e-02
-8.281768299639225006e-03
-1.957503892481327057e-02
-1.046314486302435398e-03
-3.686727024614810944e-03
1.513895811513066292e-03
6.218754220753908157e-03
-5.891880765557289124e-02
-2.901747450232505798e-02
-2.822495116561185569e-05
-1.166285052895545959e-01
-2.450063824653625488e-02
-6.126926094293594360e-02
-2.391398884356021881e-02
-5.030303727835416794e-03
-3.947399184107780457e-02
-2.972499281167984009e-02
5.261691659688949585e-02
-9.232396259903907776e-03
8.192382752895355225e-03
-2.232043445110321045e-02
-1.027023419737815857e-02
-3.448338713496923447e-03
-6.071637570858001709e-02
-2.363351173698902130e-02
-3.165540471673011780e-02
-1.857580151408910751e-03
-3.411246463656425476e-02
-7.714673876762390137e-03
-2.709484659135341644e-02
-2.400320023298263550e-02
1.087980419397354126e-01
8.303271606564521790e-03
1.207748055458068848e-02
1.650182902812957764e-02
-4.915947094559669495e-02
-2.432330325245857239e-02
-4.348552227020263672e-02
-1.257663965225219727e-02
-7.234548684209585190e-04
-7.642208132892847061e-03
-2.870114520192146301e-03
-2.228239923715591431e-02
2.178677171468734741e-02
-5.703452229499816895e-02
4.891025368124246597e-03
6.390389055013656616e-02
-5.458829946292098612e-06
-7.165727019309997559e-02
-5.806938186287879944e-02
-6.167631596326828003e-03
3.397043794393539429e-02
-8.204618468880653381e-03
4.492392390966415405e-02
-5.640980228781700134e-02
1.507402770221233368e-02
-3.618745505809783936e-02
9.567618370056152344e-03
-1.069079339504241943e-01
-1.942792534828186035e-02
-4.635339602828025818e-02
-9.487745910882949829e-02
-5.825386568903923035e-02
-5.524171865545213223e-04
3.786121681332588196e-02
-2.134359255433082581e-02
-6.520275771617889404e-02
-8.728674054145812988e-02
-3.971122577786445618e-02
-4.280561208724975586e-02
2.899394556879997253e-02
3.956524282693862915e-02
1.503528505563735962e-01
-3.729327768087387085e-02
3.000832721590995789e-02
4.192260652780532837e-02
-7.785996794700622559e-02
-2.581154368817806244e-02
-2.489852532744407654e-02
-2.194584703829605132e-05
-1.071730349212884903e-02
2.835221216082572937e-02
5.331563949584960938e-02
-1.387969590723514557e-02
7.211882621049880981e-02
-4.323774203658103943e-02
7.213068753480911255e-02
-2.663177996873855591e-02
-4.934998229146003723e-02
5.528552085161209106e-02
-1.202098000794649124e-02
-1.305644959211349487e-02
-2.318121679127216339e-02
-3.877414017915725708e-02
-3.057447262108325958e-02
-1.652269251644611359e-02
-1.922135055065155029e-02
9.053234942257404327e-03
4.719427786767482758e-03
-5.805353168398141861e-03
-2.333728480152785778e-05
-1.816525496542453766e-02
-6.886368617415428162e-03
2.995030209422111511e-02
-4.810098186135292053e-02
-2.507872134447097778e-02
4.107999429106712341e-02
-3.176827356219291687e-02
-1.873580366373062134e-02
-3.572036325931549072e-02
-6.419310811907052994e-03
-5.091580748558044434e-02
-4.669146146625280380e-04
-1.205583196133375168e-02
-2.327791228890419006e-02
4.146944358944892883e-02
-8.284644037485122681e-02
-2.467495761811733246e-02
2.487788535654544830e-02
1.492970157414674759e-02
-5.730255972594022751e-03
-3.751535341143608093e-02
-1.024850010871887207e-01
2.364471554756164551e-02
-1.188766732811927795e-01
-1.524367928504943848e-02
-6.818076968193054199e-02
-3.635368123650550842e-02
2.678647451102733612e-02
5.010551959276199341e-02
-5.945087224245071411e-02
3.172265365719795227e-02
-1.831951737403869629e-02
4.370526596903800964e-02
-8.304792456328868866e-03
-9.350915998220443726e-02
-1.107458211481571198e-02
-1.809243485331535339e-02
-4.593352973461151123e-02
2.095336839556694031e-02
1.446861028671264648e-02
7.013076543807983398e-02
-2.187407016754150391e-02
-1.673455908894538879e-02
-5.553359538316726685e-02
2.967677079141139984e-03
-6.308007985353469849e-03
4.966234788298606873e-02
3.122302703559398651e-02
-3.422984853386878967e-02
4.031314328312873840e-02
-5.522174015641212463e-02
-3.038094565272331238e-02
4.014953598380088806e-02
-1.428439654409885406e-02
-5.805560573935508728e-02
-4.390841349959373474e-03
-4.847584292292594910e-02
-3.913470543920993805e-03
-3.830109536647796631e-02
1.919708796776831150e-03
6.364665459841489792e-03
-1.497618108987808228e-02
1.905656233429908752e-02
-4.741904512047767639e-02
2.623987151309847832e-03
-2.461468800902366638e-02
1.457004528492689133e-02
-3.848503110930323601e-03
2.012179978191852570e-02
-6.610725820064544678e-02
-3.227724879980087280e-02
1.342786382883787155e-02
-2.218108810484409332e-02
1.465912628918886185e-02
3.691390622407197952e-03
-5.776575766503810883e-03
-6.734908372163772583e-02
-6.916646379977464676e-03
-4.404907580465078354e-03
2.549584396183490753e-02
1.097912341356277466e-02
-1.611281186342239380e-02
-3.770839795470237732e-02
-3.324830532073974609e-02
-3.574364632368087769e-02
1.791198551654815674e-02
2.913943119347095490e-02
-2.498473972082138062e-02
-8.112650364637374878e-03
9.181395173072814941e-03
-3.293877234682440758e-03
-3.716222941875457764e-02
-3.450458124279975891e-02
1.642456464469432831e-02
-9.278562664985656738e-02
-1.133658736944198608e-02
3.502774750813841820e-03
5.326938629150390625e-02
-9.358125738799571991e-03
-4.592411592602729797e-02
-3.028587251901626587e-02
-3.675431711599230766e-03
-1.900533027946949005e-02
-2.681159041821956635e-02
3.892388660460710526e-03
-2.639788389205932617e-02
-1.700376160442829132e-02
-5.954413488507270813e-02
-2.724775578826665878e-03
-1.483970228582620621e-02
2.698050253093242645e-02
-7.337896968238055706e-04
2.121407352387905121e-02
-2.300373045727610588e-03
-1.581064797937870026e-02
-7.924045436084270477e-03
8.036473393440246582e-02
2.065297774970531464e-02
-1.820740289986133575e-02
1.508294418454170227e-02
-1.729934662580490112e-02
3.720515593886375427e-02
1.626449674367904663e-01
-4.377873614430427551e-03
2.204558998346328735e-02
-6.117208302021026611e-02
-8.776476606726646423e-03
-3.272483497858047485e-02
-3.228039667010307312e-02
5.406550690531730652e-02
-1.743504963815212250e-02
1.157428976148366928e-02
4.089267179369926453e-02
-2.558831125497817993e-03
-4.146504029631614685e-02
-3.159839287400245667e-02
-1.859503053128719330e-02
4.933237098157405853e-03
5.551364272832870483e-02
-5.267178639769554138e-02
2.455343259498476982e-03
9.838190861046314240e-03
3.213680535554885864e-02
-3.556930460035800934e-03
-3.068574331700801849e-02
1.871168240904808044e-02
-2.601759741082787514e-03
-2.621638029813766479e-02
2.774672023952007294e-02
6.252518296241760254e-02
-4.524635896086692810e-02
6.709960289299488068e-03
-1.457302458584308624e-02
-1.089912839233875275e-02
-5.894776806235313416e-02
-1.752240397036075592e-02
-2.425450645387172699e-02
9.962652256945148110e-05
2.029955200850963593e-02
5.509274452924728394e-02
-1.309701008722186089e-03
-5.249544605612754822e-02
3.251518681645393372e-02
1.601366326212882996e-02
-1.352171511825872585e-05
-8.254145085811614990e-02
-4.904142394661903381e-02
6.196427717804908752e-02
9.939042851328849792e-03
-2.339347079396247864e-02
-1.004076227545738220e-01
-5.713335238397121429e-03
-5.395438149571418762e-02
-3.160620853304862976e-02
-7.753290235996246338e-02
-2.039434388279914856e-02
-1.431570108979940414e-02
-1.608382724225521088e-02
-2.944411151111125946e-02
1.763348234817385674e-03
-2.182074263691902161e-02
-2.541486360132694244e-02
4.976784810423851013e-02
-1.286755874752998352e-02
-1.492388080805540085e-02
9.110539220273494720e-03
-5.646868050098419189e-02
-2.119739539921283722e-03
-3.686548769474029541e-02
-1.126269903033971786e-02
-5.246616899967193604e-02
-1.465121470391750336e-02
-2.566783502697944641e-02
-2.358547411859035492e-02
-4.968513548374176025e-02
-2.159081213176250458e-02
-7.976235821843147278e-03
9.926391765475273132e-03
2.863723970949649811e-02
2.400633180513978004e-03
-3.172020614147186279e-02
-4.358312115073204041e-02
9.499073028564453125e-03
3.267458081245422363e-02
-7.845768332481384277e-02
-5.826706439256668091e-02
-5.217412859201431274e-02
-2.434633858501911163e-02
3.877773135900497437e-02
-4.884647671133279800e-03
-2.129101939499378204e-02
3.247903659939765930e-02
-1.086236070841550827e-02
-3.750534728169441223e-02
9.447594173252582550e-03
7.117957621812820435e-02
-1.349670812487602234e-02
6.392264738678932190e-03
-3.066241368651390076e-02
5.693080276250839233e-02
3.317658603191375732e-02
4.196116700768470764e-02
-3.773346915841102600e-02
-7.223784923553466797e-02
-7.207690924406051636e-02
5.617395788431167603e-02
-6.637019570916891098e-03
-3.354667872190475464e-02
9.560747072100639343e-03
-4.129550606012344360e-02
-4.238827526569366455e-02
-1.600387878715991974e-02
-3.813477978110313416e-02
-4.680116847157478333e-02
-2.292124740779399872e-02
6.770834326744079590e-02
-4.978725919499993324e-04
-3.954162821173667908e-03
1.748740486800670624e-02
-5.611344054341316223e-02
-2.265496738255023956e-02
5.142231285572052002e-02
1.600118540227413177e-02
-7.795887999236583710e-03
-6.150668486952781677e-02
-3.988455235958099365e-02
-3.163146227598190308e-02
-2.583740279078483582e-02
-6.107874214649200439e-02
-2.785869315266609192e-02
5.274635180830955505e-02
-2.861936576664447784e-03
9.893693961203098297e-03
-2.235406078398227692e-02
4.553344845771789551e-02
-2.013422548770904541e-02
-3.609645366668701172e-02
-4.268141090869903564e-02
-4.248433187603950500e-02
-4.164725542068481445e-02
1.340948161669075489e-03
-4.287109151482582092e-02
-2.327769249677658081e-02
4.837922379374504089e-02
-1.781576313078403473e-02
-2.888882532715797424e-02
-7.499314378947019577e-04
-6.220237538218498230e-02
-2.348808199167251587e-02
-1.948222704231739044e-02
3.433765145018696785e-03
-1.028236839920282364e-02
-8.505211211740970612e-03
-9.510145522654056549e-03
-5.508856475353240967e-02
-1.061769761145114899e-02
-2.563243173062801361e-02
-6.043463200330734253e-02
2.988769672811031342e-03
-6.481184810400009155e-02
-3.449051454663276672e-02
-2.251093043014407158e-03
1.072684768587350845e-02
1.044258009642362595e-03
-3.711768239736557007e-02
-3.055733814835548401e-02
-4.214450344443321228e-02
-1.984258182346820831e-02
-2.138365758582949638e-03
1.261920109391212463e-02
-1.296230591833591461e-02
-1.244973624125123024e-03
3.848410397768020630e-02
4.823039285838603973e-03
6.196885183453559875e-02
1.344265881925821304e-02
1.124310959130525589e-02
4.618409276008605957e-02
-1.172009110450744629e-02
3.548783808946609497e-02
-3.672112524509429932e-02
2.249372936785221100e-02
-7.749199867248535156e-02
-1.621202938258647919e-02
2.033412270247936249e-02
2.342455275356769562e-02
-3.834470734000205994e-02
-3.321393206715583801e-02
3.180344030261039734e-02
-3.422548621892929077e-02
2.131880261003971100e-02
-8.072369545698165894e-02
-8.679363876581192017e-03
-7.332020998001098633e-02
9.576276876032352448e-03
9.380988776683807373e-03
1.049947552382946014e-02
-3.401098027825355530e-02
-9.534039534628391266e-03
-2.551561594009399414e-02
4.946896806359291077e-04
-2.393499389290809631e-02
-1.570216193795204163e-02
-6.734691094607114792e-03
-3.279763460159301758e-02
3.002506867051124573e-02
5.597955733537673950e-02
-5.440496653318405151e-02
4.180029965937137604e-03
5.831819027662277222e-02
-4.430575296282768250e-02
-6.202284619212150574e-02
-4.641013685613870621e-03
-3.504756838083267212e-03
-5.097813904285430908e-02
4.091139510273933411e-02
-3.216192871332168579e-02
-1.484061125665903091e-02
-6.360858096741139889e-04
-3.322979668155312538e-03
-1.515094842761754990e-02
1.589636132121086121e-02
1.110378466546535492e-02
-6.080387625843286514e-03
-7.661761483177542686e-04
-1.809163764119148254e-02
-7.486656773835420609e-03
-1.153694320237264037e-04
-1.760938949882984161e-02
1.142807770520448685e-02
-1.981042884290218353e-02
-1.755185984075069427e-02
-5.652680620551109314e-02
-2.580331871286034584e-03
1.318591646850109100e-02
-3.010624647140502930e-02
3.783294931054115295e-02
-2.023339644074440002e-02
5.050157778896391392e-04
-1.494231913238763809e-02
1.147368922829627991e-02
4.194987472146749496e-03
-7.854997180402278900e-03
-2.293403446674346924e-02
1.086001051589846611e-03
-2.815034938976168633e-03
2.094323374330997467e-02
7.030880078673362732e-03
-9.562133982399245724e-07
-1.216527074575424194e-02
-3.717641904950141907e-02
-2.557229995727539062e-02
7.885081321001052856e-02
5.029204115271568298e-02
3.684848919510841370e-02
-4.737450182437896729e-02
-1.773432642221450806e-02
-7.089058309793472290e-02
-3.785592690110206604e-02
1.623045420274138451e-03
-1.239937148056924343e-03
-3.566411882638931274e-02
-7.818847894668579102e-03
-1.298869401216506958e-02
1.346579194068908691e-02
-1.977786608040332794e-02
-9.782316163182258606e-03
-4.407695308327674866e-02
-1.008936464786529541e-01
-4.400592297315597534e-02
-1.884174533188343048e-02
7.173052523285150528e-03
-3.605773672461509705e-02
-2.650182880461215973e-02
2.353956457227468491e-03
-1.759559563652146608e-05
-3.682006150484085083e-02
4.880961403250694275e-02
-7.033500820398330688e-02
1.344321202486753464e-02
-3.203490749001502991e-02
-1.268748939037322998e-02
2.954725176095962524e-02
1.311461906880140305e-03
4.761221818625926971e-03
-4.321227781474590302e-03
1.436244603246450424e-02
-2.206090372055768967e-03
2.751829661428928375e-02
-3.046982362866401672e-02
-5.227697268128395081e-02
-2.761562727391719818e-02
1.013680547475814819e-02
-2.496629394590854645e-02
-1.515853637101827189e-05
-2.598500624299049377e-02
4.733897745609283447e-02
1.377236004918813705e-02
-4.613472521305084229e-02
6.504216790199279785e-02
3.413166105747222900e-02
2.159692905843257904e-02
-5.875411909073591232e-03
-1.262123550986871123e-04
-6.964593194425106049e-03
2.062924951314926147e-02
4.518099129199981689e-03
-2.883535623550415039e-02
-2.606774494051933289e-02
5.126630514860153198e-02
-1.364398468285799026e-02
-6.176036596298217773e-02
-7.156053930521011353e-02
7.556074298918247223e-03
-1.034924760460853577e-03
-2.533015608787536621e-02
-6.197413802146911621e-02
-7.581438869237899780e-02
-4.172109067440032959e-03
-4.087235778570175171e-03
1.025754492729902267e-03
-2.675127051770687103e-02
1.328660640865564346e-03
-2.901177108287811279e-02
-3.144194837659597397e-03
-1.866476051509380341e-02
1.335497666150331497e-02
1.244551036506891251e-02
-1.510684378445148468e-02
-2.046716958284378052e-02
1.568142697215080261e-02
1.767322421073913574e-02
-9.498137049376964569e-03
-2.622482739388942719e-02
-1.126283686608076096e-02
-3.017951920628547668e-02
-4.400594662001822144e-06
-3.285304701421409845e-04
-2.292784862220287323e-02
-1.833520829677581787e-02
-6.891567260026931763e-02
2.421338297426700592e-02
1.791562512516975403e-02
2.093700878322124481e-02
-4.894040059298276901e-03
-3.634017193689942360e-04
-1.778341457247734070e-02
-3.012067638337612152e-02
-4.238625988364219666e-02
4.296154074836522341e-04
-2.604901045560836792e-02
-6.139218062162399292e-02
-2.280392125248908997e-02
-1.713974401354789734e-02
-5.832439288496971130e-02
-1.188301667571067810e-02
1.999537087976932526e-02
-2.815676998579874635e-05
-3.750630840659141541e-02
-2.880919724702835083e-02
-4.026892129331827164e-03
-9.075465053319931030e-02
-1.885487581603229046e-04
-2.367542311549186707e-02
-1.296371035277843475e-02
2.472328022122383118e-02
3.508427739143371582e-02
-2.230907417833805084e-02
9.290166199207305908e-03
-1.121374685317277908e-02
6.067503616213798523e-02
-1.601181179285049438e-02
-1.795792370103299618e-03
-1.764230546541512012e-03
2.918943297117948532e-03
6.316107511520385742e-02
4.359989427030086517e-03
4.107458982616662979e-03
-2.764647360891103745e-03
-1.221177168190479279e-02
-2.765459567308425903e-02
-4.635015875101089478e-02
-1.031144335865974426e-02
-2.909432165324687958e-02
-5.652361735701560974e-02
-4.926205053925514221e-02
-2.687988057732582092e-02
5.513689294457435608e-02
1.245584432035684586e-02
1.467383205890655518e-01
-2.808549425026285462e-06
-4.780903458595275879e-02
-1.788933388888835907e-02
1.844686456024646759e-02
3.252978622913360596e-02
2.929787151515483856e-03
-1.698887534439563751e-02
-9.379053115844726562e-02
-5.686597898602485657e-02
-1.107392716221511364e-03
-1.364127080887556076e-02
7.625935133546590805e-03
-3.166238963603973389e-02
-2.099776081740856171e-02
5.783698335289955139e-02
-5.713118240237236023e-02
-3.909812278379831696e-07
-9.581118822097778320e-02
-3.459215909242630005e-02
8.337625116109848022e-02
-2.879781275987625122e-02
-8.745346218347549438e-03
-5.657883360981941223e-02
-3.389850258827209473e-02
-5.811832379549741745e-03
-4.495088942348957062e-03
4.159497469663619995e-02
-8.613380603492259979e-03
1.333109475672245026e-02
-9.618233889341354370e-03
-3.219851106405258179e-02
-8.142970502376556396e-03
-4.693720862269401550e-02
-4.201241245027631521e-04
-9.005813859403133392e-03
1.347060780972242355e-02
2.398407645523548126e-02
2.819738350808620453e-02
-8.622681349515914917e-02
-4.422859102487564087e-02
-9.699306450784206390e-03
-2.754598669707775116e-02
4.073172807693481445e-03
-9.575922042131423950e-02
-2.968288399279117584e-02
-3.975425288081169128e-02
-3.186909109354019165e-02
-2.869328297674655914e-02
-2.032081596553325653e-02
-2.393860183656215668e-02
8.187174797058105469e-03
-5.988479405641555786e-02
1.251765713095664978e-02
4.480226896703243256e-03
-8.859088644385337830e-03
