-5.977868661284446716e-02
1.499518305063247681e-01
1.550551652908325195e-01
-5.950145423412322998e-02
-6.902617961168289185e-02
-1.053854450583457947e-01
6.547774374485015869e-02
1.337229646742343903e-02
-7.617694791406393051e-03
-3.585121035575866699e-02
-3.228160738945007324e-02
4.748813342303037643e-03
-5.265549197793006897e-02
2.195389382541179657e-02
-1.952105946838855743e-02
1.606369763612747192e-01
6.901695579290390015e-02
-3.320218250155448914e-02
-2.211396768689155579e-02
-2.164613828063011169e-02
-3.473830968141555786e-02
7.947889715433120728e-02
-5.497030168771743774e-02
4.437898751348257065e-03
4.118449240922927856e-02
-3.208267316222190857e-02
-1.663334108889102936e-02
-1.641649194061756134e-02
-3.445405513048171997e-02
-3.172842040657997131e-02
-1.857756078243255615e-02
1.326078772544860840e-01
-6.117007508873939514e-02
-3.867951035499572754e-02
6.920325104147195816e-04
-1.573813855648040771e-01
5.409866105765104294e-03
-6.934160366654396057e-03
-2.219620533287525177e-02
1.728855371475219727e-01
-2.160912938416004181e-02
-9.088575094938278198e-02
-1.080259084701538086e-01
-1.301541458815336227e-02
2.665872685611248016e-02
1.132667288184165955e-01
-4.348885640501976013e-02
-6.174014136195182800e-02
1.678155213594436646e-01
-3.751567751169204712e-02
1.510058790445327759e-01
-1.303715910762548447e-02
2.467101216316223145e-01
-7.176533341407775879e-02
-9.496861696243286133e-02
5.458815023303031921e-02
1.931779682636260986e-01
-4.189420863986015320e-02
2.114091999828815460e-02
4.929022490978240967e-02
-2.327674813568592072e-02
-3.363240137696266174e-02
2.256901711225509644e-01
1.705439761281013489e-02
5.631734430789947510e-02
5.684396624565124512e-02
-5.303382873535156250e-02
-6.433315109461545944e-03
2.223741710186004639e-01
-7.545981090515851974e-03
2.084293067455291748e-01
1.459204256534576416e-01
-5.417042598128318787e-02
-1.132607385516166687e-01
-4.311979934573173523e-02
7.905462756752967834e-03
8.746948093175888062e-02
-3.497976437211036682e-02
-3.701138775795698166e-03
2.025053501129150391e-01
-2.216738648712635040e-02
-9.354211390018463135e-03
1.412288844585418701e-01
-5.888194218277931213e-02
-6.235019303858280182e-03
1.147393137216567993e-01
-5.432568117976188660e-02
-1.136892847716808319e-02
-4.727684333920478821e-02
7.425611838698387146e-04
-3.160864412784576416e-01
6.041311472654342651e-02
1.970590837299823761e-02
2.560850232839584351e-02
4.558670520782470703e-02
1.722828000783920288e-01
-5.164574831724166870e-02
4.270223155617713928e-02
9.745486080646514893e-02
-7.441418711096048355e-03
-6.787177175283432007e-02
-1.042103767395019531e-01
2.584800422191619873e-01
-4.940392822027206421e-02
1.125963181257247925e-01
1.277429889887571335e-02
-2.502452395856380463e-02
-2.989339083433151245e-02
2.047516405582427979e-01
-4.508403316140174866e-02
-5.778531730175018311e-02
5.317452922463417053e-02
4.988460615277290344e-02
4.550568293780088425e-03
-2.848866581916809082e-02
-1.080814674496650696e-01
1.042392924427986145e-01
7.251897361129522324e-03
1.768349707126617432e-01
8.375601470470428467e-02
2.456456609070301056e-02
1.291430294513702393e-01
-3.638744726777076721e-02
2.280211076140403748e-02
8.822289109230041504e-02
1.532318294048309326e-01
-5.701597034931182861e-02
5.079178139567375183e-02
