-1.075322274118661880e-02
1.229575276374816895e-01
1.801648363471031189e-02
-1.474529057741165161e-01
-1.018390804529190063e-01
1.473632175475358963e-02
-2.694409107789397240e-03
-9.483239054679870605e-02
-7.065472006797790527e-02
-1.745958328247070312e-01
-8.939203619956970215e-02
-6.239676475524902344e-02
5.848303437232971191e-02
8.158649317920207977e-03
-6.023629009723663330e-02
-8.812600374221801758e-02
4.048559442162513733e-02
-9.014405310153961182e-02
-6.805793941020965576e-02
-1.324284970760345459e-01
4.672680515795946121e-03
-2.294107340276241302e-02
-9.301790595054626465e-02
4.868498444557189941e-02
-1.609867811203002930e-01
-1.173019260168075562e-01
-1.859205514192581177e-01
-5.066435039043426514e-02
5.873142927885055542e-02
-4.460076242685317993e-02
-1.090018376708030701e-01
1.168376486748456955e-02
-6.466560810804367065e-02
-1.092858240008354187e-01
-1.040340811014175415e-01
9.231414645910263062e-03
1.121120061725378036e-02
-1.199595332145690918e-01
5.771954357624053955e-02
-3.644765168428421021e-02
-1.368231773376464844e-01
-9.150577336549758911e-02
-9.869577735662460327e-02
-1.387765537947416306e-02
-5.905270227231085300e-04
-1.316502839326858521e-01
-2.149101719260215759e-02
-1.081704273819923401e-01
-1.421730369329452515e-01
-6.553536653518676758e-02
-1.351678967475891113e-01
5.479422956705093384e-02
-1.322501301765441895e-01
-7.967838644981384277e-02
-8.138575404882431030e-02
3.163489047437906265e-03
-1.103622931987047195e-02
7.320008240640163422e-03
1.546217408031225204e-02
-9.365239739418029785e-02
-2.339329943060874939e-02
2.194046787917613983e-02
-9.769321978092193604e-02
-6.256354600191116333e-02
-7.504308223724365234e-02
-1.264141798019409180e-01
-7.257965859025716782e-03
-9.372342377901077271e-02
9.819527715444564819e-02
-1.115897670388221741e-01
-1.259609311819076538e-01
-2.016451805830001831e-01
-1.312254965305328369e-01
-9.472198039293289185e-02
-6.626134365797042847e-02
-7.965497672557830811e-02
-8.297353982925415039e-02
-1.238749697804450989e-01
5.740939080715179443e-02
8.074124157428741455e-02
-9.905543178319931030e-03
-8.860313147306442261e-02
-2.627484686672687531e-02
-6.208264455199241638e-02
-9.410932660102844238e-02
-1.412567645311355591e-01
-1.101744323968887329e-01
-4.596089571714401245e-02
-3.695230931043624878e-02
5.673298984766006470e-02
9.280862659215927124e-02
-3.384197875857353210e-02
4.955587536096572876e-02
2.548245526850223541e-02
2.069449797272682190e-02
1.086589228361845016e-02
-1.033553928136825562e-01
-2.472124807536602020e-02
-9.784139692783355713e-02
1.801464520394802094e-02
-1.107402294874191284e-01
1.810045912861824036e-02
3.411508398130536079e-03
-9.000974707305431366e-03
-6.087725982069969177e-02
7.102678064256906509e-03
-1.742001473903656006e-01
-8.662496507167816162e-02
-1.498695556074380875e-02
-2.311459556221961975e-02
-7.237063348293304443e-02
-1.742007583379745483e-01
-1.031432747840881348e-01
5.720996856689453125e-02
8.301342837512493134e-03
7.084895514708478004e-06
-7.134915888309478760e-02
-6.697352230548858643e-02
-9.254628419876098633e-02
-2.962199039757251740e-02
-4.059398546814918518e-02
6.113087758421897888e-02
-1.023920103907585144e-01
-1.812098920345306396e-01
-1.908562146127223969e-02
-8.269362896680831909e-02
3.326087817549705505e-02
2.527223154902458191e-02
-5.806145817041397095e-02
3.712898492813110352e-02
-9.313492476940155029e-02
-1.402405649423599243e-01
-1.674050539731979370e-01
4.082872997969388962e-03
1.334562525153160095e-02
1.191246509552001953e-02
-1.506683826446533203e-01
8.285671472549438477e-02
-7.403979077935218811e-03
-7.575673982501029968e-03
-9.186651557683944702e-02
-1.428012549877166748e-01
-1.545918881893157959e-01
-7.594121992588043213e-02
8.540059439837932587e-03
-1.306095868349075317e-01
-5.002865567803382874e-02
-1.162659376859664917e-01
-1.191682964563369751e-01
-1.124535501003265381e-01
-1.370368339121341705e-02
-6.271466612815856934e-02
-1.590951830148696899e-01
-5.010582134127616882e-02
-1.151741743087768555e-01
2.762975636869668961e-04
-1.077178418636322021e-01
4.674252122640609741e-02
-8.423016965389251709e-02
-4.336805641651153564e-02
-1.685929894447326660e-01
1.020905654877424240e-02
3.996250685304403305e-03
-3.458147495985031128e-02
-3.676849231123924255e-02
4.982337355613708496e-03
1.188604533672332764e-02
-1.084548830986022949e-01
1.129150507040321827e-03
-8.827831596136093140e-02
1.332182087935507298e-03
-2.297428809106349945e-02
-8.423995226621627808e-03
1.629559323191642761e-02
-1.084753591567277908e-02
-2.619557641446590424e-02
-2.526419050991535187e-02
-1.402561664581298828e-01
-6.917143613100051880e-02
-4.466569796204566956e-02
-1.275472640991210938e-01
-1.118627861142158508e-01
-5.608649924397468567e-02
-2.997316187247633934e-03
-1.392857432365417480e-01
-7.819595932960510254e-02
1.101995352655649185e-03
-1.513077467679977417e-01
1.738887093961238861e-02
4.582851752638816833e-02
-1.216700151562690735e-01
-9.353490918874740601e-02
-1.312609761953353882e-01
-2.126434445381164551e-01
-1.795761985704302788e-03
-3.640878200531005859e-02
4.105946794152259827e-02
-3.752717003226280212e-02
-5.783772096037864685e-02
5.773843731731176376e-03
-7.030072808265686035e-02
-6.149166077375411987e-02
-6.479365378618240356e-02
-4.407142847776412964e-02
-2.823697030544281006e-02
-4.004960507154464722e-02
-2.983746305108070374e-02
-2.601771801710128784e-02
-2.024482702836394310e-03
-8.665417879819869995e-02
9.113901853561401367e-02
-8.375892043113708496e-02
3.987760096788406372e-02
-4.831039905548095703e-02
-3.079336136579513550e-02
-6.584388017654418945e-02
6.161862239241600037e-02
-9.248246788047254086e-04
-8.179530501365661621e-03
-9.523411095142364502e-02
-1.318319737911224365e-01
7.241030782461166382e-02
-3.286309912800788879e-02
-3.703457489609718323e-02
-1.919893175363540649e-01
-1.552134007215499878e-01
-9.528031945228576660e-02
-2.548786625266075134e-02
-1.308398693799972534e-01
-8.577959984540939331e-02
-1.769351810216903687e-01
-1.296903192996978760e-01
-1.503015905618667603e-01
-1.027579978108406067e-01
6.778201553970575333e-03
-1.735665947198867798e-01
2.834470942616462708e-02
-1.353480666875839233e-02
-1.647261530160903931e-01
-8.681418001651763916e-02
3.344133123755455017e-02
-7.320132106542587280e-02
-1.107742860913276672e-01
-2.183117903769016266e-03
-1.535556167364120483e-01
-3.679430112242698669e-02
-5.317039042711257935e-02
-7.181552052497863770e-02
2.963940985500812531e-02
-6.859289854764938354e-02
-1.841294318437576294e-01
2.066172473132610321e-02
-2.218659035861492157e-02
-1.340044885873794556e-01
-1.996091902256011963e-01
-1.117052361369132996e-01
-2.052655071020126343e-02
-1.017252132296562195e-01
-1.835056245326995850e-01
9.024883620440959930e-03
-1.378825455904006958e-01
-7.354867458343505859e-02
-6.479242444038391113e-02
8.122898638248443604e-03
-1.472711712121963501e-01
6.282946094870567322e-03
-8.350076526403427124e-02
-5.029012262821197510e-02
2.663185261189937592e-02
-5.170395970344543457e-02
2.077131066471338272e-04
-7.979025691747665405e-02
-5.889898911118507385e-02
-1.235299035906791687e-01
-1.276356726884841919e-01
9.621483273804187775e-03
-2.387410402297973633e-02
-6.938557326793670654e-02
-1.097187101840972900e-01
-7.711177319288253784e-02
-1.108091399073600769e-01
-8.227135241031646729e-02
-2.011628076434135437e-02
-6.620783358812332153e-02
-3.803699091076850891e-02
3.771424526348710060e-03
-9.325920045375823975e-02
-9.847576171159744263e-02
2.976774610579013824e-02
-3.229429200291633606e-02
1.976016210392117500e-03
-2.101135253906250000e-02
-1.092880517244338989e-01
-1.178494244813919067e-01
-2.303084358572959900e-02
-1.130962148308753967e-01
-1.898735612630844116e-01
7.337287813425064087e-02
-8.359690755605697632e-02
-7.747095823287963867e-02
4.549650475382804871e-02
-1.574868895113468170e-02
-1.291885823011398315e-01
-1.260128021240234375e-01
-3.471226245164871216e-02
-2.225633524358272552e-02
-2.438235841691493988e-02
-7.915131747722625732e-02
-5.813195556402206421e-02
-6.346596032381057739e-02
-6.607710570096969604e-02
8.845771662890911102e-03
-2.090179920196533203e-02
-3.401834890246391296e-02
-5.778244882822036743e-02
9.469283372163772583e-02
-1.502652913331985474e-01
-1.073552519083023071e-01
-9.182381443679332733e-03
-1.311615295708179474e-02
-1.110358312726020813e-01
-1.743311434984207153e-01
4.967735335230827332e-02
-6.969884037971496582e-02
6.979243829846382141e-03
-2.882895804941654205e-02
-1.644693017005920410e-01
-1.730858236551284790e-01
-1.414450705051422119e-01
6.482718139886856079e-02
-1.627262122929096222e-02
-7.034074515104293823e-02
-1.525369379669427872e-02
-6.186915561556816101e-02
3.555634245276451111e-02
-7.505082339048385620e-02
-1.714525818824768066e-01
-3.552329167723655701e-02
-3.799084573984146118e-02
-1.155964061617851257e-01
-6.339298933744430542e-02
-1.469678878784179688e-01
-9.195905923843383789e-02
2.972661517560482025e-02
-1.804546453058719635e-02
-1.546843647956848145e-01
-1.140586193650960922e-02
-1.844385406002402306e-03
-7.158498466014862061e-02
3.463350003585219383e-03
-1.116730421781539917e-01
2.400433644652366638e-02
-1.077006086707115173e-01
-9.275043755769729614e-02
-7.963553816080093384e-02
-1.372604221105575562e-01
-1.287865489721298218e-01
9.614720940589904785e-03
-2.822038717567920685e-02
-1.326895058155059814e-01
-1.338929086923599243e-01
-5.766364559531211853e-02
-1.211261898279190063e-01
-4.003735259175300598e-02
-6.532265245914459229e-02
-7.572913914918899536e-02
-6.824502721428871155e-03
-1.468590795993804932e-01
-5.697309598326683044e-02
-6.160626187920570374e-02
7.281050831079483032e-02
1.083822641521692276e-02
-1.379002481698989868e-01
-7.656519860029220581e-02
-1.873628608882427216e-02
-1.112697049975395203e-01
-5.453214794397354126e-02
-1.506332904100418091e-01
-1.075283139944076538e-01
-7.460077852010726929e-02
-6.474322825670242310e-02
-6.470612436532974243e-02
-1.095369551330804825e-02
-5.816686898469924927e-02
-4.207826033234596252e-02
-1.351605653762817383e-01
-9.426859207451343536e-03
-2.337963320314884186e-02
5.052696797065436840e-04
-1.999372616410255432e-02
-2.442597039043903351e-02
-8.671247959136962891e-02
1.016257237643003464e-02
-6.439491361379623413e-02
5.726264044642448425e-02
4.784376360476016998e-03
-5.126219987869262695e-02
-7.572952657938003540e-03
-1.257445216178894043e-01
-7.468528300523757935e-02
4.902628064155578613e-02
2.503905212506651878e-03
-8.699801564216613770e-02
-8.556242287158966064e-02
-1.862980276346206665e-01
1.188947260379791260e-02
-5.630792584270238876e-03
6.031744554638862610e-02
-7.149228453636169434e-02
2.035943977534770966e-02
-1.174912601709365845e-01
-1.508175283670425415e-01
-6.263493001461029053e-02
4.707822576165199280e-02
7.693633437156677246e-02
-1.209613606333732605e-01
1.446899678558111191e-02
-1.104237288236618042e-01
-2.301942184567451477e-02
6.869241595268249512e-02
3.328984603285789490e-02
4.497785121202468872e-02
-4.731747508049011230e-02
1.680922810919582844e-03
-1.833602637052536011e-01
-4.048763588070869446e-02
1.507463213056325912e-02
3.008909523487091064e-02
-1.388902366161346436e-01
-3.294299542903900146e-02
2.412461303174495697e-02
-4.888412728905677795e-02
-8.468637615442276001e-02
4.806208238005638123e-02
2.968073636293411255e-02
-1.755649000406265259e-01
2.563819661736488342e-02
-3.400384262204170227e-02
-7.724025845527648926e-02
-1.746561676263809204e-01
2.696724236011505127e-02
1.745321974158287048e-02
1.421212684363126755e-02
5.644796183332800865e-04
-4.185913130640983582e-02
-6.339193135499954224e-02
-3.069760091602802277e-02
-1.860328912734985352e-01
-9.714796394109725952e-02
-1.121428683400154114e-01
-1.808266192674636841e-01
-1.135044470429420471e-01
-1.224564090371131897e-01
-8.453436940908432007e-02
-7.432085275650024414e-02
-1.859070658683776855e-01
-1.820622943341732025e-02
-8.851462043821811676e-03
-1.359548070468008518e-03
-1.162707060575485229e-01
-1.825131326913833618e-01
-5.807003006339073181e-02
-3.927303478121757507e-03
-1.173819154500961304e-01
-4.619168862700462341e-02
-1.233059093356132507e-01
3.542139008641242981e-02
7.929041981697082520e-02
-9.758615866303443909e-03
-1.400544494390487671e-01
9.214046597480773926e-02
-1.047134120017290115e-02
7.385946344584226608e-03
-4.665917158126831055e-02
-8.115578442811965942e-02
-1.310742497444152832e-01
1.783803291618824005e-02
-6.304173916578292847e-02
-1.477206647396087646e-01
-3.439656272530555725e-02
1.134284809231758118e-01
-1.398608684539794922e-01
3.824147162958979607e-03
-5.045983940362930298e-02
-3.301763674244284630e-03
-1.444782912731170654e-01
2.482029423117637634e-02
-1.266881525516510010e-01
-7.190568000078201294e-02
8.893491700291633606e-03
-1.022919360548257828e-02
5.736459419131278992e-02
-1.550161093473434448e-01
-6.452648341655731201e-02
1.274804212152957916e-02
-7.466442883014678955e-02
-1.034458652138710022e-01
-3.087315149605274200e-02
7.843471830710768700e-04
-2.794479206204414368e-02
-9.378068149089813232e-02
9.899357333779335022e-03
-8.784508705139160156e-02
-8.956630527973175049e-02
-1.307406872510910034e-01
-5.235160142183303833e-02
-2.754235640168190002e-02
5.421004071831703186e-02
-1.171818748116493225e-02
5.835695657879114151e-03
-1.198965460062026978e-01
-7.647243887186050415e-02
