3.514429321512579918e-03
3.985464945435523987e-02
-2.479524165391921997e-02
-2.782673574984073639e-02
8.887130022048950195e-02
-2.232240978628396988e-03
-1.914402283728122711e-02
-5.538224056363105774e-02
5.772123858332633972e-02
-2.447030693292617798e-02
-9.097556583583354950e-03
3.790454193949699402e-02
-2.706050686538219452e-02
7.556780978745791799e-09
-5.482293199747800827e-03
8.236993104219436646e-02
-1.191583946347236633e-01
7.012378424406051636e-02
-2.150301933288574219e-01
-4.794452339410781860e-02
-1.695484369993209839e-01
1.352197863161563873e-02
-1.349493116140365601e-01
-1.497325450181961060e-01
4.662774503231048584e-02
-1.157426610589027405e-01
-7.888949662446975708e-02
7.416644692420959473e-02
4.008851200342178345e-02
-3.020611777901649475e-02
6.750787794589996338e-02
2.126638963818550110e-02
1.212600469589233398e-01
-1.998012214899063110e-01
-3.367804363369941711e-02
-6.466098129749298096e-02
-1.992186158895492554e-02
4.120914731174707413e-03
-1.795602776110172272e-02
6.720913946628570557e-02
1.511043906211853027e-01
-2.699591964483261108e-02
5.514041706919670105e-02
-2.232862561941146851e-01
-6.128551438450813293e-02
1.689768768846988678e-02
-9.979383647441864014e-02
-4.743576794862747192e-02
7.844002544879913330e-02
-1.690622977912425995e-02
3.779651597142219543e-02
1.203417479991912842e-01
-6.130598857998847961e-02
1.092797890305519104e-01
8.068500459194183350e-02
5.673186480998992920e-02
4.807294160127639771e-02
4.461722820997238159e-02
-7.787051051855087280e-02
3.645836561918258667e-02
4.580804333090782166e-02
1.028327792882919312e-01
-2.893145680427551270e-01
-1.517519354820251465e-01
1.149266064167022705e-01
5.698197521269321442e-03
2.837813273072242737e-02
3.373051807284355164e-02
-5.466919019818305969e-02
-4.434518143534660339e-02
2.635651733726263046e-03
-1.716248840093612671e-01
-1.641328036785125732e-01
8.681013435125350952e-02
2.132013440132141113e-02
5.555161274969577789e-03
1.724526658654212952e-02
-2.533692144979227123e-09
3.898736461997032166e-02
-7.663566619157791138e-02
5.868173204362392426e-03
-3.766473382711410522e-02
-1.196219697594642639e-01
-2.751384675502777100e-02
-2.341108769178390503e-01
-5.452028289437294006e-02
-1.987248957157135010e-01
6.361542735248804092e-03
1.088944002985954285e-01
-8.780369535088539124e-03
6.239949725568294525e-03
2.488951943814754486e-02
1.040998846292495728e-02
8.654111996293067932e-03
7.849414646625518799e-02
8.307965472340583801e-03
5.703487992286682129e-02
-2.501325607299804688e-01
-3.571711108088493347e-02
-3.055008128285408020e-02
-1.289528701454401016e-02
8.463631570339202881e-02
-2.555150538682937622e-02
2.764219045639038086e-02
-9.026268380694091320e-04
2.706290408968925476e-02
2.905094064772129059e-03
-4.968781769275665283e-02
5.914470925927162170e-02
2.222268283367156982e-02
-4.594961181282997131e-02
7.577925175428390503e-02
3.399039059877395630e-02
-9.810644388198852539e-02
-2.113106288015842438e-02
4.870868474245071411e-02
2.193795703351497650e-02
6.952144205570220947e-02
-7.582532241940498352e-03
6.369596812874078751e-03
3.404420986771583557e-02
-3.958658315241336823e-03
2.991910465061664581e-02
1.463219523429870605e-02
4.242157191038131714e-02
8.068063110113143921e-02
-8.479804545640945435e-02
-1.357569694519042969e-01
-1.900831237435340881e-02
1.119102630764245987e-02
-1.600295677781105042e-02
-4.146298393607139587e-02
2.909221500158309937e-02
1.717473268508911133e-01
3.708905354142189026e-02
5.180283449590206146e-03
-2.592016197741031647e-02
-2.771733887493610382e-02
7.529480382800102234e-03
-1.245243661105632782e-02
-2.071917429566383362e-02
-3.901911682646641566e-09
-1.425766758620738983e-02
-3.263463079929351807e-02
2.844312414526939392e-02
8.951726369559764862e-03
4.864582326263189316e-03
2.785967476665973663e-02
2.259908057749271393e-02
-6.285500526428222656e-02
2.105674333870410919e-02
2.061702683568000793e-02
-2.952591143548488617e-02
5.507539957761764526e-03
2.079537510871887207e-02
-3.339008428156375885e-03
-1.233952771872282028e-02
-1.326272357255220413e-02
-4.328339546918869019e-02
8.196504786610603333e-04
8.049765229225158691e-02
-2.310873009264469147e-03
-1.151745673269033432e-02
2.284424193203449249e-02
5.737626552581787109e-02
-4.452079162001609802e-02
-2.863148041069507599e-02
2.194062061607837677e-02
4.624262824654579163e-02
4.971533548086881638e-03
1.560766156762838364e-02
1.866668835282325745e-02
-3.925183787941932678e-02
5.519977305084466934e-03
6.734086200594902039e-03
3.784268721938133240e-02
-1.834779977798461914e-02
-3.720724210143089294e-02
1.250864937901496887e-02
-5.168640241026878357e-02
1.667136442847549915e-03
-3.802463412284851074e-02
-2.258779481053352356e-02
1.074570929631590843e-03
1.700975000858306885e-02
-9.239495731890201569e-03
1.016010791063308716e-01
1.512194052338600159e-02
3.565074130892753601e-02
7.147165387868881226e-02
7.669444382190704346e-02
-4.604908078908920288e-02
1.428816374391317368e-02
3.156381100416183472e-02
-3.981366381049156189e-02
2.698944509029388428e-02
3.012299723923206329e-02
-1.707881689071655273e-01
-1.641559004783630371e-01
-1.863026805222034454e-02
2.793333679437637329e-02
4.172722995281219482e-02
-3.780181333422660828e-02
-2.515225205570459366e-03
1.858019828796386719e-02
-1.184797260300740618e-09
8.128998801112174988e-03
1.751148886978626251e-02
5.151152238249778748e-02
3.330649435520172119e-02
1.840930245816707611e-02
-7.525533903390169144e-03
-1.427287119440734386e-03
1.952734077349305153e-03
-1.935443095862865448e-02
8.429643698036670685e-03
3.955649584531784058e-02
-3.850917890667915344e-02
-2.819447219371795654e-02
-4.004166647791862488e-02
1.234028954058885574e-02
-3.929249569773674011e-02
3.150617331266403198e-02
-5.874240305274724960e-03
-1.341749876737594604e-01
-2.119659073650836945e-02
-2.178736217319965363e-02
3.614483866840600967e-03
6.915400922298431396e-02
1.402805093675851822e-02
-3.367687761783599854e-02
2.228157408535480499e-02
3.078314010053873062e-03
9.777246043086051941e-03
-6.740664131939411163e-03
-8.578211814165115356e-02
4.652212560176849365e-02
-6.593163311481475830e-02
2.924583666026592255e-02
2.003549784421920776e-02
-1.581818424165248871e-02
5.989645794034004211e-02
-1.067895791493356228e-03
5.653723608702421188e-03
3.050921857357025146e-02
1.833373121917247772e-02
-2.027752809226512909e-02
-1.323430705815553665e-02
4.151960462331771851e-02
5.027732695452868938e-04
-6.163741275668144226e-02
-1.230269763618707657e-02
8.574378490447998047e-02
-3.424178659915924072e-01
-1.415191125124692917e-02
7.255486398935317993e-02
5.265085026621818542e-02
-2.081441134214401245e-02
4.559812694787979126e-02
5.357012152671813965e-02
-3.243499621748924255e-02
7.089874148368835449e-02
2.339466846024151891e-05
1.922203414142131805e-02
5.852209869772195816e-03
3.127600252628326416e-02
-1.836003661155700684e-01
-3.389826044440269470e-02
-1.016384884715080261e-01
2.402813281676685619e-09
-1.395358797162771225e-02
1.075365766882896423e-02
-8.973916620016098022e-02
-1.563006825745105743e-02
2.639771066606044769e-02
6.231484189629554749e-02
8.283104747533798218e-02
-1.420147810131311417e-02
8.166719228029251099e-02
5.439645051956176758e-02
-6.478528957813978195e-03
8.329582214355468750e-02
-3.384492173790931702e-02
1.283262111246585846e-02
-3.477659821510314941e-02
-1.054819766432046890e-02
-1.324728876352310181e-01
-1.271154917776584625e-02
-1.202614977955818176e-02
4.202227294445037842e-02
-1.657270267605781555e-02
-7.236359175294637680e-03
5.785672739148139954e-02
-1.699312590062618256e-02
-1.876265555620193481e-02
1.225396897643804550e-02
-2.577657401561737061e-01
2.249360643327236176e-02
-3.017556108534336090e-02
1.716393530368804932e-01
4.942922666668891907e-02
1.257557272911071777e-01
-1.712460070848464966e-02
-1.590534299612045288e-02
-5.232764035463333130e-02
4.690428450703620911e-02
-1.509911753237247467e-02
-6.895316392183303833e-02
1.130406279116868973e-02
-7.572872936725616455e-02
-5.127061530947685242e-02
-8.034370094537734985e-02
-7.307204604148864746e-02
-2.954767830669879913e-02
3.143655881285667419e-02
-1.868192106485366821e-02
-8.759620785713195801e-02
-1.588765345513820648e-02
9.898249991238117218e-03
4.085334017872810364e-02
-1.338135637342929840e-02
-1.117324382066726685e-01
5.398455541580915451e-03
6.033732742071151733e-02
-1.789025962352752686e-02
3.320300311315804720e-04
4.564502090215682983e-02
4.717895016074180603e-02
-4.851244017481803894e-02
-9.460200672037899494e-04
-1.267373114824295044e-01
3.304143995046615601e-02
-1.251772493124008179e-01
1.817605799203647621e-08
-3.197267651557922363e-01
1.192470360547304153e-02
-5.923086404800415039e-02
1.041693519800901413e-02
5.307233426719903946e-03
-7.149785012006759644e-02
1.717944629490375519e-02
6.845779251307249069e-03
1.009400095790624619e-02
-5.705183371901512146e-02
1.870568096637725830e-02
2.718110941350460052e-02
3.797116130590438843e-02
-2.872345037758350372e-02
5.090299528092145920e-03
-4.084858670830726624e-02
-7.428685575723648071e-02
2.012051700148731470e-04
1.626034677028656006e-01
4.248540848493576050e-02
-2.341235429048538208e-02
-1.019888222217559814e-01
1.617079228162765503e-02
-1.566480100154876709e-02
1.737513206899166107e-02
4.402318038046360016e-03
-8.744957298040390015e-02
-1.106184720993041992e-01
1.617849804461002350e-02
1.039461642503738403e-01
-2.649845927953720093e-02
2.010516822338104248e-01
-3.665518015623092651e-02
2.151036635041236877e-03
1.836594939231872559e-02
-2.311503514647483826e-02
1.325560500845313072e-03
-1.859729178249835968e-02
2.629672363400459290e-02
-2.042557112872600555e-02
-8.361621759831905365e-03
-4.467782005667686462e-02
-4.564785584807395935e-02
-8.308891206979751587e-03
-9.738014079630374908e-03
4.287622869014739990e-03
-3.421787545084953308e-02
1.531668752431869507e-02
-6.244394183158874512e-02
-1.838715001940727234e-02
-1.184078380465507507e-01
2.341866679489612579e-02
-1.270180381834506989e-02
-7.421582192182540894e-02
1.549444645643234253e-01
-7.613139599561691284e-02
5.287124961614608765e-02
1.487783435732126236e-02
1.478736400604248047e-01
-1.243018880486488342e-01
3.113473020493984222e-02
-2.098426409065723419e-02
3.060912340879440308e-02
1.292473239544733588e-08
1.781317032873630524e-02
2.230000123381614685e-02
-3.482802584767341614e-02
9.464962035417556763e-02
-9.195543825626373291e-02
5.520467087626457214e-02
2.350179664790630341e-02
5.791436880826950073e-02
2.496647462248802185e-02
2.030375227332115173e-02
-2.927615307271480560e-02
3.088357858359813690e-02
-5.671855434775352478e-02
3.231902793049812317e-02
8.161419071257114410e-03
5.616226699203252792e-03
3.023676946759223938e-02
4.539017565548419952e-03
-4.454136639833450317e-02
-1.190916635096073151e-02
2.885294705629348755e-02
3.896895051002502441e-02
3.386863274499773979e-03
-7.841728627681732178e-02
-8.485455811023712158e-02
-4.279609397053718567e-02
-6.206673011183738708e-02
-2.489949110895395279e-04
3.009723033756017685e-03
-3.450116142630577087e-02
-2.425447292625904083e-02
9.412067383527755737e-02
2.943341620266437531e-02
-2.454972416162490845e-01
-6.240091752260923386e-03
3.056052327156066895e-02
7.611014693975448608e-02
1.084109395742416382e-01
4.526102542877197266e-02
-1.342089772224426270e-01
1.063527986407279968e-01
-1.057804375886917114e-01
4.182364419102668762e-02
-1.243524719029664993e-02
-2.691172435879707336e-02
-1.323840022087097168e-02
-1.396803408861160278e-01
9.545930474996566772e-02
-1.016755774617195129e-02
-3.066981583833694458e-02
1.447406727805855553e-08
-2.218015104915593838e-08
-1.534055521501542785e-10
1.468141519467280887e-08
-3.714385465869440850e-09
-3.296947070907663146e-08
-1.441805963509068533e-08
-1.741500099683435110e-08
-2.264933518514311572e-10
1.129781512787531028e-08
-2.192332360095861077e-08
3.876775345190708322e-09
-2.249612052196425793e-09
1.194942900184514656e-08
1.065430410562839825e-08
-5.659715185402092175e-08
-2.486293659842431225e-08
1.760697365682517557e-09
-1.348643774434776788e-08
-3.065284248648936227e-09
7.632815268721060420e-09
-4.975400358375736687e-08
-7.662783296780162345e-09
-1.027680696097377222e-08
1.380648151361185683e-09
-7.541001600941399374e-09
6.114019068803600021e-09
2.820630840005833306e-09
1.104531843765244048e-08
5.841585548616023971e-10
9.898108999095711624e-09
5.189581653297636876e-09
4.004458098449958925e-09
-3.732247844112634994e-09
1.998184728790874942e-09
2.408507393525383122e-09
-3.514961122164095286e-08
-1.078782729813099195e-09
-2.127873344193176308e-08
-5.871751973529626412e-09
-2.335349247317708432e-09
1.347048872446521273e-08
6.975672817155498251e-10
-1.716463060574824340e-08
-8.059362066603625863e-09
1.708817620738045662e-08
-5.148790194198227255e-08
-1.568236740467909840e-08
-8.627420444717870396e-10
-1.692791329332976602e-08
-1.628369616923919239e-08
-1.193187770809345238e-08
-4.617481508262244461e-09
2.880219618361934408e-09
1.079869882403272641e-08
-7.133652779600652138e-09
-4.484536741955480466e-09
2.537714927086653915e-08
8.955487906803227816e-09
-1.443185482230546768e-08
9.103754194939028821e-09
1.568996310652437387e-08
1.058195220338120635e-08
-1.241085101355565712e-08
3.747033327817916870e-02
9.508540853857994080e-03
3.774759359657764435e-03
-2.537153288722038269e-02
5.772151425480842590e-02
-4.025239124894142151e-02
-1.389134116470813751e-02
-4.790751636028289795e-02
1.232720073312520981e-02
1.749643236398696899e-01
-2.706091292202472687e-02
-2.054120786488056183e-02
-9.546292945742607117e-03
1.615378231178965507e-08
-8.141182363033294678e-03
4.470255691558122635e-03
3.503217175602912903e-02
-4.372686892747879028e-02
-8.277547545731067657e-03
-2.280660672113299370e-03
-1.530582830309867859e-02
-9.844754822552204132e-03
-1.894371956586837769e-02
3.213333338499069214e-02
-4.713626578450202942e-03
2.305510453879833221e-02
-9.513271972537040710e-03
-5.020018666982650757e-02
2.780663967132568359e-02
-8.852680213749408722e-03
1.464612316340208054e-02
9.286334738135337830e-03
3.148926421999931335e-02
3.481632471084594727e-02
-4.360012244433164597e-03
6.488322746008634567e-03
-6.589090824127197266e-02
6.322582811117172241e-02
6.849310547113418579e-02
-4.243156686425209045e-02
3.524027392268180847e-02
-1.938754878938198090e-02
2.707372047007083893e-02
3.604656457901000977e-02
-2.167811617255210876e-02
3.055302985012531281e-02
-4.267576150596141815e-03
-3.519582003355026245e-02
3.692176192998886108e-02
1.026812847703695297e-02
-1.102644018828868866e-02
9.551722556352615356e-02
3.395505715161561966e-03
-1.995137706398963928e-02
-5.937097594141960144e-02
-3.506499901413917542e-02
1.931883394718170166e-02
-3.436564933508634567e-03
1.256355736404657364e-02
3.422505035996437073e-02
-7.616494316607713699e-03
-2.467958442866802216e-02
5.590425431728363037e-02
2.277490496635437012e-02
1.386935636401176453e-02
-9.037220850586891174e-03
-1.670152135193347931e-02
-7.863200455904006958e-02
6.112254224717617035e-03
-3.766172751784324646e-02
3.628373891115188599e-02
5.765988677740097046e-02
1.652326621115207672e-02
-5.438001826405525208e-02
4.467985033988952637e-02
-2.554050460457801819e-02
7.342605292797088623e-02
-4.633817773935788864e-09
1.269700527191162109e-01
4.528031498193740845e-02
-7.933392189443111420e-03
6.128612533211708069e-02
-7.672691252082586288e-03
-9.381860494613647461e-03
-1.452176086604595184e-02
1.007954217493534088e-02
1.776054687798023224e-02
-1.234202552586793900e-02
-6.505285389721393585e-03
-9.063696116209030151e-02
-4.181802645325660706e-02
1.682616956532001495e-02
-4.914576932787895203e-02
-1.824464276432991028e-02
-9.414145350456237793e-02
-1.656024716794490814e-03
-1.542838066816329956e-01
-4.073418304324150085e-02
-4.938661120831966400e-03
8.760103373788297176e-04
-8.779247105121612549e-02
-7.891117781400680542e-02
-5.482171545736491680e-04
-2.580484747886657715e-02
-3.206521645188331604e-02
7.440495491027832031e-02
-6.788650527596473694e-03
-5.359673872590065002e-02
9.047835133969783783e-03
-1.015306785702705383e-01
4.631272330880165100e-02
9.460610337555408478e-03
-9.638928808271884918e-03
6.058731675148010254e-02
5.802959948778152466e-02
-2.357463911175727844e-02
5.850146524608135223e-03
8.676163852214813232e-02
-2.155697904527187347e-02
-8.265513181686401367e-02
2.071311697363853455e-02
-6.868534255772829056e-03
2.948443964123725891e-02
-6.010570563375949860e-03
-8.303917199373245239e-02
3.323107585310935974e-02
-1.095433998852968216e-02
2.599484287202358246e-02
3.101692162454128265e-02
3.310432657599449158e-02
1.826840639114379883e-02
9.715237654745578766e-03
1.343246269971132278e-02
1.442175917327404022e-02
-1.818662136793136597e-02
8.777104318141937256e-02
-3.198534995317459106e-02
5.951867625117301941e-02
-3.378353267908096313e-02
2.258339524269104004e-02
4.303827136754989624e-02
-1.443022856761899675e-08
-2.541614137589931488e-02
-2.845104634761810303e-01
1.690834015607833862e-02
6.278932094573974609e-03
3.416062518954277039e-02
-1.852895482443273067e-03
6.342078559100627899e-03
7.920047268271446228e-03
1.775755174458026886e-02
-7.473420700989663601e-04
-3.929808437824249268e-01
9.483794867992401123e-02
5.803619325160980225e-02
-9.651573747396469116e-02
-3.076153062283992767e-02
1.848399639129638672e-02
2.155762776965275407e-04
1.313224993646144867e-02
1.361827249638736248e-03
9.024371393024921417e-03
-8.622397668659687042e-03
1.176313590258359909e-02
9.701636433601379395e-02
-1.321412995457649231e-02
8.753546327352523804e-02
-4.643478617072105408e-02
-5.508757010102272034e-02
-2.844741940498352051e-02
2.834900282323360443e-02
-5.353431683033704758e-03
-2.216760441660881042e-02
1.483198720961809158e-02
4.076557606458663940e-02
-4.552966915071010590e-03
-8.997109718620777130e-03
-2.852092385292053223e-01
-2.402593614533543587e-03
3.085625171661376953e-02
-1.400084327906370163e-02
-1.987538784742355347e-01
-3.628457710146903992e-02
-2.724012173712253571e-02
-6.210898049175739288e-03
3.781470935791730881e-03
3.902114555239677429e-02
5.756391212344169617e-03
6.737221777439117432e-02
5.504217743873596191e-02
-5.232288315892219543e-02
-8.673308044672012329e-02
-1.686794124543666840e-02
5.712683312594890594e-03
8.649956434965133667e-03
7.196550071239471436e-02
4.330441355705261230e-02
-1.596268452703952789e-02
4.803602024912834167e-02
5.860925838351249695e-02
6.535762548446655273e-02
2.567385509610176086e-02
8.407856523990631104e-02
5.113924294710159302e-02
-1.373780833091586828e-04
1.725000942087717704e-08
-4.330253228545188904e-03
1.394927054643630981e-01
-5.176925333216786385e-05
2.974070422351360321e-02
5.267738923430442810e-02
4.458478465676307678e-02
1.296487599611282349e-01
1.760011352598667145e-02
8.819301426410675049e-02
9.423173964023590088e-03
7.502095401287078857e-02
1.628651469945907593e-02
5.886387452483177185e-02
1.125176921486854553e-01
5.352450162172317505e-02
6.821801513433456421e-02
4.684458021074533463e-03
-1.759444014169275761e-03
7.948572188615798950e-02
3.921861574053764343e-02
5.753009393811225891e-02
6.801832467317581177e-02
3.150584548711776733e-02
9.448734670877456665e-02
9.394627995789051056e-03
1.150299832224845886e-01
1.298718806356191635e-02
7.961259782314300537e-02
4.619336500763893127e-02
1.011818051338195801e-01
4.138854518532752991e-02
8.346573263406753540e-02
3.640471398830413818e-02
6.643319875001907349e-02
1.027643084526062012e-01
1.140318736433982849e-01
5.922024603933095932e-03
6.332571059465408325e-02
9.226938337087631226e-02
4.777597263455390930e-02
2.814008854329586029e-03
3.031802922487258911e-02
2.864925563335418701e-02
4.820860456675291061e-03
8.961106091737747192e-02
3.479837998747825623e-02
-3.161812946200370789e-02
3.143236413598060608e-02
8.966418355703353882e-02
1.179272532463073730e-01
-3.119882345199584961e-01
2.690417692065238953e-02
1.014255452901124954e-02
9.957236470654606819e-04
1.654341258108615875e-02
3.088184446096420288e-02
-2.345071919262409210e-02
-7.199314888566732407e-03
3.387512639164924622e-02
-1.952590346336364746e-01
4.308626428246498108e-02
5.176144652068614960e-03
-1.478739362210035324e-02
1.240883285014149351e-09
-4.963669180870056152e-02
8.626964688301086426e-02
-1.536701768636703491e-01
-1.494123786687850952e-01
-2.403847500681877136e-02
-2.268641069531440735e-02
3.285944089293479919e-02
-9.429901838302612305e-02
3.575733676552772522e-02
1.609408110380172729e-02
6.008731946349143982e-02
-8.875197172164916992e-02
4.479055758565664291e-03
3.312068432569503784e-02
7.160534150898456573e-03
9.384104982018470764e-03
-3.827378526329994202e-02
-6.546767894178628922e-03
-3.244052827358245850e-02
1.387617643922567368e-02
9.522668085992336273e-03
9.256603196263313293e-03
1.011629402637481689e-02
-9.341807104647159576e-03
-2.421195432543754578e-02
7.608017325401306152e-02
8.455545641481876373e-03
5.001280829310417175e-02
-1.789001631550490856e-03
6.571470946073532104e-02
2.662771753966808319e-02
2.138189971446990967e-02
4.890485666692256927e-03
3.695936128497123718e-02
1.762686856091022491e-02
1.007037088274955750e-01
-8.033454418182373047e-02
1.907752477563917637e-03
4.440262913703918457e-02
4.830752685666084290e-02
-1.163207963109016418e-01
-9.293209877796471119e-04
3.093176754191517830e-03
-7.358842063695192337e-03
2.656468562781810760e-02
-2.686247229576110840e-02
-1.617899164557456970e-02
6.234291195869445801e-02
6.427235901355743408e-02
7.605622708797454834e-02
7.163631170988082886e-02
-1.313429418951272964e-02
2.633333578705787659e-02
2.991752326488494873e-02
-3.907570987939834595e-02
-4.674486070871353149e-02
4.979923367500305176e-02
1.091439649462699890e-01
-1.521132420748472214e-02
-5.665622279047966003e-02
7.454080879688262939e-02
-4.659331403672695160e-03
4.467765241861343384e-02
-6.906351046609415789e-09
5.336391041055321693e-04
8.064325898885726929e-03
7.285948097705841064e-02
8.788719028234481812e-02
2.470408380031585693e-02
2.587837912142276764e-02
-8.736033737659454346e-02
1.835731863975524902e-01
-2.769310958683490753e-02
2.691474556922912598e-02
1.166393328458070755e-02
-9.584585204720497131e-03
9.154888242483139038e-02
-2.060229033231735229e-01
9.629195556044578552e-03
-1.109328959137201309e-02
-8.867885172367095947e-02
1.275722403079271317e-02
-6.342403590679168701e-02
-1.990384235978126526e-02
1.795466430485248566e-02
6.033933721482753754e-03
-1.026067808270454407e-01
8.778320252895355225e-02
4.863080754876136780e-02
1.254310645163059235e-02
-4.389820620417594910e-02
5.999839305877685547e-02
-3.681811736896634102e-03
-6.850063800811767578e-02
1.820242777466773987e-02
2.999396529048681259e-03
4.210648313164710999e-02
-8.148702234029769897e-02
6.264470284804701805e-04
-2.065941244363784790e-01
1.094006672501564026e-01
3.117168135941028595e-02
8.085206151008605957e-03
-1.450017541646957397e-01
-1.543848309665918350e-02
6.475682556629180908e-02
2.231793478131294250e-02
4.156792070716619492e-03
-4.479221627116203308e-02
2.881981804966926575e-02
-6.349237263202667236e-02
-6.248293071985244751e-02
-6.641973555088043213e-02
-1.922046840190887451e-01
1.521361991763114929e-02
2.195601351559162140e-02
1.951094344258308411e-02
-1.186411269009113312e-02
2.926775254309177399e-02
4.302506148815155029e-02
-7.407318800687789917e-02
3.085658326745033264e-02
1.141085699200630188e-01
3.057633712887763977e-02
2.777726575732231140e-02
-1.230286713689565659e-02
-7.793165743350982666e-02
-5.129759728106364491e-09
-5.828393157571554184e-03
5.261548608541488647e-02
2.891216985881328583e-02
-5.105020850896835327e-02
3.280005604028701782e-02
-1.681903935968875885e-02
-1.311417017132043839e-02
5.141970142722129822e-02
-4.766763374209403992e-02
-4.904178902506828308e-03
-1.021607220172882080e-01
-2.162080258131027222e-01
-4.110350832343101501e-02
2.042780444025993347e-02
5.282198078930377960e-03
8.711874397704377770e-05
-3.339212015271186829e-02
9.793618693947792053e-03
-7.663352787494659424e-02
-5.782049614936113358e-03
-5.799489561468362808e-03
9.007034823298454285e-04
-2.186813354492187500e-01
-9.377145022153854370e-02
1.093632075935602188e-02
4.178369790315628052e-02
-8.426242321729660034e-02
3.077394887804985046e-02
-1.305322535336017609e-02
-3.304009512066841125e-02
-2.640106715261936188e-02
-1.876160874962806702e-02
2.421979233622550964e-02
6.015487387776374817e-02
1.993461744859814644e-03
1.480316650122404099e-02
-2.129597030580043793e-02
-7.440952118486166000e-03
-5.302531272172927856e-02
3.497103601694107056e-02
9.647729247808456421e-02
1.732920110225677490e-01
4.568923264741897583e-03
4.189288243651390076e-03
8.197461068630218506e-02
8.014825172722339630e-03
1.265054047107696533e-01
-1.776988059282302856e-01
-8.805166184902191162e-02
-2.712770923972129822e-02
6.336566805839538574e-02
-8.276100270450115204e-03
-4.005325585603713989e-02
-1.841200701892375946e-02
-2.058199197053909302e-01
1.615638472139835358e-02
2.152306213974952698e-02
-1.854773843660950661e-03
-9.942034631967544556e-02
-1.784400828182697296e-02
3.936644643545150757e-02
1.316944882273674011e-02
-1.243584975600242615e-02
1.560199436312359467e-08
1.448865700513124466e-02
1.408006548881530762e-01
1.583967241458594799e-03
6.178908050060272217e-02
-5.520837008953094482e-02
-1.319663226604461670e-02
4.583264514803886414e-02
2.013768814504146576e-02
3.729566186666488647e-02
1.505448366515338421e-03
2.849407307803630829e-02
6.370349973440170288e-02
-1.280849426984786987e-02
-6.978568434715270996e-02
1.687333919107913971e-02
3.055437235161662102e-03
-6.071792542934417725e-02
-9.478587657213211060e-03
-2.953605353832244873e-02
-2.045186609029769897e-02
6.312111509032547474e-04
-5.930496379733085632e-03
-2.013706788420677185e-02
1.448462065309286118e-02
-2.834852598607540131e-02
7.290115952491760254e-02
-4.879812244325876236e-03
-1.469498313963413239e-02
-8.081809617578983307e-03
-8.492241613566875458e-03
5.383727699518203735e-02
6.144442595541477203e-03
4.717651382088661194e-02
-3.494364023208618164e-02
1.835152320563793182e-02
1.771762780845165253e-02
-6.688265502452850342e-02
8.329753577709197998e-02
3.279166668653488159e-02
-4.603025317192077637e-02
8.341286331415176392e-02
1.158701181411743164e-01
-4.731133580207824707e-03
-2.752755535766482353e-03
-5.035609379410743713e-02
-1.257422473281621933e-02
-1.139186173677444458e-01
-5.902895703911781311e-03
-4.157941415905952454e-02
1.712273620069026947e-02
2.046604081988334656e-02
1.287710014730691910e-02
1.769609116308856755e-05
1.543562300503253937e-02
1.537238247692584991e-03
-7.266281247138977051e-01
-6.136532127857208252e-02
1.100721862167119980e-02
-7.811004761606454849e-03
-1.323309075087308884e-02
-2.658359892666339874e-02
2.609191462397575378e-02
-6.202100217342376709e-02
4.108168916161503148e-09
1.630655117332935333e-02
-1.834118738770484924e-02
1.648187823593616486e-02
-8.205424994230270386e-03
5.364306271076202393e-02
4.048208706080913544e-03
-1.173004158772528172e-03
1.836989074945449829e-02
1.754689589142799377e-02
3.344454104080796242e-03
-6.267459690570831299e-02
-5.254465341567993164e-02
2.110570296645164490e-02
5.832150205969810486e-02
-1.196450926363468170e-02
1.876154541969299316e-02
1.976590417325496674e-02
-8.797097951173782349e-03
-2.994638495147228241e-02
-1.454895641654729843e-02
1.384070515632629395e-02
1.933354651555418968e-04
9.031921625137329102e-02
-1.324598956853151321e-02
3.951287642121315002e-02
-1.750381477177143097e-02
-3.557372465729713440e-02
1.167492195963859558e-02
2.671163901686668396e-02
-4.356138408184051514e-03
-9.907056577503681183e-03
-3.405698761343955994e-02
5.986436083912849426e-02
-6.199141219258308411e-02
2.587853185832500458e-02
1.417841389775276184e-02
2.499678172171115875e-02
3.205341473221778870e-02
2.140149101614952087e-02
1.351435575634241104e-02
-3.112240321934223175e-02
-6.699921190738677979e-02
2.963809110224246979e-02
-3.974048420786857605e-03
1.221376471221446991e-03
-6.147832144051790237e-03
-2.229703664779663086e-01
-1.616274565458297729e-01
-2.601527608931064606e-02
6.708762794733047485e-02
-1.687833853065967560e-02
2.439036034047603607e-02
6.754595786333084106e-03
-1.751734316349029541e-02
4.195735603570938110e-02
1.381424628198146820e-02
3.550729528069496155e-02
4.565375298261642456e-02
6.688007712364196777e-02
1.184925623238086700e-02
8.256549388170242310e-02
3.908284381031990051e-02
6.997630745172500610e-02
7.599918916412207182e-09
1.708137243986129761e-02
7.218942046165466309e-02
5.455911904573440552e-02
6.590459495782852173e-02
3.604730963706970215e-02
3.910817205905914307e-02
2.151008322834968567e-02
5.385866016149520874e-02
3.901552036404609680e-02
1.287857070565223694e-02
5.022944509983062744e-02
-3.960188850760459900e-02
4.705959931015968323e-02
5.923891812562942505e-02
2.195069380104541779e-02
5.528258532285690308e-02
9.448124095797538757e-03
3.256652038544416428e-03
2.588700503110885620e-02
-2.650394290685653687e-02
4.778267815709114075e-02
7.029180228710174561e-02
-6.440177559852600098e-02
-5.056865047663450241e-03
2.185246907174587250e-02
6.824027746915817261e-02
5.277143418788909912e-02
4.713085666298866272e-02
4.570335894823074341e-02
1.126352883875370026e-02
1.065624784678220749e-02
-3.205373510718345642e-02
3.546824306249618530e-02
1.557180471718311310e-02
6.331790983676910400e-02
7.658207416534423828e-02
6.691405177116394043e-02
3.998477011919021606e-03
5.043691396713256836e-02
7.312675565481185913e-02
3.049722127616405487e-02
9.538613259792327881e-03
2.744365669786930084e-02
8.263616473414003849e-04
6.352683156728744507e-02
3.076242469251155853e-02
5.548728257417678833e-02
2.212261594831943512e-02
6.129887327551841736e-02
5.442593991756439209e-02
-4.740744829177856445e-02
7.374858832918107510e-04
-5.148999858647584915e-03
3.716338425874710083e-02
-2.433172985911369324e-02
-8.968228101730346680e-02
-1.874101907014846802e-01
2.441191487014293671e-02
1.484070811420679092e-02
2.454704977571964264e-02
3.525047376751899719e-02
-8.705467917025089264e-03
-6.247016042470932007e-02
-2.074435512255945468e-09
2.113217487931251526e-02
4.166011884808540344e-02
1.889176294207572937e-02
-1.764520853757858276e-01
-2.163365110754966736e-02
2.430719695985317230e-02
-7.911517750471830368e-04
8.226024918258190155e-03
-5.240588448941707611e-03
3.421595320105552673e-02
-6.729529704898595810e-04
-6.381317228078842163e-02
-5.768557265400886536e-02
4.795387014746665955e-02
1.428140234202146530e-02
-7.127589080482721329e-03
2.089340984821319580e-02
-4.328756593167781830e-03
-1.459869090467691422e-02
4.964001104235649109e-02
5.843101069331169128e-03
5.322352517396211624e-03
-4.054892063140869141e-02
3.521689027547836304e-02
4.334986442700028419e-04
-7.777059799991548061e-04
-2.109973877668380737e-02
3.781707212328910828e-02
3.765496425330638885e-03
4.904405027627944946e-02
5.981721915304660797e-04
4.015051573514938354e-02
-1.058652922511100769e-01
1.802401617169380188e-02
2.166030555963516235e-02
-6.509480532258749008e-03
-1.145189106464385986e-01
-3.269204171374440193e-03
1.836901344358921051e-02
3.098786808550357819e-02
-1.222393438220024109e-01
-4.542697221040725708e-02
-1.019174419343471527e-02
4.391440190374851227e-03
-1.596558466553688049e-02
6.088842637836933136e-03
-8.408844470977783203e-02
-3.683592975139617920e-01
1.234759576618671417e-02
-7.743105292320251465e-03
-2.448957040905952454e-02
8.465372025966644287e-03
-2.019998617470264435e-02
-3.727111220359802246e-01
-1.896226662211120129e-03
8.086646348237991333e-02
1.839538849890232086e-02
1.756144128739833832e-02
1.811248064041137695e-02
8.142350614070892334e-02
-9.955485165119171143e-02
3.667363151907920837e-02
2.676184661686420441e-02
1.587028819471925090e-08
-7.512872107326984406e-03
-4.143772646784782410e-02
-1.302153244614601135e-02
1.292703766375780106e-02
-1.152556505985558033e-03
9.556739823892712593e-04
3.273934498429298401e-02
-1.415837462991476059e-02
8.287937194108963013e-02
1.239917520433664322e-02
-5.932286754250526428e-02
7.104139309376478195e-03
2.608618699014186859e-02
-1.592120379209518433e-01
-4.482973366975784302e-03
5.529927089810371399e-03
-1.020214781165122986e-01
1.155519485473632812e-02
1.000982802361249924e-02
5.022786557674407959e-02
-5.979663692414760590e-03
1.675575040280818939e-02
7.426525652408599854e-02
-1.954410597681999207e-02
-2.342338114976882935e-02
-4.982755705714225769e-02
-3.488347306847572327e-02
-4.116968065500259399e-02
1.813588663935661316e-02
2.870380505919456482e-02
1.768838614225387573e-02
-1.506724953651428223e-02
2.803260274231433868e-02
-3.691232502460479736e-01
1.640487089753150940e-02
-2.269075252115726471e-02
2.836645953357219696e-02
-1.394729912281036377e-01
-7.994225248694419861e-03
-1.190314590930938721e-01
-9.281948208808898926e-03
-2.097751758992671967e-02
1.023118570446968079e-02
9.833048097789287567e-03
-2.645793603733181953e-03
7.123806048184633255e-03
3.001059778034687042e-02
-2.778887981548905373e-03
6.962519139051437378e-02
1.437350176274776459e-02
1.429833658039569855e-02
1.256935764104127884e-02
5.245034699328243732e-04
-2.850316651165485382e-02
7.717146724462509155e-02
1.355609446763992310e-01
-2.960041165351867676e-01
3.650302439928054810e-02
7.647160440683364868e-02
-3.006272204220294952e-02
8.071385324001312256e-03
-7.209863513708114624e-03
-3.677508607506752014e-02
2.764603479477045767e-08
-2.163565345108509064e-02
1.147548388689756393e-02
6.102751009166240692e-03
-2.046811133623123169e-01
-1.195257306098937988e-01
-9.840477257966995239e-03
4.080124571919441223e-02
4.227468743920326233e-02
2.585063129663467407e-02
1.281525008380413055e-02
4.166657850146293640e-02
-1.133314520120620728e-02
-1.643973290920257568e-01
8.754489012062549591e-03
1.289843057747930288e-04
-1.570894569158554077e-02
5.039784125983715057e-03
-1.058804220519959927e-03
1.831542141735553741e-02
-9.731584042310714722e-02
7.999802473932504654e-04
2.393842674791812897e-02
8.433844894170761108e-02
-1.035687979310750961e-02
-8.603204041719436646e-04
5.001167207956314087e-02
-2.938268892467021942e-02
-7.312699221074581146e-03
3.108093515038490295e-03
1.810465008020401001e-02
-1.224954030476510525e-03
3.790231794118881226e-02
-1.301744878292083740e-01
-1.446017902344465256e-02
3.441500291228294373e-02
-8.071418851613998413e-02
-1.426395960152149200e-02
2.013387624174356461e-03
-9.881495498120784760e-03
-9.645155514590442181e-04
-3.532516583800315857e-02
6.398642808198928833e-02
2.228395827114582062e-02
5.540719255805015564e-03
3.324554860591888428e-02
-1.898956950753927231e-03
6.905407458543777466e-02
-2.773984372615814209e-01
6.090065836906433105e-02
-1.570016741752624512e-01
1.160689368844032288e-01
2.700813114643096924e-03
2.027978003025054932e-02
7.178472727537155151e-02
-6.785583682358264923e-03
9.439840912818908691e-02
-2.108488418161869049e-02
-3.603162243962287903e-02
7.074363064020872116e-03
1.460373997688293457e-01
-4.274338111281394958e-02
3.000324824824929237e-03
-3.215557429939508438e-03
-1.526171411470045314e-09
-5.385907366871833801e-02
-2.794521450996398926e-01
3.254344686865806580e-02
2.388666011393070221e-02
-7.613544166088104248e-02
2.312215510755777359e-03
-1.394148021936416626e-01
3.231441229581832886e-02
-1.208522245287895203e-01
-7.735569495707750320e-03
-7.144841551780700684e-02
1.457826942205429077e-01
-7.241377234458923340e-02
-2.556384801864624023e-01
1.129534561187028885e-02
-2.728662453591823578e-03
1.195426806807518005e-01
4.041844978928565979e-03
5.486892536282539368e-02
-2.225506678223609924e-02
-2.458087983541190624e-04
-8.702496066689491272e-03
1.363894641399383545e-01
2.789443917572498322e-02
-7.533340156078338623e-02
-3.354377746582031250e-01
6.629817187786102295e-02
7.911747321486473083e-03
2.075666561722755432e-02
2.802586182951927185e-02
3.169640153646469116e-02
1.983187161386013031e-03
-5.239989235997200012e-02
1.462401915341615677e-02
3.162579610943794250e-02
-1.952162235975265503e-01
2.182187698781490326e-02
6.148971989750862122e-02
4.055300354957580566e-02
-1.424117982387542725e-01
8.630699664354324341e-02
4.288523271679878235e-02
5.085055716335773468e-03
-1.010951958596706390e-02
3.373136743903160095e-02
-1.445820834487676620e-02
9.258975088596343994e-02
-3.013722039759159088e-02
5.517902970314025879e-02
-1.886240541934967041e-01
1.237650811672210693e-01
-5.953160114586353302e-03
3.236969932913780212e-02
-1.782098971307277679e-02
-6.947457045316696167e-02
2.231394127011299133e-02
5.779960751533508301e-02
1.180409570224583149e-03
-2.763682305812835693e-01
3.511058911681175232e-02
7.715541124343872070e-02
-7.799103856086730957e-03
-1.789411902427673340e-02
-5.139909386997487672e-09
2.582945162430405617e-03
-3.518794104456901550e-02
4.265782982110977173e-02
-2.423586845397949219e-01
-4.843068867921829224e-02
-1.474937517195940018e-02
8.667405694723129272e-02
-1.026448905467987061e-01
1.210842356085777283e-01
-1.856882683932781219e-02
-1.818983815610408783e-02
-1.009258627891540527e-01
3.339188918471336365e-02
1.733792759478092194e-02
-1.871903613209724426e-02
1.194335240870714188e-02
-9.391661733388900757e-02
1.811062335036695004e-03
2.596266102045774460e-03
-4.121969267725944519e-02
3.889549057930707932e-03
-2.382939914241433144e-03
2.084417268633842468e-03
-2.461070008575916290e-02
4.719496518373489380e-02
-4.712589830160140991e-02
1.167160738259553909e-02
4.548276774585247040e-03
2.478903904557228088e-02
5.676934868097305298e-02
-1.268433313816785812e-02
2.809628099203109741e-02
8.212628960609436035e-02
-9.999319911003112793e-03
-5.495425779372453690e-03
-4.593421891331672668e-02
-6.064073741436004639e-02
-2.083097957074642181e-02
-4.882636666297912598e-02
1.624044403433799744e-02
-2.743019163608551025e-01
9.879183769226074219e-02
-8.525837212800979614e-03
2.010238915681838989e-02
5.492398142814636230e-02
4.393618437461555004e-04
1.147658750414848328e-01
5.864609777927398682e-02
-8.227435871958732605e-03
3.674172982573509216e-02
-4.081598614646964052e-09
-1.623674528161700437e-08
6.788085649134245614e-09
2.159290701797544898e-08
-2.291405065690810261e-09
-2.211497296400466439e-08
9.077628426723549637e-09
-3.538718873485890981e-09
2.168254908951894322e-09
-6.021580567505679937e-09
-1.470914612333729110e-09
2.769633855592701366e-09
1.798594873037018260e-08
6.371569494234563535e-09
-2.354860129116786993e-08
-4.016104426796118787e-08
-1.031156271480426767e-09
1.417619355237320633e-08
-2.313382374552475085e-08
2.593647430160217482e-08
-6.322226631105820616e-10
4.021479149685092125e-09
-3.248631941232815734e-08
-6.539233599056615276e-09
-1.000580240884119121e-08
7.684227476545402169e-09
-7.028355675231523492e-10
1.486653822269090597e-08
2.468199333804932394e-08
8.875824519805064483e-09
8.295972936389617303e-11
8.363712389325428376e-09
2.484875638586458990e-09
5.067766650768135150e-09
2.392291342800945131e-08
5.667176061763257167e-09
3.123574732200040671e-09
1.292076490244653542e-08
-3.136287674010418414e-09
4.893393246163668664e-09
1.238652203028323129e-08
2.073718530226642542e-09
3.435504547510959128e-09
-1.963316975661655306e-08
-5.561031635181734600e-09
-1.787296977084906757e-09
-3.002883985914195364e-08
-1.479132816228911906e-08
2.762593265259738473e-09
-2.109753260981506173e-08
-9.568232428591727512e-09
-6.847900912987370248e-09
-1.327931720140895777e-08
4.209950790756700201e-11
3.376117163611525029e-09
2.147892530501849251e-08
-1.504125890505747520e-08
5.088379495532535657e-09
7.812771540827156969e-10
1.955536532705082209e-08
6.387955053810401296e-09
2.058995751674785879e-10
2.038926538716623327e-08
4.763680117036983575e-09
-5.271761212497949600e-03
1.600159145891666412e-02
-1.594006083905696869e-02
3.576048091053962708e-02
-1.902930438518524170e-02
-1.298215426504611969e-02
2.457500994205474854e-02
5.187599454075098038e-03
1.268663536757230759e-02
1.434703171253204346e-02
1.686952076852321625e-02
2.138020657002925873e-02
-7.844555377960205078e-02
-1.750146871870583709e-08
2.423548325896263123e-02
2.407255768775939941e-02
2.088033221662044525e-02
3.882050514221191406e-02
9.084879606962203979e-02
5.560645367950201035e-03
-2.811055630445480347e-02
1.360622816719114780e-03
-1.586998812854290009e-02
-1.751253148540854454e-03
-8.616985380649566650e-02
-1.522733569145202637e-01
-4.280361160635948181e-02
4.395672306418418884e-02
1.413148175925016403e-02
1.873975992202758789e-02
-3.857354819774627686e-02
9.443058632314205170e-03
-8.871673606336116791e-03
-2.554443199187517166e-03
1.942223869264125824e-02
2.703267149627208710e-03
-6.827123165130615234e-01
-6.583703681826591492e-03
3.456291928887367249e-02
-1.869480684399604797e-02
-7.733322679996490479e-03
2.227113395929336548e-02
3.051620535552501678e-02
1.197274494916200638e-02
2.268548682332038879e-02
-4.181974008679389954e-02
8.683956414461135864e-02
1.237017568200826645e-03
2.629580674692988396e-03
7.737062871456146240e-02
3.755310084670782089e-03
7.656018435955047607e-02
1.657870225608348846e-02
1.922437362372875214e-02
-1.853378303349018097e-02
-2.998482882976531982e-01
5.177299026399850845e-03
1.283611636608839035e-02
5.147563759237527847e-03
2.621298190206289291e-03
-1.647474318742752075e-01
-1.371629089117050171e-01
-1.867906562983989716e-02
5.804034322500228882e-02
-2.321657910943031311e-02
-5.110815633088350296e-03
-1.884401962161064148e-02
-7.648062705993652344e-02
-4.321002587676048279e-02
-4.238317161798477173e-02
4.549172148108482361e-02
6.892435252666473389e-02
-1.027099229395389557e-02
4.827538877725601196e-02
-6.816437840461730957e-02
-3.263877704739570618e-03
1.398442592471837997e-02
-9.027048442078466906e-09
2.105618081986904144e-02
-3.777696788311004639e-01
-4.157176241278648376e-02
-6.518224626779556274e-02
1.128477081656455994e-01
3.217009129002690315e-03
-5.901492014527320862e-02
5.689773336052894592e-02
-1.623356714844703674e-02
-2.675940096378326416e-02
1.075692325830459595e-01
-8.185876160860061646e-02
6.143282353878021240e-02
-3.777632117271423340e-02
-7.555382326245307922e-03
1.099700806662440300e-03
7.629548758268356323e-02
1.709296368062496185e-02
-2.548347413539886475e-02
5.432088673114776611e-02
-3.916582092642784119e-03
5.657522473484277725e-03
-2.120418101549148560e-02
-5.282836779952049255e-02
4.799922928214073181e-02
-4.490932822227478027e-01
9.846437722444534302e-02
-3.596749901771545410e-02
-7.237977813929319382e-03
-1.964006340131163597e-03
2.574214711785316467e-02
4.428670927882194519e-02
1.033864915370941162e-01
1.312709301710128784e-01
-1.396487466990947723e-02
1.353124808520078659e-02
-7.819803804159164429e-02
1.161565911024808884e-02
-1.440773345530033112e-02
-2.013611607253551483e-02
-6.716887652873992920e-02
-9.257114492356777191e-03
6.656431127339601517e-03
1.732052117586135864e-02
8.662852924317121506e-04
-2.871895022690296173e-02
3.107574209570884705e-02
3.222334384918212891e-02
1.054507028311491013e-02
2.080594003200531006e-02
-1.691137999296188354e-01
3.008084557950496674e-02
4.483509808778762817e-03
-3.487316071987152100e-01
-7.653107494115829468e-02
5.494798533618450165e-03
1.816505007445812225e-02
-3.646969795227050781e-02
-5.474679172039031982e-02
5.996234714984893799e-02
2.592885866761207581e-02
1.951793953776359558e-02
-2.411907352507114410e-02
-1.046564435114305525e-08
-5.483693443238735199e-03
1.578899472951889038e-02
-6.006989162415266037e-03
-2.587657421827316284e-02
5.064876750111579895e-02
2.730913087725639343e-02
-1.246964372694492340e-02
-7.494106143712997437e-02
-2.609636820852756500e-02
1.295115984976291656e-02
3.956849873065948486e-02
-7.186648249626159668e-02
1.358061796054244041e-03
1.606076583266258240e-02
-2.037054114043712616e-02
-2.123622689396142960e-03
-2.440377026796340942e-01
3.246512264013290405e-03
-2.183614112436771393e-02
2.369883656501770020e-02
-1.432004012167453766e-02
6.711788941174745560e-03
2.033251523971557617e-02
1.127580925822257996e-02
-9.576042741537094116e-02
4.972504451870918274e-02
-1.930367900058627129e-03
3.624444082379341125e-02
2.144297026097774506e-02
3.063433058559894562e-02
-7.614101283252239227e-03
1.232312340289354324e-02
4.694858193397521973e-02
-3.576460108160972595e-02
9.234408847987651825e-03
9.877781383693218231e-03
-4.567085579037666321e-02
-2.166202664375305176e-01
2.210829872637987137e-03
-1.058281213045120239e-02
-1.208037585020065308e-01
6.092206388711929321e-02
3.305063769221305847e-02
-9.304926730692386627e-03
6.965632084757089615e-03
4.456722177565097809e-03
2.640323247760534286e-03
4.145801439881324768e-02
4.120713844895362854e-02
1.708163693547248840e-02
-2.400914134170761827e-09
-8.672874862725166167e-09
1.537589944256012586e-09
2.184425440532322682e-08
-1.507064362193943907e-09
1.082995293444355411e-08
5.986394935320049626e-09
-1.350286282786328229e-08
-4.254518071178381433e-09
-1.628248824658840022e-08
2.376033592099702219e-08
-2.665741183349723542e-09
-4.712843004739397657e-09
1.370519076004939052e-08
5.586644036270627112e-09
5.761781274316035706e-09
-7.841377325235043827e-09
-9.149220936421897932e-09
8.790676631065252877e-09
3.231368594924788340e-08
1.466549903739178262e-08
-1.309132180438155046e-08
2.626587392029477996e-09
-2.478419913742868630e-09
1.444327413224755219e-08
3.132235582015141517e-10
4.824094457234195943e-09
-1.383434966584218273e-08
-5.874787878390463902e-10
2.043350022518097830e-08
-2.432485102232817553e-09
1.386787573665060336e-09
-1.757171852467820372e-09
1.591986453775007249e-08
7.763398812699051632e-09
-4.446739421126721936e-09
-5.137238900942975306e-08
2.461867598668732171e-09
4.527979768909062841e-09
1.908216873403034697e-08
-2.520036845865547548e-09
-6.680376696266421277e-09
5.428286709019403133e-09
-1.043547648293952079e-08
2.519857211780163198e-08
1.502148272436443222e-08
-3.058566022673403495e-08
1.452994613515556921e-08
1.425755247197457720e-08
-2.529285758612331847e-08
-6.310980071866367780e-10
-1.663881254998500481e-09
-8.439693388595514989e-09
-2.314948410742090346e-08
1.917615222168933542e-08
1.226700163670102484e-08
1.349034883801891738e-09
1.297084040174922848e-08
-1.634713142628640981e-09
2.008874133707649889e-08
3.273328497144234461e-09
-3.439627471735207109e-09
-6.193189960868039634e-09
-3.091812139643934643e-09
9.949953295290470123e-03
7.294866722077131271e-03
1.758641749620437622e-02
5.946407094597816467e-02
-4.446469619870185852e-02
6.116874516010284424e-02
4.276390373706817627e-02
1.276511419564485550e-02
-8.043207228183746338e-03
-7.781318854540586472e-03
2.840033359825611115e-02
3.954324871301651001e-03
-6.353649776428937912e-03
8.940078899399850343e-09
1.864614896476268768e-02
-5.238251760601997375e-02
1.465677563101053238e-02
2.164768800139427185e-02
4.893997311592102051e-02
-2.958415076136589050e-02
-1.797555014491081238e-02
-1.374766789376735687e-02
1.448294892907142639e-02
1.908501796424388885e-02
-7.826868444681167603e-02
1.324620004743337631e-02
-6.875392794609069824e-02
-2.617538906633853912e-03
-2.976021729409694672e-02
1.988842152059078217e-02
-2.350124530494213104e-02
-2.640791935846209526e-03
-8.943113684654235840e-02
-3.054812550544738770e-03
1.544875930994749069e-02
1.530067995190620422e-02
-6.833890080451965332e-02
-1.089157834649085999e-01
-1.386108063161373138e-02
-3.567359223961830139e-02
-5.363014340400695801e-02
2.058554813265800476e-02
5.035591777414083481e-03
-4.000787809491157532e-02
1.044587045907974243e-02
1.392137072980403900e-02
1.177441049367189407e-02
4.107103124260902405e-02
-1.381603768095374107e-03
-8.241954259574413300e-03
-4.079502820968627930e-02
-3.865096345543861389e-02
2.162183076143264771e-02
9.128892794251441956e-03
-7.123015355318784714e-03
-9.456963092088699341e-02
-1.089015882462263107e-02
2.464112767484039068e-04
2.603259310126304626e-02
9.601780329830944538e-04
-1.431308779865503311e-02
-1.688567921519279480e-02
-5.650658276863396168e-04
1.789604686200618744e-02
-1.645919978618621826e-01
6.674021948128938675e-03
-9.436349384486675262e-03
-3.603590726852416992e-01
1.011406444013118744e-02
2.013199590146541595e-02
2.536988258361816406e-02
-3.422733023762702942e-02
4.236094281077384949e-02
9.779344499111175537e-02
9.245877712965011597e-02
-5.066163092851638794e-02
3.070409409701824188e-02
1.056342568972468143e-08
2.737716957926750183e-02
5.992393940687179565e-02
-1.426616311073303223e-02
1.557627879083156586e-02
-6.761233787983655930e-03
-2.984879724681377411e-02
5.209587514400482178e-02
6.350000947713851929e-02
5.314345937222242355e-03
9.354007430374622345e-03
3.069609031081199646e-02
-1.729498654603958130e-01
-1.264401245862245560e-03
1.045984923839569092e-01
-1.363374479115009308e-02
-2.513153478503227234e-02
-7.209245115518569946e-02
1.209936104714870453e-02
-1.166401207447052002e-01
-2.683347277343273163e-02
-2.959184162318706512e-02
-2.796438522636890411e-02
-1.387452706694602966e-02
-7.208513561636209488e-03
-1.163281351327896118e-01
7.509773224592208862e-02
2.836039476096630096e-02
9.503189474344253540e-02
-1.444439589977264404e-02
-1.785365119576454163e-02
1.181893143802881241e-02
-1.875336654484272003e-02
-1.878379657864570618e-02
-1.686239093542098999e-01
-1.607175916433334351e-02
3.479935601353645325e-02
-1.976130157709121704e-02
-1.268222630023956299e-01
-3.882424160838127136e-02
2.971198223531246185e-02
1.867675967514514923e-02
2.182643488049507141e-02
3.303344547748565674e-02
4.363958258181810379e-03
-3.974855691194534302e-02
2.203803509473800659e-02
1.403609011322259903e-02
1.177381724119186401e-02
1.082350686192512512e-02
-1.943446509540081024e-02
-1.022847834974527359e-02
-2.008435688912868500e-02
4.009290039539337158e-02
7.256190478801727295e-02
7.884982042014598846e-03
5.031071603298187256e-02
2.398179844021797180e-02
-2.673206152394413948e-03
2.722214348614215851e-02
2.021884359419345856e-02
-1.059694215655326843e-01
3.288729116320610046e-02
-3.718342632055282593e-02
-2.103915086593133310e-08
-5.154136419296264648e-01
2.978013828396797180e-02
6.360089033842086792e-02
-3.799376264214515686e-02
4.311423376202583313e-02
3.696032613515853882e-02
1.445744652301073074e-02
-2.713381126523017883e-02
2.653472125530242920e-02
4.633992537856101990e-02
2.613223902881145477e-02
7.593721896409988403e-02
-2.118138130754232407e-03
-2.257451601326465607e-02
-1.801587641239166260e-02
2.244947943836450577e-03
1.100905053317546844e-02
-8.586946874856948853e-03
-3.252192586660385132e-02
1.212069392204284668e-02
3.395995125174522400e-02
7.111472636461257935e-02
-1.474606804549694061e-02
-6.226815748959779739e-03
3.098551370203495026e-02
2.375458367168903351e-02
-1.366088688373565674e-01
-3.226786851882934570e-01
2.875543758273124695e-02
2.948174253106117249e-02
-1.832933537662029266e-02
-5.168792605400085449e-02
5.550107732415199280e-02
6.101662665605545044e-02
-5.377406254410743713e-02
3.391808597370982170e-03
-3.031462430953979492e-02
4.546962678432464600e-02
-1.698702014982700348e-02
-4.073400795459747314e-02
3.373901592567563057e-03
-9.354483336210250854e-03
-7.338793575763702393e-02
5.954200401902198792e-03
6.803323980420827866e-03
-4.389404878020286560e-02
3.193597868084907532e-02
-4.508946090936660767e-02
2.201102226972579956e-01
3.758530691266059875e-02
6.084603071212768555e-02
9.429287165403366089e-03
-1.471242215484380722e-02
1.711236238479614258e-01
-4.430148005485534668e-02
-6.321644783020019531e-02
7.560724858194589615e-03
-1.615130528807640076e-02
-9.139574132859706879e-03
1.695300824940204620e-02
5.236612632870674133e-03
-2.448247559368610382e-02
-1.000113692134618759e-02
9.762672448232478928e-09
-1.427075825631618500e-02
-7.244585454463958740e-02
3.907203674316406250e-02
-8.374233730137348175e-03
1.854085735976696014e-02
1.883582212030887604e-02
-5.680835340172052383e-03
4.018817842006683350e-02
-2.640804275870323181e-03
6.958000361919403076e-03
-6.243941560387611389e-02
5.001474171876907349e-02
3.530474845319986343e-03
2.081237733364105225e-03
-1.481699408032000065e-03
-1.785472594201564789e-02
9.306494146585464478e-02
-5.797347053885459900e-03
7.640005648136138916e-02
-4.379983525723218918e-03
2.755320165306329727e-03
1.717852056026458740e-02
-5.294069647789001465e-02
-2.226644009351730347e-02
9.442306123673915863e-03
-3.264505183324217796e-03
4.547364637255668640e-02
-1.309061888605356216e-02
-1.312291482463479042e-03
1.064782124012708664e-02
5.720484536141157150e-03
5.918648093938827515e-03
2.991789765655994415e-02
1.013977676630020142e-01
-1.223391946405172348e-02
-4.541333392262458801e-02
-8.110832422971725464e-02
4.582080617547035217e-02
7.750037312507629395e-02
-3.115546703338623047e-02
1.153390482068061829e-02
-1.737826503813266754e-02
1.259294059127569199e-02
-4.295402206480503082e-03
5.525317043066024780e-02
-1.283979229629039764e-02
-1.677098125219345093e-02
-3.079777583479881287e-03
2.764918468892574310e-02
-3.758492181077599525e-03
-1.217809244990348816e-01
1.885436475276947021e-02
-3.429132327437400818e-02
1.019950583577156067e-02
-3.231322858482599258e-03
-1.014576181769371033e-01
1.142813730984926224e-02
3.950699418783187866e-02
1.767338253557682037e-02
-2.662157826125621796e-02
1.987065933644771576e-02
4.270772263407707214e-02
-1.046313438564538956e-02
1.689383033465219341e-08
5.875904485583305359e-02
6.622540205717086792e-02
-2.539191395044326782e-02
-1.033691922202706337e-03
7.460943609476089478e-02
-1.872339751571416855e-03
1.483433647081255913e-03
-7.699156412854790688e-05
2.868008613586425781e-02
-6.210869643837213516e-03
-1.379731018096208572e-02
-1.946929842233657837e-02
1.179265789687633514e-02
4.668508842587471008e-02
1.387006044387817383e-02
5.153217818588018417e-03
-3.391627594828605652e-02
8.022738038562238216e-04
-3.103045560419559479e-02
2.312487736344337463e-02
2.948768378701061010e-04
-1.322682667523622513e-02
2.556132897734642029e-02
8.850256353616714478e-02
-7.225402514450252056e-04
6.154963374137878418e-02
-3.800161357503384352e-04
-1.659600064158439636e-02
4.138846322894096375e-02
-1.900340989232063293e-02
-6.677679251879453659e-03
5.341964773833751678e-03
5.261889193207025528e-03
-2.229609340429306030e-02
5.299906805157661438e-02
3.515460714697837830e-02
7.257079705595970154e-03
4.043888673186302185e-02
-6.314654834568500519e-03
2.305037342011928558e-02
-4.819769784808158875e-02
7.346162572503089905e-03
7.416629698127508163e-03
-5.583768244832754135e-03
5.178647581487894058e-03
6.676724180579185486e-03
-3.838431555777788162e-03
-4.443541541695594788e-02
-1.885436847805976868e-02
1.231192518025636673e-02
-3.873111680150032043e-02
-2.505197562277317047e-02
8.141358941793441772e-02
4.975420609116554260e-02
1.573177054524421692e-02
3.970340266823768616e-02
-2.624146826565265656e-02
-2.306033484637737274e-02
-4.689187277108430862e-03
5.188447609543800354e-02
2.336997166275978088e-02
1.790242642164230347e-02
5.394280888140201569e-03
-6.369158089825077695e-09
-4.782129451632499695e-02
-1.460673520341515541e-03
3.042316064238548279e-02
-1.429891679435968399e-02
1.310638501308858395e-03
-5.737758800387382507e-02
-3.401916474103927612e-02
-2.282026596367359161e-02
-8.630259893834590912e-03
-4.560218192636966705e-03
2.208599820733070374e-02
1.110436022281646729e-02
6.621568463742733002e-03
-1.509339455515146255e-02
-1.166539639234542847e-02
1.713648810982704163e-02
-2.665259875357151031e-03
-3.039995208382606506e-03
-5.917777866125106812e-02
-5.278881266713142395e-02
7.610277272760868073e-03
2.670030109584331512e-02
-1.058122422546148300e-02
2.894460782408714294e-02
1.880606636404991150e-02
1.518645416945219040e-02
-5.812300741672515869e-02
-2.204573899507522583e-02
2.160029020160436630e-03
-4.977884888648986816e-02
1.383501887321472168e-01
-2.121319994330406189e-02
-3.510053828358650208e-02
1.508710626512765884e-02
1.418157294392585754e-02
9.686531499028205872e-03
-7.206920068711042404e-03
3.603119775652885437e-02
1.559663414955139160e-01
-1.099595893174409866e-02
-5.490865092724561691e-03
-3.352543339133262634e-02
-5.535841360688209534e-02
1.574145979247987270e-03
2.305023521184921265e-01
1.993989339098334312e-03
2.246358990669250488e-02
-1.755816116929054260e-02
3.977002203464508057e-02
-1.319232489913702011e-02
-1.000486612319946289e-01
-2.083484083414077759e-02
1.289838086813688278e-02
-1.119766086339950562e-01
2.195128984749317169e-02
-2.266669087111949921e-02
-1.682507805526256561e-02
1.061709132045507431e-02
3.334703156724572182e-03
-1.564754638820886612e-03
1.625699549913406372e-01
3.275081515312194824e-02
8.892518281936645508e-02
-6.342109060142320232e-09
-5.119999498128890991e-02
-1.956376945599913597e-03
9.067423641681671143e-02
3.166196495294570923e-02
-8.947106078267097473e-03
-2.489522658288478851e-02
2.128890529274940491e-02
1.299564959481358528e-03
2.427086466923356056e-03
-3.891083970665931702e-02
-9.103302145376801491e-04
-4.392449185252189636e-02
1.699446514248847961e-02
2.621336653828620911e-02
1.595563255250453949e-02
-2.205769997090101242e-03
1.587612628936767578e-01
5.825277883559465408e-03
-2.991729676723480225e-01
-3.209764370694756508e-03
4.638110473752021790e-02
-1.679123751819133759e-02
-1.784395799040794373e-02
4.416637495160102844e-02
-1.705158501863479614e-02
-6.192470900714397430e-03
1.922957599163055420e-01
-2.511963546276092529e-01
3.458634763956069946e-02
-2.893147170543670654e-01
-3.825742751359939575e-02
-3.137682974338531494e-01
-3.948142006993293762e-02
-1.833326095947995782e-04
-4.577978514134883881e-03
1.680743065662682056e-03
3.691357560455799103e-03
5.652078986167907715e-02
5.545948166400194168e-03
1.350732054561376572e-02
1.462320797145366669e-02
1.459650881588459015e-02
-1.018983963876962662e-02
6.701463367789983749e-03
-2.031220681965351105e-02
-2.631506137549877167e-02
2.667711488902568817e-02
1.290193200111389160e-02
2.265900075435638428e-01
-1.575446128845214844e-02
-2.574770152568817139e-01
2.525128796696662903e-02
6.644182372838258743e-03
2.575643733143806458e-02
-1.084229070693254471e-02
1.079248189926147461e-01
1.949556916952133179e-02
-1.403836607933044434e-01
2.073964290320873260e-02
-8.022610843181610107e-02
2.704846905544400215e-03
1.255751308053731918e-02
1.292058266699314117e-03
-3.357744304821608239e-09
3.196744620800018311e-02
5.505506414920091629e-03
-2.395088225603103638e-02
-5.662654439220204949e-05
-5.061986390501260757e-03
2.588828094303607941e-02
-1.167228445410728455e-02
-1.671098768711090088e-01
-1.530577614903450012e-02
4.283821582794189453e-02
-4.634439572691917419e-02
1.015278045088052750e-02
-4.476658068597316742e-03
-2.114675641059875488e-01
1.872700639069080353e-02
-1.076639723032712936e-02
1.187595352530479431e-02
8.191081695258617401e-03
-3.112551383674144745e-02
1.288232114166021347e-02
1.822515577077865601e-02
2.099976129829883575e-02
2.821178734302520752e-02
-4.041822999715805054e-02
-2.112869620323181152e-01
-2.213962934911251068e-02
-2.768781222403049469e-02
3.547607921063899994e-03
1.068524643778800964e-02
3.436775878071784973e-03
1.211064774543046951e-02
4.324322193861007690e-02
-1.148185576312243938e-03
-2.968787848949432373e-01
4.045568406581878662e-02
4.804094496648758650e-04
6.512247957289218903e-03
2.615075744688510895e-02
1.237490866333246231e-02
-3.112869560718536377e-01
2.160958712920546532e-03
1.109498552978038788e-03
1.040221285074949265e-02
7.022205274552106857e-03
-1.664528972469270229e-03
-1.897139940410852432e-03
3.572811558842658997e-02
-2.096329350024461746e-03
6.306268274784088135e-02
3.426290675997734070e-02
1.786288991570472717e-02
-3.225629404187202454e-02
2.877311408519744873e-02
2.422021515667438507e-02
1.101334299892187119e-02
2.672687731683254242e-02
-1.061364542692899704e-02
4.712855443358421326e-04
1.135466434061527252e-02
3.023613430559635162e-02
-6.530608981847763062e-02
-6.987190339714288712e-03
8.047979325056076050e-03
1.386094794497694238e-08
-5.283843874931335449e-01
6.357913371175527573e-03
1.102916058152914047e-02
-2.616983838379383087e-02
-2.130619250237941742e-02
3.646259382367134094e-02
2.316588163375854492e-02
1.112986542284488678e-02
1.968813687562942505e-02
-8.094332367181777954e-02
1.686873659491539001e-02
-7.688058912754058838e-02
-2.670847624540328979e-02
6.914108991622924805e-03
-5.000503268092870712e-03
4.110881593078374863e-03
5.387467518448829651e-02
9.472163394093513489e-03
1.793623417615890503e-01
2.230576053261756897e-02
2.934321761131286621e-02
3.206802532076835632e-02
6.852497812360525131e-03
4.777171462774276733e-02
-4.940714314579963684e-02
3.215603530406951904e-02
1.391625255346298218e-01
-2.943896353244781494e-01
9.645186364650726318e-03
-1.795664131641387939e-01
1.654782099649310112e-03
-8.146954327821731567e-02
3.633763641119003296e-02
1.069468166679143906e-02
-1.719534210860729218e-02
2.851451048627495766e-03
-1.977100782096385956e-02
-2.070071920752525330e-02
-1.763947866857051849e-02
-5.878590163774788380e-04
7.484462112188339233e-03
7.329111918807029724e-03
2.242136187851428986e-02
2.476713806390762329e-02
-1.712067797780036926e-02
-7.064054720103740692e-03
-3.387381508946418762e-02
6.650665774941444397e-03
8.417836390435695648e-03
3.303420497104525566e-03
-5.979835987091064453e-02
2.809339016675949097e-02
1.764201442711055279e-03
1.312467306852340698e-01
6.245454400777816772e-02
-3.535433113574981689e-02
-6.344850361347198486e-02
-5.401995182037353516e-01
-6.747446022927761078e-03
1.028706133365631104e-01
1.399305276572704315e-02
1.158238854259252548e-02
1.436426420696079731e-03
-3.308260110301830537e-09
1.195452176034450531e-03
4.669012501835823059e-02
-7.381785544566810131e-04
7.491616159677505493e-02
1.090330854058265686e-01
2.964127808809280396e-03
-1.643450409173965454e-01
-2.749024629592895508e-01
-1.889678537845611572e-01
1.017305813729763031e-02
3.229422494769096375e-02
2.484046109020709991e-02
-5.622209236025810242e-02
-8.378684520721435547e-03
-2.031442476436495781e-03
9.791544638574123383e-03
4.482119902968406677e-02
-8.254065178334712982e-03
2.054143138229846954e-02
1.783730275928974152e-02
-2.310603670775890350e-02
1.344858575612306595e-02
-3.276732936501502991e-02
1.346459090709686279e-01
-3.835490643978118896e-01
6.771363317966461182e-02
3.535867482423782349e-02
1.222312357276678085e-02
2.136414498090744019e-02
1.188523974269628525e-02
9.775220416486263275e-03
3.468710184097290039e-02
2.318450249731540680e-03
5.548343434929847717e-02
7.213085424154996872e-03
9.000273793935775757e-02
6.509040296077728271e-02
-6.338223814964294434e-02
8.718042634427547455e-03
-2.263838946819305420e-01
5.249092355370521545e-02
-9.290662407875061035e-02
-7.038155570626258850e-03
-2.001104177907109261e-03
2.144077420234680176e-02
-4.248042590916156769e-03
-3.104329481720924377e-02
-3.923109173774719238e-02
3.711137920618057251e-02
8.769900351762771606e-02
-2.867376897484064102e-03
2.181025408208370209e-02
1.789809763431549072e-02
4.820857197046279907e-02
-2.956670708954334259e-02
2.204089611768722534e-01
-1.376027017831802368e-01
7.661177369300276041e-05
-1.544022373855113983e-02
4.102820530533790588e-02
3.055272996425628662e-02
9.028851636685431004e-04
-5.371645465493202209e-02
-1.824062856314867531e-08
4.089878639206290245e-04
-1.047204956412315369e-01
1.339352224022150040e-02
-1.171561107039451599e-01
3.879203228279948235e-03
6.151627283543348312e-03
-6.548755336552858353e-03
-1.141504617407917976e-03
3.751636482775211334e-03
1.184111926704645157e-02
-1.330724656581878662e-01
-2.988558821380138397e-02
-3.091515786945819855e-02
-2.791886404156684875e-02
7.041370961815118790e-03
2.902952022850513458e-03
-3.680772706866264343e-02
7.909952662885189056e-03
4.259137436747550964e-02
-2.516039460897445679e-02
-3.102340921759605408e-02
-2.926241606473922729e-03
-1.655239611864089966e-01
4.981441050767898560e-02
2.373879961669445038e-02
-6.123806536197662354e-02
5.043443664908409119e-02
1.377953309565782547e-02
1.341202761977910995e-02
2.848079241812229156e-02
-2.312044799327850342e-02
-2.258238755166530609e-02
-1.747726947069168091e-01
3.576617315411567688e-02
2.028750814497470856e-02
-3.564364463090896606e-02
-2.639880403876304626e-02
2.765424363315105438e-02
-7.550477981567382812e-03
-2.124605327844619751e-02
-1.895520389080047607e-01
-2.187666594982147217e-01
2.224818989634513855e-02
2.787127392366528511e-03
2.999923191964626312e-02
2.685417421162128448e-03
-3.473921492695808411e-02
-2.254394115880131721e-03
5.413306131958961487e-02
-3.072806447744369507e-02
9.262320585548877716e-03
-4.046759381890296936e-02
2.126787044107913971e-02
6.781687587499618530e-02
-4.300894215703010559e-02
6.376519054174423218e-02
-9.759064763784408569e-02
4.857069253921508789e-02
1.761401258409023285e-02
8.838735520839691162e-02
-1.175670113298110664e-04
1.423509605228900909e-02
4.890390485525131226e-02
-1.237666680253823870e-08
4.463208466768264771e-02
-1.053362712264060974e-01
6.659822911024093628e-02
-2.356488816440105438e-02
3.141764700412750244e-01
-2.569614909589290619e-02
1.201186999678611755e-01
1.051667332649230957e-02
5.638365820050239563e-02
5.685114767402410507e-03
-9.497448801994323730e-02
5.096108466386795044e-02
-7.655161619186401367e-02
-1.461817473173141479e-01
2.783410809934139252e-02
-2.996029891073703766e-02
1.945637725293636322e-02
-2.064784988760948181e-03
7.653448730707168579e-02
3.893168866634368896e-01
-6.635633856058120728e-02
-5.665594339370727539e-02
1.083757057785987854e-01
4.719618707895278931e-02
-9.766562283039093018e-02
-1.307629346847534180e-01
9.943141788244247437e-02
3.350402414798736572e-02
2.176935411989688873e-02
-6.834517233073711395e-03
1.706564985215663910e-02
3.519868105649948120e-02
4.761511459946632385e-02
5.140867829322814941e-02
3.062819875776767731e-02
-2.766809798777103424e-02
1.367253530770540237e-02
-9.350699931383132935e-02
4.725768789649009705e-02
-1.470864117145538330e-01
-6.633776426315307617e-02
-5.717847123742103577e-02
-1.649137213826179504e-02
-1.472428161650896072e-02
5.078362300992012024e-02
2.441385202109813690e-02
-3.488163650035858154e-02
-1.316359788179397583e-01
2.929795347154140472e-02
1.790486276149749756e-01
9.336426109075546265e-02
4.393978416919708252e-02
3.180036321282386780e-03
-1.596197932958602905e-01
5.096723139286041260e-02
4.308192804455757141e-02
-4.355833679437637329e-02
2.423712797462940216e-02
6.023938581347465515e-02
-3.966971114277839661e-02
-3.223623335361480713e-02
-1.392042264342308044e-02
2.070639654994010925e-02
3.175764651253132342e-10
1.547953463159501553e-03
2.124829217791557312e-02
2.368653565645217896e-02
6.496251374483108521e-02
-3.999495133757591248e-02
3.864595293998718262e-02
4.236310347914695740e-02
-4.864228889346122742e-02
-5.878379195928573608e-02
1.552215218544006348e-02
5.125794932246208191e-02
1.132855191826820374e-02
-2.802207693457603455e-02
2.024742029607295990e-02
-6.902860105037689209e-02
2.013735845685005188e-02
-1.481653749942779541e-01
-2.712737070396542549e-03
2.108813636004924774e-02
-6.444450933486223221e-03
2.187670394778251648e-02
1.806326024234294891e-02
3.565475717186927795e-02
-2.221782505512237549e-01
-1.678395718336105347e-01
4.343529790639877319e-02
-8.067015558481216431e-03
-3.802157193422317505e-02
1.915402594022452831e-03
-3.713449463248252869e-02
1.532945316284894943e-02
5.286707077175378799e-03
-3.668135404586791992e-02
2.053724415600299835e-02
-7.662909571081399918e-03
5.419228225946426392e-02
7.218828797340393066e-02
-5.462772846221923828e-01
9.373994544148445129e-03
1.039543300867080688e-01
8.328562229871749878e-02
4.345260933041572571e-02
3.616617619991302490e-02
8.061575703322887421e-03
1.384290494024753571e-02
-8.456368930637836456e-03
6.962089333683252335e-03
-3.453738242387771606e-02
-8.789351582527160645e-02
-2.928574103862047195e-03
8.766388520598411560e-03
-2.896258234977722168e-02
2.234692685306072235e-03
-1.520602684468030930e-02
-2.840291708707809448e-02
-3.861941024661064148e-02
2.584386989474296570e-02
1.145547628402709961e-02
1.998972520232200623e-02
4.924435168504714966e-03
-1.737713664770126343e-01
3.223506361246109009e-02
7.685559242963790894e-02
-6.754289127997026299e-09
-6.122298538684844971e-02
-2.684895694255828857e-02
2.425735443830490112e-02
3.028723783791065216e-02
8.124700747430324554e-03
-8.716258406639099121e-02
3.689172863960266113e-02
1.232780329883098602e-02
4.011998698115348816e-02
4.676590207964181900e-03
-2.299154642969369888e-03
-2.290927339345216751e-03
-2.131805568933486938e-02
-1.870248652994632721e-02
-1.663199625909328461e-02
-3.928501904010772705e-02
-2.071938104927539825e-02
-1.199730765074491501e-02
-6.015593931078910828e-02
4.017538391053676605e-03
-4.262647777795791626e-02
8.245657384395599365e-02
7.065546512603759766e-02
5.054378136992454529e-02
4.090495873242616653e-03
-2.927285060286521912e-02
-7.786165177822113037e-02
6.257241219282150269e-02
1.002362184226512909e-02
-2.104042470455169678e-02
3.251272439956665039e-02
-2.860133722424507141e-02
4.866351932287216187e-02
-3.710543038323521614e-03
-1.514872256666421890e-02
-7.941275835037231445e-03
7.345122285187244415e-03
-7.147515658289194107e-03
6.941141933202743530e-02
1.211555954068899155e-02
3.244280442595481873e-02
5.129653215408325195e-02
-4.175556078553199768e-02
-2.899991348385810852e-02
3.019887953996658325e-02
-1.403178088366985321e-02
-9.143746644258499146e-02
2.222525700926780701e-02
1.521607488393783569e-02
-2.882723230868577957e-03
4.387561231851577759e-02
-4.928060807287693024e-03
-7.512789452448487282e-04
3.772255405783653259e-02
4.410015791654586792e-02
5.192519724369049072e-02
-2.921764273196458817e-03
-1.062786057591438293e-01
7.558770477771759033e-03
1.993918046355247498e-02
6.395379081368446350e-03
-1.061300095170736313e-02
9.819981642067432404e-03
-1.662293303006379119e-09
-9.660037234425544739e-03
1.168540306389331818e-02
-2.257556654512882233e-02
-4.307794570922851562e-02
-1.325708329677581787e-01
-1.051194965839385986e-02
-1.784268468618392944e-01
-5.996765568852424622e-02
-1.453313380479812622e-01
4.534002020955085754e-02
4.747621342539787292e-02
7.270429283380508423e-02
-8.932670950889587402e-02
2.808933518826961517e-02
-7.669500191695988178e-04
-1.443694904446601868e-02
5.420769378542900085e-02
-3.206166904419660568e-03
-8.549537509679794312e-02
-1.739917099475860596e-01
-5.953090265393257141e-02
-4.180006682872772217e-02
-2.586802467703819275e-02
-1.287977793253958225e-03
6.578559521585702896e-03
5.781935900449752808e-02
-1.268413513898849487e-01
3.434718027710914612e-02
2.551051089540123940e-03
4.589397832751274109e-02
1.328933332115411758e-02
2.439482137560844421e-02
-3.900928422808647156e-02
4.033905267715454102e-02
-1.405520271509885788e-02
-4.865086451172828674e-02
-3.399404510855674744e-02
7.448008656501770020e-02
3.061905130743980408e-02
9.260200895369052887e-03
4.301898553967475891e-02
5.998844280838966370e-02
-2.508979104459285736e-02
-5.698466207832098007e-03
-1.245315652340650558e-03
-8.288508281111717224e-03
2.825250104069709778e-02
2.065636403858661652e-02
3.989411890506744385e-02
-1.487423032522201538e-01
-8.492433279752731323e-02
-5.304548516869544983e-02
-1.405668444931507111e-02
7.680045068264007568e-02
4.722043499350547791e-02
2.745459787547588348e-02
3.787567839026451111e-02
5.543597415089607239e-02
6.521744281053543091e-02
-1.734855622053146362e-01
1.753702573478221893e-02
-4.115976020693778992e-02
4.339306801557540894e-02
-3.338811171982314363e-10
1.809244975447654724e-02
-1.376956701278686523e-02
-1.370869576930999756e-01
1.703838445246219635e-02
-9.584933519363403320e-03
-4.974602907896041870e-02
1.839352585375308990e-02
-1.018192917108535767e-01
2.065355144441127777e-02
-4.254223033785820007e-02
-7.302936911582946777e-02
3.881093114614486694e-03
1.297992002218961716e-02
-1.368997897952795029e-02
-2.831846289336681366e-02
-9.660618379712104797e-03
-1.068314071744680405e-03
-4.161554388701915741e-04
-4.968398809432983398e-02
-3.715962916612625122e-02
-3.537743166089057922e-02
-6.073111668229103088e-02
3.284199908375740051e-02
-9.021558612585067749e-02
9.818890690803527832e-02
-1.422784058377146721e-03
-4.675553739070892334e-02
6.518011447042226791e-03
-2.657487615942955017e-02
-7.624747604131698608e-02
9.361865930259227753e-03
-4.739851504564285278e-02
-3.518863348290324211e-03
4.254547134041786194e-02
-6.205995753407478333e-02
-5.180938541889190674e-02
-1.019852003082633018e-03
7.532808929681777954e-02
3.772934153676033020e-02
-2.941051311790943146e-02
5.018850415945053101e-02
-1.520046498626470566e-02
-3.482555737718939781e-03
-5.799880716949701309e-03
2.316523529589176178e-02
-4.703230783343315125e-02
3.200375661253929138e-02
1.838111132383346558e-02
-6.455080211162567139e-02
-5.611556395888328552e-02
9.230055846273899078e-03
-1.486177928745746613e-02
2.128856023773550987e-03
9.676125831902027130e-03
7.146865874528884888e-02
1.197778061032295227e-01
-4.059730172157287598e-01
5.472301505506038666e-03
1.143492236733436584e-01
-6.344579160213470459e-04
2.354546636343002319e-02
1.834035478532314301e-02
1.788180693984031677e-02
-1.170722452314976181e-08
-2.589450217783451080e-03
5.868577957153320312e-02
3.152876347303390503e-02
-2.811084035784006119e-03
-1.450920253992080688e-01
1.737361587584018707e-02
7.364467531442642212e-02
8.269071578979492188e-03
-2.659736666828393936e-03
-7.904641330242156982e-03
8.946918696165084839e-02
5.650850385427474976e-02
-3.594332337379455566e-01
2.327024377882480621e-02
9.295369498431682587e-03
-7.328807841986417770e-03
-1.574185304343700409e-02
-4.233572632074356079e-03
4.038040526211261749e-03
1.013613790273666382e-01
-4.868340678513050079e-03
-1.856823265552520752e-02
9.656482189893722534e-02
2.895338088274002075e-02
-1.242202669382095337e-01
3.598841279745101929e-02
4.663950577378273010e-02
1.537848875159397721e-04
2.054261788725852966e-02
-1.486495137214660645e-02
7.107363548129796982e-03
-1.438894867897033691e-02
-4.725927412509918213e-01
-1.298885792493820190e-03
5.246738437563180923e-03
3.954426385462284088e-03
5.848693847656250000e-02
-9.232059866189956665e-02
1.266923639923334122e-02
3.014223277568817139e-02
-3.509182017296552658e-03
-1.452258974313735962e-01
-1.080347690731287003e-03
4.860863555222749710e-03
-4.176728893071413040e-03
4.575224593281745911e-03
-9.727149456739425659e-02
-9.646316617727279663e-02
2.387095242738723755e-02
-8.762351237237453461e-03
4.100570455193519592e-02
-7.760737207718193531e-04
-2.407602779567241669e-02
1.820813864469528198e-02
-2.421170473098754883e-02
-9.638829156756401062e-03
3.764561936259269714e-02
-2.120302617549896240e-02
-6.034226622432470322e-03
3.290623798966407776e-02
1.089706458151340485e-02
-6.471613887697458267e-03
-2.046989090740680695e-02
7.029080872911208644e-09
-5.959667731076478958e-03
-5.269591137766838074e-02
1.048897765576839447e-02
4.810263961553573608e-02
-2.989542298018932343e-02
1.385096833109855652e-02
2.416614629328250885e-02
2.553278580307960510e-02
1.857934705913066864e-02
-1.224364526569843292e-02
7.898999378085136414e-03
1.994388177990913391e-02
-3.430592715740203857e-01
7.878893986344337463e-03
-1.095638796687126160e-02
3.301116637885570526e-03
2.048012986779212952e-02
-2.570722484961152077e-03
6.214432790875434875e-02
2.473418414592742920e-02
1.225479319691658020e-02
4.444936290383338928e-03
5.241511017084121704e-02
2.713511325418949127e-02
2.479211427271366119e-02
-1.355161517858505249e-01
1.493617310188710690e-04
-5.599503405392169952e-03
1.254730764776468277e-02
3.063245676457881927e-02
-2.520858682692050934e-02
-1.996295340359210968e-02
-8.914697915315628052e-02
-1.590866222977638245e-02
6.115692202001810074e-03
-2.874982077628374100e-03
-1.377849560230970383e-02
1.104627922177314758e-02
-2.310508117079734802e-02
-1.413162704557180405e-02
-9.284459799528121948e-02
-3.292009532451629639e-01
3.276939690113067627e-02
-1.003497373312711716e-02
7.285301107913255692e-04
-1.926498254761099815e-03
-4.298771917819976807e-01
5.015303939580917358e-02
-1.506851613521575928e-02
-2.223541028797626495e-02
-4.323884844779968262e-02
5.430730804800987244e-02
1.587068662047386169e-02
-1.505500078201293945e-02
1.438753097318112850e-03
-1.574659533798694611e-02
-4.012040421366691589e-02
3.274988010525703430e-02
2.707644598558545113e-03
6.879069376736879349e-03
-1.882711239159107208e-02
3.182172775268554688e-02
-9.992135688662528992e-03
5.244995548991937540e-09
-3.429532423615455627e-02
8.701276965439319611e-03
-1.268994249403476715e-02
1.257526595145463943e-02
-3.072882536798715591e-03
4.899493232369422913e-02
1.749060489237308502e-02
-1.743520051240921021e-02
2.300347900018095970e-03
-6.261412054300308228e-02
-5.110843479633331299e-02
-3.170988708734512329e-02
-3.103472106158733368e-02
-4.639945551753044128e-02
-5.222258158028125763e-03
-1.649196818470954895e-02
-2.322368090972304344e-03
7.305531762540340424e-03
-1.637646742165088654e-02
4.026773385703563690e-03
1.098428945988416672e-02
5.520991981029510498e-03
-3.510438278317451477e-02
1.667257770895957947e-02
-2.955236658453941345e-02
-3.061805386096239090e-03
-7.155428081750869751e-02
3.015734255313873291e-03
3.776276111602783203e-02
-4.906770586967468262e-02
-1.739075966179370880e-02
3.803376108407974243e-02
2.427565865218639374e-02
-8.842468261718750000e-02
2.940042130649089813e-02
-1.903361640870571136e-02
-1.151892822235822678e-02
1.536176912486553192e-02
-8.527143858373165131e-03
-2.204579859972000122e-02
-1.419499050825834274e-02
-2.165641449391841888e-02
-6.634414941072463989e-02
9.120753034949302673e-03
-1.572872698307037354e-02
4.332927521318197250e-03
7.356835063546895981e-03
-5.098322033882141113e-02
-7.548866420984268188e-02
-1.182784140110015869e-02
-7.427848130464553833e-02
4.232896864414215088e-02
-2.121929824352264404e-02
1.231375634670257568e-01
-9.900701791048049927e-02
8.363442867994308472e-02
-9.429481811821460724e-03
5.216569453477859497e-02
-8.830547332763671875e-02
4.650127142667770386e-02
3.229560703039169312e-02
7.436969131231307983e-02
1.013242732733488083e-02
1.003107374941691887e-08
1.308933049440383911e-01
-3.857348486781120300e-02
-7.097441703081130981e-02
-7.303700596094131470e-02
1.471353173255920410e-01
-1.921350695192813873e-02
1.335788220167160034e-01
-5.438448488712310791e-02
8.452074229717254639e-02
-1.502450406551361084e-01
-1.016016006469726562e-01
-1.583007425069808960e-01
-2.469654008746147156e-02
-8.919453620910644531e-02
3.419825062155723572e-02
-1.978789456188678741e-02
-2.314613433554768562e-03
3.596499562263488770e-02
1.139380633831024170e-01
1.614789217710494995e-01
-2.531519718468189240e-02
-1.497341971844434738e-02
8.109570294618606567e-02
6.320236623287200928e-02
-7.815017551183700562e-02
-1.123891845345497131e-01
2.614282965660095215e-01
8.500387519598007202e-02
9.600465744733810425e-02
-2.124088108539581299e-01
-5.220592021942138672e-02
-2.931725047528743744e-02
5.461122468113899231e-02
-2.646585553884506226e-02
8.397883176803588867e-02
4.282246902585029602e-02
-5.131556838750839233e-02
-3.710181266069412231e-02
-1.035709455609321594e-01
-9.887330234050750732e-02
-1.263762265443801880e-01
-2.902826480567455292e-02
4.715014994144439697e-02
5.687613412737846375e-02
-1.403394490480422974e-01
4.942598566412925720e-02
-8.986549824476242065e-02
-9.447306394577026367e-02
-2.477273195981979370e-01
1.460576504468917847e-01
5.264466255903244019e-02
-1.114896312355995178e-02
-4.957328783348202705e-04
6.017132848501205444e-02
-1.522015631198883057e-01
1.127338875085115433e-02
1.018094830214977264e-02
-4.536744952201843262e-02
-1.526962518692016602e-01
9.109557420015335083e-02
9.419212117791175842e-03
-1.300480123609304428e-02
1.186965778470039368e-02
-4.660908992093482084e-09
-2.137752808630466461e-02
-5.288869515061378479e-02
5.586113035678863525e-02
-4.766537749674171209e-04
5.626275390386581421e-02
1.883722841739654541e-02
-1.119997203350067139e-01
-1.488849818706512451e-01
-1.819127500057220459e-01
-2.156856702640652657e-03
1.430185791105031967e-02
4.454892873764038086e-02
3.992135077714920044e-02
-9.481462091207504272e-02
-3.862865641713142395e-02
9.992130100727081299e-03
-1.010011732578277588e-01
-4.126298706978559494e-03
7.081181555986404419e-02
-4.359935875982046127e-03
-2.359721250832080841e-02
1.220844103954732418e-03
5.176071450114250183e-02
-1.556842681020498276e-02
-2.585970163345336914e-01
1.525027398020029068e-02
4.015909507870674133e-02
2.366963401436805725e-02
-8.064585737884044647e-03
1.621711300686001778e-03
-1.568318717181682587e-02
-4.626096412539482117e-02
7.719741202890872955e-03
1.060662791132926941e-01
1.113884802907705307e-02
1.374069019220769405e-03
-2.040761150419712067e-02
-4.422430098056793213e-01
-4.218393005430698395e-03
-1.807303912937641144e-02
4.021585045848041773e-04
7.254671305418014526e-02
2.402840740978717804e-02
-1.030271500349044800e-02
1.498447358608245850e-02
-2.574123500380665064e-04
-1.193585619330406189e-02
-1.795392856001853943e-02
2.979714050889015198e-02
-4.791980609297752380e-03
1.095459833741188049e-01
1.070602331310510635e-02
-2.890104241669178009e-02
3.606227412819862366e-02
1.106691919267177582e-02
-5.226281285285949707e-02
-8.741170167922973633e-02
3.448250517249107361e-02
-5.328609049320220947e-02
1.285956650972366333e-01
-6.040674820542335510e-02
-1.737330481410026550e-02
3.597219660878181458e-02
1.727406839791001403e-08
2.805660478770732880e-03
-1.163777932524681091e-01
3.451996669173240662e-02
9.691528044641017914e-03
3.025620244443416595e-03
1.808849163353443146e-02
3.727741306647658348e-03
1.624307036399841309e-02
-3.211395069956779480e-02
7.993515580892562866e-03
-2.715843617916107178e-01
4.405270889401435852e-02
7.368467282503843307e-03
-1.438561081886291504e-01
3.783323569223284721e-03
-1.440021093003451824e-03
7.416934520006179810e-02
5.253085400909185410e-03
-3.129369765520095825e-02
-3.622828796505928040e-02
-1.169817335903644562e-02
1.060365978628396988e-02
-1.176472101360559464e-02
-1.424369066953659058e-01
3.512899577617645264e-02
-2.153607010841369629e-01
-1.729843020439147949e-02
5.035434733144938946e-04
-3.403475740924477577e-03
-1.874160207808017731e-02
4.794764798134565353e-03
8.138852566480636597e-02
-4.473469033837318420e-02
-1.123450919985771179e-01
-1.055329199880361557e-02
-3.799327835440635681e-02
-2.666932763531804085e-03
-4.013893380761146545e-02
-8.645596913993358612e-03
-5.503670126199722290e-02
2.970354631543159485e-02
-1.529403477907180786e-01
2.662538923323154449e-02
-7.097338791936635971e-03
-2.635321021080017090e-02
6.528621539473533630e-03
4.192317277193069458e-02
-1.313204467296600342e-01
-4.464684799313545227e-02
5.816798191517591476e-03
8.415185660123825073e-02
-5.818552337586879730e-03
-4.384056665003299713e-03
-1.172052547335624695e-01
4.015034064650535583e-02
6.020553992129862309e-04
-9.885110193863511086e-04
8.588372170925140381e-02
-1.655736193060874939e-02
1.394813060760498047e-01
-6.255954504013061523e-02
-4.642938729375600815e-03
-2.592924050986766815e-02
1.525598314344733808e-08
1.100687310099601746e-02
-1.929036714136600494e-02
4.547008499503135681e-02
6.379534490406513214e-03
9.175439365208148956e-03
-3.477793931961059570e-02
-5.683010444045066833e-02
2.151928469538688660e-02
-2.867481298744678497e-02
-9.501500986516475677e-03
2.318544499576091766e-02
-4.971552640199661255e-03
4.181624203920364380e-02
-5.943131446838378906e-02
2.069748565554618835e-02
-3.235203772783279419e-02
-6.431232392787933350e-02
9.336455725133419037e-03
-1.040970161557197571e-02
1.601658947765827179e-02
1.927419216372072697e-03
1.631325343623757362e-03
-1.361373532563447952e-02
8.288422971963882446e-02
-4.141094535589218140e-02
-6.982550024986267090e-02
4.738045856356620789e-03
-2.915971353650093079e-02
1.017530914396047592e-02
1.591981202363967896e-02
1.618961221538484097e-03
-1.824265904724597931e-02
5.799075588583946228e-02
-5.335785821080207825e-02
1.419356279075145721e-02
-3.811606671661138535e-03
3.448694944381713867e-02
-1.881857984699308872e-03
-4.924914799630641937e-03
6.050431728363037109e-02
-4.579463228583335876e-02
-3.915702551603317261e-02
-6.062869913876056671e-03
-1.029986143112182617e-02
4.043234512209892273e-02
1.818221621215343475e-02
1.694122515618801117e-02
-2.942657284438610077e-02
-1.074794121086597443e-02
-1.877264305949211121e-02
-1.243997663259506226e-01
7.903716526925563812e-03
-3.492502029985189438e-03
1.040963083505630493e-01
-2.196717448532581329e-02
2.988985925912857056e-02
5.970987305045127869e-02
4.191424325108528137e-02
9.600591845810413361e-03
-5.065063238143920898e-01
-1.185260899364948273e-02
5.512741860002279282e-03
2.417945489287376404e-02
-9.819496327168053540e-09
1.214854791760444641e-02
8.196973241865634918e-03
-6.846564263105392456e-02
-4.594363272190093994e-03
2.308565750718116760e-02
1.285714562982320786e-02
7.279305905103683472e-02
-2.718635462224483490e-02
-2.015475620282813907e-04
-4.171935375779867172e-03
-4.830210283398628235e-02
5.957360565662384033e-02
7.099664956331253052e-02
-4.685518518090248108e-02
-5.239368882030248642e-03
1.522568054497241974e-02
-2.573447488248348236e-02
8.022611145861446857e-04
7.103078998625278473e-03
1.880453340709209442e-02
2.030986361205577850e-03
1.075355708599090576e-02
3.412108123302459717e-02
-3.597230017185211182e-01
-1.935242302715778351e-02
-1.887096464633941650e-02
-2.952823974192142487e-02
3.518527839332818985e-03
2.817585878074169159e-02
-1.116132084280252457e-02
6.652124691754579544e-03
3.896655142307281494e-02
4.568608850240707397e-02
-6.482175551354885101e-03
4.024228453636169434e-02
2.777425979729741812e-04
-2.367625199258327484e-02
-2.161041051149368286e-01
2.383920922875404358e-02
-4.708816483616828918e-02
-2.944554015994071960e-02
2.394217066466808319e-02
-1.127772964537143707e-02
1.197482459247112274e-02
-3.515886492095887661e-04
-1.415671687573194504e-02
2.485495805740356445e-02
1.828497089445590973e-02
-6.238212808966636658e-03
-1.795667596161365509e-02
-3.586769104003906250e-02
4.493847489356994629e-02
-1.603891700506210327e-02
-3.769058361649513245e-02
-1.748751290142536163e-02
2.104204893112182617e-02
2.285560593008995056e-02
-2.010789467021822929e-04
-3.885164042003452778e-04
-2.580864354968070984e-02
-1.302048005163669586e-02
5.861683189868927002e-02
1.507729850709438324e-02
5.820010251511575916e-09
9.033545851707458496e-03
7.517199497669935226e-03
-1.268240436911582947e-02
1.196409855037927628e-02
-2.156749181449413300e-02
-1.460075192153453827e-02
1.234159711748361588e-02
-1.856105960905551910e-02
2.997784176841378212e-03
8.174953982234001160e-03
2.441694959998130798e-02
3.298650681972503662e-02
1.397969480603933334e-02
-7.603443227708339691e-03
1.391872670501470566e-02
1.847680471837520599e-02
-5.166624113917350769e-02
8.580754511058330536e-03
1.101529970765113831e-02
3.404494607821106911e-03
4.434936493635177612e-02
-2.119369804859161377e-03
7.547251880168914795e-02
-1.353470142930746078e-02
-3.560116514563560486e-02
8.513720240443944931e-04
-1.138002844527363777e-03
7.373713888227939606e-03
6.220566108822822571e-02
-1.532733440399169922e-02
-5.287484731525182724e-03
5.330163612961769104e-02
3.618340194225311279e-02
-4.747234284877777100e-02
8.848048746585845947e-02
5.237726494669914246e-03
-1.710648275911808014e-02
-6.555529683828353882e-02
1.136181689798831940e-02
-4.026588797569274902e-02
3.264482319355010986e-02
8.383537828922271729e-02
5.863660946488380432e-03
1.851540245115756989e-02
-6.562042981386184692e-03
4.115031659603118896e-02
5.228374153375625610e-02
2.000571228563785553e-02
-4.024950321763753891e-03
-2.781076543033123016e-02
9.247749298810958862e-02
-4.918161034584045410e-02
2.471680287271738052e-03
6.158988550305366516e-02
1.957882009446620941e-02
3.400670737028121948e-02
-1.086927484720945358e-02
-1.491923443973064423e-02
5.020280927419662476e-02
1.938295178115367889e-02
-3.224532306194305420e-01
-1.160385739058256149e-02
-1.777613759040832520e-01
2.219677774917272473e-09
3.678965196013450623e-02
1.303503196686506271e-02
-3.596628010272979736e-01
1.614553108811378479e-02
-1.441306155174970627e-02
-2.093800716102123260e-02
-3.159400448203086853e-02
-1.247001346200704575e-02
1.522547099739313126e-02
-8.492878638207912445e-03
8.755650371313095093e-03
2.561552636325359344e-02
2.569106407463550568e-02
1.003703102469444275e-01
-2.545485505834221840e-03
3.124333359301090240e-02
-2.678065001964569092e-01
-9.442162699997425079e-03
2.419775426387786865e-01
-3.037602454423904419e-02
6.384610384702682495e-02
-5.081386864185333252e-02
3.615675866603851318e-02
2.824459038674831390e-02
-1.432901900261640549e-02
8.875167369842529297e-02
-3.553872704505920410e-01
1.060327216982841492e-01
-5.098836869001388550e-02
2.785654067993164062e-01
7.198883220553398132e-03
1.649449765682220459e-01
5.772552452981472015e-03
-4.626929014921188354e-02
-2.101776003837585449e-02
-4.167166352272033691e-02
-3.490563854575157166e-02
2.371658571064472198e-02
-3.012250736355781555e-02
9.004655294120311737e-03
4.651510342955589294e-02
-5.566088110208511353e-02
-3.016525134444236755e-02
-1.534410566091537476e-02
-1.163179706782102585e-02
1.194326486438512802e-02
-8.115280419588088989e-02
2.640184201300144196e-02
-2.605283260345458984e-01
-3.875777870416641235e-02
-1.028909999877214432e-02
2.603213861584663391e-02
6.791775673627853394e-02
2.046547457575798035e-02
7.071215193718671799e-03
-1.097884774208068848e-02
7.830167189240455627e-03
-2.766818553209304810e-02
8.231736719608306885e-03
2.879964187741279602e-03
4.733889549970626831e-02
2.078223973512649536e-02
-2.424371987581253052e-02
-3.067604614770402804e-09
5.278744548559188843e-02
1.420596707612276077e-02
-4.028120636940002441e-02
1.860480871982872486e-03
-1.429087948054075241e-02
-4.188289493322372437e-02
1.353029254823923111e-02
3.403219627216458321e-03
-2.332076616585254669e-02
-8.883391506969928741e-03
1.066658063791692257e-03
-9.550414979457855225e-03
8.219531155191361904e-04
1.954299863427877426e-03
-6.227685604244470596e-03
2.397518977522850037e-02
3.204900398850440979e-02
2.504100324586033821e-03
-7.272379845380783081e-02
4.896449390798807144e-03
7.936165481805801392e-02
1.427337154746055603e-02
-1.082489325199276209e-04
-1.749428920447826385e-02
-3.202567342668771744e-03
-1.007636543363332748e-02
-8.209438621997833252e-02
8.213509805500507355e-03
9.535738267004489899e-03
-3.566632792353630066e-02
1.567524373531341553e-01
4.112373106181621552e-03
3.314058482646942139e-02
-1.802406273782253265e-02
1.546457689255475998e-02
1.403884380124509335e-03
5.247969646006822586e-03
-1.224650442600250244e-02
2.849521338939666748e-01
-1.209388114511966705e-02
2.230629883706569672e-02
1.241348683834075928e-02
-2.194883674383163452e-02
2.045337168965488672e-04
2.380027621984481812e-01
7.440471090376377106e-04
5.911267944611608982e-04
9.547153022140264511e-04
1.783356256783008575e-02
1.712919585406780243e-02
-3.986411541700363159e-02
-8.445849269628524780e-02
-1.886124722659587860e-03
-3.960822150111198425e-02
-1.354044117033481598e-02
-3.140350803732872009e-03
-4.383822437375783920e-03
4.747693985700607300e-02
-4.743642057292163372e-04
-5.030339583754539490e-02
-1.969950087368488312e-02
5.671046674251556396e-03
4.855169449001550674e-03
-9.743239104409440188e-09
2.887797169387340546e-02
-1.854271627962589264e-02
-1.688762381672859192e-02
-4.010841622948646545e-02
-2.115049399435520172e-02
-2.713530510663986206e-02
2.705198712646961212e-02
-9.716720320284366608e-03
1.202429737895727158e-02
1.723216474056243896e-02
-5.113210529088973999e-03
-1.246657967567443848e-02
4.168070480227470398e-02
-3.195724636316299438e-02
-1.926507428288459778e-02
-1.765435934066772461e-02
-2.445448003709316254e-02
-8.153075352311134338e-03
-2.409321218729019165e-01
3.703741589561104774e-03
-1.514423731714487076e-02
-8.663635700941085815e-02
-1.183122047223150730e-03
-5.239436402916908264e-02
2.107269130647182465e-03
-3.292182087898254395e-02
-7.892936468124389648e-02
2.802196890115737915e-03
1.137817278504371643e-02
-5.113030970096588135e-02
1.344897132366895676e-02
-4.494578391313552856e-02
-2.098901383578777313e-02
-5.136023089289665222e-02
-2.517145313322544098e-02
-3.346688672900199890e-02
-5.185046419501304626e-02
-4.719981551170349121e-02
1.216527912765741348e-02
-1.247633947059512138e-03
-2.361169271171092987e-02
1.940360665321350098e-02
-6.292881909757852554e-03
1.143807359039783478e-02
-5.619490984827280045e-03
-1.536392257548868656e-03
-2.580465376377105713e-02
8.009542711079120636e-03
-1.049171667546033859e-02
-3.292625024914741516e-02
-1.022261031380367058e-08
-2.976969781798288750e-09
-6.983489342360371666e-09
2.281608324494754925e-08
1.591661386024512126e-10
1.107464342453567951e-08
2.711852964409899869e-08
-1.129582560821518200e-08
-2.322817355127071437e-10
1.153076834015109853e-08
-1.451759334969437987e-08
9.300700654080173990e-09
1.328736454198065076e-09
1.233265045641473989e-08
-1.632607293799992476e-08
-2.393839793057850329e-08
2.299310253306430241e-08
-2.034219459545738573e-09
-2.590130332436046956e-09
7.205466223680900839e-10
-3.747825605415755490e-09
-3.330195497142085514e-08
-3.498425016346118355e-08
-4.361321970236531342e-09
1.084446843435671326e-08
-3.895067379744432401e-09
2.044450830851474166e-09
-1.249809145065228222e-08
9.628984720677635778e-09
2.940213583713102707e-08
-3.859784936111054776e-09
1.073843858279133201e-08
-2.970987900141608407e-09
1.802944282758289773e-08
2.049592673358802131e-08
9.890182894878307707e-09
-2.302266111087192257e-08
-4.600036351831704451e-09
8.025607733941342303e-09
1.042070785217674711e-08
6.511840844325433864e-09
-9.928324828933909885e-09
-4.387847862830085433e-09
2.614767256881034285e-11
-1.485247391741495449e-08
5.521143542353001976e-09
-3.786349367373986752e-08
-1.635347746109516720e-09
2.045696767538629501e-08
-6.459461854291248528e-09
-2.335047000201484479e-08
-4.262163399992857649e-10
-2.064256321432367258e-08
-1.012490269403087950e-08
-9.295070269033089971e-10
-1.045635023011470821e-09
4.584450152833596803e-09
2.729125725409176084e-08
2.730709169895817467e-08
5.925122059657894624e-10
-1.091405010811286047e-08
-1.305820340746777219e-08
8.554118302583901823e-09
2.128984633031905105e-08
-6.734445691108703613e-02
2.527314797043800354e-02
-8.215462788939476013e-03
-2.330685220658779144e-02
-3.042597174644470215e-01
-5.204389616847038269e-02
1.321680098772048950e-01
2.845412679016590118e-02
-8.091215044260025024e-02
4.803607985377311707e-02
3.043550997972488403e-02
4.168748855590820312e-02
-1.056154025718569756e-03
-6.507479888284706249e-09
9.737386368215084076e-03
-1.393070518970489502e-01
-5.932122841477394104e-02
-1.560296118259429932e-01
1.598317921161651611e-02
1.383661199361085892e-02
3.214018791913986206e-02
-1.593334414064884186e-02
5.721027404069900513e-02
-2.457954687997698784e-03
-3.043881990015506744e-02
-1.743769086897373199e-02
2.406501770019531250e-02
-1.463758852332830429e-02
4.653087235055863857e-04
1.330183469690382481e-03
5.464257672429084778e-02
4.567708238027989864e-04
-3.145742416381835938e-02
-9.897121042013168335e-02
-1.392126455903053284e-02
3.714099060744047165e-03
-2.328969910740852356e-02
-5.300938617438077927e-03
4.819310456514358521e-02
-2.218480594456195831e-02
-2.997129969298839569e-02
3.815186023712158203e-02
4.545930773019790649e-03
8.356089144945144653e-02
1.638641394674777985e-02
5.151056125760078430e-02
2.137475088238716125e-02
-7.046323735266923904e-04
7.973783649504184723e-03
-7.743671536445617676e-02
-4.099211990833282471e-01
8.775164186954498291e-02
2.350200340151786804e-02
4.238833859562873840e-02
4.618595913052558899e-02
8.364814333617687225e-03
7.568029221147298813e-03
1.480939146131277084e-02
-4.107126221060752869e-02
-4.258880764245986938e-02
1.071075126528739929e-01
7.754450291395187378e-02
2.079566381871700287e-02
3.679895401000976562e-02
-1.096163604330513408e-08
7.631016929465772591e-10
-1.208980116018665285e-08
-8.784913241299818765e-09
2.764615203432185808e-08
-5.849888573550288129e-09
-6.803091867624289080e-09
-1.673975980054365209e-08
9.135749046151886432e-09
3.078693078251149018e-09
1.100304825030207212e-08
1.563487117550721450e-08
-5.244925049829873842e-10
7.928866452289184963e-09
-2.427936252047402377e-08
-1.412446426485303164e-08
-1.147021677638804249e-08
-4.158892341621367450e-09
-1.172794927839504453e-08
4.862835911723095705e-09
6.649211403697563583e-09
-1.851040920541890955e-08
-1.964464324544223928e-08
1.570853314092346409e-08
-1.724689369098086900e-08
1.500633395323802688e-08
-1.072753263997583417e-08
1.841909624822335445e-09
5.951961590255905321e-09
4.074443560320162305e-10
8.011576291266919725e-09
1.562918822139991448e-10
-1.469097399287022654e-09
1.677842398351003794e-08
4.450244173170858630e-09
-3.116505098432753584e-08
-2.106894747555543290e-08
-4.620024363077845919e-09
-5.136503666847147542e-09
-2.021736333901458238e-09
4.432828770717378575e-09
-2.971660073569637461e-08
9.158698688338517968e-09
4.467628045290439331e-09
-4.788624163865051742e-09
1.424830120555498070e-08
-3.764546008255820198e-08
-1.416878525617448759e-08
1.948363070880532177e-08
-5.255568424900047830e-09
-1.493304679911489075e-08
-2.156369305339467246e-09
1.053534948169954077e-08
-1.169521279820173731e-08
2.233092644132739224e-08
2.121781195185690194e-09
1.050863174256733146e-09
2.934489273798135400e-08
7.825988745935319457e-09
1.545794248158927076e-08
-1.834657648025483923e-09
1.024867835042186925e-08
-5.681603632012866001e-09
-4.875322368036449916e-09
6.581480056047439575e-02
3.342983126640319824e-02
3.213050216436386108e-02
-2.996365539729595184e-02
1.839809566736221313e-01
-2.691152738407254219e-03
1.508529204875230789e-02
2.588647231459617615e-02
1.730990111827850342e-01
6.739608012139797211e-03
-1.356724929064512253e-02
3.648612648248672485e-02
6.736720353364944458e-02
-1.071340882674576278e-08
1.227951422333717346e-02
6.654646992683410645e-02
2.473100274801254272e-02
1.487572342157363892e-01
-3.958765044808387756e-02
9.283618628978729248e-02
-2.308090031147003174e-02
6.447314471006393433e-02
-1.263635884970426559e-02
3.275391459465026855e-02
7.568623125553131104e-02
2.384219132363796234e-02
6.065571308135986328e-02
5.409452691674232483e-02
2.113795839250087738e-02
7.405041158199310303e-02
4.852137342095375061e-02
3.957450855523347855e-03
1.042999029159545898e-01
-3.790405392646789551e-02
8.349592983722686768e-02
1.033423095941543579e-01
-5.117951706051826477e-02
-6.792936474084854126e-02
1.263154763728380203e-02
1.067866384983062744e-01
2.621614374220371246e-02
4.262028262019157410e-02
4.076636955142021179e-02
4.917701333761215210e-02
3.537458553910255432e-02
7.667148858308792114e-02
5.096257477998733521e-02
-2.582468464970588684e-02
9.276545047760009766e-02
5.783654749393463135e-02
1.576362997293472290e-01
-8.407580666244029999e-03
1.005290821194648743e-01
6.195222586393356323e-02
1.363324970006942749e-01
1.035726090776734054e-04
3.458838537335395813e-02
3.667402546852827072e-03
9.800070524215698242e-02
4.491427913308143616e-02
7.181191444396972656e-02
3.685801476240158081e-02
5.121427029371261597e-02
-2.180578932166099548e-02
-8.237341791391372681e-02
2.602617442607879639e-02
1.867825351655483246e-02
1.035178154706954956e-01
-2.688322067260742188e-01
1.541742980480194092e-01
-3.111885488033294678e-02
-5.414279550313949585e-02
-2.367865294218063354e-01
6.955007463693618774e-02
-9.786003269255161285e-03
1.284514553844928741e-02
4.781486000865697861e-03
-2.432824786069431866e-08
1.873280480504035950e-02
-5.544770509004592896e-02
2.765691839158535004e-02
-2.294798642396926880e-01
-1.099702566862106323e-01
-7.685607299208641052e-03
-4.112703725695610046e-02
-1.140273287892341614e-01
-1.308233104646205902e-02
2.311416901648044586e-02
8.028937131166458130e-02
5.320661514997482300e-02
-9.576128423213958740e-02
3.900363226421177387e-04
-2.076615812256932259e-03
-3.959885798394680023e-03
-1.939197815954685211e-02
2.033824857790023088e-04
6.940715759992599487e-02
-5.986077338457107544e-02
-2.943436428904533386e-02
-1.044010184705257416e-02
1.154387444257736206e-01
1.117032021284103394e-01
-2.045911736786365509e-02
-1.090149115771055222e-02
4.247041419148445129e-02
-5.156907439231872559e-02
2.209519222378730774e-02
7.245258986949920654e-02
-2.269202377647161484e-03
1.589944027364253998e-02
-6.944362074136734009e-02
1.146586239337921143e-01
3.534098714590072632e-02
-6.276205182075500488e-02
-2.450951039791107178e-01
5.482601746916770935e-02
1.347013842314481735e-02
-8.271542377769947052e-03
-2.191857993602752686e-01
1.203936040401458740e-01
4.197781905531883240e-03
-4.084195010364055634e-03
2.531370148062705994e-02
1.122237090021371841e-02
-3.689128533005714417e-02
6.485308706760406494e-02
9.421163797378540039e-02
-5.691283941268920898e-02
-1.979935448616743088e-03
-1.921352813951671124e-03
2.371384948492050171e-02
3.217798098921775818e-02
1.962604373693466187e-02
-7.529461756348609924e-03
5.681375972926616669e-03
2.724435552954673767e-02
1.251724734902381897e-02
-2.060916461050510406e-02
-3.953632712364196777e-02
1.190805956721305847e-01
-2.541614137589931488e-02
6.189835310976832261e-09
2.713705040514469147e-02
2.352285943925380707e-02
-2.696556784212589264e-02
-6.137085147202014923e-04
2.622184343636035919e-03
-2.165100723505020142e-02
-3.189219906926155090e-02
-2.184597402811050415e-02
