7.732149958610534668e-02
-4.441661760210990906e-02
-1.143388682976365089e-03
1.553761661052703857e-01
-3.435130044817924500e-02
1.005463898181915283e-01
9.330879896879196167e-03
1.299716830253601074e-01
2.249821461737155914e-02
2.675634436309337616e-02
1.819724291563034058e-01
-8.703193813562393188e-02
8.749106526374816895e-02
-5.555972456932067871e-02
-3.556323051452636719e-02
5.738161504268646240e-02
2.466276846826076508e-02
1.010146550834178925e-02
1.577326357364654541e-01
7.428746670484542847e-02
2.682079374790191650e-01
8.572024106979370117e-02
-7.041503209620714188e-03
1.248670890927314758e-01
-7.057204097509384155e-02
-7.120496034622192383e-02
-8.839034475386142731e-03
-4.473905637860298157e-02
2.137730643153190613e-02
1.029430553317070007e-01
2.383527308702468872e-01
1.281834989786148071e-01
6.711538881063461304e-02
1.777244061231613159e-01
1.912266314029693604e-01
-1.996874436736106873e-02
-1.967821270227432251e-03
-5.304036661982536316e-02
-7.751849014312028885e-03
-1.014861650764942169e-02
1.210044324398040771e-01
-1.773426979780197144e-01
8.742087520658969879e-03
-8.847690187394618988e-03
2.321751974523067474e-02
6.872788071632385254e-02
1.901192963123321533e-01
3.181556612253189087e-02
1.751427501440048218e-01
-2.538508735597133636e-02
1.009540930390357971e-01
8.319313824176788330e-02
-7.327811419963836670e-02
1.143286898732185364e-01
1.198165211826562881e-02
-2.337469346821308136e-02
-4.932362213730812073e-02
3.477940708398818970e-02
-1.712135225534439087e-02
1.176564954221248627e-02
-6.937255617231130600e-03
-3.256091848015785217e-02
1.288757324218750000e-01
1.440609246492385864e-01
8.787612430751323700e-03
1.438883543014526367e-01
1.762504428625106812e-01
1.490741372108459473e-01
4.924113303422927856e-02
-3.503481298685073853e-02
8.524115383625030518e-02
1.500820219516754150e-01
1.617610454559326172e-01
4.551075026392936707e-02
-2.686958014965057373e-02
-5.667707696557044983e-02
4.370133578777313232e-02
6.914116907864809036e-03
7.407921552658081055e-02
-1.116053387522697449e-02
8.350007236003875732e-02
4.097787290811538696e-02
3.020274825394153595e-02
1.220299601554870605e-01
-3.249776363372802734e-02
-1.232442110776901245e-01
6.726366281509399414e-02
-3.665925934910774231e-02
1.539202630519866943e-01
-1.074929833412170410e-01
-1.617881469428539276e-02
4.832236468791961670e-02
1.148697212338447571e-01
1.878182962536811829e-02
2.438760176301002502e-02
-2.298056706786155701e-02
4.300182685256004333e-02
3.307847306132316589e-02
-4.700526222586631775e-02
-1.420782878994941711e-03
-9.458063542842864990e-02
1.662350632250308990e-02
-5.774253234267234802e-02
1.232452094554901123e-01
-7.447034120559692383e-02
5.736873671412467957e-02
-5.439432337880134583e-03
4.487683251500129700e-02
3.574135899543762207e-02
3.562402352690696716e-02
-1.226611286401748657e-01
-1.966883800923824310e-02
-2.990946918725967407e-02
-9.711366146802902222e-02
1.370071321725845337e-01
-1.095356121659278870e-01
-2.133896388113498688e-02
-3.173894807696342468e-02
2.155192941427230835e-02
6.027364730834960938e-02
3.273162618279457092e-02
-2.667653746902942657e-02
3.217703476548194885e-02
7.114253193140029907e-02
1.229943037033081055e-01
8.485981076955795288e-02
-5.419211089611053467e-02
-8.026155084371566772e-02
5.047754198312759399e-02
1.592631936073303223e-01
1.004198864102363586e-01
1.388579905033111572e-01
-1.841546408832073212e-02
5.719590187072753906e-02
-3.561686724424362183e-02
-8.513177186250686646e-02
-1.015987526625394821e-02
7.184936106204986572e-02
-1.215621549636125565e-02
8.143781870603561401e-02
1.116525605320930481e-01
-1.437715347856283188e-02
-7.955191656947135925e-03
3.696622326970100403e-02
1.114913746714591980e-01
8.037561923265457153e-02
4.435303807258605957e-02
-1.040722802281379700e-02
-6.479473412036895752e-02
3.522324934601783752e-02
-3.777287155389785767e-02
4.291392862796783447e-02
1.171936932951211929e-02
1.067439839243888855e-01
-1.001566182821989059e-03
9.415189176797866821e-02
-5.990484729409217834e-02
-1.090795546770095825e-02
1.655291952192783356e-02
-4.812877625226974487e-02
1.120253279805183411e-02
1.343300789594650269e-01
1.379187703132629395e-01
2.243180423974990845e-01
1.110862419009208679e-01
-4.037726297974586487e-02
1.318693011999130249e-01
-4.119605943560600281e-02
4.874486848711967468e-02
-2.347090840339660645e-02
1.136362850666046143e-01
6.159062683582305908e-02
-8.977893739938735962e-04
2.547828946262598038e-03
1.923060119152069092e-01
-1.093966700136661530e-02
1.584577411413192749e-01
3.917881101369857788e-02
4.555011913180351257e-02
6.239668652415275574e-02
2.002541720867156982e-01
1.642073839902877808e-01
-3.602726757526397705e-02
-1.102330815047025681e-02
6.335178017616271973e-02
8.402729779481887817e-02
-3.566619008779525757e-02
1.360608637332916260e-01
7.485379930585622787e-03
2.502478957176208496e-01
1.274828165769577026e-01
-5.734413117170333862e-02
1.072175875306129456e-01
1.342963427305221558e-01
-7.181780040264129639e-02
3.590688854455947876e-02
2.217249013483524323e-02
-4.696323350071907043e-02
1.273155659437179565e-01
-1.588984876871109009e-01
1.497696191072463989e-01
4.655424132943153381e-02
9.348873049020767212e-02
2.316070795059204102e-01
-2.052690275013446808e-02
-2.578075416386127472e-02
-2.334215492010116577e-02
-3.093306161463260651e-02
-3.448577225208282471e-02
-7.521054893732070923e-02
2.060730184894055128e-04
-7.604058086872100830e-02
-3.053554147481918335e-02
1.272633820772171021e-01
9.166437387466430664e-02
-6.483107805252075195e-02
5.117289256304502487e-03
1.696250587701797485e-01
1.307991594076156616e-01
-4.884820431470870972e-02
7.521559298038482666e-02
-4.113380238413810730e-02
-8.462979644536972046e-02
-4.313306137919425964e-02
3.552034497261047363e-02
6.012375652790069580e-02
7.744643837213516235e-02
-7.809980772435665131e-03
1.131554618477821350e-01
6.676698476076126099e-02
1.066436469554901123e-01
-1.871626824140548706e-02
-2.443310804665088654e-02
-8.437963575124740601e-02
-2.654307149350643158e-02
1.636629700660705566e-01
-1.454131025820970535e-02
1.224775463342666626e-01
4.123094025999307632e-03
1.195731312036514282e-01
-4.007923603057861328e-02
7.079260796308517456e-02
-2.067910245386883616e-04
6.038513407111167908e-02
-2.657157741487026215e-02
-9.510090202093124390e-02
1.673790044151246548e-03
-7.084606587886810303e-02
-6.215354427695274353e-03
-3.051989478990435600e-03
-4.579921811819076538e-02
9.784848429262638092e-03
5.453557521104812622e-02
-1.338459700345993042e-01
1.386080589145421982e-02
-4.392873495817184448e-02
