4.326632320880889893e-01
4.685422405600547791e-02
-8.013365417718887329e-02
7.330150902271270752e-02
2.797041833400726318e-01
-7.804728113114833832e-03
9.408698230981826782e-02
-1.008610084340944013e-07
-1.403355747461318970e-01
-5.159929394721984863e-02
4.447019100189208984e-02
2.181367725133895874e-01
4.071790724992752075e-02
1.197877526283264160e-01
1.443202793598175049e-01
1.367183029651641846e-01
-1.116805747151374817e-01
1.477391272783279419e-01
-1.287893056869506836e-01
-5.314710736274719238e-02
-3.391952440142631531e-02
-2.060023881494998932e-02
6.278287619352340698e-02
-6.573595356940131751e-08
-7.121316343545913696e-02
6.950976699590682983e-02
-1.326435208320617676e-01
-6.441059952067007544e-08
-2.890837006270885468e-02
9.416422247886657715e-02
2.478958368301391602e-01
-8.285038918256759644e-02
-2.887167595326900482e-02
-1.708608418703079224e-01
9.952225536108016968e-02
-1.135725378990173340e-01
1.977035254240036011e-01
1.480028126388788223e-02
-7.089570909738540649e-02
1.072239130735397339e-01
1.253557857125997543e-02
-3.663291782140731812e-02
1.495897024869918823e-01
1.053300276398658752e-01
2.093311212956905365e-02
-1.050216853618621826e-01
-4.884766414761543274e-02
4.900663793087005615e-01
-1.475521922111511230e-01
-1.090005040168762207e-01
1.981510967016220093e-02
-7.096415013074874878e-02
-4.654255881905555725e-02
1.087406277656555176e-01
-2.787777483463287354e-01
4.449985455721616745e-03
-7.715586036738386611e-08
7.506048679351806641e-02
-8.447441501857611001e-08
2.253266870975494385e-01
-7.159259915351867676e-02
-1.582333296537399292e-01
-3.445900604128837585e-02
5.289373993873596191e-01
