-6.893459707498550415e-02
-3.132218495011329651e-02
-7.328218966722488403e-02
-3.498953208327293396e-02
-1.900385692715644836e-02
-6.197171285748481750e-02
3.499340964481234550e-03
1.318285055458545685e-02
-2.917530387639999390e-02
2.036763280630111694e-01
1.438545733690261841e-01
-7.617956399917602539e-02
2.205319702625274658e-02
1.384655237197875977e-01
-4.208805412054061890e-02
-1.420912146568298340e-02
-8.093680441379547119e-02
1.212343201041221619e-02
-2.300129830837249756e-02
-7.615804672241210938e-02
5.412341654300689697e-02
-4.229380190372467041e-02
-1.608436554670333862e-02
-3.096804395318031311e-02
-6.005088984966278076e-02
9.986681491136550903e-02
6.459908932447433472e-02
1.195582002401351929e-01
7.528544962406158447e-02
-1.081438958644866943e-01
1.915009617805480957e-01
-4.411535710096359253e-02
-3.896175324916839600e-02
9.091804735362529755e-03
-3.837123140692710876e-02
-7.329421490430831909e-02
-2.190033905208110809e-02
7.433621585369110107e-02
-3.156680986285209656e-02
2.738449024036526680e-03
-7.062251865863800049e-02
-8.932715281844139099e-03
2.144922129809856415e-02
-5.093674361705780029e-02
3.234000131487846375e-02
-5.284446850419044495e-02
-3.008730150759220123e-02
-1.540590524673461914e-01
-3.866573795676231384e-02
-5.888193473219871521e-02
-4.950349777936935425e-02
-7.002776116132736206e-02
-1.802462339401245117e-02
2.706740051507949829e-02
-1.037076264619827271e-01
-2.680144645273685455e-02
-1.122118979692459106e-01
7.810141146183013916e-02
2.119917422533035278e-01
-2.415966242551803589e-02
-5.061797797679901123e-02
-3.940480202436447144e-02
-4.691144451498985291e-02
-1.692383438348770142e-01
-7.860402017831802368e-02
4.489411786198616028e-02
8.409967273473739624e-02
2.804632782936096191e-01
-1.016204804182052612e-02
-7.549187541007995605e-02
8.684299886226654053e-03
-1.632375456392765045e-02
8.363238535821437836e-03
-4.396923258900642395e-02
1.122415736317634583e-01
-9.063058346509933472e-02
-6.385064125061035156e-02
5.453552305698394775e-02
1.695995181798934937e-01
6.669880449771881104e-02
-3.519903123378753662e-02
-5.173917487263679504e-02
-6.811022758483886719e-02
1.266725063323974609e-01
1.487624645233154297e-01
-2.895567752420902252e-02
-3.831733018159866333e-02
-3.279570862650871277e-02
7.876814156770706177e-02
-1.638396084308624268e-01
-1.246811226010322571e-01
-5.391317605972290039e-02
-6.586656440049409866e-03
6.179989129304885864e-02
3.305242955684661865e-02
6.802865117788314819e-02
-7.297286391258239746e-02
-1.106082573533058167e-01
3.537540510296821594e-02
9.316520392894744873e-02
-8.192766457796096802e-03
-1.190431863069534302e-01
-3.107777796685695648e-02
-9.406137466430664062e-02
-7.639958057552576065e-03
1.077205240726470947e-01
9.245127439498901367e-02
7.269854098558425903e-02
3.212666884064674377e-02
5.523117259144783020e-02
-8.513842523097991943e-02
-7.125226408243179321e-02
-7.486724853515625000e-02
4.956378787755966187e-02
7.873084396123886108e-02
-1.725701689720153809e-01
8.214030414819717407e-02
-1.024731993675231934e-01
-1.830113120377063751e-02
1.637714728713035583e-02
-1.446994543075561523e-01
8.684921264648437500e-02
4.988677799701690674e-02
-9.617560356855392456e-02
-7.199905067682266235e-02
-9.748207777738571167e-02
-3.817425668239593506e-02
1.936205923557281494e-01
