-1.835569925606250763e-02
4.712930694222450256e-02
6.831114739179611206e-02
1.018294990062713623e-01
-7.619259413331747055e-03
6.026544049382209778e-02
3.385704383254051208e-02
6.808930635452270508e-02
4.000010713934898376e-02
-1.420397609472274780e-01
-7.814323902130126953e-02
-2.901487611234188080e-02
1.200287863612174988e-01
2.696758881211280823e-02
-3.388255834579467773e-02
4.156058654189109802e-02
3.791739419102668762e-02
-1.180829629302024841e-01
-9.389603137969970703e-02
8.504766225814819336e-02
-8.478385955095291138e-02
1.725593954324722290e-01
7.712097465991973877e-02
1.632130518555641174e-02
6.833935528993606567e-02
1.883375830948352814e-02
-4.759058728814125061e-02
-6.513200700283050537e-03
-1.928660902194678783e-03
-1.349808722734451294e-01
-1.824771612882614136e-01
4.206975921988487244e-02
7.394526153802871704e-02
7.214217633008956909e-02
-7.103031035512685776e-03
2.864594571292400360e-02
-3.533869609236717224e-02
7.351288199424743652e-02
-3.790459781885147095e-02
4.037106782197952271e-02
8.312971144914627075e-02
1.373950093984603882e-01
-7.022511959075927734e-02
1.316102147102355957e-01
-5.175755172967910767e-02
6.533893197774887085e-02
-9.945182502269744873e-02
-4.128630831837654114e-02
-1.382373273372650146e-01
1.500148177146911621e-01
-1.576019525527954102e-01
1.678299307823181152e-01
6.679267436265945435e-02
6.335572898387908936e-02
2.133391797542572021e-02
-3.325463086366653442e-02
5.112764192745089531e-04
-3.770082723349332809e-03
5.348009988665580750e-02
-2.809179574251174927e-02
7.917500287294387817e-02
-1.330533027648925781e-01
-1.468491703271865845e-01
-3.650484606623649597e-02
7.779985666275024414e-02
5.677000433206558228e-02
-1.758724153041839600e-01
3.847773373126983643e-02
-1.445825845003128052e-01
4.762437567114830017e-02
-1.165852919220924377e-01
5.061786249279975891e-02
9.027155116200447083e-03
5.310863628983497620e-02
6.136594340205192566e-02
-4.085215274244546890e-03
-7.427029311656951904e-02
2.261237800121307373e-02
6.008784472942352295e-02
3.529149666428565979e-02
8.164483308792114258e-02
2.574367821216583252e-02
4.136541113257408142e-02
1.719589531421661377e-02
-3.822986409068107605e-02
-1.142228618264198303e-01
4.126283805817365646e-03
5.216554924845695496e-02
6.926772743463516235e-02
7.399794459342956543e-02
-4.738155379891395569e-02
-2.026614360511302948e-02
5.713198333978652954e-02
-1.367076337337493896e-01
-7.447684556245803833e-02
4.141853377223014832e-02
3.525761887431144714e-02
8.609890937805175781e-02
-4.925249144434928894e-02
-3.389855846762657166e-02
1.983507163822650909e-02
-2.544935233891010284e-02
-5.962435528635978699e-02
1.877913177013397217e-01
9.449684619903564453e-02
-1.261000484228134155e-01
6.027596071362495422e-02
6.113597005605697632e-02
3.361733257770538330e-02
-1.847440749406814575e-02
1.517228335142135620e-01
-8.021507412195205688e-03
-8.081967383623123169e-02
-1.122992560267448425e-01
-4.061403870582580566e-02
-1.373148988932371140e-02
1.976289749145507812e-01
-4.256643727421760559e-02
7.259113341569900513e-02
-5.799648538231849670e-02
-9.746491909027099609e-02
-1.347450017929077148e-01
-3.676281124353408813e-02
-4.990560188889503479e-02
6.376738846302032471e-02
6.516332924365997314e-02
2.258318103849887848e-02
-4.607096314430236816e-02
