1.333477348089218140e-02
-1.845197193324565887e-02
-1.831073686480522156e-02
1.466359756886959076e-02
1.141484826803207397e-02
-5.642433650791645050e-03
-1.535100117325782776e-02
2.385030686855316162e-02
8.722390979528427124e-03
-2.296228148043155670e-02
5.512616038322448730e-02
3.245024383068084717e-02
-4.089625924825668335e-02
5.373582988977432251e-02
2.577539533376693726e-02
-4.303368926048278809e-02
4.402165859937667847e-02
2.643064409494400024e-02
-7.075477391481399536e-02
-9.467497467994689941e-03
-3.991403616964817047e-03
4.120542667806148529e-03
-7.727274671196937561e-03
-1.009784266352653503e-02
5.847717635333538055e-03
1.888993941247463226e-02
4.161456599831581116e-03
1.494782324880361557e-02
6.798113137483596802e-02
4.973036795854568481e-02
2.059225179255008698e-02
1.305425614118576050e-01
1.067896634340286255e-01
2.206039382144808769e-03
1.595588475465774536e-01
1.244651302695274353e-01
-2.091241255402565002e-02
1.460610479116439819e-01
1.195020973682403564e-01
-3.851700574159622192e-02
1.199856996536254883e-01
1.119846478104591370e-01
2.233081683516502380e-02
-4.601309821009635925e-02
-6.347800046205520630e-02
2.359472401440143585e-02
-7.607463002204895020e-02
-1.014571189880371094e-01
1.612009853124618530e-02
-8.964844793081283569e-02
-9.834315627813339233e-02
5.884750932455062866e-02
-3.331613726913928986e-03
-3.958614077419042587e-03
1.028108894824981689e-01
1.210764497518539429e-01
1.063036620616912842e-01
6.264144182205200195e-02
1.670480668544769287e-01
1.398162543773651123e-01
5.197688937187194824e-02
1.761869788169860840e-01
1.494190990924835205e-01
2.320534549653530121e-02
-3.856493905186653137e-02
-2.802282199263572693e-02
4.176490940153598785e-03
-1.213962808251380920e-01
-1.079519540071487427e-01
-4.591317102313041687e-02
-2.471499890089035034e-01
-2.178185880184173584e-01
-4.873181134462356567e-02
-3.167051672935485840e-01
-2.580786049365997314e-01
-1.640453562140464783e-02
-2.520695030689239502e-01
-1.989846825599670410e-01
4.023663699626922607e-02
-7.626783102750778198e-02
-5.616293847560882568e-02
6.581886857748031616e-02
4.083782806992530823e-02
3.991508483886718750e-02
-9.034915710799396038e-04
2.881759218871593475e-02
2.581022121012210846e-02
2.776741236448287964e-02
1.366461068391799927e-02
1.050052326172590256e-02
-1.010523922741413116e-02
-8.382517844438552856e-02
-7.457768917083740234e-02
-5.539659038186073303e-02
-2.421772927045822144e-01
-1.941436678171157837e-01
-1.272172927856445312e-01
-3.808097839355468750e-01
-3.138471543788909912e-01
-7.660439610481262207e-02
-3.041417896747589111e-01
-2.549495100975036621e-01
7.845321670174598694e-03
-1.396558880805969238e-01
-1.227638795971870422e-01
3.589381463825702667e-03
8.286809921264648438e-02
7.304880023002624512e-02
4.800553247332572937e-02
1.386443227529525757e-01
1.117000281810760498e-01
6.205096840858459473e-02
1.524118483066558838e-01
1.309314817190170288e-01
8.442088216543197632e-02
1.297385543584823608e-01
1.181539148092269897e-01
2.426689118146896362e-02
-5.123177077621221542e-03
-6.458412855863571167e-03
-3.366237878799438477e-02
-1.243527010083198547e-01
-1.254831105470657349e-01
-1.570892706513404846e-02
-1.296722739934921265e-01
-1.244586184620857239e-01
-8.002927899360656738e-02
-7.278907112777233124e-03
-6.420973222702741623e-03
-3.223848715424537659e-02
7.702050358057022095e-02
6.639274209737777710e-02
-1.780761219561100006e-02
1.399927586317062378e-01
1.217685043811798096e-01
3.417023271322250366e-02
2.126440852880477905e-01
2.118788361549377441e-01
3.535902127623558044e-02
1.842685788869857788e-01
1.907454878091812134e-01
2.243875712156295776e-02
1.114365831017494202e-01
1.141453683376312256e-01
1.707685180008411407e-03
2.343768812716007233e-02
2.333726361393928528e-02
6.860899180173873901e-02
-9.904103726148605347e-02
4.271650314331054688e-02
3.795474395155906677e-02
-7.212927192449569702e-02
4.726946726441383362e-02
5.356437340378761292e-02
-7.274793833494186401e-02
1.779794320464134216e-02
1.976433396339416504e-02
-2.811760641634464264e-02
2.031908370554447174e-02
2.689065411686897278e-02
-3.623241186141967773e-02
3.469339758157730103e-02
4.836857318878173828e-02
-8.187585324048995972e-02
2.859473787248134613e-02
6.326418370008468628e-02
-8.811867237091064453e-02
4.317336529493331909e-02
6.184446811676025391e-02
-7.062116265296936035e-02
3.630781546235084534e-02
1.840661466121673584e-02
-3.920020908117294312e-02
3.345941752195358276e-02
2.267246879637241364e-02
-1.051367912441492081e-02
-1.244885963387787342e-03
-4.238339141011238098e-02
5.935820192098617554e-02
-1.949138194322586060e-02
-4.880047962069511414e-02
5.951936542987823486e-02
4.291006363928318024e-03
-2.212980203330516815e-02
2.589074522256851196e-02
4.651334136724472046e-03
-5.728650372475385666e-03
-1.328660361468791962e-02
2.496187947690486908e-02
5.655301734805107117e-02
-9.396307915449142456e-02
2.354100719094276428e-02
1.488306932151317596e-02
-2.531763352453708649e-02
1.682570762932300568e-02
-6.918489467352628708e-03
3.072543442249298096e-02
-1.532537955790758133e-02
-1.073126792907714844e-01
1.642432808876037598e-01
-5.422338470816612244e-02
-1.291925311088562012e-01
2.073766440153121948e-01
-7.286500185728073120e-02
-9.504248201847076416e-02
1.616172939538955688e-01
-7.203040271997451782e-02
-5.867071822285652161e-02
8.686542510986328125e-02
-2.374686114490032196e-02
2.229452691972255707e-02
-3.969590365886688232e-02
3.556680306792259216e-02
-4.257625341415405273e-02
6.024356186389923096e-02
4.861987254116684198e-04
-1.093375310301780701e-01
1.494037657976150513e-01
-6.864599883556365967e-02
-2.097477763891220093e-01
3.461814522743225098e-01
-1.017541885375976562e-01
-2.432096898555755615e-01
4.109984934329986572e-01
-1.594368517398834229e-01
-2.168294936418533325e-01
3.449823856353759766e-01
-1.526763588190078735e-01
-1.724540591239929199e-01
2.373640835285186768e-01
-4.766213893890380859e-02
2.380188181996345520e-02
-3.997836261987686157e-02
2.962305583059787750e-02
-5.227282643318176270e-02
6.414814293384552002e-02
1.817630021832883358e-03
-1.127697974443435669e-01
1.694097965955734253e-01
-7.955941557884216309e-02
-2.377151101827621460e-01
3.729776144027709961e-01
-1.390932351350784302e-01
-2.559107840061187744e-01
4.581427872180938721e-01
-1.813792884349822998e-01
-2.404918968677520752e-01
3.783867061138153076e-01
-1.695036590099334717e-01
-2.031541019678115845e-01
2.586962580680847168e-01
-6.119241937994956970e-02
5.622138455510139465e-02
-6.498463451862335205e-02
3.523313999176025391e-02
-2.182431332767009735e-02
1.363743562251329422e-02
-8.529455401003360748e-03
-5.920654535293579102e-02
1.300821155309677124e-01
-5.425305292010307312e-02
-1.903389394283294678e-01
2.985669970512390137e-01
-1.211205571889877319e-01
-2.380593270063400269e-01
3.666120171546936035e-01
-1.506816893815994263e-01
-1.983617395162582397e-01
3.200949132442474365e-01
-1.274718791246414185e-01
-1.657782495021820068e-01
2.044201046228408813e-01
-4.533983767032623291e-02
5.963537469506263733e-02
-1.043309718370437622e-01
5.478608980774879456e-02
3.717197803780436516e-03
-2.721578627824783325e-02
3.980510681867599487e-02
-4.871647059917449951e-02
4.119884595274925232e-02
-1.047275774180889130e-02
-1.284195929765701294e-01
1.784130930900573730e-01
-1.764687336981296539e-02
-1.609792709350585938e-01
2.279733419418334961e-01
-4.233235865831375122e-02
-1.433613002300262451e-01
1.862172335386276245e-01
-5.221982300281524658e-02
-1.025065556168556213e-01
1.185411438345909119e-01
5.127687472850084305e-04
7.305199280381202698e-03
1.277489773929119110e-02
9.351082146167755127e-03
1.568569988012313843e-02
8.850006386637687683e-03
-3.603893890976905823e-02
-2.442278200760483742e-04
2.326131332665681839e-03
-3.173151984810829163e-02
-9.298810735344886780e-03
1.286200620234012604e-02
-1.354306098073720932e-02
-3.253927454352378845e-02
1.354100275784730911e-02
3.484389977529644966e-03
-3.129706159234046936e-02
3.604896739125251770e-02
4.319686070084571838e-02
-3.024937771260738373e-02
4.839925840497016907e-02
4.508277028799057007e-02
8.637687191367149353e-03
1.415290217846632004e-02
-1.187507528811693192e-02
2.462181448936462402e-02
1.168401259928941727e-02
-5.826421454548835754e-02
1.124862954020500183e-02
-2.964080311357975006e-03
-6.300373375415802002e-02
1.263597887009382248e-02
1.628666184842586517e-02
-4.365932196378707886e-02
-1.064533554017543793e-02
2.716895379126071930e-02
-1.767362840473651886e-02
-1.502612419426441193e-02
5.185071751475334167e-02
1.588423363864421844e-02
-3.409060835838317871e-02
3.868971019983291626e-02
-7.655354216694831848e-03
7.795970886945724487e-03
3.198430174961686134e-03
1.421522721648216248e-02
3.133722767233848572e-02
5.085028242319822311e-03
-3.380506858229637146e-02
2.510880306363105774e-02
-9.327064268290996552e-03
-5.009590461850166321e-02
4.251411184668540955e-02
3.054553456604480743e-02
-1.296608429402112961e-02
1.251392625272274017e-02
4.113687202334403992e-02
-2.136613242328166962e-03
-5.776416510343551636e-04
5.454752966761589050e-02
6.052507087588310242e-03
-5.350543651729822159e-03
4.509392008185386658e-02
-8.012589067220687866e-03
9.907743893563747406e-03
-1.771378889679908752e-02
-1.159173250198364258e-02
1.279432699084281921e-02
-4.700525104999542236e-02
-8.058793097734451294e-02
2.197327837347984314e-02
-6.508856266736984253e-02
-1.002351939678192139e-01
5.816332995891571045e-02
-1.801542006433010101e-02
-6.176333874464035034e-02
4.236314818263053894e-02
7.900186465121805668e-04
-5.538910999894142151e-02
3.943007439374923706e-02
2.699760161340236664e-02
-5.653694272041320801e-02
4.834165424108505249e-02
3.019188158214092255e-02
-7.223702967166900635e-02
-1.059724600054323673e-03
-1.703513041138648987e-02
8.082835935056209564e-03
1.339520420879125595e-02
-4.286732897162437439e-02
-4.991647601127624512e-02
1.147660077549517155e-03
-8.463874459266662598e-02
-9.025336056947708130e-02
2.523898333311080933e-02
-6.686371564865112305e-02
-8.536835759878158569e-02
3.658837452530860901e-02
-4.924835264682769775e-02
-8.756543695926666260e-02
4.679140821099281311e-02
-2.390149421989917755e-02
-9.946825355291366577e-02
7.521791756153106689e-02
2.623215550556778908e-03
-1.092395707964897156e-01
-1.527338568121194839e-02
-2.815475687384605408e-03
1.878144592046737671e-02
8.100741542875766754e-03
-8.837033994495868683e-03
-1.436665467917919159e-02
-7.338214782066643238e-04
-4.808127880096435547e-02
-4.670818150043487549e-02
-5.544331390410661697e-03
-7.362696528434753418e-02
-8.085595816373825073e-02
3.732237033545970917e-03
-8.643230795860290527e-02
-1.118690595030784607e-01
1.980343461036682129e-02
-7.164734601974487305e-02
-1.451447904109954834e-01
7.496561110019683838e-02
-2.339829318225383759e-02
-1.444423645734786987e-01
-1.964166574180126190e-02
2.878804877400398254e-02
5.780286714434623718e-02
-1.854282338172197342e-03
2.300035022199153900e-02
1.725205220282077789e-02
-6.908432114869356155e-03
-4.687886685132980347e-03
-5.776713136583566666e-03
-8.482910692691802979e-03
-3.039077110588550568e-02
-3.568866848945617676e-02
-3.299644682556390762e-03
-5.077529698610305786e-02
-7.441352307796478271e-02
2.897182852029800415e-02
-3.945679217576980591e-02
-1.131273582577705383e-01
8.755867183208465576e-02
-7.113410625606775284e-03
-1.243415176868438721e-01
4.761253669857978821e-02
5.055605992674827576e-02
5.963538587093353271e-02
-2.642104215919971466e-02
-5.934436246752738953e-02
-8.124386891722679138e-03
-2.264722250401973724e-03
-6.688496470451354980e-02
-2.043841406702995300e-02
2.710952609777450562e-02
-6.072276085615158081e-02
-5.775754470960237086e-05
2.196334861218929291e-02
-4.976140335202217102e-02
3.541114274412393570e-03
-1.114959083497524261e-02
-6.589421629905700684e-02
-4.113379865884780884e-02
-1.293704751878976822e-02
-5.019789561629295349e-02
-2.512956783175468445e-02
-2.569025196135044098e-02
-8.743183314800262451e-02
-5.199403688311576843e-02
-1.093702688813209534e-01
-2.122425436973571777e-01
-1.232230216264724731e-01
-1.086992621421813965e-01
-2.536520361900329590e-01
-1.669786721467971802e-01
-1.058658882975578308e-01
-2.785058915615081787e-01
-1.765489280223846436e-01
-1.032746359705924988e-01
-2.558037340641021729e-01
-1.609927266836166382e-01
-1.002799868583679199e-01
-2.208858430385589600e-01
-1.565776020288467407e-01
-8.799063414335250854e-02
-1.823610961437225342e-01
-1.256264299154281616e-01
-1.383868791162967682e-02
-6.767696142196655273e-02
-5.427754670381546021e-02
-7.188215106725692749e-02
-1.491258144378662109e-01
-9.220678359270095825e-02
-6.533926725387573242e-02
-1.660587340593338013e-01
-1.064064800739288330e-01
-6.034202128648757935e-02
-1.938068121671676636e-01
-1.228710338473320007e-01
-4.381778091192245483e-02
-1.574241966009140015e-01
-9.369654953479766846e-02
-2.518047764897346497e-02
-1.138391792774200439e-01
-8.642075210809707642e-02
-3.447033464908599854e-02
-1.035169735550880432e-01
-7.289405167102813721e-02
-7.846212945878505707e-03
-2.371425740420818329e-02
-4.033377394080162048e-02
-4.725939035415649414e-02
-4.972343146800994873e-02
-4.608570411801338196e-02
-1.448344904929399490e-02
-2.512917295098304749e-02
-2.918111346662044525e-02
8.999803103506565094e-03
-1.546137221157550812e-02
-1.030680071562528610e-02
1.159775815904140472e-02
-3.721895162016153336e-03
4.715186660178005695e-04
1.510516274720430374e-02
1.460478815715759993e-04
-1.984765008091926575e-02
1.468117162585258484e-02
-4.641267005354166031e-04
3.132588230073451996e-03
2.427361533045768738e-02
7.831847667694091797e-02
2.641030028462409973e-02
3.175081685185432434e-02
1.133192777633666992e-01
7.170023024082183838e-02
6.501263380050659180e-02
1.560087203979492188e-01
1.013056412339210510e-01
6.672208756208419800e-02
1.662451475858688354e-01
1.119412779808044434e-01
5.637508630752563477e-02
1.596866846084594727e-01
1.088189929723739624e-01
5.331841483712196350e-02
1.392313092947006226e-01
8.165347576141357422e-02
6.342433393001556396e-02
1.363459229469299316e-01
9.555606544017791748e-02
2.118545398116111755e-02
6.962845474481582642e-02
-6.262233946472406387e-04
5.841340124607086182e-02
1.521229743957519531e-01
9.529904276132583618e-02
8.125622570514678955e-02
2.097923457622528076e-01
1.324791461229324341e-01
8.160950243473052979e-02
2.245752364397048950e-01
1.472779214382171631e-01
7.155779749155044556e-02
2.079520821571350098e-01
1.381684243679046631e-01
4.938950389623641968e-02
1.506375819444656372e-01
8.278387039899826050e-02
3.199886158108711243e-02
1.220495700836181641e-01
6.320151686668395996e-02
-5.605657584965229034e-03
2.911842614412307739e-02
-4.766478389501571655e-02
4.814448580145835876e-02
1.260946840047836304e-01
6.504418700933456421e-02
8.088086545467376709e-02
1.946931630373001099e-01
1.193904355168342590e-01
6.683138757944107056e-02
2.010096311569213867e-01
1.364834904670715332e-01
3.422087803483009338e-02
1.668161004781723022e-01
1.062464416027069092e-01
2.118029259145259857e-02
1.233574524521827698e-01
5.979309603571891785e-02
-1.599437557160854340e-02
7.569184899330139160e-02
2.327783033251762390e-02
-3.778526093810796738e-03
1.388365402817726135e-02
6.627030670642852783e-03
-5.807930603623390198e-03
9.045303799211978912e-03
7.308516651391983032e-03
-9.124674834311008453e-03
5.737461149692535400e-03
-1.018672410282306373e-04
-1.154896710067987442e-02
-1.889206469058990479e-02
-3.306323662400245667e-02
1.669054292142391205e-02
-2.345618791878223419e-02
-2.473921747878193855e-03
2.791821397840976715e-02
1.144893374294042587e-02
2.438278682529926300e-02
-1.317347772419452667e-02
-1.037856470793485641e-02
-4.217355046421289444e-03
1.772557944059371948e-02
2.731793373823165894e-02
1.394383050501346588e-02
2.080678567290306091e-02
3.639589995145797729e-02
1.929588429629802704e-02
2.002219855785369873e-02
4.350477084517478943e-02
3.190634073689579964e-03
-3.744479268789291382e-02
-1.998556219041347504e-02
-6.139266490936279297e-02
-1.425229012966156006e-01
-1.965445280075073242e-01
-1.441737413406372070e-01
-1.076072361320257187e-02
-6.710159033536911011e-02
4.812508821487426758e-03
6.756351143121719360e-02
4.223048314452171326e-02
5.338776111602783203e-02
-1.539131975732743740e-03
-1.981456764042377472e-03
6.754591129720211029e-03
5.032401531934738159e-03
6.445299834012985229e-03
2.590218558907508850e-02
1.260436177253723145e-01
1.608143001794815063e-01
1.087476238608360291e-01
2.453987598419189453e-01
3.649285435676574707e-01
1.987397372722625732e-01
-5.786086618900299072e-02
9.904933162033557892e-03
-7.594420015811920166e-02
-2.563892304897308350e-01
-3.044803738594055176e-01
-2.103280574083328247e-01
-3.644284233450889587e-02
-9.331205487251281738e-02
-2.907139481976628304e-03
-3.446868434548377991e-02
-7.707943022251129150e-02
-3.763400018215179443e-02
-9.209984540939331055e-02
-1.582521200180053711e-01
-6.880977749824523926e-02
-1.255997419357299805e-01
-1.757799983024597168e-01
-1.001822128891944885e-01
2.327314764261245728e-01
3.582767248153686523e-01
2.063377201557159424e-01
4.673425257205963135e-01
6.793028116226196289e-01
3.755637407302856445e-01
2.687801048159599304e-02
1.184176877140998840e-01
-1.250555040314793587e-03
-1.011590659618377686e-01
-1.146173551678657532e-01
-7.066564261913299561e-02
1.575397886335849762e-02
-1.106336619704961777e-02
5.476395133882761002e-03
-4.671393893659114838e-03
-4.840015619993209839e-02
1.144957821816205978e-02
-2.556417584419250488e-01
-3.945065438747406006e-01
-1.962225139141082764e-01
-3.808433711528778076e-01
-4.635561406612396240e-01
-2.735293805599212646e-01
1.396603733301162720e-01
2.158938497304916382e-01
1.307539194822311401e-01
2.453127056360244751e-01
3.661018013954162598e-01
1.891399919986724854e-01
4.244162887334823608e-02
8.107694983482360840e-02
1.454905420541763306e-02
1.880924962460994720e-02
4.102123901247978210e-02
-3.595568006858229637e-03
1.012220233678817749e-01
1.158552020788192749e-01
7.563133537769317627e-02
1.256405413150787354e-01
6.477215886116027832e-02
1.085144355893135071e-01
-2.433210015296936035e-01
-3.844772875308990479e-01
-1.654686927795410156e-01
-2.486839592456817627e-01
-3.404057919979095459e-01
-1.789793223142623901e-01
1.616004481911659241e-02
2.586309053003787994e-02
1.326858066022396088e-02
6.517656892538070679e-02
9.085302054882049561e-02
4.146951809525489807e-02
-5.695262458175420761e-03
2.698886953294277191e-02
8.212457410991191864e-03
-1.954125799238681793e-02
2.649740502238273621e-02
-4.264216125011444092e-02
8.702836185693740845e-02
1.218277812004089355e-01
4.008722677826881409e-02
1.126019135117530823e-01
7.747506350278854370e-02
9.768386185169219971e-02
-4.433003440499305725e-02
-9.990832209587097168e-02
-1.082136295735836029e-02
-7.229266315698623657e-02
-1.107668578624725342e-01
-5.778103321790695190e-02
-7.783015607856214046e-04
-2.160290628671646118e-02
-6.119611207395792007e-03
4.299324378371238708e-02
3.937840461730957031e-02
2.137077786028385162e-02
-2.351708523929119110e-02
-3.232102841138839722e-02
1.659491099417209625e-02
-3.700042888522148132e-02
-4.418549686670303345e-02
4.239472327753901482e-04
-2.171746641397476196e-02
-2.786075137555599213e-02
-1.673221215605735779e-02
2.097355201840400696e-02
3.497378528118133545e-02
2.775133121758699417e-03
-2.631152234971523285e-02
2.230587415397167206e-02
-3.309829533100128174e-02
-3.362589329481124878e-02
1.345034223049879074e-02
-5.482155084609985352e-02
-2.434552880004048347e-03
-2.958335541188716888e-02
-1.256450917571783066e-02
-1.061513349413871765e-01
-1.552285254001617432e-01
-5.855850130319595337e-02
-6.993076205253601074e-02
-1.276672035455703735e-01
-5.656582489609718323e-02
-3.496532887220382690e-02
-6.409500539302825928e-02
-4.947496578097343445e-02
5.587237700819969177e-02
7.364167273044586182e-02
2.739513292908668518e-02
7.434315234422683716e-02
1.428331136703491211e-01
6.846873462200164795e-02
9.513346850872039795e-02
1.796822249889373779e-01
1.007259190082550049e-01
-1.123337261378765106e-02
-6.542833894491195679e-02
-2.264725789427757263e-02
-1.263996511697769165e-01
-2.212844938039779663e-01
-8.614205569028854370e-02
-1.135790273547172546e-01
-2.021654546260833740e-01
-1.110004112124443054e-01
-3.314225375652313232e-02
-6.692425161600112915e-02
-5.421180278062820435e-02
9.023829549551010132e-02
1.230376437306404114e-01
5.629898607730865479e-02
1.074983552098274231e-01
1.990341395139694214e-01
9.608101099729537964e-02
1.559788435697555542e-01
2.781548798084259033e-01
1.580141037702560425e-01
-6.179965566843748093e-03
-7.222077995538711548e-02
-7.956463843584060669e-03
-1.538686901330947876e-01
-2.658779621124267578e-01
-1.089084595441818237e-01
-1.422031521797180176e-01
-2.458985000848770142e-01
-1.248926594853401184e-01
-4.008270427584648132e-02
-8.254318684339523315e-02
-5.637748911976814270e-02
9.605748206377029419e-02
1.443289667367935181e-01
6.474029272794723511e-02
1.233170926570892334e-01
2.317536920309066772e-01
1.101109459996223450e-01
1.677274703979492188e-01
3.115497827529907227e-01
1.688671708106994629e-01
-9.264867752790451050e-03
-5.990116298198699951e-02
6.395869888365268707e-03
-1.825729459524154663e-01
-2.778617143630981445e-01
-1.252800524234771729e-01
-1.616550385951995850e-01
-2.568804025650024414e-01
-1.424984633922576904e-01
-3.457882627844810486e-02
-7.894324511289596558e-02
-5.536908283829689026e-02
8.965335041284561157e-02
1.335453093051910400e-01
5.382674187421798706e-02
1.090523153543472290e-01
2.128721475601196289e-01
8.354979008436203003e-02
1.632161438465118408e-01
2.921919524669647217e-01
1.503938585519790649e-01
-2.196721360087394714e-02
-6.307181715965270996e-02
-8.552954532206058502e-03
-1.652897596359252930e-01
-2.411851286888122559e-01
-1.086343973875045776e-01
-1.340008229017257690e-01
-2.180019766092300415e-01
-1.176031231880187988e-01
-3.617509081959724426e-02
-7.660014182329177856e-02
-4.666082933545112610e-02
8.380872756242752075e-02
1.245628297328948975e-01
6.161268800497055054e-02
9.917235374450683594e-02
1.934154629707336426e-01
8.336686342954635620e-02
1.467449665069580078e-01
2.547094225883483887e-01
1.282445937395095825e-01
1.833521947264671326e-02
-5.505707580596208572e-03
3.554147109389305115e-02
-1.208743602037429810e-01
-1.629513204097747803e-01
-6.199626997113227844e-02
-1.039839535951614380e-01
-1.498276442289352417e-01
-7.704233378171920776e-02
-4.294724389910697937e-02
-5.745268240571022034e-02
-3.493169322609901428e-02
5.675774067640304565e-02
8.657262474298477173e-02
4.017267376184463501e-02
6.365763396024703979e-02
1.376254707574844360e-01
4.342995956540107727e-02
9.706389158964157104e-02
1.883475631475448608e-01
7.713910192251205444e-02
9.019791148602962494e-03
9.362691082060337067e-03
-4.505386110395193100e-03
-7.120523601770401001e-03
-5.886254366487264633e-03
-1.083878614008426666e-02
9.545832290314137936e-04
2.895940281450748444e-02
7.189183030277490616e-03
3.647083044052124023e-02
5.996764823794364929e-02
4.273078218102455139e-02
-7.438246160745620728e-02
-9.572613984346389771e-02
-5.368955060839653015e-02
1.061363238841295242e-02
-4.651450738310813904e-02
-2.099334821105003357e-02
3.679975867271423340e-02
3.348900005221366882e-02
1.219329424202442169e-03
1.204486377537250519e-02
4.021121188998222351e-03
3.422534791752696037e-05
-3.651098161935806274e-02
-2.058389596641063690e-02
-1.922346465289592743e-02
9.545333683490753174e-03
8.028049021959304810e-02
3.001724136993288994e-03
1.166053265333175659e-01
1.559725403785705566e-01
1.169904023408889771e-01
-1.865040510892868042e-01
-2.653446793556213379e-01
-1.404812783002853394e-01
5.405950546264648438e-02
-1.955671701580286026e-03
3.147755190730094910e-02
5.950306728482246399e-02
9.165439009666442871e-02
2.573068812489509583e-02
7.035235408693552017e-03
-6.283835973590612411e-03
4.446532577276229858e-03
-5.779629945755004883e-02
-5.200024694204330444e-02
-2.543599717319011688e-02
3.315799683332443237e-02
1.449472755193710327e-01
2.411601133644580841e-02
1.613232791423797607e-01
2.240351140499114990e-01
1.739033162593841553e-01
-3.739535212516784668e-01
-5.065889954566955566e-01
-2.846724390983581543e-01
1.543808281421661377e-01
9.800574928522109985e-02
1.070259287953376770e-01
3.678695112466812134e-02
8.773664385080337524e-02
4.442492499947547913e-03
1.602443493902683258e-02
-9.931571781635284424e-03
9.840451180934906006e-03
-7.631030678749084473e-02
-6.016016378998756409e-02
-4.662148654460906982e-02
7.806939631700515747e-02
2.184160649776458740e-01
5.622557923197746277e-02
1.654238402843475342e-01
2.020558416843414307e-01
1.800485104322433472e-01
-4.238108992576599121e-01
-6.235153675079345703e-01
-3.205679059028625488e-01
2.495209872722625732e-01
1.946497559547424316e-01
1.747206002473831177e-01
1.879027299582958221e-02
8.860041201114654541e-02
-1.735186763107776642e-02
4.724736791104078293e-03
-2.736921980977058411e-02
-8.818284841254353523e-04
-7.727909833192825317e-02
-5.895284935832023621e-02
-5.162403360009193420e-02
1.410954892635345459e-01
2.712782919406890869e-01
9.986914694309234619e-02
8.555433154106140137e-02
9.062846004962921143e-02
9.946461021900177002e-02
-3.779075145721435547e-01
-5.681533813476562500e-01
-3.051129579544067383e-01
2.690934836864471436e-01
2.460353374481201172e-01
1.872359216213226318e-01
-2.185612358152866364e-02
5.859990790486335754e-02
-4.845666140317916870e-02
1.195968687534332275e-02
-5.365646444261074066e-03
-1.622038544155657291e-03
-5.742914974689483643e-02
-2.982325851917266846e-02
-5.078872293233871460e-02
1.162271052598953247e-01
2.208629846572875977e-01
8.948677778244018555e-02
3.625312447547912598e-02
3.322969377040863037e-02
5.203837156295776367e-02
-2.587505877017974854e-01
-3.904486894607543945e-01
-2.195283472537994385e-01
2.224672138690948486e-01
2.082604765892028809e-01
1.561396867036819458e-01
-2.942843362689018250e-02
2.976502478122711182e-02
-3.749107196927070618e-02
2.025380730628967285e-03
-6.250691367313265800e-04
-5.159069783985614777e-03
-3.689456731081008911e-02
-4.993010312318801880e-03
1.274478039704263210e-03
4.881932213902473450e-02
1.083298921585083008e-01
7.091689854860305786e-02
-2.641100250184535980e-02
-3.694893792271614075e-02
-9.096107678487896919e-04
-1.463657021522521973e-01
-2.284512221813201904e-01
-1.402875185012817383e-01
1.286853700876235962e-01
7.961301505565643311e-02
5.278411880135536194e-02
1.152896438725292683e-03
-1.745743247738573700e-05
-3.210311010479927063e-02
-4.700973164290189743e-03
-9.288727305829524994e-03
-8.683928288519382477e-03
-2.233572676777839661e-02
-1.485037244856357574e-02
-7.376232650130987167e-03
-1.409804914146661758e-02
-7.614248432219028473e-03
6.192260480020195246e-05
4.384438041597604752e-03
9.422566741704940796e-03
2.894405089318752289e-02
2.869500033557415009e-02
2.570428512990474701e-02
4.862833768129348755e-02
4.921218380331993103e-03
1.048669405281543732e-02
4.987133666872978210e-03
-1.178567484021186829e-02
-8.834309875965118408e-03
-3.044457733631134033e-02
2.476783283054828644e-02
2.380955405533313751e-02
5.780067294836044312e-03
-1.078648027032613754e-02
3.381290007382631302e-03
-3.153977915644645691e-02
-5.565698072314262390e-02
-2.626269869506359100e-02
-6.535499542951583862e-02
-1.202694326639175415e-01
-1.059833839535713196e-01
-1.205704286694526672e-01
-1.365873664617538452e-01
-1.488453894853591919e-01
-1.281662732362747192e-01
-5.244296044111251831e-02
-6.749507039785385132e-02
-3.228527307510375977e-02
4.691405687481164932e-03
1.077224314212799072e-02
1.528128702193498611e-02
5.089009180665016174e-02
3.925894573330879211e-02
3.054651990532875061e-02
1.082949191331863403e-01
1.141669079661369324e-01
6.833641976118087769e-02
2.370006144046783447e-01
2.954114079475402832e-01
1.629660725593566895e-01
3.291919529438018799e-01
4.168746769428253174e-01
2.076663970947265625e-01
2.568188607692718506e-01
3.637042343616485596e-01
1.378481984138488770e-01
7.928349077701568604e-02
1.408797949552536011e-01
-9.521999396383762360e-03
1.200065761804580688e-02
2.513388916850090027e-02
-3.917298093438148499e-02
-7.730241119861602783e-02
-1.243152394890785217e-01
-4.482876881957054138e-02
-1.694786250591278076e-01
-2.580026388168334961e-01
-9.663754701614379883e-02
-2.733706533908843994e-01
-3.977270424365997314e-01
-1.671420633792877197e-01
-2.655389606952667236e-01
-4.013709723949432373e-01
-1.336435377597808838e-01
-5.221713334321975708e-02
-1.341204643249511719e-01
3.059547208249568939e-02
1.182897388935089111e-01
9.937407821416854858e-02
1.280606240034103394e-01
8.884767442941665649e-02
7.751118391752243042e-02
7.288859784603118896e-02
5.965344607830047607e-03
3.188498318195343018e-02
3.125741332769393921e-02
4.115119203925132751e-02
5.189291015267372131e-02
6.210589036345481873e-02
2.233052998781204224e-02
1.004478242248296738e-02
6.353919953107833862e-02
-1.782154291868209839e-01
-2.609691917896270752e-01
-5.305064097046852112e-02
-3.909436464309692383e-01
-5.209997296333312988e-01
-2.135301530361175537e-01
-3.555598556995391846e-01
-4.688117802143096924e-01
-2.204479277133941650e-01
-1.963943243026733398e-01
-2.544985115528106689e-01
-1.175955906510353088e-01
2.065414935350418091e-02
4.242322593927383423e-02
-1.345766475424170494e-03
3.835960105061531067e-02
7.679004222154617310e-02
-1.538036885904148221e-04
1.686929613351821899e-01
2.450005859136581421e-01
6.041578948497772217e-02
3.731489181518554688e-01
5.062076449394226074e-01
2.226869314908981323e-01
4.114804267883300781e-01
5.395015478134155273e-01
2.910906076431274414e-01
2.694399654865264893e-01
3.390582799911499023e-01
1.824206411838531494e-01
1.099713966250419617e-01
1.198053434491157532e-01
8.217971026897430420e-02
1.842506974935531616e-02
8.405291475355625153e-03
-1.902988925576210022e-02
-2.119941636919975281e-02
-2.795016393065452576e-02
-1.440879516303539276e-02
-7.614281773567199707e-02
-9.910842031240463257e-02
-8.278416097164154053e-02
-1.357700228691101074e-01
-1.650364547967910767e-01
-1.570904552936553955e-01
-1.332135498523712158e-01
-1.416307538747787476e-01
-1.455736011266708374e-01
-7.203692942857742310e-02
-3.994646668434143066e-02
-7.131010293960571289e-02
7.452617282979190350e-04
2.143985778093338013e-02
-1.848463341593742371e-02
-8.757438510656356812e-03
-2.140343887731432915e-03
-1.202663406729698181e-02
3.170726820826530457e-03
-4.583902191370725632e-03
-6.502659060060977936e-03
4.524101503193378448e-03
-4.572817590087652206e-03
4.476111207623034716e-04
2.468284592032432556e-02
2.157212980091571808e-02
3.416253020986914635e-03
5.290675908327102661e-04
2.049746550619602203e-02
6.553541868925094604e-03
-3.313628584146499634e-02
9.307778440415859222e-03
-3.476960584521293640e-03
-2.625158242881298065e-02
8.119655773043632507e-03
1.547779422253370285e-02
4.016298800706863403e-03
9.214031510055065155e-03
-4.050243660458363593e-05
-1.054480485618114471e-02
-2.561948448419570923e-02
-1.306864805519580841e-02
-3.815890476107597351e-02
-7.437513768672943115e-02
-3.949035704135894775e-02
-1.268980931490659714e-02
-8.462982624769210815e-02
-4.695019498467445374e-02
6.847215443849563599e-02
1.463207975029945374e-02
4.525803029537200928e-02
7.855866849422454834e-02
7.906290143728256226e-02
5.105817690491676331e-02
-3.334539709612727165e-03
4.078714700881391764e-04
-1.805086061358451843e-02
3.332960233092308044e-02
5.405499413609504700e-02
2.224577404558658600e-02
5.665608495473861694e-02
8.332028239965438843e-02
3.526009246706962585e-02
1.618236117064952850e-02
5.300133302807807922e-02
1.407564990222454071e-02
-1.767457276582717896e-01
-2.269908338785171509e-01
-1.734839528799057007e-01
-2.023125886917114258e-01
-3.502059280872344971e-01
-1.825092136859893799e-01
2.580145001411437988e-02
-7.822237908840179443e-02
1.498984452337026596e-02
1.074061989784240723e-01
5.864235386252403259e-02
6.255672872066497803e-02
-5.936174187809228897e-03
4.550164565443992615e-03
-6.616174359805881977e-04
7.311495020985603333e-03
4.665080457925796509e-02
3.719911677762866020e-03
2.100970745086669922e-01
3.501020371913909912e-01
1.789732575416564941e-01
3.102364540100097656e-01
5.001270174980163574e-01
2.710753679275512695e-01
-1.534349322319030762e-01
-1.156148165464401245e-01
-1.139060333371162415e-01
-2.829285562038421631e-01
-3.782007098197937012e-01
-2.384903132915496826e-01
-2.228080667555332184e-02
-1.133285611867904663e-01
-4.171185940504074097e-02
-1.183240581303834915e-02
-5.983421951532363892e-02
-1.967798359692096710e-02
-1.111647263169288635e-01
-1.657132804393768311e-01
-8.062736690044403076e-02
-2.195899039506912231e-01
-2.515884935855865479e-01
-1.966910064220428467e-01
1.927033066749572754e-01
3.641609251499176025e-01
1.767494231462478638e-01
4.770948290824890137e-01
7.213321328163146973e-01
4.363398551940917969e-01
6.704727560281753540e-02
1.534985303878784180e-01
6.631996482610702515e-02
-1.099151745438575745e-01
-1.303062885999679565e-01
-9.523763507604598999e-02
9.988289326429367065e-03
-1.805947721004486084e-02
-1.926182536408305168e-03
7.130963355302810669e-02
1.878403685986995697e-02
6.585965305566787720e-02
-1.022564619779586792e-01
-2.199081480503082275e-01
-7.066015899181365967e-02
-3.874604701995849609e-01
-4.687864184379577637e-01
-3.336005210876464844e-01
-4.604699835181236267e-02
7.344135083258152008e-03
-3.521174564957618713e-02
1.820630878210067749e-01
2.507669627666473389e-01
1.530883461236953735e-01
6.900086998939514160e-02
1.048692688345909119e-01
6.478722393512725830e-02
-1.523871999233961105e-02
-9.890553774312138557e-04
-1.625191536732017994e-03
5.472594406455755234e-03
2.396935969591140747e-02
-3.925663884729146957e-03
1.170873567461967468e-01
1.056097969412803650e-01
9.122649580240249634e-02
3.511083871126174927e-02
-4.315796494483947754e-02
2.432593703269958496e-02
-1.278842389583587646e-01
-1.843528151512145996e-01
-1.079995855689048767e-01
-7.454979419708251953e-02
-7.984098792076110840e-02
-6.024479866027832031e-02
8.142358623445034027e-03
3.026123344898223877e-02
2.137927338480949402e-02
-2.050251141190528870e-02
-4.447296261787414551e-03
-1.322078169323503971e-03
3.853948041796684265e-02
5.779311433434486389e-02
2.047964558005332947e-02
5.592550709843635559e-02
1.041465848684310913e-01
4.304340854287147522e-02
4.460405558347702026e-02
9.773115813732147217e-02
3.944925218820571899e-02
9.802073473110795021e-04
5.452456325292587280e-02
-6.754777859896421432e-03
-3.643022477626800537e-02
1.186564378440380096e-02
-4.101717844605445862e-02
-9.717307984828948975e-02
-5.439201742410659790e-02
-8.861847966909408569e-02
2.574993483722209930e-02
4.721637442708015442e-02
2.998372167348861694e-02
7.565148919820785522e-02
1.061928495764732361e-01
4.986777529120445251e-02
1.206697598099708557e-01
1.842415481805801392e-01
9.994707256555557251e-02
1.508593559265136719e-01
2.392892092466354370e-01
1.300713419914245605e-01
1.526729464530944824e-01
2.498363852500915527e-01
1.300611346960067749e-01
1.308517009019851685e-01
2.181662917137145996e-01
1.197364032268524170e-01
6.677746772766113281e-02
1.535728275775909424e-01
8.175464719533920288e-02
-2.696927404031157494e-03
-1.895466074347496033e-02
-1.644780673086643219e-02
9.078146889805793762e-03
1.042221579700708389e-02
-2.431536652147769928e-02
4.671306163072586060e-02
8.629220724105834961e-02
2.632115222513675690e-02
7.531996071338653564e-02
1.451283246278762817e-01
4.975466802716255188e-02
1.040357947349548340e-01
1.776987165212631226e-01
7.328529655933380127e-02
9.333188831806182861e-02
1.710899919271469116e-01
7.162941992282867432e-02
9.149054437875747681e-02
1.716537028551101685e-01
9.246052801609039307e-02
-1.260916329920291901e-02
-5.317437648773193359e-02
-3.557988256216049194e-02
-2.128219418227672577e-02
-6.072838604450225830e-02
-5.601514875888824463e-02
-1.029227045364677906e-03
-1.176972687244415283e-02
-2.442041225731372833e-02
1.443997025489807129e-02
2.284030616283416748e-02
-1.017138548195362091e-02
6.198843568563461304e-02
8.100657165050506592e-02
2.996567264199256897e-02
7.062020897865295410e-02
1.046291962265968323e-01
2.329112961888313293e-02
1.056235730648040771e-01
1.598949432373046875e-01
7.545462995767593384e-02
-5.134836956858634949e-02
-9.867946803569793701e-02
-4.104897379875183105e-02
-9.173833578824996948e-02
-1.587538868188858032e-01
-8.697968721389770508e-02
-7.769856601953506470e-02
-1.457138657569885254e-01
-6.121497601270675659e-02
-5.487822368741035461e-02
-1.240297704935073853e-01
-4.997649043798446655e-02
-1.173942699097096920e-03
-5.819813534617424011e-02
-5.447398871183395386e-03
-2.862005960196256638e-03
-3.396608307957649231e-02
-2.737320587038993835e-02
4.625861346721649170e-02
3.521708771586418152e-02
1.531900558620691299e-02
-2.323139086365699768e-02
-4.752068594098091125e-02
8.836377412080764771e-03
-1.179982200264930725e-01
-1.809210479259490967e-01
-9.953403472900390625e-02
-1.515870690345764160e-01
-2.379368841648101807e-01
-1.171543672680854797e-01
-1.470099836587905884e-01
-2.462547868490219116e-01
-1.190949156880378723e-01
-7.421849668025970459e-02
-1.708311289548873901e-01
-6.080591678619384766e-02
-5.702129006385803223e-02
-1.337579041719436646e-01
-6.343827396631240845e-02
-2.640778943896293640e-02
-8.594661206007003784e-02
-4.666794836521148682e-02
5.583736300468444824e-02
6.763868033885955811e-02
1.160803958773612976e-01
-4.428003355860710144e-02
-6.783142685890197754e-02
2.511407248675823212e-03
-1.180929616093635559e-01
-1.761240214109420776e-01
-6.277894973754882812e-02
-1.618242859840393066e-01
-2.460149824619293213e-01
-1.039071977138519287e-01
-1.456771790981292725e-01
-2.312631756067276001e-01
-9.248480945825576782e-02
-1.038951128721237183e-01
-1.797949671745300293e-01
-8.597930520772933960e-02
-5.242445692420005798e-02
-1.133556589484214783e-01
-4.899735003709793091e-02
9.500125050544738770e-02
-5.606000195257365704e-04
-7.167704403400421143e-02
9.755332767963409424e-02
4.603606648743152618e-03
-5.859033390879631042e-02
2.913417294621467590e-02
2.277273312211036682e-02
5.178262363187968731e-04
-1.788507848978042603e-01
-1.193400099873542786e-02
1.215556412935256958e-01
-1.384499967098236084e-01
-1.281818561255931854e-02
1.053704470396041870e-01
-5.997683107852935791e-02
5.309592466801404953e-03
2.295229770243167877e-02
1.145668234676122665e-02
-3.984457347542047501e-03
-2.033810690045356750e-02
6.142116338014602661e-02
-3.542733611539006233e-03
-5.136611312627792358e-02
-1.529260817915201187e-02
-2.469356358051300049e-02
-1.373469247482717037e-03
-1.298121511936187744e-01
-1.240157801657915115e-02
9.652944654226303101e-02
-3.523208498954772949e-01
-6.482346355915069580e-02
1.989014595746994019e-01
-2.077927589416503906e-01
-3.008574247360229492e-02
1.363354325294494629e-01
-3.355970978736877441e-02
9.558677673339843750e-03
9.677652269601821899e-04
5.550581216812133789e-02
1.084965188056230545e-02
-5.961358547210693359e-02
1.256276573985815048e-02
1.060155034065246582e-02
-8.032541722059249878e-03
-1.263805180788040161e-01
-2.650479786098003387e-02
7.297743111848831177e-02
-2.340351045131683350e-01
-9.894794784486293793e-03
1.869932860136032104e-01
-3.823844194412231445e-01
-7.584179937839508057e-02
2.057325541973114014e-01
-6.695514172315597534e-02
2.665301226079463959e-02
6.351015716791152954e-02
1.506823897361755371e-01
3.850225359201431274e-02
-1.018918007612228394e-01
1.736878305673599243e-01
9.526962530799210072e-04
-1.265091150999069214e-01
-1.336970329284667969e-01
-2.465138211846351624e-02
7.742128521203994751e-02
-2.372082620859146118e-01
-2.859567105770111084e-02
1.610055416822433472e-01
-3.019758462905883789e-01
-4.234082251787185669e-02
1.806992590427398682e-01
-2.486511468887329102e-01
-6.341988593339920044e-02
1.120057404041290283e-01
1.826666146516799927e-01
6.683837622404098511e-02
-7.503727823495864868e-02
3.061719834804534912e-01
2.966811880469322205e-02
-2.400912195444107056e-01
2.208088785409927368e-01
7.804884109646081924e-03
-1.428693532943725586e-01
-7.899145036935806274e-02
6.023263093084096909e-03
4.390828683972358704e-02
-1.092321723699569702e-01
2.037229202687740326e-02
8.340717107057571411e-02
-6.951703876256942749e-02
-1.261543948203325272e-03
1.342524401843547821e-02
1.497613936662673950e-01
4.485749825835227966e-02
-7.301998138427734375e-02
4.398106932640075684e-01
8.906683325767517090e-02
-2.613274157047271729e-01
4.432819187641143799e-01
7.969877868890762329e-02
-2.631136476993560791e-01
1.692335605621337891e-01
3.327592834830284119e-02
-8.002987504005432129e-02
-3.785232827067375183e-02
1.647442951798439026e-02
9.639048948884010315e-03
-2.817272907122969627e-03
2.948164753615856171e-02
1.405018148943781853e-03
8.880958706140518188e-02
1.673297770321369171e-02
-8.528268337249755859e-02
2.486525475978851318e-01
4.255778715014457703e-02
-1.529170721769332886e-01
3.565132617950439453e-01
5.618053302168846130e-02
-2.276147305965423584e-01
1.850527822971343994e-01
2.973558567464351654e-02
-1.019294857978820801e-01
-1.721309423446655273e-01
-5.640741437673568726e-02
8.508091419935226440e-02
-2.000452717766165733e-03
1.250866334885358810e-02
1.406067889183759689e-02
2.920989878475666046e-02
-5.901079159229993820e-03
-1.774605363607406616e-02
1.024722456932067871e-01
-1.699743047356605530e-02
-7.420343905687332153e-02
1.284392625093460083e-01
-1.444157212972640991e-03
-5.760977417230606079e-02
1.009739413857460022e-01
1.207814924418926239e-02
-3.163589909672737122e-02
-1.529442667961120605e-01
-4.542918503284454346e-02
8.795319497585296631e-02
-3.662881255149841309e-01
-7.737280428409576416e-02
2.386573404073715210e-01
-1.220020931214094162e-02
1.439823769032955170e-02
2.257323794765397906e-04
-2.641395851969718933e-02
-1.435856148600578308e-02
-2.225426770746707916e-02
-2.046334370970726013e-02
-1.165990438312292099e-02
-1.625493355095386505e-02
9.961883537471294403e-03
1.975313760340213776e-02
8.944729343056678772e-03
8.794169872999191284e-03
2.076540887355804443e-02
1.482356246560811996e-02
-1.475531700998544693e-02
-6.201547104865312576e-03
1.242626272141933441e-02
-1.818196661770343781e-02
-1.480439864099025726e-02
1.081957481801509857e-02
1.561196404509246349e-03
1.093175727874040604e-02
1.360855810344219208e-02
2.213402418419718742e-03
-1.086922269314527512e-02
3.780343336984515190e-03
6.065398920327425003e-03
-1.719415001571178436e-02
-4.574436752591282129e-04
2.529872395098209381e-02
-4.443554673343896866e-03
9.655919857323169708e-03
1.389636378735303879e-02
-1.945791579782962799e-02
-4.476980771869421005e-03
6.616697181016206741e-03
-2.497448213398456573e-02
8.447301574051380157e-03
1.119135506451129913e-02
-2.065424062311649323e-02
1.726544275879859924e-02
-9.089106693863868713e-03
-4.615253768861293793e-03
5.812707822769880295e-03
5.887090228497982025e-03
-1.665768586099147797e-02
1.853904454037547112e-03
9.201072389259934425e-04
-3.584826365113258362e-02
-2.244921028614044189e-02
2.168301306664943695e-02
-2.750199846923351288e-02
-1.611109077930450439e-02
7.125433534383773804e-03
-5.567614361643791199e-02
-3.328209742903709412e-02
1.073168031871318817e-02
-5.159412324428558350e-02
-1.490007247775793076e-02
1.749128289520740509e-02
-3.610321134328842163e-02
1.052957214415073395e-02
1.037589274346828461e-02
-2.131521888077259064e-02
-1.573525927960872650e-02
3.629653528332710266e-02
-2.227450162172317505e-02
-3.936664760112762451e-02
4.207392781972885132e-02
-6.328545510768890381e-03
-4.869699478149414062e-02
6.940073519945144653e-02
3.120280429720878601e-02
-2.190468646585941315e-02
6.086489185690879822e-02
-4.276418127119541168e-03
-4.742409661412239075e-02
5.216066911816596985e-02
-3.899487853050231934e-02
-4.464749246835708618e-02
4.477852582931518555e-02
-5.035053938627243042e-02
-2.146097272634506226e-02
2.013001032173633575e-02
-1.501880958676338196e-02
-1.094461698085069656e-02
5.839295312762260437e-02
9.221571963280439377e-04
-3.114198893308639526e-02
9.448704868555068970e-02
6.668464839458465576e-02
-3.523715771734714508e-03
1.635176390409469604e-01
1.754933744668960571e-01
8.745031058788299561e-02
1.483440399169921875e-01
1.316509991884231567e-01
4.545338824391365051e-02
8.967373520135879517e-02
1.157325040549039841e-02
-2.780415490269660950e-02
5.110233649611473083e-02
-4.609237238764762878e-02
-3.262254223227500916e-02
2.233688160777091980e-02
-4.448886029422283173e-03
2.722005825489759445e-03
5.483672395348548889e-02
7.548843132099136710e-05
-2.384823560714721680e-02
7.804513722658157349e-02
3.422612324357032776e-02
-2.134630456566810608e-02
1.511031389236450195e-01
1.397943198680877686e-01
6.187661364674568176e-02
1.304250359535217285e-01
1.042855530977249146e-01
2.579415403306484222e-02
6.443555653095245361e-02
-9.571550413966178894e-03
-3.696034848690032959e-02
4.387588798999786377e-02
-4.058209434151649475e-02
-1.821144297719001770e-02
-1.080599264241755009e-03
-1.955956965684890747e-02
-1.392959384247660637e-03
3.403248265385627747e-02
-1.960204169154167175e-02
-2.189110405743122101e-02
4.692710191011428833e-02
-2.643020264804363251e-02
-4.054837301373481750e-02
6.280260533094406128e-02
-1.936331018805503845e-02
-4.317486658692359924e-02
3.972065821290016174e-02
-3.927379846572875977e-02
-5.967350304126739502e-02
2.534024789929389954e-02
-5.199818685650825500e-02
-3.731512278318405151e-02
2.600733749568462372e-02
-4.067170992493629456e-02
-1.110084471292793751e-03
-5.625471472740173340e-03
-2.867830451577901840e-03
8.517344482243061066e-03
1.224801968783140182e-02
-1.546994689851999283e-02
1.139022060669958591e-03
-1.003432646393775940e-02
-2.317734993994235992e-02
-1.002253964543342590e-02
-4.141113534569740295e-02
7.848829030990600586e-03
3.221433237195014954e-02
-1.245447024703025818e-01
1.469774823635816574e-02
7.771451026201248169e-02
-1.180659141391515732e-02
1.478352397680282593e-02
1.787968724966049194e-02
1.116828769445419312e-01
1.404268201440572739e-02
-7.796487957239151001e-02
6.972427945584058762e-03
-1.245531532913446426e-02
-3.415085375308990479e-03
7.404752820730209351e-02
-2.985002100467681885e-02
-5.208472162485122681e-02
8.226707577705383301e-02
-4.300469998270273209e-03
-5.175537616014480591e-02
-4.995059221982955933e-02
1.007877383381128311e-02
2.979671955108642578e-02
-2.347596436738967896e-01
1.905050594359636307e-03
1.235441416501998901e-01
-1.139510273933410645e-01
-3.631066530942916870e-03
6.537120789289474487e-02
9.899604320526123047e-02
1.210683211684226990e-02
-6.744471192359924316e-02
2.865158580243587494e-02
-9.920515120029449463e-03
-6.664726883172988892e-03
1.516619026660919189e-01
-2.621543407440185547e-02
-1.078840866684913635e-01
1.792572885751724243e-01
1.619432237930595875e-03
-1.126669272780418396e-01
4.007208626717329025e-03
3.001598268747329712e-02
1.779134757816791534e-02
-2.904767692089080811e-01
-1.364313811063766479e-02
1.653261035680770874e-01
-1.788814812898635864e-01
-4.496500361710786819e-03
1.136159673333168030e-01
1.108681336045265198e-01
3.748906031250953674e-02
-5.296593531966209412e-02
2.051653154194355011e-02
-1.074066478759050369e-02
-2.867361297830939293e-03
2.041419148445129395e-01
-1.990156061947345734e-02
-1.308044493198394775e-01
2.317832708358764648e-01
-8.405022323131561279e-03
-1.615669727325439453e-01
-1.040931208990514278e-03
6.374431308358907700e-03
5.616843700408935547e-04
-3.390521109104156494e-01
-1.844239979982376099e-02
2.195475101470947266e-01
-2.526245117187500000e-01
-1.621479727327823639e-02
1.635914444923400879e-01
4.662413150072097778e-02
2.783042751252651215e-02
-1.782255060970783234e-02
1.086867297999560833e-03
-6.505978759378194809e-03
2.383013255894184113e-02
2.029297202825546265e-01
-1.878799311816692352e-02
-1.331085115671157837e-01
2.770536541938781738e-01
-4.677705466747283936e-03
-1.762521266937255859e-01
4.704189673066139221e-02
-4.479690105654299259e-04
-2.269216254353523254e-02
-3.229297995567321777e-01
-2.495800331234931946e-02
1.906753033399581909e-01
-2.578138113021850586e-01
-1.116685662418603897e-02
1.685621291399002075e-01
3.800011705607175827e-03
2.246641740202903748e-02
7.984326221048831940e-03
-3.112407773733139038e-02
-2.386205131188035011e-03
2.826044522225856781e-02
1.654543280601501465e-01
-2.442816272377967834e-03
-1.028273701667785645e-01
2.530226111412048340e-01
-4.948068410158157349e-03
-1.650074422359466553e-01
1.057623326778411865e-01
7.970486767590045929e-03
-6.453616172075271606e-02
-2.299154996871948242e-01
-1.459110993891954422e-02
1.109140589833259583e-01
-2.163348644971847534e-01
6.395864766091108322e-03
1.508157551288604736e-01
-5.329450592398643494e-02
1.121084764599800110e-02
2.476060949265956879e-02
-3.038399294018745422e-02
5.697230808436870575e-03
2.923300303518772125e-02
1.128315255045890808e-01
-7.582230493426322937e-03
-7.961940020322799683e-02
2.082139998674392700e-01
-1.925841323100030422e-03
-1.229396089911460876e-01
1.633935272693634033e-01
4.265969619154930115e-02
-5.996684730052947998e-02
-9.275245666503906250e-02
3.657310828566551208e-02
8.189596980810165405e-02
-1.652753651142120361e-01
-5.559627432376146317e-03
9.360453486442565918e-02
-7.196565717458724976e-02
2.096134051680564880e-02
4.821464791893959045e-02
1.216691458694185712e-08
1.673016036818353314e-08
2.017668876419520529e-08
8.958181751950178295e-09
1.355883672005120388e-08
1.649877745535377471e-08
6.235041372093519385e-09
1.012141481737671711e-08
9.339013118392358592e-09
8.342387225468428369e-09
1.441098262944251474e-08
1.553795669906321564e-08
1.566666796293247899e-08
2.244009777996325283e-08
2.208970606432103523e-08
1.966030893640891009e-08
2.777138696785641514e-08
2.357185557855245861e-08
1.488820000616897232e-08
2.160506085147062549e-08
1.778064984137017746e-08
1.214603173593786778e-08
1.775925007052592264e-08
1.841159047444307362e-08
4.231915706753852646e-09
7.940011315099582134e-09
1.409679484254411364e-08
2.441610691406026490e-09
5.458186347340188149e-09
1.036113150831852181e-08
8.290663267018771876e-09
1.284462047834722398e-08
9.143601431560455239e-09
4.941210995923484006e-09
1.615699218859845132e-08
1.475414368456995362e-08
1.169070529272175918e-08
1.753962486361615447e-08
1.724672138436744717e-08
6.913027927879511481e-09
1.415054118325542731e-08
1.660547610526919016e-08
1.135092819737337777e-08
1.686658812616315117e-08
1.945513083967398416e-08
2.401742582591737118e-09
5.918375567404154936e-09
1.109398350962464974e-08
5.246691969773564779e-09
7.206523822134158763e-09
1.530921700521048479e-08
6.893123849494031674e-10
7.747805952362796234e-09
8.765069559046878567e-09
-7.750531882955158380e-10
7.790308842459126026e-09
1.099298962969896820e-08
3.069976495240211989e-09
9.627756369923190505e-09
8.935950646105084161e-09
4.246371254623682034e-09
6.700297205952665536e-09
1.148702377662402796e-08
8.986249966369541653e-09
1.986593645142420428e-08
1.957997319834703376e-08
1.007043959333486782e-08
1.966556517629669543e-08
1.663707216437160241e-08
1.097878765676796320e-08
1.723167741829456645e-08
2.088143169487466366e-08
2.775037755142761853e-09
6.679025332800847536e-09
1.224784629272335224e-08
-7.760023734704191156e-10
7.746778329931203189e-09
5.703437278015144329e-09
3.479324606203704207e-09
6.579142564078210853e-09
7.903654619667577208e-09
1.099696866901922476e-08
1.510000124937960209e-08
1.527426718439528486e-08
1.155140338937599154e-08
1.727066845091940195e-08
1.969607410501339473e-08
1.100382629459772943e-08
1.659317483415634342e-08
1.712350083948877000e-08
5.909975175910631151e-09
1.111545522292090027e-08
1.172983932207216640e-08
-1.250534897856425687e-09
5.996906526917200608e-09
1.025530771414651099e-08
3.218500133073121106e-09
5.361632915423797385e-09
9.545012780165507138e-09
2.701910251090566817e-09
8.177257093677781086e-09
5.793723723002131010e-09
1.079004086079748959e-08
1.463982624017035050e-08
1.474233979337213896e-08
4.749185489316687381e-09
1.452302189619558703e-08
1.076994671223019395e-08
1.043230035691067314e-08
1.539117988613725174e-08
1.507265245948019583e-08
6.097794269521727983e-09
1.210350042413210758e-08
1.293527862600285516e-08
2.632905449218014837e-09
8.810605578446484287e-09
8.299780418496993661e-09
1.807041322132718619e-11
6.594889079281074373e-09
3.775187717991457248e-09
5.138973691032333591e-09
8.746869006870383600e-09
6.826146758953655080e-09
7.516140598795573169e-09
1.050078957121058920e-08
8.910411075646607060e-09
8.260877315535708476e-09
1.629810775227724662e-08
1.541482674838334788e-08
1.183875131260947455e-08
1.166035712429902560e-08
1.208751054804224623e-08
6.303567889887062847e-09
1.278163086482209110e-08
1.029952390041444232e-08
3.789709879242764146e-09
1.074262900857547720e-08
9.970064773767717270e-09
9.967557446088903816e-09
1.443382835475404136e-08
1.239548375053800555e-08
9.679597567924247414e-09
1.425843354496691973e-08
1.339668287414497172e-08
2.347212646469643005e-09
1.095448531884812837e-08
5.453219653617225049e-09
-3.612208366394042969e-02
-2.414857782423496246e-02
4.480647295713424683e-02
-8.281852118670940399e-03
-6.891027092933654785e-03
9.921583347022533417e-03
6.278354674577713013e-02
7.684507407248020172e-03
-7.336830347776412964e-02
-9.180646389722824097e-02
-2.866354770958423615e-04
6.743921339511871338e-02
-1.547036021947860718e-01
1.187172159552574158e-02
1.511026173830032349e-01
-2.816814556717872620e-02
-1.563161378726363182e-03
2.465076372027397156e-02
1.571378558874130249e-01
-1.375472731888294220e-02
-1.484602391719818115e-01
-2.668894268572330475e-02
-1.570056937634944916e-02
4.508733376860618591e-02
1.916395500302314758e-02
-1.049148757010698318e-02
-1.511150505393743515e-03
1.186295524239540100e-01
7.990123704075813293e-03
-1.088411062955856323e-01
-1.100413799285888672e-01
-7.949024438858032227e-03
1.118680238723754883e-01
-3.872700929641723633e-01
-1.009371876716613770e-02
3.981454670429229736e-01
-3.642359972000122070e-01
-1.337198168039321899e-02
3.787187635898590088e-01
-8.124667406082153320e-02
-4.294641315937042236e-03
9.950259327888488770e-02
2.742817997932434082e-02
-3.039268543943762779e-03
-2.340764552354812622e-02
1.032262369990348816e-01
-3.147608134895563126e-03
-9.879291057586669922e-02
3.759202063083648682e-01
2.178383432328701019e-02
-3.900977969169616699e-01
3.163738846778869629e-01
1.482428610324859619e-02
-3.343570530414581299e-01
-8.152913302183151245e-02
1.017292588949203491e-02
6.083938106894493103e-02
-3.368577063083648682e-01
-4.384856205433607101e-03
3.222723603248596191e-01
-1.953678131103515625e-01
-1.304303575307130814e-02
1.982234865427017212e-01
-8.789611607789993286e-02
-8.119121193885803223e-03
8.120680600404739380e-02
-8.114176243543624878e-02
-7.239442318677902222e-03
8.264604955911636353e-02
3.441060483455657959e-01
4.076328128576278687e-02
-3.649412393569946289e-01
6.498061418533325195e-01
3.738852217793464661e-02
-6.973760724067687988e-01
4.421380758285522461e-01
3.399946913123130798e-02
-4.607947170734405518e-01
-2.785379998385906219e-02
1.667343080043792725e-02
1.042823214083909988e-02
-1.862567216157913208e-01
-1.849066931754350662e-03
1.869216561317443848e-01
-1.258301138877868652e-01
-7.665479555726051331e-03
1.291439384222030640e-01
-3.445291817188262939e-01
-2.495466358959674835e-02
3.514384329319000244e-01
-6.688120961189270020e-02
2.325670793652534485e-02
7.186260819435119629e-02
3.829690515995025635e-01
2.506835013628005981e-02
-4.063706696033477783e-01
5.459599494934082031e-01
1.649484597146511078e-02
-5.268375277519226074e-01
2.323016226291656494e-01
-1.491488050669431686e-02
-2.060939073562622070e-01
-2.074935287237167358e-02
-2.786594443023204803e-02
5.243872106075286865e-02
1.760250516235828400e-02
-1.171724172309041023e-03
-1.944915577769279480e-02
-3.210430741310119629e-01
-2.623671479523181915e-02
3.281685709953308105e-01
-3.479306697845458984e-01
-8.818564005196094513e-03
3.590162992477416992e-01
-1.194839105010032654e-01
-5.192629061639308929e-03
1.069345474243164062e-01
1.692008078098297119e-01
5.497419741004705429e-03
-1.504375487565994263e-01
1.659403890371322632e-01
-1.618403196334838867e-02
-1.509322226047515869e-01
5.695564672350883484e-02
-1.759591698646545410e-02
-1.721277832984924316e-02
1.463403552770614624e-01
1.547756139189004898e-02
-1.667638868093490601e-01
-9.573586285114288330e-02
6.810163613408803940e-03
8.233838528394699097e-02
-2.461597770452499390e-01
8.206850849092006683e-03
2.395977228879928589e-01
-2.734908163547515869e-01
-7.735876715742051601e-04
2.696612775325775146e-01
-1.050550118088722229e-01
1.154943648725748062e-02
9.785420447587966919e-02
1.368636544793844223e-02
2.387041784822940826e-02
-3.621573746204376221e-02
1.049656327813863754e-02
1.591418310999870300e-02
-2.052799426019191742e-02
-1.653033541515469551e-03
6.807486992329359055e-03
-2.189300255849957466e-03
-2.259696833789348602e-03
-5.379546899348497391e-03
-1.425947900861501694e-02
2.336508594453334808e-02
1.683935336768627167e-02
7.359068375080823898e-03
-1.749975606799125671e-02
-2.878516539931297302e-02
2.346548810601234436e-02
-2.189698629081249237e-03
-6.837745662778615952e-03
2.344469726085662842e-02
6.664908491075038910e-03
3.361406736075878143e-03
-1.083279214799404144e-02
6.415830925107002258e-03
-1.447976683266460896e-03
-2.671409212052822113e-02
-8.776351809501647949e-03
-7.893755100667476654e-04
4.070666152983903885e-03
4.457533359527587891e-02
1.454666070640087128e-02
5.093591287732124329e-02
4.511356353759765625e-03
-3.657818213105201721e-02
5.313649401068687439e-02
-1.902906149625778198e-01
-2.310602664947509766e-01
-1.158197969198226929e-01
-3.865397721529006958e-02
-2.398276142776012421e-02
-3.057026304304599762e-02
5.009765923023223877e-02
6.345433741807937622e-02
2.209163643419742584e-02
3.739263862371444702e-02
3.273782879114151001e-02
1.354539114981889725e-02
1.547871064394712448e-02
3.054699860513210297e-03
6.115881726145744324e-03
1.360306236892938614e-02
-4.390628263354301453e-02
2.681563049554824829e-02
-2.239551544189453125e-01
-2.848254144191741943e-01
-1.673112660646438599e-01
-1.228651031851768494e-01
-8.278518915176391602e-02
-1.391027569770812988e-01
3.341790437698364258e-01
4.509918689727783203e-01
2.434770911931991577e-01
1.293607801198959351e-01
1.395423263311386108e-01
7.235578447580337524e-02
-2.772244438529014587e-02
-5.123931914567947388e-02
-2.873568795621395111e-02
-1.001615193672478199e-03
-2.414965629577636719e-02
9.791883639991283417e-03
-1.128497496247291565e-01
-1.695883721113204956e-01
-7.724922150373458862e-02
-1.449450701475143433e-01
-1.087661981582641602e-01
-1.514295041561126709e-01
4.697783291339874268e-01
6.836020350456237793e-01
3.449992239475250244e-01
2.586477696895599365e-01
3.595402538776397705e-01
1.934919506311416626e-01
-2.591557502746582031e-01
-3.620111048221588135e-01
-2.429621517658233643e-01
-8.647719770669937134e-02
-1.417675018310546875e-01
-6.639163196086883545e-02
-1.254351064562797546e-02
-2.133887819945812225e-02
-6.847090553492307663e-03
-3.563220798969268799e-02
-3.556677326560020447e-02
-4.769870638847351074e-02
1.887643039226531982e-01
2.930421531200408936e-01
1.186780482530593872e-01
2.934933900833129883e-01
4.137175977230072021e-01
2.363989502191543579e-01
-3.999193906784057617e-01
-4.979774653911590576e-01
-3.223327994346618652e-01
-1.868657320737838745e-01
-3.062337934970855713e-01
-1.251355409622192383e-01
7.557659596204757690e-02
8.814333379268646240e-02
9.804598242044448853e-02
2.310710214078426361e-02
3.595523908734321594e-02
2.942318562418222427e-03
4.465506225824356079e-02
6.152961775660514832e-02
2.318965084850788116e-02
9.133345633745193481e-02
1.383138149976730347e-01
7.681354135274887085e-02
-1.243383660912513733e-01
-1.539959907531738281e-01
-9.139912575483322144e-02
-2.158222347497940063e-01
-3.391209840774536133e-01
-1.511375755071640015e-01
1.265275925397872925e-01
8.702734857797622681e-02
1.095377430319786072e-01
4.404379799962043762e-02
8.735769242048263550e-02
3.025457076728343964e-02
8.237763307988643646e-03
6.060103420168161392e-03
-3.848398802801966667e-03
-5.603406578302383423e-03
1.037076581269502640e-03
2.439954550936818123e-03
-8.607611525803804398e-04
5.322326906025409698e-04
1.553110126405954361e-02
-7.454516738653182983e-02
-1.249359771609306335e-01
-6.780758500099182129e-02
3.399164974689483643e-02
-1.676841080188751221e-02
2.208785340189933777e-02
5.225173756480216980e-02
7.074614614248275757e-02
2.165792323648929596e-02
-4.128409922122955322e-02
1.035797037184238434e-02
-2.180129103362560272e-02
-1.005147024989128113e-02
-8.563103154301643372e-03
1.283522136509418488e-02
1.286336313933134079e-02
-1.616246416233479977e-03
-8.978468365967273712e-03
6.114365160465240479e-02
-1.752539887093007565e-03
-4.965809360146522522e-02
7.540712505578994751e-02
-9.061461314558982849e-03
-6.066298112273216248e-02
1.122572347521781921e-01
-1.629529707133769989e-02
-8.519747108221054077e-02
1.561853140592575073e-01
-1.184633560478687286e-02
-7.865776866674423218e-02
1.282211691141128540e-01
-2.149067074060440063e-02
-9.911023825407028198e-02
-3.381222486495971680e-02
-1.852733083069324493e-03
1.650082692503929138e-02
-1.650075614452362061e-02
4.196297377347946167e-03
1.373783964663743973e-02
4.509731754660606384e-02
2.377286180853843689e-02
-1.805969513952732086e-02
8.557808399200439453e-02
2.541628479957580566e-02
-4.280459135770797729e-02
1.569139510393142700e-01
2.404720894992351532e-02
-8.091029524803161621e-02
2.139709591865539551e-01
2.112305350601673126e-02
-1.041580364108085632e-01
1.854104399681091309e-01
5.823793471790850163e-04
-1.204087734222412109e-01
-5.696674436330795288e-02
4.325051850173622370e-04
3.504100441932678223e-02
-1.373727321624755859e-01
-1.545805297791957855e-02
6.334599852561950684e-02
-1.456968039274215698e-01
-2.003443427383899689e-02
4.553070291876792908e-02
-1.005072221159934998e-01
-5.049254745244979858e-03
4.585537314414978027e-02
2.721823751926422119e-02
1.964468695223331451e-02
3.685525385662913322e-03
1.340763717889785767e-01
3.750343248248100281e-02
-3.951509296894073486e-02
1.344790160655975342e-01
1.481947954744100571e-02
-9.406694769859313965e-02
-5.737734586000442505e-02
-1.142720319330692291e-02
2.823477983474731445e-02
-1.867990195751190186e-01
-3.195604309439659119e-02
8.464919030666351318e-02
-2.506681680679321289e-01
-3.557004779577255249e-02
1.152036488056182861e-01
-2.855744063854217529e-01
-3.792692720890045166e-02
1.431660354137420654e-01
-2.428137362003326416e-01
-4.373849555850028992e-02
1.106454059481620789e-01
-1.071890518069267273e-01
-7.093508262187242508e-03
7.598154991865158081e-02
-3.963284194469451904e-03
2.593013271689414978e-02
1.642891764640808105e-02
-8.290424011647701263e-03
-3.049303311854600906e-03
-4.694691393524408340e-03
-9.600961208343505859e-02
-6.168201565742492676e-03
3.877289965748786926e-02
-1.788404881954193115e-01
-2.379845455288887024e-02
7.007544487714767456e-02
-2.757965028285980225e-01
-1.927725225687026978e-02
1.445949524641036987e-01
-3.190020322799682617e-01
-1.707867905497550964e-02
1.740367114543914795e-01
-3.175856173038482666e-01
-5.140883475542068481e-02
1.488731503486633301e-01
-2.250743210315704346e-01
-2.221600338816642761e-02
1.168326660990715027e-01
9.143459796905517578e-02
1.455911248922348022e-02
-2.702236361801624298e-02
8.072666823863983154e-02
1.843491569161415100e-02
-3.599178045988082886e-02
5.663682892918586731e-02
3.565837442874908447e-02
-2.766932360827922821e-02
-6.930967420339584351e-02
1.768160052597522736e-02
2.578206360340118408e-02
-1.474295258522033691e-01
1.296265888959169388e-02
5.828412622213363647e-02
-2.200370877981185913e-01
-1.420761924237012863e-02
9.321461617946624756e-02
-2.293156981468200684e-01
-1.253451965749263763e-02
1.065941825509071350e-01
1.511065810918807983e-01
-2.866468206048011780e-02
-9.570260345935821533e-02
1.973249614238739014e-01
-2.440934767946600914e-03
-9.742014110088348389e-02
2.101390063762664795e-01
1.127513870596885681e-02
-1.314191073179244995e-01
1.629506796598434448e-01
2.258145436644554138e-02
-1.069011464715003967e-01
1.396208554506301880e-01
4.678002372384071350e-02
-7.272835820913314819e-02
3.865976631641387939e-02
2.849235385656356812e-02
-3.208303451538085938e-02
-5.332937091588973999e-02
1.713945902884006500e-02
9.478101506829261780e-03
-5.823258310556411743e-03
7.068468257784843445e-03
1.591373607516288757e-02
-1.524857897311449051e-02
1.582259777933359146e-03
-5.629208404570817947e-03
-2.860989607870578766e-02
-2.912413142621517181e-02
-2.629893133416771889e-03
1.351214665919542313e-02
-1.711446233093738556e-02
-3.829449648037552834e-03
2.209718339145183563e-02
2.740877121686935425e-02
-9.461100562475621700e-04
1.953898742794990540e-02
3.134106099605560303e-02
1.649556681513786316e-02
-5.385919939726591110e-03
-1.305623818188905716e-02
1.115051470696926117e-02
-5.046041216701269150e-03
3.619009163230657578e-03
5.297225899994373322e-03
3.011011891067028046e-02
4.546764865517616272e-02
1.895626075565814972e-02
-8.058822900056838989e-02
-1.039955541491508484e-01
-3.386440128087997437e-02
-8.746740408241748810e-03
-7.055861502885818481e-02
4.760303068906068802e-03
1.118527650833129883e-01
1.314350813627243042e-01
4.461072012782096863e-02
1.708001480437815189e-03
4.304585978388786316e-02
-3.545133396983146667e-02
-4.136919975280761719e-02
-2.298197709023952484e-02
-2.013602294027805328e-03
-1.237010303884744644e-02
-9.059304371476173401e-03
-2.111388836055994034e-03
9.928210079669952393e-02
1.399405747652053833e-01
7.915603369474411011e-02
-3.890230506658554077e-02
-4.200264438986778259e-02
5.448634736239910126e-03
-3.020964562892913818e-01
-4.286639392375946045e-01
-1.953991651535034180e-01
1.871236562728881836e-01
1.662924587726593018e-01
1.510304510593414307e-01
1.643915474414825439e-01
2.477920949459075928e-01
6.989712268114089966e-02
-9.242213517427444458e-02
-6.008682772517204285e-02
-9.428679943084716797e-02
-8.645106106996536255e-03
-1.573547720909118652e-02
-3.627121075987815857e-02
3.237236291170120239e-02
9.106478095054626465e-02
-1.298877969384193420e-02
2.939291894435882568e-01
3.869275450706481934e-01
2.532173991203308105e-01
-4.016564786434173584e-01
-5.310155153274536133e-01
-2.498135715723037720e-01
-2.815176248550415039e-01
-4.211656749248504639e-01
-1.509666740894317627e-01
3.155606985092163086e-01
3.674009144306182861e-01
2.297561764717102051e-01
2.018517814576625824e-02
8.667694032192230225e-02
-3.065060451626777649e-02
2.251398190855979919e-02
4.660602193325757980e-03
1.677592284977436066e-02
-1.276113837957382202e-01
-9.863565117120742798e-02
-1.384288221597671509e-01
2.899135947227478027e-01
4.308274388313293457e-01
2.048522680997848511e-01
1.623647958040237427e-01
1.825815290212631226e-01
1.969282180070877075e-01
-4.830849766731262207e-01
-6.619450449943542480e-01
-3.203981518745422363e-01
2.676464617252349854e-02
-3.674939647316932678e-02
4.729236662387847900e-02
1.029013171792030334e-01
1.507442295551300049e-01
6.191535294055938721e-02
1.918138936161994934e-02
1.930235186591744423e-03
3.080217167735099792e-02
-7.240401953458786011e-02
-9.260793775320053101e-02
-5.740873888134956360e-02
-1.661910489201545715e-02
3.509055823087692261e-02
-6.130883097648620605e-02
2.651540040969848633e-01
3.479798138141632080e-01
2.024118900299072266e-01
-1.042985990643501282e-01
-1.546550393104553223e-01
-3.823908045887947083e-02
-1.274655014276504517e-01
-2.284900099039077759e-01
-1.193848699331283569e-01
9.196147322654724121e-02
8.975872397422790527e-02
4.230124875903129578e-02
1.199940685182809830e-02
-6.527123972773551941e-03
7.624859921634197235e-03
-1.512249372899532318e-02
-2.670898288488388062e-02
4.057832062244415283e-03
-3.870810195803642273e-02
-3.039133362472057343e-02
-3.494916111230850220e-02
7.966408133506774902e-02
1.209260448813438416e-01
3.853769972920417786e-02
3.492066264152526855e-02
6.103629618883132935e-02
7.388500869274139404e-02
-9.754727780818939209e-02
-1.175284534692764282e-01
-4.575716704130172729e-02
-8.013212122023105621e-03
-1.219108307850547135e-04
1.147418748587369919e-02
-5.429151002317667007e-03
-3.890375839546322823e-03
-6.987807806581258774e-03
3.394697559997439384e-03
-1.108619850128889084e-02
-1.147810928523540497e-02
4.049377143383026123e-02
5.094171315431594849e-02
3.647254407405853271e-02
-4.931233823299407959e-02
-6.971211731433868408e-02
-3.776310756802558899e-02
4.173351079225540161e-02
3.831104189157485962e-02
1.647662185132503510e-02
-1.038064993917942047e-02
-2.067896910011768341e-02
-1.712305657565593719e-02
8.897218503989279270e-04
2.494818065315485001e-03
1.501235272735357285e-02
6.537167355418205261e-03
1.993813179433345795e-02
1.875775342341512442e-04
-2.177625708281993866e-02
-4.471266269683837891e-02
-3.987477347254753113e-02
7.392086833715438843e-02
1.008835062384605408e-01
5.600380897521972656e-02
-1.178541928529739380e-01
-1.186412870883941650e-01
-6.437744945287704468e-02
7.455989718437194824e-02
1.025459915399551392e-01
7.536491006612777710e-02
-4.859610646963119507e-02
-4.653099551796913147e-02
-5.840304493904113770e-02
1.009815838187932968e-02
3.006183542311191559e-02
3.271729499101638794e-02
1.963307149708271027e-02
3.961775451898574829e-02
3.425430878996849060e-02
-8.466649800539016724e-02
-1.383402347564697266e-01
-8.488526195287704468e-02
1.364172250032424927e-01
1.880514919757843018e-01
8.329212665557861328e-02
-9.798263758420944214e-02
-6.679455190896987915e-02
-5.306978151202201843e-02
-1.476245187222957611e-02
-9.886275976896286011e-02
7.601543795317411423e-03
7.934945821762084961e-02
1.034233346581459045e-01
3.017350099980831146e-02
-3.995035216212272644e-02
-9.400340728461742401e-03
-1.085678953677415848e-02
2.467585168778896332e-02
5.075109750032424927e-02
2.608599700033664703e-02
1.209839526563882828e-02
-8.594754338264465332e-02
1.609441824257373810e-02
-1.371633261442184448e-01
-1.714365333318710327e-01
-1.800422668457031250e-01
3.885577321052551270e-01
5.596664547920227051e-01
3.828725218772888184e-01
-5.052902698516845703e-01
-6.796733736991882324e-01
-4.139346480369567871e-01
3.868432641029357910e-01
4.121209383010864258e-01
3.225305378437042236e-01
-1.472419947385787964e-01
-1.217917054891586304e-01
-1.521863490343093872e-01
-6.783226877450942993e-02
-3.425218537449836731e-02
-8.113430440425872803e-02
2.475912421941757202e-01
2.095739692449569702e-01
2.460915148258209229e-01
-4.662827253341674805e-01
-5.775423049926757812e-01
-4.398777782917022705e-01
5.438452363014221191e-01
7.284976840019226074e-01
4.811901748180389404e-01
-3.727151751518249512e-01
-4.639735221862792969e-01
-2.996636629104614258e-01
1.217214092612266541e-01
8.585394173860549927e-02
1.134469732642173767e-01
1.421996951103210449e-02
3.502975404262542725e-02
-3.113597817718982697e-02
-2.557009831070899963e-02
-1.165125053375959396e-02
-3.139190375804901123e-02
5.596069991588592529e-02
5.040512606501579285e-02
5.968585610389709473e-02
-6.251878291368484497e-02
-1.280319839715957642e-01
-3.742116317152976990e-02
3.394762426614761353e-02
6.744000315666198730e-02
-9.464732371270656586e-03
2.890906482934951782e-02
6.542127579450607300e-02
6.259506940841674805e-02
-8.426088094711303711e-02
-1.034756675362586975e-01
-4.956093803048133850e-02
3.278515115380287170e-02
5.918229371309280396e-02
2.808745391666889191e-02
2.740198373794555664e-02
2.499374933540821075e-02
1.422208081930875778e-02
-5.482941493391990662e-02
-6.336422264575958252e-02
-3.580826520919799805e-02
7.722956687211990356e-02
6.705085188150405884e-02
6.861258298158645630e-02
-5.389139428734779358e-02
-9.681600332260131836e-02
-6.767750531435012817e-02
9.372473508119583130e-02
9.300634264945983887e-02
6.390403211116790771e-02
-5.676095932722091675e-02
-8.611134439706802368e-02
-6.596808135509490967e-02
1.391450967639684677e-02
3.257368877530097961e-02
2.596597000956535339e-02
7.414855528622865677e-03
-5.144895985722541809e-02
6.254605203866958618e-02
-1.378201297484338284e-03
-1.620249077677726746e-02
1.310308557003736496e-02
3.262364538386464119e-03
-3.146572411060333252e-02
1.579680293798446655e-02
-7.991937920451164246e-03
9.687012992799282074e-03
-1.354173291474580765e-02
-1.325043104588985443e-02
-4.712510854005813599e-03
-9.426217526197433472e-03
-3.382003400474786758e-03
-9.780711494386196136e-03
1.700529083609580994e-02
-9.799053892493247986e-03
4.391693510115146637e-03
2.399955503642559052e-02
9.026766754686832428e-03
-2.087661623954772949e-02
1.842173747718334198e-02
-1.493391580879688263e-02
3.526544570922851562e-02
-2.898985333740711212e-02
-2.408913709223270416e-02
4.369589313864707947e-02
-2.943305298686027527e-02
-2.164771966636180878e-02
9.025763720273971558e-02
-8.148232847452163696e-02
-1.712910830974578857e-02
9.188888221979141235e-02
-7.530314475297927856e-02
-7.371417246758937836e-03
8.054447919130325317e-02
-6.114134937524795532e-02
-3.271748125553131104e-02
7.372978329658508301e-02
-5.545640736818313599e-02
5.558490287512540817e-03
-1.922073401510715485e-02
4.001422971487045288e-02
-1.398045849055051804e-02
3.371372073888778687e-02
-1.377401314675807953e-02
-3.047752939164638519e-02
7.133096456527709961e-02
-2.058934979140758514e-02
-4.524637013673782349e-02
1.311761587858200073e-01
-1.202309057116508484e-01
-3.347095847129821777e-02
1.610493361949920654e-01
-1.246657222509384155e-01
-3.107453696429729462e-02
1.454130262136459351e-01
-1.072105094790458679e-01
-5.147173255681991577e-02
1.323327571153640747e-01
-6.969245523214340210e-02
-1.581318210810422897e-03
2.578431507572531700e-03
-6.038932129740715027e-03
-1.555269770324230194e-02
6.905673444271087646e-02
-7.944798469543457031e-02
-2.821055240929126740e-02
1.344842016696929932e-01
-1.198050156235694885e-01
5.515432450920343399e-03
2.607344388961791992e-01
-2.428269237279891968e-01
2.000719308853149414e-02
2.901805639266967773e-01
-3.076278269290924072e-01
3.128168755210936069e-04
2.530081868171691895e-01
-2.847520112991333008e-01
-2.486531995236873627e-02
2.153915315866470337e-01
-2.132471054792404175e-01
-1.056987605988979340e-02
1.122532878071069717e-03
1.359556894749403000e-02
-1.648166775703430176e-02
8.939491212368011475e-02
-6.770171970129013062e-02
-2.901337668299674988e-02
1.501831412315368652e-01
-1.269834935665130615e-01
2.397965639829635620e-02
2.816285490989685059e-01
-2.932673096656799316e-01
4.825898632407188416e-02
3.253587782382965088e-01
-3.572260737419128418e-01
3.629587963223457336e-02
3.053569793701171875e-01
-3.310430943965911865e-01
-1.538371318019926548e-03
2.371390014886856079e-01
-2.622779905796051025e-01
-6.010586395859718323e-03
-7.409037556499242783e-03
1.359149906784296036e-02
-1.006915885955095291e-02
7.442676275968551636e-02
-5.856571719050407410e-02
-1.586128398776054382e-02
1.307134777307510376e-01
-1.050673872232437134e-01
1.437395717948675156e-02
2.518143653869628906e-01
-2.758848965167999268e-01
2.777152322232723236e-02
2.830116748809814453e-01
-3.327472805976867676e-01
3.140845894813537598e-02
2.755541801452636719e-01
-2.906517088413238525e-01
-1.457407884299755096e-02
2.126142084598541260e-01
-2.415339201688766479e-01
-2.266697958111763000e-02
-4.463235381990671158e-03
2.811138518154621124e-02
-1.921262592077255249e-02
6.747959554195404053e-02
-4.677000269293785095e-02
-3.055913373827934265e-02
1.038581952452659607e-01
-7.819267362356185913e-02
-7.463630754500627518e-03
2.026154845952987671e-01
-2.053734064102172852e-01
-1.515426556579768658e-03
2.288465499877929688e-01
-2.488479912281036377e-01
-1.085253991186618805e-02
2.079963088035583496e-01
-2.228393107652664185e-01
-2.201301418244838715e-02
1.884374022483825684e-01
-1.810079365968704224e-01
-1.370510365813970566e-02
-4.414879716932773590e-03
-2.308408962562680244e-03
2.065804414451122284e-02
2.582805417478084564e-02
1.493326574563980103e-02
-9.582347236573696136e-03
1.449391897767782211e-02
5.190656520426273346e-03
-8.103214949369430542e-02
-5.821326375007629395e-02
-7.461737096309661865e-02
-1.646993495523929596e-02
2.061710320413112640e-02
-2.622401341795921326e-02
1.370393577963113785e-02
4.817307367920875549e-02
2.732541412115097046e-02
1.854914613068103790e-02
1.748595759272575378e-02
1.275734510272741318e-02
1.981978677213191986e-02
3.013088367879390717e-03
5.986636038869619370e-03
-1.821236871182918549e-02
-2.794272452592849731e-02
-3.010327182710170746e-02
-1.396337244659662247e-02
-2.006023749709129333e-02
-4.383308440446853638e-02
2.124848663806915283e-01
2.275270223617553711e-01
1.862407475709915161e-01
1.312621980905532837e-01
1.249125897884368896e-01
1.661607325077056885e-01
-8.125085383653640747e-02
-1.209043264389038086e-01
-3.397299349308013916e-02
-5.081541091203689575e-02
-1.065363064408302307e-01
-6.006856635212898254e-02
-3.131151944398880005e-02
-3.082155436277389526e-02
-9.113074280321598053e-03
-3.508874506223946810e-04
1.004304154776036739e-03
6.000217050313949585e-03
7.673719525337219238e-02
4.797137156128883362e-02
1.155465915799140930e-01
-2.855316102504730225e-01
-3.840509355068206787e-01
-1.746078133583068848e-01
-4.679056704044342041e-01
-5.464117527008056641e-01
-3.696742951869964600e-01
-5.554968491196632385e-02
-6.731551140546798706e-02
-5.620425567030906677e-02
9.403585642576217651e-02
1.058356091380119324e-01
7.110317796468734741e-02
9.948994964361190796e-03
2.665847539901733398e-02
2.361419610679149628e-02
2.461258880794048309e-02
2.545741759240627289e-02
4.447532445192337036e-02
-1.432476937770843506e-01
-1.499663889408111572e-01
-1.201780736446380615e-01
6.048489362001419067e-02
1.362078934907913208e-01
-4.741444718092679977e-03
6.152783632278442383e-01
7.814146280288696289e-01
4.463573396205902100e-01
3.696831464767456055e-01
4.475146830081939697e-01
2.090345770120620728e-01
9.449951350688934326e-03
-1.574783585965633392e-03
-4.055459424853324890e-02
1.095830742269754410e-02
-3.878037445247173309e-03
-8.293159306049346924e-03
-8.395547978579998016e-03
-3.036471828818321228e-02
-4.580208659172058105e-02
1.354058533906936646e-01
1.528548598289489746e-01
3.813984617590904236e-02
2.754583358764648438e-01
3.033781945705413818e-01
1.766141355037689209e-01
-2.845766246318817139e-01
-3.729343712329864502e-01
-2.836408913135528564e-01
-3.804490864276885986e-01
-5.184189677238464355e-01
-3.175014555454254150e-01
-4.254382848739624023e-02
-1.149009838700294495e-01
-5.107457283884286880e-03
3.488957183435559273e-03
-2.992354147136211395e-02
-2.153424173593521118e-02
2.791254967451095581e-02
4.913453478366136551e-03
3.086586296558380127e-02
-3.467611968517303467e-02
-8.599173277616500854e-02
-1.019610930234193802e-02
-2.382622808218002319e-01
-3.696650564670562744e-01
-1.671045869588851929e-01
-4.180662333965301514e-02
-1.451562047004699707e-01
5.325428768992424011e-02
2.235200256109237671e-01
2.275704443454742432e-01
2.692673802375793457e-01
2.364818379282951355e-02
4.150046035647392273e-02
3.890617936849594116e-02
-1.408995967358350754e-02
1.211464498192071915e-02
3.405278082937002182e-03
-1.938335411250591278e-02
1.891337707638740540e-02
-8.692479692399501801e-03
-2.335412800312042236e-02
1.936510019004344940e-02
-6.994923576712608337e-03
6.677469611167907715e-02
1.179740652441978455e-01
7.194533944129943848e-02
5.426680669188499451e-02
1.208813339471817017e-01
3.475983440876007080e-02
-1.021848693490028381e-01
-2.728880010545253754e-02
-1.054826155304908752e-01
-3.579284250736236572e-02
2.359457500278949738e-02
-1.019452419131994247e-02
-3.531986847519874573e-03
-1.106159295886754990e-02
-1.668148301541805267e-02
1.494387816637754440e-02
3.728443384170532227e-02
2.331575006246566772e-02
2.475666627287864685e-02
4.210016876459121704e-02
1.394052710384130478e-02
1.929980790009722114e-04
2.100468054413795471e-02
-2.412337437272071838e-02
-4.287343099713325500e-02
-1.700222678482532501e-02
-3.663836419582366943e-02
-1.482646074146032333e-02
-4.193773493170738220e-03
-8.531903848052024841e-03
-4.377618897706270218e-03
-4.145129641983658075e-04
-4.668979439884424210e-03
-1.314739882946014404e-02
-1.831070519983768463e-02
-2.162231691181659698e-02
-7.678653113543987274e-03
-8.762937039136886597e-03
-2.531513338908553123e-03
7.309567183256149292e-02
8.233049511909484863e-02
5.308162420988082886e-02
1.931976377964019775e-01
2.253238260746002197e-01
1.047802343964576721e-01
1.514245718717575073e-01
1.985426247119903564e-01
2.716245874762535095e-02
6.151097640395164490e-02
9.983088821172714233e-02
-4.142310097813606262e-02
2.299636229872703552e-02
5.743059888482093811e-02
-2.725330553948879242e-02
-5.296162515878677368e-02
-6.122750788927078247e-02
-2.506684325635433197e-02
-1.434942185878753662e-01
-1.942170560359954834e-01
-7.019474357366561890e-02
-2.631935477256774902e-01
-3.690075278282165527e-01
-1.366880834102630615e-01
-2.278071194887161255e-01
-3.368045687675476074e-01
-8.592826128005981445e-02
5.270341038703918457e-02
-8.157775737345218658e-03
1.084012240171432495e-01
1.900242567062377930e-01
1.662048697471618652e-01
1.203648000955581665e-01
8.513784408569335938e-02
7.930129766464233398e-02
2.108659967780113220e-02
5.030751228332519531e-02
5.998317897319793701e-02
2.916007675230503082e-02
9.470558911561965942e-02
1.091290563344955444e-01
6.354266405105590820e-02
5.092240497469902039e-02
2.531122416257858276e-02
6.235036998987197876e-02
-2.970892786979675293e-01
-3.979472517967224121e-01
-1.348121911287307739e-01
-5.390765666961669922e-01
-6.966126561164855957e-01
-2.968598604202270508e-01
-3.000867068767547607e-01
-4.443329274654388428e-01
-1.553568392992019653e-01
-1.077461764216423035e-01
-1.936934143304824829e-01
-4.350238665938377380e-02
1.295603625476360321e-02
3.069175407290458679e-02
-7.695179432630538940e-03
7.108062505722045898e-02
1.126276850700378418e-01
2.248737029731273651e-03
2.408211678266525269e-01
3.284901082515716553e-01
7.646726071834564209e-02
4.306962192058563232e-01
5.608673095703125000e-01
2.764042913913726807e-01
2.532360553741455078e-01
3.636004030704498291e-01
2.057078480720520020e-01
8.844841271638870239e-03
2.655392512679100037e-02
2.600244432687759399e-02
-6.667124480009078979e-02
-8.623912185430526733e-02
4.975149058736860752e-04
-9.969653561711311340e-03
-5.425209645181894302e-03
2.029893919825553894e-02
-4.428215697407722473e-02
-5.763639509677886963e-02
-1.560056395828723907e-02
-1.013479456305503845e-01
-1.157080456614494324e-01
-1.161355376243591309e-01
-3.161834552884101868e-02
2.443451434373855591e-03
-9.514305740594863892e-02
1.147712096571922302e-01
2.091090828180313110e-01
3.573721274733543396e-02
1.186664253473281860e-01
1.787126511335372925e-01
5.548420920968055725e-02
9.600243531167507172e-03
5.054990202188491821e-02
3.617080301046371460e-02
1.241800026036798954e-03
-7.321581244468688965e-03
-3.737505059689283371e-03
6.868625059723854065e-03
-1.906297355890274048e-02
3.115096315741539001e-02
-8.554330095648765564e-03
-3.841111063957214355e-02
1.917019300162792206e-02
-4.356938228011131287e-02
-6.894845515489578247e-02
-1.387668028473854065e-02
-6.844028085470199585e-02
-7.246483117341995239e-02
-3.201608732342720032e-02
4.883182700723409653e-03
-7.837845943868160248e-03
-1.853435672819614410e-02
1.869640685617923737e-02
3.991652280092239380e-02
3.194494917988777161e-02
-5.523685831576585770e-04
-4.457782488316297531e-03
7.466377224773168564e-03
-1.396016310900449753e-02
4.789108410477638245e-03
5.907408427447080612e-03
4.467047983780503273e-04
3.574117785319685936e-03
1.813383027911186218e-02
-7.205478847026824951e-03
2.601756714284420013e-03
1.881761662662029266e-02
-1.325081754475831985e-02
-3.768165828660130501e-03
-2.734503010287880898e-03
7.918671704828739166e-03
4.070252645760774612e-03
-7.926500402390956879e-03
3.232107497751712799e-03
-3.034691559150815010e-03
-1.216066069900989532e-02
2.047793008387088776e-02
1.596739888191223145e-02
6.546458229422569275e-03
1.492810249328613281e-02
3.989172726869583130e-02
1.173044554889202118e-02
-1.498339232057332993e-02
-1.271967496722936630e-02
-5.019727349281311035e-02
6.037501618266105652e-03
2.382035832852125168e-03
-5.802452564239501953e-02
6.973338872194290161e-02
4.559871181845664978e-02
-1.114371605217456818e-02
4.344345629215240479e-02
2.720928378403186798e-02
-3.504907726892270148e-05
-7.345170248299837112e-03
1.406095735728740692e-02
-7.950192666612565517e-04
-1.023315731436014175e-02
-2.278292551636695862e-02
-3.219924401491880417e-03
-1.772322319447994232e-02
-3.249267861247062683e-02
-2.978173457086086273e-02
9.044779837131500244e-02
6.027216836810112000e-02
6.240385770797729492e-02
1.470938026905059814e-01
7.537481933832168579e-02
1.330068111419677734e-01
5.239245947450399399e-03
-9.008127450942993164e-02
2.789651788771152496e-02
-9.607300162315368652e-02
-1.367761492729187012e-01
-4.257362708449363708e-02
-5.708456039428710938e-02
-3.337895125150680542e-02
2.214269526302814484e-02
1.038127578794956207e-02
4.982404643669724464e-04
-1.035095425322651863e-03
-1.137563865631818771e-02
-2.897537499666213989e-02
-6.507364101707935333e-03
-1.404484659433364868e-01
-1.885040998458862305e-01
-7.071717083454132080e-02
-4.112761616706848145e-01
-4.646540284156799316e-01
-2.677958905696868896e-01
-3.131897449493408203e-01
-2.876532375812530518e-01
-1.810449659824371338e-01
-4.026423394680023193e-02
5.128774419426918030e-02
1.913001015782356262e-02
-2.502803690731525421e-02
4.225848615169525146e-02
1.401436794549226761e-02
-2.788192033767700195e-02
-4.173582419753074646e-03
-7.905934937298297882e-03
-4.086599126458168030e-02
7.720047142356634140e-03
7.559192832559347153e-03
4.545529372990131378e-03
1.271924525499343872e-01
4.573737084865570068e-02
3.673609793186187744e-01
6.143692135810852051e-01
3.681913018226623535e-01
5.086809396743774414e-01
7.801973223686218262e-01
4.724800288677215576e-01
2.092673331499099731e-01
3.443263471126556396e-01
1.608688533306121826e-01
7.135134935379028320e-02
9.217607975006103516e-02
5.942900106310844421e-02
5.947208963334560394e-03
4.270972684025764465e-02
2.365999296307563782e-02
1.694792322814464569e-02
8.128320425748825073e-02
3.402417898178100586e-02
4.885169118642807007e-02
1.189789995551109314e-01
3.973579779267311096e-02
-1.226914152503013611e-01
-1.136802062392234802e-01
-1.366082131862640381e-01
-3.783849477767944336e-01
-5.023710131645202637e-01
-3.877412676811218262e-01
-2.300556898117065430e-01
-3.765310347080230713e-01
-2.382574379444122314e-01
-3.577748686075210571e-02
-1.327677965164184570e-01
-6.360961496829986572e-02
2.462551556527614594e-02
-2.588835731148719788e-02
-1.453218795359134674e-02
-9.067920036613941193e-04
-5.173259228467941284e-02
-2.576871588826179504e-02
-1.853865222074091434e-03
-1.063030734658241272e-01
-4.903724789619445801e-02
1.694748923182487488e-02
-1.303521096706390381e-01
-4.515972360968589783e-02
1.470637321472167969e-01
2.737863734364509583e-02
1.041986644268035889e-01
1.144734248518943787e-01
8.017558604478836060e-02
9.984976053237915039e-02
2.629026537761092186e-03
1.128164771944284439e-02
3.048341721296310425e-03
-5.377159267663955688e-02
7.595080882310867310e-02
-4.524559155106544495e-02
-2.028630301356315613e-02
2.594787441194057465e-02
-2.396529726684093475e-02
-5.921553354710340500e-03
2.101816982030868530e-02
-2.988351508975028992e-02
-1.467951107770204544e-02
1.585490442812442780e-02
-3.167701419442892075e-03
-2.527395449578762054e-02
4.126562550663948059e-02
-7.141550071537494659e-03
-5.515878647565841675e-02
7.052663713693618774e-02
-1.894920319318771362e-02
-7.802262157201766968e-02
7.632673531770706177e-02
-4.372874274849891663e-02
-3.954266011714935303e-02
5.277175828814506531e-02
-2.567751519381999969e-02
-1.379988808184862137e-02
-2.820595167577266693e-03
-6.721217650920152664e-03
6.025789771229028702e-03
-8.624115027487277985e-03
5.179762840270996094e-03
1.485887728631496429e-02
-5.203287675976753235e-02
3.802818432450294495e-02
-8.101476356387138367e-03
-4.192868247628211975e-02
3.830581530928611755e-02
-2.424864470958709717e-02
8.553612977266311646e-03
2.737858332693576813e-02
-4.761742427945137024e-02
2.564565092325210571e-02
1.358588226139545441e-02
-3.048349358141422272e-02
6.416268646717071533e-02
-3.226121887564659119e-02
-5.447471048682928085e-03
1.403289381414651871e-02
3.509746631607413292e-03
6.929086986929178238e-03
-3.378833457827568054e-02
-1.612657913938164711e-03
6.265470385551452637e-02
-1.107504144310951233e-01
4.742648452520370483e-02
4.897181317210197449e-02
-1.264033913612365723e-01
5.546705424785614014e-02
2.721671015024185181e-02
-7.787347584962844849e-02
4.889511317014694214e-02
-1.595463417470455170e-02
-4.564297199249267578e-02
1.229114178568124771e-02
-3.984191641211509705e-02
2.991598844528198242e-02
-2.155696274712681770e-03
-1.465789694339036942e-02
-3.969655185937881470e-02
2.260157093405723572e-02
4.041501879692077637e-02
-9.478786587715148926e-02
5.735738947987556458e-02
1.431755274534225464e-01
-2.530930936336517334e-01
1.159237325191497803e-01
1.878829449415206909e-01
-3.084008991718292236e-01
1.142570152878761292e-01
1.434654146432876587e-01
-2.427985817193984985e-01
8.620960265398025513e-02
4.741996899247169495e-02
-1.450614780187606812e-01
7.026468962430953979e-02
-3.777758777141571045e-02
5.835275724530220032e-02
-1.858074218034744263e-02
-1.544079184532165527e-02
-2.430312708020210266e-02
1.836727000772953033e-02
4.336667060852050781e-02
-1.135261878371238708e-01
5.494809895753860474e-02
1.787476092576980591e-01
-3.136608302593231201e-01
9.831202775239944458e-02
2.546200752258300781e-01
-3.880674242973327637e-01
1.041159778833389282e-01
1.898329854011535645e-01
-2.935238480567932129e-01
9.069114923477172852e-02
5.350564792752265930e-02
-1.719224303960800171e-01
6.799390166997909546e-02
-4.122470691800117493e-02
8.154123276472091675e-02
-4.583227634429931641e-02
-2.438626438379287720e-02
1.824954641051590443e-03
1.081643998622894287e-02
2.677106298506259918e-02
-7.322021573781967163e-02
4.320873320102691650e-02
1.375969499349594116e-01
-2.511241734027862549e-01
7.511398941278457642e-02
1.965083628892898560e-01
-3.056846857070922852e-01
7.665299624204635620e-02
1.342316120862960815e-01
-2.325044125318527222e-01
6.575342267751693726e-02
4.327109456062316895e-02
-1.260852217674255371e-01
6.808885186910629272e-02
-6.845632940530776978e-02
8.983279764652252197e-02
-5.698277428746223450e-02
-2.724789641797542572e-02
2.911702729761600494e-02
-6.264811381697654724e-04
-1.720517687499523163e-02
-3.761154413223266602e-02
4.042507614940404892e-03
5.416421219706535339e-02
-1.321475058794021606e-01
4.897217452526092529e-02
7.885454595088958740e-02
-1.659867763519287109e-01
6.149702146649360657e-02
4.668955504894256592e-02
-1.387947201728820801e-01
3.343079239130020142e-02
1.467203721404075623e-02
-8.364017307758331299e-02
4.301811009645462036e-02
3.105314075946807861e-02
3.153955098241567612e-03
1.047265809029340744e-02
-3.107650205492973328e-02
-4.746711999177932739e-02
-3.626345843076705933e-02
-3.621135279536247253e-02
-4.241659864783287048e-02
-4.753594473004341125e-02
3.490363433957099915e-02
6.318899244070053101e-02
2.042538300156593323e-02
2.861207723617553711e-02
6.708168238401412964e-02
3.178738802671432495e-02
3.764499444514513016e-03
2.761583589017391205e-02
-5.932475440204143524e-03
-1.552191190421581268e-02
-1.093180757015943527e-02
-4.301851242780685425e-02
-4.092214629054069519e-02
-4.284080117940902710e-02
2.726594684645533562e-03
-6.764885038137435913e-02
-5.339220538735389709e-02
-1.280567143112421036e-02
-1.363393943756818771e-02
2.537070587277412415e-02
4.508809186518192291e-03
7.986948639154434204e-02
1.520020067691802979e-01
7.788452506065368652e-02
4.988010972738265991e-02
1.060285717248916626e-01
5.828937888145446777e-02
-2.422731369733810425e-02
-1.515539083629846573e-02
-9.097522124648094177e-03
-1.567434892058372498e-02
-3.082845360040664673e-02
-6.269916892051696777e-03
-6.660196185111999512e-02
-6.459769606590270996e-02
-4.073851555585861206e-02
-2.996860630810260773e-02
-9.260008111596107483e-03
-2.549142204225063324e-02
1.012971252202987671e-01
1.482751518487930298e-01
4.052630439400672913e-02
1.491030603647232056e-01
2.253958731889724731e-01
8.524321019649505615e-02
6.148792430758476257e-02
8.521574735641479492e-02
4.718378931283950806e-02
-5.630130320787429810e-02
-1.011691838502883911e-01
-4.728440567851066589e-02
-1.222404837608337402e-02
-5.389742180705070496e-02
-7.313774432986974716e-03
1.160347089171409607e-02
3.817591071128845215e-02
-5.636609625071287155e-03
1.130068227648735046e-01
1.567398756742477417e-01
5.333796888589859009e-02
1.790476739406585693e-01
2.299968451261520386e-01
6.209166347980499268e-02
1.777844130992889404e-01
2.237622141838073730e-01
8.372544497251510620e-02
-1.964306086301803589e-02
-6.098483130335807800e-02
-7.499868515878915787e-03
-2.008736729621887207e-01
-2.881633937358856201e-01
-1.472891122102737427e-01
4.868512507528066635e-03
-6.033599376678466797e-02
5.400955211371183395e-03
4.498023539781570435e-02
6.796091794967651367e-02
-1.274039153940975666e-03
8.921127766370773315e-02
1.204916238784790039e-01
2.067956700921058655e-02
1.004537791013717651e-01
1.153932288289070129e-01
2.681520581245422363e-02
3.093801625072956085e-02
7.602301891893148422e-03
3.511110320687294006e-02
-2.951642572879791260e-01
-4.073509871959686279e-01
-1.822803020477294922e-01
-2.840944230556488037e-01
-3.976100385189056396e-01
-1.994615942239761353e-01
8.767803758382797241e-02
4.431920498609542847e-02
7.435710728168487549e-02
1.535910926759243011e-02
1.917492039501667023e-02
-1.299787871539592743e-02
2.350280620157718658e-02
2.630421519279479980e-02
3.947235643863677979e-03
1.562413107603788376e-02
2.406011335551738739e-03
1.891446672379970551e-02
-1.372614651918411255e-01
-1.949113011360168457e-01
-5.297984555363655090e-02
-3.131121397018432617e-01
-4.058674275875091553e-01
-1.740197837352752686e-01
-7.345046848058700562e-02
-1.064608246088027954e-01
-1.528783515095710754e-02
1.885072737932205200e-01
2.106464207172393799e-01
1.577783823013305664e-01
1.793345808982849121e-02
8.747307583689689636e-03
1.372656133025884628e-02
-1.876945723779499531e-03
-1.076090056449174881e-02
1.024869550019502640e-02
-2.856700494885444641e-02
-5.722849071025848389e-02
-6.903700996190309525e-03
-1.024212390184402466e-01
-1.331534683704376221e-01
-2.980366535484790802e-02
-5.507619678974151611e-02
-7.558374106884002686e-02
1.383983436971902847e-02
1.138443797826766968e-01
1.456560194492340088e-01
1.141404584050178528e-01
1.570288836956024170e-01
2.048038244247436523e-01
1.236255466938018799e-01
-1.245919708162546158e-02
-1.000783219933509827e-02
-1.301583088934421539e-02
-1.015844009816646576e-02
-1.898658834397792816e-02
-3.902285918593406677e-02
-1.284611038863658905e-02
-5.251752585172653198e-02
-5.567907914519309998e-02
-2.092457935214042664e-02
-8.752182871103286743e-02
-6.516824662685394287e-02
1.139356195926666260e-02
-3.905341029167175293e-02
-6.925592664629220963e-03
2.737485617399215698e-02
5.913707986474037170e-02
7.932820916175842285e-02
6.581690162420272827e-03
9.329213947057723999e-02
1.441266089677810669e-01
1.588067039847373962e-02
3.638077899813652039e-02
1.712627336382865906e-02
6.764889229089021683e-03
1.323894690722227097e-02
-1.428358536213636398e-02
-1.845457404851913452e-02
-5.952633544802665710e-02
-6.634565442800521851e-02
-3.874187916517257690e-02
-1.303495615720748901e-01
-1.233322471380233765e-01
-3.001023828983306885e-02
-1.308556795120239258e-01
-1.108832210302352905e-01
-5.407772958278656006e-03
-2.204465307295322418e-02
-1.445331517606973648e-02
2.303932420909404755e-02
7.595947384834289551e-02
9.640139341354370117e-02
-1.869544270448386669e-03
2.919529750943183899e-02
1.254862919449806213e-02
1.298604160547256470e-02
4.107381775975227356e-02
2.416466921567916870e-02
-1.964453607797622681e-02
-3.454305976629257202e-02
-3.845095261931419373e-02
-3.579646721482276917e-02
-1.237943023443222046e-01
-1.070402115583419800e-01
-4.365399479866027832e-02
-1.785634756088256836e-01
-1.419790387153625488e-01
-1.760988496243953705e-02
-8.981344103813171387e-02
-6.691060215234756470e-02
3.553408756852149963e-02
4.359633848071098328e-02
6.394165009260177612e-02
-2.794212428852915764e-03
3.175056725740432739e-02
3.150068689137697220e-03
1.738949492573738098e-02
5.914070084691047668e-02
3.598549589514732361e-02
-4.036077880300581455e-04
1.744360849261283875e-02
1.650674454867839813e-02
-2.598798461258411407e-02
-9.266065061092376709e-02
-7.411199063062667847e-02
-4.277744144201278687e-02
-1.747420430183410645e-01
-1.506478488445281982e-01
-2.546372078359127045e-02
-1.269787549972534180e-01
-1.138973161578178406e-01
2.023158594965934753e-02
-2.048371173441410065e-02
-1.028647646307945251e-02
-3.854710841551423073e-03
4.939953982830047607e-02
3.534242138266563416e-02
8.869673125445842743e-03
8.006013184785842896e-02
6.511827558279037476e-02
1.641050912439823151e-02
7.517232745885848999e-02
7.150462269783020020e-02
1.659476984059438109e-04
-1.454136986285448074e-02
-1.248061377555131912e-02
-3.101145289838314056e-02
-1.089992001652717590e-01
-1.204540729522705078e-01
-3.143659234046936035e-02
-1.180175021290779114e-01
-1.392211019992828369e-01
1.584395999088883400e-03
-4.385305196046829224e-02
-6.511166691780090332e-02
-2.833902463316917419e-02
1.375714968889951706e-02
2.570903860032558441e-02
3.303149482235312462e-03
7.383594661951065063e-02
8.680454641580581665e-02
2.362630888819694519e-02
9.486764669418334961e-02
9.780875593423843384e-02
1.764771528542041779e-02
3.190145641565322876e-02
1.850940100848674774e-02
8.597373962402343750e-03
-3.827726840972900391e-02
-6.612467020750045776e-02
6.935772020369768143e-03
-4.466701671481132507e-02
-9.602941572666168213e-02
1.670587807893753052e-02
-2.102307230234146118e-02
-6.839561462402343750e-02
-4.406987875699996948e-02
-6.787647493183612823e-03
1.558936946094036102e-02
4.018878564238548279e-03
5.732910707592964172e-02
6.796023249626159668e-02
1.769954804331064224e-03
7.462428510189056396e-02
7.995478063821792603e-02
2.795333787798881531e-02
6.988580524921417236e-02
4.343923181295394897e-02
-1.418679952621459961e-03
-7.453972939401865005e-03
-4.221558943390846252e-02
2.163327112793922424e-02
6.324475398287177086e-04
-6.089799851179122925e-02
3.856680169701576233e-02
2.124656736850738525e-02
-4.849861189723014832e-02
-3.705622162669897079e-03
-1.855227351188659668e-02
-1.030770875513553619e-02
-1.342227309942245483e-02
-4.002374189440160990e-04
-4.376030992716550827e-03
-4.943947121500968933e-02
-3.662366047501564026e-02
-2.482098527252674103e-02
4.682741593569517136e-03
3.359393775463104248e-02
1.881633326411247253e-02
2.728051971644163132e-03
1.851283758878707886e-02
-1.023422833532094955e-02
4.308806359767913818e-02
6.371551007032394409e-02
6.117177754640579224e-02
-1.169229671359062195e-02
-2.751473337411880493e-02
8.794358000159263611e-03
1.417801529169082642e-02
8.187181316316127777e-03
7.041319622658193111e-04
8.083336055278778076e-03
1.794488355517387390e-02
-4.498206544667482376e-03
-6.929387897253036499e-02
-8.480143547058105469e-02
-3.812703117728233337e-02
-1.914640888571739197e-02
-1.092989742755889893e-02
2.090995758771896362e-02
7.180408388376235962e-02
1.076312139630317688e-01
3.394866362214088440e-02
4.284469410777091980e-02
6.423115730285644531e-02
1.626640371978282928e-02
-3.612376004457473755e-02
-8.116683363914489746e-02
-3.283908963203430176e-02
1.907711033709347248e-03
9.284990839660167694e-03
-4.033979028463363647e-03
3.596246242523193359e-02
4.474492371082305908e-02
-8.156119845807552338e-03
-6.192139908671379089e-02
-1.172643899917602539e-01
-1.282566972076892853e-02
-1.830495595932006836e-01
-2.179527431726455688e-01
-9.793555736541748047e-02
2.308356612920761108e-01
3.440940380096435547e-01
1.605099588632583618e-01
3.457112610340118408e-02
7.854643464088439941e-02
7.438260130584239960e-03
-7.815907150506973267e-02
-1.773124933242797852e-01
-7.213178277015686035e-02
1.793882995843887329e-02
1.738774217665195465e-02
-2.942764840554445982e-04
5.317858606576919556e-02
6.257015466690063477e-02
7.966220378875732422e-03
-3.248414723202586174e-03
-9.028414636850357056e-02
2.346385270357131958e-02
-3.936397731304168701e-01
-4.909681677818298340e-01
-2.675639688968658447e-01
3.909616172313690186e-01
5.915981531143188477e-01
3.218715786933898926e-01
5.904841423034667969e-02
1.712877452373504639e-01
2.876500226557254791e-02
-1.457231193780899048e-01
-2.580963075160980225e-01
-9.905783832073211670e-02
1.483019557781517506e-03
9.495181031525135040e-03
5.698659457266330719e-03
2.189857512712478638e-02
5.355887860059738159e-02
-1.461336668580770493e-02
6.141659244894981384e-02
6.899464409798383713e-03
7.458843290805816650e-02
-4.216991066932678223e-01
-5.374957323074340820e-01
-2.938194274902343750e-01
3.256184160709381104e-01
5.013628005981445312e-01
2.666256725788116455e-01
1.318019330501556396e-01
2.666925489902496338e-01
7.957619428634643555e-02
