-1.747164689004421234e-02
2.697383798658847809e-02
-6.100677885115146637e-03
-1.209651818498969078e-03
-1.811325550079345703e-02
-8.215098641812801361e-03
6.055888719856739044e-03
2.281385473906993866e-02
-1.200131699442863464e-02
4.250884056091308594e-03
-3.487016260623931885e-02
7.872395217418670654e-03
-5.094673484563827515e-02
-1.386266760528087616e-02
2.712565939873456955e-03
1.063522044569253922e-02
-1.188336592167615891e-02
7.274122908711433411e-03
3.784681484103202820e-02
-2.782188169658184052e-02
-1.475879363715648651e-02
-1.339478604495525360e-02
5.334555171430110931e-03
5.006321240216493607e-03
-4.101043567061424255e-03
-5.233098752796649933e-03
-2.009543776512145996e-02
6.575479172170162201e-03
-3.223414719104766846e-02
-9.469348005950450897e-04
2.411079406738281250e-02
2.797055523842573166e-03
-8.794180466793477535e-04
5.162262823432683945e-03
-1.165247615426778793e-02
1.010464411228895187e-02
-2.679494209587574005e-02
2.517989091575145721e-02
8.574230596423149109e-03
1.106497365981340408e-02
-1.389775425195693970e-03
1.089238468557596207e-02
-9.958024136722087860e-03
1.814100146293640137e-02
6.539892870932817459e-03
-5.325233563780784607e-03
-4.296066984534263611e-02
-3.723134845495223999e-02
7.771189790219068527e-03
4.265169799327850342e-02
-5.852223373949527740e-03
-2.747233770787715912e-02
-2.460918202996253967e-02
-1.414134074002504349e-02
-2.871325798332691193e-02
-1.296288240700960159e-02
4.892318043857812881e-03
-2.029986865818500519e-02
3.651439398527145386e-02
7.901737117208540440e-04
1.566583476960659027e-02
1.478743553161621094e-02
-1.474654302000999451e-02
9.426637552678585052e-03
1.210079062730073929e-03
-1.588082639500498772e-03
-6.508878432214260101e-03
4.860489163547754288e-03
-2.201381139457225800e-03
1.508600264787673950e-02
2.505172416567802429e-02
5.119664128869771957e-03
2.696589007973670959e-02
-1.353140641003847122e-02
-1.279122848063707352e-02
7.618140894919633865e-03
2.222122810781002045e-02
4.711652640253305435e-03
1.587316766381263733e-02
1.989071443676948547e-02
7.636656984686851501e-03
4.564219620078802109e-03
-1.211902499198913574e-02
1.420798362232744694e-03
-1.137285307049751282e-02
-1.246094051748514175e-02
3.237261669710278511e-03
5.238230898976325989e-02
-1.578644476830959320e-02
-4.784046113491058350e-02
1.095012016594409943e-02
1.593306846916675568e-02
-2.740293927490711212e-02
-1.829257048666477203e-02
1.541446242481470108e-02
2.791980467736721039e-02
-6.592337042093276978e-03
2.220324240624904633e-02
-8.335449732840061188e-03
3.889960795640945435e-02
4.199406132102012634e-03
2.773912856355309486e-03
-4.201821517199277878e-03
-1.055342517793178558e-02
-1.034189481288194656e-02
-1.603734679520130157e-02
-7.580261211842298508e-03
-1.375394966453313828e-02
-1.698949001729488373e-02
-6.038247607648372650e-03
1.430763024836778641e-02
1.018015202134847641e-02
-1.305714063346385956e-02
2.728545339778065681e-03
7.669132319279015064e-04
-6.233060732483863831e-02
-9.111447259783744812e-03
-1.809403672814369202e-02
1.009748503565788269e-02
-2.187061123549938202e-02
-6.777328671887516975e-04
-2.711559832096099854e-02
-3.779818862676620483e-02
1.646528951823711395e-03
-9.259960614144802094e-03
-4.469321109354496002e-03
-2.815257757902145386e-04
1.452156715095043182e-02
2.045816276222467422e-03
-1.001628674566745758e-02
-3.266169456765055656e-03
2.514268085360527039e-02
-3.547652391716837883e-03
2.135545946657657623e-03
2.081831358373165131e-02
2.295745722949504852e-02
-7.981884293258190155e-03
1.396086812019348145e-02
1.139434799551963806e-02
1.024171360768377781e-03
-2.719193324446678162e-02
-2.324000699445605278e-03
2.144262008368968964e-02
-9.574468247592449188e-03
2.068635821342468262e-02
9.580850601196289062e-03
1.774757751263678074e-03
-6.048338953405618668e-03
6.305362097918987274e-03
4.738956224173307419e-03
3.136260784231126308e-05
1.237696502357721329e-02
-2.147348411381244659e-02
-1.643521152436733246e-02
6.798261776566505432e-03
-2.623338485136628151e-03
-2.323073148727416992e-02
1.330079510807991028e-02
-2.643772168084979057e-03
-8.741987869143486023e-03
-1.245985180139541626e-02
8.164438419044017792e-03
1.428760495036840439e-02
-1.852307654917240143e-02
3.804142354056239128e-03
-2.935196971520781517e-03
-2.082759886980056763e-02
1.104477513581514359e-02
-3.320041345432400703e-03
1.910086348652839661e-02
-1.815413683652877808e-02
3.334064036607742310e-02
1.013600639998912811e-02
-2.915964461863040924e-02
2.306520036654546857e-04
-1.423787046223878860e-02
-8.487225510179996490e-03
-1.359978970140218735e-02
1.755459979176521301e-02
-3.960499539971351624e-03
-4.365335777401924133e-02
1.535332121420651674e-04
-3.578252624720335007e-03
9.030341170728206635e-04
-1.535221561789512634e-02
-1.933033927343785763e-03
2.368975663557648659e-03
-3.921768814325332642e-02
7.319330703467130661e-03
-2.882146835327148438e-02
-8.578705601394176483e-03
-6.223852396942675114e-04
-1.577608101069927216e-02
3.389430046081542969e-02
-4.435712005943059921e-03
-4.203069023787975311e-03
2.655568532645702362e-02
6.809392478317022324e-03
2.005304023623466492e-02
-3.787453100085258484e-02
2.212267182767391205e-02
5.922592827118933201e-04
-2.289648167788982391e-02
-6.852678954601287842e-02
-1.795267499983310699e-02
6.461581215262413025e-03
-1.937293820083141327e-02
6.751365959644317627e-02
-1.267040893435478210e-02
7.800781750120222569e-04
3.603180171921849251e-03
3.993785474449396133e-03
1.442744862288236618e-03
4.281468223780393600e-03
-2.637550234794616699e-02
1.018457300961017609e-02
1.047189347445964813e-02
-1.782940514385700226e-02
8.394306525588035583e-03
3.050792776048183441e-02
6.008953787386417389e-04
1.902087708003818989e-03
8.521485142409801483e-03
-9.886147454380989075e-03
-1.026091165840625763e-02
-2.151860157027840614e-03
-1.843512803316116333e-02
3.150391206145286560e-02
-1.339968852698802948e-02
-1.747038029134273529e-02
2.897904720157384872e-03
6.980609614402055740e-03
3.035383112728595734e-02
-2.275629341602325439e-02
-2.084528654813766479e-02
2.995962044224143028e-03
-7.699804753065109253e-02
-2.207545377314090729e-02
1.151056308299303055e-02
6.987792905420064926e-03
-1.022085361182689667e-02
5.352952983230352402e-03
2.003106661140918732e-02
-1.813334226608276367e-02
7.738851709291338921e-04
5.529080517590045929e-03
2.027538977563381195e-02
-1.381355337798595428e-02
1.692403666675090790e-02
-3.296794369816780090e-02
-8.999982848763465881e-03
7.125613279640674591e-03
-6.025222130119800568e-03
2.674485184252262115e-02
-1.759986765682697296e-02
-2.339410036802291870e-02
-2.144676260650157928e-02
3.762223524972796440e-03
1.485542766749858856e-02
-1.963984593749046326e-02
1.978018134832382202e-02
1.558335591107606888e-02
1.210099644958972931e-02
3.865382075309753418e-02
8.783477358520030975e-03
-1.387524884194135666e-02
-9.928866289556026459e-03
-1.133147813379764557e-02
8.442719466984272003e-03
-2.009575022384524345e-03
-1.094917533919215202e-03
9.048856445588171482e-04
1.084795167116681114e-05
3.674953803420066833e-02
1.028921455144882202e-02
1.263895351439714432e-02
5.463137757033109665e-03
5.698787979781627655e-03
-9.489629417657852173e-03
-9.660240262746810913e-03
2.770848385989665985e-02
-4.556217696517705917e-03
-1.077785901725292206e-02
-9.666427038609981537e-03
-4.518626257777214050e-02
1.151026505976915359e-02
1.674808003008365631e-02
-5.083624273538589478e-03
-2.588756941258907318e-02
-3.152673691511154175e-02
-1.751052588224411011e-02
-1.636814139783382416e-02
1.993828080594539642e-02
-1.597004942595958710e-02
6.822321563959121704e-03
-1.382498443126678467e-02
-2.521126298233866692e-03
5.820614751428365707e-03
1.017665956169366837e-02
6.296519190073013306e-03
2.353912591934204102e-02
2.209554612636566162e-02
-1.312213763594627380e-02
7.462671026587486267e-03
8.474683389067649841e-03
-9.119732305407524109e-03
2.374546043574810028e-02
1.739823142997920513e-03
-4.690181463956832886e-03
-6.139776203781366348e-03
9.933135472238063812e-03
-6.792461033910512924e-03
-9.543253108859062195e-03
-3.867735154926776886e-03
2.998969331383705139e-02
-1.865191268734633923e-03
-3.564651682972908020e-02
-6.726458668708801270e-03
-7.734152022749185562e-03
-1.772766560316085815e-02
-5.410106386989355087e-03
6.247014738619327545e-03
8.487439714372158051e-03
1.099835615605115891e-02
1.868195272982120514e-02
1.003719121217727661e-02
-7.966232486069202423e-03
-4.593793302774429321e-02
3.194689285010099411e-03
-2.099601179361343384e-02
-1.433344557881355286e-02
1.974417129531502724e-03
-1.704913936555385590e-02
3.125946503132581711e-03
-3.761472471524029970e-04
1.033731456845998764e-02
-7.671870756894350052e-03
2.644071122631430626e-03
-2.396163530647754669e-02
-7.236379664391279221e-03
-1.526973862200975418e-02
5.954307690262794495e-02
7.593048736453056335e-03
-1.196963130496442318e-03
1.220384892076253891e-02
2.067372202873229980e-02
-5.090856458991765976e-03
1.616778317838907242e-03
1.502764504402875900e-02
5.631227977573871613e-03
2.068869583308696747e-02
-7.701527327299118042e-03
4.723907448351383209e-03
4.280630499124526978e-03
5.710358731448650360e-03
-5.307844839990139008e-03
1.681676320731639862e-02
8.414142765104770660e-03
-4.814882576465606689e-02
-3.908145241439342499e-03
1.853803405538201332e-03
7.404439151287078857e-03
-2.070509269833564758e-02
5.108275450766086578e-03
5.890680011361837387e-03
-3.000160213559865952e-03
-5.471307318657636642e-03
-1.853915303945541382e-02
-5.865185055881738663e-03
6.427494343370199203e-03
2.418898977339267731e-02
9.850650094449520111e-03
1.347600575536489487e-02
4.081110935658216476e-03
-1.254464592784643173e-02
-1.033243816345930099e-02
4.720935132354497910e-03
-1.610733196139335632e-02
1.026082318276166916e-02
4.641400184482336044e-03
-6.323377601802349091e-03
-1.235207356512546539e-02
-1.163647320936433971e-04
-5.360807408578693867e-04
-3.644077805802226067e-03
-1.727118343114852905e-02
-1.378217991441488266e-02
7.295697927474975586e-02
-1.622834987938404083e-02
4.742182791233062744e-03
-2.374201826751232147e-02
1.727208122611045837e-02
7.169418036937713623e-02
-1.298958528786897659e-02
1.599277742207050323e-02
7.008039392530918121e-03
-1.628521643579006195e-02
4.172358289361000061e-02
-8.496528118848800659e-02
3.955065831542015076e-02
6.248377729207277298e-03
3.390678018331527710e-02
-2.611461840569972992e-02
-4.097990226000547409e-03
-4.086336120963096619e-03
-2.558773569762706757e-02
-7.288752822205424309e-04
6.344079971313476562e-02
-1.814061217010021210e-02
-4.722156375646591187e-02
-1.987036131322383881e-02
-1.198243722319602966e-01
-2.558874152600765228e-02
2.263352461159229279e-02
-1.454216334968805313e-02
1.068356335163116455e-01
-3.069392591714859009e-02
-2.018532156944274902e-02
-1.129017397761344910e-02
-5.784887820482254028e-03
-3.126225993037223816e-02
1.399260107427835464e-02
-1.759212836623191833e-02
1.479746680706739426e-02
-8.135887980461120605e-02
-3.213614923879504204e-03
-1.087396591901779175e-02
1.901907660067081451e-02
7.251180708408355713e-02
-2.634038776159286499e-02
7.776252459734678268e-04
2.549259364604949951e-02
-2.409323863685131073e-02
-1.247694808989763260e-02
-1.218815054744482040e-02
-4.364323103800415993e-04
-2.304831705987453461e-02
-1.113389153033494949e-02
-1.428191433660686016e-03
3.097885055467486382e-03
-6.035572290420532227e-02
-9.721489995718002319e-02
-1.925808563828468323e-02
-3.742439299821853638e-02
1.101323519833385944e-03
-1.503374055027961731e-02
7.713391911238431931e-03
-4.815609380602836609e-02
1.634168904274702072e-03
-6.683290004730224609e-02
1.753611862659454346e-02
-7.644700817763805389e-03
-3.388549899682402611e-03
-2.984750643372535706e-02
-1.133958529680967331e-02
5.406770855188369751e-03
5.044810008257627487e-03
-4.898086772300302982e-04
6.484099663794040680e-03
2.391848526895046234e-02
6.718832068145275116e-03
1.792166149243712425e-04
6.088281981647014618e-03
4.246561974287033081e-02
-8.726702071726322174e-03
2.952217869460582733e-02
2.168997935950756073e-02
4.602374508976936340e-02
1.203175634145736694e-02
-1.783551764674484730e-03
-2.863404527306556702e-02
-2.984624542295932770e-02
3.204999864101409912e-02
-3.088474459946155548e-02
5.225931759923696518e-03
-1.290262117981910706e-02
-1.591673120856285095e-02
-6.078485865145921707e-03
7.400412578135728836e-03
-8.203180506825447083e-03
-4.697859287261962891e-03
-1.552098523825407028e-02
-1.127872709184885025e-02
3.555842861533164978e-02
9.434089064598083496e-03
2.298893034458160400e-02
-2.190497331321239471e-02
1.595431566238403320e-02
-1.682908274233341217e-02
1.072489693760871887e-01
-1.117496751248836517e-02
1.446927152574062347e-02
8.283858187496662140e-03
5.668447166681289673e-02
-7.392518222332000732e-03
3.416960686445236206e-02
-3.212044388055801392e-02
6.719611585140228271e-03
-9.949118830263614655e-03
-1.658291183412075043e-02
-1.093094125390052795e-01
-5.476933438330888748e-04
-8.372510224580764771e-02
-8.193144574761390686e-03
-3.332668915390968323e-02
-5.561687052249908447e-03
1.471100561320781708e-02
-3.846560418605804443e-02
-6.987738609313964844e-02
-4.478900879621505737e-02
-1.724634901620447636e-03
-3.800447331741452217e-03
1.905632764101028442e-02
-1.477231457829475403e-02
1.498058438301086426e-02
-9.706228971481323242e-03
7.266133278608322144e-02
-3.520516678690910339e-02
3.803552826866507530e-03
1.089557074010372162e-02
-1.545123849064111710e-02
-4.136705026030540466e-02
-7.811776362359523773e-03
9.608838707208633423e-03
-8.814455009996891022e-03
9.723817929625511169e-03
3.160629421472549438e-02
5.618733912706375122e-02
-3.389474004507064819e-02
-1.123586017638444901e-02
1.781557686626911163e-02
-3.141220286488533020e-02
2.161570452153682709e-02
9.508015960454940796e-02
-1.991867832839488983e-02
3.459237888455390930e-02
-2.931729331612586975e-02
-7.427503354847431183e-03
1.642403379082679749e-02
-4.837590083479881287e-02
1.052932813763618469e-02
2.826789021492004395e-02
4.027267917990684509e-02
-2.472996525466442108e-02
2.553618513047695160e-02
-1.763370260596275330e-02
2.251529134809970856e-02
-3.854173049330711365e-02
-7.645979523658752441e-03
-3.007041662931442261e-02
-5.453220102936029434e-03
-3.721895813941955566e-02
6.130714714527130127e-02
-3.074649907648563385e-02
3.721105679869651794e-02
-3.754435107111930847e-02
-2.394860424101352692e-02
-2.008947357535362244e-02
2.409564703702926636e-02
-8.451540023088455200e-02
2.938150241971015930e-02
-2.653382346034049988e-02
-4.146879073232412338e-03
4.623926058411598206e-02
-3.646187717095017433e-03
-2.462361007928848267e-03
-1.455301791429519653e-02
2.975015528500080109e-02
-6.720726378262042999e-03
1.196540542878210545e-03
-4.392215609550476074e-02
-8.811037056148052216e-03
1.843164674937725067e-02
5.281351134181022644e-02
-1.585994660854339600e-02
1.061466615647077560e-02
3.047921927645802498e-03
3.174316510558128357e-02
-1.884349621832370758e-02
-5.916188657283782959e-02
-5.647547077387571335e-03
5.356002599000930786e-03
6.649343669414520264e-02
9.906588122248649597e-03
2.406461164355278015e-02
2.159979194402694702e-03
-1.843712991103529930e-03
1.488674781285226345e-03
-9.652920998632907867e-03
-2.335503883659839630e-02
1.460716128349304199e-02
2.182341180741786957e-02
-3.234511613845825195e-02
-1.578118465840816498e-02
-1.434160489588975906e-02
2.618953771889209747e-02
-2.023445256054401398e-02
-3.444316610693931580e-02
-1.377617940306663513e-03
5.427669268101453781e-03
-4.326269403100013733e-02
-9.731641970574855804e-03
-3.702487424015998840e-02
1.410468854010105133e-02
-1.980589702725410461e-02
-2.045141346752643585e-02
7.877264171838760376e-03
-7.284449413418769836e-03
-2.224185131490230560e-02
-7.055249996483325958e-03
6.296890228986740112e-02
-2.178646065294742584e-02
1.289419457316398621e-02
3.509172424674034119e-02
-1.602650247514247894e-02
-1.994107291102409363e-02
4.977075732313096523e-04
2.910717390477657318e-02
-8.563756942749023438e-03
-1.160414144396781921e-02
-2.893827669322490692e-02
-1.726530678570270538e-02
-7.198101375252008438e-04
4.667681828141212463e-02
1.130342185497283936e-01
-2.551084011793136597e-02
2.181701548397541046e-02
-5.572408437728881836e-03
9.678343683481216431e-02
2.878341590985655785e-03
1.568182744085788727e-02
-4.332174360752105713e-02
1.910768263041973114e-02
9.933959692716598511e-03
-4.829868301749229431e-02
-2.858381532132625580e-02
1.646424084901809692e-02
-9.493967518210411072e-03
-3.559729456901550293e-02
-3.404748439788818359e-02
-6.775315850973129272e-02
-9.342565317638218403e-04
1.005340926349163055e-02
2.863520756363868713e-03
1.433084066957235336e-02
-5.477071925997734070e-02
-6.028493866324424744e-03
-1.743107475340366364e-02
2.572138421237468719e-02
4.168128967285156250e-02
-3.652095422148704529e-02
-1.182668469846248627e-02
1.319700386375188828e-02
8.279446046799421310e-04
-1.367903873324394226e-02
-1.863415725529193878e-02
4.709384217858314514e-02
-3.155727311968803406e-02
-2.384193800389766693e-02
-1.402143668383359909e-02
4.252335429191589355e-02
-5.873930454254150391e-02
-3.535323776304721832e-03
-1.250417716801166534e-02
-1.634256541728973389e-02
1.726329885423183441e-02
-5.275804549455642700e-02
3.820113092660903931e-02
-2.658018842339515686e-02
5.767102353274822235e-03
1.064597591757774353e-01
-1.159332320094108582e-02
-4.551586508750915527e-02
-1.084194239228963852e-02
8.716786652803421021e-02
-4.980526119470596313e-02
1.289573404937982559e-02
-1.881284639239311218e-02
-3.780101425945758820e-03
2.379383891820907593e-02
-8.962281048297882080e-03
-3.905668109655380249e-02
-6.346171256154775620e-03
-2.602868713438510895e-02
1.561529561877250671e-02
-5.491414107382297516e-03
5.939706787467002869e-02
3.485794737935066223e-02
-1.480556745082139969e-02
-1.812544651329517365e-02
1.638545654714107513e-02
2.082027308642864227e-02
-1.659035123884677887e-02
9.143779054284095764e-03
-5.000300332903862000e-02
-4.110953584313392639e-02
1.045215595513582230e-02
-6.690080743283033371e-03
2.772257290780544281e-02
-9.540469385683536530e-03
-2.168634161353111267e-02
-6.131767109036445618e-02
2.242984063923358917e-02
7.019846886396408081e-02
1.229046937078237534e-02
-7.648374419659376144e-03
2.268637035740539432e-04
1.833686791360378265e-02
-2.668994292616844177e-02
-2.237104438245296478e-02
2.685096487402915955e-02
1.216129679232835770e-02
4.266421496868133545e-02
1.282403059303760529e-02
5.594630166888237000e-02
-1.889638788998126984e-02
-5.301522463560104370e-02
-2.208294160664081573e-02
-1.002486236393451691e-02
-9.622748009860515594e-03
-1.740199886262416840e-02
5.654487758874893188e-02
1.723156496882438660e-02
5.243143066763877869e-02
1.777661964297294617e-02
-5.311849713325500488e-02
-4.778123460710048676e-03
-2.608699724078178406e-02
-1.031964737921953201e-02
2.758255042135715485e-02
-8.435832336544990540e-03
3.232325240969657898e-02
-3.088996559381484985e-02
4.825700074434280396e-02
6.478323135524988174e-03
-7.309132814407348633e-02
2.429765649139881134e-02
3.770036157220602036e-03
2.671711705625057220e-02
-1.463880296796560287e-02
-3.565571829676628113e-02
6.770153064280748367e-03
-1.591468346305191517e-03
-3.872517123818397522e-02
-1.896419562399387360e-02
-5.801211111247539520e-03
-1.469655148684978485e-02
-4.523389041423797607e-03
-1.448973361402750015e-02
1.002582535147666931e-02
-1.200040709227323532e-02
1.172047760337591171e-02
5.131893325597047806e-03
-5.893462896347045898e-02
3.356456011533737183e-02
-1.507120300084352493e-02
1.187385432422161102e-02
2.444516122341156006e-02
3.518970450386404991e-03
6.292539089918136597e-02
2.532437816262245178e-02
-4.036650434136390686e-02
-3.685145825147628784e-02
1.064440514892339706e-02
-1.878156140446662903e-02
1.678328961133956909e-02
-4.722468182444572449e-02
1.348464787006378174e-01
-6.049548392184078693e-04
9.716439060866832733e-03
-2.160162478685379028e-02
-1.117006177082657814e-03
7.759163621813058853e-03
6.945306085981428623e-05
1.662614289671182632e-03
-1.275955419987440109e-02
5.208544898778200150e-03
4.642324987798929214e-03
3.940639086067676544e-03
-2.099939854815602303e-03
-6.363294553011655807e-03
2.803701441735029221e-03
-1.010490860790014267e-02
-3.086789045482873917e-03
-1.670497097074985504e-02
-1.046053715981543064e-03
6.468822248280048370e-03
2.692998386919498444e-04
1.001508720219135284e-02
-1.871580956503748894e-03
3.666203701868653297e-03
-1.727518625557422638e-03
-5.606982813333161175e-05
1.117963460274040699e-03
-1.228106394410133362e-02
1.353702042251825333e-02
-7.135734427720308304e-03
6.663064472377300262e-03
1.138284616172313690e-02
5.833616480231285095e-03
-2.545819443184882402e-04
1.139797270298004150e-02
2.134725684300065041e-03
-5.325490201357752085e-05
5.926650483161211014e-03
-1.257482729852199554e-02
-2.085128362523391843e-04
9.197454783134162426e-04
-8.743701502680778503e-03
-1.893193228170275688e-03
3.003851277753710747e-03
-2.146409079432487488e-02
4.774159286171197891e-03
-1.102814637124538422e-02
-1.052466779947280884e-02
4.864036571234464645e-03
3.939901944249868393e-03
-5.969562102109193802e-03
4.366381559520959854e-03
4.332845564931631088e-03
7.836922071874141693e-03
-6.136055104434490204e-03
5.471725016832351685e-03
9.055553004145622253e-03
-6.075686542317271233e-04
-1.037173904478549957e-02
-5.357341840863227844e-03
8.313473663292825222e-04
4.709599073976278305e-03
-1.387165300548076630e-02
-5.196984391659498215e-03
-1.345853437669575214e-03
-3.572603454813361168e-03
9.064855985343456268e-03
-3.480679355561733246e-03
3.471587086096405983e-03
-1.430002390407025814e-03
-2.141312725143507123e-04
2.480151131749153137e-02
-1.183633971959352493e-02
-1.962316920980811119e-03
-6.065655499696731567e-03
1.635497808456420898e-02
-8.674333803355693817e-03
3.796255448833107948e-03
6.775575457140803337e-04
-1.869053952395915985e-02
-7.684602402150630951e-03
1.521604252047836781e-03
6.532101891934871674e-03
1.435301918536424637e-02
-1.408923603594303131e-02
4.540999885648488998e-03
2.568525262176990509e-03
-1.360488822683691978e-03
-8.797139860689640045e-03
-2.331460593268275261e-03
-8.309287019073963165e-03
1.936055254191160202e-03
1.025678776204586029e-02
-1.696510426700115204e-02
1.298727467656135559e-02
-2.349318237975239754e-03
1.020732335746288300e-02
2.788424957543611526e-03
8.723201230168342590e-03
-1.152835204266011715e-03
-1.672312803566455841e-02
2.247798722237348557e-03
4.412123933434486389e-03
-3.826411440968513489e-03
3.520236117765307426e-03
5.819542333483695984e-03
-1.334216911345720291e-03
-2.101165708154439926e-03
-3.137089079245924950e-03
-4.498563241213560104e-03
3.699712222442030907e-03
-1.864554360508918762e-03
9.605634957551956177e-03
7.906945422291755676e-03
-1.109524536877870560e-02
1.929103583097457886e-02
-1.020521949976682663e-02
-9.289242327213287354e-03
2.052300609648227692e-03
-5.783803761005401611e-03
-2.532074693590402603e-03
1.512745046056807041e-03
7.415204308927059174e-03
-2.681152336299419403e-02
7.696706335991621017e-03
-8.816850371658802032e-03
-8.460680022835731506e-03
6.971213500946760178e-03
2.144915796816349030e-02
5.767618864774703979e-02
-1.183574460446834564e-02
-3.600737452507019043e-02
-1.244265120476484299e-02
1.251914054155349731e-01
-4.984865337610244751e-02
4.121447913348674774e-03
1.615116186439990997e-02
5.730250850319862366e-03
-5.388072226196527481e-03
-7.227893453091382980e-03
4.078990314155817032e-03
-3.256982192397117615e-02
1.268608961254358292e-02
-1.382033620029687881e-02
3.933014348149299622e-03
6.645049899816513062e-03
-4.054617136716842651e-03
-8.549893274903297424e-03
-2.846115455031394958e-02
1.290847267955541611e-02
5.608997307717800140e-03
-3.196903690695762634e-02
1.248499285429716110e-02
-2.485474944114685059e-02
-1.005552429705858231e-02
9.975026361644268036e-03
1.681545167230069637e-03
-1.506249979138374329e-02
-4.056475590914487839e-03
-9.037168696522712708e-03
-2.081536687910556793e-03
-4.451594129204750061e-02
-1.039791200309991837e-02
5.820075049996376038e-03
-5.365727469325065613e-02
-2.004590071737766266e-02
5.310644395649433136e-03
1.225599739700555801e-02
-3.971581906080245972e-02
4.445079341530799866e-02
-2.007647417485713959e-02
-1.633657328784465790e-02
1.589885726571083069e-02
3.064386837650090456e-04
-6.493728607892990112e-02
-1.545832678675651550e-02
-1.570550724864006042e-02
4.455131478607654572e-03
-3.060095757246017456e-02
1.361711602658033371e-02
8.787964470684528351e-03
3.167589008808135986e-02
-3.823263198137283325e-02
1.886926777660846710e-02
-3.278128802776336670e-02
2.848337031900882721e-02
7.281520869582891464e-03
-9.380845003761351109e-04
-1.054401788860559464e-02
1.508731842041015625e-01
5.792837217450141907e-02
-1.849949359893798828e-03
-9.146806783974170685e-03
-5.967389792203903198e-03
-4.942417144775390625e-03
-2.928814617916941643e-03
-1.277982071042060852e-02
-1.289287465624511242e-03
3.315763175487518311e-02
1.048186677508056164e-03
-1.090552657842636108e-02
-2.210850454866886139e-02
-4.483799263834953308e-02
3.144504502415657043e-02
-5.492463707923889160e-03
-3.750621527433395386e-02
1.593726570717990398e-03
5.908065475523471832e-03
-8.108822628855705261e-03
4.025540780276060104e-03
7.188661955296993256e-03
4.660809412598609924e-03
7.498235441744327545e-03
-2.377557568252086639e-02
5.200327560305595398e-02
2.783605596050620079e-03
1.135843340307474136e-02
2.209751494228839874e-02
-4.131276218686252832e-04
6.673075724393129349e-03
3.482030704617500305e-02
6.936359405517578125e-02
-9.661369025707244873e-03
2.122942544519901276e-02
4.124900326132774353e-02
1.092396676540374756e-01
-2.785254456102848053e-02
-3.476531244814395905e-03
-8.312176913022994995e-03
8.615488186478614807e-03
-1.829634979367256165e-02
-4.145052656531333923e-02
-1.459734980016946793e-02
5.401711445301771164e-03
8.109907503239810467e-04
3.678599372506141663e-02
-1.052376627922058105e-02
-6.400482729077339172e-03
2.046542242169380188e-02
3.342792158946394920e-03
-2.197312749922275543e-02
-1.052030734717845917e-02
-6.612815894186496735e-03
1.155795156955718994e-02
-4.472315683960914612e-02
-2.228584606200456619e-03
-2.684654667973518372e-03
-1.450241636484861374e-02
1.361088943667709827e-04
-9.787817485630512238e-03
-2.470010425895452499e-03
-5.392750352621078491e-02
1.127479597926139832e-02
7.801676169037818909e-03
-2.931226976215839386e-03
-2.413986483588814735e-03
2.684186911210417747e-04
-1.431790273636579514e-02
-2.821669727563858032e-02
1.417499152012169361e-03
-1.668858807533979416e-03
-4.889116622507572174e-03
-5.380311980843544006e-03
-4.452731460332870483e-03
-1.248489692807197571e-02
9.831984527409076691e-03
-5.116567481309175491e-03
-3.052865853533148766e-03
5.667934566736221313e-02
4.313357174396514893e-03
1.375492569059133530e-02
-2.804373949766159058e-02
1.479199994355440140e-02
5.579214077442884445e-03
-3.518837690353393555e-02
1.864094636403024197e-03
-2.542768605053424835e-03
-1.976012624800205231e-02
-4.832538310438394547e-03
-2.497047185897827148e-02
1.030929852277040482e-02
5.404151976108551025e-03
-3.602229431271553040e-02
-1.765008829534053802e-02
-2.857338637113571167e-03
-4.084885586053133011e-03
8.748817257583141327e-03
1.851619407534599304e-02
1.281074900180101395e-02
-7.132637780159711838e-03
2.985466644167900085e-02
3.131239488720893860e-02
-3.085989505052566528e-03
-1.467628637328743935e-03
2.015690505504608154e-02
1.794053986668586731e-02
1.962621137499809265e-02
-1.281434856355190277e-02
-1.673739217221736908e-02
5.185292288661003113e-02
-6.113452371209859848e-03
-4.443045239895582199e-03
-2.786892093718051910e-02
-5.568381398916244507e-03
-9.333657799288630486e-04
1.056007854640483856e-02
3.170215641148388386e-04
-7.903775200247764587e-03
2.134426496922969818e-03
2.853326499462127686e-02
-2.959757344797253609e-03
-1.431669481098651886e-02
2.603400871157646179e-02
1.603920012712478638e-02
-2.771721407771110535e-02
-2.391193993389606476e-02
-1.193064730614423752e-02
1.572795957326889038e-02
1.648190803825855255e-02
-1.027664914727210999e-02
5.085821263492107391e-03
6.090234965085983276e-04
1.970027573406696320e-03
-6.675568874925374985e-04
-7.368704769760370255e-03
4.052106291055679321e-02
-3.202817589044570923e-02
3.887636959552764893e-02
-1.984897628426551819e-02
-2.470301650464534760e-02
6.852700375020503998e-03
7.314896211028099060e-03
1.938622817397117615e-02
1.227210927754640579e-02
3.559564054012298584e-02
-4.982354119420051575e-03
-2.171057462692260742e-02
-7.186257280409336090e-03
3.559997770935297012e-03
-1.503775455057621002e-02
-8.113337098620831966e-04
1.286082994192838669e-02
-1.210159342736005783e-02
-1.004024129360914230e-02
-4.546174022834748030e-05
-9.134781546890735626e-03
-1.486819609999656677e-02
-1.204913016408681870e-02
1.572383381426334381e-02
2.432844601571559906e-02
2.853357605636119843e-02
1.496167853474617004e-03
2.165113389492034912e-02
4.637053608894348145e-02
-1.195670571178197861e-02
6.329541094601154327e-03
-1.218656171113252640e-02
2.353440225124359131e-02
-7.111370097845792770e-03
-3.318565431982278824e-03
-6.042902357876300812e-03
-3.016315866261720657e-03
-2.540729753673076630e-02
1.533393375575542450e-02
-1.703789643943309784e-02
-5.125833675265312195e-03
1.150799635797739029e-02
-1.104970742017030716e-02
4.572656005620956421e-03
-3.234179457649588585e-03
-2.803579904139041901e-02
1.393049489706754684e-02
4.500867798924446106e-03
4.262994043529033661e-03
3.083162195980548859e-02
3.800591919571161270e-03
1.115873176604509354e-02
-1.943725720047950745e-02
-3.088220395147800446e-02
-1.147675979882478714e-02
1.104377582669258118e-02
9.763307869434356689e-03
-2.138660987839102745e-03
3.371194005012512207e-02
1.574216224253177643e-02
-2.618279121816158295e-02
-3.200717642903327942e-02
-1.711945235729217529e-02
5.282705184072256088e-03
-4.285477474331855774e-02
4.701072722673416138e-02
-2.504624985158443451e-02
2.020492777228355408e-02
3.292620554566383362e-02
-5.014509893953800201e-03
-1.062552724033594131e-02
9.955296292901039124e-03
-2.518083900213241577e-02
-5.391143262386322021e-02
2.252550050616264343e-02
-4.093418642878532410e-02
1.736684143543243408e-02
-2.871198207139968872e-02
-4.941303282976150513e-03
-9.716982953250408173e-03
3.754470031708478928e-03
-4.196908324956893921e-03
6.099702417850494385e-02
-1.923695392906665802e-02
-7.617288827896118164e-02
4.906853660941123962e-03
-3.006362915039062500e-02
2.529914863407611847e-02
3.285961970686912537e-02
1.593554951250553131e-02
5.537839233875274658e-02
-1.188390050083398819e-02
-6.820251233875751495e-03
8.274181745946407318e-03
2.511151693761348724e-02
3.160877153277397156e-02
2.256214991211891174e-02
1.955857127904891968e-02
-4.311013221740722656e-02
-1.330592110753059387e-02
2.708041109144687653e-02
2.683022525161504745e-03
1.618644222617149353e-02
6.615676730871200562e-02
-5.390892550349235535e-02
8.050004951655864716e-03
4.165600612759590149e-02
-4.905831441283226013e-02
-1.756508275866508484e-02
1.531676389276981354e-02
3.210689127445220947e-02
8.972881361842155457e-03
1.846713013947010040e-02
-2.936762012541294098e-02
3.537281975150108337e-02
2.478327834978699684e-03
5.508312210440635681e-02
1.634235680103302002e-02
-2.395311743021011353e-02
-4.573481902480125427e-02
5.047492682933807373e-02
-7.618199288845062256e-02
-3.440843522548675537e-02
-1.433022692799568176e-02
-7.791307754814624786e-03
-2.791961887851357460e-03
-2.913158619776368141e-03
9.816809557378292084e-03
-1.378921046853065491e-02
1.452268753200769424e-02
2.895869780331850052e-03
-1.585060916841030121e-02
-1.093434914946556091e-02
-2.900565508753061295e-03
-4.791681841015815735e-02
-2.261597104370594025e-02
-6.593012064695358276e-02
1.993937185034155846e-03
3.711991710588335991e-03
6.307701021432876587e-02
4.736562445759773254e-02
3.210123628377914429e-02
-8.307363092899322510e-02
-9.357060305774211884e-03
-1.181192789226770401e-02
1.099764369428157806e-02
1.346760243177413940e-02
-2.734002191573381424e-03
-3.395698219537734985e-02
1.146720629185438156e-02
-2.153929136693477631e-02
5.685355048626661301e-03
-1.705951429903507233e-02
-8.219472132623195648e-03
-6.040119915269315243e-04
2.919547259807586670e-02
8.706479333341121674e-03
-9.218613617122173309e-03
1.349799241870641708e-02
-1.748814061284065247e-02
-1.047103386372327805e-02
6.663887761533260345e-03
-9.055570699274539948e-03
6.689047068357467651e-02
-3.121710009872913361e-02
6.314990669488906860e-02
1.287198904901742935e-02
5.862709600478410721e-03
1.649448089301586151e-02
-5.069136992096900940e-02
1.103691104799509048e-02
6.214330717921257019e-02
-1.632501371204853058e-02
-3.821025835350155830e-03
-3.233296424150466919e-02
-5.694421008229255676e-03
7.066597789525985718e-02
-3.392278030514717102e-02
-3.773819422349333763e-03
-3.322185203433036804e-02
7.726831361651420593e-03
1.786920614540576935e-02
-2.536165062338113785e-03
-3.060640208423137665e-02
-6.494399160146713257e-02
-2.254054322838783264e-02
2.406471641734242439e-03
2.266924269497394562e-02
9.838705882430076599e-03
-1.297175046056509018e-02
2.848104201257228851e-02
2.646988956257700920e-03
1.656812429428100586e-02
7.108595222234725952e-02
2.196882851421833038e-02
5.369400139898061752e-03
-2.764071337878704071e-02
4.986038431525230408e-03
-8.613926358520984650e-03
9.276147931814193726e-03
-1.779188029468059540e-02
8.348057977855205536e-03
-2.681643888354301453e-02
2.804418327286839485e-03
2.042976580560207367e-02
-4.432279150933027267e-03
-1.530464645475149155e-02
3.085941425524652004e-04
-1.554145012050867081e-03
-3.929369617253541946e-03
2.338853199034929276e-03
7.355944253504276276e-03
-3.372754901647567749e-02
1.233943458646535873e-02
1.229233480989933014e-02
-9.374809451401233673e-03
-1.719770021736621857e-02
1.762215979397296906e-03
-1.883522979915142059e-02
-4.729639273136854172e-03
4.076064005494117737e-02
3.307699924334883690e-03
-7.876217365264892578e-02
4.645659402012825012e-02
8.689119480550289154e-03
-9.262841194868087769e-03
3.386402502655982971e-02
-1.480251271277666092e-02
4.489519633352756500e-03
-8.391088806092739105e-03
6.790388841181993484e-03
-1.363133778795599937e-03
-1.037000771611928940e-02
2.108615264296531677e-02
1.890121400356292725e-02
-1.577882841229438782e-02
2.058189734816551208e-02
-3.230660036206245422e-02
-5.092402454465627670e-03
9.233603253960609436e-03
3.581780195236206055e-02
-1.555914152413606644e-02
3.002746030688285828e-02
2.425689715892076492e-03
1.069817785173654556e-02
6.405873224139213562e-03
7.317820098251104355e-03
3.527867421507835388e-02
6.596405804157257080e-02
7.647279184311628342e-03
-2.864758018404245377e-03
-4.661306366324424744e-02
1.726076379418373108e-02
4.088340792804956436e-03
-1.927452348172664642e-02
-1.709544472396373749e-02
3.918570000678300858e-03
8.040357381105422974e-03
-5.216507241129875183e-03
-1.028743665665388107e-02
-3.459650278091430664e-02
-1.813557371497154236e-02
-2.841726178303360939e-03
1.959732361137866974e-02
2.765745390206575394e-03
-2.824578806757926941e-02
-1.803771592676639557e-02
2.404095977544784546e-02
-1.714671403169631958e-02
-1.365278474986553192e-02
-7.350918604061007500e-04
-2.250722423195838928e-02
1.642219908535480499e-02
6.442484259605407715e-02
-2.447672747075557709e-02
-3.493071533739566803e-03
-6.082756444811820984e-03
3.544575721025466919e-02
6.331771612167358398e-03
2.197872288525104523e-02
9.153316728770732880e-03
-2.235888130962848663e-02
5.694368388503789902e-03
-2.548810653388500214e-02
4.731002449989318848e-02
-3.919726237654685974e-03
-2.754810079932212830e-02
-2.991548553109169006e-02
4.525491967797279358e-03
-2.612628042697906494e-02
3.167971223592758179e-02
-1.563134230673313141e-02
-1.164504326879978180e-02
-3.301254659891128540e-02
1.400706241838634014e-03
1.364917121827602386e-02
-1.279042661190032959e-02
-1.803763210773468018e-02
-1.634057424962520599e-02
2.072416828013956547e-04
5.975576583296060562e-03
-2.340686507523059845e-02
-1.744930446147918701e-02
1.356326392851769924e-03
-3.177857026457786560e-02
1.256931805983185768e-03
-7.556103519164025784e-04
8.509752340614795685e-03
-4.919552803039550781e-02
-6.378893740475177765e-03
1.645327173173427582e-02
1.230654492974281311e-02
-2.742511034011840820e-02
-7.750587537884712219e-03
1.214564964175224304e-02
-3.407183289527893066e-02
7.266566623002290726e-03
-5.414290819317102432e-03
1.866941340267658234e-03
-7.789946626871824265e-03
-1.369888312183320522e-03
1.484368834644556046e-02
-2.846910618245601654e-03
1.853705756366252899e-02
-1.700735837221145630e-02
-1.267040846869349480e-03
1.920675113797187805e-02
-6.616332684643566608e-04
-8.421760983765125275e-03
-1.743117533624172211e-02
-2.623567916452884674e-02
-1.046333461999893188e-02
-1.182312332093715668e-02
-1.655440591275691986e-02
9.874399984255433083e-05
-1.061983965337276459e-02
-4.752869252115488052e-03
6.625401321798563004e-03
1.959829591214656830e-02
2.923143561929464340e-03
-1.700700377114117146e-03
-4.400840029120445251e-02
-4.166058264672756195e-03
-1.546624954789876938e-02
-3.558302670717239380e-02
6.205085082910954952e-04
3.406756743788719177e-02
-4.183175414800643921e-02
-7.256136741489171982e-03
4.731983318924903870e-02
-2.784829773008823395e-02
-5.463469773530960083e-03
9.023520164191722870e-03
-1.945981942117214203e-02
-8.105413056910037994e-03
1.632619649171829224e-02
-3.754565864801406860e-02
6.224378477782011032e-03
1.455065910704433918e-03
-7.731465739198029041e-04
-1.179780997335910797e-02
1.037713373079895973e-03
1.501866057515144348e-02
-1.403518766164779663e-02
-3.022893704473972321e-02
-3.853710135444998741e-03
-3.181433537974953651e-03
-1.534847891889512539e-03
1.865096203982830048e-02
-2.868133038282394409e-02
1.679872535169124603e-02
1.753751188516616821e-02
1.475212443619966507e-02
-2.635361626744270325e-02
1.173818204551935196e-02
-1.365027669817209244e-02
2.053624950349330902e-02
3.344503045082092285e-02
-6.553907296620309353e-04
1.229134853929281235e-02
-2.742902841418981552e-03
-1.512083224952220917e-02
-1.606912165880203247e-02
-1.919563300907611847e-02
-7.632219791412353516e-02
-5.519071593880653381e-03
1.084032934159040451e-02
-1.368853263556957245e-02
1.917172782123088837e-02
-6.726648658514022827e-02
-1.478708069771528244e-02
7.453443482518196106e-03
2.357532456517219543e-02
-1.722522452473640442e-02
1.586840115487575531e-02
-1.051914226263761520e-02
-1.169166294857859612e-03
1.063738670200109482e-02
7.425764109939336777e-03
-3.411713242530822754e-02
-5.020672455430030823e-03
4.874038975685834885e-03
1.480648852884769440e-02
1.473841443657875061e-02
-6.582358386367559433e-03
-2.025676704943180084e-02
1.787804253399372101e-02
6.033500656485557556e-03
8.186906576156616211e-03
-1.604264043271541595e-02
-2.516007237136363983e-02
-3.767262026667594910e-02
9.054679423570632935e-03
-7.872465997934341431e-03
-6.624752655625343323e-03
6.785481423139572144e-02
-1.124973595142364502e-02
-1.739332638680934906e-02
-1.854105666279792786e-02
5.208534188568592072e-03
-3.151027485728263855e-03
3.041991963982582092e-03
-6.853286921977996826e-02
-2.610394544899463654e-02
-2.355074509978294373e-02
-6.724655628204345703e-02
1.755744777619838715e-02
2.099804766476154327e-02
1.904139667749404907e-02
-1.813699118793010712e-02
-1.212293375283479691e-02
6.061519496142864227e-03
-3.226087987422943115e-02
2.698241733014583588e-02
-1.172287669032812119e-02
-2.934494288638234138e-03
-2.659878507256507874e-02
-2.635795064270496368e-02
-1.726655475795269012e-02
2.432374469935894012e-02
1.399504952132701874e-02
-9.986530058085918427e-03
1.389077026396989822e-02
6.498882081359624863e-03
1.636387966573238373e-02
-3.940903022885322571e-02
3.928173333406448364e-03
-2.047565951943397522e-02
-2.911912836134433746e-02
4.189485311508178711e-02
-3.141593188047409058e-02
-2.053620480000972748e-02
-5.822576582431793213e-03
-3.208372369408607483e-02
-2.439361810684204102e-02
2.750074863433837891e-02
-1.137049496173858643e-02
6.654251483269035816e-04
1.607886143028736115e-02
6.920272950083017349e-03
-2.948414767161011696e-04
-4.911393858492374420e-03
2.689047157764434814e-02
6.382485385984182358e-03
-1.776024699211120605e-02
1.346084289252758026e-02
-1.550038624554872513e-02
1.008639298379421234e-02
1.759310485795140266e-03
-1.787182502448558807e-02
1.124065648764371872e-02
-1.926465891301631927e-03
-5.695699714124202728e-03
2.030205167829990387e-02
1.201358903199434280e-02
2.274320833384990692e-02
8.849821053445339203e-03
2.866374328732490540e-02
-1.145956572145223618e-02
4.041097592562437057e-03
-8.450842462480068207e-03
1.301726978272199631e-02
2.099971473217010498e-02
1.192154712043702602e-03
-4.316360875964164734e-02
1.088308636099100113e-02
-1.524568162858486176e-02
1.840970665216445923e-02
-2.077111601829528809e-02
1.342292223125696182e-02
-2.332374081015586853e-02
1.297691278159618378e-02
-1.957392320036888123e-02
1.429710816591978073e-02
-5.792176816612482071e-03
-1.839373633265495300e-02
2.921172417700290680e-02
2.523006871342658997e-02
3.243975713849067688e-02
2.335205860435962677e-02
-9.872805327177047729e-03
-2.259964868426322937e-02
-5.208064615726470947e-02
-2.806409634649753571e-02
1.493869815021753311e-03
1.568765193223953247e-02
2.166655473411083221e-02
-1.171057461760938168e-03
-2.354891970753669739e-02
1.341179944574832916e-02
7.507985923439264297e-03
1.110415067523717880e-02
4.473431035876274109e-03
2.912629209458827972e-02
-1.449515949934720993e-02
-4.454640671610832214e-02
9.905274957418441772e-03
5.721888155676424503e-04
1.986615918576717377e-02
8.144958876073360443e-03
1.355868857353925705e-02
1.072267768904566765e-03
-1.417779363691806793e-02
-5.187287181615829468e-02
-2.613009419292211533e-03
-1.095357909798622131e-02
-6.935974583029747009e-03
-2.612087316811084747e-02
-2.675026282668113708e-02
1.206162758171558380e-02
-3.292889520525932312e-02
-1.101604383438825607e-02
2.765854820609092712e-03
-2.380335703492164612e-02
-8.303644135594367981e-03
3.683617338538169861e-02
1.357589196413755417e-02
4.413878545165061951e-02
-3.249780973419547081e-03
1.013062335550785065e-02
-7.135179475881159306e-04
-2.335269749164581299e-02
4.204021021723747253e-02
-2.158501930534839630e-02
-3.601984679698944092e-02
1.117181498557329178e-03
-1.377951167523860931e-02
-1.387556456029415131e-02
5.120913265272974968e-04
-9.829451330006122589e-03
3.523319959640502930e-03
1.032809447497129440e-02
1.056443061679601669e-02
-3.845585137605667114e-02
-1.030190754681825638e-02
1.199551764875650406e-02
2.192430198192596436e-02
-2.330796420574188232e-02
1.135706715285778046e-02
-5.987375508993864059e-03
-1.859241910278797150e-02
2.339844778180122375e-02
-4.355716519057750702e-03
-6.928056478500366211e-03
-6.633365992456674576e-03
-4.406922496855258942e-03
-1.264136563986539841e-02
2.007345296442508698e-02
-3.846815088763833046e-03
-2.455258741974830627e-02
-2.318528853356838226e-02
2.193924970924854279e-02
-2.516494505107402802e-02
6.177182309329509735e-03
-1.137042767368257046e-03
3.074187599122524261e-02
1.071303710341453552e-02
4.648559726774692535e-03
3.690065443515777588e-02
1.511686947196722031e-02
-1.713278354145586491e-03
2.792199328541755676e-02
-2.756340429186820984e-02
-4.460993036627769470e-02
-6.464991252869367599e-03
-1.458522677421569824e-02
2.438439615070819855e-02
7.359792012721300125e-03
-4.365063831210136414e-02
-9.366533719003200531e-03
-1.956856437027454376e-02
1.117585506290197372e-02
5.885532125830650330e-02
4.780570045113563538e-03
-4.056077450513839722e-02
-1.028149481862783432e-02
-2.923671714961528778e-02
6.587450206279754639e-02
-1.403421256691217422e-02
-3.337879898026585579e-03
2.064450876787304878e-03
-1.710802316665649414e-02
-2.029347047209739685e-02
2.825597114861011505e-02
-3.173460066318511963e-02
-2.194424904882907867e-02
-4.212363064289093018e-02
-3.649248182773590088e-02
1.269037462770938873e-02
1.722249574959278107e-02
2.583202149253338575e-04
1.596748270094394684e-02
1.994840800762176514e-02
1.614545658230781555e-02
-1.188953313976526260e-02
-4.341141507029533386e-02
2.303301542997360229e-02
3.538779541850090027e-02
-2.308448404073715210e-02
1.016945671290159225e-02
2.827350236475467682e-02
-2.139789611101150513e-02
1.983108930289745331e-02
-3.553282096982002258e-02
1.308175362646579742e-02
1.018813531845808029e-02
-2.561841718852519989e-02
-1.031361967325210571e-01
1.184618845582008362e-02
6.466526538133621216e-03
-4.572973120957612991e-03
1.598425023257732391e-02
-2.857533982023596764e-04
-6.693770643323659897e-03
-2.904002368450164795e-02
-4.926509037613868713e-02
3.189441980794072151e-03
1.093043386936187744e-02
1.343423966318368912e-02
3.844157326966524124e-03
-2.211635746061801910e-02
3.553008660674095154e-03
6.114201620221138000e-03
-1.504629105329513550e-02
-3.282990306615829468e-02
-2.005355432629585266e-03
7.306473795324563980e-03
-8.143528364598751068e-03
1.054260786622762680e-02
-9.851489216089248657e-03
3.188230842351913452e-02
-1.934359781444072723e-02
-6.874103099107742310e-03
-1.382055506110191345e-02
-2.342158183455467224e-02
9.723593480885028839e-03
5.888698622584342957e-03
-9.594544768333435059e-03
1.543003227561712265e-02
-5.478580947965383530e-03
6.798777729272842407e-03
-2.104155905544757843e-02
-1.840484142303466797e-02
-9.029606357216835022e-03
1.931907422840595245e-02
2.063928730785846710e-02
-6.970526883378624916e-04
-2.370625920593738556e-02
-3.263892838731408119e-03
7.815938442945480347e-03
-2.281003259122371674e-02
1.630048826336860657e-02
1.794758997857570648e-02
1.093885002774186432e-04
1.196475932374596596e-03
-2.321626059710979462e-02
3.921902738511562347e-03
-9.942673146724700928e-03
8.653295226395130157e-03
1.416027080267667770e-02
-1.432188553735613823e-03
3.442904353141784668e-02
-1.165939122438430786e-02
-2.598991990089416504e-02
-4.594508558511734009e-02
2.976252883672714233e-02
9.998162277042865753e-04
-4.522592574357986450e-02
8.036146871745586395e-03
2.783841080963611603e-02
-1.025592070072889328e-02
-1.821273565292358398e-02
-9.167794138193130493e-03
6.475999951362609863e-03
5.254674702882766724e-02
-1.208580750972032547e-02
-4.751930013298988342e-02
1.092369575053453445e-02
2.115286188200116158e-03
-8.066704496741294861e-03
-1.310442388057708740e-02
3.299578279256820679e-02
3.762035444378852844e-02
4.040176980197429657e-03
-1.388963032513856888e-02
6.609559990465641022e-03
1.132741943001747131e-02
6.021543964743614197e-02
-3.695100080221891403e-03
1.556453574448823929e-02
-3.532588854432106018e-02
-3.759769350290298462e-02
-1.573638804256916046e-02
-1.130176987498998642e-02
-1.004130467772483826e-01
-3.831758350133895874e-02
2.871016226708889008e-02
-2.049084007740020752e-02
-2.954164333641529083e-02
2.037737704813480377e-02
-7.962293922901153564e-03
-9.685914963483810425e-03
-2.243382483720779419e-02
1.664375886321067810e-02
4.241917282342910767e-03
6.580560654401779175e-02
7.143843453377485275e-03
4.130083695054054260e-02
1.398975774645805359e-02
3.519657766446471214e-04
-3.517068177461624146e-02
-1.731450483202934265e-02
1.964056864380836487e-02
-1.583092287182807922e-02
-7.226197980344295502e-03
8.371741510927677155e-03
8.131653070449829102e-03
-3.504987061023712158e-02
-3.936701919883489609e-03
-1.037677563726902008e-02
2.046746900305151939e-03
7.958448491990566254e-03
7.321401499211788177e-03
2.588552236557006836e-02
7.034641504287719727e-02
2.061794511973857880e-03
-9.201548993587493896e-03
-3.662062063813209534e-02
3.683918155729770660e-03
6.106902845203876495e-03
1.430074591189622879e-02
7.455930113792419434e-02
-8.932124823331832886e-03
-3.444642573595046997e-02
-1.861124858260154724e-02
-1.101625058799982071e-02
-1.333350222557783127e-02
-2.942821383476257324e-02
-4.828167613595724106e-03
4.981816187500953674e-02
1.680622622370719910e-02
-3.091634809970855713e-02
-3.804268687963485718e-02
2.640694612637162209e-03
7.591977249830961227e-03
-6.447836011648178101e-02
-2.929055131971836090e-02
-1.411902997642755508e-02
1.992544345557689667e-02
-1.322885043919086456e-02
1.456864736974239349e-02
3.836482763290405273e-02
-1.469192281365394592e-02
-2.158490708097815514e-03
-2.757095359265804291e-02
-3.763550519943237305e-02
8.783793076872825623e-03
-5.455530062317848206e-02
-1.116557978093624115e-02
3.786117210984230042e-02
2.333315089344978333e-02
3.289432963356375694e-03
6.013160943984985352e-02
-2.747361361980438232e-02
4.147224873304367065e-02
1.094703562557697296e-03
-2.887201309204101562e-02
-6.424297392368316650e-02
1.288547646254301071e-02
-1.717142411507666111e-03
7.789941155351698399e-04
-9.501377120614051819e-03
1.471857423894107342e-03
-1.030066609382629395e-01
-4.373702406883239746e-02
5.363446194678544998e-03
4.673295095562934875e-02
3.096167184412479401e-02
6.243809312582015991e-02
-3.973015025258064270e-02
2.775861416012048721e-03
-3.324071690440177917e-02
-4.743820056319236755e-02
2.140155527740716934e-03
2.126001752912998199e-02
1.345499884337186813e-03
-2.498834393918514252e-02
2.666962705552577972e-02
-1.025576493702828884e-03
3.923183679580688477e-02
-3.195791039615869522e-03
1.318977400660514832e-02
-9.877466363832354546e-04
-9.220346808433532715e-03
-8.797302842140197754e-03
2.797029353678226471e-02
-1.162329614162445068e-01
-2.872660988941788673e-03
-2.086460776627063751e-02
3.154926002025604248e-02
-2.057209983468055725e-02
-4.123776033520698547e-02
3.323207143694162369e-03
-1.663769781589508057e-02
-6.074163690209388733e-02
1.317502371966838837e-02
-1.999188773334026337e-02
-2.537432685494422913e-02
1.216810289770364761e-02
1.746664196252822876e-02
1.335246209055185318e-02
2.063806913793087006e-02
3.088677674531936646e-02
-7.980183698236942291e-03
1.907408796250820160e-02
-1.117780804634094238e-02
-2.684138156473636627e-02
-9.264744818210601807e-03
-4.053569212555885315e-02
-2.004296146333217621e-02
1.782160624861717224e-02
2.145735174417495728e-02
-8.321564644575119019e-03
-3.016765415668487549e-02
-3.057338483631610870e-02
3.714849939569830894e-03
5.427849944680929184e-03
-1.154507393948733807e-03
1.469596475362777710e-02
8.772164583206176758e-03
2.511963434517383575e-02
-6.137337535619735718e-03
1.061380468308925629e-02
-2.293366123922169209e-04
-5.494709685444831848e-02
-1.585486927069723606e-03
-1.510440651327371597e-02
2.092154696583747864e-02
-9.954865090548992157e-03
-1.175099797546863556e-02
9.339920245110988617e-03
4.375798162072896957e-03
6.538532674312591553e-03
-2.045416971668601036e-03
-6.475716363638639450e-03
-2.308134548366069794e-02
-4.327043145895004272e-02
2.844121307134628296e-02
-5.036063957959413528e-03
1.532448641955852509e-02
-2.157918550074100494e-02
3.148742252960801125e-03
1.128643751144409180e-02
-2.520853467285633087e-02
-5.169654730707406998e-03
2.580483071506023407e-02
7.418169989250600338e-04
-1.649693213403224945e-02
-2.382449433207511902e-02
-1.090652309358119965e-02
-5.139206349849700928e-02
-1.125139184296131134e-02
9.136666194535791874e-04
-2.061631530523300171e-02
-5.992208048701286316e-02
-2.693794667720794678e-03
-2.353113144636154175e-02
1.324351062066853046e-03
5.623250268399715424e-03
7.935736328363418579e-03
4.139280878007411957e-03
-1.898462511599063873e-02
1.771120354533195496e-02
-1.518334494903683662e-03
1.097169984132051468e-02
2.750942856073379517e-02
2.818120177835226059e-03
4.145658574998378754e-03
-9.830708149820566177e-04
-2.113081328570842743e-02
-3.177581587806344032e-03
-7.180398679338395596e-04
-3.304274985566735268e-03
-1.434774603694677353e-02
3.554655238986015320e-02
3.263569250702857971e-02
7.808357477188110352e-03
-3.956447914242744446e-02
-2.901702933013439178e-02
1.170288026332855225e-02
8.673788048326969147e-03
-1.928027905523777008e-02
6.632336415350437164e-03
2.043113112449645996e-03
3.211599588394165039e-02
1.490859128534793854e-02
-2.329523209482431412e-03
-3.056352399289608002e-02
1.233194023370742798e-03
-8.140015415847301483e-03
-3.398922458291053772e-02
1.024882681667804718e-02
-1.680311374366283417e-02
2.859206870198249817e-03
-5.064873490482568741e-03
4.714047163724899292e-02
-6.035931874066591263e-03
-3.557408973574638367e-02
4.700481519103050232e-02
-3.632551059126853943e-02
2.882029116153717041e-02
2.156011015176773071e-02
1.667863503098487854e-02
1.258241571485996246e-02
-4.233780782669782639e-03
-3.589938394725322723e-03
-9.126469492912292480e-03
-2.887288667261600494e-02
3.290202585048973560e-04
5.492123961448669434e-02
1.204231847077608109e-02
-4.041442647576332092e-03
-1.686706952750682831e-02
-9.418331086635589600e-03
-1.844769716262817383e-02
-2.075947448611259460e-02
-2.524976246058940887e-02
-5.191552918404340744e-03
1.028286106884479523e-02
-2.138441428542137146e-02
5.439833737909793854e-03
-3.217859938740730286e-02
-3.661311790347099304e-02
1.152851246297359467e-02
5.681830644607543945e-02
2.292178943753242493e-02
4.117527510970830917e-03
8.845555130392313004e-04
2.347540855407714844e-02
-5.652369186282157898e-02
-2.135439403355121613e-02
1.547127403318881989e-02
1.336509548127651215e-02
-1.337574794888496399e-02
-1.067225355654954910e-02
4.916145280003547668e-02
2.413216279819607735e-03
4.280242323875427246e-02
-2.799978293478488922e-02
3.364115208387374878e-02
8.396299090236425400e-04
-1.953857950866222382e-02
7.545570377260446548e-03
2.035487629473209381e-02
7.582729309797286987e-02
9.783395798876881599e-04
1.677304320037364960e-02
-9.415891952812671661e-03
8.086562901735305786e-02
5.063672550022602081e-03
2.530392631888389587e-02
2.606629207730293274e-02
4.954956471920013428e-02
2.750077284872531891e-02
-6.321767345070838928e-03
-3.315695747733116150e-02
-1.918862015008926392e-02
-2.265930175781250000e-02
5.130329634994268417e-03
1.462001632899045944e-02
-9.894933318719267845e-04
1.984838210046291351e-02
-9.945021010935306549e-03
-2.984731271862983704e-02
-3.392185270786285400e-02
4.694059025496244431e-03
1.111976709216833115e-02
-1.828254200518131256e-02
-7.247234694659709930e-03
-2.053445205092430115e-02
1.125761307775974274e-02
-1.061535160988569260e-02
1.696115359663963318e-02
-1.659490354359149933e-02
-1.400156132876873016e-02
3.238474205136299133e-02
-3.731026500463485718e-02
-5.899128969758749008e-03
4.616152960807085037e-03
-1.376612018793821335e-02
3.564796969294548035e-02
1.324003562331199646e-02
8.484657737426459789e-04
1.520369667559862137e-02
1.722437702119350433e-02
-9.599043987691402435e-03
8.795836940407752991e-03
1.667695306241512299e-02
-1.255090534687042236e-02
2.265799976885318756e-02
-1.131534483283758163e-02
3.592929244041442871e-02
6.244843825697898865e-03
-2.432248927652835846e-02
1.380172520875930786e-01
2.301993593573570251e-02
-7.425288669764995575e-03
-1.445967424660921097e-02
3.342798352241516113e-02
6.186253577470779419e-02
-2.191972918808460236e-03
5.169801414012908936e-03
6.047366769053041935e-04
6.178361829370260239e-03
-2.492615208029747009e-02
6.960042286664247513e-03
3.148677200078964233e-02
4.825924523174762726e-03
-1.640970073640346527e-02
-6.430781446397304535e-03
4.419700801372528076e-02
-7.249629124999046326e-03
9.445676952600479126e-02
-3.605740889906883240e-02
2.923976257443428040e-02
-1.238844729959964752e-02
2.226142957806587219e-02
-3.306353837251663208e-02
-1.948858052492141724e-02
-9.997518733143806458e-03
-1.158337108790874481e-02
-1.177710480988025665e-02
1.955445855855941772e-02
3.580235317349433899e-02
-2.448948100209236145e-02
-2.601476851850748062e-03
1.347626000642776489e-02
4.962367936968803406e-02
-2.737579122185707092e-02
-2.452191710472106934e-02
-2.534825820475816727e-03
1.151577290147542953e-02
1.004028879106044769e-02
4.198331385850906372e-03
-2.955436892807483673e-02
2.850357850547879934e-04
1.629322394728660583e-02
3.901718300767242908e-04
3.830267861485481262e-02
-9.117248468101024628e-03
7.202365435659885406e-03
-1.474512158893048763e-03
-2.043590508401393890e-02
-1.630411855876445770e-02
-2.386359125375747681e-02
-9.935414418578147888e-03
4.399943351745605469e-02
-6.137156160548329353e-04
9.280637837946414948e-03
-3.508062288165092468e-02
-2.399567514657974243e-02
1.087143085896968842e-02
5.417019594460725784e-03
-2.350819110870361328e-02
-6.513061467558145523e-03
2.064090967178344727e-02
2.410929277539253235e-02
3.086873795837163925e-03
-9.649232961237430573e-04
-9.713906329125165939e-04
4.475053399801254272e-03
-7.948954589664936066e-03
-7.316416129469871521e-03
4.396623745560646057e-02
2.346907928586006165e-02
-3.473319113254547119e-02
-2.118277736008167267e-02
-2.866492792963981628e-02
2.962116524577140808e-02
-2.999691478908061981e-02
4.207749292254447937e-02
-1.781485916581004858e-04
4.888740368187427521e-03
-1.345567684620618820e-02
2.452918887138366699e-02
-7.952415384352207184e-03
6.022396311163902283e-02
4.539847373962402344e-03
6.352042779326438904e-03
3.229393810033798218e-02
-3.707496821880340576e-02
8.204200305044651031e-03
-1.448707096278667450e-02
1.676097512245178223e-02
-9.895160049200057983e-02
1.342623680830001831e-02
1.513377670198678970e-02
1.099683926440775394e-03
-2.853434300050139427e-03
2.420765720307826996e-02
9.064478799700737000e-03
2.775535173714160919e-02
-2.754763513803482056e-02
8.454932272434234619e-02
-7.761762943118810654e-03
-1.210077479481697083e-02
-2.804074063897132874e-02
2.521915920078754425e-02
-1.729441061615943909e-02
7.651953957974910736e-03
-4.076278954744338989e-02
9.076531045138835907e-03
-6.681873346678912640e-04
-3.367093205451965332e-02
-2.564830332994461060e-02
-1.228888239711523056e-02
-2.420776709914207458e-02
2.372535131871700287e-02
-1.926156505942344666e-02
-2.015554904937744141e-02
1.977153867483139038e-02
-1.231243647634983063e-02
1.052784547209739685e-01
2.743167057633399963e-02
9.262464009225368500e-03
-1.031178794801235199e-02
-1.930862478911876678e-02
-1.685388758778572083e-02
-1.811476424336433411e-02
-1.812861673533916473e-02
-9.687519632279872894e-03
1.277214735746383667e-01
-5.480978265404701233e-02
-5.127316713333129883e-02
-2.709542214870452881e-02
-2.741419337689876556e-02
1.449885126203298569e-02
-4.929215833544731140e-02
-2.149343723431229591e-03
-5.469529703259468079e-02
2.378500299528241158e-03
3.698556497693061829e-02
9.504118934273719788e-03
-8.272641338407993317e-03
-1.424757484346628189e-02
-1.633486710488796234e-02
2.206581179052591324e-03
-4.817401245236396790e-02
2.598305046558380127e-02
-7.436189800500869751e-03
3.083586692810058594e-02
4.882138688117265701e-03
-1.109165139496326447e-02
-8.873498998582363129e-03
2.020151726901531219e-02
1.063557062298059464e-02
-2.108212746679782867e-02
-1.756448298692703247e-02
-4.451290145516395569e-02
-2.193376235663890839e-02
6.679383572190999985e-03
-1.643100008368492126e-02
-6.994730979204177856e-02
3.352030739188194275e-02
-3.322294726967811584e-02
-2.232369035482406616e-03
2.117467857897281647e-02
-4.873483441770076752e-03
-2.683779969811439514e-02
7.613321766257286072e-03
-5.502345412969589233e-02
-6.737999618053436279e-03
1.105160359293222427e-02
-3.248129412531852722e-02
2.445268444716930389e-02
-1.824101619422435760e-02
-1.642623730003833771e-02
-8.319005370140075684e-03
-1.749680191278457642e-02
-1.631190441548824310e-02
-6.224860250949859619e-02
7.234010379761457443e-03
2.298464067280292511e-03
-2.387041226029396057e-02
-1.474495790898799896e-02
-6.908212602138519287e-02
-1.424804143607616425e-02
-1.449788641184568405e-02
-4.009750671684741974e-03
1.372106093913316727e-02
-3.718932718038558960e-02
1.398058608174324036e-02
-2.149756801372859627e-05
6.355153024196624756e-02
7.234287448227405548e-03
-2.688290737569332123e-02
-5.708131357096135616e-04
-2.253979071974754333e-02
2.349164709448814392e-02
-1.350680179893970490e-02
3.760001808404922485e-02
3.615399822592735291e-02
-2.323445677757263184e-02
6.748414132744073868e-03
-1.075800694525241852e-02
-1.316820457577705383e-02
-4.009371995925903320e-02
8.070838637650012970e-03
1.462191715836524963e-02
-1.455203257501125336e-02
-1.545138540677726269e-03
-1.434139441698789597e-02
-2.911339700222015381e-02
-5.244928970932960510e-02
-5.226473137736320496e-02
-3.599718911573290825e-03
-8.208910934627056122e-03
2.508113719522953033e-02
-1.681429333984851837e-02
-9.284047409892082214e-03
2.748550847172737122e-02
1.706447824835777283e-02
2.547859027981758118e-02
-3.750741109251976013e-02
-1.113530434668064117e-02
8.913197368383407593e-02
-2.527817711234092712e-02
-7.762385066598653793e-03
1.010997872799634933e-02
3.747708350419998169e-02
1.628556102514266968e-02
1.366557274013757706e-02
-2.186573669314384460e-02
-4.700397327542304993e-02
-1.224018516950309277e-03
5.363942589610815048e-03
2.015016414225101471e-02
-3.652739897370338440e-02
-4.161989688873291016e-02
-3.050321340560913086e-02
1.559805404394865036e-02
6.724193692207336426e-02
1.410971116274595261e-02
-3.394501283764839172e-03
1.368782977806404233e-04
-3.661842644214630127e-02
-3.213236853480339050e-02
-1.414062804542481899e-03
2.787810191512107849e-02
-6.215088069438934326e-03
-1.130491029471158981e-03
2.249519713222980499e-02
6.322811357676982880e-03
-4.693889059126377106e-03
5.599978612735867500e-04
4.467806592583656311e-02
-1.575702428817749023e-02
-2.300229622051119804e-03
-2.587423287332057953e-02
-1.290126587264239788e-03
-2.692571096122264862e-02
-2.115877158939838409e-02
2.885759249329566956e-02
5.096560926176607609e-04
1.603540219366550446e-02
2.774326130747795105e-04
-2.077744714915752411e-02
-3.663172945380210876e-02
-1.406514737755060196e-02
-3.726943954825401306e-02
2.062463201582431793e-02
8.704795502126216888e-03
-1.590985991060733795e-02
3.452243655920028687e-02
2.482333919033408165e-03
1.219025871250778437e-04
2.167750522494316101e-02
8.503393270075321198e-03
-2.266918309032917023e-02
1.110800728201866150e-02
-1.467337948270142078e-03
-3.300736472010612488e-02
3.238897398114204407e-02
5.550192203372716904e-03
-5.399987846612930298e-02
2.212780714035034180e-02
7.346733938902616501e-03
-1.238008681684732437e-02
-1.143187098205089569e-02
-1.083299517631530762e-02
7.457290776073932648e-03
5.774570629000663757e-02
-1.043596770614385605e-02
-6.905458401888608932e-03
2.076215669512748718e-02
-2.382747083902359009e-02
1.569349202327430248e-03
1.274172123521566391e-02
-3.237491007894277573e-03
2.168677933514118195e-02
-3.794405981898307800e-02
3.167380020022392273e-02
-1.860274560749530792e-02
4.736084374599158764e-04
-9.167606942355632782e-03
-2.831197576597332954e-03
3.592819347977638245e-02
-5.248420313000679016e-02
3.140172734856605530e-02
2.924603968858718872e-02
1.858532428741455078e-03
-8.361011714441701770e-05
-4.415024816989898682e-02
1.800604350864887238e-02
-4.606535658240318298e-03
1.206562109291553497e-02
-2.137178927659988403e-02
-1.320351194590330124e-02
-2.352990396320819855e-02
3.585388138890266418e-02
-2.392140158917754889e-04
4.350302740931510925e-03
-6.021680776029825211e-03
-1.475172117352485657e-02
-4.940234124660491943e-03
-6.182252895087003708e-03
-6.713590770959854126e-02
-5.919130891561508179e-02
-4.848366603255271912e-03
-7.523516193032264709e-03
-4.536513239145278931e-02
-6.287270691245794296e-03
2.256391197443008423e-02
-2.720312681049108505e-03
5.459915474057197571e-02
1.224594842642545700e-02
-7.960240356624126434e-03
-2.046822942793369293e-02
-3.380259731784462929e-03
-1.871031709015369415e-02
-2.236024662852287292e-02
5.841066595166921616e-03
6.521994248032569885e-03
2.397088147699832916e-02
2.405179850757122040e-02
-1.056528240442276001e-01
-1.926356460899114609e-03
-6.740437448024749756e-02
-3.670258074998855591e-02
-2.273538522422313690e-02
1.287336833775043488e-02
-1.870408095419406891e-02
-1.307261176407337189e-02
3.651133738458156586e-04
2.398449182510375977e-02
-2.177588455379009247e-02
4.105743486434221268e-03
-9.780907072126865387e-03
6.066032219678163528e-03
5.315325688570737839e-03
2.867085300385951996e-02
4.268647730350494385e-02
1.054304838180541992e-02
-5.930186249315738678e-03
-6.807562708854675293e-02
-4.704039078205823898e-03
1.094381368602626026e-04
-6.651035696268081665e-02
3.993379324674606323e-02
8.929652161896228790e-03
-4.109225422143936157e-02
7.060540467500686646e-02
-4.306206852197647095e-02
-1.304592471569776535e-02
-1.143305189907550812e-02
9.338351897895336151e-03
3.774546086788177490e-02
6.229312717914581299e-02
2.017176896333694458e-02
-2.178254537284374237e-02
-3.710169112309813499e-03
-1.549818180501461029e-02
-5.297831073403358459e-02
-7.619009120389819145e-04
-2.099594287574291229e-02
8.160465210676193237e-02
-8.729925379157066345e-03
-5.312638822942972183e-03
-2.024208940565586090e-02
-9.346534498035907745e-03
9.281453676521778107e-03
-4.519368335604667664e-02
-1.675456948578357697e-02
-2.680730074644088745e-02
2.627923339605331421e-02
1.387251541018486023e-02
-1.306907087564468384e-02
3.152928873896598816e-02
6.305858958512544632e-03
-9.149237722158432007e-02
-2.718780748546123505e-02
2.084747515618801117e-02
9.612682624720036983e-04
3.398042917251586914e-02
1.795965991914272308e-02
1.465423405170440674e-02
-5.081046372652053833e-03
-6.287498865276575089e-03
-6.179979443550109863e-02
-5.470228643389418721e-05
1.427867263555526733e-02
-1.390423066914081573e-02
4.492025449872016907e-02
4.956534504890441895e-02
4.687545006163418293e-04
-2.075286023318767548e-02
5.126411095261573792e-02
-1.618639938533306122e-02
-7.573859300464391708e-03
9.681334719061851501e-03
4.689889773726463318e-02
2.219207398593425751e-02
1.751672290265560150e-02
1.125420536845922470e-02
-7.309754937887191772e-02
5.653577297925949097e-02
-1.331744156777858734e-02
-1.778484880924224854e-02
2.561974711716175079e-02
-1.399341672658920288e-01
4.934783093631267548e-03
-7.896373979747295380e-03
5.387227050960063934e-03
1.226143445819616318e-02
1.248590089380741119e-02
2.295593876624479890e-04
8.293969184160232544e-02
5.046577006578445435e-02
3.212761506438255310e-02
8.277191664092242718e-04
6.090854480862617493e-02
2.743400447070598602e-02
1.251271087676286697e-02
1.498096063733100891e-02
-1.336693018674850464e-02
-2.355860918760299683e-02
-1.071592047810554504e-02
-7.751081138849258423e-03
-1.347147859632968903e-02
8.765766397118568420e-03
1.043743826448917389e-02
-2.927143214037641883e-05
-9.169168770313262939e-03
3.288025036454200745e-03
-3.215127624571323395e-03
1.960294786840677261e-03
2.980645932257175446e-02
-2.229334786534309387e-02
-4.603052511811256409e-03
-9.062349796295166016e-03
1.285092905163764954e-02
3.353825537487864494e-03
-9.303609840571880341e-03
-8.733512833714485168e-03
-3.480222448706626892e-02
-1.748760789632797241e-02
2.068088948726654053e-02
-2.933999523520469666e-03
-9.817332960665225983e-03
-3.866798244416713715e-03
-8.877841755747795105e-03
4.993854556232690811e-03
-1.376744359731674194e-02
-2.168527245521545410e-02
1.614450104534626007e-02
2.194777317345142365e-02
8.642555214464664459e-03
-2.582789771258831024e-02
-1.039457879960536957e-02
1.638170890510082245e-02
-1.053461246192455292e-02
2.476960234344005585e-02
-4.154847469180822372e-03
-1.645261421799659729e-02
3.180397301912307739e-02
-9.069104999070987105e-05
-7.088387850672006607e-03
6.097672507166862488e-03
-2.752093039453029633e-02
4.726029001176357269e-03
-4.627828020602464676e-03
-1.826571533456444740e-03
9.073710069060325623e-03
1.195666193962097168e-02
9.776712395250797272e-03
4.492664244025945663e-03
5.316894501447677612e-03
-4.350265371613204479e-04
2.521821670234203339e-02
-3.836842952296137810e-03
1.860357820987701416e-02
-1.998375868424773216e-03
-1.341929100453853607e-02
-2.593939658254384995e-03
-7.396528031677007675e-03
-3.195603191852569580e-02
-2.824597060680389404e-03
-4.416730720549821854e-03
-9.883773513138294220e-03
-7.249611080624163151e-04
-1.540978159755468369e-02
-1.514299307018518448e-03
-5.475755780935287476e-03
-5.179267376661300659e-03
9.219170548021793365e-03
-1.144885458052158356e-02
-1.759034208953380585e-02
6.882056593894958496e-03
-1.019724993966519833e-03
-1.878956332802772522e-03
-8.183056706911884248e-06
1.180236320942640305e-02
6.160509656183421612e-04
7.309302687644958496e-03
1.073107938282191753e-03
-3.155797952786087990e-03
-2.143633784726262093e-03
7.599819917231798172e-03
-5.103974137455224991e-03
-1.020948868244886398e-02
-1.202748157083988190e-02
1.842366880737245083e-03
6.158873438835144043e-04
-4.631145857274532318e-03
-2.479396527633070946e-03
3.837331663817167282e-03
6.025942508131265640e-03
-1.794838160276412964e-02
-1.176415570080280304e-02
1.202144753187894821e-02
-9.167751297354698181e-03
-3.589671105146408081e-03
1.876686140894889832e-02
-1.091974670998752117e-03
1.454891753382980824e-03
-9.270712733268737793e-03
5.181219312362372875e-04
9.087582118809223175e-03
1.838125102221965790e-02
1.499249786138534546e-02
1.537656225264072418e-02
2.082224236801266670e-03
-4.574387799948453903e-03
8.513686247169971466e-03
1.810829713940620422e-02
3.620389383286237717e-03
8.052775636315345764e-03
2.629078179597854614e-02
-2.314070239663124084e-03
-1.998440176248550415e-02
-1.142743229866027832e-02
1.647862233221530914e-02
1.060251798480749130e-02
-2.351426705718040466e-02
-8.448489941656589508e-03
-9.842092171311378479e-03
6.521699950098991394e-03
-1.892019063234329224e-02
3.741165623068809509e-03
5.493872985243797302e-02
1.700827665627002716e-02
-9.793841280043125153e-03
1.998215913772583008e-03
1.424434885848313570e-04
2.256682142615318298e-02
1.913146488368511200e-02
1.537778507918119431e-02
4.881768301129341125e-02
-2.555101178586483002e-03
-1.146464329212903976e-02
-2.258449420332908630e-02
2.644002623856067657e-02
-1.033338345587253571e-02
-6.612846162170171738e-03
1.932829245924949646e-02
2.151712030172348022e-02
1.523503335192799568e-03
4.543082322925329208e-03
-2.081101015210151672e-02
-4.949145484715700150e-03
-1.606567017734050751e-02
1.138286758214235306e-02
-1.303718145936727524e-02
1.192127168178558350e-02
-2.226865035481750965e-04
1.358689833432435989e-02
2.102112397551536560e-02
2.257295325398445129e-02
4.185148514807224274e-03
-4.664374049752950668e-03
-4.108322784304618835e-03
4.004070535302162170e-03
2.290350385010242462e-02
9.943902492523193359e-03
-1.172317750751972198e-02
-1.364606665447354317e-03
2.115229889750480652e-02
1.092512998729944229e-02
2.904447726905345917e-03
3.497187048196792603e-02
1.119113992899656296e-02
-5.370835773646831512e-03
2.895731106400489807e-02
-2.348375692963600159e-02
4.661884158849716187e-03
-3.498218953609466553e-02
-1.338293962180614471e-02
-1.003138627856969833e-02
2.492622286081314087e-02
-3.202961385250091553e-02
9.795386344194412231e-03
-4.326908290386199951e-02
-3.305546194314956665e-02
-2.487482316792011261e-02
1.114512700587511063e-02
7.961695082485675812e-03
3.697889670729637146e-02
2.497827261686325073e-02
-1.679529319517314434e-03
-1.323544140905141830e-02
2.917735464870929718e-02
4.075584933161735535e-02
8.632825687527656555e-03
-3.866458544507622719e-03
-4.269947856664657593e-02
-1.872868463397026062e-02
1.020593009889125824e-02
2.252881042659282684e-02
1.560489460825920105e-02
4.406606033444404602e-02
-3.643733635544776917e-02
5.160872358828783035e-03
-5.108461715281009674e-03
-4.642857238650321960e-02
4.784614066011272371e-05
2.885368838906288147e-02
2.113826014101505280e-02
-1.452085841447114944e-02
3.268980607390403748e-02
-5.538981873542070389e-03
1.858865655958652496e-02
-3.454799950122833252e-02
1.483146846294403076e-02
-1.409331988543272018e-02
-5.169127252884209156e-04
1.912934146821498871e-02
1.981986453756690025e-03
4.927453584969043732e-03
-1.927124569192528725e-03
2.027724683284759521e-02
3.133583441376686096e-02
9.815840050578117371e-03
-6.234399974346160889e-03
-1.570504344999790192e-02
9.841087274253368378e-03
-1.781912706792354584e-02
-3.912850283086299896e-03
3.263255953788757324e-02
-2.822700701653957367e-02
1.184689532965421677e-02
3.559029195457696915e-03
4.689880087971687317e-02
-6.706386338919401169e-03
2.957258932292461395e-02
4.551396891474723816e-02
7.150874473154544830e-03
3.281196206808090210e-02
1.057161856442689896e-02
-3.017992712557315826e-03
-1.368450745940208435e-02
1.893030479550361633e-02
-2.213130332529544830e-02
2.133653871715068817e-02
-2.302831038832664490e-03
-2.481450513005256653e-02
-1.913728937506675720e-02
-1.079376321285963058e-02
1.392120402306318283e-02
-5.381429102271795273e-03
-4.996463656425476074e-02
3.921011090278625488e-02
1.158956903964281082e-02
-8.847923949360847473e-03
-1.663912832736968994e-02
6.128261797130107880e-03
-2.762357145547866821e-02
-7.483441848307847977e-03
2.422103099524974823e-02
-1.533355098217725754e-02
-5.785756278783082962e-03
-3.793499246239662170e-02
-2.178998664021492004e-02
5.674796178936958313e-03
1.090416032820940018e-02
-9.702586568892002106e-03
2.883776649832725525e-02
-5.237258505076169968e-03
1.378355454653501511e-02
-6.710107438266277313e-03
5.319122225046157837e-03
2.714353147894144058e-03
7.928100414574146271e-03
1.908347941935062408e-02
-2.277529612183570862e-02
-3.388183563947677612e-02
2.952726930379867554e-02
8.467143401503562927e-03
-3.957901895046234131e-02
1.743331924080848694e-02
5.611169151961803436e-03
-3.353010164573788643e-03
-2.897798782214522362e-03
9.228113107383251190e-03
1.846526516601443291e-03
9.545665234327316284e-03
1.623587496578693390e-02
1.330543961375951767e-02
-9.398476220667362213e-03
-1.329891663044691086e-02
6.771036423742771149e-03
2.901904983446002007e-03
1.614878303371369839e-03
7.929940707981586456e-03
-7.779396139085292816e-03
-2.995472587645053864e-02
5.275391042232513428e-03
-2.184938453137874603e-02
2.561339735984802246e-02
2.276264503598213196e-02
-2.985524572432041168e-02
1.440775208175182343e-02
4.214992746710777283e-03
-5.353422835469245911e-03
2.004818618297576904e-02
2.776879444718360901e-02
4.684113431721925735e-03
-2.394666336476802826e-02
-1.744948327541351318e-02
1.696546562016010284e-02
-6.872373633086681366e-03
-7.836261764168739319e-03
1.152814738452434540e-02
3.587171435356140137e-03
-2.418006537482142448e-03
1.584244309924542904e-03
5.977868102490901947e-03
-1.227721106261014938e-03
9.350440464913845062e-03
5.971923004835844040e-03
1.332910382188856602e-03
2.467062696814537048e-02
1.572960242629051208e-02
2.227902412414550781e-03
4.724747850559651852e-04
3.863662015646696091e-03
-2.927152207121253014e-03
-6.224347744137048721e-03
1.708445325493812561e-02
-2.244885079562664032e-03
-5.543421139009296894e-04
2.569450624287128448e-02
1.353126857429742813e-02
-2.283700741827487946e-02
1.101942826062440872e-02
-7.240459090098738670e-04
-1.121011376380920410e-02
1.262151915580034256e-02
-1.452272851020097733e-02
-4.370254828245379031e-05
-5.161527544260025024e-02
-1.073707919567823410e-02
1.731907948851585388e-02
2.594925463199615479e-02
5.872471258044242859e-03
-5.194521509110927582e-03
-1.071679405868053436e-02
1.447885390371084213e-02
-1.328665204346179962e-02
-2.567758411169052124e-02
6.827021017670631409e-03
1.266610808670520782e-02
9.132090024650096893e-03
5.216001067310571671e-03
-2.349326387047767639e-02
-1.407803618349134922e-03
-3.173795342445373535e-02
-1.008155848830938339e-02
-1.922535710036754608e-02
1.468440610915422440e-02
6.924369372427463531e-03
4.158354713581502438e-04
1.002615597099065781e-02
3.513479139655828476e-03
-2.190644852817058563e-02
3.366762399673461914e-02
-2.008247748017311096e-02
2.409801445901393890e-02
-6.664635147899389267e-03
6.189249455928802490e-03
-5.045451223850250244e-03
1.837932271882891655e-03
-4.199599847197532654e-03
3.040950186550617218e-02
2.631332725286483765e-03
-9.720238856971263885e-03
-8.226484060287475586e-03
-2.020212449133396149e-02
7.127762306481599808e-03
7.968741469085216522e-03
-9.757734835147857666e-03
1.364542730152606964e-02
-1.713848859071731567e-02
-8.693247102200984955e-03
-1.907088793814182281e-02
2.183215320110321045e-02
3.097498044371604919e-02
5.804216954857110977e-03
-1.573774218559265137e-02
2.071041800081729889e-02
4.255082749295979738e-04
-1.037624105811119080e-02
3.125552833080291748e-02
1.710683293640613556e-02
2.840120717883110046e-02
-8.986623957753181458e-03
-2.194322459399700165e-02
3.612324222922325134e-02
-5.475531518459320068e-02
7.659329567104578018e-04
-1.389197632670402527e-02
1.891054026782512665e-02
-1.043962663970887661e-03
3.376789763569831848e-02
-5.679470952600240707e-03
-1.251268852502107620e-02
2.118190936744213104e-02
-2.023026347160339355e-02
-5.227665882557630539e-03
-7.320588082075119019e-02
-2.868417464196681976e-02
1.862102537415921688e-03
8.496296592056751251e-03
6.287029385566711426e-02
8.147179149091243744e-03
-3.210341325029730797e-03
-6.927307229489088058e-03
-5.210189148783683777e-02
5.401260778307914734e-02
1.453526690602302551e-02
-1.560859940946102142e-02
-9.317351132631301880e-02
-1.349263917654752731e-02
-1.292577385902404785e-02
-4.159000143408775330e-02
-4.551964625716209412e-02
2.097588218748569489e-02
-3.604358807206153870e-02
-6.087780743837356567e-02
5.619169399142265320e-02
-5.644647404551506042e-02
1.366422604769468307e-02
-3.346087038516998291e-02
3.111159615218639374e-02
-6.760186981409788132e-03
1.001939997076988220e-01
2.308817580342292786e-02
-1.201913598924875259e-02
-1.361434347927570343e-02
-3.572839871048927307e-02
-7.974563166499137878e-03
-1.486267242580652237e-02
-3.481171652674674988e-02
4.732547700405120850e-02
1.874254643917083740e-02
-4.520841874182224274e-03
-3.303394466638565063e-02
1.653919927775859833e-02
-2.449888736009597778e-02
-1.813298836350440979e-02
-1.274050492793321609e-02
2.111320756375789642e-02
3.951175510883331299e-02
4.912547394633293152e-02
7.804346829652786255e-02
-4.600090440362691879e-03
6.511914078146219254e-03
-9.615197777748107910e-03
-2.197797223925590515e-02
-9.244406595826148987e-03
1.466805953532457352e-02
-1.502915099263191223e-02
-7.886420935392379761e-03
2.266524173319339752e-02
-9.363362565636634827e-03
7.701275171712040901e-04
-2.301556803286075592e-02
4.658632725477218628e-02
3.199993632733821869e-03
-5.271608009934425354e-02
-3.352051600813865662e-02
7.612682878971099854e-02
9.528068825602531433e-03
2.289788797497749329e-03
-1.815598644316196442e-02
2.989399991929531097e-02
-2.161769010126590729e-02
-1.920844241976737976e-02
-2.389886043965816498e-02
-2.294615097343921661e-02
1.150009338743984699e-03
-2.300521126016974449e-03
2.076095528900623322e-02
6.612643599510192871e-03
1.017586886882781982e-02
5.267650634050369263e-02
-5.270041152834892273e-02
1.275561843067407608e-02
9.784542769193649292e-02
7.262327708303928375e-03
8.951854892075061798e-03
-3.055245056748390198e-02
-1.968059130012989044e-02
7.705218158662319183e-03
2.507242839783430099e-03
-2.976034767925739288e-02
1.339207775890827179e-02
-1.555791590362787247e-02
-1.021741610020399094e-02
4.360875114798545837e-02
6.028980482369661331e-03
-9.396005421876907349e-03
-4.847358167171478271e-02
1.886725798249244690e-02
2.996884519234299660e-03
-3.164876718074083328e-03
-5.064659751951694489e-03
-2.530822716653347015e-02
1.640938967466354370e-02
6.582013517618179321e-02
8.226197212934494019e-03
3.148207813501358032e-02
4.397329688072204590e-02
1.479784585535526276e-02
1.767513155937194824e-02
-2.208516560494899750e-02
7.445550523698329926e-03
1.904552988708019257e-02
-1.126573071815073490e-03
7.085217162966728210e-03
-4.178957641124725342e-02
1.075604651123285294e-02
-1.692752540111541748e-02
2.256371779367327690e-03
-7.935003377497196198e-03
-1.659222133457660675e-02
-8.299221284687519073e-03
-3.690353035926818848e-02
-1.704749651253223419e-02
1.294713094830513000e-02
-3.673109412193298340e-02
1.668732054531574249e-02
4.600808396935462952e-02
2.744644880294799805e-02
-6.382295489311218262e-02
2.835702523589134216e-02
-1.594067551195621490e-02
-3.388904966413974762e-03
-1.137701235711574554e-02
3.506235405802726746e-02
-1.032258570194244385e-02
1.828899607062339783e-02
7.366533391177654266e-03
6.934981793165206909e-03
-1.990285143256187439e-02
-1.305107492953538895e-02
-1.780627854168415070e-02
-5.606706440448760986e-02
-1.056470628827810287e-02
-1.108427159488201141e-02
8.871102705597877502e-03
2.151439338922500610e-02
2.587815187871456146e-02
-2.020341530442237854e-02
-2.299497835338115692e-02
1.464228704571723938e-02
5.913019180297851562e-03
-1.599383540451526642e-02
8.527101017534732819e-03
5.186128895729780197e-03
2.364872489124536514e-03
1.028832746669650078e-03
-3.035024926066398621e-02
-2.496108599007129669e-02
-2.001412445679306984e-03
1.852667145431041718e-02
-1.829895377159118652e-02
1.779062673449516296e-02
2.764645963907241821e-03
-3.181768953800201416e-02
-2.635751664638519287e-02
7.521887309849262238e-03
7.359893992543220520e-03
-2.265961468219757080e-02
1.695329509675502777e-02
3.336817026138305664e-03
2.014444023370742798e-02
3.767545334994792938e-03
-1.017927471548318863e-02
6.778068374842405319e-03
-1.893985643982887268e-02
-7.063635159283876419e-03
-1.742749591358006001e-03
1.391083747148513794e-02
2.487126737833023071e-02
-1.739496551454067230e-02
-2.253917418420314789e-02
-3.594684228301048279e-02
1.707878336310386658e-02
-6.415677815675735474e-02
-9.083891287446022034e-03
2.425522729754447937e-02
-2.103512734174728394e-02
-6.864941678941249847e-03
-3.030784614384174347e-02
6.717289332300424576e-03
-9.268807619810104370e-02
4.966281121596693993e-04
1.260627247393131256e-02
-3.152325283735990524e-03
6.951436400413513184e-02
2.219692687503993511e-04
1.191663276404142380e-02
4.348346963524818420e-02
-4.368962254375219345e-03
-5.421746522188186646e-03
4.908710718154907227e-03
-2.052989974617958069e-02
1.695677265524864197e-02
-4.735453054308891296e-02
-1.432895474135875702e-02
8.866454474627971649e-03
-6.425613071769475937e-03
-6.325889378786087036e-03
-4.729440808296203613e-02
6.131402403116226196e-02
2.349984273314476013e-02
-6.404077168554067612e-03
-2.965321764349937439e-02
4.030627012252807617e-02
2.485654130578041077e-02
-2.713390439748764038e-02
-2.098140679299831390e-02
-1.654290407896041870e-02
1.492376788519322872e-03
2.710735797882080078e-02
-1.568812504410743713e-02
-4.998780414462089539e-02
-3.457260131835937500e-02
4.052069038152694702e-02
-7.310433778911828995e-03
-3.531243652105331421e-03
1.606039144098758698e-02
2.013654215261340141e-03
1.216802652925252914e-02
-3.594031091779470444e-03
4.408092703670263290e-03
1.093316264450550079e-02
-2.375542558729648590e-02
6.167853251099586487e-03
-2.011259086430072784e-02
2.593326009809970856e-02
3.586398065090179443e-02
1.183970714919269085e-03
-2.363537624478340149e-02
2.246421761810779572e-02
-3.996114060282707214e-02
-2.818501554429531097e-03
1.387355849146842957e-02
-2.050815708935260773e-02
6.062230677343904972e-04
8.939940482378005981e-03
-2.763564139604568481e-02
-2.690980955958366394e-02
-6.734520196914672852e-02
-9.480208158493041992e-03
-6.983621977269649506e-03
1.658764109015464783e-02
-6.706669926643371582e-02
-6.569214910268783569e-02
8.449996821582317352e-03
2.397408708930015564e-03
2.089800499379634857e-02
-3.938571363687515259e-02
-4.732672590762376785e-03
1.732879877090454102e-02
6.898110150359570980e-04
4.912766814231872559e-02
-1.391425076872110367e-02
-3.028998617082834244e-03
5.963651463389396667e-03
-4.609299451112747192e-02
-2.154134586453437805e-02
-1.164888404309749603e-02
8.413743227720260620e-02
4.524339362978935242e-02
-1.999481208622455597e-02
3.323251148685812950e-03
3.121656773146241903e-04
2.184137515723705292e-02
-3.714839741587638855e-02
1.359404297545552254e-03
-5.772327072918415070e-03
4.543328285217285156e-02
-8.714480325579643250e-03
5.993021186441183090e-03
-3.413033206015825272e-03
2.344408072531223297e-02
-1.398239005357027054e-02
3.375822305679321289e-02
-5.641703493893146515e-03
-8.938884362578392029e-03
-1.869766600430011749e-02
1.931642740964889526e-02
1.222645584493875504e-02
2.451253868639469147e-02
-1.210162695497274399e-02
8.385198190808296204e-03
1.103693898767232895e-02
-1.415008213371038437e-02
1.749495603144168854e-02
-1.641211658716201782e-02
8.104935288429260254e-03
7.508370094001293182e-03
-6.789450533688068390e-03
1.602513343095779419e-02
3.296785801649093628e-02
3.322295472025871277e-02
9.742136299610137939e-02
-1.759600080549716949e-02
-1.672830805182456970e-02
1.742815598845481873e-02
3.252417547628283501e-03
3.238016366958618164e-02
3.454907983541488647e-02
-9.139406029134988785e-04
3.666068613529205322e-02
-4.307597503066062927e-02
-7.174424361437559128e-03
-5.988016724586486816e-03
-1.798239164054393768e-02
3.575006127357482910e-02
2.687781525310128927e-04
1.555085647851228714e-02
1.654667779803276062e-02
-1.948427222669124603e-02
-8.761965483427047729e-02
-2.883809059858322144e-02
-6.558807939291000366e-02
-4.243115708231925964e-02
-2.626492176204919815e-03
-1.619759760797023773e-02
-9.746000170707702637e-03
7.147721946239471436e-03
-2.477639541029930115e-02
2.771543338894844055e-02
-4.776351619511842728e-03
3.079595416784286499e-02
3.972618654370307922e-02
-1.360324304550886154e-02
-1.502054277807474136e-03
-7.069717347621917725e-02
-1.009372025728225708e-01
-4.449785873293876648e-02
3.841321915388107300e-02
-1.553991809487342834e-02
-3.001634730026125908e-03
-2.629796601831912994e-02
-1.534605398774147034e-02
-3.388331830501556396e-02
1.710358308628201485e-03
1.836984418332576752e-02
4.810625687241554260e-03
-9.255670942366123199e-03
-9.461814537644386292e-03
4.993235692381858826e-02
-1.430702768266201019e-02
8.833622187376022339e-02
2.297346107661724091e-02
1.554097887128591537e-02
-7.762173656374216080e-03
-5.944365169852972031e-03
1.749720307998359203e-03
4.776705056428909302e-03
1.428959704935550690e-02
-3.497895598411560059e-02
1.916210167109966278e-02
1.905921963043510914e-03
4.177761147730052471e-04
-7.632596045732498169e-02
1.170275285840034485e-01
-1.468337420374155045e-02
-2.749040722846984863e-02
-1.418840605765581131e-02
2.024488896131515503e-02
-4.297288134694099426e-02
5.461143329739570618e-02
2.750711888074874878e-02
-7.938385009765625000e-03
7.544351276010274887e-03
2.352938614785671234e-02
2.189362421631813049e-02
-7.726740441285073757e-04
7.588593754917383194e-03
2.974420227110385895e-02
2.859037555754184723e-02
-1.167518179863691330e-02
-3.120835311710834503e-02
-3.830604627728462219e-02
4.803014453500509262e-03
1.781618595123291016e-02
6.191056221723556519e-02
1.590759307146072388e-02
-1.129359006881713867e-02
2.293097600340843201e-02
2.052003704011440277e-02
1.466255728155374527e-02
-2.400963008403778076e-02
2.741617150604724884e-02
6.997290998697280884e-02
5.739676207304000854e-02
2.909408695995807648e-02
6.411197781562805176e-02
3.365065902471542358e-02
-2.482847124338150024e-02
-1.799275726079940796e-02
3.484121710062026978e-02
-3.250938281416893005e-02
3.615920245647430420e-02
1.699014380574226379e-02
1.866527833044528961e-02
-1.138791348785161972e-02
2.131735533475875854e-02
-8.640455082058906555e-03
-1.076577603816986084e-02
-2.307874150574207306e-02
8.671059273183345795e-03
1.314985938370227814e-02
-3.097291290760040283e-02
-2.487707883119583130e-02
-1.273151487112045288e-02
9.187956154346466064e-02
-1.878979057073593140e-02
-2.151739411056041718e-02
6.287074834108352661e-02
-1.101354230195283890e-02
-8.097115904092788696e-03
-2.195813879370689392e-02
1.886988244950771332e-02
5.329652503132820129e-02
2.005088515579700470e-02
2.102365344762802124e-02
-2.492426149547100067e-02
2.826765179634094238e-02
6.952647864818572998e-02
-5.196661502122879028e-02
8.996240794658660889e-02
2.555317990481853485e-02
4.308709129691123962e-02
5.469167977571487427e-02
-3.464495018124580383e-02
-1.993557997047901154e-02
3.529357537627220154e-02
-6.560990586876869202e-03
-5.216098576784133911e-02
1.290658139623701572e-03
7.152043981477618217e-04
-2.839235961437225342e-02
3.601555153727531433e-02
1.926409546285867691e-03
-3.473865985870361328e-02
1.409999653697013855e-02
-4.152460768818855286e-02
3.826706483960151672e-02
6.841640919446945190e-02
-3.125861287117004395e-02
1.566318329423666000e-03
1.289513707160949707e-02
-8.118703030049800873e-03
7.748916000127792358e-02
-1.062239240854978561e-02
-1.950115337967872620e-02
3.671628655865788460e-03
-1.984647475183010101e-02
3.955888003110885620e-02
2.207942679524421692e-02
4.965241253376007080e-02
1.937844231724739075e-02
-1.760672777891159058e-02
-2.294318377971649170e-02
4.015385359525680542e-02
4.842508584260940552e-03
-1.197642739862203598e-02
3.465510904788970947e-02
2.283784002065658569e-02
-3.791463747620582581e-02
-2.550361678004264832e-02
2.528936602175235748e-02
1.025903970003128052e-02
1.170912943780422211e-02
-1.656415127217769623e-02
3.521192818880081177e-02
-2.261882834136486053e-02
-9.359822422266006470e-02
-4.079377651214599609e-02
-1.145434682257473469e-03
6.497171521186828613e-02
2.151525765657424927e-02
-1.758528687059879303e-02
2.183812670409679413e-03
2.815038664266467094e-03
-1.352229248732328415e-02
-1.369990175589919090e-03
5.754394084215164185e-02
9.827548637986183167e-03
7.019317895174026489e-02
-1.578474976122379303e-02
3.776967525482177734e-02
3.593367990106344223e-03
1.726991124451160431e-02
-3.394030500203371048e-03
6.312888115644454956e-02
1.607538573443889618e-02
8.125605061650276184e-03
-6.636757403612136841e-02
-1.596388965845108032e-02
1.747846044600009918e-02
-1.507075875997543335e-02
-2.359413914382457733e-02
1.356041152030229568e-02
-1.104340609163045883e-02
-3.055564314126968384e-02
-1.354256179183721542e-02
3.057609684765338898e-02
3.523916471749544144e-03
-5.851770751178264618e-03
-1.054411754012107849e-02
-1.505405269563198090e-02
-6.022039428353309631e-02
9.873405098915100098e-03
1.226335670799016953e-02
-1.942875608801841736e-02
-4.479542747139930725e-02
1.449980307370424271e-02
-3.328759595751762390e-02
1.147568598389625549e-02
1.937747187912464142e-02
1.826657913625240326e-02
2.056387066841125488e-02
-6.087299436330795288e-03
-3.013380803167819977e-02
9.401278197765350342e-02
-6.653738766908645630e-02
3.608719212934374809e-03
-2.446422725915908813e-02
2.133506350219249725e-02
2.628584392368793488e-02
3.620322677306830883e-04
-6.768181920051574707e-03
-1.496698893606662750e-02
1.192187797278165817e-02
7.141974568367004395e-02
-7.847096771001815796e-03
-2.237327024340629578e-02
4.834385588765144348e-03
5.846274644136428833e-02
1.400539651513099670e-02
-2.308591082692146301e-02
1.134259626269340515e-02
1.399759110063314438e-02
1.269659679383039474e-02
1.757032237946987152e-02
-6.289346516132354736e-02
-4.950011149048805237e-02
-3.179335594177246094e-02
-2.304943837225437164e-02
-8.767174556851387024e-03
-2.048048675060272217e-01
4.633255302906036377e-03
-2.228889986872673035e-02
-1.068559288978576660e-02
4.435666278004646301e-02
1.654140464961528778e-02
-8.724363520741462708e-03
5.235767737030982971e-02
-4.624801687896251678e-03
-1.493977289646863937e-02
-5.597605556249618530e-02
-2.447949373163282871e-04
-1.111585460603237152e-02
-3.921053931117057800e-02
5.549064278602600098e-02
-5.461247172206640244e-03
-3.849701210856437683e-02
-2.292661927640438080e-02
2.880752831697463989e-02
-4.849402175750583410e-04
-9.355945512652397156e-03
-1.418157666921615601e-02
6.960289552807807922e-03
2.833195030689239502e-02
1.943491515703499317e-03
2.376202307641506195e-02
1.590210013091564178e-02
-8.477988652884960175e-03
-7.091015577316284180e-02
4.477344453334808350e-02
3.723925212398171425e-03
2.649362571537494659e-02
-2.098570577800273895e-02
-3.700354322791099548e-02
6.439855694770812988e-02
-1.520149689167737961e-02
6.455477327108383179e-02
-1.379875838756561279e-02
2.798645198345184326e-02
-1.498151198029518127e-02
1.056605856865644455e-02
9.853516705334186554e-03
1.314938534051179886e-02
9.923288598656654358e-04
-5.004327744245529175e-03
-6.400779634714126587e-02
-1.635167747735977173e-02
1.771038956940174103e-02
-4.658491816371679306e-03
1.583568751811981201e-01
2.975938096642494202e-02
3.706897376105189323e-03
-5.311403423547744751e-02
4.970891401171684265e-02
4.171518236398696899e-02
8.619765937328338623e-02
-2.175825834274291992e-02
1.769091933965682983e-02
-1.784392632544040680e-02
-4.634641576558351517e-03
-2.095044590532779694e-03
1.082782354205846786e-02
-8.296766318380832672e-03
-1.578960195183753967e-02
-1.031712815165519714e-02
4.942108318209648132e-02
5.215009674429893494e-02
-1.992770843207836151e-02
1.209144759923219681e-02
-3.520540893077850342e-02
8.240807801485061646e-03
6.577493622899055481e-04
5.444633774459362030e-03
2.645515277981758118e-02
-1.220910176634788513e-01
-2.786074765026569366e-02
-4.845685511827468872e-02
4.557509673759341240e-04
-3.746528178453445435e-02
1.448621973395347595e-02
-1.130993571132421494e-02
-6.186596676707267761e-02
2.192285098135471344e-02
6.509520113468170166e-02
-1.246041245758533478e-02
-1.821357198059558868e-02
5.029832944273948669e-02
1.113879401236772537e-02
-1.599537767469882965e-02
-3.272831439971923828e-02
-4.045695438981056213e-02
-1.069777645170688629e-02
-6.403819192200899124e-03
-1.595041528344154358e-02
-1.456486899405717850e-02
-1.474407035857439041e-02
-1.289108395576477051e-02
1.542843785136938095e-02
1.663092843955382705e-04
-1.897134631872177124e-02
8.095397800207138062e-02
4.527463763952255249e-02
1.902044564485549927e-02
3.480879962444305420e-02
-7.339067012071609497e-02
6.071520037949085236e-04
-1.804770715534687042e-02
-1.819274574518203735e-02
-4.062815755605697632e-02
2.833030559122562408e-02
-1.951044611632823944e-02
-4.244841262698173523e-02
-3.334245830774307251e-02
4.898028448224067688e-02
-1.843488076701760292e-03
1.576372236013412476e-02
-1.854497939348220825e-02
4.596707224845886230e-02
8.671654760837554932e-02
3.540476039052009583e-02
4.825127124786376953e-02
-2.319919294677674770e-04
4.349602386355400085e-03
2.742596901953220367e-02
1.089137978851795197e-03
-1.719753816723823547e-02
-3.143841028213500977e-02
-3.485242277383804321e-02
-1.191791985183954239e-02
-4.327716678380966187e-02
2.628394402563571930e-02
-2.725670859217643738e-02
9.737388463690876961e-04
2.768070064485073090e-02
6.088313646614551544e-03
-1.321881357580423355e-02
4.950572550296783447e-02
-5.434148013591766357e-02
3.734174370765686035e-02
9.748856537044048309e-03
-3.483848273754119873e-02
-2.848896943032741547e-02
-2.655422687530517578e-02
3.288580104708671570e-03
1.850372552871704102e-02
-3.419037442654371262e-03
-1.449261419475078583e-02
-1.509743276983499527e-02
-2.575769461691379547e-02
-3.794309496879577637e-02
-3.886380000039935112e-03
4.608928691595792770e-03
3.678184375166893005e-02
2.469434402883052826e-02
9.414893575012683868e-03
2.220675721764564514e-02
-4.469493869692087173e-03
-5.294821225106716156e-03
-3.705222532153129578e-02
9.073960594832897186e-03
2.315295161679387093e-03
7.045103609561920166e-02
1.026251818984746933e-02
1.135051064193248749e-02
3.206511586904525757e-02
3.601139644160866737e-03
-1.145135145634412766e-02
-2.201589941978454590e-02
5.878292769193649292e-02
-7.476387917995452881e-02
8.035094477236270905e-03
1.683833822607994080e-02
4.160932078957557678e-02
4.172333050519227982e-03
-3.109198994934558868e-02
-6.243054755032062531e-03
2.028479427099227905e-02
2.090245671570301056e-02
-3.377972915768623352e-02
-2.045400626957416534e-02
1.657111942768096924e-02
-1.817764341831207275e-02
5.066589638590812683e-02
1.790386810898780823e-02
-1.572079025208950043e-02
2.226277813315391541e-02
-1.198198460042476654e-02
1.450476143509149551e-02
-7.596249692142009735e-03
1.363972760736942291e-02
2.846955880522727966e-02
5.397055298089981079e-03
-7.182278484106063843e-02
-1.832713931798934937e-02
1.243650913238525391e-03
5.057246237993240356e-02
2.266025170683860779e-03
-1.932032220065593719e-02
5.716609768569469452e-03
-9.238502942025661469e-03
-2.355404756963253021e-02
-3.296352177858352661e-02
-1.672148145735263824e-02
6.420535035431385040e-03
-5.300335120409727097e-03
3.616883605718612671e-02
3.623402910307049751e-03
-2.531122649088501930e-03
2.045838348567485809e-02
1.076286658644676208e-02
8.524952083826065063e-02
3.882354823872447014e-03
4.685561172664165497e-03
4.891484859399497509e-04
2.926999889314174652e-02
-5.468137096613645554e-03
1.123299542814493179e-02
1.845770515501499176e-02
3.575914073735475540e-03
-3.173827379941940308e-02
4.395306110382080078e-03
4.978268407285213470e-03
1.784110069274902344e-02
1.694507151842117310e-02
5.090342165203765035e-05
-9.516438469290733337e-03
1.070033106952905655e-02
-3.923045471310615540e-03
3.965929150581359863e-03
-9.434531442821025848e-03
-1.101070195436477661e-01
5.840114504098892212e-02
-1.896288432180881500e-02
3.372216969728469849e-02
-1.003115251660346985e-02
-4.602318629622459412e-02
-1.928913407027721405e-02
7.302677258849143982e-03
1.632548309862613678e-02
2.082020603120326996e-02
-4.252805560827255249e-02
2.595993876457214355e-02
-3.356328234076499939e-02
-5.352358333766460419e-03
-3.301653638482093811e-02
4.216182045638561249e-03
8.699017576873302460e-03
-1.432802621275186539e-02
-9.986219927668571472e-03
4.695852287113666534e-03
-1.158461719751358032e-02
2.366043813526630402e-02
-1.108630970120429993e-01
1.359448395669460297e-02
-1.384980510920286179e-02
-1.086164172738790512e-02
-1.619290560483932495e-02
-6.637839600443840027e-03
-1.157372351735830307e-02
-2.074787858873605728e-03
-3.187447786331176758e-02
-3.367840871214866638e-02
-4.867070354521274567e-03
3.038392588496208191e-02
6.634561344981193542e-03
-2.337677776813507080e-02
1.927933283150196075e-02
-2.058431133627891541e-02
5.356019362807273865e-02
2.223649807274341583e-02
-8.757606148719787598e-02
6.951635703444480896e-03
3.054308239370584488e-03
-1.949754171073436737e-02
-5.776693578809499741e-03
-1.131758559495210648e-03
-1.053868979215621948e-02
3.094237530604004860e-03
-1.380943693220615387e-02
-8.435554802417755127e-02
-1.705778576433658600e-02
-4.203150793910026550e-02
1.670230925083160400e-02
-3.217091783881187439e-02
-1.264780014753341675e-02
1.203454844653606415e-02
-1.981215365231037140e-02
-5.058055371046066284e-02
-4.987360909581184387e-02
1.235131919384002686e-02
2.598020993173122406e-02
-1.010984741151332855e-02
-6.178844720125198364e-03
-1.510098855942487717e-02
-3.197349607944488525e-02
3.614462912082672119e-03
-2.631243318319320679e-03
2.331625856459140778e-02
-1.008019000291824341e-01
-8.245569653809070587e-03
7.443852722644805908e-03
8.265917189419269562e-03
3.854649374261498451e-03
-1.498175319284200668e-02
7.056449353694915771e-02
-1.715403795242309570e-02
-4.085778817534446716e-02
2.813783660531044006e-02
1.438050065189599991e-02
-4.009713232517242432e-02
-1.755076646804809570e-02
1.833960041403770447e-02
8.779887855052947998e-02
8.310540579259395599e-03
1.568408682942390442e-02
3.088576905429363251e-02
-3.359304508194327354e-03
9.126034565269947052e-03
1.121424883604049683e-02
1.502882223576307297e-02
5.961368791759014130e-03
8.521205931901931763e-02
-2.536542899906635284e-02
-1.602951996028423309e-02
-2.463790215551853180e-02
-1.966088823974132538e-02
2.308915741741657257e-02
-1.034366935491561890e-01
-1.913922838866710663e-02
-6.049486622214317322e-02
8.830992132425308228e-02
-2.895108051598072052e-02
1.046817563474178314e-02
-6.007083225995302200e-03
6.107912398874759674e-03
-2.938988059759140015e-02
-6.544400472193956375e-03
6.706394720822572708e-03
-1.150093786418437958e-02
-8.056021295487880707e-03
-1.306589134037494659e-02
-2.440306730568408966e-02
-6.859301123768091202e-03
-8.378218859434127808e-03
-3.430466866120696068e-03
-2.010545320808887482e-02
1.277758739888668060e-02
-2.314242906868457794e-02
1.464880071580410004e-02
7.053246721625328064e-03
-1.950572803616523743e-02
5.974799394607543945e-03
1.109911967068910599e-02
2.308014780282974243e-03
-1.654508896172046661e-02
4.097033292055130005e-03
6.311613600701093674e-03
-4.027321934700012207e-02
8.438779041171073914e-03
1.407090853899717331e-02
4.792658612132072449e-03
-1.228163111954927444e-02
-2.447548089548945427e-03
4.011419136077165604e-03
5.464132409542798996e-03
-1.412101462483406067e-02
-2.316758222877979279e-02
-2.334817545488476753e-03
8.580292575061321259e-03
-4.462703596800565720e-03
-6.852512247860431671e-03
1.902683824300765991e-02
-2.781954361125826836e-03
-2.125839702785015106e-02
-2.571457589510828257e-04
-8.145452477037906647e-03
4.429230932146310806e-03
-5.023114848881959915e-03
2.861212752759456635e-02
-1.376236509531736374e-02
4.161852411925792694e-03
1.164189912378787994e-02
-3.274566726759076118e-03
1.368308998644351959e-02
-2.979067154228687286e-03
-1.326325256377458572e-02
-5.359602437238208950e-05
5.247484426945447922e-03
-1.950962352566421032e-03
2.054534666240215302e-02
9.636522270739078522e-03
-1.752178504830226302e-04
2.128589199855923653e-03
1.037698332220315933e-02
-1.046680193394422531e-02
9.435146115720272064e-03
-1.103254128247499466e-02
-1.124406990129500628e-04
9.803072549402713776e-03
3.518980462104082108e-03
-3.460026159882545471e-02
3.683015238493680954e-03
7.905943319201469421e-03
1.028196769766509533e-03
5.803294479846954346e-03
-1.025093160569667816e-02
-1.104632019996643066e-02
-4.725492745637893677e-02
1.757104322314262390e-02
-3.180742962285876274e-03
2.075624652206897736e-02
