6.855854392051696777e-02
1.469803601503372192e-01
8.287969976663589478e-02
4.112149402499198914e-02
-4.402484744787216187e-02
5.520764365792274475e-02
1.306566596031188965e-01
4.752465756610035896e-04
-5.264889821410179138e-02
2.224579006433486938e-01
2.307385951280593872e-01
3.079234063625335693e-01
7.092950493097305298e-02
-7.947254180908203125e-02
1.069705560803413391e-01
8.343770168721675873e-03
7.875834405422210693e-02
5.329802259802818298e-02
7.194614410400390625e-02
9.700091928243637085e-02
-2.555521950125694275e-02
1.390039324760437012e-01
2.833896316587924957e-02
-5.701338499784469604e-02
-2.284982055425643921e-02
1.985415220260620117e-01
-6.767626851797103882e-02
-3.489370644092559814e-02
3.377262502908706665e-03
-1.867172569036483765e-01
2.136613242328166962e-03
4.982025176286697388e-02
1.799885928630828857e-01
6.318367272615432739e-02
-7.614825665950775146e-02
2.517698705196380615e-01
-2.437330782413482666e-02
-7.814044505357742310e-02
-1.060009226202964783e-01
-4.292898811399936676e-03
3.907521441578865051e-02
2.539057657122612000e-02
2.162895724177360535e-02
-2.721177972853183746e-02
-1.578697562217712402e-02
-1.761538833379745483e-01
1.926829069852828979e-01
1.973335146903991699e-01
-7.261928170919418335e-02
-2.811761759221553802e-02
-3.343986347317695618e-02
2.210997194051742554e-01
-6.304956972599029541e-02
-9.604530408978462219e-03
-3.091343119740486145e-02
5.701010674238204956e-02
-4.846952110528945923e-02
1.767370551824569702e-01
-5.053446069359779358e-02
-7.730287499725818634e-03
3.518814593553543091e-02
-4.585885629057884216e-02
-9.757816791534423828e-02
1.760485768318176270e-02
1.519567370414733887e-01
7.581776380538940430e-02
1.444261223077774048e-01
-1.428690180182456970e-02
2.363928556442260742e-01
1.657166145741939545e-02
7.156433910131454468e-02
1.889139786362648010e-02
-1.399444788694381714e-02
1.136095523834228516e-01
-3.656301647424697876e-02
6.396961212158203125e-02
1.606820076704025269e-01
-2.039732970297336578e-02
6.359430402517318726e-02
2.860235236585140228e-02
2.402330189943313599e-02
-3.954648855142295361e-04
1.811145432293415070e-02
2.429688163101673126e-02
9.765716642141342163e-02
-5.128022283315658569e-02
8.640698343515396118e-02
-4.971577972173690796e-02
1.234208568930625916e-01
1.663688719272613525e-01
-5.279721319675445557e-02
-1.318893581628799438e-02
3.853639960289001465e-01
1.144795939326286316e-01
9.509012848138809204e-02
1.780801266431808472e-01
1.903937011957168579e-02
2.939077676273882389e-04
6.053961440920829773e-02
-3.049119375646114349e-02
-1.586767099797725677e-02
2.413808181881904602e-02
-5.354088172316551208e-02
-7.658773660659790039e-02
3.662565350532531738e-01
-1.398212555795907974e-02
6.313193589448928833e-02
-4.577110707759857178e-02
2.339228056371212006e-02
1.231870427727699280e-02
-5.900486186146736145e-02
5.488934740424156189e-02
2.084247767925262451e-01
5.146672949194908142e-02
6.298507750034332275e-02
-1.877622306346893311e-02
6.475578248500823975e-02
5.120855942368507385e-02
-9.481718391180038452e-02
4.463880136609077454e-02
2.288877032697200775e-02
6.691494584083557129e-02
-5.503975972533226013e-02
2.464924938976764679e-02
-3.699402138590812683e-02
2.319143414497375488e-01
2.566285133361816406e-01
-8.066162467002868652e-02
