2.503811754286289215e-02
2.561494009569287300e-03
1.098862849175930023e-02
5.297071766108274460e-03
8.572469465434551239e-03
-1.147207897156476974e-02
-6.205178331583738327e-03
-5.137267056852579117e-03
2.770629897713661194e-02
-2.392493560910224915e-02
2.884791791439056396e-02
-1.358690019696950912e-02
-6.848783697932958603e-03
3.386297076940536499e-02
2.221177855972200632e-04
6.451013498008251190e-03
1.429465040564537048e-02
-5.878512281924486160e-03
-5.489911511540412903e-02
3.757259622216224670e-02
-2.917457185685634613e-02
1.821900717914104462e-02
-6.897949589301788365e-08
-2.202746784973896865e-08
1.257320865988731384e-02
-4.582210294756805524e-06
-1.860667951405048370e-02
-1.214881613850593567e-01
4.185978695750236511e-02
2.221941575407981873e-02
1.683245226740837097e-02
3.281314298510551453e-02
-1.997968181967735291e-02
-1.566062128404155374e-04
-2.628400735557079315e-02
2.187784388661384583e-02
-2.612067200243473053e-02
-4.642652347683906555e-02
3.845000267028808594e-02
2.930152928456664085e-03
-1.151183340698480606e-02
6.789214909076690674e-03
-1.129216141998767853e-02
-1.658250950276851654e-02
-7.536114659160375595e-03
-1.084015366359381005e-06
-3.523722116369754076e-04
-3.707434237003326416e-02
-1.980192959308624268e-02
-1.663319207727909088e-02
8.260823786258697510e-03
-3.348750621080398560e-02
-2.386351383165674633e-08
1.111646927893161774e-02
-8.307342417538166046e-03
6.736324727535247803e-02
1.181505067506805062e-04
4.962338134646415710e-02
-1.341505255550146103e-02
-3.004892356693744659e-02
1.834755018353462219e-02
6.676451861858367920e-02
3.031971864402294159e-03
-3.416290041059255600e-03
1.622803580403342494e-08
-2.999363094568252563e-02
-1.662397384643554688e-02
6.553868204355239868e-02
-2.017023228108882904e-02
-5.072434246540069580e-02
1.191474497318267822e-02
-2.070522526764762006e-07
-2.274520229548215866e-03
3.508290648460388184e-02
-2.942136302590370178e-02
-9.646475315093994141e-03
-6.081732499296776950e-05
-3.252865746617317200e-02
6.136843934655189514e-02
-1.159525942057371140e-02
7.213137578219175339e-03
-3.056299500167369843e-02
-1.732737757265567780e-02
1.231391735245779273e-07
2.839923836290836334e-02
1.254545897245407104e-02
-1.006611436605453491e-02
-1.945602257080736308e-08
-2.570560574531555176e-02
-1.957664608198683709e-08
1.345042511820793152e-02
-2.043219096958637238e-02
1.977291889488697052e-02
-3.725213173311203718e-04
-4.848093260079622269e-03
2.986417710781097412e-02
3.334712609648704529e-02
4.990027844905853271e-02
-8.972333744168281555e-03
-1.818357408046722412e-02
-6.347486749291419983e-03
-5.620762166813619842e-08
1.619699224829673767e-02
2.799568325281143188e-02
-4.134735092520713806e-03
-1.867697946727275848e-02
-3.225522860884666443e-02
-6.183472578413784504e-08
-1.180767826735973358e-02
-3.780030086636543274e-02
1.037502568215131760e-02
-2.549094706773757935e-02
-2.507762610912322998e-02
-2.632497251033782959e-02
-1.207796186208724976e-01
-4.417736828327178955e-02
9.070589207112789154e-03
-1.527096138431716099e-08
6.498123519122600555e-03
-3.216703189536929131e-03
-9.886281564831733704e-03
-3.429321944713592529e-02
2.047844789922237396e-02
-1.240533583768410608e-05
4.919328913092613220e-02
2.332184091210365295e-02
-1.516694203019142151e-02
-3.242810271331109107e-05
-1.580932550132274628e-02
9.811189025640487671e-03
2.284127101302146912e-02
-3.720011562108993530e-02
2.778014354407787323e-02
-6.432991916938135546e-09
-2.458876906530349515e-07
-1.714217942208051682e-03
-1.074124500155448914e-02
-2.870133146643638611e-02
1.026789750903844833e-02
-4.290966317057609558e-03
-7.629604544490575790e-03
6.683094799518585205e-02
-1.729691587388515472e-02
3.070386126637458801e-02
-4.075917974114418030e-02
9.225392714142799377e-03
-5.068081617355346680e-02
-2.519735321402549744e-02
-1.659119129180908203e-02
-3.226493671536445618e-02
1.080199144780635834e-02
-2.513107284903526306e-02
-2.782084234058856964e-02
-1.446958165615797043e-02
-1.941804308444261551e-03
-1.960785314440727234e-02
-5.244345963001251221e-02
-3.718059882521629333e-02
6.421168893575668335e-02
9.194999001920223236e-03
3.413396188989281654e-04
5.755857005715370178e-02
-1.662961952388286591e-02
1.061441935598850250e-02
-1.809578388929367065e-02
-9.599929675459861755e-03
-2.328998222947120667e-02
-1.803821185603737831e-03
-1.343647390604019165e-02
-4.368255380541086197e-03
-9.255304932594299316e-03
6.680162996053695679e-02
-2.086308784782886505e-02
-8.507696911692619324e-03
-3.343427863455872284e-07
1.811381056904792786e-02
-3.684875369071960449e-02
-2.080107294023036957e-02
5.239405669271945953e-03
-1.626548729836940765e-02
-5.032276734709739685e-03
-1.811110973358154297e-02
3.955282736569643021e-03
-9.373474121093750000e-02
3.060826566070318222e-04
-1.146708896726522653e-07
5.816727876663208008e-02
-8.707642555236816406e-03
-9.333878755569458008e-03
-1.894852705299854279e-02
-4.172096028923988342e-02
-4.203506186604499817e-02
5.709991231560707092e-02
1.176444580778479576e-03
2.064780099317431450e-03
3.886955976486206055e-02
4.150947090238332748e-03
-7.790078222751617432e-02
2.065758407115936279e-02
-1.632058570066874381e-06
8.098558522760868073e-03
6.034927815198898315e-02
3.546308136037623626e-08
-4.064554348587989807e-02
-7.355742126513575840e-10
2.326534595340490341e-03
-1.390780229121446609e-02
-3.166453912854194641e-02
-1.571931503713130951e-02
8.208761364221572876e-02
4.937635734677314758e-03
1.555706840008497238e-02
-9.862218983471393585e-03
-9.074000641703605652e-03
-2.228662623338095727e-07
-5.488820746541023254e-02
-2.278579212725162506e-02
-6.104555726051330566e-02
7.111698389053344727e-03
1.657976396381855011e-02
2.168153785169124603e-02
-1.924817450344562531e-02
-7.107364945113658905e-05
3.188066557049751282e-02
-2.306429669260978699e-02
-2.012148685753345490e-02
-1.486670691519975662e-02
1.250703632831573486e-02
-1.044987980276346207e-02
-6.852288730442523956e-03
-1.581902033649384975e-03
2.662338688969612122e-02
3.866574494168162346e-03
-3.069891408085823059e-02
2.551380544900894165e-02
-1.141939871013164520e-02
-4.049484059214591980e-02
-9.330613538622856140e-04
-7.761772256344556808e-03
-2.541881985962390900e-02
-2.113114809617400169e-03
-3.707908792421221733e-03
1.473032869398593903e-02
-4.453926160931587219e-02
-3.776417300105094910e-02
-4.419336840510368347e-02
1.398827043885830790e-05
-2.318960987031459808e-02
-3.061917051672935486e-02
-9.742546826601028442e-03
-3.744920715689659119e-02
3.162404522299766541e-02
3.109331056475639343e-02
3.572244604583829641e-04
2.072628587484359741e-02
-3.446434810757637024e-02
2.266669413074851036e-03
-1.154919154942035675e-03
-1.112499088048934937e-02
-1.502451952546834946e-02
-5.103306379169225693e-03
2.264091512188315392e-03
4.890819080173969269e-03
3.621739801019430161e-03
1.726795732975006104e-02
1.015053712762892246e-03
-3.730455646291375160e-04
5.125703662633895874e-02
-9.271821007132530212e-03
-1.097410172224044800e-02
2.709111943840980530e-02
9.538847953081130981e-03
1.945252763107419014e-03
3.678076667711138725e-03
-1.083592418581247330e-02
1.305144396610558033e-03
-1.084430958144366741e-03
-1.058615016518160701e-04
3.061450684072042350e-07
2.293375978013045824e-08
-2.261034213006496429e-02
-3.720137465279549360e-05
2.135157398879528046e-02
2.835254371166229248e-02
4.448893293738365173e-02
-5.370717961341142654e-03
1.532894559204578400e-02
1.201909780502319336e-02
1.806034147739410400e-02
-4.293478652834892273e-02
9.999902546405792236e-02
3.682493790984153748e-02
3.345964103937149048e-02
-6.785742193460464478e-02
-9.225368499755859375e-03
5.650641396641731262e-03
2.577986568212509155e-03
4.899692535400390625e-02
1.240929681807756424e-02
1.103656738996505737e-01
9.858198463916778564e-02
5.525692813534988090e-06
-2.167151123285293579e-02
1.243800483644008636e-02
2.344844676554203033e-02
3.123826161026954651e-02
9.197983145713806152e-02
-1.128524914383888245e-02
2.603786963817356082e-09
-1.475131139159202576e-02
7.839104160666465759e-03
-2.171059884130954742e-02
-2.529595745727419853e-03
1.962457783520221710e-02
-1.656866818666458130e-02
5.032862350344657898e-02
5.570157431066036224e-03
-1.285351905971765518e-02
-1.521460060030221939e-02
5.123079754412174225e-04
3.253722624663168972e-08
-5.243631079792976379e-03
6.042061746120452881e-02
6.851243786513805389e-03
-1.370536047033965588e-03
4.591254144906997681e-02
1.245258096605539322e-02
-1.850086732702038717e-07
-3.333345428109169006e-02
-3.908964339643716812e-03
1.424537505954504013e-02
3.409478580579161644e-03
1.087555545382201672e-03
1.570624997839331627e-03
3.601934004109352827e-04
-6.904428452253341675e-02
1.674122065305709839e-01
2.539646811783313751e-02
6.573382765054702759e-03
-1.638811454540700652e-06
-2.031552419066429138e-02
-9.786318987607955933e-03
6.885500252246856689e-02
1.408049943307787544e-08
1.595131121575832367e-02
1.857319489317887928e-07
1.004248671233654022e-02
1.356783043593168259e-02
-1.411707606166601181e-02
-2.165196929126977921e-03
-7.070641731843352318e-04
8.230488747358322144e-03
4.939545877277851105e-03
5.578240845352411270e-03
2.285770140588283539e-02
1.265120506286621094e-02
-1.037364453077316284e-01
7.560452530697148177e-08
5.387145653367042542e-02
-3.223491599783301353e-03
-6.988029927015304565e-02
9.934014827013015747e-02
2.091636508703231812e-02
1.042239716753101675e-07
9.117064997553825378e-03
-5.715287476778030396e-02
-1.746895723044872284e-02
-1.296212244778871536e-02
1.077031902968883514e-02
-3.866678103804588318e-02
-1.790571142919361591e-03
4.037324339151382446e-02
-7.163284718990325928e-02
6.173290212352355866e-10
-1.490084268152713776e-02
1.618869900703430176e-01
1.707486435770988464e-02
-1.024688500910997391e-02
-1.141746118664741516e-01
9.747228432388510555e-06
7.824832573533058167e-03
6.397683173418045044e-02
5.296920426189899445e-03
6.257907898543635383e-06
1.537340786308050156e-02
3.476414084434509277e-02
7.342668715864419937e-03
3.655167669057846069e-02
1.364610809832811356e-02
-1.401491829255974153e-07
1.214701569551834837e-06
5.905207712203264236e-03
-1.622425019741058350e-02
-7.956855697557330132e-04
6.860230863094329834e-02
-2.015361003577709198e-02
1.600006222724914551e-02
-1.303962711244821548e-02
-8.586173877120018005e-03
2.146784588694572449e-02
-1.218299474567174911e-02
-1.457688119262456894e-02
1.972907595336437225e-02
4.078876227140426636e-02
1.379845943301916122e-02
2.647141180932521820e-02
-6.916759070008993149e-03
2.916629193350672722e-03
9.409136138856410980e-03
6.820110604166984558e-03
5.233354400843381882e-03
-2.951805014163255692e-03
2.744416333734989166e-02
1.591436378657817841e-02
2.700572600588202477e-03
9.551254333928227425e-04
2.889576368033885956e-03
-3.785235062241554260e-02
2.872098982334136963e-02
-8.408073335886001587e-02
-5.376105196774005890e-03
2.258875034749507904e-02
2.324663288891315460e-02
3.696025162935256958e-02
6.573515385389328003e-02
-6.192269269376993179e-03
-1.213048491626977921e-02
6.494137644767761230e-02
6.295522209256887436e-03
8.528786711394786835e-03
6.529258826049044728e-06
-1.597433723509311676e-02
-1.063428446650505066e-01
2.447860687971115112e-02
-1.507321372628211975e-02
3.326429426670074463e-02
3.814189136028289795e-02
1.127000339329242706e-02
-1.924286037683486938e-02
9.167552925646305084e-03
-1.714841648936271667e-02
3.707620805926126195e-07
8.818519860506057739e-02
2.544398419559001923e-02
-1.185370981693267822e-02
-5.842662416398525238e-03
-3.088315948843955994e-02
-1.889800420030951500e-03
-1.271516364067792892e-02
3.512535244226455688e-02
7.737559732049703598e-03
2.628256939351558685e-02
7.746341079473495483e-02
-2.461077831685543060e-02
2.602316252887248993e-02
-2.982255637107300572e-06
-9.317206591367721558e-02
1.621136441826820374e-03
-3.183640373549678770e-08
-4.555246792733669281e-03
2.865394499451667798e-08
1.649044826626777649e-02
-1.986447535455226898e-02
1.936678029596805573e-02
-9.032652713358402252e-03
1.754850335419178009e-02
-1.989172585308551788e-02
-9.451921097934246063e-03
2.646302804350852966e-02
-1.745840907096862793e-02
2.269958940814831294e-07
2.621826715767383575e-03
-3.456621989607810974e-02
2.077608183026313782e-02
1.752299070358276367e-02
9.838329628109931946e-03
-6.282378919422626495e-03
1.977683044970035553e-02
-3.161054104566574097e-03
-3.294377354905009270e-03
1.451036223443225026e-04
3.734845668077468872e-02
-1.693668775260448456e-02
2.839622553437948227e-03
2.977507188916206360e-03
-2.258495241403579712e-02
-1.607080921530723572e-02
4.393284209072589874e-03
1.055097673088312149e-02
-1.810701750218868256e-02
-3.078400157392024994e-02
9.214854240417480469e-02
4.359003528952598572e-02
-1.899340562522411346e-02
9.688434191048145294e-03
1.257686316967010498e-02
1.919948309659957886e-02
8.731688372790813446e-03
-3.213978372514247894e-03
-3.948327153921127319e-02
1.748295500874519348e-02
7.499860133975744247e-03
-3.850733992294408381e-05
6.700681056827306747e-03
6.254149228334426880e-02
9.636386297643184662e-03
-2.057298831641674042e-02
2.278104424476623535e-02
-2.112852595746517181e-02
-1.663289964199066162e-02
2.297724783420562744e-02
-7.355061918497085571e-02
-6.041262764483690262e-03
-1.869184663519263268e-03
8.481969125568866730e-03
-3.569534420967102051e-02
1.566088758409023285e-03
-6.409516208805143833e-04
2.220175974071025848e-02
3.336251899600028992e-02
-2.338604768738150597e-03
4.440580680966377258e-02
-1.213737856596708298e-02
-8.144703693687915802e-03
-1.763080619275569916e-02
-5.935781635344028473e-03
-6.723015755414962769e-02
-3.164415806531906128e-02
6.482792552560567856e-03
-1.588253304362297058e-02
-4.326667264103889465e-02
-1.740387082099914551e-02
-7.637576665729284286e-03
-5.454267933964729309e-02
1.545643613098945934e-07
-8.273796758828666498e-09
-4.786713793873786926e-02
-7.376661960734054446e-05
-2.623963728547096252e-02
-4.124474246054887772e-03
-1.032804604619741440e-02
7.090080063790082932e-03
-3.104539960622787476e-02
-6.524654570966959000e-03
8.285109698772430420e-02
1.128518488258123398e-02
-2.519462630152702332e-02
-7.380766794085502625e-03
1.065324544906616211e-01
-3.546621650457382202e-02
8.059452287852764130e-03
-7.841579616069793701e-03
-1.167029980570077896e-02
-1.331189647316932678e-02
2.149978466331958771e-02
1.445313170552253723e-02
5.858130380511283875e-02
4.484495548240374774e-06
3.269537910819053650e-02
1.850978843867778778e-02
2.260250737890601158e-03
2.702214289456605911e-03
-4.038273170590400696e-02
-6.761336233466863632e-03
6.386667905644571874e-08
4.397398233413696289e-02
3.846552968025207520e-02
-8.081479929387569427e-03
4.689114168286323547e-03
5.010205879807472229e-02
3.207434341311454773e-02
4.402719438076019287e-02
8.007884956896305084e-03
-1.690269634127616882e-02
-4.058716073632240295e-02
1.126243174076080322e-02
-1.413726558041616954e-08
5.978693719953298569e-03
-9.029423381434753537e-05
9.712986648082733154e-03
6.671921163797378540e-02
2.491676807403564453e-02
1.290188170969486237e-02
1.444611541501217289e-07
1.708523742854595184e-02
-1.633329503238201141e-02
2.662350237369537354e-02
6.785380188375711441e-03
3.796251839958131313e-04
-1.539143454283475876e-02
5.989438854157924652e-03
7.487736293114721775e-04
1.059723272919654846e-02
2.110140584409236908e-02
2.484821341931819916e-02
6.477881697719567455e-07
-1.508950442075729370e-02
-2.297247294336557388e-03
9.312278591096401215e-03
2.415242477127321763e-07
-2.658356213942170143e-03
2.936808982667571399e-07
-1.847165520302951336e-03
1.350020244717597961e-02
-9.325630962848663330e-03
-1.828324515372514725e-03
-9.607201209291815758e-04
3.999159112572669983e-02
1.562532153911888599e-03
1.014583371579647064e-02
3.193416399881243706e-03
3.944886103272438049e-02
3.310086950659751892e-02
-1.141963412720770066e-08
1.307911276817321777e-01
1.666180440224707127e-03
-1.498042326420545578e-02
-2.752844430506229401e-02
1.902836933732032776e-02
4.576920531462747022e-08
1.840883749537169933e-03
2.548022940754890442e-02
3.481638152152299881e-03
-3.624814329668879509e-03
-1.579630537889897823e-03
3.338677063584327698e-02
-1.478464622050523758e-02
-1.726404152577742934e-04
4.226490110158920288e-02
2.992179304328601575e-08
-7.406230270862579346e-02
-2.144956402480602264e-02
-1.467854063957929611e-02
4.981447011232376099e-02
-2.859936654567718506e-02
-1.510796209913678467e-05
-2.381322346627712250e-02
-1.920516835525631905e-03
-2.344724535942077637e-02
1.050319951900746673e-05
1.275614928454160690e-02
-1.361981965601444244e-02
5.985011532902717590e-02
-3.760872350540012121e-04
-3.847827017307281494e-02
5.123454727140597242e-08
4.571820966248196783e-07
2.283760346472263336e-02
-2.533903904259204865e-02
2.943814918398857117e-02
2.040594443678855896e-02
-1.574343070387840271e-02
-1.271138340234756470e-02
-2.793482691049575806e-02
-3.566530998796224594e-03
-3.809701418504118919e-03
-2.204621955752372742e-02
9.750199317932128906e-02
-3.211558237671852112e-02
2.270170114934444427e-02
-7.462270557880401611e-03
3.789173811674118042e-02
-1.215280685573816299e-02
-1.658071298152208328e-03
-1.152960211038589478e-02
3.939955029636621475e-03
-3.958505764603614807e-02
7.348626106977462769e-02
3.398219496011734009e-02
-5.216283723711967468e-03
3.287549689412117004e-02
4.018061235547065735e-02
-2.592909894883632660e-02
4.991962341591715813e-04
1.877539441920816898e-03
-9.191426634788513184e-02
-1.153187453746795654e-02
1.819363236427307129e-02
-3.902239724993705750e-02
-8.231814019381999969e-03
3.149176761507987976e-02
1.496206875890493393e-02
1.422323868609964848e-03
-6.679757963865995407e-03
6.721448618918657303e-03
-1.636701822280883789e-02
5.743638098465453368e-07
-4.115761071443557739e-02
-3.058066964149475098e-02
1.485037431120872498e-02
-4.877741262316703796e-02
6.107539311051368713e-02
6.392336916178464890e-03
-6.886708550155162811e-03
4.617033153772354126e-02
4.871274344623088837e-03
-1.099615544080734253e-02
3.579891938443324761e-07
-2.017547143623232841e-03
6.704346835613250732e-02
2.276865998283028603e-03
-7.818665355443954468e-03
1.025486961007118225e-01
-6.507781334221363068e-03
1.445372495800256729e-02
-2.494194731116294861e-02
5.247991066426038742e-03
-1.470412127673625946e-02
5.714669078588485718e-02
-1.849846728146076202e-02
2.940937643870711327e-03
-1.601625740477174986e-06
-2.081564441323280334e-02
2.402161620557308197e-02
2.292706966500190902e-07
3.368499130010604858e-02
-1.122078163717787902e-08
7.858938537538051605e-03
5.943212658166885376e-02
-1.884739467641338706e-04
-3.174248710274696350e-02
-2.198276855051517487e-02
7.454796694219112396e-03
-1.401841919869184494e-02
1.342404540628194809e-02
6.470151245594024658e-02
-1.907972375647659646e-07
-8.681239560246467590e-03
-4.124137014150619507e-02
5.409069359302520752e-02
-1.217133644968271255e-02
-4.156839568167924881e-03
1.106501184403896332e-02
5.149654112756252289e-03
9.039115160703659058e-03
4.174329515080899000e-04
2.074507623910903931e-02
6.301531940698623657e-02
-3.227842971682548523e-03
-1.123647298663854599e-02
-1.608947291970252991e-02
-2.220485731959342957e-02
-1.244705915451049805e-02
8.142407052218914032e-03
3.390268608927726746e-02
4.543805494904518127e-02
-4.138496145606040955e-02
3.600408509373664856e-02
-4.886192455887794495e-02
1.674344018101692200e-02
2.193414978682994843e-02
1.793661527335643768e-02
1.160927023738622665e-02
2.647792361676692963e-02
9.492545388638973236e-03
-3.105361014604568481e-02
-6.124008446931838989e-02
-8.461727993562817574e-04
-5.813541065435856581e-05
-1.028656773269176483e-02
1.645546592772006989e-02
-4.823768511414527893e-02
-2.685580402612686157e-02
1.108098309487104416e-03
-4.627992212772369385e-02
-6.016829982399940491e-03
-3.859717026352882385e-02
2.817727997899055481e-02
-1.774115301668643951e-02
1.563401892781257629e-02
-2.571295201778411865e-02
4.523115232586860657e-02
-8.331451681442558765e-04
2.846645005047321320e-02
3.901024907827377319e-02
-8.534089662134647369e-03
2.218250930309295654e-02
2.377354167401790619e-02
-1.228534430265426636e-02
-2.529412508010864258e-02
-3.566176071763038635e-02
-1.873754151165485382e-02
-3.167976159602403641e-03
-1.756075304001569748e-03
1.549243461340665817e-03
-5.100105330348014832e-02
-4.000919405370950699e-03
1.101785246282815933e-02
1.916563138365745544e-02
1.726348325610160828e-02
1.323175098377760150e-07
7.085021991315443302e-08
-2.032298222184181213e-02
-1.627567253308370709e-04
-7.027831859886646271e-03
-2.763565070927143097e-02
-3.258904814720153809e-02
-3.800321742892265320e-02
-3.053762391209602356e-02
1.557870022952556610e-02
-7.473500072956085205e-02
-4.936270043253898621e-02
6.191746518015861511e-02
2.191235125064849854e-02
1.028077583760023117e-02
-2.626260183751583099e-02
2.023896202445030212e-02
2.227421663701534271e-02
6.274792831391096115e-03
4.062595963478088379e-02
-2.724151685833930969e-02
2.421247214078903198e-02
2.062707906588912010e-03
-1.807545686460798606e-06
7.432759553194046021e-02
-4.985148087143898010e-02
7.276399992406368256e-03
8.162937313318252563e-02
-1.770002563716843724e-04
-2.977896668016910553e-02
3.525478575738816289e-08
-1.814492791891098022e-02
5.280243977904319763e-02
8.047587424516677856e-02
1.725043053738772869e-03
2.324226545169949532e-03
-8.119107037782669067e-02
-7.985933683812618256e-03
3.453021496534347534e-02
3.651853650808334351e-02
4.871318489313125610e-02
-3.397259116172790527e-02
6.142357733551762067e-08
8.692368865013122559e-03
4.234028235077857971e-02
3.196754306554794312e-02
-2.647359110414981842e-02
2.532014809548854828e-02
1.868486218154430389e-02
-6.088000770176904552e-09
5.901841819286346436e-02
6.397577089956030250e-05
-4.692049324512481689e-02
-1.792817749083042145e-02
1.023770426400005817e-03
2.437363937497138977e-02
7.442463934421539307e-02
-7.478930987417697906e-03
6.659641861915588379e-02
-3.177231177687644958e-03
6.490250676870346069e-02
-3.939442649425473064e-06
-4.544934257864952087e-02
-3.556926921010017395e-02
1.935953460633754730e-02
-1.538862477445945842e-07
-3.542775055393576622e-03
-1.432900518238966470e-07
2.609469741582870483e-02
1.073294412344694138e-02
4.082117974758148193e-02
-6.268601282499730587e-04
-3.509984351694583893e-03
1.918825134634971619e-02
-1.497665885835886002e-02
3.214144962839782238e-04
-9.926641359925270081e-03
-3.068557754158973694e-02
-2.857179148122668266e-03
1.948883721070160391e-07
-5.433620512485504150e-02
4.871286079287528992e-02
6.017092242836952209e-02
3.280074149370193481e-02
5.461997934617102146e-04
-2.836114454396465590e-08
-1.704907044768333435e-02
-1.060635410249233246e-02
1.259848941117525101e-02
-3.024494647979736328e-02
-2.253779210150241852e-02
-4.516578838229179382e-02
-5.192288383841514587e-02
-4.362181946635246277e-02
4.874144122004508972e-02
3.790987523899502776e-09
4.363584890961647034e-02
3.318288549780845642e-02
-1.037557795643806458e-02
-1.554668974131345749e-02
6.866583973169326782e-02
1.404851536790374666e-05
6.674127280712127686e-02
2.031374163925647736e-02
-5.568343680351972580e-03
-4.332489879743661731e-06
-1.417291071265935898e-02
1.890430971980094910e-02
-4.342164471745491028e-02
5.683402530848979950e-03
-2.097743377089500427e-02
-1.820343840108762379e-07
7.573710831820790190e-07
-1.268098480068147182e-03
-1.205564849078655243e-02
-2.093489095568656921e-02
6.705331802368164062e-02
-4.021110944449901581e-03
-2.669981122016906738e-02
-5.655860994011163712e-03
-2.464377321302890778e-02
1.418727077543735504e-02
1.797065325081348419e-02
6.432001013308763504e-03
-4.350587353110313416e-02
6.839841138571500778e-03
-1.426985953003168106e-02
-7.365390658378601074e-03
2.326756017282605171e-03
-1.530755776911973953e-02
-1.063716318458318710e-02
-2.649602852761745453e-02
1.349606644362211227e-02
-5.676840990781784058e-02
-7.197386119514703751e-03
-5.862013250589370728e-02
3.377677127718925476e-02
2.138547226786613464e-02
-1.318137161433696747e-02
-1.614942960441112518e-02
-1.600015163421630859e-02
-8.651605248451232910e-02
-8.306364761665463448e-04
3.243503719568252563e-02
-4.005833063274621964e-03
6.025251466780900955e-03
5.223732814192771912e-02
3.150298446416854858e-02
-9.156166575849056244e-03
8.835905790328979492e-02
-1.107881776988506317e-02
1.063088234513998032e-02
2.560779648774769157e-06
2.051734179258346558e-02
-4.339969530701637268e-02
-2.092699520289897919e-02
-3.516114549711346626e-03
-2.085911482572555542e-02
-2.419744990766048431e-02
-2.278846688568592072e-02
-7.752836681902408600e-03
-4.179304093122482300e-02
-7.628299295902252197e-03
1.823522808308553067e-07
1.600261032581329346e-01
-9.554365649819374084e-03
2.271577483043074608e-03
1.418289821594953537e-02
-5.654571950435638428e-02
-1.853237114846706390e-02
1.469748001545667648e-02
-1.557273790240287781e-02
1.197227369993925095e-02
6.564666330814361572e-02
-4.936850070953369141e-02
-1.474964432418346405e-02
-4.597613215446472168e-02
2.635460305100423284e-06
-5.129303899593651295e-04
-5.077548697590827942e-02
-9.709704329452506499e-08
-2.724382467567920685e-02
-3.180845364880724446e-09
6.331873685121536255e-02
-1.523549668490886688e-02
3.804591018706560135e-03
-2.385389246046543121e-02
-2.227681688964366913e-02
1.253598928451538086e-02
2.193270809948444366e-02
1.364699658006429672e-02
2.522393316030502319e-02
4.882053872279357165e-07
-7.612010091543197632e-02
-3.368420526385307312e-02
-2.284113503992557526e-02
-3.531607240438461304e-02
6.837330013513565063e-02
3.985938057303428650e-02
-5.989708006381988525e-03
-1.937827444635331631e-03
1.097227353602647781e-02
-2.412482717772945762e-05
4.380141198635101318e-02
8.670629933476448059e-03
3.485163301229476929e-02
-2.790177240967750549e-03
5.549946334213018417e-03
1.078444533050060272e-02
1.983677968382835388e-02
1.765450090169906616e-02
-8.216783404350280762e-03
-5.254548043012619019e-03
7.448834180831909180e-02
3.465394256636500359e-03
1.571320183575153351e-02
1.011986378580331802e-02
3.442468587309122086e-03
2.033809386193752289e-02
4.062327742576599121e-02
3.224276378750801086e-02
4.843445029109716415e-03
2.794612944126129150e-02
2.171412110328674316e-03
2.189166025345912203e-06
-1.730471476912498474e-02
3.518971800804138184e-02
5.949628073722124100e-03
7.142877671867609024e-03
2.138842828571796417e-03
9.714479558169841766e-03
-3.527620062232017517e-02
2.313877455890178680e-02
-6.484044343233108521e-02
-2.194732241332530975e-02
-9.032811503857374191e-04
-9.424294345080852509e-03
1.517813839018344879e-02
1.045392709784209728e-03
1.210144627839326859e-02
4.787974804639816284e-02
-3.209247067570686340e-02
1.656734384596347809e-02
-1.831626147031784058e-02
-5.125790834426879883e-02
-2.175366505980491638e-02
-1.472982764244079590e-02
-1.194198429584503174e-02
3.960163146257400513e-02
-3.279130533337593079e-02
-3.716817498207092285e-02
-1.233984623104333878e-02
-6.080421805381774902e-02
-1.239600498229265213e-02
-1.586338691413402557e-02
-1.877120137214660645e-02
-1.089825261146870616e-07
-1.121257220404459076e-08
-7.381540723145008087e-03
-3.206601249985396862e-04
-1.978847570717334747e-02
-6.030206009745597839e-02
1.450812444090843201e-02
8.950980380177497864e-03
-1.151020731776952744e-02
-2.006267383694648743e-02
2.308612689375877380e-02
-8.273477666079998016e-03
3.948890790343284607e-02
6.519892811775207520e-02
2.864557877182960510e-02
-1.137539744377136230e-02
4.405539110302925110e-02
-3.766786772757768631e-03
3.259215736761689186e-03
3.938694018870592117e-03
-9.994824416935443878e-03
2.724702656269073486e-02
3.915416449308395386e-02
5.794499315925349947e-07
6.082770600914955139e-02
2.866149879992008209e-03
2.707163803279399872e-02
-1.652331836521625519e-02
-7.728035561740398407e-03
-8.088054135441780090e-03
-3.294022832278642454e-09
3.818965703248977661e-02
5.949830636382102966e-02
7.157533545978367329e-04
-1.266766688786447048e-03
1.448750868439674377e-02
-1.969547942280769348e-02
1.199106499552726746e-01
6.950980424880981445e-02
-1.577872037887573242e-02
-2.819692948833107948e-03
-1.426860410720109940e-02
6.537326413535993197e-08
2.859974093735218048e-02
3.814380615949630737e-03
-7.723256479948759079e-03
4.151214659214019775e-02
4.505451768636703491e-02
3.033352829515933990e-02
9.077548490665776626e-09
1.544361351989209652e-03
-4.679908975958824158e-03
3.569628670811653137e-02
-1.265417598187923431e-02
7.215442019514739513e-04
1.356681063771247864e-02
2.256256900727748871e-02
3.677874431014060974e-02
6.872275471687316895e-02
-1.799108809791505337e-03
-1.549609284847974777e-02
-1.487647864450991619e-06
9.770153090357780457e-03
-7.450222969055175781e-03
6.190927699208259583e-02
1.341847966074283249e-09
-2.555448003113269806e-02
-3.111418678258814907e-08
-4.999217111617326736e-03
1.106238085776567459e-02
-9.621252305805683136e-03
3.120447508990764618e-04
8.319386979565024376e-04
2.689870446920394897e-02
2.331439405679702759e-03
-1.424709800630807877e-02
6.665424443781375885e-03
1.072189887054264545e-03
4.926194623112678528e-02
-8.653726979446219048e-08
3.985163569450378418e-02
-4.105934128165245056e-02
3.427842631936073303e-02
1.106543764472007751e-01
2.478838153183460236e-02
6.170719046849626466e-08
1.186397578567266464e-02
7.752495352178812027e-03
-8.938527666032314301e-03
1.869185268878936768e-02
-2.704976871609687805e-02
-1.765443570911884308e-02
-4.176722373813390732e-03
1.198705937713384628e-02
3.549642488360404968e-02
-1.125697668413749852e-08
2.957004681229591370e-02
-1.030659582465887070e-02
1.734970137476921082e-02
1.028130128979682922e-01
-3.519880771636962891e-02
5.903232249693246558e-06
1.099324692040681839e-02
9.250386059284210205e-02
-6.210225168615579605e-03
2.588074312370736152e-05
3.036604262888431549e-02
3.193304315209388733e-02
4.948456306010484695e-03
-3.165175020694732666e-02
-1.512791030108928680e-02
-4.575238243820223261e-10
-5.094343009659496602e-07
1.493037212640047073e-02
-4.281150922179222107e-02
-1.108045317232608795e-02
5.733641982078552246e-02
-2.343489788472652435e-02
-2.139253728091716766e-02
2.548866905272006989e-04
1.039053080603480339e-03
1.764350011944770813e-02
-2.459584176540374756e-02
-1.602049916982650757e-02
2.983785606920719147e-02
3.176388517022132874e-02
-2.222394570708274841e-02
8.413533121347427368e-02
-2.117269299924373627e-02
-1.845356449484825134e-02
-2.586349099874496460e-02
2.777678892016410828e-02
-4.636341705918312073e-02
6.986794620752334595e-02
3.605291247367858887e-02
-4.325454309582710266e-02
-1.129138469696044922e-02
2.765313722193241119e-02
-5.508845672011375427e-03
-3.928754478693008423e-02
-1.154076494276523590e-02
-6.432416290044784546e-02
-1.748856529593467712e-02
-2.974243834614753723e-03
1.183072570711374283e-02
1.223940867930650711e-02
4.569252207875251770e-02
5.130754411220550537e-02
-2.996050519868731499e-03
8.200075477361679077e-03
-1.378837274387478828e-03
-2.331952005624771118e-02
-1.885331471385143232e-06
5.120720714330673218e-03
-3.762579709291458130e-02
-2.746579411905258894e-04
-5.144532397389411926e-02
2.372389286756515503e-02
2.578504197299480438e-02
-9.041681885719299316e-03
1.783425360918045044e-02
-2.812944538891315460e-02
7.084626238793134689e-03
8.376977689295017626e-08
4.768859967589378357e-02
3.120090626180171967e-02
1.681651920080184937e-02
-6.539645604789257050e-03
3.610046952962875366e-02
-1.474626176059246063e-02
6.408057175576686859e-03
-2.163833938539028168e-02
-1.196833443827927113e-03
-3.940929844975471497e-02
2.197645790874958038e-02
-4.498936608433723450e-02
1.253121346235275269e-02
-6.553598268510540947e-06
3.121396340429782867e-02
-5.564695969223976135e-02
-4.579298717999336077e-08
-1.052766200155019760e-02
-6.775641736567195039e-08
2.078622765839099884e-02
3.742230683565139771e-02
2.978886291384696960e-02
1.843326911330223083e-02
1.745795458555221558e-02
3.549931570887565613e-02
5.172213073819875717e-03
1.941465958952903748e-02
-1.603120937943458557e-02
4.437442413518510875e-08
3.967960923910140991e-02
-2.260314859449863434e-02
-6.950465030968189240e-03
4.045501817017793655e-03
2.526316978037357330e-02
3.436201065778732300e-02
-2.474209107458591461e-02
1.579147297888994217e-03
1.063488237559795380e-02
1.467796508222818375e-02
3.933239728212356567e-03
4.993238486349582672e-03
-8.414134383201599121e-03
-5.390875507146120071e-03
-2.208107523620128632e-02
-1.476531010121107101e-02
-2.718903124332427979e-03
1.093017170205712318e-03
5.139499157667160034e-02
-2.665296196937561035e-02
5.276609957218170166e-02
-2.414238266646862030e-02
3.789220750331878662e-02
7.533444557338953018e-03
3.902607038617134094e-02
2.719648927450180054e-02
2.847765281330794096e-04
2.935501374304294586e-02
1.780576072633266449e-02
3.688083961606025696e-02
-1.295196916908025742e-02
-2.004763337026815861e-05
7.191845681518316269e-03
3.379420563578605652e-02
-3.931275755167007446e-02
1.270131301134824753e-02
-9.263464016839861870e-04
-6.663349270820617676e-02
-2.062896033748984337e-03
-2.897588070482015610e-03
-4.879066720604896545e-03
-2.006761060329154134e-04
1.488531567156314850e-02
-1.766918599605560303e-02
-1.133824046701192856e-02
5.139047745615243912e-03
1.935134641826152802e-02
3.287794068455696106e-02
-1.427010148763656616e-01
1.823214627802371979e-02
2.889759093523025513e-02
-1.034510228782892227e-02
3.568180603906512260e-03
5.974069610238075256e-02
-8.767191320657730103e-03
-4.437591135501861572e-02
5.018841009587049484e-03
4.115910083055496216e-02
3.177249431610107422e-02
-1.131793856620788574e-02
-5.002510733902454376e-03
-1.175313536077737808e-02
8.698480203747749329e-03
-3.417734317778808872e-09
-1.186454667845282529e-08
-6.934967637062072754e-02
-8.251397957792505622e-05
4.251536447554826736e-04
2.839323831722140312e-03
7.164205890148878098e-03
-2.868465613573789597e-03
-2.808233536779880524e-02
1.170705538243055344e-02
1.971628516912460327e-02
-3.453626856207847595e-02
4.239645786583423615e-03
-9.420859627425670624e-03
2.560217306017875671e-02
-1.945151761174201965e-02
1.051572151482105255e-02
1.102947443723678589e-02
-9.975032880902290344e-03
-5.238539539277553558e-03
-8.589944802224636078e-03
6.087885797023773193e-02
5.402033030986785889e-02
3.686557420223834924e-06
1.742389425635337830e-02
-2.099959738552570343e-02
-1.131779793649911880e-02
2.131567336618900299e-03
7.286792993545532227e-02
-4.641779232770204544e-03
2.070104088147672883e-08
2.483856678009033203e-02
2.475466206669807434e-02
1.892497017979621887e-02
-5.988579709082841873e-03
2.495062164962291718e-02
-2.313475683331489563e-02
4.197289794683456421e-02
2.393446117639541626e-02
-2.555501461029052734e-02
-2.053943462669849396e-02
-1.025961991399526596e-02
5.751036624701555411e-08
3.269527852535247803e-02
5.634087603539228439e-03
-2.295953780412673950e-02
-2.364747412502765656e-02
1.251224894076585770e-02
1.759886369109153748e-02
7.462151785375681357e-08
1.618316955864429474e-02
5.543030965782236308e-06
1.806803233921527863e-02
-1.653102226555347443e-02
7.017340976744890213e-04
-2.773967338725924492e-03
4.474771767854690552e-02
-5.440133437514305115e-02
6.076039001345634460e-02
1.430563349276781082e-02
-5.237119272351264954e-02
1.899213884826167487e-06
-6.548215448856353760e-02
3.705070540308952332e-02
2.772575244307518005e-03
-4.268324005352042150e-08
2.060050889849662781e-02
1.641934375129494583e-07
2.434418536722660065e-02
-2.347851404920220375e-03
4.513266496360301971e-03
-3.102414077147841454e-03
-1.342272851616144180e-03
4.065860435366630554e-02
1.227711420506238937e-02
1.212904416024684906e-02
-7.750299293547868729e-03
6.181435310281813145e-04
-7.277301512658596039e-03
1.126001905049633933e-07
5.970171093940734863e-02
-2.633538842201232910e-02
9.773747064173221588e-03
7.878567092120647430e-03
-2.331418357789516449e-02
-7.377407484909781488e-08
2.653093077242374420e-02
2.367288246750831604e-02
1.069885119795799255e-02
-1.587889529764652252e-02
7.211705204099416733e-03
2.295330353081226349e-02
5.288242828100919724e-03
-3.399238688871264458e-03
-2.827353961765766144e-02
2.388959430277282081e-08
-4.265566915273666382e-02
1.579233817756175995e-02
-2.361284568905830383e-02
8.065305650234222412e-03
-3.770452365279197693e-02
-7.082399861246813089e-06
4.363109916448593140e-02
-8.579121786169707775e-04
-6.096406280994415283e-02
-4.401717887958511710e-06
6.675248965620994568e-03
4.176934808492660522e-02
9.190575778484344482e-02
-9.737213142216205597e-03
5.909400060772895813e-03
-3.679814852830531891e-08
7.050492740745539777e-07
-1.435569208115339279e-02
-2.086246386170387268e-02
-2.345165703445672989e-03
2.255171071738004684e-03
-9.585703723132610321e-03
1.315926201641559601e-02
6.120969355106353760e-02
-1.518431492149829865e-02
-3.220115322619676590e-03
2.866105735301971436e-02
1.187750604003667831e-02
-6.212069094181060791e-02
-3.541830182075500488e-02
-1.415655482560396194e-03
3.808566555380821228e-02
1.082146167755126953e-02
4.676783457398414612e-02
-6.305423565208911896e-03
-1.444245129823684692e-02
-1.236108783632516861e-02
5.537123233079910278e-02
7.147083524614572525e-03
2.418820187449455261e-02
-1.970906741917133331e-02
9.066638536751270294e-03
-1.442848704755306244e-02
6.896999478340148926e-02
-1.311092823743820190e-02
-8.154220134019851685e-02
2.238218672573566437e-03
2.011610567569732666e-02
2.892695926129817963e-02
1.746152341365814209e-02
-3.336043300805613399e-05
2.892331592738628387e-02
-1.313802227377891541e-02
8.487342856824398041e-03
-4.519071429967880249e-03
-5.315015092492103577e-03
-3.340096270676440326e-07
1.198613736778497696e-02
-5.409273505210876465e-02
8.267165161669254303e-03
-4.242283105850219727e-02
3.123448416590690613e-02
-2.066706866025924683e-02
1.075374544598162174e-03
6.438146810978651047e-04
2.087242156267166138e-02
5.158705636858940125e-03
2.036821626916207606e-07
5.008551478385925293e-02
-1.366651616990566254e-02
-7.826508022844791412e-03
-4.173899069428443909e-03
-1.683894731104373932e-02
1.105307042598724365e-02
-8.420272730290889740e-03
-3.137046098709106445e-02
9.963217191398143768e-03
2.457409352064132690e-02
7.432222366333007812e-02
1.778796501457691193e-02
1.355060609057545662e-03
-5.700394467567093670e-06
-3.047593869268894196e-03
-4.644026048481464386e-03
1.215906486606854742e-08
4.964514076709747314e-02
2.700573098479708278e-09
1.211392320692539215e-02
-6.646603345870971680e-02
-4.643872380256652832e-02
1.383243966847658157e-02
-1.585121825337409973e-02
1.311382930725812912e-02
-2.665188349783420563e-02
1.405313052237033844e-02
3.267340734601020813e-02
4.401395869990665233e-07
-9.490849450230598450e-03
-4.798112809658050537e-02
-8.435360155999660492e-03
-5.295985192060470581e-02
-4.539362341165542603e-02
-2.036452759057283401e-03
3.554625436663627625e-03
-1.109416969120502472e-02
1.010869350284337997e-02
4.221432376652956009e-03
-3.103870712220668793e-02
1.359340827912092209e-02
-4.193382803350687027e-03
2.663192711770534515e-02
-8.682614192366600037e-03
-9.258122183382511139e-03
-1.499691698700189590e-02
3.793909400701522827e-02
-1.389860641211271286e-02
-1.287081278860569000e-02
4.311874136328697205e-02
-7.585207372903823853e-02
1.466004829853773117e-02
8.684908039867877960e-03
2.417385764420032501e-02
1.483394764363765717e-02
2.050826698541641235e-02
2.756507322192192078e-02
-6.362257152795791626e-02
-9.898462146520614624e-02
-1.320776995271444321e-02
-4.917579644825309515e-05
2.901631034910678864e-02
2.701150253415107727e-02
-9.965124540030956268e-03
-4.226570203900337219e-02
5.258731078356504440e-03
3.057463560253381729e-03
-5.123534705489873886e-03
4.138865321874618530e-02
-1.706670597195625305e-02
7.546729757450520992e-04
7.017378229647874832e-03
9.718836285173892975e-03
-2.463263273239135742e-02
2.170722698792815208e-03
-1.823762198910117149e-03
-1.804468780755996704e-02
3.456467017531394958e-02
8.050786331295967102e-03
4.286203533411026001e-02
2.489188313484191895e-02
2.004526369273662567e-02
-6.773756816983222961e-03
-2.146552316844463348e-02
-9.179315529763698578e-03
-5.699091404676437378e-02
-5.655961856245994568e-02
4.841236770153045654e-02
1.254645269364118576e-02
9.162641130387783051e-03
-6.825838703662157059e-03
-4.019874706864356995e-02
8.585912070202539326e-08
-2.705564661198422982e-08
-5.050012469291687012e-02
-5.153699748916551471e-05
1.570120453834533691e-02
-3.677845001220703125e-02
2.102534985169768333e-03
-6.508034467697143555e-02
2.514031901955604553e-02
-1.308101229369640350e-02
5.994783714413642883e-02
-1.533835078589618206e-03
9.095633029937744141e-02
-2.569479309022426605e-02
2.360822074115276337e-02
-7.309211883693933487e-03
6.101994309574365616e-03
7.642863201908767223e-04
5.778827704489231110e-03
-2.653450006619095802e-03
1.781303808093070984e-02
8.393576368689537048e-03
2.866277471184730530e-02
6.670310995104955509e-06
-7.819856400601565838e-04
6.539084017276763916e-02
-1.165813487023115158e-02
8.469962514936923981e-03
1.694229058921337128e-02
-3.313755616545677185e-03
1.407130501007713974e-08
3.588870633393526077e-03
2.493102848529815674e-02
-2.191306464374065399e-02
-1.692790305241942406e-03
3.520400077104568481e-02
2.119898982346057892e-02
-4.110863804817199707e-02
1.620898023247718811e-02
3.051681816577911377e-02
2.930768299847841263e-03
-9.771140292286872864e-03
-8.217760694151365897e-08
2.546530775725841522e-02
1.080529391765594482e-02
-1.396857667714357376e-02
4.767802730202674866e-02
-3.415720770135521889e-03
1.123736239969730377e-02
4.384102325616368034e-08
-1.241719722747802734e-02
1.009129360318183899e-02
-3.053781203925609589e-02
6.869334261864423752e-03
-4.558975633699446917e-04
1.294593326747417450e-02
7.505881600081920624e-03
-7.008752971887588501e-02
-9.771997574716806412e-04
5.310296546667814255e-04
7.331028580665588379e-02
-7.650255611224565655e-07
1.300351694226264954e-02
4.516525939106941223e-02
5.861888453364372253e-02
8.438454557335717254e-08
8.092082105576992035e-03
2.135550545290243463e-07
1.806060172384604812e-04
4.096681717783212662e-03
1.584019511938095093e-02
-1.922571100294589996e-03
-4.115835297852754593e-03
-6.753463298082351685e-02
-1.151782087981700897e-02
1.949637942016124725e-02
5.953622516244649887e-03
4.171084146946668625e-03
2.902997657656669617e-02
-1.305049011079972843e-07
4.250128194689750671e-02
2.113766409456729889e-02
1.969960518181324005e-02
-2.176437340676784515e-02
4.763685539364814758e-02
4.676933684777395683e-08
-4.813136183656752110e-04
7.567221298813819885e-03
-5.751184187829494476e-03
4.332354292273521423e-02
-2.027199976146221161e-02
1.157653052359819412e-02
1.533531025052070618e-02
-6.965306121855974197e-03
-4.571090638637542725e-02
3.422951522225048393e-08
-2.673687972128391266e-02
-2.454902045428752899e-02
3.335041180253028870e-02
7.603683043271303177e-03
-7.053555455058813095e-03
-6.454967206082073972e-06
2.940757898613810539e-03
-1.730374805629253387e-02
4.033059254288673401e-02
7.708108569204341620e-06
-3.556841984391212463e-02
3.870586678385734558e-02
6.370032578706741333e-02
-1.428341586142778397e-02
7.446897681802511215e-03
-1.302000214309373405e-07
-8.241142523957023514e-08
2.062364108860492706e-02
-4.184160381555557251e-02
-4.305516183376312256e-02
-4.758497327566146851e-02
4.596777725964784622e-03
-3.537254408001899719e-03
2.192522026598453522e-02
-1.659115217626094818e-02
-5.005905032157897949e-02
1.175275072455406189e-02
2.354052849113941193e-02
-2.517426572740077972e-02
8.374214172363281250e-02
2.800978161394596100e-02
-9.274718165397644043e-02
1.702745072543621063e-02
-1.028156746178865433e-02
-1.554269343614578247e-02
-5.637957714498043060e-03
-4.967614950146526098e-05
-8.421863615512847900e-02
-3.456101985648274422e-03
-2.457249211147427559e-04
2.881294302642345428e-02
2.055024914443492889e-02
6.065048649907112122e-02
5.423570424318313599e-02
5.617232248187065125e-02
-1.083980780094861984e-02
1.307164691388607025e-02
-4.431131237652152777e-04
-5.388825014233589172e-02
-3.037407062947750092e-03
2.132857218384742737e-02
-1.428488641977310181e-02
1.473214384168386459e-02
2.259128913283348083e-02
2.488781139254570007e-02
-3.744115307927131653e-02
1.980909701160271652e-06
-2.441523037850856781e-02
-7.807682733982801437e-03
-1.089047073037363589e-04
5.650562234222888947e-03
-3.139336034655570984e-02
-1.251944433897733688e-02
-1.159790623933076859e-02
1.350575126707553864e-02
-4.134408384561538696e-02
6.846089847385883331e-03
3.382273803254065569e-07
2.127477526664733887e-02
2.463123295456171036e-03
-2.527777664363384247e-02
1.647835038602352142e-02
-1.684356853365898132e-02
9.340899996459484100e-03
8.862577378749847412e-03
3.747004317119717598e-03
3.229484893381595612e-03
-4.867956042289733887e-03
2.384398505091667175e-02
3.914370387792587280e-02
3.535234602168202400e-03
-2.816391315718647093e-06
-3.956705704331398010e-02
-4.364274442195892334e-02
1.959213165036999271e-07
1.471421681344509125e-02
-1.957199913249496603e-08
-1.018933369778096676e-03
1.000408083200454712e-02
-4.306915402412414551e-02
2.047750167548656464e-03
1.461635064333677292e-02
-2.769416384398937225e-02
3.491500392556190491e-02
5.942657124251127243e-03
-1.342903263866901398e-02
5.484006138090080640e-08
-3.117557801306247711e-02
-9.211982041597366333e-02
7.151894271373748779e-02
3.008148632943630219e-02
-2.802794799208641052e-03
-2.537015825510025024e-05
-5.330117419362068176e-02
1.478933822363615036e-02
-6.561064627021551132e-03
5.634228698909282684e-03
2.779495669528841972e-03
1.836340501904487610e-02
1.561871729791164398e-02
1.378783583641052246e-02
-2.891500713303685188e-03
-6.869219709187746048e-03
-1.811033301055431366e-02
1.190152578055858612e-02
-2.448203228414058685e-02
-9.352376312017440796e-02
5.161718931049108505e-03
1.596972644329071045e-01
2.485456410795450211e-03
8.311862475238740444e-04
-2.902412787079811096e-02
-2.187228389084339142e-02
-1.344661507755517960e-02
8.567571640014648438e-03
-3.711547702550888062e-02
-4.526897333562374115e-03
1.546746678650379181e-02
-2.193030923081096262e-05
-8.217558264732360840e-02
6.037914659827947617e-03
1.908635348081588745e-02
1.014185231178998947e-02
3.024747408926486969e-02
1.573169720359146595e-03
1.099238824099302292e-02
7.052155584096908569e-02
-5.751718580722808838e-02
-4.736138973385095596e-03
4.499604459851980209e-03
-3.693668916821479797e-02
3.488447144627571106e-02
-2.373040420934557915e-03
3.012594999745488167e-03
1.961800269782543182e-02
-2.379422821104526520e-02
1.604671031236648560e-02
-1.765059540048241615e-03
1.684060320258140564e-02
-2.573096659034490585e-03
-1.178995613008737564e-02
1.039949245750904083e-02
1.120012346655130386e-02
1.228408422321081161e-02
1.688441261649131775e-02
-2.557317726314067841e-02
1.676260679960250854e-02
1.894168928265571594e-02
1.370629575103521347e-02
-3.793621063232421875e-02
9.257422561859129928e-07
-5.374638334387782379e-08
1.767867244780063629e-02
2.206183562520891428e-04
1.647833734750747681e-02
5.860459990799427032e-03
2.142557501792907715e-02
-6.447183340787887573e-02
-5.784143228083848953e-03
-5.287367850542068481e-02
-1.930131390690803528e-02
-2.367017418146133423e-02
-1.478625577874481678e-03
9.755823761224746704e-02
5.078746005892753601e-02
4.730883985757827759e-03
-3.957194089889526367e-02
-7.537139579653739929e-03
7.482566405087709427e-03
-7.565480470657348633e-02
7.628653943538665771e-02
-4.824152216315269470e-03
-1.069337408989667892e-02
6.458970347011927515e-06
1.339619327336549759e-02
-1.090327464044094086e-02
4.548626486212015152e-03
2.476704306900501251e-02
-1.273834705352783203e-02
-1.256301812827587128e-02
8.908054383027774747e-08
-3.876462951302528381e-02
-7.277130614966154099e-03
1.919000223278999329e-02
8.640430867671966553e-03
-1.389931701123714447e-02
4.613633081316947937e-02
-8.926281332969665527e-02
-5.447458010166883469e-03
6.310067605227231979e-03
1.151944324374198914e-02
4.080032557249069214e-02
-2.183331959670908873e-09
-3.091325610876083374e-02
2.981065213680267334e-02
2.134009636938571930e-02
-1.810985617339611053e-02
3.709710389375686646e-02
-2.311891148565337062e-04
1.243034546405397123e-07
1.670290715992450714e-02
4.795974586158990860e-03
-3.380415961146354675e-02
-1.149284187704324722e-03
5.827710847370326519e-04
9.260536171495914459e-03
6.346621084958314896e-03
-1.730687101371586323e-03
-1.423146482557058334e-02
-1.005162298679351807e-01
2.128101326525211334e-02
4.345720753917703405e-06
-4.332739859819412231e-02
-2.128515020012855530e-02
-1.039419788867235184e-02
4.146824892359290970e-07
4.359678924083709717e-02
5.870720656275807414e-07
6.732667796313762665e-03
-1.847774349153041840e-02
-1.438333746045827866e-02
2.794861793518066406e-04
-8.656680001877248287e-04
1.901940815150737762e-02
-8.202116936445236206e-03
-2.477990835905075073e-02
-1.858038455247879028e-02
5.159361287951469421e-02
-2.103858441114425659e-02
1.598123411383767234e-08
-4.621807485818862915e-03
1.147467456758022308e-02
-1.991049945354461670e-02
-1.547159999608993530e-02
-5.986384581774473190e-03
-6.741807823118506349e-08
3.122047754004597664e-03
2.436777390539646149e-02
1.873715408146381378e-02
-1.857931027188897133e-03
2.088720910251140594e-02
3.099411167204380035e-02
-6.463083438575267792e-03
-7.932094740681350231e-04
6.520290859043598175e-03
4.999860792054278136e-08
6.150444969534873962e-03
-3.052079118788242340e-02
3.429396450519561768e-02
-3.030466102063655853e-02
-1.003018952906131744e-02
-4.959749730915063992e-06
-6.317328661680221558e-03
-4.649323225021362305e-02
-1.848028041422367096e-02
-6.382898573065176606e-05
-1.209072116762399673e-02
-2.813330292701721191e-02
-5.309482105076313019e-03
2.260511182248592377e-02
-3.356226952746510506e-03
3.245277113705924421e-08
1.241557356479461305e-06
-3.058002516627311707e-02
-2.003433182835578918e-02
-8.827540092170238495e-03
2.609666064381599426e-02
-5.392484832555055618e-03
1.315421890467405319e-03
-9.271952323615550995e-03
-5.104603478685021400e-04
2.168020047247409821e-02
1.543815154582262039e-02
5.031048133969306946e-02
-2.800795063376426697e-02
2.380083128809928894e-02
3.605311736464500427e-02
2.580187981948256493e-03
3.560007363557815552e-02
-1.599891483783721924e-02
5.254283081740140915e-03
-1.677135191857814789e-02
2.736775577068328857e-02
-1.444443827494978905e-03
-2.773904940113425255e-03
2.748904051259160042e-03
3.908885270357131958e-02
8.140488527715206146e-03
9.482727386057376862e-03
2.427454851567745209e-02
2.500617690384387970e-02
-4.672386869788169861e-02
8.442196995019912720e-03
1.760596223175525665e-02
3.354317159391939640e-04
4.144588857889175415e-02
-4.184095561504364014e-02
1.743840798735618591e-02
-4.798944573849439621e-03
7.466939091682434082e-02
1.307419501245021820e-02
1.426512748003005981e-02
4.197432645014487207e-06
4.589968826621770859e-03
1.414525229483842850e-02
-3.080956451594829559e-02
-9.292040951550006866e-03
1.043311059474945068e-01
2.905027009546756744e-02
8.215213194489479065e-03
1.433666795492172241e-02
8.102440275251865387e-03
1.189265283755958080e-03
5.282300321596267167e-07
9.155061841011047363e-02
-3.446859121322631836e-02
-1.008873246610164642e-02
8.225765079259872437e-03
7.733484357595443726e-02
2.387501485645771027e-02
-1.559944171458482742e-02
-1.408546511083841324e-02
3.489176975563168526e-03
4.768306761980056763e-02
2.105163596570491791e-02
3.717878367751836777e-03
2.663941588252782822e-03
3.285128968855133280e-06
-2.928228117525577545e-03
-1.190317608416080475e-02
4.310679457830701722e-07
-6.237701699137687683e-02
-3.966587058812365285e-09
7.681070826947689056e-03
1.297728251665830612e-02
-1.355794444680213928e-02
1.891375519335269928e-02
-3.792862966656684875e-02
3.153343498706817627e-02
-7.574519142508506775e-03
4.584014415740966797e-03
8.010486140847206116e-03
-8.023603186302352697e-07
-2.504340000450611115e-02
2.520685084164142609e-02
-7.426781579852104187e-03
3.032928146421909332e-02
-1.141093578189611435e-02
-2.862829528748989105e-02
-2.176919253543019295e-03
2.390427282080054283e-03
1.226356159895658493e-02
2.043778449296951294e-02
8.892774581909179688e-02
-2.674469165503978729e-02
2.398023568093776703e-02
1.508165616542100906e-02
1.606673933565616608e-02
7.070501305861398578e-05
-2.602214366197586060e-02
4.488252475857734680e-02
4.885498434305191040e-02
-1.208397559821605682e-02
6.116380542516708374e-02
-3.238275274634361267e-02
-5.830277130007743835e-02
3.406727686524391174e-02
-3.257322590798139572e-03
8.026889525353908539e-03
3.680163994431495667e-02
-5.574713461101055145e-03
-3.511888440698385239e-03
-8.647766895592212677e-03
3.081352449953556061e-02
2.815000925693311729e-06
1.768669299781322479e-02
1.389400940388441086e-02
-1.268685911782085896e-03
4.252820089459419250e-02
1.604811754077672958e-03
4.563424363732337952e-02
-1.675421185791492462e-02
-6.665914505720138550e-02
-6.966480519622564316e-03
1.136609259992837906e-02
1.360291801393032074e-02
6.721281912177801132e-03
4.571482539176940918e-03
9.294656338170170784e-04
7.401256822049617767e-03
5.539541319012641907e-02
1.153627783060073853e-02
-1.526329014450311661e-02
2.425939962267875671e-02
6.300453096628189087e-03
-8.634355850517749786e-03
1.381386350840330124e-02
3.993558883666992188e-02
-4.530981928110122681e-02
-1.309977099299430847e-02
6.708060950040817261e-02
-2.905968017876148224e-02
4.833147395402193069e-03
4.300964530557394028e-03
2.394310384988784790e-02
-2.097252942621707916e-02
2.555628100253670709e-07
-2.337671389796014410e-09
-2.778865024447441101e-02
1.565267448313534260e-04
5.430059041827917099e-03
2.239720337092876434e-02
1.761161908507347107e-02
-1.972832903265953064e-02
2.014211751520633698e-02
-4.421675577759742737e-02
-7.098694890737533569e-02
-5.742396414279937744e-02
-1.038303482346236706e-03
-2.180208265781402588e-02
-5.126131232827901840e-03
-7.927590981125831604e-03
-3.647160157561302185e-02
8.930593729019165039e-03
-2.010303921997547150e-02
1.838002167642116547e-02
-2.801805548369884491e-02
3.889246610924601555e-03
-2.088982379063963890e-03
4.475576133700087667e-06
4.682031273841857910e-02
-8.059966377913951874e-03
-7.940711826086044312e-02
1.506561879068613052e-02
-1.630845852196216583e-02
-7.049889117479324341e-02
5.645341971671768988e-08
1.275639049708843231e-02
-9.913366287946701050e-03
1.904493942856788635e-02
-4.827606957405805588e-03
-1.583752594888210297e-02
-6.265115737915039062e-02
2.969461865723133087e-02
-7.370243780314922333e-03
-6.232251413166522980e-03
-2.819225005805492401e-02
-2.778017334640026093e-02
3.947357285483121814e-08
2.424576878547668457e-02
2.516391454264521599e-03
-4.497932642698287964e-02
-1.359574962407350540e-03
-2.507188543677330017e-02
-4.644446598831564188e-04
-4.425674404728852096e-08
7.108158618211746216e-02
3.314230125397443771e-03
5.713440943509340286e-03
-8.815450593829154968e-03
-1.886143145384266973e-04
1.098134089261293411e-02
2.588141709566116333e-02
-1.278093922883272171e-02
4.670562595129013062e-02
3.232828155159950256e-02
-2.316045574843883514e-02
3.345288860145956278e-06
-9.082641452550888062e-02
-3.493517264723777771e-02
5.581468343734741211e-03
1.173922825614681642e-07
2.459352649748325348e-02
1.483276861335980357e-07
-8.103153668344020844e-03
-2.156035974621772766e-03
4.844387061893939972e-03
-2.285813447088003159e-03
-1.517818192951381207e-03
1.748216152191162109e-02
2.362508326768875122e-02
-3.007620945572853088e-02
3.823506832122802734e-02
-8.373940363526344299e-03
-3.125608339905738831e-02
6.341996794390070136e-08
-5.935554578900337219e-02
-1.586073637008666992e-02
1.107788830995559692e-02
4.095999151468276978e-02
-5.762061104178428650e-02
1.342487507827172522e-07
2.967120520770549774e-02
-7.726871222257614136e-02
-7.170761004090309143e-03
-3.154305741190910339e-02
3.832401707768440247e-02
-7.743643224239349365e-02
3.571737930178642273e-02
2.758637815713882446e-02
-3.850978240370750427e-02
-1.891972978285139106e-08
-2.361736260354518890e-02
-1.254745200276374817e-02
1.923055760562419891e-02
-5.079568549990653992e-02
-1.948253810405731201e-02
-1.037142192217288539e-05
8.740354329347610474e-02
1.520685944706201553e-02
-3.249269723892211914e-02
1.545829218230210245e-05
-5.967465043067932129e-02
3.037010878324508667e-02
-6.711080670356750488e-02
1.426806859672069550e-02
-2.133411727845668793e-02
-1.705228953596815700e-07
6.857298444629122969e-07
1.436785422265529633e-02
2.078457549214363098e-02
7.367092650383710861e-03
2.758080139756202698e-02
8.055967278778553009e-03
-6.196137983351945877e-04
-6.017048284411430359e-02
-6.201556324958801270e-02
1.575685665011405945e-02
3.182142227888107300e-02
-5.581666156649589539e-02
2.793010137975215912e-02
-4.537141323089599609e-02
2.094519510865211487e-02
-9.273220784962177277e-03
9.114136919379234314e-03
-4.886722564697265625e-02
5.588946864008903503e-03
-5.001519620418548584e-02
2.792183682322502136e-02
-9.850154630839824677e-03
-3.731345990672707558e-03
5.479038134217262268e-02
-1.798589155077934265e-02
6.840884685516357422e-03
-1.624024473130702972e-02
-7.387985289096832275e-02
-2.369962632656097412e-02
-5.331128090620040894e-02
1.192496065050363541e-02
5.042272433638572693e-02
-4.972805269062519073e-03
-2.618593908846378326e-02
5.597617849707603455e-02
4.649051651358604431e-02
-4.032531380653381348e-02
-1.752154086716473103e-03
2.125296741724014282e-02
-1.209225691854953766e-02
3.040386900465819053e-06
-1.966323703527450562e-02
-3.568741679191589355e-02
-4.244415462017059326e-02
-5.791485309600830078e-02
8.458161726593971252e-03
4.362747713457792997e-04
-8.462188765406608582e-03
-3.827680647373199463e-02
9.992885403335094452e-03
1.298459991812705994e-02
3.535835730872349814e-07
8.168368041515350342e-02
3.612690046429634094e-02
3.289786726236343384e-02
-1.795124262571334839e-02
-6.899731606245040894e-02
3.161506354808807373e-02
-5.301445489749312401e-04
-5.258366838097572327e-02
1.573178544640541077e-02
1.165412832051515579e-02
-4.634539037942886353e-02
9.870094805955886841e-02
1.887125335633754730e-02
2.669425384738133289e-06
-3.616894781589508057e-02
4.981901124119758606e-02
1.955075674686668208e-07
5.574327707290649414e-02
4.205979209359611559e-08
4.517134279012680054e-02
-1.469712145626544952e-02
-1.108999736607074738e-02
-1.775508979335427284e-03
-3.321431577205657959e-02
2.105192840099334717e-02
-8.812682935968041420e-04
-5.221072584390640259e-03
3.994228690862655640e-02
-1.708218566598418420e-10
1.247267145663499832e-02
-1.549843978136777878e-02
2.910515060648322105e-03
-3.658632561564445496e-02
-3.266378492116928101e-02
-1.787254214286804199e-02
-1.313749328255653381e-02
-2.038342878222465515e-02
-1.038882415741682053e-02
2.219866588711738586e-02
-2.035857737064361572e-02
1.468047592788934708e-02
7.807153463363647461e-02
3.692359849810600281e-02
6.007746607065200806e-02
7.811479270458221436e-03
-3.339607268571853638e-02
-1.850720867514610291e-02
-7.854376733303070068e-02
1.305595226585865021e-02
2.744673192501068115e-02
-5.092247948050498962e-02
-1.975249126553535461e-02
6.365870125591754913e-03
-1.566022261977195740e-02
1.007194817066192627e-02
1.859267987310886383e-02
3.862915094941854477e-03
-1.474880799651145935e-02
-3.683785721659660339e-02
-5.676222592592239380e-02
-8.173839887604117393e-05
-3.841286990791559219e-03
5.207108333706855774e-02
-3.211798146367073059e-02
-6.647540628910064697e-02
-1.596475951373577118e-02
3.399264067411422729e-02
-1.180212013423442841e-03
-8.842893876135349274e-03
-6.033662334084510803e-02
8.476675488054752350e-03
-1.951768435537815094e-02
3.912641108036041260e-02
-1.335072796791791916e-02
-8.517706883139908314e-04
-2.408260293304920197e-02
1.231088675558567047e-02
-2.238416578620672226e-03
1.926689967513084412e-02
1.118538156151771545e-02
2.920455113053321838e-02
4.984918609261512756e-02
1.774585247039794922e-02
1.313552632927894592e-02
8.859943598508834839e-02
7.589847082272171974e-04
3.774480521678924561e-02
-3.181228041648864746e-02
9.630435146391391754e-03
-5.637781694531440735e-03
1.012249942868947983e-02
-3.829376399517059326e-02
7.224939508887473494e-07
-1.668532756404772499e-09
-1.111723668873310089e-02
1.268426858587190509e-04
4.755654372274875641e-03
5.076943337917327881e-02
4.582356289029121399e-02
2.740753069519996643e-02
1.912824437022209167e-02
2.609009109437465668e-02
7.899793982505798340e-02
-1.829084591008722782e-03
5.476600024849176407e-03
6.429879367351531982e-02
4.491703957319259644e-02
-5.370134604163467884e-04
2.849694574251770973e-03
-2.839750796556472778e-02
-3.622814780101180077e-03
6.668106466531753540e-02
5.514513328671455383e-02
-1.865907572209835052e-02
5.804580450057983398e-02
1.152289769379422069e-05
2.438103035092353821e-02
-1.364339049905538559e-02
-6.112505216151475906e-03
-1.771300844848155975e-02
-1.001639384776353836e-02
-2.525832317769527435e-02
5.269223279924517556e-09
-7.137061096727848053e-03
2.382918901275843382e-04
-2.412442862987518311e-02
8.288713870570063591e-04
3.200190607458353043e-03
8.813888579607009888e-02
9.773637354373931885e-02
-2.076948992908000946e-02
-5.228407680988311768e-02
5.340858828276395798e-03
6.182416900992393494e-02
-1.716117803418626409e-09
-2.943454869091510773e-02
6.380315753631293774e-04
2.056118659675121307e-02
1.052582543343305588e-02
-2.024466637521982193e-03
6.718419026583433151e-03
-2.685852784622966283e-08
2.991181053221225739e-02
-1.196932420134544373e-02
-1.092553790658712387e-02
1.154972799122333527e-02
1.024342491291463375e-03
-5.097080022096633911e-03
-2.836327301338315010e-03
-9.129754267632961273e-03
1.120649557560682297e-02
6.602646410465240479e-02
-5.251287017017602921e-03
3.321521717225550674e-06
-4.955742880702018738e-02
-1.091701909899711609e-02
-3.659065114334225655e-03
4.568651945646706736e-07
1.739307679235935211e-02
7.247223834383476060e-07
-5.373919848352670670e-03
1.168893557041883469e-02
-3.062315843999385834e-02
5.516986857401207089e-05
8.136761025525629520e-04
1.011692360043525696e-02
-4.864606540650129318e-03
-4.136168211698532104e-02
9.982740739360451698e-04
3.679505735635757446e-02
-1.419779751449823380e-02
1.982302322289797303e-08
7.551601529121398926e-02
-9.242489002645015717e-03
-4.861297493334859610e-04
9.180661290884017944e-02
7.453547324985265732e-03
1.240671849700447638e-07
-1.835993304848670959e-02
9.113701060414314270e-03
2.046775771304965019e-03
-1.314164511859416962e-02
2.230677753686904907e-03
8.246609009802341461e-03
3.536878526210784912e-02
3.638760000467300415e-02
-1.885040290653705597e-02
2.415773892039396742e-08
-3.306349366903305054e-02
3.799570258706808090e-03
5.353132262825965881e-03
2.434455044567584991e-02
2.092922851443290710e-02
-3.055534534723847173e-06
-5.634710937738418579e-02
2.303272299468517303e-02
3.713477170094847679e-03
-1.000873908196808770e-05
4.075691103935241699e-02
8.181858807802200317e-03
-1.188802905380725861e-02
3.724297136068344116e-02
-8.893833495676517487e-03
4.094994565662091190e-08
9.809814400796312839e-07
4.603362083435058594e-02
8.146039210259914398e-03
1.083723641932010651e-02
1.329695619642734528e-02
-5.707812495529651642e-03
7.827575318515300751e-03
3.114487789571285248e-02
-8.703353814780712128e-03
1.611601747572422028e-02
-5.193155258893966675e-02
3.019437566399574280e-02
5.442494060844182968e-03
2.925522252917289734e-02
2.077166363596916199e-02
7.970824837684631348e-03
-1.332045719027519226e-02
6.191958673298358917e-03
-1.545921526849269867e-02
9.142584167420864105e-03
9.863785468041896820e-03
2.220958657562732697e-02
1.499125640839338303e-02
1.963288150727748871e-02
-3.408042341470718384e-02
-7.974585518240928650e-03
5.215854570269584656e-02
-3.287870809435844421e-02
1.685188710689544678e-02
-1.708042062819004059e-02
-1.095928903669118881e-02
-1.390549587085843086e-03
-6.678432691842317581e-03
2.233973704278469086e-02
9.328003227710723877e-02
7.110428530722856522e-03
-6.320597138255834579e-03
3.743110969662666321e-02
2.595564816147089005e-03
2.988051064312458038e-02
8.370426257897634059e-06
5.975240375846624374e-03
5.384818068705499172e-04
-4.614815115928649902e-02
-1.591310650110244751e-02
1.062341406941413879e-02
3.677243366837501526e-02
-3.380353003740310669e-02
5.952208861708641052e-02
7.534008473157882690e-02
-3.597424924373626709e-02
9.550753929943311960e-07
-5.890507996082305908e-02
1.162766851484775543e-02
-1.505523640662431717e-02
-5.646321922540664673e-03
8.975986391305923462e-02
-1.328312978148460388e-02
1.140664331614971161e-02
1.463084109127521515e-02
1.014072168618440628e-02
1.530346344225108624e-03
6.732800602912902832e-02
3.183108195662498474e-02
1.938065141439437866e-02
4.401596925163175911e-06
-2.339773252606391907e-02
1.686904579401016235e-02
6.707755346724297851e-07
1.893424987792968750e-02
3.140501902976211568e-08
-2.234620414674282074e-02
5.930862855166196823e-03
8.606241899542510509e-04
2.169973589479923248e-02
6.074165925383567810e-02
4.763347283005714417e-02
9.439674206078052521e-03
3.215546952560544014e-03
6.929012481123209000e-03
-2.623121275746598258e-08
3.337560221552848816e-02
1.057516131550073624e-02
-2.145162969827651978e-02
7.347507029771804810e-02
-3.034377470612525940e-02
-7.158596999943256378e-03
1.595483534038066864e-02
1.995724160224199295e-03
-7.445699069648981094e-03
1.341574708931148052e-03
1.297262310981750488e-02
-2.949147671461105347e-02
-3.445997461676597595e-02
-4.960003495216369629e-02
-8.726643398404121399e-03
5.068972241133451462e-03
2.357304096221923828e-02
-1.019851863384246826e-02
3.498974069952964783e-02
-2.106873504817485809e-02
2.743473090231418610e-02
-2.706105448305606842e-02
-3.355783224105834961e-02
-1.913459971547126770e-03
-2.035861648619174957e-02
7.883413694798946381e-03
3.003197489306330681e-03
-1.020148117095232010e-02
-1.084829773753881454e-02
1.944392919540405273e-02
5.550735071301460266e-02
2.679774070202256553e-06
-1.205723453313112259e-02
4.546082019805908203e-02
-2.329774200916290283e-02
2.071026153862476349e-02
1.677492819726467133e-02
-1.467980723828077316e-02
-1.409284677356481552e-02
-2.464174851775169373e-02
-2.638378646224737167e-03
3.817852702923119068e-04
-9.819854982197284698e-03
4.394089058041572571e-02
1.338016055524349213e-02
-5.379105452448129654e-03
-4.441755358129739761e-03
-3.241397812962532043e-02
-6.739494204521179199e-02
-4.136076197028160095e-02
7.232217118144035339e-03
-4.423610493540763855e-02
-6.925950292497873306e-03
2.697792835533618927e-02
-2.389358542859554291e-02
-1.207368168979883194e-02
-2.257459238171577454e-02
3.246205300092697144e-02
-1.093554124236106873e-02
-6.651043891906738281e-03
-9.284284897148609161e-03
2.662715129554271698e-02
3.861883655190467834e-02
1.862272824837418739e-07
1.399412363767282841e-09
5.597241222858428955e-03
2.368698769714683294e-04
3.952134028077125549e-02
3.602460771799087524e-02
-9.490520693361759186e-03
-5.203106626868247986e-02
1.505664363503456116e-02
-4.194897413253784180e-02
-2.133735455572605133e-02
-4.535745829343795776e-02
-1.741681806743144989e-02
-1.006445754319429398e-02
-3.579353541135787964e-02
-1.700886152684688568e-02
-4.391387850046157837e-02
2.388667315244674683e-03
-1.719257794320583344e-02
-2.695879340171813965e-02
3.259556740522384644e-02
-1.367340236902236938e-02
-6.708088517189025879e-02
-1.493778086114616599e-06
-2.755608968436717987e-02
-2.346600592136383057e-02
3.673118725419044495e-02
-9.435197338461875916e-03
-5.850473884493112564e-03
3.963831067085266113e-02
-1.846754393852734211e-08
-5.316913127899169922e-02
-4.423523321747779846e-02
-3.255918249487876892e-02
3.830669913440942764e-03
2.001499058678746223e-03
1.054110191762447357e-02
-4.370177537202835083e-02
-3.066424280405044556e-02
2.669957466423511505e-02
-1.351382955908775330e-02
-2.318083075806498528e-03
-1.600747268071245344e-08
6.077229510992765427e-03
-1.062011159956455231e-02
6.347783654928207397e-02
-2.600763365626335144e-02
-1.733245514333248138e-02
-5.149840936064720154e-02
4.625826477422378957e-08
5.103294923901557922e-02
-8.446002379059791565e-03
-1.411476545035839081e-02
-3.216996847186237574e-04
-3.709845477715134621e-04
1.135593652725219727e-02
5.074282735586166382e-02
-7.552705705165863037e-03
3.685465082526206970e-03
-5.854676291346549988e-02
9.567704983055591583e-03
1.252826109521265607e-06
-4.154041409492492676e-02
-9.911304339766502380e-03
7.055586902424693108e-04
-1.337645372245788167e-08
-1.111666858196258545e-02
3.292528560905338963e-08
-2.458548545837402344e-02
-5.343673750758171082e-02
-3.059728257358074188e-02
-5.029888416174799204e-05
2.726471866481006145e-04
-1.706224982626736164e-03
8.508790284395217896e-03
-3.383199125528335571e-02
-4.366990551352500916e-02
5.079948157072067261e-02
-4.975380003452301025e-02
1.829963593991124071e-07
-3.279192745685577393e-02
-2.003663219511508942e-02
2.946227090433239937e-03
-2.053780853748321533e-02
2.368440851569175720e-02
-5.263428093371658179e-08
2.456857636570930481e-02
1.624575443565845490e-02
-2.955191582441329956e-02
-5.260608345270156860e-02
1.941449195146560669e-02
2.812928147614002228e-02
2.599249780178070068e-02
7.823663204908370972e-02
-3.300283849239349365e-02
-5.501132882557158155e-09
2.723318990319967270e-03
-1.933015324175357819e-02
-4.208691045641899109e-02
-4.223265498876571655e-02
2.153708599507808685e-02
-1.147220700659090653e-05
-8.727001026272773743e-03
-9.038866497576236725e-03
-5.902867298573255539e-03
-1.201570703415200114e-04
-1.405221316963434219e-02
-1.193605922162532806e-02
-2.656624838709831238e-02
-4.353246465325355530e-02
2.142329700291156769e-02
-2.423859370992431650e-07
4.529893260496464791e-07
-7.702898234128952026e-02
1.029982883483171463e-02
-2.536741551011800766e-03
-2.341682277619838715e-02
-1.463574077934026718e-02
-2.152369730174541473e-02
-7.455888390541076660e-02
4.250303655862808228e-02
-6.771890912204980850e-03
1.022635260596871376e-03
8.175995200872421265e-03
-7.390947081148624420e-03
-3.377190604805946350e-02
1.447176467627286911e-02
3.076127497479319572e-03
-2.673379704356193542e-02
-6.399610638618469238e-02
8.440186269581317902e-03
-3.307249024510383606e-02
1.237517222762107849e-02
1.140353269875049591e-02
-2.735830098390579224e-02
3.923105075955390930e-03
5.587738007307052612e-02
-2.593417279422283173e-02
-5.148541182279586792e-02
2.019256539642810822e-02
-1.261235680431127548e-02
3.260358050465583801e-02
1.491887844167649746e-03
-3.023000434041023254e-02
-7.382291369140148163e-03
-2.715171501040458679e-02
5.160910077393054962e-03
-9.855302050709724426e-03
1.791088096797466278e-02
2.187130227684974670e-02
-1.096920168492943048e-04
-2.806472219526767731e-02
9.123455129156354815e-07
-3.129138052463531494e-02
-1.003221794962882996e-02
-1.908953068777918816e-03
-3.540161252021789551e-02
3.758880123496055603e-02
-1.121050771325826645e-02
-3.274566726759076118e-03
-3.654854372143745422e-02
2.769541181623935699e-02
3.105528466403484344e-02
-1.010484353969332005e-07
6.964910775423049927e-02
-4.380264505743980408e-02
2.948288992047309875e-02
-7.987690158188343048e-03
7.081506773829460144e-03
2.726946398615837097e-02
-3.932829201221466064e-02
-1.866721920669078827e-02
-8.232404477894306183e-03
-1.067389850504696369e-03
-1.927910745143890381e-02
3.876439481973648071e-02
-6.316850427538156509e-03
-2.204544244932549191e-07
-1.912459731101989746e-03
-5.211158469319343567e-02
3.085036581751410267e-08
-9.153492003679275513e-02
8.661828587719355710e-08
8.267357945442199707e-03
-8.421584963798522949e-03
-2.445196174085140228e-02
-6.347511429339647293e-03
-2.256735973060131073e-02
-1.335382461547851562e-02
-2.672180533409118652e-03
-1.900718547403812408e-02
5.898737534880638123e-02
1.510043716734799091e-07
-5.060313269495964050e-02
-2.050025202333927155e-02
-2.593399025499820709e-02
-1.981713995337486267e-02
2.609854005277156830e-02
-3.929472714662551880e-02
-1.957582496106624603e-02
-1.503088604658842087e-02
-3.131552133709192276e-03
-4.008074756711721420e-03
5.342045333236455917e-03
-1.036598999053239822e-02
4.875665158033370972e-02
1.844930835068225861e-02
-2.336462214589118958e-02
2.950566820800304413e-03
-3.926227986812591553e-02
1.878674700856208801e-02
7.059525698423385620e-02
5.565472878515720367e-03
-1.114001311361789703e-02
-2.112122066318988800e-02
1.397785078734159470e-02
-1.273718290030956268e-02
-2.449646778404712677e-02
3.158438019454479218e-03
-1.025778334587812424e-02
-2.310947701334953308e-02
1.983632333576679230e-03
-5.725705064833164215e-03
3.814889490604400635e-02
-6.364648015733109787e-06
3.406872740015387535e-03
1.630069129168987274e-02
-2.174666151404380798e-02
-9.966841898858547211e-04
-3.661460056900978088e-02
-1.416529994457960129e-02
1.425492111593484879e-02
-7.668952643871307373e-02
-4.452084004878997803e-02
-6.970379967242479324e-03
5.512268282473087311e-03
7.187490700744092464e-04
-6.925182789564132690e-02
2.784276613965630531e-03
4.425567458383738995e-04
1.489898189902305603e-02
1.020337641239166260e-02
1.063541322946548462e-02
-1.223579887300729752e-02
2.624765597283840179e-02
-4.257670138031244278e-03
-2.509010257199406624e-03
1.633056555874645710e-03
-4.014699533581733704e-02
1.189395226538181305e-02
4.125035181641578674e-02
2.669154200702905655e-03
-1.759755611419677734e-02
-4.504546988755464554e-03
-4.633913934230804443e-02
-6.476998329162597656e-03
5.734501655751955695e-07
3.480256793864100473e-08
-4.590323939919471741e-02
5.897303708479739726e-05
2.852944657206535339e-03
-6.235569599084556103e-04
6.704663392156362534e-03
-5.243184044957160950e-03
-7.171045057475566864e-03
1.889613829553127289e-02
6.847754120826721191e-02
-3.106600604951381683e-03
3.655349602922797203e-03
1.674195006489753723e-02
6.389368325471878052e-02
2.192608639597892761e-02
-7.419495843350887299e-03
-9.908857755362987518e-03
1.209778711199760437e-02
5.783857405185699463e-02
6.983294337987899780e-02
-6.146288663148880005e-02
1.797320879995822906e-02
6.138203843875089660e-06
4.278121888637542725e-02
-7.009943015873432159e-03
7.026813179254531860e-02
4.292115196585655212e-02
-2.126617170870304108e-02
-4.793846048414707184e-03
1.044054176446707061e-08
4.029753152281045914e-03
-1.224388950504362583e-03
1.104161981493234634e-02
3.341347211971879005e-03
2.747943252325057983e-02
3.410189971327781677e-02
5.718624219298362732e-03
3.239327296614646912e-02
-1.328804809600114822e-02
1.322484388947486877e-02
2.454519644379615784e-02
2.021283584952016099e-08
-1.018930785357952118e-02
3.460180014371871948e-03
6.010651704855263233e-04
-2.797913551330566406e-02
1.408648095093667507e-03
7.766737136989831924e-03
-2.933629694723549619e-08
1.071661803871393204e-02
7.479607011191546917e-04
-5.986938625574111938e-02
-9.027264080941677094e-03
8.591455407440662384e-04
-2.525405585765838623e-02
1.616181991994380951e-02
2.953850477933883667e-02
-1.728942617774009705e-02
3.428140655159950256e-02
7.682088017463684082e-02
9.001587955026479904e-07
-8.507506921887397766e-03
6.474978756159543991e-03
-1.136936992406845093e-02
3.233138556879566750e-07
-4.445550031960010529e-03
5.999768291076179594e-07
-6.476371549069881439e-03
6.976004689931869507e-02
6.554988212883472443e-03
-2.417366340523585677e-04
9.922694880515336990e-04
-4.970845766365528107e-03
-1.693697087466716766e-02
-7.029239553958177567e-03
7.154979743063449860e-03
2.115214057266712189e-02
-6.706275045871734619e-03
-2.710620172763356095e-08
5.018527433276176453e-02
2.905637770891189575e-02
2.707334049046039581e-02
-7.523333188146352768e-03
1.076303571462631226e-01
1.076450217851743218e-07
1.027236040681600571e-02
-1.182150933891534805e-02
-3.197362413629889488e-03
1.031034160405397415e-03
2.014957927167415619e-02
1.006789412349462509e-02
1.474718796089291573e-03
1.748828031122684479e-02
3.862734138965606689e-02
-1.839252128377211193e-08
-3.580795228481292725e-02
-2.907399274408817291e-02
2.731376886367797852e-02
-1.054177526384592056e-03
9.370720013976097107e-03
-6.117491579971101601e-07
-5.497717764228582382e-03
-1.799199543893337250e-02
1.059984788298606873e-01
5.867507206858135760e-05
-2.673626877367496490e-02
-1.262216549366712570e-02
1.430242601782083511e-02
5.561424419283866882e-02
9.769247844815254211e-03
4.596578051518918073e-08
3.117198730251402594e-07
4.544291645288467407e-02
4.415096342563629150e-02
2.064584009349346161e-02
-7.895742543041706085e-03
3.155184211209416389e-03
2.965377457439899445e-02
1.870119944214820862e-02
-1.303847786039113998e-02
-3.473058808594942093e-03
-2.335123904049396515e-02
3.368189930915832520e-02
-4.081562906503677368e-02
-1.565801911056041718e-02
-6.552624981850385666e-03
-1.966989226639270782e-02
6.818555295467376709e-03
1.166433934122323990e-02
-1.439730077981948853e-02
9.692098200321197510e-02
2.866923343390226364e-03
-5.412588361650705338e-03
-8.637846331112086773e-04
2.318673767149448395e-02
1.905433461070060730e-02
8.900984190404415131e-03
1.895870454609394073e-02
-3.671829029917716980e-02
3.926777839660644531e-02
-4.753693938255310059e-02
-4.408481996506452560e-03
2.544477768242359161e-02
-5.803744122385978699e-02
-4.034111741930246353e-03
3.832926601171493530e-02
-8.623235858976840973e-03
9.621340781450271606e-03
2.841381914913654327e-02
6.331774406135082245e-03
3.596267476677894592e-02
4.198126134724589065e-06
-4.647788405418395996e-02
4.215789586305618286e-02
1.427015569061040878e-02
6.624492816627025604e-03
1.295488211326301098e-03
-9.233896271325647831e-04
-1.802053116261959076e-02
9.573910385370254517e-02
3.427951782941818237e-02
-2.004796173423528671e-03
8.055510534177301452e-07
1.807991601526737213e-02
1.766124553978443146e-02
6.534480489790439606e-04
1.578529016114771366e-03
8.786947466433048248e-03
-1.156008150428533554e-02
-1.477055833674967289e-03
-9.767918847501277924e-03
2.909734379500150681e-03
-3.044866723939776421e-03
-5.226978100836277008e-04
-7.989443838596343994e-03
-3.243176266551017761e-03
1.406703063366876449e-06
-2.723766677081584930e-02
-2.000345475971698761e-02
5.002811462873069104e-07
3.813681751489639282e-02
5.153647286704199360e-09
-1.195496041327714920e-02
-2.229045517742633820e-02
3.349045291543006897e-04
3.541549295186996460e-02
1.190791372209787369e-02
-1.793806324712932110e-03
1.697512157261371613e-02
-5.727652460336685181e-03
-8.969868533313274384e-03
-3.568647244378553296e-08
1.928151585161685944e-03
3.950314596295356750e-02
-1.725572347640991211e-02
4.020601627416908741e-04
9.824726730585098267e-04
1.957583054900169373e-02
1.446821819990873337e-02
3.924263641238212585e-03
-1.524649281054735184e-02
-1.228705793619155884e-02
1.306558400392532349e-02
-1.083999872207641602e-02
-1.219923421740531921e-02
-4.065716173499822617e-03
-1.104541681706905365e-02
1.904982025735080242e-03
1.804171130061149597e-02
1.091642584651708603e-02
3.707845462486147881e-03
-1.801890786737203598e-03
5.784911569207906723e-03
1.385506149381399155e-02
-1.221663551405072212e-03
1.027371175587177277e-02
6.271980702877044678e-02
-2.899841777980327606e-02
1.780396513640880585e-02
9.087357670068740845e-03
8.546969294548034668e-02
-5.769968777894973755e-02
2.912802807986736298e-02
7.443984031851869076e-06
-2.339723147451877594e-02
2.938885986804962158e-02
-1.018394902348518372e-02
2.760502696037292480e-02
-1.087344344705343246e-02
-1.917475089430809021e-02
-1.213035825639963150e-02
-2.821706421673297882e-02
-6.793498527258634567e-03
-9.724698960781097412e-03
-8.282554335892200470e-03
-3.140125796198844910e-02
2.158748172223567963e-02
-9.358316892758011818e-04
5.073997192084789276e-03
5.395102128386497498e-02
-1.733256038278341293e-03
4.127269858145155013e-05
1.438389718532562256e-02
6.600470747798681259e-03
-1.313504856079816818e-02
-1.023662276566028595e-02
6.758038699626922607e-02
2.202992886304855347e-02
-1.730256713926792145e-02
7.702849060297012329e-02
-1.200759201310575008e-03
-8.306456729769706726e-03
1.541021000593900681e-02
2.631097286939620972e-02
-2.204170823097229004e-02
-9.875594031427681330e-08
-1.029130647367537676e-08
-3.584191203117370605e-02
1.906001270981505513e-04
-1.793232187628746033e-02
3.475051745772361755e-02
-1.073748688213527203e-03
-3.918449580669403076e-02
-3.611181303858757019e-02
7.718482520431280136e-03
3.085645101964473724e-02
7.387245423160493374e-04
5.080325528979301453e-02
3.821968287229537964e-02
3.908278886228799820e-03
-5.472321528941392899e-03
2.591541502624750137e-03
3.368124598637223244e-04
6.122916471213102341e-03
2.723598154261708260e-03
1.896202564239501953e-02
-1.190769486129283905e-02
2.447455190122127533e-02
-1.479477987231803127e-06
3.668287396430969238e-02
-7.542818784713745117e-03
2.422642707824707031e-02
4.600387439131736755e-02
1.770389080047607422e-02
-1.086903084069490433e-02
-4.593676550257441704e-08
-2.065285108983516693e-03
2.316850237548351288e-02
1.980127394199371338e-02
1.670903409831225872e-03
4.041158780455589294e-02
-1.628554309718310833e-03
1.459126546978950500e-02
1.430016197264194489e-02
-1.754288747906684875e-02
1.618534699082374573e-02
7.833521813154220581e-03
-1.137376193227623844e-09
-1.677902229130268097e-02
3.429276123642921448e-02
-1.951005123555660248e-02
-1.497550308704376221e-02
5.266292765736579895e-02
1.259200554341077805e-02
-2.933464600118895760e-07
5.287815257906913757e-02
-2.784053236246109009e-02
-3.069690614938735962e-02
-1.312975771725177765e-02
8.237811271101236343e-04
2.053038333542644978e-04
5.125876143574714661e-02
1.421189773827791214e-02
3.052131272852420807e-02
3.101811744272708893e-03
4.041141644120216370e-02
-8.554040391572925728e-07
-6.936980038881301880e-02
3.487933799624443054e-02
2.017674222588539124e-02
-5.777934219963754003e-08
-4.454422369599342346e-02
1.395452216002013301e-07
-1.513460651040077209e-02
2.116331830620765686e-02
-1.446679234504699707e-02
-5.503137363120913506e-04
1.108834519982337952e-03
3.180751949548721313e-02
-4.528639372438192368e-03
-3.238304704427719116e-02
-2.200474031269550323e-03
1.424928894266486168e-03
1.086832769215106964e-02
3.531818322244362207e-07
2.215040847659111023e-02
3.927654586732387543e-03
-9.749609977006912231e-03
-1.399148162454366684e-02
1.043266383931040764e-03
-8.953159635893825907e-08
-9.691896848380565643e-03
8.228120394051074982e-03
1.367574650794267654e-02
-4.041945189237594604e-02
7.462841924279928207e-03
1.371999096591025591e-04
4.273307975381612778e-03
1.152932085096836090e-02
-6.957248318940401077e-03
-2.900705986519369617e-08
-1.399159990251064301e-02
1.037989463657140732e-02
-2.716589160263538361e-02
6.733630597591400146e-02
-3.527158638462424278e-03
-9.060954653250519186e-07
-2.323345653712749481e-02
-2.490057051181793213e-02
3.594031184911727905e-02
-8.163887287082616240e-06
3.586418181657791138e-02
2.474456839263439178e-02
7.576885633170604706e-03
6.411073356866836548e-02
1.832314394414424896e-02
-1.005384788754781766e-07
7.034136615402530879e-07
7.599792629480361938e-02
1.028607785701751709e-02
6.371639668941497803e-03
-7.606373634189367294e-03
-6.394461728632450104e-03
1.509477104991674423e-02
1.974818482995033264e-02
8.235556306317448616e-04
3.178817406296730042e-02
-6.968223024159669876e-03
5.433798581361770630e-02
1.093682739883661270e-02
3.625071793794631958e-02
-4.443282261490821838e-02
1.243456453084945679e-02
-4.210466891527175903e-02
1.713143847882747650e-02
3.300675656646490097e-03
2.189990505576133728e-02
-1.226899027824401855e-02
1.060737762600183487e-02
-5.826121196150779724e-02
8.478404022753238678e-03
2.782671153545379639e-02
1.522620674222707748e-02
-9.592250920832157135e-03
2.665007952600717545e-03
1.976764574646949768e-02
-9.551228582859039307e-02
-5.161230918020009995e-03
8.046912401914596558e-02
-2.020908519625663757e-03
9.520630352199077606e-03
3.276735544204711914e-02
2.267255634069442749e-02
5.362663883715867996e-03
-3.898409893736243248e-03
-1.035993266850709915e-02
-8.398668840527534485e-03
1.655951962220569840e-07
5.274231545627117157e-03
-4.208050295710563660e-02
1.181541476398706436e-03
-1.491209398955106735e-02
2.443625964224338531e-02
1.001674309372901917e-02
-7.394152693450450897e-03
5.253535509109497070e-02
3.404021635651588440e-02
3.969663754105567932e-03
-1.615055680304067209e-07
2.523606643080711365e-02
2.967039123177528381e-02
2.233071997761726379e-02
-3.400193527340888977e-02
-3.406947106122970581e-02
2.506218105554580688e-02
3.491032123565673828e-02
8.281310088932514191e-03
1.038182433694601059e-02
2.516068704426288605e-02
7.567908614873886108e-02
-5.302733276039361954e-03
-3.377364715561270714e-03
5.257164730210206471e-07
1.382395811378955841e-02
-3.775525465607643127e-02
1.272544558617028088e-08
3.820105269551277161e-02
-4.252783725178232999e-08
5.128825828433036804e-02
4.709279455710202456e-04
1.592649705708026886e-02
4.233435541391372681e-02
-1.244245003908872604e-02
3.040724806487560272e-02
2.230219542980194092e-02
2.792705968022346497e-02
7.187870889902114868e-02
5.384263204177841544e-07
5.217006546445190907e-04
3.189525008201599121e-02
2.564848633483052254e-03
-1.124302390962839127e-02
-1.376691274344921112e-02
3.351806197315454483e-03
5.029457621276378632e-03
5.401815287768840790e-03
2.319837920367717743e-02
-2.554756030440330505e-02
5.918781086802482605e-02
1.625565625727176666e-02
-2.296687476336956024e-02
-6.529399752616882324e-02
-1.769667491316795349e-02
1.868944615125656128e-02
-4.862758517265319824e-02
7.382833957672119141e-02
8.158682845532894135e-03
-1.139475312083959579e-02
6.109128519892692566e-02
-8.229150436818599701e-03
-4.358831210993230343e-04
1.193530019372701645e-02
2.767024561762809753e-02
2.831972762942314148e-02
4.343843832612037659e-02
-9.167611598968505859e-03
-5.403741076588630676e-02
3.386921063065528870e-02
8.615688234567642212e-02
-1.447176600777311251e-05
-3.445344278588891029e-03
-4.753876943141222000e-03
-3.054147213697433472e-02
2.686672843992710114e-02
-2.701476216316223145e-02
-1.294282637536525726e-02
1.973115466535091400e-02
3.564153984189033508e-02
-1.356774289160966873e-02
3.759602407171769300e-09
-1.273494465436897372e-08
-1.224574575076076144e-08
2.167418688969746654e-09
2.237484864053840283e-08
1.783639724806107552e-08
2.716566083194038583e-09
-2.069285853778524142e-09
-9.023229274873756367e-09
-1.373831448603368699e-08
1.259411686049816126e-08
1.621798695339293772e-08
-6.151346543248337184e-09
3.730291908699001624e-10
5.055310836610260594e-09
8.823124453272157552e-09
2.463552206677377399e-08
-1.000181093502305885e-08
2.574900470619922999e-08
-1.143618644228183712e-09
-9.017512070386146661e-09
2.790217612513856693e-09
4.790294827472507677e-09
-6.823166476266351310e-09
1.249745995579587543e-08
-2.650671016013461667e-09
-5.237837275018364380e-09
-3.075801613405815260e-09
-9.323931848825850466e-09
-2.162761525426049047e-08
-8.432539111424830480e-09
-4.659950647578625649e-09
1.069280664012239868e-08
2.090739847915301652e-08
7.968752768761078187e-09
1.463065046891642851e-08
1.048928144342653468e-08
9.827983760146707937e-09
-5.701590755080587769e-09
-3.983725793688108752e-09
-1.726933973600353056e-08
-1.646193514837079874e-09
4.532986208616307522e-10
-1.382337444510994828e-08
1.775144831128727674e-08
1.984962416656799178e-08
-6.315315825844436404e-09
2.102427210104451660e-08
2.073524107970570185e-08
2.083893280158122252e-09
1.813103267522819806e-08
-2.485664563067757626e-09
-8.909013970992418763e-09
5.037893213710731288e-09
-8.103953064164670650e-09
-2.069805304927285761e-08
1.505114965993925580e-08
-3.393790137806718121e-09
9.987791038668092369e-09
-2.113417912896764506e-10
1.341320121639455465e-08
-5.625250820706639843e-10
-2.914518404395494144e-09
2.097661067068656848e-08
-1.838553131960907194e-08
1.834261742494902592e-09
6.365220794890547040e-09
-5.064726416037501622e-09
-4.809526998883484339e-09
-9.530620737052686309e-09
1.705436147858563345e-08
2.822454714390687514e-09
1.308296582180901169e-09
5.726417562357255520e-09
-7.665708956494654558e-09
-1.834931318001054024e-08
3.196952258477381292e-09
2.080163596929196501e-08
8.156271213977106527e-10
8.468511225601105252e-09
7.273305513422201329e-09
1.869764121309458460e-09
-1.617936118414320390e-09
3.163492223734465369e-08
-3.609117227298952457e-09
2.344134886200777146e-10
7.376572241923895490e-09
1.617405409604089073e-08
-9.396709188536078727e-09
1.583617681433224789e-08
-4.208318582499259719e-09
3.456264252577057050e-08
-4.998170322068062887e-09
3.063850684270619240e-08
-1.212969991115642188e-08
9.193333205814724352e-09
1.633821522517564517e-09
-1.742969502060986997e-08
-8.436426002234043153e-10
1.222506451625804402e-08
1.702302832029545243e-08
1.531634552520699799e-08
8.966221654027606291e-10
4.932521502354347831e-09
-3.793913627703204838e-09
-1.620616707498356845e-08
-9.703790659898459126e-09
-1.626922818687148720e-09
2.021866007950734456e-09
1.540487915008270647e-08
3.680050708609883259e-09
1.037455188424019070e-08
-1.252263270856701638e-08
7.035785287712315039e-09
2.096152762476322096e-08
-8.625947067741890351e-09
9.978729842430311692e-09
1.100240432094778953e-08
7.513729194386087329e-09
1.884599143409104727e-08
1.925980441797037201e-08
1.380321967836550812e-09
-1.517273862106094384e-09
1.325147547248661795e-08
-8.853700883548754064e-09
8.386622063483173406e-09
8.131300077707237506e-09
2.615197391975243590e-09
1.163068930054578232e-08
7.467038543040871446e-09
-5.862369700793124139e-09
1.837786633984705986e-08
1.526883508518039889e-08
1.498549195844134374e-08
1.575113017793228209e-08
-8.080534463772437448e-09
3.768122203151591521e-10
-1.472674426850062446e-08
-1.233084656604432894e-08
-1.898573298575456647e-09
-1.272588701084487184e-08
-2.544463306719535467e-08
4.219327998100652621e-09
2.721370906400011336e-09
6.395376228596205692e-09
6.260477469766101422e-09
1.775813274207393988e-08
-7.014388514470226710e-10
-4.074738768622410134e-09
7.145541047748338315e-09
1.751076261768957920e-08
3.602694878535039891e-11
-6.758768211767574030e-09
-8.108014704077959323e-09
-1.293169127336568636e-08
-1.464652732430238302e-09
-1.709975078201253496e-10
1.056957099621058660e-08
-2.691219247452636409e-09
1.476612254691644921e-08
1.850958386562240321e-09
1.332465471293176051e-09
-3.935060721715899490e-09
-2.138789056971290847e-08
1.624198731065007451e-08
2.415001087996415663e-09
1.370926150379148112e-09
-1.633113733134905488e-08
4.819976862080466162e-09
5.249631396253562343e-09
-8.185825350892628194e-09
3.087160393988597207e-08
3.277210725016743709e-09
5.649690049125410951e-09
3.583351926295108569e-08
1.012978323444713169e-08
-5.723480800412517056e-09
-5.395424995668918200e-09
-2.982119218231105151e-09
1.175277919429618123e-08
1.425620865802557091e-08
-9.428821279300336755e-09
-1.124320903045372688e-08
2.584621627832461854e-09
-2.134543874987571144e-09
6.641545091667921952e-09
6.769182103738557998e-09
-6.975950483933957003e-09
-2.862279480098095519e-08
-1.209531053092405273e-08
1.215611789007198240e-08
7.969842563682050240e-09
-4.602557446276023256e-09
1.073291144848553813e-08
2.220438766187271540e-08
-4.209767645591000473e-09
1.314299602483970375e-08
-1.928694359776272904e-08
8.244540161683744373e-09
1.997439014189694717e-08
-4.173338119528580137e-09
-2.343741201116245065e-08
2.500184059783805424e-08
4.570622547106495404e-09
-1.147628481135143375e-08
-4.865027936062915614e-09
-8.176671784099198703e-09
-4.161170519267898271e-09
3.973410211965955341e-10
-6.587542511482524787e-09
5.565233274218428505e-10
-2.247718011716415276e-09
1.728403020706537063e-08
7.576161920042068232e-13
-2.413964805825230542e-09
1.108957992101977652e-08
-1.583626207946053910e-08
1.365143775799992909e-09
2.956376699003726571e-09
1.796382820273834113e-09
-8.218029812212535035e-09
-1.805623289774516138e-10
-1.633526314215316688e-09
2.107276797502777299e-09
3.403601400719935555e-09
2.945974797441408555e-09
-2.410899480054240485e-09
7.308774030434506130e-09
2.058252945857930172e-08
-8.727329969815400545e-09
1.458186904557123853e-09
9.168155679084577514e-10
2.195292697626527456e-10
-1.326076137786458276e-09
-1.153699180633793731e-08
-1.160592177917862955e-09
-8.636715342902334669e-09
-2.237087670664550387e-08
-7.148290848135729902e-09
2.107438135112715827e-08
2.409357602317641067e-09
8.826401831640851015e-09
5.312754236541650243e-09
-6.367746330226964346e-09
-1.270155802757244601e-08
-5.505755851231697307e-09
3.961506678251680569e-08
1.640247404566252953e-08
2.186479619581405132e-08
2.350894767744193814e-08
7.629877174508692406e-09
1.354993894864264803e-08
-1.602499644093313691e-08
-9.924367105895726127e-09
-4.587168422887089037e-09
-1.418095241234595960e-08
-3.168328898027539253e-03
-1.206987071782350540e-02
-1.845475099980831146e-02
-2.653460716828703880e-03
1.517746364697813988e-03
-2.646811492741107941e-02
-4.485442116856575012e-02
6.518577784299850464e-02
-1.720849610865116119e-02
-1.316925883293151855e-02
-1.993953809142112732e-02
3.984212130308151245e-02
1.784499362111091614e-02
7.005190942436456680e-03
-4.451718553900718689e-02
4.944321885704994202e-02
-8.098070509731769562e-03
-5.129046738147735596e-02
-3.638845682144165039e-02
-4.213088750839233398e-02
2.379182167351245880e-02
-3.301572799682617188e-02
-1.188787237538235786e-07
4.927465724335888808e-08
-5.619365256279706955e-03
2.512107857910450548e-05
-2.524549374356865883e-03
8.969064801931381226e-02
-1.233431859873235226e-03
3.103256784379482269e-02
-1.247256901115179062e-02
-1.579488441348075867e-02
8.076420053839683533e-03
8.588783442974090576e-02
-3.869618475437164307e-02
-2.351721562445163727e-02
-2.096019852615427226e-05
1.896258792839944363e-03
-6.272024940699338913e-03
-6.350688170641660690e-03
-1.318602822721004486e-03
-4.551834240555763245e-02
3.997979313135147095e-02
6.986410170793533325e-02
-1.083332928828895092e-03
-2.797840352286584675e-06
1.219647098332643509e-02
3.473169729113578796e-02
8.426533080637454987e-03
-1.373019162565469742e-02
-3.243005648255348206e-02
5.180376768112182617e-02
2.204049209808545129e-08
-2.126001752912998199e-03
-1.464784983545541763e-02
-3.707551956176757812e-02
1.154389465227723122e-03
-4.701054655015468597e-03
3.867362439632415771e-02
-1.853217184543609619e-02
1.596765778958797455e-02
-4.013371467590332031e-02
-3.036340884864330292e-02
8.504232391715049744e-03
-1.982221142782236711e-08
-1.228684745728969574e-02
-1.060726400464773178e-02
-2.527285367250442505e-02
1.013268437236547470e-02
1.603423245251178741e-02
2.904999535530805588e-03
-1.300007994586849236e-07
-1.377919036895036697e-02
-8.602729067206382751e-03
4.616517107933759689e-03
-1.117911748588085175e-02
-5.354222957976162434e-04
-1.484613516367971897e-03
-2.281167171895503998e-02
2.655621431767940521e-02
5.384981166571378708e-03
-7.142857182770967484e-03
2.212048508226871490e-02
-1.310476136495708488e-06
3.274369612336158752e-02
6.998083088546991348e-03
-1.209989748895168304e-02
-5.174663186835459783e-08
-1.019932888448238373e-02
-3.457188668676280940e-08
-1.162702869623899460e-02
-2.842053957283496857e-02
-3.652114421129226685e-02
-4.225425946060568094e-04
1.261542201973497868e-03
-2.476621419191360474e-02
-1.066235732287168503e-02
-1.776755601167678833e-02
-5.987590178847312927e-03
-4.067585803568363190e-03
4.272273555397987366e-02
1.977088714966157568e-07
-1.705507561564445496e-02
1.507523655891418457e-02
-1.338066346943378448e-02
-2.826167456805706024e-02
6.391512230038642883e-03
-4.046175305916221987e-08
-1.305015641264617443e-03
-6.994096189737319946e-02
8.129104971885681152e-03
2.504636533558368683e-03
-2.627724967896938324e-02
3.151745721697807312e-02
-5.579756945371627808e-02
8.054054528474807739e-02
7.688262499868869781e-03
-4.734301395359352682e-09
-5.509073287248611450e-02
3.572386875748634338e-02
1.440271176397800446e-02
2.981321699917316437e-02
3.693528845906257629e-02
-1.087826149159809574e-05
-7.237853854894638062e-02
-4.039674997329711914e-02
-8.681304752826690674e-03
7.275122334249317646e-05
5.755730345845222473e-02
-7.270722836256027222e-02
-3.134643658995628357e-02
-1.868663169443607330e-02
1.521416008472442627e-03
6.404413710470180376e-08
9.744346129991754424e-08
5.858995951712131500e-03
-2.628130838274955750e-02
3.937106579542160034e-02
-1.894793385872617364e-04
-8.347912691533565521e-03
-9.577266173437237740e-04
-4.519915953278541565e-02
4.207776859402656555e-02
-3.331381082534790039e-02
-5.232647527009248734e-03
1.592854969203472137e-02
7.450648397207260132e-02
1.237046159803867340e-02
1.479963213205337524e-02
2.643252955749630928e-03
-1.057978067547082901e-02
2.850889973342418671e-02
2.475414797663688660e-02
2.026448026299476624e-02
-1.980541087687015533e-02
2.942356653511524200e-02
-5.081715062260627747e-03
2.005190588533878326e-02
3.144281357526779175e-02
8.090829476714134216e-03
-4.172198823653161526e-04
-2.765120007097721100e-02
2.929848618805408478e-02
3.715946152806282043e-02
-1.121724769473075867e-02
-2.772034890949726105e-02
2.860921631508972496e-05
2.530314028263092041e-02
-2.966376952826976776e-02
2.757645957171916962e-02
2.584970369935035706e-02
-1.199476420879364014e-02
4.322672262787818909e-03
-1.025541103444993496e-03
-1.986722963920328766e-06
-2.173041924834251404e-02
6.957477331161499023e-02
3.140207007527351379e-02
4.552415385842323303e-02
2.563998335972428322e-03
1.898787915706634521e-02
-6.049802992492914200e-03
1.774311251938343048e-02
-2.948808670043945312e-02
6.778994575142860413e-03
-1.526350672520493390e-07
-3.548242896795272827e-02
-1.018023025244474411e-02
-1.118768751621246338e-02
1.019885577261447906e-02
3.314377740025520325e-02
-8.093646727502346039e-03
-1.322586834430694580e-02
1.937605068087577820e-02
-2.909965347498655319e-03
2.206041011959314346e-03
-1.248293649405241013e-02
-7.762951310724020004e-03
1.424826029688119888e-02
1.095229777092754375e-06
9.547182358801364899e-03
7.837871462106704712e-02
-5.810917969029105734e-09
-1.381077896803617477e-02
1.997222476290971827e-08
-2.639673836529254913e-02
9.913798421621322632e-03
-6.086650770157575607e-03
7.264459971338510513e-03
-6.262374669313430786e-02
2.029176801443099976e-02
-4.274104721844196320e-04
2.119176834821701050e-02
2.137585543096065521e-02
2.163846772873512236e-07
1.927883550524711609e-02
3.603722155094146729e-02
3.202374279499053955e-02
1.161089353263378143e-02
-7.266055792570114136e-02
-2.737646736204624176e-02
4.315933585166931152e-02
1.669281907379627228e-02
-5.372692365199327469e-03
-1.165643054991960526e-02
-1.742711849510669708e-02
-1.640691421926021576e-02
-2.292504347860813141e-02
-1.666352711617946625e-02
-1.732947863638401031e-02
-3.298260504379868507e-03
-3.091905266046524048e-03
-1.765591651201248169e-02
-3.981104493141174316e-02
1.160272676497697830e-02
-2.901795785874128342e-03
-1.761095784604549408e-02
-7.442748639732599258e-03
-1.306590391322970390e-03
9.805205278098583221e-03
-8.902329020202159882e-03
5.443301983177661896e-03
-3.260814771056175232e-02
-1.340244431048631668e-02
-1.693204790353775024e-02
7.208738010376691818e-03
-8.813703061605338007e-06
-1.209038402885198593e-02
-4.853372275829315186e-02
-3.649756312370300293e-02
-4.904268309473991394e-03
-6.153594236820936203e-03
-8.093064650893211365e-03
-3.708273870870471001e-03
-1.372366696596145630e-01
5.585085228085517883e-02
9.534888900816440582e-03
2.431178232654929161e-03
-1.119050197303295135e-02
-3.379481611773371696e-03
-1.939218142069876194e-03
-2.534089144319295883e-03
1.613357104361057281e-02
5.399176850914955139e-03
7.697284687310457230e-03
-1.183273363858461380e-02
4.270924627780914307e-02
6.577309966087341309e-02
-1.386860664933919907e-02
1.536728697828948498e-03
6.196265295147895813e-02
3.564867004752159119e-02
1.376958447508513927e-03
-5.360365286469459534e-02
-3.284699097275733948e-02
7.148282602429389954e-03
1.633348315954208374e-02
2.351371385157108307e-02
9.827151359331764979e-08
1.004956562411507548e-09
-2.067867666482925415e-02
2.485890290699899197e-04
-7.415881846100091934e-03
-1.982685364782810211e-02
9.280497906729578972e-04
3.121067211031913757e-02
-8.532438427209854126e-03
9.985879063606262207e-03
-7.608332205563783646e-03
-2.495900914072990417e-02
1.896302960813045502e-02
1.874029822647571564e-02
-1.522294245660305023e-02
-2.524460852146148682e-02
-2.166065387427806854e-04
-5.259215366095304489e-03
-6.304970011115074158e-03
1.066473722457885742e-01
-4.388931766152381897e-02
-1.145366951823234558e-02
3.289558365941047668e-02
1.278526497117127292e-06
2.808319218456745148e-02
-2.443915046751499176e-02
-3.240768611431121826e-02
2.246220130473375320e-03
-4.224684555083513260e-03
1.535712275654077530e-02
1.397688631499249823e-08
-1.722132042050361633e-02
6.283475551754236221e-03
-2.403085865080356598e-02
-4.006752278655767441e-03
-3.034134581685066223e-02
7.280570454895496368e-03
1.575404219329357147e-02
3.468404337763786316e-02
-2.214225940406322479e-02
3.355044871568679810e-02
9.053450077772140503e-03
2.290530254356326623e-08
7.794946432113647461e-03
2.368084900081157684e-02
-3.388180583715438843e-02
-4.203219711780548096e-02
1.621353998780250549e-02
1.607287116348743439e-02
-1.141381957836529182e-07
-1.425504568032920361e-03
-8.536319248378276825e-03
1.083084265701472759e-03
-1.263283751904964447e-02
9.660776122473180294e-04
-2.416442893445491791e-02
-1.019575446844100952e-02
-2.827418036758899689e-02
2.098842523992061615e-02
5.005520209670066833e-02
-1.143163349479436874e-02
3.558231355782481842e-06
