5.791870877146720886e-02
-2.084589898586273193e-01
-1.096663996577262878e-01
-1.063571218401193619e-02
-5.205717682838439941e-02
-1.732623949646949768e-02
-5.540059879422187805e-03
-2.087626606225967407e-01
8.013325743377208710e-03
-4.051309525966644287e-01
2.586492709815502167e-02
-9.468261897563934326e-02
9.572972357273101807e-02
-9.167049341840538546e-08
9.935531765222549438e-03
-4.499011486768722534e-02
5.564036220312118530e-02
2.214927598834037781e-02
-1.455658823251724243e-01
-2.415301203727722168e-01
-6.798356771469116211e-03
8.130093663930892944e-02
9.794235229492187500e-03
2.354208752512931824e-02
1.049406230449676514e-01
7.569590210914611816e-02
-1.455235760658979416e-03
2.358410060405731201e-01
-4.581603035330772400e-02
-4.414710029959678650e-02
-1.797639876604080200e-01
1.580735202878713608e-03
-1.049220487475395203e-01
-9.861548244953155518e-02
1.944785192608833313e-02
-1.021039783954620361e-01
2.773203551769256592e-01
-1.426895409822463989e-01
-2.282643169164657593e-01
1.412949804216623306e-02
-1.962947696447372437e-01
-2.303882390260696411e-01
-1.021584048867225647e-01
-1.903992593288421631e-01
2.946242988109588623e-01
-2.235439751530066133e-06
-1.161783710122108459e-01
-1.021343365437132888e-07
1.067912429571151733e-01
-2.520676255226135254e-01
-6.519049406051635742e-02
-7.523245178163051605e-03
1.440278440713882446e-01
-7.378537952899932861e-02
2.819996774196624756e-01
-1.958072781562805176e-01
-6.029659971318324097e-08
3.922663629055023193e-01
9.557113051414489746e-02
1.174206584692001343e-01
-1.653157360851764679e-02
2.502367496490478516e-01
-1.616836041212081909e-01
9.611192159354686737e-03
