-1.164616847404431610e-07
3.803006932139396667e-02
3.518776297569274902e-01
1.242521926760673523e-01
2.716621756553649902e-01
3.488582074642181396e-01
2.893837094306945801e-01
1.505600064992904663e-01
-1.400178074836730957e-01
-8.916443586349487305e-02
-2.854265645146369934e-02
3.178853690624237061e-01
2.828293144702911377e-01
-3.436684980988502502e-02
-1.381374895572662354e-01
2.828848063945770264e-01
3.711867034435272217e-01
-1.095630675554275513e-01
2.203124612569808960e-01
-1.417006615156424232e-06
8.439219743013381958e-02
1.408834755420684814e-01
-4.223715141415596008e-02
4.285717904567718506e-01
1.098331809043884277e-01
1.742649525403976440e-01
1.696786433458328247e-01
-2.607089839875698090e-02
-5.606127902865409851e-02
-2.951821871101856232e-02
7.396966964006423950e-02
3.102435767650604248e-01
3.401461839675903320e-01
5.249525904655456543e-01
-2.860272768884897232e-03
-9.618586301803588867e-02
3.944666385650634766e-01
1.646877378225326538e-01
1.008528023958206177e-01
1.087542027235031128e-01
3.677698671817779541e-01
7.973495125770568848e-02
6.422508507966995239e-02
2.252916842699050903e-01
-5.557471513748168945e-02
-5.981994792819023132e-02
2.721712589263916016e-01
-2.280679941177368164e-01
3.871212303638458252e-01
-2.774936892092227936e-02
3.775925934314727783e-01
1.443939208984375000e-01
8.573615550994873047e-02
1.683152616024017334e-01
-4.106218460947275162e-03
2.031187899410724640e-02
-2.050811052322387695e-01
-4.945516213774681091e-02
-1.280701011419296265e-01
-6.694418843835592270e-03
-5.032367259263992310e-02
-4.708597245439705148e-08
-4.907710850238800049e-02
9.117307513952255249e-02
