3.997961059212684631e-03
5.011722911149263382e-03
-6.552775949239730835e-02
1.852840534411370754e-03
-4.924811422824859619e-02
2.548456657677888870e-03
6.334073841571807861e-02
-6.231500301510095596e-03
2.320396481081843376e-03
4.103299975395202637e-02
-1.360164768993854523e-02
9.211299568414688110e-02
5.150051787495613098e-02
8.347018621861934662e-03
-3.801429644227027893e-02
2.864239737391471863e-02
-3.298239782452583313e-02
-3.129273187369108200e-03
-9.635166078805923462e-02
2.464496530592441559e-03
1.819895952939987183e-02
1.131050667027011514e-04
6.348066776990890503e-02
1.944271475076675415e-02
-3.142022341489791870e-02
-5.562251061201095581e-02
5.388122517615556717e-03
1.032576244324445724e-02
3.825595369562506676e-03
-3.443222865462303162e-02
-1.969744917005300522e-03
7.835144177079200745e-03
2.712475880980491638e-02
1.125449016690254211e-01
9.435197710990905762e-02
1.097571998834609985e-01
-1.055809482932090759e-01
-2.260066941380500793e-02
3.306286642327904701e-03
3.210589988157153130e-03
-2.483781427145004272e-02
-2.368512935936450958e-02
-3.218870609998703003e-02
-7.117123156785964966e-02
3.129939362406730652e-02
4.125890508294105530e-02
2.126340754330158234e-02
-6.153209879994392395e-02
-1.149808838963508606e-01
5.938396975398063660e-02
1.295015029609203339e-02
9.278915077447891235e-02
-4.936326295137405396e-02
7.379626389592885971e-03
1.767075620591640472e-03
-4.171680193394422531e-03
1.454960405826568604e-01
-4.888290911912918091e-02
-7.720515131950378418e-02
-7.825325592420995235e-04
9.311201050877571106e-03
-4.048755392432212830e-02
3.315697656944394112e-03
6.069618836045265198e-02
-2.887175298837973969e-07
5.036976188421249390e-03
-6.141586229205131531e-02
3.657843545079231262e-02
-6.583850830793380737e-02
5.361544433981180191e-03
-4.399683326482772827e-02
-5.901325857848860323e-05
4.051219299435615540e-02
4.004271235316991806e-03
-8.462250232696533203e-03
7.270506024360656738e-02
4.085968807339668274e-02
-5.078707635402679443e-02
6.063716020435094833e-03
-1.815302670001983643e-02
2.034169621765613556e-03
5.160268768668174744e-02
8.617266081273555756e-03
9.742932766675949097e-02
1.242721527814865112e-01
9.121890366077423096e-02
5.481289699673652649e-02
-2.472212910652160645e-02
8.312078192830085754e-03
-2.729163272306323051e-03
1.133680460043251514e-03
9.366356767714023590e-03
1.919559552334249020e-03
6.608783733099699020e-03
9.504266083240509033e-02
5.257605388760566711e-02
5.915798712521791458e-03
-5.345029383897781372e-02
1.038227081298828125e-01
1.338305473327636719e-01
7.676193956285715103e-03
-3.788322283071465790e-05
-8.034508791752159595e-04
2.270438475534319878e-03
6.052515469491481781e-03
-3.099023364484310150e-02
-1.475727856159210205e-01
-3.109939210116863251e-02
1.791459508240222931e-03
1.739030145108699799e-02
2.539746463298797607e-03
1.162899807095527649e-01
2.408147789537906647e-03
4.411731846630573273e-03
5.333197489380836487e-02
-6.150051020085811615e-03
3.135316073894500732e-03
-3.352448344230651855e-03
5.490784067660570145e-03
3.504462540149688721e-03
-7.792779803276062012e-02
-1.322963386774063110e-01
-6.257613748311996460e-02
-5.292960559017956257e-04
-1.753557287156581879e-02
3.428997471928596497e-02
2.325603552162647247e-02
-7.766172057017683983e-04
-7.544866949319839478e-02
5.053097847849130630e-03
-4.001919552683830261e-02
-1.041453517973423004e-02
3.115986473858356476e-02
-1.594914309680461884e-02
-7.492621988058090210e-02
-1.889157481491565704e-02
-1.623928174376487732e-02
-5.351445823907852173e-02
5.523145198822021484e-02
-1.109628155827522278e-01
-4.431540518999099731e-02
2.677843440324068069e-03
-1.069570053368806839e-02
1.624847017228603363e-02
-1.023956760764122009e-01
-5.064792186021804810e-02
1.377416681498289108e-02
1.310409698635339737e-02
-3.162606060504913330e-02
1.508966647088527679e-02
-8.302181959152221680e-02
-4.274939745664596558e-02
-5.260697007179260254e-02
3.027428872883319855e-03
5.895299836993217468e-02
5.391103029251098633e-02
-1.686682924628257751e-02
9.540242142975330353e-03
2.323355991393327713e-03
3.794336225837469101e-03
7.495087571442127228e-03
2.635327109601348639e-04
8.173769339919090271e-03
2.319755498319864273e-03
2.312232740223407745e-02
3.456383943557739258e-02
-8.306553214788436890e-02
9.453198872506618500e-03
-1.843266189098358154e-02
2.194694057106971741e-02
1.560168862342834473e-01
6.993478164076805115e-03
-1.389410067349672318e-02
-2.858661673963069916e-02
-2.755745500326156616e-02
-1.129176318645477295e-01
-2.827022597193717957e-02
4.650078713893890381e-03
1.959715783596038818e-02
9.379712492227554321e-02
4.378069657832384109e-03
-9.298712946474552155e-03
3.971400856971740723e-02
4.416442289948463440e-02
3.534226911142468452e-03
-3.340919420224963687e-06
-2.862192690372467041e-03
6.136237457394599915e-02
-4.580250009894371033e-03
4.815736319869756699e-03
-5.810210853815078735e-02
4.952870775014162064e-03
3.602096578106284142e-03
-4.062375592184253037e-05
1.967368833720684052e-02
5.763929802924394608e-04
-4.608392715454101562e-03
5.896778311580419540e-03
-3.662554174661636353e-02
-3.529187664389610291e-02
-3.602376673370599747e-03
3.870126558467745781e-03
-2.205300006608013064e-05
1.045458950102329254e-02
-3.350277990102767944e-02
3.216286888346076012e-03
-2.173224650323390961e-02
6.608581542968750000e-02
2.000496909022331238e-02
1.392169296741485596e-01
1.137758232653141022e-02
-6.708025187253952026e-02
3.649633377790451050e-02
-2.445278130471706390e-02
-1.483381241559982300e-01
7.146589457988739014e-03
-2.301907166838645935e-02
1.941667683422565460e-02
2.151926420629024506e-02
-2.588448114693164825e-02
6.205072626471519470e-03
-3.857251629233360291e-02
3.258822485804557800e-02
6.450079381465911865e-03
1.127235740423202515e-01
-3.101741708815097809e-02
4.899969324469566345e-03
-3.639999544247984886e-03
7.389926817268133163e-03
5.294328555464744568e-02
-4.505006968975067139e-02
6.764661520719528198e-03
9.652201831340789795e-02
3.500375663861632347e-03
4.648759216070175171e-02
-4.790600796695798635e-04
-1.125055029988288879e-01
9.423051960766315460e-03
3.726327046751976013e-02
-1.690835691988468170e-02
-7.209862116724252701e-03
1.263066083192825317e-01
5.030217114835977554e-03
-4.835202544927597046e-02
1.747669768519699574e-03
-2.738500945270061493e-02
-7.228909432888031006e-02
-8.567266166210174561e-02
-5.941106006503105164e-02
1.871950924396514893e-03
1.215815916657447815e-02
3.655740059912204742e-03
6.477722432464361191e-03
6.630199030041694641e-03
2.932858839631080627e-02
-7.038105279207229614e-02
