1.002281438559293747e-02
1.547763030976057053e-02
2.597751654684543610e-02
-1.329120621085166931e-02
-1.200847513973712921e-02
-1.224298961460590363e-02
-9.280365891754627228e-03
-3.767787292599678040e-02
2.207127772271633148e-02
1.766106300055980682e-02
3.621315956115722656e-02
-5.685083568096160889e-02
-6.855875253677368164e-02
3.933681640774011612e-03
-1.077948585152626038e-01
-6.308730691671371460e-03
1.015357486903667450e-02
-1.539879385381937027e-02
2.326343581080436707e-02
1.267590373754501343e-02
-1.649314723908901215e-02
1.358372531831264496e-02
-2.248988114297389984e-02
-2.221500128507614136e-02
-7.275365293025970459e-02
1.385905593633651733e-02
1.063628681004047394e-02
1.984228566288948059e-02
2.341995015740394592e-02
6.779831647872924805e-02
-3.439937951043248177e-03
3.577025979757308960e-02
-4.196640104055404663e-02
2.664070390164852142e-02
4.738516360521316528e-02
2.554550208151340485e-02
3.569648414850234985e-02
6.957648321986198425e-03
-1.089884527027606964e-02
-1.151106669567525387e-03
7.312744855880737305e-02
-5.183392018079757690e-02
-8.241904526948928833e-02
-1.121994853019714355e-02
2.517268061637878418e-02
-2.436823770403862000e-02
4.435569792985916138e-02
-3.988278657197952271e-02
6.002107984386384487e-04
1.189374327659606934e-01
1.705713011324405670e-02
-5.891143903136253357e-02
1.205463185906410217e-01
-6.786575168371200562e-02
1.852198876440525055e-02
3.259652480483055115e-02
3.183576837182044983e-02
-5.829385947436094284e-03
-2.989840693771839142e-03
-1.927399309352040291e-03
4.017312452197074890e-02
5.063326656818389893e-02
-1.184825785458087921e-02
3.889355063438415527e-02
2.976199612021446228e-02
2.356348268222063780e-04
-7.561096549034118652e-02
3.632749989628791809e-02
2.145542018115520477e-02
4.094808176159858704e-02
-3.027842380106449127e-02
-9.410674683749675751e-03
-6.439319998025894165e-02
-1.731186360120773315e-02
1.735316589474678040e-02
-7.306899875402450562e-02
1.115980595350265503e-01
-3.176724910736083984e-02
4.804955050349235535e-02
-1.666455529630184174e-02
-1.694948971271514893e-02
4.881657660007476807e-02
-1.618901826441287994e-02
1.432570666074752808e-01
3.419078188017010689e-03
-3.601397946476936340e-02
-3.601938113570213318e-02
1.153953447937965393e-01
-1.404851325787603855e-03
2.336715534329414368e-02
-4.289573524147272110e-03
-1.017235498875379562e-02
-1.598098315298557281e-02
3.401927184313535690e-03
9.820014238357543945e-02
1.274782717227935791e-01
1.592186093330383301e-02
-1.708366908133029938e-02
-9.400352090597152710e-02
-4.964669048786163330e-02
8.861002512276172638e-03
1.645297706127166748e-01
-5.644581839442253113e-02
-4.232996143400669098e-03
7.771772332489490509e-03
-6.520038843154907227e-02
-1.674957014620304108e-02
1.250855028629302979e-01
3.221616521477699280e-02
-1.786754094064235687e-02
1.559799443930387497e-02
7.360890507698059082e-02
1.293958164751529694e-02
-2.818060480058193207e-02
1.539486832916736603e-02
-3.709274902939796448e-02
2.858722209930419922e-02
7.256908714771270752e-02
-6.157024204730987549e-02
1.647027209401130676e-02
2.342955768108367920e-02
1.640211418271064758e-02
-3.379160165786743164e-02
9.398291818797588348e-03
1.981308683753013611e-02
-8.791291713714599609e-02
5.305011197924613953e-02
-3.079305402934551239e-02
-9.310660511255264282e-02
-9.314173460006713867e-02
-1.100163310766220093e-01
-4.837504029273986816e-02
-5.231588706374168396e-02
3.042563609778881073e-02
3.130993247032165527e-02
5.380267277359962463e-03
-4.219378158450126648e-02
-6.194104999303817749e-02
1.728760078549385071e-02
-4.451215639710426331e-02
-6.861647218465805054e-02
-1.727575063705444336e-02
-8.241541683673858643e-02
-2.789429761469364166e-02
1.656998321413993835e-02
-9.711960703134536743e-02
-3.903793916106224060e-02
-4.880852252244949341e-02
-8.416581898927688599e-03
-2.742375060915946960e-02
-9.792704368010163307e-04
2.487628255039453506e-03
1.666968502104282379e-02
-4.350888729095458984e-02
4.248648509383201599e-02
7.235152646899223328e-03
7.789789815433323383e-04
-2.409649640321731567e-02
-4.518538713455200195e-02
2.847378142178058624e-02
3.597803041338920593e-02
-5.903572961688041687e-02
2.103355014696717262e-03
-5.008720606565475464e-02
9.112138301134109497e-02
3.740660473704338074e-02
-9.052027948200702667e-03
4.333250969648361206e-02
-6.628661602735519409e-02
-7.614324241876602173e-02
-6.417412310838699341e-02
3.791623190045356750e-02
6.268825381994247437e-02
6.484510004520416260e-02
-1.577199809253215790e-02
-2.536054886877536774e-02
-1.682516187429428101e-02
-1.188560668379068375e-02
-1.814497751183807850e-03
-2.985313534736633301e-02
-9.283634275197982788e-02
2.067140862345695496e-02
-1.249988563358783722e-02
1.104344893246889114e-02
8.229915052652359009e-03
-7.636318355798721313e-02
8.034835010766983032e-02
-2.613253705203533173e-02
1.795245707035064697e-02
-2.215893939137458801e-02
-6.145921722054481506e-02
-3.247653599828481674e-03
1.239712070673704147e-02
4.779062699526548386e-03
2.934226021170616150e-02
3.298613801598548889e-02
-2.483520284295082092e-02
3.110466711223125458e-02
3.787007182836532593e-02
-5.116560030728578568e-03
1.711952686309814453e-02
-1.015001256018877029e-02
-1.144046932458877563e-01
4.022681340575218201e-02
8.591166883707046509e-02
1.641147420741617680e-03
-3.324086219072341919e-02
-5.311922356486320496e-02
-4.077610746026039124e-02
4.252622276544570923e-02
-3.865205496549606323e-02
-5.855263024568557739e-02
2.724654041230678558e-02
-7.815767824649810791e-02
-1.662749797105789185e-02
-1.024636719375848770e-02
-5.296744778752326965e-02
-3.455627337098121643e-02
-8.175736293196678162e-03
5.519669037312269211e-03
-4.599438980221748352e-03
-1.614869013428688049e-02
4.301596432924270630e-02
2.434350736439228058e-02
1.773388497531414032e-02
1.180262072011828423e-03
2.282033674418926239e-02
7.064461242407560349e-03
-9.765136986970901489e-03
-1.812648214399814606e-02
2.047375142574310303e-01
6.308069080114364624e-02
8.334140293300151825e-03
2.128382213413715363e-02
5.572418123483657837e-02
5.206497013568878174e-02
1.807867921888828278e-02
-1.526208501309156418e-02
1.866541989147663116e-02
-1.187765132635831833e-02
-1.112007303163409233e-03
1.015720665454864502e-01
1.717406883835792542e-02
2.301498129963874817e-02
-5.776438489556312561e-02
-3.487840667366981506e-02
1.385513879358768463e-02
-5.089102312922477722e-03
5.748235620558261871e-03
-4.431726119946688414e-04
-2.946114726364612579e-02
-2.410797169432044029e-03
1.210386585444211960e-02
1.287219952791929245e-02
-3.168014436960220337e-02
5.894048605114221573e-03
6.244522985070943832e-03
7.509579882025718689e-03
-2.502260543406009674e-02
5.032193381339311600e-03
3.189955279231071472e-02
4.895086400210857391e-03
5.207594484090805054e-03
1.675876602530479431e-02
7.800994440913200378e-03
2.734351344406604767e-02
-2.577499486505985260e-02
-4.740907996892929077e-02
-1.101608155295252800e-03
1.188715826719999313e-02
-4.512553289532661438e-02
-4.293410480022430420e-02
1.281811576336622238e-02
-1.805182360112667084e-02
-1.486168149858713150e-02
2.788716740906238556e-02
-5.142582580447196960e-02
-6.179759511724114418e-04
7.226306479424238205e-03
-2.711311541497707367e-02
-2.185170911252498627e-02
6.473226472735404968e-03
-5.838013254106044769e-03
2.154423110187053680e-02
-7.857589982450008392e-03
-3.215565579012036324e-03
6.922376342117786407e-03
1.015506312251091003e-02
1.407103613018989563e-03
2.365856803953647614e-02
3.936390578746795654e-02
-2.328357845544815063e-02
4.962212871760129929e-03
4.635709524154663086e-02
-2.765005920082330704e-03
-9.372590109705924988e-03
3.552623465657234192e-02
-4.835077002644538879e-02
-2.818707562983036041e-02
1.292663253843784332e-02
-2.676944620907306671e-02
7.850497961044311523e-02
-2.138694189488887787e-02
4.727642610669136047e-02
4.884162172675132751e-02
5.844392627477645874e-02
1.287330687046051025e-02
-3.055231086909770966e-02
2.051165699958801270e-02
3.178739175200462341e-02
1.638036803342401981e-03
-5.285717081278562546e-03
5.257964134216308594e-02
2.976285759359598160e-04
-2.360876090824604034e-02
2.879533544182777405e-02
9.826773777604103088e-03
8.603262715041637421e-03
8.213159628212451935e-03
2.751139365136623383e-02
9.017279371619224548e-03
8.159194141626358032e-03
-6.106273829936981201e-02
-1.536596938967704773e-02
1.373368967324495316e-02
-3.464826196432113647e-02
-1.642704382538795471e-02
1.665696129202842712e-02
-5.592288076877593994e-02
2.625805884599685669e-02
-1.780561404302716255e-03
-7.955703139305114746e-02
-7.774085551500320435e-02
1.767319440841674805e-02
-1.034171320497989655e-02
9.179444983601570129e-03
2.389051578938961029e-02
-5.788654088973999023e-03
1.081567630171775818e-02
-1.713073253631591797e-02
5.321638286113739014e-02
4.318353533744812012e-02
-4.467158019542694092e-02
-6.735215336084365845e-02
3.171930834650993347e-02
-4.855398554354906082e-03
1.227149367332458496e-02
1.148286648094654083e-02
2.489698678255081177e-02
5.486192926764488220e-02
4.302350059151649475e-02
-1.079291477799415588e-02
9.578310884535312653e-03
-1.102536078542470932e-02
-1.835826039314270020e-02
-2.723868563771247864e-02
2.257988601922988892e-02
7.790117710828781128e-02
-1.133790984749794006e-02
3.739911597222089767e-03
1.921560731716454029e-03
-4.657689481973648071e-03
1.109651401638984680e-01
-3.137390688061714172e-02
-1.122308056801557541e-02
-1.974187046289443970e-02
1.573055051267147064e-02
5.993940681219100952e-02
1.150566991418600082e-02
-2.829152625054121017e-03
4.207931086421012878e-02
-7.555322721600532532e-03
5.018479190766811371e-03
1.725499890744686127e-02
-4.986508935689926147e-02
-5.397992674261331558e-03
-2.388609573245048523e-02
-5.364388227462768555e-02
-1.101386547088623047e-02
-2.094386331737041473e-02
1.492871064692735672e-02
1.883926615118980408e-02
1.044507846236228943e-01
-2.341292984783649445e-02
7.976495474576950073e-02
-2.596934884786605835e-02
-1.388700865209102631e-02
-1.938626542687416077e-02
-7.149031013250350952e-02
-5.550364032387733459e-02
-2.911837399005889893e-02
1.381585747003555298e-02
-2.310017123818397522e-02
7.947602123022079468e-02
1.116232387721538544e-02
-6.347554270178079605e-03
-6.733507849276065826e-03
-9.266501292586326599e-03
-4.219360277056694031e-02
-4.887975752353668213e-02
1.480470318347215652e-02
2.178767696022987366e-02
1.202287501655519009e-03
1.997665129601955414e-02
-3.352129459381103516e-02
1.932375133037567139e-02
3.573934733867645264e-02
-6.129588559269905090e-02
-1.831644959747791290e-02
-2.544560469686985016e-02
1.017627399414777756e-02
1.820636168122291565e-02
-2.726335696934256703e-05
6.985370814800262451e-02
2.559910528361797333e-03
-1.101461891084909439e-02
-1.453673746436834335e-02
4.694652277976274490e-03
-1.849819906055927277e-02
-9.578667581081390381e-03
3.587269410490989685e-02
-2.331106178462505341e-02
-6.174095347523689270e-02
-8.611262775957584381e-03
-4.090545699000358582e-02
-2.829385548830032349e-02
-4.047707095742225647e-02
-2.226503752171993256e-02
1.807467639446258545e-02
5.101583525538444519e-02
-1.589581370353698730e-02
-4.291480034589767456e-02
-2.126053906977176666e-02
-1.723568700253963470e-02
1.000177040696144104e-01
-4.679485410451889038e-02
-4.904980957508087158e-02
1.526236813515424728e-02
4.938612109981477261e-04
2.261791750788688660e-02
-7.477614097297191620e-03
-1.350165624171495438e-02
3.872508928179740906e-02
4.463754966855049133e-02
2.179632335901260376e-02
2.546182950027287006e-04
-3.697809064760804176e-03
4.097262397408485413e-03
7.069283165037631989e-03
-2.646869979798793793e-02
-4.746447131037712097e-02
1.166466157883405685e-02
-4.178000241518020630e-02
4.163220990449190140e-03
7.514101918786764145e-03
-2.249589748680591583e-02
5.810284242033958435e-02
-5.120027810335159302e-03
-1.457177009433507919e-02
3.901689313352108002e-03
-2.340839244425296783e-02
8.059751242399215698e-03
-4.856486991047859192e-02
-3.646483272314071655e-02
-8.299484103918075562e-02
-1.862380281090736389e-02
1.483539678156375885e-02
-9.024936705827713013e-03
6.473848223686218262e-02
-4.779812693595886230e-02
7.660720730200409889e-04
-3.265644982457160950e-02
-2.095678821206092834e-02
-3.579559549689292908e-02
-8.231720887124538422e-03
-2.716391906142234802e-02
1.414161361753940582e-02
-5.967468023300170898e-02
-5.785100534558296204e-02
2.653698356880340725e-05
1.574336551129817963e-02
6.218068301677703857e-03
2.473019436001777649e-02
1.812748052179813385e-02
3.004052443429827690e-03
2.117542549967765808e-02
-7.575883716344833374e-02
-1.417696289718151093e-02
5.242802668362855911e-03
-6.705209612846374512e-03
2.858059294521808624e-02
3.394103841856122017e-03
-9.377920068800449371e-03
-1.047395402565598488e-03
-3.517619892954826355e-02
-3.640003968030214310e-03
-1.406678929924964905e-02
4.388047754764556885e-02
1.419918797910213470e-02
-4.686519503593444824e-02
1.519239041954278946e-02
7.507327012717723846e-03
-1.579913124442100525e-02
-6.272669881582260132e-02
-4.195027053356170654e-02
1.766449399292469025e-02
-3.719380870461463928e-02
2.118843793869018555e-02
1.635379157960414886e-02
7.006043568253517151e-03
-1.809599623084068298e-02
-6.732002645730972290e-02
2.660982869565486908e-02
1.878957147710025311e-03
-6.933288276195526123e-02
1.682383380830287933e-02
1.409489894285798073e-03
-8.789460174739360809e-03
-1.977498270571231842e-02
-1.470887288451194763e-02
2.023318782448768616e-03
-4.860192164778709412e-02
-2.486767619848251343e-02
5.254980921745300293e-02
-6.847864715382456779e-04
5.744902417063713074e-03
1.472356729209423065e-02
8.350722491741180420e-02
-5.819511041045188904e-02
-1.495947688817977905e-02
-1.153373345732688904e-02
2.501735836267471313e-02
-8.930164389312267303e-03
3.828593343496322632e-02
-3.895465284585952759e-02
2.248140238225460052e-02
2.547786571085453033e-03
-2.678804472088813782e-02
5.074457079172134399e-02
-2.856164472177624702e-03
-1.193715073168277740e-02
-3.093475662171840668e-02
2.938494458794593811e-02
-1.301669981330633163e-02
-1.245057582855224609e-02
-2.755701541900634766e-02
-1.796946302056312561e-02
-3.790199756622314453e-03
1.182070747017860413e-02
1.302349755860632285e-05
-2.937489002943038940e-02
2.027071639895439148e-02
2.746532857418060303e-02
1.249238010495901108e-02
-2.805757150053977966e-02
-5.349090322852134705e-02
-1.847326941788196564e-02
-4.424442350864410400e-02
-4.397289827466011047e-02
-1.923795603215694427e-02
-1.839198172092437744e-02
-4.449362866580486298e-03
4.035064205527305603e-02
8.943861350417137146e-03
-3.123298054561018944e-03
-1.518888748250901699e-03
-3.386890050023794174e-03
-1.245206221938133240e-02
-2.303576841950416565e-02
-3.821230679750442505e-02
1.811386668123304844e-03
5.374178756028413773e-03
-1.080939825624227524e-02
-5.805310793220996857e-03
-1.581350527703762054e-02
-1.996998675167560577e-02
-3.117297589778900146e-02
-1.347459183307364583e-04
1.066644303500652313e-02
-6.903827656060457230e-03
-2.280089771375060081e-03
-1.699351146817207336e-02
2.948578447103500366e-03
2.237639017403125763e-02
-3.613849356770515442e-02
-8.802075870335102081e-03
-3.206867724657058716e-02
-6.168249063193798065e-03
-3.947026282548904419e-02
-7.745060604065656662e-03
-1.523181702941656113e-02
-1.956390030682086945e-02
3.623502328991889954e-03
-1.787805557250976562e-02
-3.290686290711164474e-03
-4.001967236399650574e-02
5.749130621552467346e-02
-1.205227524042129517e-02
-6.761122494935989380e-02
4.054112825542688370e-03
-3.952502086758613586e-02
2.068706601858139038e-02
-1.535270566819235682e-04
-2.600180357694625854e-02
1.313630491495132446e-02
-2.929169312119483948e-02
3.288560360670089722e-02
-2.335163578391075134e-02
-1.678961515426635742e-02
3.806810453534126282e-02
4.833023995161056519e-02
-3.870588541030883789e-02
-2.912560477852821350e-02
4.186874721199274063e-03
-9.367610327899456024e-03
6.973974872380495071e-03
-2.658587321639060974e-02
9.420441463589668274e-03
1.942775957286357880e-02
-5.509235337376594543e-02
5.813924130052328110e-03
-2.564118802547454834e-02
-1.299718208611011505e-02
-4.070848226547241211e-03
2.980803698301315308e-02
2.192361839115619659e-02
4.970756708644330502e-04
-2.815668703988194466e-03
-2.987578138709068298e-02
-1.350598409771919250e-02
-2.191062457859516144e-02
5.612788256257772446e-03
1.621415652334690094e-02
7.920007407665252686e-02
1.174701191484928131e-02
-6.795836612582206726e-03
3.997725434601306915e-03
1.688656583428382874e-02
-2.692177891731262207e-03
-9.072240442037582397e-03
-2.107620798051357269e-02
-1.174020022153854370e-02
-1.147619169205427170e-02
-3.979906812310218811e-02
3.853798611089587212e-03
4.793718922883272171e-03
-1.476541627198457718e-02
-1.533135026693344116e-02
-8.637048304080963135e-03
2.074414864182472229e-02
-3.510168194770812988e-02
-1.405611820518970490e-02
1.873144693672657013e-02
1.695086481049656868e-03
5.516692064702510834e-03
-3.970488533377647400e-02
-7.125592324882745743e-03
3.300490975379943848e-02
2.042406052350997925e-02
-1.609161682426929474e-02
1.408495903015136719e-01
1.096768863499164581e-02
4.037169367074966431e-02
1.894617080688476562e-02
7.526855915784835815e-02
-3.693011123687028885e-03
2.135676145553588867e-02
-1.369973737746477127e-02
-1.569761522114276886e-02
6.875641178339719772e-03
1.112489681690931320e-02
-2.744097262620925903e-02
-1.271546166390180588e-02
3.671561181545257568e-02
-1.248068176209926605e-02
-2.015511039644479752e-03
5.972689948976039886e-03
3.357608104124665260e-03
3.806716576218605042e-02
1.685905084013938904e-02
-5.472735036164522171e-03
-2.855541557073593140e-02
1.632697694003582001e-02
-2.585865743458271027e-02
2.465268038213253021e-02
-8.310697972774505615e-03
-4.163620527833700180e-03
-5.570212379097938538e-03
5.257629603147506714e-02
-1.502037979662418365e-02
4.647256061434745789e-02
-2.780685573816299438e-02
-3.933517262339591980e-02
1.663945615291595459e-02
-8.148189634084701538e-03
9.741807356476783752e-03
1.318627409636974335e-02
-9.660118259489536285e-03
-5.855781491845846176e-03
-1.138915028423070908e-02
-8.343014866113662720e-03
-2.037604339420795441e-02
4.230671003460884094e-02
2.733215875923633575e-02
-1.809664815664291382e-02
3.616202622652053833e-02
-1.354197971522808075e-02
1.842144690454006195e-02
1.301252376288175583e-02
-3.925448656082153320e-02
-1.320842001587152481e-02
7.484210655093193054e-03
-8.318001776933670044e-02
4.714341834187507629e-03
-3.598233312368392944e-02
-4.028796683996915817e-03
5.592190474271774292e-02
1.570536382496356964e-02
-3.547836560755968094e-03
1.211305614560842514e-03
1.404925156384706497e-02
-1.448246999643743038e-03
-3.444316610693931580e-02
-1.530151441693305969e-02
-7.255045324563980103e-02
-4.078574851155281067e-02
5.045606195926666260e-02
1.691078394651412964e-02
1.864348910748958588e-02
-4.154302924871444702e-02
1.318674162030220032e-02
-2.486057020723819733e-02
-2.008551731705665588e-02
1.552383974194526672e-02
4.252265207469463348e-03
1.833932101726531982e-02
-1.289005391299724579e-02
5.631935317069292068e-03
2.124911546707153320e-02
2.664732281118631363e-03
-9.212774224579334259e-03
4.214018210768699646e-02
7.758057117462158203e-02
-5.155978724360466003e-03
1.033727359026670456e-02
1.117487531155347824e-02
2.772181993350386620e-03
4.731220542453229427e-05
4.434818774461746216e-02
1.268810313194990158e-02
-6.451036781072616577e-03
-8.821438997983932495e-03
-9.624259546399116516e-04
-4.161385446786880493e-02
-2.129572629928588867e-02
4.207205399870872498e-02
5.405422300100326538e-03
7.080353330820798874e-03
4.358771070837974548e-02
3.941136598587036133e-02
-3.389240242540836334e-03
-3.106546355411410332e-03
1.718332432210445404e-02
-2.406485192477703094e-02
-2.298237232025712729e-04
9.871778078377246857e-03
-1.873025856912136078e-02
-3.057575551792979240e-03
1.074686832726001740e-02
-8.244404853030573577e-06
3.883940726518630981e-02
7.218793965876102448e-03
2.168253995478153229e-02
-1.916229492053389549e-03
-7.464338839054107666e-02
5.934345722198486328e-02
9.217667393386363983e-03
3.342661261558532715e-02
-3.595673479139804840e-03
2.193635702133178711e-02
-5.412809550762176514e-02
1.849349215626716614e-02
6.979011744260787964e-02
-3.235286846756935120e-02
-2.559883752837777138e-03
3.300372511148452759e-02
1.126639172434806824e-02
-5.861934623681008816e-04
1.934008486568927765e-02
6.840697675943374634e-02
2.481837291270494461e-03
-2.289583161473274231e-02
7.935725897550582886e-02
-7.897335104644298553e-03
-1.747089996933937073e-02
1.221892610192298889e-02
4.561849683523178101e-02
-2.775040082633495331e-02
-2.416044659912586212e-02
6.919036153703927994e-03
-8.179858326911926270e-02
1.897691562771797180e-02
2.623421512544155121e-02
3.710115328431129456e-02
-1.463771760463714600e-01
-6.209953222423791885e-03
-1.361076533794403076e-02
-2.887580078095197678e-03
-5.977038666605949402e-02
2.297864481806755066e-02
-7.099895924329757690e-02
3.880105167627334595e-02
1.658315397799015045e-02
4.481525346636772156e-02
4.676384478807449341e-02
4.654947295784950256e-02
-1.787935569882392883e-02
-2.327400026842951775e-03
-1.080891396850347519e-02
-3.485003486275672913e-02
3.950731828808784485e-02
1.776297949254512787e-02
2.271418925374746323e-03
-2.736284211277961731e-02
2.375174500048160553e-02
8.941093087196350098e-02
-4.874616116285324097e-02
-2.769717015326023102e-02
8.210048079490661621e-03
-2.960601262748241425e-02
-1.832203939557075500e-02
1.091037597507238388e-02
-1.908231712877750397e-02
-1.335355825722217560e-02
7.941874675452709198e-03
-3.309900313615798950e-02
-5.473088007420301437e-03
3.308811038732528687e-02
-2.653122693300247192e-02
3.806614503264427185e-02
3.889928758144378662e-02
-2.772020548582077026e-02
4.658089205622673035e-02
-5.208839848637580872e-02
-4.351613670587539673e-02
-9.939201176166534424e-03
3.418489918112754822e-02
4.916314966976642609e-03
2.175052277743816376e-02
-1.280634105205535889e-02
5.915246438235044479e-04
7.116081565618515015e-02
-3.262102231383323669e-02
-8.963693678379058838e-02
1.530940271914005280e-02
3.175227716565132141e-02
-2.066754549741744995e-02
5.290329828858375549e-02
3.619388677179813385e-03
-1.163015235215425491e-02
-2.222806401550769806e-02
2.154110558331012726e-02
3.511596843600273132e-02
1.004187688231468201e-01
9.052643552422523499e-03
2.735921181738376617e-02
-5.423318967223167419e-02
-3.613992407917976379e-02
1.495642121881246567e-02
7.278268784284591675e-02
-1.278684735298156738e-01
-1.809489727020263672e-02
1.521571632474660873e-02
1.775299757719039917e-02
2.656301856040954590e-02
-1.087978016585111618e-02
-1.655177958309650421e-02
3.846784681081771851e-02
1.628233492374420166e-02
3.056683577597141266e-02
1.317539904266595840e-02
-1.579910516738891602e-02
9.378769434988498688e-03
-6.053360179066658020e-02
2.801351808011531830e-02
-2.372549287974834442e-02
2.199814189225435257e-03
8.108379319310188293e-03
1.101111527532339096e-02
1.384304184466600418e-02
1.798765547573566437e-02
-3.232417628169059753e-02
5.290282517671585083e-02
-2.292338572442531586e-02
9.458884596824645996e-03
6.131464987993240356e-02
-7.303712517023086548e-02
1.306392718106508255e-02
-1.186371743679046631e-01
-5.058410763740539551e-02
3.949315100908279419e-02
-2.646153420209884644e-02
-3.206116333603858948e-02
-4.913435131311416626e-02
2.513399906456470490e-02
-2.208151295781135559e-02
2.995412796735763550e-02
3.870542347431182861e-02
-1.851595123298466206e-03
1.586072891950607300e-02
-2.328506112098693848e-02
3.674218431115150452e-02
8.059142157435417175e-03
-1.304992660880088806e-02
-5.749145150184631348e-02
2.660432457923889160e-02
-3.794399276375770569e-02
-7.691382896155118942e-03
-8.328256197273731232e-03
-1.021167859435081482e-01
-1.258594729006290436e-02
-3.976117074489593506e-02
4.804638773202896118e-02
-2.894598804414272308e-02
-5.020949058234691620e-03
2.576821856200695038e-02
-3.970811516046524048e-02
1.821057125926017761e-02
7.486305665224790573e-03
3.027749806642532349e-02
1.511746924370527267e-02
-1.611392758786678314e-02
-3.770192712545394897e-02
5.783562734723091125e-02
-4.983006976544857025e-03
1.968734897673130035e-02
-1.412578113377094269e-02
4.259556904435157776e-02
-4.609817638993263245e-02
-5.544642917811870575e-03
8.084715344011783600e-03
-1.458521932363510132e-02
-1.490993704646825790e-02
2.465276513248682022e-03
2.949903346598148346e-02
-2.122806943953037262e-02
-4.043849930167198181e-02
3.097053244709968567e-02
-6.813975423574447632e-02
-1.369267818517982960e-03
-1.403093524277210236e-02
-2.580628264695405960e-03
-9.517335332930088043e-03
-7.304352521896362305e-02
-1.273994334042072296e-02
-1.060416642576456070e-02
-4.459146782755851746e-02
-2.420675195753574371e-02
-5.454789102077484131e-02
1.030023302882909775e-02
4.677190911024808884e-03
1.839038357138633728e-02
-3.791572526097297668e-02
4.586303140968084335e-03
-9.441196173429489136e-02
9.187774732708930969e-03
1.779522001743316650e-02
1.388662960380315781e-02
1.162118092179298401e-02
-9.692413359880447388e-02
3.323796018958091736e-02
-2.882314845919609070e-02
3.420017659664154053e-02
-4.316006787121295929e-03
6.377165671437978745e-03
1.025803387165069580e-03
1.120173092931509018e-02
-8.807863295078277588e-02
6.798095069825649261e-03
-3.741743974387645721e-03
3.259011730551719666e-02
3.603460267186164856e-02
8.855562657117843628e-03
-3.621122241020202637e-02
-7.037017494440078735e-03
8.267024531960487366e-03
5.687641911208629608e-03
-6.484271492809057236e-03
-2.348211966454982758e-02
-2.117733471095561981e-02
-2.813941985368728638e-02
2.297159470617771149e-02
3.817788138985633850e-02
2.000681310892105103e-02
5.005226470530033112e-03
-2.223605290055274963e-02
-2.025587856769561768e-02
6.935717165470123291e-02
1.353399753570556641e-01
7.307561114430427551e-03
1.636063121259212494e-02
1.721378974616527557e-02
4.261922091245651245e-02
3.732727095484733582e-02
-1.021648012101650238e-02
-1.207699161022901535e-02
3.056856989860534668e-02
-2.730514667928218842e-02
2.487857267260551453e-02
6.875061243772506714e-02
5.591225344687700272e-03
1.465877704322338104e-02
1.390357036143541336e-02
-3.600624203681945801e-02
1.789707131683826447e-02
-1.508489251136779785e-03
-3.003784269094467163e-02
5.237854551523923874e-03
4.491630941629409790e-03
-7.972248829901218414e-03
2.524294657632708549e-03
1.149450615048408508e-02
5.051539279520511627e-03
-1.302847405895590782e-03
-2.063401043415069580e-03
4.585254937410354614e-03
1.990609988570213318e-02
-3.131050849333405495e-03
-1.735366880893707275e-02
2.416397817432880402e-02
4.199991747736930847e-02
-4.278089851140975952e-02
-1.209357171319425106e-03
3.138879314064979553e-02
7.310988381505012512e-03
6.124345958232879639e-02
-2.061873907223343849e-03
2.002613851800560951e-03
1.749916933476924896e-02
-2.147724665701389313e-02
-2.353267511352896690e-03
1.190848089754581451e-02
-2.220188453793525696e-02
1.399905700236558914e-02
-1.100222859531641006e-02
2.549163810908794403e-02
-3.858008189126849174e-03
-3.338376805186271667e-02
-1.160745322704315186e-02
9.006119333207607269e-03
-1.887836679816246033e-02
1.903964392840862274e-02
1.166231557726860046e-02
-7.439542096108198166e-03
2.767564728856086731e-03
2.188487723469734192e-02
-1.648747362196445465e-02
2.605218812823295593e-02
2.996426820755004883e-02
1.738475076854228973e-02
-1.220934372395277023e-02
-1.850146451033651829e-03
-5.635085981339216232e-03
1.317626331001520157e-02
5.402466747909784317e-03
2.533197030425071716e-02
-4.185482487082481384e-02
2.027928642928600311e-02
5.126035213470458984e-02
-1.560721639543771744e-02
6.935959309339523315e-02
-1.783903874456882477e-02
-1.605995558202266693e-02
7.582627236843109131e-03
-1.190442778170108795e-02
-3.436724073253571987e-04
1.632454805076122284e-02
4.768891260027885437e-02
1.797055080533027649e-02
-1.067190431058406830e-02
-1.119767781347036362e-03
3.930740803480148315e-02
-1.868505962193012238e-02
7.483462244272232056e-02
-2.602719515562057495e-02
4.638167843222618103e-02
1.330754626542329788e-02
-1.898859813809394836e-02
3.019038438796997070e-01
3.610494313761591911e-04
-1.503669377416372299e-02
2.082483470439910889e-02
-2.104300074279308319e-02
-2.606467157602310181e-02
-1.493692956864833832e-02
2.577298320829868317e-03
1.003778725862503052e-01
-6.075855810195207596e-03
-5.420296918600797653e-03
-1.718883216381072998e-02
-3.565204888582229614e-02
-8.809503196971490979e-05
4.062584042549133301e-02
-1.827724650502204895e-02
6.858405470848083496e-02
4.067181143909692764e-03
-2.030360512435436249e-02
6.434644758701324463e-02
-2.969617210328578949e-02
-2.104397304356098175e-02
3.522046282887458801e-02
-3.898450732231140137e-02
-1.255494449287652969e-02
1.616709120571613312e-02
1.235167961567640305e-03
-5.192102864384651184e-03
-1.316432375460863113e-02
-1.669917372055351734e-03
-2.079698815941810608e-02
2.419999800622463226e-02
-2.936430973932147026e-03
-2.940784953534603119e-02
1.319829467684030533e-02
-2.403644844889640808e-02
1.683459803462028503e-02
7.422746624797582626e-03
6.027014460414648056e-03
-7.251007482409477234e-03
5.122624710202217102e-02
1.004822850227355957e-01
-4.536081850528717041e-02
-2.493576705455780029e-02
-2.484136726707220078e-03
-1.860567741096019745e-02
-9.038843214511871338e-03
-2.376912161707878113e-02
-2.838335931301116943e-03
-2.010839059948921204e-02
-1.286954060196876526e-02
2.534907124936580658e-02
2.293935976922512054e-03
-7.275595515966415405e-02
2.449387870728969574e-02
3.321546688675880432e-02
1.641876809298992157e-02
-3.833452239632606506e-02
9.627431427361443639e-05
1.975265592336654663e-01
5.333368852734565735e-02
6.114158034324645996e-02
-7.011402864009141922e-03
1.080417782068252563e-01
3.815263509750366211e-03
6.505727022886276245e-02
1.709545776247978210e-02
3.179239109158515930e-02
-3.565191105008125305e-02
-7.382174022495746613e-03
-2.148048765957355499e-02
1.032789424061775208e-02
-3.944711759686470032e-02
-8.351359516382217407e-03
3.708996623754501343e-02
5.602312088012695312e-02
1.337737776339054108e-04
-1.134650665335357189e-04
-3.086670674383640289e-02
3.647637367248535156e-02
-1.491122972220182419e-02
-2.980459295213222504e-02
-2.821373566985130310e-02
1.619696803390979767e-02
-6.577812600880861282e-03
-2.296014502644538879e-02
-1.593581400811672211e-02
-1.131785940378904343e-02
3.914518281817436218e-02
-3.298970311880111694e-02
3.945549950003623962e-03
-3.834433853626251221e-03
-1.763478480279445648e-02
-4.378020018339157104e-02
2.051267586648464203e-02
1.102731190621852875e-02
1.766173401847481728e-03
-7.566044479608535767e-02
-9.666772559285163879e-03
-3.387267515063285828e-02
-2.270782366394996643e-02
4.902905598282814026e-02
1.986257173120975494e-02
-1.460147928446531296e-02
7.529459893703460693e-02
4.739656299352645874e-02
5.089587531983852386e-03
2.886504679918289185e-02
-2.361220307648181915e-02
-4.566840454936027527e-02
-3.908549249172210693e-02
7.418343424797058105e-02
1.453245407901704311e-03
4.513565450906753540e-03
-2.765046805143356323e-02
-1.367075950838625431e-03
1.870735920965671539e-02
-1.558912824839353561e-02
-7.877030409872531891e-03
-1.396945398300886154e-02
-7.171995937824249268e-03
3.093678876757621765e-02
8.121711760759353638e-02
-9.701446630060672760e-03
-8.975679986178874969e-03
-2.451833523809909821e-02
-3.172861784696578979e-02
-1.786128850653767586e-03
-9.539581835269927979e-03
-9.451022371649742126e-03
-3.378313407301902771e-02
-8.830690756440162659e-03
-6.789392791688442230e-03
-5.200755316764116287e-03
-5.834585521370172501e-03
1.071606879122555256e-03
-4.082770552486181259e-03
-2.856994979083538055e-02
-7.026360183954238892e-02
-2.915611863136291504e-02
1.185637712478637695e-02
5.436597764492034912e-02
-3.555608447641134262e-03
-6.520233582705259323e-03
1.865823008120059967e-02
9.227694943547248840e-03
-5.817728117108345032e-03
-1.495795790106058121e-02
4.616797342896461487e-02
-3.343033790588378906e-02
-4.945340380072593689e-02
-2.320209331810474396e-02
-3.805685043334960938e-02
9.636389586376026273e-05
-1.210566330701112747e-02
9.800438582897186279e-02
-5.511164199560880661e-03
-2.041969262063503265e-02
6.737759336829185486e-03
-6.772190798074007034e-03
1.141616422683000565e-02
2.575767040252685547e-02
-1.473842840641736984e-02
-5.789841525256633759e-03
-5.768075585365295410e-03
1.011192891746759415e-02
1.945165917277336121e-02
2.237909473478794098e-02
-2.941060625016689301e-02
3.285213187336921692e-02
-4.441897571086883545e-02
2.047570794820785522e-02
-1.257956307381391525e-02
-1.069824866135604680e-04
3.753389045596122742e-02
-4.164889454841613770e-03
3.281983733177185059e-02
1.287056691944599152e-02
1.163950655609369278e-02
5.215949844568967819e-03
2.754963061306625605e-04
-4.516598954796791077e-02
-9.027990512549877167e-03
-5.876378621906042099e-03
8.126393891870975494e-03
5.357896164059638977e-02
-2.977263182401657104e-02
-1.506693102419376373e-02
-3.187595307826995850e-02
-5.239446647465229034e-03
3.237765980884432793e-03
2.339722402393817902e-02
9.051195345818996429e-03
1.248398609459400177e-02
-7.114570122212171555e-03
-5.360127612948417664e-02
-4.704517126083374023e-02
1.382608618587255478e-02
5.330874770879745483e-02
-5.545624997466802597e-03
1.759102381765842438e-02
3.149362653493881226e-02
7.270202506333589554e-03
-1.691278448561206460e-04
-1.698274724185466766e-02
-3.976196981966495514e-03
1.121841371059417725e-02
-7.086165994405746460e-02
-5.667127668857574463e-02
-7.374488562345504761e-02
-4.518345464020967484e-03
6.531313527375459671e-03
1.964321173727512360e-02
-3.345061093568801880e-02
-4.470460861921310425e-02
1.399045530706644058e-02
8.010400459170341492e-03
-6.747851520776748657e-02
1.720390468835830688e-02
-2.687717787921428680e-02
-1.373779773712158203e-02
-3.907194826751947403e-03
1.102483365684747696e-03
6.019796710461378098e-03
2.965380204841494560e-03
1.208150200545787811e-02
4.886894673109054565e-02
1.426810026168823242e-02
-7.194649893790483475e-03
-2.023290283977985382e-02
-9.125600568950176239e-03
1.289748400449752808e-02
3.697196766734123230e-02
2.689125202596187592e-02
-9.779712185263633728e-03
-1.517192809842526913e-03
1.211089547723531723e-02
-3.884504362940788269e-02
1.992192678153514862e-02
6.245707347989082336e-02
-7.291599176824092865e-03
-3.266907855868339539e-02
-1.901752129197120667e-02
-3.874891623854637146e-02
-5.881177261471748352e-02
-3.978285193443298340e-02
2.439250610768795013e-02
9.616483002901077271e-03
3.254054486751556396e-02
-5.259914696216583252e-02
2.837682550307363272e-04
-3.311642259359359741e-02
-1.234217052115127444e-04
-1.381944678723812103e-02
-6.818816065788269043e-03
-1.111680455505847931e-02
-1.359372283332049847e-03
1.599066890776157379e-02
-1.958413282409310341e-03
-2.427032589912414551e-02
4.202746786177158356e-03
6.388306152075529099e-03
-1.620364189147949219e-02
1.780969649553298950e-02
7.969207130372524261e-03
1.263728924095630646e-02
-2.941613458096981049e-02
-4.372805356979370117e-03
2.858337014913558960e-02
-2.060568891465663910e-02
-1.375918835401535034e-02
-5.181036517024040222e-02
-8.857245557010173798e-03
5.851264577358961105e-03
-2.326389029622077942e-02
-2.463597804307937622e-02
-6.547866854816675186e-03
-1.474184822291135788e-02
8.873026072978973389e-02
1.304553002119064331e-01
-4.602227825671434402e-03
-1.762121543288230896e-02
1.326170051470398903e-03
-8.500230498611927032e-03
-7.201649714261293411e-03
1.355926878750324249e-02
-4.387377202510833740e-02
-2.463770285248756409e-02
-2.376178512349724770e-03
4.643800482153892517e-02
-4.328962240833789110e-04
-2.380988746881484985e-02
-2.154561225324869156e-03
2.306238189339637756e-02
1.748795853927731514e-03
-8.071537129580974579e-03
8.175943512469530106e-04
-4.143584147095680237e-02
8.664484135806560516e-03
9.685863740742206573e-03
1.730186119675636292e-02
-1.894363760948181152e-02
1.257618423551321030e-02
8.814283646643161774e-03
-1.863429672084748745e-03
-1.297255698591470718e-02
3.726052865386009216e-02
-2.345038019120693207e-02
-2.343789488077163696e-02
-3.228243207558989525e-03
-1.186101511120796204e-02
2.198729896917939186e-03
-3.822257742285728455e-02
5.220060702413320541e-03
-1.137525960803031921e-02
1.590527594089508057e-02
2.981517836451530457e-02
9.950235486030578613e-03
1.310021877288818359e-01
-1.951639540493488312e-02
-5.149227008223533630e-02
4.081559181213378906e-02
-2.292755059897899628e-02
4.203882068395614624e-03
-6.889542192220687866e-02
-2.438232488930225372e-02
3.042989782989025116e-02
2.042378997430205345e-03
-6.444873288273811340e-03
9.426256269216537476e-02
4.328701179474592209e-03
4.115337878465652466e-02
-2.436720579862594604e-02
-9.840788319706916809e-03
-3.662907332181930542e-02
-1.407778076827526093e-02
5.216104444116353989e-03
-1.900211721658706665e-02
1.554929465055465698e-02
7.243420928716659546e-02
2.374773658812046051e-02
-1.984287286177277565e-03
1.380360568873584270e-03
-4.626755416393280029e-02
1.372290076687932014e-03
-5.103338480694219470e-05
-7.706614560447633266e-04
7.408515550196170807e-03
2.451451122760772705e-02
-7.070743292570114136e-02
-4.158166050910949707e-02
1.402102876454591751e-02
4.348168522119522095e-02
-3.387996181845664978e-02
-1.271229609847068787e-02
2.466627582907676697e-02
6.027023121714591980e-02
3.024417720735073090e-02
-1.456179283559322357e-02
1.321555953472852707e-02
-1.388470269739627838e-02
-2.737115882337093353e-02
-1.047831494361162186e-02
-1.102772890590131283e-03
7.968740537762641907e-03
-1.318092807196080685e-03
1.224257424473762512e-02
1.920553110539913177e-02
-4.119106382131576538e-02
1.331026316620409489e-03
-1.565727032721042633e-02
-5.693689454346895218e-03
-1.549834664911031723e-02
-2.573006087914109230e-03
-1.089760288596153259e-02
-2.785386517643928528e-02
1.619604602456092834e-02
2.189974486827850342e-02
-7.215592544525861740e-03
1.061460375785827637e-02
-2.277088910341262817e-02
-4.074465017765760422e-03
-9.715161286294460297e-03
8.771638385951519012e-03
-3.994640428572893143e-03
-2.701410092413425446e-03
3.468684852123260498e-03
5.985811818391084671e-03
-3.274009376764297485e-02
-1.003944687545299530e-02
1.153956982307136059e-03
-3.465044498443603516e-02
1.883179321885108948e-02
9.329113177955150604e-03
-1.899201795458793640e-02
3.139301389455795288e-02
4.709533601999282837e-02
1.558261644095182419e-02
5.708523094654083252e-02
3.424159809947013855e-02
-3.937893360853195190e-02
-1.250078156590461731e-02
-2.002978138625621796e-02
2.370133809745311737e-02
4.969443194568157196e-03
-2.780975587666034698e-02
-1.906233094632625580e-02
-1.639000885188579559e-02
-5.954385735094547272e-03
3.739002346992492676e-02
3.292497480288147926e-03
5.200125742703676224e-03
1.189257018268108368e-02
-6.688649207353591919e-02
-2.154006808996200562e-02
-3.660369431599974632e-03
2.492256648838520050e-02
5.009646993130445480e-03
9.626584127545356750e-03
8.617035113275051117e-03
8.851535618305206299e-03
5.156591162085533142e-02
-5.801334604620933533e-02
9.474357590079307556e-03
2.312299562618136406e-03
-2.121964842081069946e-02
-5.924378987401723862e-03
8.425807580351829529e-03
-6.703082472085952759e-02
2.187303453683853149e-02
-3.975306171923875809e-03
-4.641204141080379486e-03
-9.306051768362522125e-03
3.708578273653984070e-02
8.451794274151325226e-03
-1.043482273817062378e-01
3.444093838334083557e-02
-2.386695146560668945e-02
6.068757176399230957e-02
-3.234574571251869202e-02
4.127536341547966003e-02
-1.146090682595968246e-02
-4.326718673110008240e-02
2.612642478197813034e-03
-3.351412247866392136e-03
1.965298503637313843e-02
1.991907693445682526e-02
1.008682046085596085e-02
-2.571825124323368073e-02
-2.730441279709339142e-03
-2.591306902468204498e-02
2.609153836965560913e-02
-2.008201926946640015e-02
-2.095583113259635866e-05
-1.850493401288986206e-01
-2.297010645270347595e-02
1.382235670462250710e-03
1.172816753387451172e-02
1.367701566778123379e-03
-6.804259866476058960e-02
-2.231206279247999191e-03
-1.282423175871372223e-02
-5.740981083363294601e-03
3.285440430045127869e-02
-1.168720945715904236e-01
-2.182613825425505638e-03
3.165313228964805603e-02
-1.714391633868217468e-02
-5.249610543251037598e-02
2.152371406555175781e-02
2.635844610631465912e-02
-4.819417744874954224e-02
-5.252586677670478821e-03
-2.003514394164085388e-02
-1.884057710412889719e-04
-3.551125153899192810e-02
-9.597992524504661560e-03
-9.711029008030891418e-03
1.633054204285144806e-02
-5.014781374484300613e-03
8.708814159035682678e-03
-2.652433933690190315e-03
-3.527748631313443184e-03
2.923619188368320465e-02
3.356304392218589783e-02
2.054775319993495941e-02
3.303342964500188828e-04
-1.728381589055061340e-02
-9.791433811187744141e-02
-4.463361576199531555e-02
-4.018934071063995361e-02
-1.650168187916278839e-02
9.452506899833679199e-03
-1.780720800161361694e-02
1.407574769109487534e-02
-1.726238057017326355e-02
-3.208195045590400696e-02
1.215523947030305862e-02
1.696328632533550262e-02
7.957443594932556152e-02
1.682180794887244701e-03
-5.167794600129127502e-02
2.079416997730731964e-02
-4.187179729342460632e-03
-7.548174262046813965e-02
-4.263057373464107513e-03
2.036231569945812225e-02
-5.267821252346038818e-02
-1.596529595553874969e-02
2.514307387173175812e-02
4.455985035747289658e-03
-3.843072056770324707e-02
2.133025042712688446e-02
5.580469034612178802e-03
-1.262756530195474625e-02
1.582739758305251598e-03
1.209635846316814423e-02
2.454450726509094238e-02
-3.893977403640747070e-02
-3.160474076867103577e-02
-1.713645085692405701e-02
-1.256781071424484253e-02
2.799098752439022064e-02
5.215748772025108337e-02
2.172843515872955322e-01
-1.273438101634383202e-03
6.697503849864006042e-03
-3.828814998269081116e-02
-3.030683845281600952e-02
-2.982934005558490753e-02
3.534277901053428650e-02
2.295105531811714172e-02
2.188412286341190338e-02
-1.354959793388843536e-02
3.310934454202651978e-02
5.605567619204521179e-02
6.877452135086059570e-03
-1.079481001943349838e-02
-1.928832568228244781e-02
-9.965810924768447876e-03
-1.491990778595209122e-02
-3.493164852261543274e-02
4.405380040407180786e-02
2.812970988452434540e-02
-1.239218097180128098e-02
2.691036462783813477e-02
-5.216552875936031342e-03
2.483979566022753716e-03
-2.574477717280387878e-02
-2.871602214872837067e-02
-8.023217669688165188e-04
-1.056832354515790939e-02
1.354215014725923538e-02
-6.480257958173751831e-02
-2.190135419368743896e-02
1.515660434961318970e-02
-8.355063386261463165e-03
2.250371314585208893e-02
-1.606623455882072449e-02
4.028486087918281555e-02
-1.281653181649744511e-03
-3.377941204234957695e-03
7.731986790895462036e-02
2.614615950733423233e-03
3.327463939785957336e-02
-3.378459811210632324e-02
2.072102390229701996e-02
-9.145885705947875977e-03
5.418300628662109375e-03
-4.195846617221832275e-02
-1.862966106273233891e-03
3.662264905869960785e-03
-1.186518464237451553e-02
-2.383226761594414711e-03
9.652421809732913971e-03
-4.921854473650455475e-03
-9.198950603604316711e-03
-5.303596705198287964e-02
-1.085700467228889465e-02
-3.848142549395561218e-02
-4.127065464854240417e-02
-2.790638245642185211e-02
-4.090942069888114929e-02
-4.367391020059585571e-02
6.246462929993867874e-03
3.069855831563472748e-02
-4.116652999073266983e-03
-5.011216551065444946e-02
-2.550384029746055603e-02
1.397976186126470566e-02
-2.312150783836841583e-03
7.143515348434448242e-02
-1.201700605452060699e-02
2.069641341222450137e-04
-8.495946414768695831e-03
-9.411412291228771210e-03
5.541941616684198380e-03
-1.362801063805818558e-02
8.275816217064857483e-03
-2.642939239740371704e-02
-6.781406700611114502e-02
-2.300609368830919266e-03
8.055262267589569092e-03
-2.314774505794048309e-02
-3.738453378900885582e-03
-3.263472393155097961e-02
-1.557883573696017265e-03
5.517994984984397888e-03
-8.895675651729106903e-03
2.522462978959083557e-03
-8.829438127577304840e-03
-3.120517916977405548e-02
3.037091717123985291e-02
-7.507352624088525772e-03
-2.930772304534912109e-02
-9.257946163415908813e-03
-5.397433042526245117e-02
-5.930663272738456726e-02
-6.259826943278312683e-03
1.860447973012924194e-02
-6.365003995597362518e-03
-2.619512192904949188e-02
-1.546328654512763023e-03
3.206074982881546021e-02
-9.552719071507453918e-03
1.233056187629699707e-02
-7.899735867977142334e-02
1.461783330887556076e-02
-5.218367278575897217e-02
1.633095205761492252e-03
-2.545161638408899307e-03
1.933929882943630219e-02
-1.036067306995391846e-02
-4.063915833830833435e-02
4.555967450141906738e-02
-1.917945966124534607e-02
-2.748025394976139069e-02
-6.914708297699689865e-03
2.271811664104461670e-02
-7.682249415665864944e-04
-1.420202292501926422e-02
2.048848010599613190e-02
-1.627761870622634888e-02
-1.523854304105043411e-02
7.984125986695289612e-03
-1.912734005600214005e-03
-5.065931472927331924e-03
-4.241647943854331970e-02
1.916757784783840179e-03
-1.561634615063667297e-02
2.235175482928752899e-02
-9.175019338726997375e-03
7.125599682331085205e-02
-9.810492396354675293e-03
2.276167459785938263e-02
2.658183872699737549e-02
-2.224639989435672760e-02
1.710048690438270569e-02
-3.401701152324676514e-02
-1.947382278740406036e-02
-1.485280971974134445e-02
-5.311624333262443542e-02
1.458824332803487778e-02
-2.441141009330749512e-02
-1.327402424067258835e-02
-4.405935108661651611e-02
1.113038137555122375e-02
4.573997855186462402e-02
-1.796993799507617950e-02
-1.932807080447673798e-02
-3.779888898134231567e-02
-1.389217749238014221e-02
-1.353148953057825565e-03
-1.096179126761853695e-03
-3.256933065131306648e-03
1.736223511397838593e-02
7.605085615068674088e-03
-2.093212492763996124e-02
-2.748416736721992493e-02
1.409305352717638016e-02
3.790820389986038208e-02
-1.093677710741758347e-02
4.918161034584045410e-02
1.995158195495605469e-02
5.149044096469879150e-03
-4.697651136666536331e-03
-5.257337819784879684e-03
2.224135911092162132e-03
7.934764958918094635e-03
-2.277316898107528687e-02
-1.629671081900596619e-02
3.773025795817375183e-02
1.360198669135570526e-02
1.061010640114545822e-02
2.894591307267546654e-03
-2.564663067460060120e-03
8.534859120845794678e-02
-1.553060393780469894e-02
-2.704698033630847931e-02
-1.975853741168975830e-02
-2.927274256944656372e-02
-5.433057900518178940e-03
-4.844308272004127502e-02
-5.627132579684257507e-02
1.072551589459180832e-02
-5.959990434348583221e-03
-2.218123711645603180e-02
-1.714257523417472839e-02
1.735246041789650917e-03
5.266100633889436722e-03
-4.519609734416007996e-02
7.996670901775360107e-03
-1.202173717319965363e-02
5.435550585389137268e-03
-3.342966549098491669e-03
3.670200332999229431e-02
1.489952858537435532e-02
-1.516812480986118317e-03
-3.425792977213859558e-02
-1.090332772582769394e-02
-2.458271756768226624e-02
-2.530754171311855316e-02
1.237121224403381348e-02
1.991646178066730499e-02
-3.694886341691017151e-02
1.512813498266041279e-03
2.662930265069007874e-02
-8.804266341030597687e-03
-1.636504940688610077e-02
2.262585237622261047e-02
-2.625568071380257607e-03
1.442184858024120331e-02
7.095165085047483444e-03
-7.837575860321521759e-03
7.833397015929222107e-03
2.486297744326293468e-04
-1.776707731187343597e-02
-1.715887896716594696e-02
1.471517607569694519e-03
-1.481171138584613800e-02
-9.372556582093238831e-03
-4.224273841828107834e-03
-6.493430584669113159e-03
-5.202319589443504810e-04
1.880975626409053802e-02
-3.251415863633155823e-02
-3.026080690324306488e-02
-1.144829019904136658e-02
-1.795698143541812897e-02
-4.639513790607452393e-02
-1.177496160380542278e-03
-3.726059198379516602e-02
-2.195040695369243622e-02
-8.040580153465270996e-02
-1.036712061613798141e-02
2.355163916945457458e-02
3.405278921127319336e-02
-3.240915387868881226e-02
2.438947744667530060e-02
-2.441738918423652649e-02
-1.153448037803173065e-02
-1.075963489711284637e-02
-1.261374354362487793e-02
-1.741336844861507416e-02
-1.125842053443193436e-02
-1.006631646305322647e-02
-2.201627567410469055e-02
-1.162111479789018631e-02
-1.432724180631339550e-03
2.354021184146404266e-03
-2.379926480352878571e-02
4.037919640541076660e-02
1.390788517892360687e-02
2.377982717007398605e-03
-1.343343965709209442e-02
2.742939442396163940e-02
-1.531561277806758881e-02
-8.135016076266765594e-03
-6.728102453052997589e-03
6.867887917906045914e-03
1.244323793798685074e-02
6.410550791770219803e-03
-1.753655821084976196e-02
-5.444666836410760880e-03
1.385334646329283714e-03
-3.108029067516326904e-02
2.392591908574104309e-02
4.258754104375839233e-02
3.890446946024894714e-02
-8.320940658450126648e-03
-1.947563514113426208e-02
1.184155791997909546e-01
-8.460523560643196106e-03
9.200216829776763916e-02
-1.304881647229194641e-02
-2.495263703167438507e-03
-1.946602389216423035e-02
6.465835496783256531e-03
-1.410863921046257019e-02
-3.504939004778862000e-02
-2.284600585699081421e-02
-4.620712623000144958e-02
-1.193255465477705002e-02
-4.739792272448539734e-02
8.419785648584365845e-03
-1.600699126720428467e-02
-3.377237915992736816e-02
7.155847270041704178e-03
-1.548078283667564392e-02
-2.035346068441867828e-02
3.946730121970176697e-02
-3.296316415071487427e-02
-3.409045282751321793e-03
1.108312886208295822e-02
2.447352046146988869e-03
-2.936242334544658661e-02
-7.294128183275461197e-03
3.290396556258201599e-02
4.890124499797821045e-02
-1.219329796731472015e-02
-9.432866354472935200e-04
3.038056567311286926e-02
-1.897541433572769165e-02
-2.266915142536163330e-02
1.147409528493881226e-02
3.867986670229583979e-04
2.666808478534221649e-02
-3.922686725854873657e-02
-9.047569707036018372e-03
1.012176927179098129e-02
6.138270720839500427e-02
-4.485388845205307007e-02
-2.458134293556213379e-02
-3.289544954895973206e-02
-2.445215359330177307e-02
-3.477834165096282959e-03
2.744001569226384163e-03
-8.948270231485366821e-03
-2.736311778426170349e-02
2.819098066538572311e-03
-1.174449361860752106e-02
4.160384833812713623e-02
-7.498007267713546753e-03
-2.699762955307960510e-02
-5.633553024381399155e-03
-1.721657440066337585e-02
-2.227585762739181519e-03
-2.892547845840454102e-02
4.906271118670701981e-03
-1.614139601588249207e-02
-7.076858077198266983e-03
4.054310545325279236e-02
7.047803141176700592e-03
-1.229412853717803955e-02
3.902166383340954781e-03
-2.490628743544220924e-03
-3.498608991503715515e-02
-3.006150200963020325e-02
1.664277538657188416e-02
-2.102556079626083374e-02
-3.050378151237964630e-02
2.084910497069358826e-02
-3.029485419392585754e-02
1.446150243282318115e-02
-6.310381460934877396e-03
1.864794827997684479e-02
-1.811219006776809692e-02
1.948668062686920166e-02
2.351949736475944519e-02
-2.730020880699157715e-02
2.600941434502601624e-02
-1.799028739333152771e-02
-2.577726263552904129e-03
-3.913228213787078857e-02
1.788560301065444946e-02
-3.922865726053714752e-03
-1.158868521451950073e-02
5.011098925024271011e-03
-3.163097426295280457e-02
-8.051446639001369476e-03
7.036013063043355942e-03
-1.470912992954254150e-02
-3.905851766467094421e-02
-5.326320976018905640e-02
-3.586101904511451721e-02
-7.756602950394153595e-03
3.252531588077545166e-02
2.870966680347919464e-02
-7.191218901425600052e-03
-6.615174468606710434e-03
1.050110161304473877e-02
2.052544802427291870e-02
1.420500315725803375e-02
-4.787235055118799210e-03
-7.371978368610143661e-03
-1.473249401897192001e-02
-9.389266371726989746e-03
-1.059181150048971176e-02
2.819193154573440552e-02
1.449520606547594070e-02
-4.059983789920806885e-02
-1.887160167098045349e-02
-8.820003713481128216e-04
3.514748439192771912e-02
-1.836354658007621765e-02
-2.829036302864551544e-02
2.607614500448107719e-03
-3.008178994059562683e-02
1.307572722434997559e-01
-2.084839902818202972e-02
3.002382442355155945e-02
1.185960788279771805e-02
2.393579483032226562e-02
-2.339022792875766754e-02
-2.411071211099624634e-02
-3.530538082122802734e-02
-3.759053722023963928e-02
-4.350777342915534973e-02
4.582743160426616669e-03
-1.001965999603271484e-02
-1.709617301821708679e-02
-2.367830649018287659e-02
-2.244780072942376137e-03
-2.448956482112407684e-02
-1.658340170979499817e-02
-2.295940369367599487e-02
2.428031526505947113e-02
7.542135426774621010e-04
-9.999874979257583618e-03
4.632373806089162827e-03
-1.920171454548835754e-02
7.856980897486209869e-03
-3.086554631590843201e-02
-1.750403549522161484e-03
1.227687373757362366e-01
3.457003971561789513e-03
1.660450361669063568e-03
1.933506503701210022e-02
-3.065819479525089264e-02
-9.584708139300346375e-03
1.228411123156547546e-02
7.436716929078102112e-03
-2.077499218285083771e-02
-4.117094445973634720e-03
-3.925430588424205780e-03
7.348565850406885147e-03
-1.062246039509773254e-02
-2.800150029361248016e-02
-7.421810645610094070e-03
7.273449096828699112e-03
1.018719524145126343e-01
4.889549687504768372e-03
-4.351472482085227966e-02
-5.351985618472099304e-02
2.286176942288875580e-02
-9.707958437502384186e-03
3.750497708097100258e-03
2.879028674215078354e-03
-3.495002537965774536e-02
3.733018413186073303e-03
-7.214763201773166656e-03
9.134149877354502678e-04
1.870731264352798462e-02
-5.995590239763259888e-02
-3.339736908674240112e-02
-7.198960520327091217e-03
-4.998422414064407349e-02
6.815114058554172516e-03
-1.085344818420708179e-03
-1.770514063537120819e-02
-8.544743759557604790e-04
3.188148513436317444e-02
2.570086903870105743e-02
-9.667566977441310883e-03
3.494263812899589539e-02
9.038402698934078217e-03
4.254349321126937866e-02
8.755449205636978149e-03
-1.998655870556831360e-02
-9.068368002772331238e-03
4.805732890963554382e-02
-2.909799804911017418e-03
8.631693199276924133e-03
-2.723747119307518005e-02
2.775833569467067719e-02
-2.252918668091297150e-02
4.833308048546314240e-03
-2.511522173881530762e-02
-5.255245137959718704e-03
5.257952492684125900e-03
-1.503632520325481892e-03
1.510796835646033287e-03
2.295451983809471130e-02
3.897373971994966269e-04
3.113753534853458405e-02
1.491151750087738037e-02
1.973247528076171875e-02
-2.238712273538112640e-02
-8.591988007538020611e-04
-4.726657178252935410e-03
-4.059347510337829590e-02
5.622215103358030319e-03
9.571404755115509033e-02
-3.387611731886863708e-02
-3.790959250181913376e-03
1.016898546367883682e-02
3.033917769789695740e-02
-2.499649068340659142e-03
6.362898275256156921e-03
2.139177918434143066e-02
-2.756942063570022583e-02
2.514067292213439941e-02
7.516372203826904297e-02
-1.331413723528385162e-02
5.479199346154928207e-03
-7.694923318922519684e-03
-6.728262640535831451e-03
-1.827125996351242065e-02
2.523041144013404846e-02
1.485383976250886917e-02
-2.777185756713151932e-03
7.857962511479854584e-03
7.102952338755130768e-03
6.848727352917194366e-03
-3.382565453648567200e-02
-7.219654042273759842e-03
2.901940606534481049e-02
1.566625386476516724e-02
-1.337218657135963440e-02
1.579528301954269409e-02
1.635549776256084442e-02
-6.866862531751394272e-03
5.220825597643852234e-02
-1.220106612890958786e-02
-6.298142671585083008e-02
-2.863778360188007355e-02
4.241956770420074463e-02
9.642814286053180695e-03
-3.128175158053636551e-03
-6.297822110354900360e-03
-1.950964890420436859e-02
-1.705144532024860382e-02
3.254481032490730286e-02
-4.210986196994781494e-02
-3.614998981356620789e-02
-1.530734822154045105e-02
-2.414188347756862640e-03
6.712628062814474106e-03
2.131677465513348579e-03
4.452080465853214264e-03
3.624327015131711960e-03
-1.003804337233304977e-02
2.791794482618570328e-03
-3.065076656639575958e-02
-7.711365818977355957e-03
-3.940374590456485748e-03
7.066942285746335983e-03
-3.697969391942024231e-02
2.434346266090869904e-02
2.111379429697990417e-02
-6.801265757530927658e-03
1.014816667884588242e-02
1.067486405372619629e-02
6.454573012888431549e-03
-1.040670089423656464e-03
2.154492959380149841e-02
-1.369662955403327942e-02
-2.908210642635822296e-02
1.878873631358146667e-02
8.314752951264381409e-03
-1.230192556977272034e-02
-5.017743632197380066e-02
9.665363468229770660e-03
2.887155115604400635e-02
-2.822597138583660126e-02
-9.256660268874838948e-05
-1.776262558996677399e-02
3.658213838934898376e-02
2.402186393737792969e-02
-7.645022589713335037e-03
4.288405179977416992e-03
2.471781335771083832e-02
-2.649985253810882568e-02
1.055841427296400070e-02
-6.660827249288558960e-02
-6.731588393449783325e-03
-7.071114610880613327e-03
1.890720799565315247e-02
8.195444010198116302e-03
-1.273683551698923111e-02
2.888333052396774292e-02
-2.494805492460727692e-03
4.019166156649589539e-02
-3.809829428791999817e-02
-3.518816456198692322e-02
1.558240689337253571e-02
5.168221425265073776e-03
6.596641242504119873e-02
-1.144406478852033615e-02
-5.310015752911567688e-03
2.237609215080738068e-02
-7.307534571737051010e-03
1.836771890521049500e-02
1.752770319581031799e-02
-1.064106170088052750e-02
1.154372747987508774e-02
-1.045197155326604843e-02
2.888950332999229431e-02
1.855602115392684937e-02
-5.889963824301958084e-03
1.323121041059494019e-02
-1.144403126090764999e-02
2.336565032601356506e-02
1.198085397481918335e-02
1.503909006714820862e-03
-4.288868233561515808e-02
-1.891349093057215214e-03
2.194876410067081451e-02
-1.580581255257129669e-02
4.850194789469242096e-03
7.737089414149522781e-03
1.833526534028351307e-03
-7.832627743482589722e-04
-3.502779826521873474e-02
-1.185217313468456268e-02
-4.899430647492408752e-02
-1.448879297822713852e-02
-7.494351360946893692e-03
1.014808565378189087e-02
1.290495600551366806e-02
1.378529984503984451e-02
1.668189652264118195e-02
-2.981537394225597382e-02
5.195156671106815338e-03
-2.477522008121013641e-02
2.914779447019100189e-02
4.497041553258895874e-02
-3.160958411172032356e-03
3.857716917991638184e-02
1.953616738319396973e-02
2.517268247902393341e-02
5.944682750850915909e-03
4.699964821338653564e-02
5.372718721628189087e-02
1.116940844804048538e-02
-1.921268552541732788e-02
8.466550149023532867e-03
8.566453121602535248e-03
1.439482672140002251e-03
3.549228655174374580e-03
6.055007129907608032e-02
7.669406943023204803e-03
-7.972896099090576172e-03
4.332983493804931641e-02
1.126019749790430069e-02
-1.141384802758693695e-02
-1.272988505661487579e-02
4.305947106331586838e-03
-2.332457154989242554e-02
1.235244981944561005e-02
-6.938822567462921143e-02
-2.029723860323429108e-02
3.221340849995613098e-02
-6.466738414019346237e-03
-1.705786772072315216e-02
-3.471289761364459991e-03
-3.474465012550354004e-02
2.124135615304112434e-03
7.568112015724182129e-02
-1.135660707950592041e-02
-1.703971810638904572e-02
6.811692146584391594e-04
-1.244100928306579590e-02
-5.784171633422374725e-03
1.829713955521583557e-02
-2.355950651690363884e-03
-1.378642581403255463e-02
-4.205859825015068054e-02
3.721909597516059875e-02
-2.813750319182872772e-02
8.176303817890584469e-04
-1.658615842461585999e-02
5.890390649437904358e-02
-1.542134024202823639e-02
-3.359090909361839294e-02
4.702423885464668274e-02
6.589811295270919800e-03
-2.439996041357517242e-02
-5.274345166981220245e-03
-2.494242601096630096e-02
8.497848175466060638e-03
-4.400367382913827896e-03
1.037347503006458282e-02
2.389190718531608582e-02
-3.795707970857620239e-02
1.465072762221097946e-02
-2.254654653370380402e-02
3.135448321700096130e-03
-1.500325743108987808e-02
5.386066157370805740e-03
-2.299772389233112335e-02
3.595765447244048119e-03
3.547410247847437859e-03
5.877821519970893860e-02
-9.958961978554725647e-03
6.838513165712356567e-02
-1.444731839001178741e-02
-2.264519035816192627e-02
-6.921501364558935165e-03
-2.780957613140344620e-03
7.577419281005859375e-02
5.484868306666612625e-04
1.780397491529583931e-03
-1.350154168903827667e-02
-4.728871956467628479e-02
3.329466283321380615e-02
8.479222655296325684e-03
7.263704668730497360e-03
-1.982660964131355286e-02
3.398600593209266663e-02
1.865122350864112377e-03
6.171141751110553741e-03
5.649825092405080795e-03
-1.875590416602790356e-03
1.174994744360446930e-02
3.409631084650754929e-03
-2.649871632456779480e-03
-1.170708611607551575e-02
-1.108434796333312988e-01
1.797027699649333954e-02
2.708113007247447968e-02
7.375908549875020981e-03
5.091061070561408997e-02
-2.023812197148799896e-02
1.382550108246505260e-03
1.755396276712417603e-02
6.358405109494924545e-03
1.809532754123210907e-02
-1.233506016433238983e-02
-2.472703345119953156e-02
6.355137377977371216e-02
4.232046008110046387e-02
-1.517843641340732574e-02
-9.734819084405899048e-02
-1.767517440021038055e-02
1.589380763471126556e-02
1.487303432077169418e-02
1.013865880668163300e-02
-5.319480225443840027e-02
-5.865180864930152893e-03
3.577125817537307739e-02
3.808111697435379028e-02
1.206206809729337692e-02
-3.177633509039878845e-02
1.342669036239385605e-02
2.639271691441535950e-02
-2.538830973207950592e-02
-4.359100945293903351e-03
8.836539834737777710e-02
-9.330067783594131470e-03
-1.147322822362184525e-03
-1.117299403995275497e-02
9.901772253215312958e-03
-3.060832433402538300e-02
5.682449415326118469e-02
-1.738967746496200562e-02
-5.655789747834205627e-02
2.162940986454486847e-02
-2.377949468791484833e-02
-2.080645784735679626e-02
1.775351352989673615e-02
3.655310347676277161e-02
5.285022035241127014e-02
-1.093314401805400848e-02
1.913051679730415344e-02
-1.069135684520006180e-02
1.193507481366395950e-02
9.548067115247249603e-03
2.851762622594833374e-02
-3.689187287818640471e-04
-5.529280006885528564e-02
1.913662999868392944e-02
-3.102333517745137215e-03
1.984460465610027313e-02
6.109870970249176025e-03
7.960784249007701874e-03
-3.464500233530998230e-02
2.508317120373249054e-02
5.842217803001403809e-02
1.264347229152917862e-02
6.108228582888841629e-03
-6.949844956398010254e-02
-8.360269665718078613e-02
-1.078666374087333679e-02
1.793219707906246185e-02
1.098136696964502335e-02
6.415894255042076111e-03
2.921829186379909515e-02
2.429351583123207092e-02
3.062035189941525459e-03
-3.273904696106910706e-02
-1.983931660652160645e-02
-1.910888217389583588e-02
-5.060046166181564331e-02
-2.543789148330688477e-02
6.516245007514953613e-02
-8.675530552864074707e-03
-3.205947205424308777e-02
-7.316770032048225403e-03
-9.573451243340969086e-04
-1.039746776223182678e-01
7.321321219205856323e-02
-1.484655402600765228e-02
-2.464729361236095428e-02
-2.280512638390064240e-02
-6.129606813192367554e-02
1.658884109929203987e-03
5.797494575381278992e-02
-1.078420691192150116e-02
2.051172032952308655e-02
-3.797352686524391174e-02
1.249940251000225544e-03
4.274813085794448853e-02
-8.238333463668823242e-02
1.186035666614770889e-02
1.604685001075267792e-02
2.005040459334850311e-02
-4.716520011425018311e-02
1.856719609349966049e-03
-1.035702135413885117e-02
-4.500075429677963257e-02
-2.773430943489074707e-02
3.227622807025909424e-02
2.073892578482627869e-02
2.527510747313499451e-02
-2.888664975762367249e-02
1.325594168156385422e-02
2.526701986789703369e-02
9.454170241951942444e-03
2.239673957228660583e-02
-6.980256177484989166e-03
-3.911432251334190369e-02
5.025619175285100937e-03
9.728904813528060913e-03
2.372740581631660461e-02
-4.871066287159919739e-02
-3.141778707504272461e-02
-2.016295678913593292e-02
4.214993119239807129e-02
-4.707379266619682312e-02
7.933577150106430054e-02
-4.349817708134651184e-02
-1.589490129845216870e-04
3.159699961543083191e-03
-3.831764683127403259e-02
1.242865249514579773e-02
-1.606320403516292572e-02
1.278847269713878632e-02
4.754914715886116028e-02
5.094739422202110291e-02
-2.243759855628013611e-02
1.752151921391487122e-02
4.612636938691139221e-02
2.826515398919582367e-02
-2.883752249181270599e-02
-4.444879665970802307e-02
-6.602923385798931122e-04
-1.526856608688831329e-02
5.060649663209915161e-02
-4.356711357831954956e-02
2.106196805834770203e-02
-2.536468580365180969e-02
-3.648367244750261307e-03
-4.778827354311943054e-02
4.014533013105392456e-02
2.045825496315956116e-02
-1.946485019288957119e-03
4.596913605928421021e-02
-9.049002081155776978e-03
8.867669850587844849e-03
-5.073153297416865826e-04
-1.155163068324327469e-02
6.043135188519954681e-03
1.288617122918367386e-02
-1.696100272238254547e-02
-1.035622134804725647e-02
8.673068135976791382e-02
1.671906560659408569e-02
-1.554645132273435593e-02
7.131591439247131348e-02
-2.319278009235858917e-02
2.457584720104932785e-03
-4.387965425848960876e-03
-1.732168905436992645e-02
3.909570351243019104e-02
2.263704873621463776e-02
-3.864688798785209656e-02
-1.704416237771511078e-02
-1.139375101774930954e-02
-3.058909252285957336e-02
4.813487175852060318e-03
-6.985696498304605484e-03
3.077919781208038330e-02
-3.666594997048377991e-02
-1.487392280250787735e-02
6.851030047982931137e-03
3.127851709723472595e-02
-3.179774619638919830e-03
1.776984147727489471e-02
6.537954788655042648e-03
6.462830305099487305e-02
4.486158862709999084e-02
1.776194199919700623e-02
3.747037053108215332e-02
-2.576447091996669769e-02
3.889057412743568420e-02
4.113980103284120560e-03
2.796701900660991669e-02
-3.143210196867585182e-04
3.182683885097503662e-02
-4.945370554924011230e-02
-7.011055015027523041e-03
4.529134370386600494e-03
-6.010928377509117126e-02
1.775272074155509472e-03
4.581789486110210419e-03
8.870037272572517395e-03
7.702582329511642456e-02
-4.667355492711067200e-02
1.862185448408126831e-02
5.752333998680114746e-02
5.945086851716041565e-02
-3.065218217670917511e-02
-4.322567209601402283e-02
6.154083833098411560e-02
-3.610878065228462219e-02
2.793643437325954437e-02
-4.907280579209327698e-02
8.113978803157806396e-02
2.612334862351417542e-02
-6.210557650774717331e-03
-1.435387972742319107e-02
-1.357014756649732590e-02
-1.521599572151899338e-02
8.080452098511159420e-04
2.074310369789600372e-02
5.935470014810562134e-02
-6.068611983209848404e-03
2.273944392800331116e-02
-2.090691961348056793e-02
-2.014622092247009277e-02
1.394044328480958939e-02
-8.938164263963699341e-02
2.951177954673767090e-02
2.826645225286483765e-02
7.734580431133508682e-03
5.230233073234558105e-02
3.884202614426612854e-02
1.023318059742450714e-02
-4.013520479202270508e-02
7.130843400955200195e-02
3.340123221278190613e-02
4.861618205904960632e-02
-6.020596250891685486e-02
1.044409070163965225e-02
-7.244031876325607300e-02
2.185412123799324036e-02
-1.036817952990531921e-02
2.890724316239356995e-02
5.332223139703273773e-03
-1.026877854019403458e-02
-5.256498605012893677e-02
-1.824368536472320557e-02
-4.659515339881181717e-03
-2.264551876578480005e-04
-7.850337773561477661e-03
4.708970431238412857e-03
2.228079101769253612e-04
5.765890330076217651e-02
-1.267210245132446289e-01
2.285557985305786133e-02
2.245865203440189362e-02
3.349669650197029114e-02
-1.539631839841604233e-02
-2.586312033236026764e-02
3.526965156197547913e-03
4.036213830113410950e-02
4.195512086153030396e-02
-4.195468034595251083e-03
9.094697237014770508e-02
-1.125078275799751282e-02
1.248957596544642001e-05
1.176763977855443954e-02
4.490837082266807556e-02
2.345976419746875763e-02
-4.177255555987358093e-02
5.962640792131423950e-02
-4.764560982584953308e-02
2.547563635744154453e-04
3.760799393057823181e-02
-3.623998165130615234e-02
-9.188177995383739471e-03
-1.843488216400146484e-02
-5.297484342008829117e-03
-5.446468293666839600e-02
5.568209569901227951e-03
6.115853413939476013e-02
5.928261205554008484e-02
-1.039442941546440125e-01
2.741979062557220459e-02
-1.707307994365692139e-02
1.453713048249483109e-04
-1.018889918923377991e-01
-6.545821577310562134e-02
2.943419292569160461e-02
-2.948934771120548248e-02
-4.165437072515487671e-03
-4.380112886428833008e-02
1.197053398936986923e-02
3.674714267253875732e-02
1.486226799897849560e-03
-1.865375228226184845e-02
5.540852621197700500e-02
7.160708308219909668e-02
6.604832131415605545e-03
-2.321738749742507935e-02
1.554669253528118134e-02
5.489154136739671230e-04
-6.846730411052703857e-02
-1.595916599035263062e-02
5.882549565285444260e-03
-7.984896749258041382e-02
2.284290967509150505e-03
3.368722647428512573e-02
5.107009783387184143e-03
4.806406423449516296e-02
1.126144975423812866e-01
-2.406243467703461647e-03
2.516886778175830841e-02
1.255641784518957138e-02
-1.263266522437334061e-02
1.854208111763000488e-02
-5.430485680699348450e-02
5.160970985889434814e-02
3.953301534056663513e-02
-1.587087404914200306e-03
1.501521747559309006e-02
-2.915200218558311462e-02
-1.934744417667388916e-02
-5.863461643457412720e-03
-2.720827003940939903e-03
-2.903749793767929077e-02
-3.259612619876861572e-02
-2.175970561802387238e-02
-3.246285952627658844e-03
5.117350816726684570e-02
-1.774273999035358429e-02
-7.083696871995925903e-02
-1.330019719898700714e-02
-2.264594845473766327e-02
-1.884569227695465088e-02
-3.138187574222683907e-03
-8.158897049725055695e-03
-4.249146953225135803e-02
-1.620351709425449371e-02
1.121189631521701813e-02
-2.688789740204811096e-02
4.360863566398620605e-02
-8.696993812918663025e-03
2.242260426282882690e-02
-4.715384170413017273e-02
-7.021403405815362930e-03
2.586270682513713837e-03
-5.142057198099792004e-04
-1.090495511889457703e-01
1.108182966709136963e-02
2.000162191689014435e-02
-7.418041676282882690e-02
5.593163892626762390e-02
-5.484617315232753754e-03
-1.137028913944959641e-02
-2.207246609032154083e-02
-3.486537607386708260e-03
-2.418418414890766144e-02
-1.413138024508953094e-02
3.654626384377479553e-02
3.132085874676704407e-02
1.205993071198463440e-01
-1.568168774247169495e-02
-4.379903897643089294e-03
2.906583063304424286e-02
-1.032204087823629379e-02
9.337525814771652222e-03
9.628276340663433075e-03
-8.055086364038288593e-04
-3.303354606032371521e-02
-3.884565457701683044e-02
-2.166189253330230713e-03
9.357308968901634216e-03
5.098377540707588196e-02
9.174317121505737305e-03
-5.309517029672861099e-03
-9.792337566614151001e-02
-1.154280379414558411e-01
-4.615360870957374573e-02
-1.188563834875822067e-02
2.759836427867412567e-02
-5.622548237442970276e-02
-2.483009174466133118e-02
2.504149451851844788e-02
1.884483359754085541e-02
-2.022203058004379272e-03
-3.883053734898567200e-02
-4.425154998898506165e-02
1.504806894809007645e-02
-3.842144215013831854e-04
-3.128729993477463722e-03
2.441226132214069366e-02
6.936038285493850708e-02
4.728990793228149414e-02
-1.517475489526987076e-02
-5.232033133506774902e-02
-8.968589827418327332e-03
-6.687551736831665039e-02
-2.749875001609325409e-02
-5.701407790184020996e-02
8.313968777656555176e-03
3.129099309444427490e-02
-2.417953126132488251e-02
-4.025837872177362442e-03
2.582206390798091888e-03
-2.964626532047986984e-03
3.259656252339482307e-03
-2.568751759827136993e-02
-1.396661158651113510e-02
-4.193728789687156677e-02
2.259140647947788239e-02
-5.040875449776649475e-02
3.409384284168481827e-03
2.685455605387687683e-02
-1.143422424793243408e-01
-2.309318259358406067e-02
4.607679694890975952e-02
-3.169291839003562927e-02
7.171098142862319946e-03
1.535566058009862900e-03
-8.050876855850219727e-02
-3.437619656324386597e-02
-9.979119524359703064e-03
2.365870401263237000e-03
-7.801623432897031307e-04
3.563479706645011902e-02
2.875879779458045959e-02
6.795960478484630585e-03
-2.056273445487022400e-02
1.215878874063491821e-03
-2.671655500307679176e-03
-1.178825832903385162e-02
3.900711610913276672e-02
-1.032204777002334595e-01
2.703170664608478546e-02
-6.418273784220218658e-03
8.028540760278701782e-02
1.800109818577766418e-02
-2.152772620320320129e-03
1.676169782876968384e-02
-2.593531832098960876e-02
1.252916641533374786e-02
-6.644963473081588745e-02
-1.300260797142982483e-02
-2.056960761547088623e-02
4.738447070121765137e-02
1.508969161659479141e-02
-1.654065772891044617e-02
-3.380118310451507568e-02
-7.450964767485857010e-03
-1.125239674001932144e-02
3.980358690023422241e-02
2.086604759097099304e-02
4.520189389586448669e-02
9.499555453658103943e-03
-3.712605684995651245e-02
8.424647152423858643e-03
1.195591595023870468e-02
4.386718384921550751e-03
-8.691829629242420197e-03
7.656846940517425537e-02
9.509455412626266479e-02
-2.653974667191505432e-02
4.734812676906585693e-02
1.832203008234500885e-02
9.669486433267593384e-03
-5.636666901409626007e-03
-1.626124978065490723e-02
-2.900875359773635864e-02
1.083731092512607574e-02
2.225628867745399475e-02
2.376661263406276703e-02
-1.476464699953794479e-02
3.749845549464225769e-02
-1.708676293492317200e-02
-3.570723347365856171e-03
3.085473738610744476e-02
-3.335937624797224998e-03
1.089589968323707581e-01
2.614075690507888794e-02
-3.099715337157249451e-03
1.448351074941456318e-03
4.192929249256849289e-03
2.493538660928606987e-03
4.670223966240882874e-02
-8.114361204206943512e-03
4.914093762636184692e-02
3.961836919188499451e-02
-7.533921394497156143e-03
1.186370942741632462e-02
4.012151435017585754e-02
1.002446711063385010e-01
1.686538197100162506e-02
2.598200738430023193e-02
-7.717000693082809448e-02
-5.580433644354343414e-03
-2.280453033745288849e-02
-2.362385392189025879e-02
2.967618592083454132e-02
-1.622891053557395935e-02
-8.169432729482650757e-02
7.725660223513841629e-03
-1.884377375245094299e-02
-3.292859531939029694e-03
2.032557502388954163e-02
-7.431218028068542480e-02
-3.145409002900123596e-02
7.790183648467063904e-03
5.683649331331253052e-02
-8.120504207909107208e-03
-7.918708026409149170e-03
4.238480702042579651e-02
1.130819413810968399e-02
2.045961655676364899e-02
-2.658069320023059845e-02
-8.565139025449752808e-03
-1.865411642938852310e-03
-7.710675895214080811e-02
-4.275779705494642258e-03
-1.515945326536893845e-02
-1.849076338112354279e-02
2.163556637242436409e-03
-9.157749009318649769e-04
-2.417946234345436096e-03
-7.385183125734329224e-02
-3.126973658800125122e-02
-1.471596118062734604e-02
-3.758835420012474060e-02
-3.782465937547385693e-04
-3.803018480539321899e-02
-1.501848222687840462e-03
6.998921744525432587e-03
-6.508060730993747711e-03
1.510465238243341446e-02
2.220173925161361694e-02
6.945350207388401031e-03
3.580362722277641296e-02
1.076642144471406937e-02
1.810624822974205017e-02
-1.607733219861984253e-02
4.569549637380987406e-04
2.050810493528842926e-03
2.935913950204849243e-02
2.638289704918861389e-02
-7.409684360027313232e-02
4.875995684415102005e-03
2.396607957780361176e-02
3.788295760750770569e-02
5.175528116524219513e-03
1.380232535302639008e-02
1.564236916601657867e-02
-2.843682188540697098e-03
-1.501293154433369637e-03
1.848569326102733612e-02
-2.703395858407020569e-02
-2.935745194554328918e-02
1.685485616326332092e-02
-4.528810270130634308e-03
6.971242371946573257e-03
-1.947771944105625153e-02
-4.192860797047615051e-03
3.101058676838874817e-02
-4.221513227093964815e-04
1.096007600426673889e-02
3.838118282146751881e-04
-2.026839181780815125e-03
-1.444764062762260437e-02
1.604924909770488739e-02
1.534071750938892365e-02
-7.765112444758415222e-03
-1.143936999142169952e-02
-1.675451174378395081e-02
-9.933643043041229248e-03
-5.038604512810707092e-02
-1.387384999543428421e-02
-1.634565927088260651e-02
-4.125386849045753479e-02
3.996101394295692444e-02
-5.719438195228576660e-02
-2.372542768716812134e-02
1.224688347429037094e-02
-3.282080218195915222e-02
9.131741710007190704e-03
2.166547998785972595e-02
-3.603750467300415039e-02
4.556560888886451721e-03
-5.856445059180259705e-02
2.118992246687412262e-02
-4.931889101862907410e-02
4.863984137773513794e-02
-1.783090829849243164e-02
1.305774133652448654e-02
3.989301621913909912e-03
9.481072775088250637e-04
6.998348981142044067e-03
-5.961148533970117569e-03
5.270868912339210510e-02
-3.427558019757270813e-02
3.163300827145576477e-02
4.057393409311771393e-03
-6.679660640656948090e-03
1.818777061998844147e-03
1.731560193002223969e-02
1.562448870390653610e-02
9.342870675027370453e-03
5.159028340131044388e-03
1.778379082679748535e-03
8.735724724829196930e-03
6.019345950335264206e-03
2.921532280743122101e-02
1.905553601682186127e-02
2.638746984302997589e-03
-9.449678473174571991e-03
1.510805916041135788e-02
-1.595387049019336700e-02
-6.391145754605531693e-03
-1.012687534093856812e-01
-2.921625506132841110e-03
-8.441324345767498016e-03
-5.161541514098644257e-03
1.884879544377326965e-02
2.290362864732742310e-02
1.642931066453456879e-02
-1.831132918596267700e-02
-1.341577852144837379e-03
-4.377870634198188782e-02
1.660261116921901703e-02
-8.146122097969055176e-03
3.803414478898048401e-02
1.196197979152202606e-02
-1.716597378253936768e-02
3.120780177414417267e-02
1.991042681038379669e-02
2.272249571979045868e-02
-5.859494581818580627e-02
1.842971891164779663e-02
-2.900486066937446594e-02
1.227163430303335190e-02
2.518487162888050079e-03
-5.713345482945442200e-02
4.996786639094352722e-02
-1.652795448899269104e-02
-3.674624720588326454e-03
2.614839561283588409e-02
-3.829190507531166077e-02
-4.705521091818809509e-02
-1.085618697106838226e-02
3.773245727643370628e-03
-4.110506922006607056e-02
6.311140954494476318e-02
3.257771721109747887e-03
-1.845892169512808323e-03
1.612105756066739559e-03
-1.035743951797485352e-02
-3.187175840139389038e-02
-8.810432627797126770e-03
-8.183495141565799713e-03
7.777397334575653076e-02
3.725609742105007172e-03
-3.180871158838272095e-02
-1.149748452007770538e-03
1.460200734436511993e-02
-3.277061041444540024e-03
-5.605781823396682739e-02
-2.584483474493026733e-03
-1.097929271054454148e-04
4.302603378891944885e-02
2.024703472852706909e-02
-1.689381711184978485e-02
-2.273307926952838898e-02
1.505371741950511932e-02
-6.762491073459386826e-03
-1.494378596544265747e-01
-3.716194536536931992e-03
4.743862897157669067e-02
-8.057219907641410828e-03
3.199024358764290810e-03
1.506273914128541946e-02
-3.462020307779312134e-03
2.920088171958923340e-02
-9.634909220039844513e-03
1.188889984041452408e-02
2.722236094996333122e-03
-1.595024019479751587e-02
2.135535236448049545e-03
-1.100464537739753723e-01
6.571342702955007553e-03
-3.565365076065063477e-02
2.738258102908730507e-03
6.188692152500152588e-02
2.763940952718257904e-02
5.636600777506828308e-03
4.021303728222846985e-03
-2.355294674634933472e-02
3.021989483386278152e-03
5.637043068418279290e-05
-6.980364024639129639e-02
-7.856172509491443634e-03
-5.350413732230663300e-03
-3.122489713132381439e-02
1.324543263763189316e-02
5.756043363362550735e-03
-2.262670919299125671e-02
2.631693519651889801e-02
3.715250268578529358e-02
3.206524252891540527e-02
-1.143669523298740387e-02
7.932191714644432068e-03
6.496999412775039673e-02
7.434912025928497314e-02
-8.757857605814933777e-03
-7.133423350751399994e-03
-1.796204946003854275e-03
5.879575759172439575e-02
5.767918005585670471e-02
-2.708361111581325531e-02
-3.984899446368217468e-02
-2.097416110336780548e-02
-1.278444565832614899e-02
3.355808928608894348e-02
1.093871891498565674e-02
2.463445067405700684e-02
2.364990115165710449e-02
1.965130679309368134e-02
-1.618471369147300720e-02
-4.347220063209533691e-03
3.403219208121299744e-02
-4.718874115496873856e-03
-7.825694046914577484e-03
2.722076512873172760e-02
1.193365640938282013e-02
-3.902727365493774414e-02
3.406791388988494873e-02
4.509046301245689392e-02
-1.759803481400012970e-02
2.434409223496913910e-02
-3.768273815512657166e-02
-2.214567270129919052e-03
5.231068003922700882e-03
-3.566963598132133484e-03
3.007480874657630920e-02
-1.023803558200597763e-02
8.745900355279445648e-03
2.361610531806945801e-02
-8.852561586536467075e-05
-6.282783299684524536e-02
-1.457669213414192200e-02
-1.879486255347728729e-02
-2.594223059713840485e-02
-3.419996052980422974e-02
-9.263017214834690094e-03
2.233777381479740143e-02
-4.834698513150215149e-02
6.973322015255689621e-03
-3.523295745253562927e-02
-1.196841592900454998e-03
5.403356626629829407e-02
1.085107494145631790e-02
-1.398049946874380112e-02
8.367678150534629822e-03
2.258035168051719666e-02
-8.796281181275844574e-03
-3.926657512784004211e-02
1.819281466305255890e-02
5.757374223321676254e-03
-1.044868864119052887e-02
1.439932733774185181e-03
1.250223256647586823e-02
-5.324848461896181107e-03
5.158982798457145691e-02
2.070387825369834900e-02
-1.746729388833045959e-02
8.524113334715366364e-03
2.395379357039928436e-02
3.351498162373900414e-03
-1.399649400264024734e-02
-1.655984111130237579e-02
-1.365384645760059357e-02
3.525093197822570801e-04
-5.410456564277410507e-03
-5.759709700942039490e-02
1.796487160027027130e-02
-4.718866199254989624e-03
-8.245158940553665161e-03
-1.410385034978389740e-02
-2.402247861027717590e-03
-7.867670617997646332e-03
1.851285691373050213e-03
3.130503697320818901e-03
9.477377869188785553e-03
1.487951073795557022e-02
5.323758348822593689e-03
-6.033646408468484879e-03
1.041897945106029510e-02
2.019975148141384125e-02
1.387191843241453171e-02
1.137829944491386414e-02
6.376405246555805206e-03
-1.867279596626758575e-02
-3.785494342446327209e-02
1.546009909361600876e-02
-2.046154253184795380e-02
-1.765275956131517887e-03
8.063158020377159119e-03
-1.502258982509374619e-02
6.123557221144437790e-03
1.169778257608413696e-01
-7.494360674172639847e-03
3.133460879325866699e-02
4.758101701736450195e-02
-1.910664886236190796e-02
1.388537324965000153e-02
1.852430030703544617e-02
5.999674089252948761e-03
-1.418488752096891403e-02
-1.197105366736650467e-02
5.951480474323034286e-03
4.904194921255111694e-02
-2.280920557677745819e-02
3.514578565955162048e-02
3.819232061505317688e-02
-1.223347615450620651e-02
4.575984179973602295e-02
2.525507472455501556e-02
-3.242899850010871887e-02
-7.606293074786663055e-03
-2.110070548951625824e-02
2.325644157826900482e-02
1.616465114057064056e-02
-1.412448845803737640e-02
-1.458414457738399506e-02
-1.683236099779605865e-02
1.039353758096694946e-02
2.962890313938260078e-03
9.698222391307353973e-03
-2.384103601798415184e-03
1.721630338579416275e-03
-3.093213960528373718e-02
1.097626867704093456e-03
-1.306118536740541458e-02
-1.371338497847318649e-02
-2.288294583559036255e-02
-5.762858316302299500e-02
3.255512099713087082e-03
2.516634063795208931e-03
2.257310040295124054e-02
-2.209909958764910698e-03
-4.724904522299766541e-02
4.405925981700420380e-03
8.947943896055221558e-02
-1.238379161804914474e-03
3.034120891243219376e-03
3.836864233016967773e-02
-3.391127800568938255e-03
3.608049126341938972e-03
2.493771910667419434e-02
6.226384546607732773e-03
-5.564359948039054871e-02
-2.333087846636772156e-03
-3.593188151717185974e-02
2.718634204939007759e-04
1.837117224931716919e-02
5.598554387688636780e-03
-3.894050605595111847e-03
2.390308380126953125e-01
5.632010288536548615e-03
-7.943763397634029388e-03
-5.565314553678035736e-03
3.156577702611684799e-03
5.610353313386440277e-03
-1.379411667585372925e-02
3.443576395511627197e-03
4.907703492790460587e-03
-2.922503277659416199e-03
-6.222981959581375122e-03
6.370735354721546173e-03
1.445833500474691391e-02
-1.159098185598850250e-02
3.707374213263392448e-03
-3.091205097734928131e-02
1.855900976806879044e-03
-8.381985127925872803e-03
-6.589888129383325577e-03
-4.706510342657566071e-03
-4.205280169844627380e-02
2.459145523607730865e-02
-2.040539309382438660e-02
-3.817034512758255005e-02
-5.463216803036630154e-04
1.029923465102910995e-02
3.469257056713104248e-02
-4.977930337190628052e-03
2.603637054562568665e-02
-7.809239905327558517e-03
3.038287349045276642e-02
5.787339061498641968e-03
-3.424005815759301186e-03
4.037544596940279007e-03
7.709045894443988800e-03
3.029908612370491028e-02
1.976784877479076385e-02
7.938876515254378319e-04
6.081544328480958939e-03
9.788260795176029205e-03
7.927536964416503906e-03
-2.250010892748832703e-02
1.696196198463439941e-02
1.075845863670110703e-02
5.955803208053112030e-03
9.304727427661418915e-03
1.984540931880474091e-02
-2.580210566520690918e-03
-4.402471706271171570e-03
-1.379365939646959305e-02
-4.614553879946470261e-03
3.894062712788581848e-03
8.392953313887119293e-03
1.971168816089630127e-02
7.319441530853509903e-03
-2.229412086308002472e-02
4.059136845171451569e-03
-1.126139052212238312e-02
-2.638512104749679565e-02
1.930107735097408295e-02
2.628477290272712708e-02
1.245959941297769547e-02
1.276515144854784012e-02
4.084285348653793335e-03
1.062025222927331924e-02
7.177745923399925232e-03
-3.869684785604476929e-02
-1.950557157397270203e-02
-1.743546687066555023e-02
-5.327655002474784851e-03
5.611033737659454346e-02
9.594858624041080475e-03
-3.968150541186332703e-02
-3.577963262796401978e-02
-6.873383186757564545e-03
2.323745284229516983e-03
4.855947103351354599e-03
-8.485125377774238586e-03
-9.400544688105583191e-03
4.865080118179321289e-03
-1.185283530503511429e-02
5.496699828654527664e-03
6.112425588071346283e-03
1.310218125581741333e-02
-7.991595193743705750e-03
-1.093620061874389648e-02
5.201771273277699947e-04
-1.758592762053012848e-02
1.086605899035930634e-02
7.884223945438861847e-03
-2.928816946223378181e-03
-2.222317829728126526e-02
2.517374046146869659e-02
1.514874584972858429e-02
-4.138331860303878784e-02
3.933816682547330856e-03
2.865776477847248316e-04
2.750929258763790131e-02
-2.803724026307463646e-03
9.216489270329475403e-03
-3.773484379053115845e-02
-2.982211008202284575e-04
8.446776308119297028e-03
-9.430944919586181641e-03
-2.608304470777511597e-02
1.189376972615718842e-02
9.467726573348045349e-03
7.489581592381000519e-03
-1.569976657629013062e-02
1.065613701939582825e-02
1.534967217594385147e-03
-2.589114382863044739e-02
2.493772655725479126e-02
1.506602298468351364e-02
1.706611551344394684e-02
3.504578396677970886e-02
1.476401113905012608e-03
-1.825048029422760010e-02
-1.569547317922115326e-02
-2.095577307045459747e-02
-9.524825960397720337e-03
3.189717885106801987e-03
4.292723722755908966e-03
-4.853026941418647766e-03
6.719966977834701538e-02
-6.851753685623407364e-03
3.009949438273906708e-02
-2.300464548170566559e-02
-1.536227390170097351e-02
1.739831827580928802e-02
1.412564981728792191e-02
3.483565291389822960e-03
-4.642649088054895401e-03
5.888732895255088806e-02
7.649434730410575867e-03
1.442482788115739822e-02
1.844029687345027924e-02
1.070867478847503662e-02
1.104506012052297592e-02
2.784323506057262421e-02
-2.533103339374065399e-02
4.901979863643646240e-02
-8.793304674327373505e-03
-1.965845003724098206e-02
-1.824327744543552399e-02
-2.487325668334960938e-02
3.598822979256510735e-03
-1.203683018684387207e-02
2.639071084558963776e-03
-2.501505240797996521e-02
1.348771993070840836e-02
-2.163191791623830795e-03
-2.296992950141429901e-02
2.733965404331684113e-02
7.170510292053222656e-02
-1.606598310172557831e-02
-9.436756372451782227e-02
-1.045036986470222473e-01
-1.113298442214727402e-02
-1.488675479777157307e-03
-1.812565885484218597e-02
4.674501344561576843e-02
-2.021029032766819000e-02
7.345003075897693634e-03
-1.170423626899719238e-01
2.213013917207717896e-02
-3.822216391563415527e-02
-9.333833307027816772e-02
-9.003514423966407776e-03
1.606722362339496613e-02
2.693799696862697601e-02
-6.083930656313896179e-02
7.099853362888097763e-03
3.757848590612411499e-02
-7.170433551073074341e-02
8.815814740955829620e-03
-2.396116964519023895e-02
1.866876147687435150e-02
-3.920090850442647934e-03
-3.407930955290794373e-02
2.115746587514877319e-02
1.593970926478505135e-03
2.020443230867385864e-02
2.616196125745773315e-02
-1.189928874373435974e-02
-3.672983869910240173e-02
3.905126079916954041e-02
4.972041118890047073e-03
-1.374556217342615128e-02
5.171035300008952618e-04
2.626351453363895416e-02
2.012057602405548096e-02
-3.209711611270904541e-02
5.424384959042072296e-03
3.269074857234954834e-02
4.682809114456176758e-02
2.676968276500701904e-02
-2.111187763512134552e-02
-1.569678820669651031e-02
-2.621441893279552460e-02
-2.653531730175018311e-02
-7.219335436820983887e-02
6.051308661699295044e-02
-3.657229989767074585e-02
1.192702911794185638e-03
-7.564326748251914978e-03
2.352122962474822998e-02
-1.773039437830448151e-02
-3.798275440931320190e-02
-1.572744362056255341e-02
-1.299498882144689560e-02
-5.204759165644645691e-02
-1.833538711071014404e-02
-1.247068028897047043e-02
-2.839844673871994019e-02
-2.485227398574352264e-02
-5.397932603955268860e-02
-1.740923151373863220e-02
-7.826712913811206818e-03
4.427331034094095230e-03
-6.149940937757492065e-02
-4.318318143486976624e-02
4.508027061820030212e-02
-2.158306911587715149e-02
3.174930578097701073e-03
-6.718565523624420166e-02
8.258258551359176636e-02
-3.548130393028259277e-02
1.525437645614147186e-02
1.047218125313520432e-02
2.016733586788177490e-02
-2.148004807531833649e-02
1.202193670906126499e-03
3.528226912021636963e-02
-3.886905265972018242e-03
1.009917929768562317e-01
2.367502637207508087e-02
9.190863929688930511e-03
9.499130770564079285e-03
6.056843698024749756e-02
-4.644665867090225220e-03
-9.590187110006809235e-03
-1.757294684648513794e-02
-3.437055274844169617e-02
-2.371932379901409149e-02
9.087650477886199951e-02
-1.723773404955863953e-02
-5.361681804060935974e-03
-1.171549316495656967e-02
-4.087341949343681335e-02
4.634959250688552856e-02
9.308687597513198853e-02
3.690852969884872437e-02
1.211071759462356567e-02
-1.318140188232064247e-03
-3.235720843076705933e-02
2.400547452270984650e-02
-6.276181899011135101e-03
-7.268168963491916656e-03
-2.568618021905422211e-02
1.089921034872531891e-02
-1.183755137026309967e-02
-3.722693072631955147e-03
1.927513442933559418e-02
3.066236153244972229e-02
-1.088223680853843689e-01
1.356196124106645584e-02
-3.366340696811676025e-02
-3.651836514472961426e-02
1.121984422206878662e-02
2.258189953863620758e-02
-7.449473254382610321e-03
1.861852407455444336e-02
4.264835640788078308e-02
7.662157993763685226e-03
-1.861744560301303864e-02
-2.008591592311859131e-02
-4.413637891411781311e-02
-5.743850767612457275e-02
1.422830112278461456e-02
4.255115985870361328e-02
-1.525380928069353104e-02
4.170666262507438660e-02
7.547918241471052170e-03
-2.185625582933425903e-02
1.784082688391208649e-02
-1.293346867896616459e-03
9.070883505046367645e-03
3.559194132685661316e-02
9.450746700167655945e-03
1.566330157220363617e-02
7.796287536621093750e-02
-6.529984064400196075e-03
2.156887762248516083e-02
8.802853524684906006e-03
2.122634090483188629e-02
-1.556957978755235672e-02
-2.166498219594359398e-03
-6.604819092899560928e-03
-1.815347559750080109e-02
-2.650886401534080505e-02
4.073386080563068390e-03
-3.386110533028841019e-03
1.059408485889434814e-02
3.561842441558837891e-02
-5.198388546705245972e-02
-2.784137986600399017e-02
-4.201019182801246643e-04
4.651912953704595566e-03
-9.182802401483058929e-03
-9.947642683982849121e-03
3.844273462891578674e-02
-1.550415344536304474e-02
-2.439829334616661072e-02
-9.398505091667175293e-03
3.326898068189620972e-02
2.974679321050643921e-02
-2.994751930236816406e-02
-2.460672333836555481e-02
1.819355785846710205e-02
5.228568986058235168e-02
-5.050726700574159622e-03
3.952099476009607315e-03
-9.137492626905441284e-03
-1.490231044590473175e-02
7.967208325862884521e-02
-2.575358608737587929e-03
-1.230933051556348801e-02
-6.811300665140151978e-02
1.271788310259580612e-02
-2.468430623412132263e-02
-1.858505420386791229e-04
1.346342638134956360e-02
3.101714514195919037e-02
-1.016653608530759811e-02
-5.001642182469367981e-02
-1.472234074026346207e-02
1.810280606150627136e-02
-1.677528768777847290e-02
-1.962666586041450500e-02
-5.642658844590187073e-02
1.264306250959634781e-02
-7.496391423046588898e-03
1.011226791888475418e-02
8.835114538669586182e-02
1.452887430787086487e-02
4.884368181228637695e-02
2.615069597959518433e-02
8.398398756980895996e-03
-5.000350065529346466e-03
2.767835929989814758e-02
8.404914988204836845e-04
-4.910743795335292816e-03
4.682907834649085999e-03
9.732092916965484619e-02
-7.800379768013954163e-03
1.718336157500743866e-02
-1.065576449036598206e-02
2.628623694181442261e-02
-6.121505424380302429e-02
-3.393662720918655396e-02
-3.834917768836021423e-02
5.133110564202070236e-03
3.365495055913925171e-02
-2.232501283288002014e-02
-2.431933768093585968e-02
-9.961963631212711334e-03
-2.574387565255165100e-02
-7.817143946886062622e-02
-6.998495012521743774e-02
7.641078438609838486e-03
-4.743152856826782227e-02
6.744454801082611084e-02
1.346845831722021103e-02
-1.717700995504856110e-02
6.197717972099781036e-03
1.072650123387575150e-02
-1.698717661201953888e-02
-1.613393984735012054e-02
5.805820226669311523e-02
1.006631180644035339e-01
-3.077818825840950012e-02
5.265739280730485916e-03
-3.762029483914375305e-02
-2.134957164525985718e-02
-1.606106525287032127e-03
-4.183323681354522705e-02
1.281992183066904545e-03
-9.669817052781581879e-03
5.376851186156272888e-03
3.015981800854206085e-02
4.857542924582958221e-03
-6.188173312693834305e-03
-1.615345291793346405e-02
-7.462939620018005371e-02
-4.241498559713363647e-02
7.249601930379867554e-02
-1.457482948899269104e-02
-3.320679813623428345e-02
-3.649102896451950073e-02
-4.012357909232378006e-03
-4.087807028554379940e-04
1.376282330602407455e-02
4.977755714207887650e-03
3.174164146184921265e-02
-2.943248720839619637e-03
-1.057702302932739258e-02
8.012811886146664619e-04
-3.114610537886619568e-02
4.386476427316665649e-02
4.155913833528757095e-03
7.346640806645154953e-03
-4.321285337209701538e-02
4.896359518170356750e-03
7.549217902123928070e-03
-2.079285867512226105e-02
7.847704109735786915e-04
3.518065437674522400e-02
-2.091079019010066986e-02
2.620528684929013252e-03
-2.328514121472835541e-02
1.244551688432693481e-02
-6.968207657337188721e-02
9.498280473053455353e-03
-2.713307738304138184e-03
-5.510319955646991730e-03
9.670628933236002922e-04
-2.043873304501175880e-03
-3.888108208775520325e-02
-4.423716291785240173e-02
-1.037163753062486649e-02
-2.847347781062126160e-02
-7.510941941291093826e-03
2.296824753284454346e-02
-5.437347106635570526e-03
-1.520193926990032196e-02
-8.801161311566829681e-03
-3.027678094804286957e-02
-2.645339816808700562e-02
8.357714861631393433e-03
-4.118002206087112427e-02
1.418743981048464775e-03
-3.434997051954269409e-02
7.516269572079181671e-03
-7.792063523083925247e-03
-5.581721663475036621e-03
-3.327539190649986267e-02
2.828041650354862213e-02
-2.844799309968948364e-03
-5.271297693252563477e-02
-8.976290933787822723e-03
-7.447997573763132095e-03
9.542336687445640564e-03
1.178876869380474091e-02
3.706520423293113708e-02
5.004862323403358459e-02
-1.449718605726957321e-02
-1.786098000593483448e-03
4.695404786616563797e-03
4.847013577818870544e-02
-1.131279394030570984e-02
1.233317051082849503e-02
-4.048658162355422974e-02
2.700739912688732147e-02
-2.785319089889526367e-02
-5.439617484807968140e-02
-1.261420454829931259e-02
-1.572849578224122524e-03
2.432080730795860291e-02
1.531324116513133049e-03
-4.132714588195085526e-03
-7.020351942628622055e-03
2.095808833837509155e-01
-2.079334296286106110e-02
-3.766074031591415405e-02
3.480442566797137260e-03
9.175741113722324371e-03
1.134786661714315414e-02
-1.922344788908958435e-02
-4.969236906617879868e-03
-3.684517228975892067e-03
-1.639446825720369816e-03
2.984094806015491486e-02
-1.101842522621154785e-02
-7.238940801471471786e-03
-1.887384802103042603e-02
-5.074122175574302673e-02
-2.045157924294471741e-02
-2.214659005403518677e-02
-2.501887269318103790e-02
-1.731710508465766907e-02
5.077629908919334412e-02
3.726486349478363991e-03
-1.951527222990989685e-02
9.017582051455974579e-03
-4.302344098687171936e-02
1.010030228644609451e-02
2.341705001890659332e-02
5.580462515354156494e-03
-3.290120512247085571e-02
1.296239905059337616e-02
9.427567943930625916e-03
8.754933369345963001e-04
8.237878791987895966e-03
-3.635088726878166199e-02
-1.811849139630794525e-02
-3.431984782218933105e-02
5.491993576288223267e-02
-1.251941639930009842e-02
6.099283695220947266e-03
-8.238472044467926025e-03
-3.511093929409980774e-02
7.897926494479179382e-03
-3.940344974398612976e-02
-3.993845079094171524e-03
6.890247110277414322e-03
2.980367047712206841e-03
-6.450593471527099609e-02
1.011499902233481407e-03
-1.704727183096110821e-03
-7.002586964517831802e-03
1.159396674484014511e-02
-2.546122670173645020e-02
4.806035212823189795e-05
-7.340043783187866211e-02
-6.764394696801900864e-03
-2.055709017440676689e-03
2.679091878235340118e-02
5.956028774380683899e-02
-6.312427669763565063e-02
-6.981110665947198868e-03
-4.015340656042098999e-02
-2.027737908065319061e-02
-3.487697336822748184e-03
2.664572000503540039e-02
6.103038322180509567e-03
2.288060821592807770e-02
9.073325432837009430e-03
-1.727353897877037525e-03
1.554314326494932175e-02
3.059761133044958115e-03
1.908154785633087158e-02
2.984422631561756134e-02
-1.250921748578548431e-02
-3.372951969504356384e-02
-3.626009821891784668e-02
-5.689558014273643494e-02
-2.394795231521129608e-02
-2.678309800103306770e-03
3.235023096203804016e-02
-1.372667122632265091e-02
-2.997640985995531082e-03
-1.881078630685806274e-02
-3.778224438428878784e-02
-7.832709699869155884e-03
2.518664300441741943e-02
3.952832426875829697e-03
-2.346892841160297394e-02
-3.600394120439887047e-03
3.788987174630165100e-03
9.184015914797782898e-03
-1.242856681346893311e-02
-4.794345237314701080e-03
-2.646458707749843597e-02
1.384364534169435501e-02
-2.016553422436118126e-03
9.640485979616641998e-03
-1.907431706786155701e-02
1.757167652249336243e-02
-2.781640924513339996e-02
2.038174495100975037e-02
-4.653996322304010391e-03
-3.276378661394119263e-02
8.059024810791015625e-03
1.083757379092276096e-03
-4.019981622695922852e-02
-4.623667150735855103e-02
-1.608579978346824646e-02
-2.571356669068336487e-02
-1.832393184304237366e-02
3.226760029792785645e-02
-3.966279327869415283e-02
-2.359808050096035004e-02
-5.221523344516754150e-03
3.921032883226871490e-03
1.463893149048089981e-02
-5.674003623425960541e-03
3.842602018266916275e-03
-7.093793712556362152e-03
-1.568799465894699097e-02
-9.059496369445696473e-05
4.810881242156028748e-02
-3.242903947830200195e-02
2.397696115076541901e-02
-5.437653511762619019e-02
1.498595811426639557e-02
-9.311063215136528015e-03
1.161463372409343719e-02
-1.859409618191421032e-03
2.440213784575462341e-02
6.398979458026587963e-04
3.386653494089841843e-03
1.810939610004425049e-02
-1.223706975579261780e-01
-6.629955605603754520e-04
4.838126152753829956e-02
-1.682434789836406708e-02
-1.605252921581268311e-02
-3.957841172814369202e-02
1.956807821989059448e-02
1.051774434745311737e-02
-1.620540395379066467e-02
3.102295659482479095e-02
3.446279838681221008e-02
1.906194910407066345e-02
-5.379230715334415436e-03
-8.705996721982955933e-02
5.021866876631975174e-03
-1.135717239230871201e-02
-1.738639362156391144e-02
1.892383955419063568e-02
-1.051695737987756729e-02
7.962531596422195435e-02
-2.603363431990146637e-02
-2.050304599106311798e-02
-7.924613542854785919e-03
-1.261292677372694016e-02
7.135266810655593872e-02
-2.084925957024097443e-02
-8.277377113699913025e-03
-1.240381691604852676e-02
-1.698234264040365815e-04
4.780161660164594650e-03
-1.404269016347825527e-03
2.319237589836120605e-02
-1.517444010823965073e-02
-1.577270217239856720e-02
-3.039328753948211670e-02
-6.594284903258085251e-03
-2.737192437052726746e-02
1.973233930766582489e-02
-2.078711427748203278e-02
5.227850284427404404e-03
-6.195268128067255020e-03
8.831977844238281250e-03
-1.392632140778005123e-03
-1.856226660311222076e-02
4.541726782917976379e-02
-2.878083614632487297e-03
2.536023035645484924e-02
-3.305210545659065247e-02
1.799256727099418640e-02
-7.823503762483596802e-02
5.674708262085914612e-02
4.886851459741592407e-02
-4.547481611371040344e-02
4.477743804454803467e-02
-1.576994359493255615e-02
1.038616523146629333e-03
-9.353078901767730713e-03
-9.502643719315528870e-03
3.050104156136512756e-02
-8.464182727038860321e-03
-1.094014500267803669e-03
1.414998085238039494e-03
-1.568468846380710602e-02
-6.039733998477458954e-03
-2.389473840594291687e-03
4.660356417298316956e-02
-1.908711157739162445e-02
-8.481280878186225891e-03
-6.280043162405490875e-03
-1.917747221887111664e-02
-1.716890558600425720e-02
1.917029321193695068e-01
1.032006088644266129e-02
-1.106881573796272278e-01
-4.112126771360635757e-03
-1.745116896927356720e-02
9.789834916591644287e-02
1.025258842855691910e-02
-5.586263723671436310e-03
-1.292835325002670288e-01
-1.353206951171159744e-02
-3.088786639273166656e-02
-5.898543447256088257e-02
-9.630646556615829468e-02
-4.373313859105110168e-02
9.966786950826644897e-03
4.204674158245325089e-03
-6.785237696021795273e-03
-4.923752858303487301e-04
-7.596476469188928604e-03
1.610560691915452480e-03
2.258844114840030670e-02
2.630838379263877869e-02
9.581087157130241394e-03
-4.247436299920082092e-02
1.800324022769927979e-02
8.860524743795394897e-03
-1.505566015839576721e-02
-2.094859723001718521e-03
-1.369834691286087036e-01
3.362542018294334412e-02
-1.000729203224182129e-01
-6.105072051286697388e-02
1.447950210422277451e-02
-5.390780046582221985e-03
2.408998832106590271e-02
-2.951141819357872009e-02
-9.681397676467895508e-02
2.956671826541423798e-02
-7.964954711496829987e-03
-5.309954658150672913e-02
-2.551584877073764801e-02
-1.125668957829475403e-01
-4.935489967465400696e-03
3.920883871614933014e-03
8.051139116287231445e-02
7.258965820074081421e-02
1.404586993157863617e-02
5.045115575194358826e-02
-2.783970534801483154e-02
-7.834994234144687653e-03
-9.360729600302875042e-04
-3.023686073720455170e-02
2.667909953743219376e-03
-9.696586988866329193e-03
-7.892762310802936554e-03
-1.230682805180549622e-02
-7.243574131280183792e-03
5.257449112832546234e-03
-2.902139537036418915e-02
6.574100255966186523e-02
2.109163440763950348e-02
-5.516490433365106583e-03
2.890875563025474548e-02
-2.284430811414495111e-04
-3.629915043711662292e-02
