-1.152720972895622253e-01
-1.991726160049438477e-01
6.275459378957748413e-02
4.216762259602546692e-02
-9.638276696205139160e-02
-1.043246835470199585e-01
-9.463489800691604614e-02
-1.055359318852424622e-01
-1.610695384442806244e-02
-8.741462975740432739e-02
-5.084909871220588684e-02
-5.194913595914840698e-02
1.040489897131919861e-01
5.927198752760887146e-02
-3.993018344044685364e-02
9.229372371919453144e-04
-8.566718548536300659e-02
-1.123631596565246582e-01
2.402673009783029556e-03
-6.890036910772323608e-02
-5.987039953470230103e-02
-1.073280349373817444e-01
1.999300718307495117e-02
-6.276577711105346680e-02
-1.832409799098968506e-01
-1.608252227306365967e-01
-7.766313850879669189e-02
-1.349507272243499756e-02
-2.292157523334026337e-02
-1.459881514310836792e-01
-1.281921714544296265e-01
-2.336245216429233551e-02
8.511121571063995361e-02
-1.660717651247978210e-02
-4.030402377247810364e-02
2.370003610849380493e-02
-4.703412204980850220e-02
3.206924721598625183e-02
-1.157854720950126648e-01
-2.577622979879379272e-02
3.302248194813728333e-02
-1.252512484788894653e-01
4.725446179509162903e-02
-6.722335517406463623e-02
-5.438007786870002747e-02
1.792181469500064850e-02
-5.762762576341629028e-02
-1.479700803756713867e-01
3.618483617901802063e-02
-2.127843617927283049e-04
-5.978621169924736023e-02
-9.353660047054290771e-02
-1.279485374689102173e-01
-1.138177365064620972e-01
2.430111728608608246e-02
8.468306623399257660e-03
-9.761827439069747925e-02
1.186054348945617676e-01
-8.981370180845260620e-02
-7.412628829479217529e-02
-4.865507781505584717e-02
-4.623967781662940979e-02
-7.800880819559097290e-02
-1.902893558144569397e-02
-4.970070905983448029e-03
3.453222662210464478e-02
9.361335635185241699e-02
-4.159403219819068909e-02
-4.573819413781166077e-02
-1.221305504441261292e-01
-6.134883500635623932e-03
-2.316119670867919922e-01
-4.676672071218490601e-02
-5.836601555347442627e-02
-3.215671330690383911e-02
-1.026168242096900940e-01
-2.538330480456352234e-02
-3.012524731457233429e-02
-7.335606217384338379e-02
-1.092990208417177200e-02
-4.455966502428054810e-02
2.177319861948490143e-02
-4.906070884317159653e-03
2.029544673860073090e-02
-9.899497777223587036e-02
1.902655325829982758e-02
-1.278169155120849609e-01
5.188126116991043091e-02
-2.918187156319618225e-02
-8.792635053396224976e-02
7.135772611945867538e-03
-5.772046744823455811e-02
-4.661251977086067200e-02
-3.002680465579032898e-02
-1.126659736037254333e-01
-7.909155637025833130e-02
-1.101798377931118011e-02
-1.308829784393310547e-01
-3.992639109492301941e-02
-1.382585763931274414e-01
-1.190746352076530457e-01
-5.691961944103240967e-02
-8.070647716522216797e-02
-8.219756186008453369e-02
1.848417014116421342e-04
-2.088040709495544434e-01
7.828152738511562347e-03
3.105227276682853699e-02
-3.061134181916713715e-02
-5.921029672026634216e-02
-3.802604973316192627e-02
-1.167664676904678345e-01
2.697093598544597626e-02
7.112523913383483887e-02
-9.099655598402023315e-02
-4.286791384220123291e-02
-8.181186020374298096e-02
1.021284162998199463e-01
8.634323626756668091e-02
-2.717085927724838257e-02
-4.804755002260208130e-02
-4.589571058750152588e-02
-2.530263969674706459e-03
-2.407118678092956543e-02
-2.294542826712131500e-02
-3.918702248483896255e-03
1.275888551026582718e-02
-8.112271130084991455e-02
-4.653204604983329773e-02
-5.765837058424949646e-02
-6.640826910734176636e-02
-2.595350518822669983e-02
1.693345233798027039e-02
-5.753044039011001587e-02
-4.079096764326095581e-02
-5.828823521733283997e-02
-7.474912703037261963e-02
-9.763891808688640594e-03
-4.809998348355293274e-02
-9.528621286153793335e-02
-2.989600412547588348e-02
-9.468794614076614380e-02
-9.038113988935947418e-03
-8.212263137102127075e-02
-7.527666538953781128e-02
1.478737965226173401e-02
-6.691180169582366943e-02
-8.636549115180969238e-02
-1.114704683423042297e-01
2.519690059125423431e-02
-1.625718548893928528e-02
-1.071597356349229813e-02
-3.435543272644281387e-03
-1.146123409271240234e-01
-8.180593722499907017e-04
-1.253693997859954834e-01
-7.223071157932281494e-02
-4.106112197041511536e-02
-8.777806162834167480e-02
-3.539303317666053772e-02
2.518615312874317169e-02
-1.396855711936950684e-01
-8.521469682455062866e-02
-4.747850820422172546e-02
-1.516072005033493042e-01
-1.361844390630722046e-01
-4.557516053318977356e-02
-1.530412137508392334e-01
-1.462894119322299957e-02
1.288421452045440674e-02
5.012936890125274658e-02
-2.383753098547458649e-02
-1.141206845641136169e-01
-9.085438214242458344e-03
1.303050108253955841e-02
-1.722000166773796082e-02
-4.047260060906410217e-02
-9.678186476230621338e-02
3.881860151886940002e-02
-2.493862248957157135e-02
-9.387543797492980957e-02
-4.349831119179725647e-02
-8.960949629545211792e-02
-1.610850729048252106e-02
-4.631857201457023621e-02
-1.653417758643627167e-02
-1.176585108041763306e-01
-4.534431546926498413e-02
-8.346689492464065552e-02
-8.238567411899566650e-02
-7.259030640125274658e-02
-4.174458235502243042e-02
-9.898227453231811523e-02
-3.498599678277969360e-02
-8.702459931373596191e-02
-2.769784256815910339e-02
-1.810222566127777100e-01
3.368993848562240601e-02
5.433865264058113098e-02
-1.366706788539886475e-01
-6.967593729496002197e-02
3.005410917103290558e-02
-1.346849370747804642e-02
-1.151600480079650879e-01
-7.628927379846572876e-02
-6.590455770492553711e-02
-5.339332297444343567e-02
-4.117803275585174561e-02
-1.344400495290756226e-01
-1.767738163471221924e-02
-1.511949896812438965e-01
-1.777807623147964478e-02
-1.142392307519912720e-01
-9.344413876533508301e-03
-6.221367791295051575e-02
-6.541487574577331543e-02
-1.471758037805557251e-01
1.226556394249200821e-02
-1.172365769743919373e-01
3.962573781609535217e-02
-5.498880892992019653e-02
-4.233925789594650269e-02
3.282428160309791565e-02
-1.906594261527061462e-02
1.063888370990753174e-01
-6.497164815664291382e-02
-4.011730849742889404e-02
-7.622998207807540894e-03
-6.573456525802612305e-02
4.054040461778640747e-02
2.780668437480926514e-02
-1.149309128522872925e-01
2.983782812952995300e-02
-3.683019056916236877e-02
-9.286135435104370117e-02
4.234655946493148804e-02
-7.579375803470611572e-02
-1.032570526003837585e-01
-6.526965647935867310e-02
-8.772390335798263550e-02
-1.711547002196311951e-02
-1.000254005193710327e-01
-3.040535748004913330e-02
-5.600349232554435730e-02
-1.225438341498374939e-01
-6.427889689803123474e-03
3.824982093647122383e-03
-9.249997138977050781e-02
-3.104013390839099884e-02
6.882271915674209595e-02
-7.190680503845214844e-02
-6.979908049106597900e-02
3.474396467208862305e-02
-6.502010673284530640e-02
-1.709109358489513397e-02
-5.071006342768669128e-02
