5.040790513157844543e-02
-5.380119383335113525e-02
-4.971367307007312775e-03
2.053890004754066467e-02
4.734425991773605347e-02
-7.918883056845515966e-06
9.591508656740188599e-03
8.576271682977676392e-02
3.147447854280471802e-02
7.358855009078979492e-02
3.139753127470612526e-03
-3.081454336643218994e-02
4.421226214617490768e-03
9.043209999799728394e-02
-1.702345980447717011e-05
-2.126475237309932709e-02
-3.066404163837432861e-02
3.154598921537399292e-02
4.306216537952423096e-02
-7.659810944460332394e-04
4.060908034443855286e-02
7.005441188812255859e-02
-3.268839092925190926e-03
-8.621877327641414013e-07
2.968581393361091614e-02
6.521265208721160889e-02
3.784984583035111427e-03
-3.119077160954475403e-02
-3.190219285897910595e-05
4.172668233513832092e-02
-9.741540253162384033e-02
7.278209924697875977e-02
3.033128753304481506e-02
-1.146989129483699799e-02
8.066372945904731750e-03
-2.309239655733108521e-02
9.385848045349121094e-02
4.756115004420280457e-02
-4.691663198173046112e-03
7.524696737527847290e-02
-2.992064133286476135e-02
1.589689962565898895e-02
-2.772103808820247650e-02
4.765476286411285400e-02
7.599533535540103912e-03
-5.533744767308235168e-02
7.008098810911178589e-02
-3.384365513920783997e-02
6.637235730886459351e-02
-5.613802745938301086e-02
9.507815539836883545e-02
-8.360766223631799221e-04
5.942019447684288025e-02
4.622920230031013489e-02
9.687054157257080078e-02
1.057013869285583496e-02
-1.075237430632114410e-02
-3.755649784579873085e-03
1.131361722946166992e-02
-4.071295734320301563e-06
4.426742717623710632e-02
-3.914332948625087738e-03
-7.989817298948764801e-03
3.319283947348594666e-03
-1.088453549891710281e-02
3.349405480548739433e-03
-9.245510399341583252e-02
3.965276852250099182e-02
-7.888763320806901902e-06
-2.453028922900557518e-03
1.365543436259031296e-02
1.843691244721412659e-02
-1.177708711475133896e-02
-1.005872804671525955e-02
-4.471408575773239136e-02
5.190652981400489807e-02
-2.478998340666294098e-02
1.014163717627525330e-01
1.835636608302593231e-02
-5.683492869138717651e-02
-1.947008713614195585e-04
1.798940263688564301e-02
-2.364184707403182983e-02
2.573711983859539032e-02
-2.239848021417856216e-03
4.891053587198257446e-02
5.518211424350738525e-02
-1.804506289772689342e-03
8.588498830795288086e-02
-1.014417648548260331e-05
-7.650763109268154949e-06
-4.799597710371017456e-02
-5.434561148285865784e-02
3.838748112320899963e-02
-1.589043421290625702e-07
-1.369350962340831757e-02
2.148128114640712738e-02
3.752544894814491272e-02
-3.290013177320361137e-03
-1.464067772030830383e-02
-5.871874280273914337e-03
-3.056586720049381256e-02
9.160474687814712524e-02
2.977294661104679108e-02
1.068164631724357605e-01
-8.995836833491921425e-04
3.520870953798294067e-02
-4.220712184906005859e-02
-3.249727189540863037e-03
-3.267187625169754028e-02
8.306417614221572876e-02
4.857813939452171326e-02
-2.852610805348376743e-06
-1.811727322638034821e-02
1.054307892918586731e-01
7.224210351705551147e-02
-7.618486415594816208e-03
2.261609537526965141e-03
3.734589740633964539e-02
4.688022658228874207e-02
-7.956967689096927643e-03
3.606469929218292236e-02
7.734760642051696777e-02
3.247513901442289352e-03
-3.012175858020782471e-02
1.583989709615707397e-01
-3.354931995272636414e-02
5.905825644731521606e-02
-5.485652363859117031e-04
-4.523221030831336975e-02
-2.005787566304206848e-02
1.791504211723804474e-02
1.774255372583866119e-02
-7.132172868296038359e-06
1.100384145975112915e-01
-7.158594205975532532e-03
-7.023820071481168270e-04
3.544990671798586845e-03
-1.419393129253876396e-06
-5.072334781289100647e-03
1.071899849921464920e-02
-2.684592083096504211e-02
-1.572421006858348846e-02
-4.802904732059687376e-04
-4.122884571552276611e-02
1.042858324944972992e-02
4.781761765480041504e-02
-2.155469171702861786e-02
2.172813192009925842e-02
-2.047262154519557953e-02
2.558222149673383683e-05
3.208664804697036743e-02
6.417906284332275391e-02
-6.267740536713972688e-05
1.176250427961349487e-01
3.707667067646980286e-02
8.790008723735809326e-02
-9.173267244477756321e-06
3.500658646225929260e-02
-1.577992178499698639e-02
-1.464541628956794739e-02
1.149265617132186890e-01
3.555282577872276306e-02
3.806015104055404663e-02
5.221403762698173523e-02
-1.388383447192609310e-03
-1.927295699715614319e-02
-3.345824778079986572e-02
-3.797434270381927490e-02
-1.776794157922267914e-02
-1.350006868960917927e-06
7.122508250176906586e-03
9.303858131170272827e-02
1.488847881555557251e-01
-2.723780380620155483e-05
-5.648102238774299622e-02
1.063961982727050781e-01
-3.811136633157730103e-02
5.762550979852676392e-02
-1.187135837972164154e-02
-3.745157271623611450e-02
-8.353372104465961456e-03
1.311476621776819229e-02
5.224009603261947632e-02
1.460900343954563141e-02
1.369118988513946533e-01
-2.823873273882782087e-06
5.483140237629413605e-03
7.070637494325637817e-02
-3.669097274541854858e-02
-1.774777891114354134e-03
-1.104430202394723892e-02
2.901223488152027130e-02
1.149926781654357910e-01
1.540517657995223999e-01
7.928494364023208618e-03
-1.173208161731054133e-07
-2.641282789409160614e-02
1.221352163702249527e-02
8.366241119801998138e-03
-6.290225883276434615e-06
5.001242086291313171e-02
-6.515447050333023071e-03
5.026675015687942505e-02
-7.119843417058291379e-07
-4.509251192212104797e-02
2.560302056372165680e-02
3.975663334131240845e-02
4.927772656083106995e-02
-9.736789390444755554e-03
-1.030869083479046822e-03
8.035374432802200317e-02
4.950294643640518188e-02
-1.013460769172525033e-05
-2.046933956444263458e-02
-2.306455187499523163e-02
-1.096702925860881805e-02
1.399158090353012085e-01
1.365223433822393417e-02
2.279148995876312256e-02
5.502874404191970825e-02
-1.339235156774520874e-02
-1.296848211040924070e-07
-3.255388885736465454e-02
2.642497792840003967e-02
2.011833898723125458e-02
5.852566286921501160e-02
1.982060521841049194e-01
2.153052948415279388e-03
1.383326016366481781e-02
-1.216503698378801346e-02
7.622640579938888550e-02
1.008737757802009583e-01
-2.912842854857444763e-02
-1.116531009870413982e-07
3.419078513979911804e-02
-2.738893090281635523e-05
-6.730573717504739761e-03
5.208097025752067566e-02
5.823321174830198288e-03
-1.843622740125283599e-04
1.905878037214279175e-01
2.479550801217556000e-02
8.907940983772277832e-02
-2.873973222449421883e-03
-5.124561116099357605e-02
2.344167977571487427e-02
1.348500081803649664e-04
-4.453257843852043152e-02
3.777169436216354370e-02
4.526507109403610229e-02
1.298195123672485352e-01
-7.086257450282573700e-03
2.946627791970968246e-03
2.122937142848968506e-02
6.867830455303192139e-02
-2.410751953721046448e-02
-5.967304110527038574e-03
3.358298167586326599e-02
5.181367509067058563e-03
-3.405789285898208618e-02
2.452786825597286224e-02
3.297968534752726555e-03
8.533751219511032104e-02
4.665844142436981201e-03
1.149494424462318420e-01
2.127540297806262970e-02
2.029770426452159882e-02
6.535228341817855835e-02
4.850448295474052429e-02
-1.223704748554155231e-04
-2.220123447477817535e-02
-3.268978389314725064e-06
5.654742941260337830e-02
9.214340709149837494e-03
5.317668244242668152e-02
1.312085520476102829e-02
5.877849459648132324e-02
-1.062762271612882614e-02
-4.664699733257293701e-02
-3.812017152085900307e-03
1.628050021827220917e-02
-1.629351824522018433e-02
4.699249565601348877e-02
8.243425190448760986e-02
-3.764142096042633057e-02
9.058679454028606415e-03
-2.106039086356759071e-03
-2.250567264854907990e-02
-4.003411158919334412e-02
-1.716013625264167786e-02
-9.887662017717957497e-04
-4.366820678114891052e-02
-4.365398734807968140e-02
-7.976148277521133423e-02
8.099466213025152683e-04
3.336259722709655762e-02
-9.540779865346848965e-05
2.463454753160476685e-02
-1.218648161739110947e-03
8.885727263987064362e-03
-2.529011480510234833e-02
1.541518885642290115e-02
4.172738268971443176e-02
-1.449884660542011261e-02
-2.500749891623854637e-03
-4.235209152102470398e-02
2.314984425902366638e-02
1.025172974914312363e-02
-5.082658305764198303e-02
-2.984296903014183044e-02
-1.797527693270239979e-05
-2.425576610676216660e-07
-2.320000703548430465e-06
8.796045184135437012e-02
-1.959410496056079865e-02
-1.428525708615779877e-02
1.376713067293167114e-01
-5.409471555140044075e-07
7.271918654441833496e-02
1.542528346180915833e-02
2.258418127894401550e-03
1.670191437005996704e-02
-1.871939632110297680e-03
4.098317399621009827e-02
-1.511457980996055994e-07
-6.989588588476181030e-02
-1.158498134464025497e-02
-3.821993013843894005e-03
3.920896351337432861e-02
7.939209789037704468e-02
-3.127452451735734940e-03
-6.079301897443656344e-07
-6.505414098501205444e-02
-4.612179007381200790e-03
2.288092486560344696e-02
-1.529803033918142319e-02
7.133219391107559204e-02
-2.556983754038810730e-02
-2.572954818606376648e-02
1.017737761139869690e-01
-3.834580304101109505e-03
1.174704059958457947e-01
-3.234134986996650696e-02
1.202311441302299500e-01
9.684862568974494934e-03
-1.896672614520866773e-07
9.647972881793975830e-02
-3.463500179350376129e-03
1.386753767728805542e-01
-7.069501443766057491e-04
-9.478265792131423950e-02
-4.277256317436695099e-03
3.693918511271476746e-02
1.434095948934555054e-01
8.619051426649093628e-03
3.490531072020530701e-02
1.314204633235931396e-01
2.168614976108074188e-02
-3.215539827942848206e-02
2.225030399858951569e-02
3.366971388459205627e-02
1.184054068289697170e-03
-4.630746319890022278e-02
-6.754337664460763335e-05
-1.928983256220817566e-02
-1.029392704367637634e-03
-2.232443541288375854e-02
6.647015362977981567e-02
-2.046548016369342804e-02
-5.008249445381807163e-06
1.169901266694068909e-01
3.549623116850852966e-02
2.237109467387199402e-02
7.609800994396209717e-02
-3.127393871545791626e-02
-2.637812308967113495e-02
4.443107172846794128e-03
-1.327587198466062546e-02
5.581981688737869263e-02
-2.934067510068416595e-02
-3.424069727770984173e-04
1.294829398393630981e-01
4.852630198001861572e-02
1.214844989590346813e-03
1.553206052631139755e-02
-5.982689253869466484e-05
9.066277742385864258e-02
6.655971705913543701e-02
-2.185723558068275452e-02
-4.252410144545137882e-04
8.439660887233912945e-04
7.518936693668365479e-02
-4.038236662745475769e-02
-5.735031794756650925e-03
1.305902302265167236e-01
8.920942991971969604e-02
-5.239003524184226990e-02
8.334650658071041107e-03
3.690582886338233948e-02
-1.919840769915026613e-06
-2.575377374887466431e-02
-1.806022040545940399e-02
1.570666767656803131e-02
-7.246243208646774292e-02
-5.393169820308685303e-02
3.360418975353240967e-02
5.375337786972522736e-03
9.245403110980987549e-03
-9.634287607696023770e-07
1.105501316487789154e-02
9.313995949923992157e-03
1.237517818808555603e-01
-2.405228087809518911e-07
4.790341015905141830e-03
-2.496371604502201080e-02
7.810584735125303268e-03
-2.536389976739883423e-02
-1.755646988749504089e-02
1.113353483378887177e-02
-1.584485732018947601e-02
-4.878707975149154663e-02
1.730369287542998791e-03
-1.968068629503250122e-02
-1.209273352287709713e-03
-1.862019486725330353e-02
-1.925303649841225706e-06
6.884419824928045273e-03
-1.253078039735555649e-02
-2.641256141941994429e-04
-8.764592166699003428e-06
4.801008105278015137e-02
8.752462267875671387e-02
-8.024316230148542672e-06
-1.711438447237014771e-01
-1.343314442783594131e-02
-4.005882143974304199e-02
-5.179576948285102844e-02
6.727335974574089050e-03
7.627133280038833618e-03
1.741181500256061554e-02
7.145083695650100708e-02
-6.353480368852615356e-02
1.439029127359390259e-01
5.222484469413757324e-02
-2.685683406889438629e-02
-2.352509454794926569e-06
9.413794614374637604e-03
-2.444170182570815086e-03
-1.683653390500694513e-04
-2.285928837954998016e-02
-2.338018248337903060e-06
-4.706614618044113740e-07
2.903186343610286713e-02
-4.431742709130048752e-03
1.282315421849489212e-02
6.297154724597930908e-02
-2.869359590113162994e-02
1.043589785695075989e-01
1.209845617413520813e-01
-6.838413421064615250e-03
6.180273741483688354e-02
-2.168243378400802612e-02
3.352025151252746582e-02
1.844165027141571045e-01
2.045195177197456360e-02
-2.252876758575439453e-02
-3.802381343120941892e-07
4.750256985425949097e-02
-1.684902049601078033e-02
-3.562240675091743469e-02
1.308963000774383545e-01
-1.042173636278675986e-07
6.652128696441650391e-02
8.812277019023895264e-02
1.296278461813926697e-02
6.949505209922790527e-02
2.289759228006005287e-03
-8.154109120368957520e-03
-5.983995646238327026e-02
-3.738293657079339027e-03
1.668229699134826660e-02
1.870950497686862946e-02
-3.396362438797950745e-02
-6.981870625168085098e-03
-8.878496475517749786e-03
-1.655037522141356021e-05
3.669549524784088135e-02
7.476969063282012939e-02
-3.644276876002550125e-03
-2.770238369703292847e-02
-5.792365968227386475e-02
5.383116006851196289e-02
3.851898759603500366e-02
9.702240675687789917e-02
-4.277931153774261475e-02
-1.282706111669540405e-02
-5.479337647557258606e-02
-6.000125551963719772e-08
7.138171698898077011e-03
6.783809512853622437e-02
-9.020744264125823975e-02
-2.303455583751201630e-02
-8.593469974584877491e-04
2.052113227546215057e-02
7.874234020709991455e-02
3.604559227824211121e-02
-7.298808079212903976e-03
-4.183265566825866699e-02
-8.713763008927344345e-07
7.530011981725692749e-02
1.635010689496994019e-01
