1.513133943080902100e-02
-1.057936716824769974e-02
3.554055001586675644e-03
1.965359412133693695e-02
-8.755040355026721954e-03
-3.409721888601779938e-03
-4.113886971026659012e-03
2.149314247071743011e-02
-6.925034336745738983e-03
9.712002356536686420e-04
1.405075425282120705e-03
-5.552633199840784073e-03
-1.003956235945224762e-02
1.287393747162468571e-08
-1.407407782971858978e-02
-7.322265300899744034e-03
2.082205191254615784e-02
2.553110569715499878e-02
-1.369549892842769623e-02
-6.076080724596977234e-03
-1.479033846408128738e-02
-2.202333137392997742e-02
-8.009999291971325874e-04
-1.257427851669490337e-03
3.640803508460521698e-03
-4.759480711072683334e-03
8.056685328483581543e-03
-1.870543383120093495e-05
2.156031131744384766e-02
-1.562115736305713654e-02
4.621414467692375183e-03
8.988011628389358521e-03
-2.004070207476615906e-03
-2.032626233994960785e-02
-2.597544109448790550e-03
-8.738765493035316467e-03
4.509533941745758057e-02
1.844822429120540619e-02
1.187933702021837234e-02
-5.006127525120973587e-03
1.293322187848389149e-03
-3.151663765311241150e-02
-2.426581922918558121e-03
2.930488437414169312e-02
1.426803413778543472e-02
4.207268489153648261e-07
1.258828211575746536e-02
9.608227102830824151e-09
-6.402452941983938217e-03
-1.664619892835617065e-03
-1.552355661988258362e-02
-4.051396390423178673e-04
-1.053730491548776627e-02
2.120630629360675812e-02
-3.631463507190346718e-03
5.614039488136768341e-03
1.766441037887034327e-08
8.202780969440937042e-03
9.382673539221286774e-03
3.640505718067288399e-03
1.157637033611536026e-02
-1.810746267437934875e-02
1.129949744790792465e-02
1.052310690283775330e-03
-2.084385603666305542e-03
-3.206857712939381599e-03
1.651072129607200623e-02
1.821972243487834930e-02
-1.253071520477533340e-02
1.076297834515571594e-02
1.001944113522768021e-02
2.453737892210483551e-02
5.451107863336801529e-03
5.903459619730710983e-03
7.989356294274330139e-03
-4.561034496873617172e-03
-4.087438283022493124e-04
9.650111820747042657e-09
-4.489886388182640076e-02
1.067726407200098038e-03
6.769970059394836426e-03
2.320053055882453918e-02
-1.275165472179651260e-02
-6.948616355657577515e-03
-3.683915711008012295e-04
2.253246493637561798e-02
-1.132032182067632675e-02
3.603035351261496544e-03
2.101717144250869751e-02
4.064404405653476715e-03
-1.238864939659833908e-02
-4.783398658037185669e-02
1.722575165331363678e-03
-2.298735547810792923e-03
1.338563277386128902e-03
1.790407672524452209e-02
-3.197005391120910645e-02
-3.391500562429428101e-02
4.331135191023349762e-03
-8.620891720056533813e-03
2.819541469216346741e-02
2.745759673416614532e-02
2.606429532170295715e-02
-1.600193791091442108e-02
4.937881603837013245e-04
-2.759693376719951630e-02
5.968308076262474060e-03
1.582786627113819122e-02
1.306647062301635742e-02
4.555213592993823113e-07
8.577848784625530243e-03
2.037810986621479969e-08
-1.456365268677473068e-02
-1.211148919537663460e-03
-3.199210762977600098e-02
5.778654944151639938e-03
2.191693708300590515e-02
4.653126932680606842e-03
3.349579870700836182e-02
1.774352230131626129e-02
1.221786849470163361e-08
1.252274960279464722e-02
-6.928639020770788193e-03
-3.578830976039171219e-03
2.205130271613597870e-02
-3.854487463831901550e-02
3.064947947859764099e-02
-9.736550040543079376e-03
1.317808590829372406e-02
-9.435240179300308228e-03
1.094743981957435608e-02
2.147212810814380646e-02
-9.109624661505222321e-04
1.271919999271631241e-02
-1.152992341667413712e-02
2.525049634277820587e-02
6.651217583566904068e-03
1.543883816339075565e-03
-5.696969572454690933e-03
-1.127066928893327713e-02
-9.913710877299308777e-03
1.155308559930290357e-08
-2.449568547308444977e-02
-5.876268260180950165e-03
-1.376878644805401564e-04
5.495499935932457447e-04
-3.962981514632701874e-03
-7.996406406164169312e-03
-8.913987316191196442e-03
1.225577853620052338e-02
-1.064790692180395126e-02
-1.137265656143426895e-02
-1.183445658534765244e-02
-1.485123531892895699e-03
7.781662512570619583e-03
-3.893248736858367920e-03
1.370226126164197922e-02
-6.193175911903381348e-03
-1.385072828270494938e-03
8.784118108451366425e-03
8.586288429796695709e-03
-2.496259286999702454e-02
8.086812682449817657e-03
-1.297674700617790222e-02
3.306297585368156433e-02
1.652262359857559204e-02
2.294650115072727203e-02
-8.312167599797248840e-03
9.620863944292068481e-03
-1.519121974706649780e-02
8.778879418969154358e-04
1.660269126296043396e-02
1.343417679890990257e-03
4.799346697836881503e-07
1.153504382818937302e-02
1.492569801087029191e-08
-7.058508228510618210e-03
-7.859564386308193207e-03
-2.266144379973411560e-03
-6.758395582437515259e-03
3.321726992726325989e-02
3.316501900553703308e-02
-1.629303768277168274e-02
2.934825140982866287e-03
1.039601826846592303e-08
1.115332171320915222e-02
-1.296291220933198929e-02
-3.117782529443502426e-03
2.769333496689796448e-02
-2.290214598178863525e-02
8.279429748654365540e-03
4.773166030645370483e-03
9.958914481103420258e-03
1.347196381539106369e-02
8.548618061468005180e-04
-9.888714179396629333e-03
2.543750405311584473e-02
1.942463777959346771e-02
1.950529962778091431e-02
-1.434905920177698135e-02
-1.554026547819375992e-02
-7.661802694201469421e-03
-8.013197220861911774e-03
7.971597835421562195e-03
-6.600580178201198578e-03
1.148439299214487619e-08
6.304458528757095337e-02
-3.188299760222434998e-02
8.677860721945762634e-03
1.156775653362274170e-02
2.827281598001718521e-03
-3.238227218389511108e-04
2.040695957839488983e-02
-1.388509199023246765e-02
8.694316260516643524e-03
1.241553854197263718e-02
-3.272237256169319153e-02
1.752404496073722839e-02
1.293428358621895313e-03
4.206839203834533691e-02
-1.257487572729587555e-02
3.916410356760025024e-02
8.480249904096126556e-03
-8.531609550118446350e-03
-1.607707515358924866e-02
-5.089524202048778534e-03
-2.009963616728782654e-02
5.730780307203531265e-03
-2.217921055853366852e-02
-2.127722278237342834e-02
-3.210240229964256287e-02
-8.520321920514106750e-03
2.427243068814277649e-02
7.921153679490089417e-03
-1.103446725755929947e-02
-4.172181244939565659e-03
-7.846539840102195740e-03
4.513409237461019075e-07
1.775060594081878662e-02
1.995519660624722746e-08
3.279796568676829338e-03
6.517037283629179001e-03
6.992588751018047333e-03
3.202432999387383461e-03
-2.714513801038265228e-02
-2.042271569371223450e-02
4.146856069564819336e-02
-2.873558364808559418e-02
9.988172955388563423e-09
6.147061008960008621e-03
2.137525193393230438e-02
2.023437060415744781e-02
-6.463550962507724762e-03
5.792776867747306824e-02
9.097022004425525665e-03
1.326820626854896545e-02
-1.317989453673362732e-02
3.105347417294979095e-02
6.947725545614957809e-03
-8.799108676612377167e-03
3.187894821166992188e-02
9.938350878655910492e-03
1.959461905062198639e-02
-8.957741782069206238e-03
-2.281939983367919922e-02
7.118291250662878156e-05
-8.539196103811264038e-03
6.609974801540374756e-02
-1.475815474987030029e-02
1.401493232577877279e-08
8.623052388429641724e-02
1.348063908517360687e-02
2.272573858499526978e-02
-1.469319034367799759e-02
7.282251492142677307e-03
-2.723535755649209023e-03
4.349478334188461304e-02
-2.704162895679473877e-02
2.167117409408092499e-02
2.249829471111297607e-02
-3.797469288110733032e-02
7.352732587605714798e-03
1.305088959634304047e-02
6.644532829523086548e-02
1.364923082292079926e-02
4.512673616409301758e-02
6.564187351614236832e-03
-9.454962797462940216e-03
2.090094983577728271e-02
-1.109816227108240128e-02
-2.751643769443035126e-03
9.623141959309577942e-03
-3.724594041705131531e-02
-3.301536664366722107e-02
-3.008020482957363129e-02
-1.854538731276988983e-02
3.758051618933677673e-02
4.603313282132148743e-03
-1.492370734922587872e-03
-1.418443676084280014e-02
3.163091093301773071e-02
4.787288503393938299e-07
5.422344431281089783e-03
1.633868507155966654e-08
4.008913040161132812e-02
6.362791638821363449e-03
3.914950788021087646e-02
7.285778992809355259e-04
-2.653329260647296906e-02
2.492669969797134399e-03
4.351340606808662415e-02
-2.452642470598220825e-02
1.050488940279592498e-08
7.193485274910926819e-03
5.071481689810752869e-02
1.965427584946155548e-02
-1.130051258951425552e-02
5.571468546986579895e-02
1.434401888400316238e-02
-1.527748350054025650e-02
-1.435494888573884964e-02
3.721220046281814575e-02
7.773632649332284927e-03
-1.050441619008779526e-02
4.196511581540107727e-02
-1.303634513169527054e-02
1.050434447824954987e-02
-1.783435605466365814e-02
-2.569087781012058258e-02
-6.652565207332372665e-03
-2.000725269317626953e-02
3.670827299356460571e-02
-1.181110832840204239e-02
1.734120580465514649e-08
4.539736360311508179e-02
3.247428685426712036e-02
2.601248957216739655e-02
-2.896121330559253693e-02
1.042471267282962799e-02
-1.281395787373185158e-03
2.869662456214427948e-02
-3.327862173318862915e-02
5.503127817064523697e-03
1.345703098922967911e-02
-4.354741796851158142e-02
-3.338091541081666946e-03
1.457480713725090027e-02
2.858651243150234222e-02
-2.608473645523190498e-03
1.654807105660438538e-02
5.350551102310419083e-03
-2.320946380496025085e-02
9.930552914738655090e-03
-1.159514533355832100e-03
-7.255948148667812347e-03
-1.625062664970755577e-03
-7.290123961865901947e-03
-3.298502042889595032e-02
-2.203109115362167358e-02
-1.633997424505650997e-03
3.304960206151008606e-02
1.520864013582468033e-02
-5.554373376071453094e-03
-7.762321736663579941e-03
2.995881438255310059e-02
4.818432444153586403e-07
1.021214295178651810e-02
1.141253314074219816e-08
1.964987441897392273e-02
1.576584205031394958e-02
1.475499290972948074e-02
-1.527274399995803833e-02
-2.543414570391178131e-02
-1.157952845096588135e-02
4.362205415964126587e-02
-2.495222911238670349e-02
1.119663028958939321e-08
1.826282404363155365e-02
3.166662156581878662e-02
1.388089545071125031e-02
-3.746629954548552632e-05
3.958492353558540344e-02
1.995231956243515015e-02
-1.512731984257698059e-02
2.067122375592589378e-03
-1.356870285235345364e-03
-1.651048776693642139e-03
1.887592952698469162e-03
-1.488768029958009720e-02
-1.693946495652198792e-02
-1.729689911007881165e-02
-6.872491445392370224e-03
-1.348156109452247620e-02
-5.000266246497631073e-03
-2.768546715378761292e-02
-1.390680857002735138e-02
-1.035211328417062759e-02
2.098103379921667511e-08
-2.453060261905193329e-02
-1.879094488685950637e-04
-1.642495952546596527e-02
-2.579238498583436012e-03
-1.800297945737838745e-02
-6.417038384824991226e-03
-2.663392201066017151e-02
1.049976795911788940e-02
-2.100064605474472046e-02
-9.825974702835083008e-03
-1.457462646067142487e-02
-4.831305705010890961e-04
-2.644600160419940948e-02
-3.452711179852485657e-02
-2.791192382574081421e-03
-4.116716329008340836e-03
-1.400197949260473251e-02
-1.887068152427673340e-02
-3.340637311339378357e-03
-2.802470000460743904e-03
-1.862380467355251312e-02
9.133470011875033379e-04
-3.325866162776947021e-02
-2.670655958354473114e-03
1.556808967143297195e-02
-1.169282943010330200e-02
-1.995402574539184570e-02
1.646107435226440430e-02
2.029449446126818657e-03
-8.512615226209163666e-03
-6.023972854018211365e-02
4.878891104453941807e-07
-1.063119503669440746e-03
1.059472332087807445e-08
-3.958198055624961853e-02
-6.306691560894250870e-03
-2.828369475901126862e-02
-1.825600862503051758e-02
-1.719696074724197388e-02
-7.243172265589237213e-03
-4.610937088727951050e-02
-2.359483391046524048e-03
1.294805684892708086e-08
-3.004688071087002754e-03
-3.226497396826744080e-02
-1.200368069112300873e-02
-1.761148869991302490e-02
-3.109948709607124329e-02
-6.470059510320425034e-03
-8.276863954961299896e-03
-1.283088233321905136e-02
-7.976964116096496582e-03
-6.901755928993225098e-03
8.319814689457416534e-03
-2.227214165031909943e-02
-5.700587760657072067e-03
7.346402853727340698e-03
-4.364520777016878128e-03
-8.972967043519020081e-03
3.281542158219963312e-04
-1.800783351063728333e-02
-1.453723013401031494e-02
-2.055464312434196472e-02
1.368088220488061779e-08
-4.985426738858222961e-02
2.532131038606166840e-04
-4.537233710289001465e-02
-1.806300133466720581e-02
-2.148136682808399200e-02
-4.967940971255302429e-03
-2.095547690987586975e-02
-4.894919227808713913e-03
-2.235129475593566895e-02
-7.711214013397693634e-03
1.874604640761390328e-04
-8.119927719235420227e-03
-2.769127674400806427e-02
-5.074394866824150085e-02
-2.519176527857780457e-02
-2.139178849756717682e-02
-1.921817474067211151e-02
-1.702234335243701935e-02
7.203950546681880951e-03
8.677757345139980316e-03
-1.546730007976293564e-02
-5.848227534443140030e-03
-7.633514702320098877e-02
-3.228172427043318748e-03
2.773596160113811493e-02
-6.460717413574457169e-03
-2.770571410655975342e-02
2.393964678049087524e-02
3.420634428039193153e-03
-1.242854911834001541e-02
-1.031173318624496460e-01
5.036054062657058239e-07
-2.290198765695095062e-02
1.436669982979310589e-08
-3.654148057103157043e-02
-9.365065954625606537e-03
-2.006669528782367706e-02
1.386012788861989975e-02
-3.127099573612213135e-02
-2.676901593804359436e-02
-6.968822330236434937e-02
-1.551216817460954189e-03
6.808295260896102263e-09
-2.067458629608154297e-02
-3.904840350151062012e-02
-6.355184596031904221e-03
-3.873293753713369370e-03
-5.444200336933135986e-02
8.522825315594673157e-03
-2.338486537337303162e-02
-2.857016632333397865e-03
-1.234646234661340714e-02
5.759372375905513763e-03
-7.440335117280483246e-03
-8.153853937983512878e-03
-1.084394846111536026e-02
-1.234058383852243423e-02
-5.583813879638910294e-03
-1.781383529305458069e-02
-1.183605752885341644e-03
-2.420258894562721252e-02
-8.288283832371234894e-03
-1.094361860305070877e-02
1.338330513078744843e-08
-3.709436580538749695e-02
4.656252276618033648e-04
-3.724407777190208435e-02
-1.036152429878711700e-02
-1.074822712689638138e-02
-4.389151465147733688e-03
-2.074948139488697052e-02
1.729810028336942196e-03
-3.619330003857612610e-02
-6.377669051289558411e-03
-1.175772026181221008e-02
-5.301112309098243713e-03
-2.465213835239410400e-02
-3.111321292817592621e-02
-1.229841075837612152e-02
-1.351762376725673676e-02
-1.259194687008857727e-02
-1.441350113600492477e-02
-2.067244611680507660e-03
1.067469548434019089e-02
-2.519484236836433411e-02
-5.311550572514533997e-03
-3.524785861372947693e-02
5.252918926998972893e-04
7.015340961515903473e-03
-6.119188852608203888e-03
-1.531493011862039566e-02
2.268616110086441040e-02
4.620792809873819351e-03
-9.876489639282226562e-03
-6.500700861215591431e-02
5.079255060991272330e-07
-2.675946056842803955e-02
1.491681267395961186e-08
-2.663814462721347809e-02
-1.227675471454858780e-02
-6.437469273805618286e-03
-6.089994683861732483e-03
-3.254869207739830017e-02
-1.733278855681419373e-02
-3.751187399029731750e-02
6.657419726252555847e-03
9.619336438504433318e-09
4.063598753418773413e-04
-2.804697677493095398e-02
4.952433519065380096e-03
-6.571646314114332199e-03
-3.374070301651954651e-02
-2.331381198018789291e-03
-4.417208489030599594e-03
-1.752449572086334229e-02
-3.095504827797412872e-03
1.052477979101240635e-03
-1.638681814074516296e-02
-8.435883559286594391e-03
9.663604199886322021e-03
2.757519017904996872e-03
8.283542469143867493e-03
4.300439264625310898e-03
3.459335863590240479e-02
1.182118430733680725e-02
-8.246653713285923004e-03
2.139321714639663696e-02
6.477129943505133269e-09
-2.151922322809696198e-03
-1.864378713071346283e-02
-2.146742492914199829e-02
-1.358531974256038666e-02
1.373973395675420761e-02
-1.331042777746915817e-02
-2.874876186251640320e-02
1.062518800608813763e-03
-1.176143437623977661e-02
-2.674197219312191010e-02
-2.879257546737790108e-03
-2.362179011106491089e-02
9.419971145689487457e-03
4.966379608958959579e-03
7.107588462531566620e-03
-9.341677650809288025e-03
6.549125071614980698e-03
1.370665058493614197e-02
-2.755908295512199402e-02
-1.343871559947729111e-02
-4.087132401764392853e-03
6.975541822612285614e-03
-2.306888066232204437e-02
-1.917478628456592560e-02
-1.166807021945714951e-02
2.644336782395839691e-03
-1.169011835008859634e-02
1.855289679951965809e-03
5.608400329947471619e-02
-1.669741794466972351e-02
-1.682436093688011169e-02
2.561238332532411732e-09
1.291648671030998230e-02
2.355071471171754638e-09
-4.959012381732463837e-03
-5.733825732022523880e-03
1.026892662048339844e-02
2.047831937670707703e-02
1.990445517003536224e-02
-2.815137803554534912e-02
-1.351994369179010391e-02
1.736783608794212341e-02
1.181982067777198608e-08
-3.148324042558670044e-02
2.048965543508529663e-02
-2.196172811090946198e-02
-1.607317849993705750e-02
1.688429387286305428e-03
-4.860355053097009659e-03
-3.263864433392882347e-03
-1.128126401454210281e-02
-3.209593240171670914e-03
-1.847911253571510315e-02
4.184633493423461914e-03
1.342678675428032875e-03
-1.671791821718215942e-02
2.919053472578525543e-02
-3.147083334624767303e-03
1.460057124495506287e-02
1.696935482323169708e-02
7.453107391484081745e-04
1.769813522696495056e-02
4.707597568631172180e-02
8.265168105481279781e-09
-1.466440688818693161e-02
1.009620632976293564e-02
2.476393990218639374e-02
-2.291051857173442841e-02
2.037566527724266052e-02
-1.391141768544912338e-02
-2.617612481117248535e-02
6.158925592899322510e-03
-2.340104617178440094e-02
-1.777929067611694336e-02
-1.613474451005458832e-04
-3.412028774619102478e-02
2.569835400208830833e-03
-1.393290143460035324e-02
-2.591404598206281662e-03
-1.272817142307758331e-02
2.388346754014492035e-02
1.137779187411069870e-02
-1.033305469900369644e-02
-1.337315887212753296e-02
-5.053744651377201080e-03
4.988329019397497177e-03
5.103423260152339935e-03
-1.448269002139568329e-02
-1.115032657980918884e-02
2.326417714357376099e-02
-2.049873955547809601e-02
-3.905173623934388161e-03
6.055622547864913940e-02
-1.089937705546617508e-02
4.675872158259153366e-03
-9.430470848670324813e-10
-2.411856316030025482e-03
1.126031934362003994e-09
1.547970157116651535e-02
-3.513700561597943306e-03
-3.967189230024814606e-03
1.409887988120317459e-02
-1.488049048930406570e-02
4.923539236187934875e-03
1.188254356384277344e-02
1.482386514544487000e-02
4.076891269022553388e-09
1.247458439320325851e-02
4.336768761277198792e-02
-1.541100349277257919e-02
5.373903084546327591e-03
-1.252288464456796646e-02
-2.502114884555339813e-02
1.711830846033990383e-03
3.323937766253948212e-03
1.725549250841140747e-02
-1.210685074329376221e-02
1.190349576063454151e-03
-1.217304635792970657e-02
2.837308449670672417e-03
1.174259185791015625e-02
-6.810403894633054733e-03
1.715523004531860352e-02
3.292376641184091568e-03
9.491756558418273926e-03
-7.400990929454565048e-03
3.943941369652748108e-02
9.667350475695002388e-09
-1.931940438225865364e-03
7.365405093878507614e-03
3.336269175633788109e-03
-2.103759720921516418e-02
1.545317564159631729e-02
-1.863702945411205292e-02
-1.960425172001123428e-03
-2.415721118450164795e-02
-1.095641124993562698e-02
-2.408680506050586700e-02
-5.964826326817274094e-03
-3.817749768495559692e-02
-1.602987013757228851e-02
-6.759472191333770752e-03
5.727986339479684830e-03
2.988131600432097912e-04
2.960565686225891113e-02
2.327577583491802216e-02
3.278695791959762573e-02
-1.356116961687803268e-02
-9.628488332964479923e-04
-1.448491867631673813e-02
8.964252658188343048e-03
4.667354281991720200e-03
-2.258189767599105835e-02
1.447271276265382767e-02
-2.987745590507984161e-02
-4.236491804476827383e-04
1.212373375892639160e-02
-3.704443946480751038e-02
2.270217053592205048e-03
-7.275685831586997665e-09
1.398978871293365955e-03
1.885851919070091753e-09
-3.390559181571006775e-02
-6.692466326057910919e-03
1.488375198096036911e-02
-4.021963104605674744e-03
1.486516557633876801e-03
1.344205252826213837e-02
3.037121705710887909e-02
5.624686833471059799e-03
2.573751656242961872e-09
1.074733957648277283e-02
1.752922311425209045e-02
-1.166815776377916336e-02
-8.737455122172832489e-03
-1.800515316426753998e-02
-4.219066724181175232e-02
-1.087587792426347733e-03
8.715315721929073334e-03
6.236702203750610352e-02
9.898941963911056519e-03
-7.085877005010843277e-04
-4.821736831218004227e-03
1.710366830229759216e-02
-1.638263836503028870e-02
2.807723544538021088e-02
1.857860200107097626e-02
4.803629219532012939e-02
1.014422625303268433e-03
-2.950932458043098450e-02
2.684990875422954559e-02
-2.635955453911265067e-09
-1.210718601942062378e-02
-9.010927751660346985e-03
-4.890114068984985352e-02
-6.835685670375823975e-02
2.114504948258399963e-02
-1.121220644563436508e-02
-9.493636898696422577e-03
-1.026056148111820221e-02
3.751036897301673889e-02
-2.234635688364505768e-02
-2.145482599735260010e-02
-3.109411336481571198e-02
2.663828060030937195e-02
8.293772116303443909e-03
-1.361331250518560410e-02
-1.010646671056747437e-02
2.108703367412090302e-02
5.864101927727460861e-03
-1.349025871604681015e-02
-3.013523761183023453e-03
2.164836972951889038e-02
1.857704855501651764e-02
-7.905630394816398621e-03
6.494973320513963699e-03
1.808577775955200195e-02
-2.921680919826030731e-03
-4.293505847454071045e-02
-3.540888137649744749e-04
5.427446588873863220e-02
8.461657911539077759e-03
-2.079156599938869476e-02
-6.415426412331726169e-09
9.967586956918239594e-03
-7.322017658850654698e-09
1.968033611774444580e-02
3.824107581749558449e-03
1.879291422665119171e-02
1.056391163729131222e-03
3.173807635903358459e-02
-7.361609023064374924e-03
-3.792395442724227905e-02
1.675084047019481659e-02
-2.128895504327488197e-09
-9.659850038588047028e-03
-1.339135877788066864e-02
-3.224963787943124771e-03
2.654246054589748383e-03
1.444057445041835308e-03
1.372523605823516846e-02
-9.877390228211879730e-03
-1.330350339412689209e-02
4.621094465255737305e-02
2.173484768718481064e-03
9.841404855251312256e-03
1.605660468339920044e-02
2.038258360698819160e-03
-1.169011462479829788e-02
7.415038999170064926e-03
3.069345839321613312e-02
2.108718268573284149e-02
-1.054960303008556366e-02
-4.892739932984113693e-03
7.834160327911376953e-02
1.522866943659550998e-09
-1.948155835270881653e-02
-4.594291560351848602e-03
2.490828372538089752e-02
-5.339337512850761414e-02
1.327337697148323059e-02
-1.329490263015031815e-02
-1.247311010956764221e-02
-6.597260013222694397e-03
2.713005617260932922e-02
-2.105158753693103790e-02
-2.433552592992782593e-02
-3.640927746891975403e-02
-1.565722189843654633e-02
-1.133458036929368973e-02
-3.961727768182754517e-02
-4.519116133451461792e-03
4.297383129596710205e-02
5.632488988339900970e-03
-2.080155536532402039e-02
5.320577416568994522e-03
1.002210006117820740e-02
-1.764674088917672634e-03
7.520064245909452438e-03
1.318771950900554657e-02
2.355243451893329620e-02
-4.633908625692129135e-03
-3.909653425216674805e-02
-6.446053273975849152e-03
4.460493475198745728e-02
-7.542497478425502777e-03
-2.037594094872474670e-03
-6.666750707040591806e-09
8.323856629431247711e-03
-9.260668676347449946e-09
4.562841262668371201e-03
-4.183758515864610672e-03
-2.208056161180138588e-03
-2.686636149883270264e-02
3.127522068098187447e-03
2.306481823325157166e-03
3.965750709176063538e-02
3.378177352715283632e-04
7.608983665363666660e-09
2.718712948262691498e-02
-1.172919943928718567e-02
-2.011039294302463531e-03
1.655000448226928711e-02
5.899146199226379395e-03
-2.068013697862625122e-02
-2.897129859775304794e-03
-1.860112417489290237e-03
4.635407403111457825e-02
-2.952223876491189003e-03
1.113636139780282974e-02
-1.696736179292201996e-02
1.288068201392889023e-02
-2.261937782168388367e-02
5.829794798046350479e-03
4.290135949850082397e-02
1.346121635288000107e-02
-5.072692874819040298e-03
-1.919349282979965210e-02
7.941804826259613037e-02
7.967725146329485142e-09
8.060721680521965027e-03
2.418452175334095955e-03
-8.552784100174903870e-03
-4.462135583162307739e-02
1.751083321869373322e-02
-1.471416559070348740e-02
8.674981072545051575e-03
-2.495127357542514801e-02
9.213988669216632843e-03
-3.427562490105628967e-02
-1.860386109910905361e-03
-3.057787753641605377e-02
-2.873940579593181610e-02
-1.392562128603458405e-02
-3.589793294668197632e-02
8.327157236635684967e-03
2.109616249799728394e-02
2.901294454932212830e-02
-1.865474856458604336e-03
-1.003024075180292130e-02
2.216983772814273834e-02
-6.296798121184110641e-03
1.241134363226592541e-03
5.160139407962560654e-03
9.644552133977413177e-03
-1.574616692960262299e-02
-1.978167518973350525e-02
-3.913695458322763443e-03
1.051541417837142944e-02
-2.492579258978366852e-02
1.961768604815006256e-02
-1.587599918195792270e-08
4.233927931636571884e-03
4.088431815318926965e-09
-2.809804305434226990e-02
-3.842822741717100143e-03
1.139977667480707169e-02
-1.073835231363773346e-02
1.016467437148094177e-02
2.017024205997586250e-03
3.844192624092102051e-02
1.559013407677412033e-02
-1.147757555663986295e-09
4.071581736207008362e-02
-2.408407442271709442e-02
-8.489696308970451355e-03
-1.333815394900739193e-03
-2.471119724214076996e-02
-4.810947179794311523e-02
-3.178096376359462738e-03
2.210707403719425201e-03
3.304937481880187988e-02
3.519120218697935343e-04
7.172493264079093933e-03
4.441003315150737762e-03
5.666466429829597473e-03
-3.495019627735018730e-03
3.601429238915443420e-02
-8.989694761112332344e-04
6.209458410739898682e-02
6.826147437095642090e-03
-1.349796727299690247e-02
4.678114876151084900e-02
-2.407480215182999927e-09
-1.348270196467638016e-02
-6.799791939556598663e-03
-1.224264223128557205e-02
-6.941844522953033447e-02
1.185702160000801086e-02
-9.144066832959651947e-03
-1.860523223876953125e-02
-1.457247231155633926e-02
1.494032982736825943e-02
-1.527609303593635559e-02
-1.504074689000844955e-02
-2.513836137950420380e-02
1.654580235481262207e-02
7.968579302541911602e-04
-4.366202279925346375e-03
2.391033060848712921e-02
1.638779044151306152e-02
8.457908406853675842e-03
-1.617674715816974640e-02
1.008915994316339493e-02
1.574443653225898743e-02
3.211804479360580444e-02
-1.858631335198879242e-02
5.990299396216869354e-03
2.800731733441352844e-02
1.219288259744644165e-02
-1.137144863605499268e-02
1.139766350388526917e-02
5.426144972443580627e-02
2.826613374054431915e-03
-1.872758939862251282e-02
-4.713498036323926499e-09
2.979671582579612732e-03
1.674628435921476921e-09
-9.415337117388844490e-04
9.929195046424865723e-03
3.550048684701323509e-03
-2.137739770114421844e-02
-1.530024968087673187e-02
-1.419539656490087509e-02
-2.533131465315818787e-02
1.230737846344709396e-02
-5.255072821341855160e-09
-8.669473230838775635e-03
-3.440704941749572754e-02
6.501718889921903610e-03
7.018967065960168839e-03
1.347083505243062973e-02
2.464001812040805817e-02
1.819040859118103981e-03
-8.435642346739768982e-03
1.219187863171100616e-02
5.286970175802707672e-03
-2.256615087389945984e-03
5.837085656821727753e-03
5.608353298157453537e-03
5.474593024700880051e-03
2.263222821056842804e-02
1.264385320246219635e-02
4.653944820165634155e-02
7.519524544477462769e-03
9.386820718646049500e-03
6.484933942556381226e-02
-2.951539457285434764e-09
4.375876393169164658e-03
2.046161517500877380e-02
5.028754845261573792e-02
-4.125256836414337158e-02
1.467608939856290817e-02
-1.232848688960075378e-02
-2.868258580565452576e-02
-3.316747769713401794e-02
4.099604487419128418e-02
-2.822447754442691803e-02
-2.557716146111488342e-02
-3.637796267867088318e-02
3.452476859092712402e-02
3.916860558092594147e-03
-4.666711669415235519e-03
2.058838494122028351e-02
4.122831299901008606e-02
-2.123067528009414673e-02
-8.309332653880119324e-03
9.152472950518131256e-03
-2.050767093896865845e-02
2.480748482048511505e-02
-2.694354625418782234e-03
6.875284947454929352e-03
2.879421040415763855e-02
1.585719175636768341e-02
-5.683192517608404160e-03
-3.260534722357988358e-03
5.118814483284950256e-02
-2.256788499653339386e-02
-1.321696396917104721e-02
-1.106883473767084070e-08
-9.414142929017543793e-03
4.036422751596546732e-09
4.551362618803977966e-02
3.099913243204355240e-03
3.471364034339785576e-03
-7.277729455381631851e-03
-5.221176147460937500e-02
-1.559184165671467781e-03
-4.106507170945405960e-03
1.314171706326305866e-03
-6.962595083814804298e-11
-2.446529828011989594e-02
-1.290806382894515991e-02
4.992606118321418762e-03
-1.733346469700336456e-02
2.075788937509059906e-02
1.497236359864473343e-02
-1.258010044693946838e-02
-6.662887521088123322e-03
2.453616447746753693e-02
4.956355784088373184e-03
-5.591774242930114269e-04
-8.695368655025959015e-03
-1.704148715361952782e-03
5.586409009993076324e-03
5.775926169008016586e-03
2.199062332510948181e-02
2.596601098775863647e-02
1.398935710312798619e-04
2.483221003785729408e-03
6.458702683448791504e-02
6.214966763451457155e-09
2.515183389186859131e-02
2.416337840259075165e-03
-7.363109849393367767e-03
-2.433313429355621338e-02
9.609755128622055054e-03
-1.592042483389377594e-02
-1.141823828220367432e-02
-2.282226830720901489e-02
7.587782572954893112e-03
-4.664540290832519531e-02
-1.148896012455224991e-02
-3.639154508709907532e-02
-4.259306471794843674e-03
1.800878159701824188e-02
7.374042645096778870e-03
7.580264937132596970e-03
5.909807514399290085e-04
-1.834706030786037445e-02
-1.125542540103197098e-02
2.057316014543175697e-03
2.780185779556632042e-03
-2.910539973527193069e-03
-1.418286585249006748e-03
-1.327926386147737503e-02
1.164548564702272415e-02
-6.376970559358596802e-04
-7.642894983291625977e-03
-5.831029266119003296e-04
1.957424730062484741e-02
-2.312998287379741669e-02
-2.400455065071582794e-03
-1.791848625032343989e-08
-1.113549619913101196e-02
3.776497781160514933e-09
-1.815476082265377045e-02
-4.245766438543796539e-03
2.598159760236740112e-02
7.762056309729814529e-03
-8.421578444540500641e-03
-2.546256035566329956e-02
1.857369579374790192e-02
1.212905067950487137e-02
2.245596597560961527e-09
-2.888234145939350128e-02
-2.735518850386142731e-02
7.221351843327283859e-03
-1.438651140779256821e-02
9.653435088694095612e-03
-3.020017780363559723e-02
-7.651377469301223755e-03
-3.557826206088066101e-02
-3.384941816329956055e-02
-3.690579673275351524e-03
-9.599169716238975525e-03
-4.282573238015174866e-03
1.176074147224426270e-02
6.837058346718549728e-03
2.057865448296070099e-02
-6.284648086875677109e-03
3.876219689846038818e-02
-1.745382510125637054e-02
-1.780008431524038315e-03
-3.915968164801597595e-02
9.239781384451362101e-09
5.000521894544363022e-03
-1.170393638312816620e-02
-2.576823532581329346e-02
1.712257228791713715e-02
4.009805619716644287e-03
2.801714651286602020e-02
1.205292344093322754e-02
-1.675574108958244324e-02
6.863517686724662781e-03
2.367780543863773346e-02
-1.301910541951656342e-02
3.180024772882461548e-02
-2.264036983251571655e-02
2.293061465024948120e-02
3.670210950076580048e-03
-1.486936933360993862e-03
-2.710469998419284821e-02
2.433620858937501907e-03
-8.157267235219478607e-03
7.864742539823055267e-03
8.100171573460102081e-03
-1.404183916747570038e-02
-2.079525403678417206e-02
8.789733983576297760e-03
1.905001141130924225e-02
-1.075015403330326080e-02
-3.554762108251452446e-03
-2.255199506180360913e-04
-1.361497584730386734e-02
2.736858557909727097e-03
-4.137117415666580200e-02
3.265210679614938272e-08
-3.600330790504813194e-03
1.014502615248602524e-08
-1.297830976545810699e-02
-2.386853797361254692e-03
-9.453766979277133942e-03
-1.270516961812973022e-02
-1.754187978804111481e-02
-1.613677293062210083e-02
-1.603369601070880890e-02
1.387246418744325638e-02
7.226913290026004688e-09
-5.281696468591690063e-02
-3.823927417397499084e-02
1.346717309206724167e-02
1.189420092850923538e-02
-4.495074506849050522e-03
1.304836105555295944e-02
-3.126192372292280197e-03
3.478027181699872017e-03
-3.951062634587287903e-02
1.041629910469055176e-02
7.178249303251504898e-03
1.740903244353830814e-03
-3.108429489657282829e-03
1.872930303215980530e-02
3.891399875283241272e-02
7.832042872905731201e-03
3.470419719815254211e-02
-1.149907149374485016e-02
-5.647013429552316666e-03
-3.079084679484367371e-02
3.404644788318478277e-09
-2.512695267796516418e-02
2.052305964753031731e-03
-3.146808376186527312e-05
1.196525432169437408e-02
7.351995445787906647e-03
2.442138269543647766e-02
1.890297979116439819e-02
-4.562083166092634201e-03
-2.715983614325523376e-02
2.661219611763954163e-02
2.118602581322193146e-02
3.324203193187713623e-02
-3.100213222205638885e-02
1.574629335664212704e-03
7.437639869749546051e-03
1.615373790264129639e-02
9.495788253843784332e-03
1.518859714269638062e-02
2.216880442574620247e-03
8.829672820866107941e-03
6.367865018546581268e-03
-3.025032579898834229e-02
-5.184360779821872711e-03
2.029233984649181366e-02
1.587648503482341766e-02
-9.568819077685475349e-04
3.080322965979576111e-02
-3.611415624618530273e-03
-1.464367937296628952e-02
1.145982462912797928e-02
1.686003990471363068e-02
1.495896206904490100e-08
-1.839374005794525146e-02
1.758481538161049684e-08
-1.472653914242982864e-02
2.987481420859694481e-04
-1.690472825430333614e-03
-4.894164856523275375e-03
1.223500072956085205e-02
1.946828910149633884e-03
-6.895899306982755661e-03
7.122752256691455841e-03
9.615474638735577173e-09
-6.355990190058946609e-03
-1.721688732504844666e-02
2.710569836199283600e-02
1.623790338635444641e-02
1.672873087227344513e-02
-3.111713798716664314e-03
2.265769289806485176e-03
5.868814885616302490e-03
-4.704633727669715881e-02
-4.549668636173009872e-03
6.591561716049909592e-03
1.721219625324010849e-03
-9.703048504889011383e-03
7.432611659169197083e-03
-1.122610876336693764e-03
6.409185007214546204e-03
1.009739656001329422e-02
-3.061308339238166809e-02
-1.247885264456272125e-02
-3.118027001619338989e-02
-1.153383388796669351e-09
-1.895109936594963074e-02
7.638087030500173569e-03
1.980955479666590691e-03
2.531620487570762634e-02
2.182642929255962372e-03
1.332976669073104858e-02
-2.834469825029373169e-02
-1.168819703161716461e-02
-1.478954218327999115e-02
1.281098648905754089e-02
-6.838988047093153000e-03
1.588602364063262939e-02
9.621593169867992401e-03
-7.240887265652418137e-03
1.115424744784832001e-02
-5.534742493182420731e-03
-1.226660143584012985e-02
-2.742754481732845306e-02
2.052066661417484283e-02
4.499910399317741394e-03
-1.473143789917230606e-02
-3.783432394266128540e-02
2.459747716784477234e-02
3.090059384703636169e-03
-1.631135470233857632e-03
1.040200795978307724e-02
2.694602310657501221e-02
-8.889579214155673981e-03
-1.162681169807910919e-02
-8.321220986545085907e-03
1.777711510658264160e-02
-7.639703092365834891e-09
-1.892258413136005402e-02
9.445336957014660584e-09
1.558761019259691238e-02
-1.554708182811737061e-02
1.037667691707611084e-02
-1.152993086725473404e-02
-3.006076812744140625e-02
-5.602036137133836746e-03
-4.010421782732009888e-02
-2.391938678920269012e-02
8.134602325071682571e-09
-9.820364415645599365e-03
-5.737314932048320770e-04
1.183782424777746201e-02
5.097229033708572388e-03
-2.351233363151550293e-02
-2.640664810314774513e-03
-3.549854457378387451e-02
-4.138077050447463989e-02
-5.149790644645690918e-02
-7.933844812214374542e-03
-2.083020284771919250e-02
-3.449344076216220856e-03
-1.617566309869289398e-02
7.627888116985559464e-03
4.001057893037796021e-02
-2.629625983536243439e-02
4.733481630682945251e-02
-1.485350169241428375e-02
1.523034181445837021e-02
-5.347491428256034851e-02
3.775715740061968972e-09
2.927455492317676544e-02
3.856801195070147514e-03
1.351067796349525452e-02
3.648218140006065369e-02
2.513845451176166534e-03
3.253686800599098206e-02
-2.628459595143795013e-03
-2.909201756119728088e-02
2.568151615560054779e-02
2.423772960901260376e-02
-9.162703529000282288e-03
3.980851545929908752e-02
-1.963688246905803680e-02
1.875825971364974976e-02
-1.159920077770948410e-02
-1.337978639639914036e-03
-5.269605666399002075e-03
7.372465450316667557e-03
6.459640339016914368e-03
-1.985617913305759430e-03
-2.409211732447147369e-02
-1.055773999541997910e-02
-2.254775911569595337e-02
7.020704913884401321e-03
2.658881992101669312e-02
-4.034810699522495270e-03
3.419105708599090576e-02
1.680983603000640869e-02
-1.392652839422225952e-02
6.168489810079336166e-03
-1.893323101103305817e-02
1.203282238293468254e-07
7.605257444083690643e-03
8.639100990137649205e-09
2.043364383280277252e-02
6.889211945235729218e-03
-1.068331114947795868e-02
-9.156899526715278625e-03
1.891235634684562683e-02
-2.553024096414446831e-03
-8.445617742836475372e-03
6.034133024513721466e-03
7.832061221790809213e-09
-6.724752485752105713e-02
-5.696758162230253220e-03
-2.150775166228413582e-03
-1.018198858946561813e-02
-1.507119461894035339e-02
1.462037116289138794e-02
2.946772612631320953e-02
2.289293333888053894e-02
-6.583560258150100708e-02
-1.756512373685836792e-02
-1.078481134027242661e-02
-1.116516906768083572e-02
-1.407924853265285492e-02
-7.228479254990816116e-03
4.496226459741592407e-02
3.192037402186542749e-04
3.188382834196090698e-02
1.418342068791389465e-02
4.601809196174144745e-03
-4.483571276068687439e-02
3.521509306381176430e-09
-2.973435260355472565e-02
-1.199087221175432205e-02
1.424570009112358093e-02
9.635651484131813049e-03
-2.529488410800695419e-04
2.930992841720581055e-02
3.621881455183029175e-02
-8.675872348248958588e-03
-2.295204438269138336e-02
3.171591833233833313e-02
2.399670705199241638e-02
3.724239394068717957e-02
-4.445732757449150085e-02
-3.718463238328695297e-03
-1.719333417713642120e-02
1.837329193949699402e-02
1.857660524547100067e-02
1.985966227948665619e-02
-2.354760840535163879e-02
-7.917116396129131317e-03
-6.265813950449228287e-03
-3.547923266887664795e-02
-6.813960149884223938e-03
1.091532688587903976e-02
-3.443676745519042015e-03
-1.874739490449428558e-02
4.673805460333824158e-02
4.829260986298322678e-03
-1.551073137670755386e-02
-1.677295565605163574e-02
2.479769289493560791e-02
1.273496081921621226e-07
1.611420302651822567e-03
1.490845491503023368e-08
1.274412684142589569e-02
1.740428991615772247e-02
-4.459222313016653061e-03
-2.435561642050743103e-02
6.457264721393585205e-02
-4.697832337114959955e-04
-1.498302794061601162e-03
-5.345167592167854309e-04
5.969959637752708659e-09
5.538119748234748840e-02
-6.731756962835788727e-03
-1.574072614312171936e-02
-3.098441101610660553e-02
3.160721808671951294e-02
-1.103425305336713791e-02
3.694172948598861694e-02
-1.146063022315502167e-02
-4.116263985633850098e-02
1.883683726191520691e-02
2.057676762342453003e-02
9.169641882181167603e-03
-6.977661047130823135e-03
-1.194050535559654236e-02
2.310371585190296173e-02
-8.218912407755851746e-03
1.587142236530780792e-02
-3.565618768334388733e-03
8.061652071774005890e-03
-2.345457114279270172e-02
1.483130329660298230e-08
4.139970522373914719e-03
3.831736976280808449e-03
3.610400110483169556e-02
3.444624692201614380e-02
1.418015919625759125e-03
8.849409408867359161e-03
-4.268770664930343628e-02
1.747564598917961121e-02
9.094606153666973114e-03
3.680830076336860657e-02
-3.351246006786823273e-03
3.609590232372283936e-02
1.058418303728103638e-02
-2.948692254722118378e-02
-2.105516009032726288e-02
3.278917446732521057e-02
8.860423229634761810e-03
-4.539578687399625778e-03
1.005159877240657806e-02
6.263423711061477661e-03
-2.730554714798927307e-02
-4.334437474608421326e-02
-1.008614990860223770e-02
1.794083043932914734e-02
-5.171790253371000290e-03
3.483919426798820496e-03
3.505207225680351257e-02
-7.253428455442190170e-03
-8.265585638582706451e-03
-1.407185452990233898e-03
3.392864763736724854e-02
5.896642818470354541e-08
-1.816124655306339264e-02
1.248424474908915727e-08
1.438628789037466049e-02
-2.836155146360397339e-02
2.590816281735897064e-02
-1.412799395620822906e-02
4.671669565141201019e-03
1.256795506924390793e-02
-3.392491955310106277e-03
-1.575292088091373444e-02
4.576327761185439158e-09
3.314042463898658752e-02
3.078240342438220978e-02
-1.376031432300806046e-02
2.082466334104537964e-02
-1.185597269795835018e-03
-1.868204586207866669e-02
-1.651063561439514160e-02
-2.937389537692070007e-02
-3.071609884500503540e-02
-8.652757853269577026e-03
-1.104693394154310226e-02
6.648239679634571075e-03
-1.226686639711260796e-03
-2.599737839773297310e-03
3.284314647316932678e-02
-1.573418825864791870e-02
3.170079737901687622e-02
-1.762156002223491669e-02
5.776616744697093964e-03
-5.104703828692436218e-02
9.233925624130279175e-09
2.555549331009387970e-02
1.323174685239791870e-02
-1.038848049938678741e-02
2.258240431547164917e-02
-8.911389857530593872e-03
2.017841488122940063e-02
1.616146042943000793e-02
-2.777655422687530518e-02
2.380011230707168579e-02
2.654952183365821838e-02
-2.071161381900310516e-02
2.629161253571510315e-02
-4.607625305652618408e-03
3.298992291092872620e-02
4.192051419522613287e-04
-5.690705031156539917e-03
-1.616005902178585529e-03
-2.352215116843581200e-03
2.437567338347434998e-02
-4.975973162800073624e-03
-2.988900989294052124e-02
-1.155751990154385567e-03
-1.167700998485088348e-02
-5.364412907510995865e-03
2.181692980229854584e-02
-2.616884000599384308e-02
1.114879641681909561e-02
9.512529708445072174e-03
-1.009524520486593246e-02
2.812048769555985928e-04
-3.473116829991340637e-02
7.274456947925500572e-08
-7.027389016002416611e-03
8.541504392667320644e-09
-1.948506385087966919e-02
-5.586679093539714813e-03
9.184435009956359863e-03
-1.904425024986267090e-02
-2.970374003052711487e-02
-8.351678960025310516e-03
-1.230597309768199921e-02
-4.702886100858449936e-03
6.885823466973306495e-09
-5.106870457530021667e-02
-1.851949840784072876e-03
4.647715948522090912e-03
-5.832483991980552673e-03
2.834529150277376175e-04
8.306672796607017517e-03
-2.133013866841793060e-02
2.583913039416074753e-03
-4.090228304266929626e-02
-2.146673761308193207e-02
-3.585795639082789421e-03
-2.422438468784093857e-03
-7.350260391831398010e-03
-9.419231675565242767e-03
3.865892067551612854e-02
7.595722563564777374e-03
2.807934954762458801e-02
1.644680090248584747e-02
-2.835961931850761175e-04
-2.881263196468353271e-02
9.613188467483269051e-09
-3.377889096736907959e-02
-1.072277408093214035e-02
1.661684550344944000e-02
-9.283807012252509594e-04
-1.413157442584633827e-03
1.240138709545135498e-02
1.260059233754873276e-02
2.597421221435070038e-02
-1.658677123486995697e-02
4.407104849815368652e-02
1.822798326611518860e-02
2.873278409242630005e-02
-2.803782559931278229e-02
-1.286366675049066544e-02
1.220784615725278854e-03
2.334831096231937408e-02
4.960984922945499420e-03
1.255692169070243835e-02
1.084946375340223312e-02
-1.107628177851438522e-02
-2.620811201632022858e-02
-2.322865277528762817e-02
-3.545651852618902922e-04
-1.306322403252124786e-03
-3.215638687834143639e-03
-1.729284040629863739e-02
1.535310503095388412e-02
-1.169962109997868538e-03
-1.064070593565702438e-02
2.308038529008626938e-03
1.591511070728302002e-02
7.779925681461463682e-08
-2.264000289142131805e-02
1.344353695031941243e-08
-1.696676947176456451e-02
-1.761912181973457336e-02
-1.359923835843801498e-02
-3.705421835184097290e-02
1.307720132172107697e-02
-7.176401093602180481e-03
2.193394303321838379e-02
4.063596948981285095e-03
1.966535156938675755e-09
3.751188516616821289e-02
-1.061667222529649734e-02
-1.089138910174369812e-02
-1.860008947551250458e-02
1.218378450721502304e-02
-6.905812304466962814e-03
-2.028265967965126038e-03
4.840400069952011108e-03
-3.230493888258934021e-02
4.648465663194656372e-03
2.855475805699825287e-02
-6.928680522833019495e-05
5.207263864576816559e-03
-3.219644306227564812e-03
2.688062004745006561e-02
-1.071616634726524353e-02
1.590581610798835754e-02
8.603778667747974396e-03
-2.431459259241819382e-03
-1.008471101522445679e-02
1.742505695290219592e-08
-9.926234371960163116e-03
-9.131425991654396057e-03
2.234947867691516876e-02
1.594737917184829712e-02
-1.446137297898530960e-02
2.744768979027867317e-03
-3.497608378529548645e-02
2.937404811382293701e-02
8.769971318542957306e-03
3.164711967110633850e-02
1.320717018097639084e-02
2.775834873318672180e-02
2.512545883655548096e-02
-2.933515235781669617e-02
-8.904483984224498272e-04
3.102376684546470642e-02
9.123101830482482910e-03
-1.484112144680693746e-04
1.147984899580478668e-02
-7.025723345577716827e-03
-2.754655294120311737e-02
-3.136469796299934387e-02
-1.028398051857948303e-02
1.698739640414714813e-02
1.717996783554553986e-03
3.883421653881669044e-03
7.329721469432115555e-03
-9.588750079274177551e-03
-6.866417359560728073e-03
6.543747149407863617e-03
5.609364714473485947e-03
4.693898958407771715e-08
-2.093238383531570435e-02
1.271652561030123252e-08
-1.411170512437820435e-02
-2.982565201818943024e-02
5.290569271892309189e-03
-5.653755273669958115e-03
1.297526760026812553e-03
3.147378563880920410e-02
6.348845083266496658e-03
-1.728480122983455658e-02
2.481329863801562396e-10
3.418754041194915771e-02
6.487639155238866806e-03
-4.460950940847396851e-02
1.588804274797439575e-02
-1.077178213745355606e-02
-8.158149197697639465e-03
-3.813172131776809692e-02
9.368243627250194550e-03
-7.578695192933082581e-03
5.967642180621623993e-03
-2.575528621673583984e-02
-2.022559009492397308e-02
1.311029493808746338e-02
-3.795594349503517151e-02
2.442785538733005524e-02
6.014245096594095230e-03
3.504606336355209351e-02
5.877844989299774170e-03
-2.242209017276763916e-02
2.564110048115253448e-02
2.257860565180180856e-09
-3.706822171807289124e-03
-2.753967605531215668e-02
-4.182959720492362976e-02
-9.306583553552627563e-03
2.233242988586425781e-02
-1.559261791408061981e-02
-3.135105222463607788e-02
1.525759231299161911e-02
1.256603654474020004e-02
-5.464455485343933105e-02
-5.632835254073143005e-02
-4.381395503878593445e-02
3.749385103583335876e-02
1.780279166996479034e-02
2.533421106636524200e-02
1.465268991887569427e-02
-1.308002043515443802e-03
3.846602514386177063e-02
3.664211183786392212e-02
-5.495395511388778687e-03
3.593034343793988228e-03
4.162605851888656616e-02
1.033160276710987091e-02
4.022006876766681671e-03
-4.223842639476060867e-03
6.103577092289924622e-03
1.978605985641479492e-02
1.107015740126371384e-02
2.860325202345848083e-02
-7.488634437322616577e-03
-2.469866909086704254e-02
-5.467595265429281426e-09
-1.487888395786285400e-02
-6.781542438716314791e-09
1.117979991249740124e-03
-1.580434385687112808e-03
-2.349778078496456146e-02
-3.591896221041679382e-02
1.730211637914180756e-02
2.096485719084739685e-02
-7.633194327354431152e-04
-7.318098098039627075e-03
2.979798852109638574e-09
-3.122213296592235565e-02
-9.924746118485927582e-03
2.112741209566593170e-02
-1.766665466129779816e-02
-1.660626009106636047e-02
1.981910085305571556e-03
5.614042282104492188e-03
1.123402267694473267e-02
1.248775608837604523e-02
-2.280733175575733185e-02
2.237676084041595459e-02
-2.954126149415969849e-02
-8.977779187262058258e-03
-7.303694728761911392e-03
2.627265639603137970e-02
1.250983332283794880e-03
4.076419398188591003e-02
2.245444431900978088e-02
-1.521261502057313919e-02
1.479833014309406281e-02
-2.377916530349466484e-09
-1.149807777255773544e-02
-2.849884703755378723e-02
-3.494732826948165894e-02
2.502760477364063263e-02
4.669105168431997299e-03
-1.023433357477188110e-02
-2.577338367700576782e-02
-3.577508777379989624e-02
1.960853487253189087e-02
-4.292646422982215881e-02
-4.979652538895606995e-02
-5.157254636287689209e-02
2.554161287844181061e-02
3.010700456798076630e-02
2.354220673441886902e-02
-1.069309841841459274e-02
-4.710271954536437988e-02
-1.719061098992824554e-02
2.786142192780971527e-02
-1.016671676188707352e-02
1.039959397166967392e-02
3.956229612231254578e-02
2.689652703702449799e-02
-3.972128033638000488e-03
1.019270811229944229e-02
-9.874616749584674835e-03
2.137557230889797211e-02
1.561726676300168037e-03
2.385898679494857788e-02
3.031683154404163361e-02
-4.277119040489196777e-02
-1.027486273841304865e-08
-1.701157656498253345e-03
3.655348246311973526e-10
-2.187273465096950531e-03
3.690568497404456139e-03
1.175240729935467243e-03
2.052837051451206207e-02
5.415974184870719910e-03
3.948628436774015427e-03
-5.211333930492401123e-02
9.631355293095111847e-03
2.533756093825445532e-09
-5.890283361077308655e-02
2.245265059173107147e-02
-2.698429673910140991e-02
7.144442759454250336e-03
-2.481132000684738159e-02
-2.718271501362323761e-02
-3.502452373504638672e-02
1.827401295304298401e-02
2.718404680490493774e-02
9.463873691856861115e-03
1.765146106481552124e-02
-1.043443568050861359e-02
-1.669781096279621124e-02
1.683270791545510292e-03
2.071349136531352997e-02
-1.352401077747344971e-02
2.567811124026775360e-02
-1.775214564986526966e-03
-2.795806620270013809e-03
3.449461609125137329e-02
1.209936484336537887e-09
-2.834465913474559784e-02
-6.809313315898180008e-03
-3.431356325745582581e-02
2.793686091899871826e-02
-3.175887046381831169e-03
-9.051919914782047272e-03
-7.613548543304204941e-03
-4.252976924180984497e-02
7.257762365043163300e-03
-3.959438577294349670e-02
-2.554271928966045380e-02
-3.503808006644248962e-02
-1.118575129657983780e-02
-2.290807198733091354e-03
3.971015289425849915e-02
-6.759525276720523834e-04
-2.179823815822601318e-02
2.639045007526874542e-02
-1.084290072321891785e-02
-1.273832656443119049e-02
-2.216213196516036987e-02
4.667565599083900452e-02
1.898558437824249268e-02
8.145104162395000458e-03
2.072493359446525574e-02
6.287311203777790070e-03
9.440234862267971039e-03
-9.987069061025977135e-04
1.840296946465969086e-02
3.229128569364547729e-02
-3.495644032955169678e-02
-2.958404854425111807e-09
-9.358403272926807404e-03
9.299184755562350801e-10
2.686349907889962196e-03
7.443949114531278610e-03
-3.448547795414924622e-02
1.583376340568065643e-02
3.314071102067828178e-03
6.593996193259954453e-03
-1.366147771477699280e-02
2.275812067091464996e-02
-2.715368485617375427e-10
2.425158768892288208e-02
-1.757231727242469788e-02
8.825330995023250580e-03
-7.151544094085693359e-03
-2.072681672871112823e-02
-1.412013918161392212e-02
-4.763015545904636383e-03
8.599629625678062439e-03
1.632302254438400269e-02
-4.380477548693306744e-05
-3.326598182320594788e-02
-1.700476743280887604e-02
-1.776603795588016510e-02
-3.592652454972267151e-02
1.801206171512603760e-02
-3.737587854266166687e-02
2.584345638751983643e-02
-9.861199185252189636e-03
1.399060129188001156e-03
3.940494358539581299e-02
3.687290250908858980e-09
-3.310328349471092224e-03
-1.406215876340866089e-02
-1.201435271650552750e-02
-3.273100033402442932e-02
1.128767267800867558e-03
-1.531938742846250534e-02
-2.929690107703208923e-02
-1.978851109743118286e-02
5.036915093660354614e-02
-5.300471559166908264e-02
-9.841078519821166992e-02
-5.085594952106475830e-02
4.091956093907356262e-02
3.936720266938209534e-02
1.609025336802005768e-02
2.593414683360606432e-04
-1.717524230480194092e-02
-5.498966202139854431e-03
-3.051896812394261360e-03
-1.913599856197834015e-02
3.301704069599509239e-03
4.129600897431373596e-02
9.891199879348278046e-03
-2.101704850792884827e-02
-7.301132660359144211e-03
-1.968145556747913361e-02
1.769833825528621674e-02
-1.861387491226196289e-02
1.537014730274677277e-02
-8.037679828703403473e-03
3.101937472820281982e-03
-8.079542368477632408e-09
1.372338458895683289e-02
-4.074378168184011884e-09
6.161173433065414429e-02
2.251415979117155075e-03
-7.636583875864744186e-03
2.700514346361160278e-02
9.513638913631439209e-03
6.173843517899513245e-03
-2.254479192197322845e-02
-2.681821817532181740e-03
5.372818634441500762e-09
-3.338765352964401245e-02
-2.757548727095127106e-02
2.690331637859344482e-02
8.817891590297222137e-03
-9.289811132475733757e-04
2.349395677447319031e-02
2.365930192172527313e-02
-4.844278469681739807e-02
3.472329676151275635e-02
8.510768413543701172e-03
-1.807189546525478363e-02
-2.638865262269973755e-02
-6.354057043790817261e-02
1.193973142653703690e-02
3.714027628302574158e-02
-7.670270651578903198e-02
2.424903027713298798e-02
7.951228320598602295e-02
2.791173383593559265e-02
8.971079438924789429e-02
1.063558352498716886e-09
2.540665119886398315e-02
-4.035764932632446289e-02
7.847933098673820496e-03
2.393325045704841614e-02
-1.921863481402397156e-02
-2.164186723530292511e-02
-4.930446855723857880e-03
-2.247965428978204727e-03
2.640612237155437469e-02
-3.864380344748497009e-02
7.474526762962341309e-02
-1.687025092542171478e-02
-9.108277969062328339e-03
-6.743404269218444824e-02
-5.016788840293884277e-02
1.335505768656730652e-02
-5.553977936506271362e-02
5.434380844235420227e-02
-7.549775391817092896e-02
-1.724398508667945862e-02
2.655576216056942940e-03
5.490725487470626831e-02
-8.703961968421936035e-02
2.551397867500782013e-02
-4.701891168951988220e-02
-7.491340488195419312e-02
3.290210664272308350e-02
-2.996335178613662720e-02
1.391808129847049713e-02
3.329387307167053223e-02
3.975550457835197449e-02
-2.325486647691832331e-08
-3.692718222737312317e-02
-7.454831196795907999e-10
-4.137287288904190063e-02
-1.252144388854503632e-02
-1.587614230811595917e-02
-1.896278001368045807e-02
-1.179125905036926270e-02
3.133878484368324280e-02
8.417831361293792725e-02
2.594943903386592865e-02
-1.983627484491989890e-09
8.712778799235820770e-03
5.277288332581520081e-02
-1.246711611747741699e-02
-2.123161405324935913e-02
6.709887087345123291e-02
-3.065569885075092316e-02
-4.936708882451057434e-02
1.963134622201323509e-03
4.399338737130165100e-02
1.490432210266590118e-02
-1.094841863960027695e-03
-4.861437715590000153e-03
-2.491029351949691772e-02
-1.180762518197298050e-02
6.683680694550275803e-03
-5.014115944504737854e-02
1.424981933087110519e-02
-2.694251574575901031e-02
1.230704877525568008e-02
4.973789677023887634e-02
9.528724476126626541e-09
-2.546867355704307556e-03
3.351154970005154610e-03
2.268829755485057831e-02
-5.735749844461679459e-03
-1.124286185950040817e-02
-1.826495490968227386e-02
1.629311405122280121e-02
-3.133564069867134094e-02
-2.814939804375171661e-02
-5.126281827688217163e-02
-5.392573401331901550e-02
-4.626569524407386780e-02
4.429333377629518509e-03
2.120566554367542267e-02
-1.092616375535726547e-02
1.359522249549627304e-02
-1.233395282179117203e-02
-1.664836332201957703e-02
3.584099188446998596e-02
-1.666598580777645111e-02
2.723017940297722816e-03
4.890014603734016418e-02
-1.828105747699737549e-02
1.695227995514869690e-02
-4.568181466311216354e-03
-2.548781037330627441e-02
3.966462612152099609e-02
-2.378251217305660248e-02
5.932520609349012375e-03
1.849691569805145264e-02
2.479161694645881653e-02
-2.923385800102096255e-08
6.523727206513285637e-04
7.058861828390661231e-10
5.861707776784896851e-02
-1.138702966272830963e-02
3.981503657996654510e-03
-2.862076275050640106e-02
-5.283226817846298218e-02
1.593181118369102478e-02
-2.879395848140120506e-03
-2.516284584999084473e-03
-2.078494265589370116e-09
2.788696438074111938e-02
6.437185686081647873e-03
3.662439808249473572e-02
9.160073474049568176e-03
-3.667185083031654358e-03
-1.421044766902923584e-02
1.742455177009105682e-03
1.710410602390766144e-02
6.508563645184040070e-03
9.456949308514595032e-03
-1.961806230247020721e-02
-1.642976701259613037e-02
-2.431120350956916809e-02
-3.752565942704677582e-03
1.170143857598304749e-02
-4.995762836188077927e-03
2.329891547560691833e-02
-1.548464968800544739e-02
2.052661404013633728e-02
5.167714878916740417e-02
-8.901656078919018000e-10
-1.893292181193828583e-02
-2.803148236125707626e-03
-6.144418846815824509e-03
-1.370835304260253906e-02
-1.805551536381244659e-02
-1.856019906699657440e-02
-3.080158308148384094e-02
-6.107208319008350372e-04
2.191616222262382507e-02
-2.977560833096504211e-02
-3.363971784710884094e-02
-3.744406253099441528e-02
-4.153538960963487625e-03
5.234074313193559647e-03
2.041056193411350250e-02
1.979369670152664185e-02
2.226462820544838905e-03
2.122418209910392761e-02
1.785155851393938065e-03
-2.021669782698154449e-02
-1.918677240610122681e-02
3.091829083859920502e-02
1.902828179299831390e-02
-2.449642308056354523e-02
2.223996259272098541e-02
1.095701009035110474e-03
5.735591985285282135e-03
-4.263899754732847214e-03
-2.371196076273918152e-02
-3.454275196418166161e-03
-1.145375054329633713e-02
-9.696949909709928761e-09
5.903377197682857513e-03
-9.075706852712528416e-10
-8.347513154149055481e-03
-9.044457692652940750e-04
-4.762835055589675903e-02
2.029064297676086426e-02
-1.167680416256189346e-02
-1.785995438694953918e-02
-2.617209451273083687e-03
-1.414162688888609409e-03
9.910814391389521916e-09
-1.761731877923011780e-02
-9.940674528479576111e-03
1.930037513375282288e-02
1.902919076383113861e-02
-1.763940043747425079e-02
-3.584319027140736580e-03
8.744964376091957092e-03
-1.253587193787097931e-02
1.643114164471626282e-02
1.669434085488319397e-02
-6.529386155307292938e-03
-2.350979298353195190e-02
-2.382650226354598999e-02
-7.320583099499344826e-04
2.371065318584442139e-02
-1.470671780407428741e-02
2.265822701156139374e-02
3.192576020956039429e-02
2.764007821679115295e-02
6.728909164667129517e-02
2.982448066290999122e-09
8.203865028917789459e-03
-2.910376060754060745e-03
-7.703163661062717438e-03
1.224802806973457336e-02
-3.197238780558109283e-03
-1.821817085146903992e-02
-1.216010306961834431e-03
-4.208800382912158966e-03
6.451913155615329742e-03
-2.480476349592208862e-02
1.113530620932579041e-02
-2.292613685131072998e-02
-2.777932956814765930e-02
-1.220292039215564728e-02
-5.778958089649677277e-03
2.451459877192974091e-02
-4.990564775653183460e-05
4.774428904056549072e-02
9.441189467906951904e-03
-1.284848619252443314e-02
-1.049243099987506866e-02
3.283760696649551392e-02
-3.380240872502326965e-02
1.790246181190013885e-02
8.635830134153366089e-03
-3.712538629770278931e-02
1.077499147504568100e-02
1.043244078755378723e-02
-2.119500190019607544e-02
1.394576206803321838e-02
-1.489922683686017990e-02
-2.181328362382828345e-08
-3.617703169584274292e-02
-1.143262151614976574e-09
-3.332295641303062439e-02
-1.024385492200963199e-04
-1.652837917208671570e-02
-3.331096842885017395e-02
3.688610345125198364e-02
1.230743341147899628e-02
3.707437217235565186e-02
2.337322570383548737e-02
-2.454453307265680451e-09
-3.157471492886543274e-02
2.800523862242698669e-02
-2.908544614911079407e-02
-3.204633668065071106e-02
-9.955458343029022217e-03
-4.685369879007339478e-02
9.761961176991462708e-03
9.438870474696159363e-03
3.468047827482223511e-02
4.453327506780624390e-03
-1.811992190778255463e-02
-6.421055179089307785e-03
2.143751457333564758e-02
-1.082617510110139847e-02
1.527461223304271698e-02
-1.915545202791690826e-02
1.414661575108766556e-02
-7.169994991272687912e-03
9.844461455941200256e-03
5.509033799171447754e-02
9.405453305078026460e-09
-1.414627674967050552e-02
-7.977411150932312012e-03
-4.263246431946754456e-03
6.861981237307190895e-04
1.096131093800067902e-02
-2.285834215581417084e-02
1.423416938632726669e-02
-1.219583023339509964e-02
-2.229600213468074799e-02
-3.004722297191619873e-02
-2.625645138323307037e-02
-3.482716903090476990e-02
-6.606458220630884171e-03
5.990231409668922424e-03
2.078277990221977234e-02
5.584244616329669952e-03
1.704901270568370819e-02
4.452263563871383667e-02
-3.102518618106842041e-03
-1.342141442000865936e-02
1.205370668321847916e-02
2.908308804035186768e-02
-2.976828813552856445e-02
5.174486711621284485e-02
4.832388833165168762e-03
6.516621448099613190e-03
1.710856892168521881e-02
-1.248365826904773712e-02
-1.782819628715515137e-02
1.499966718256473541e-02
8.627297356724739075e-04
-1.863585019634683704e-08
-3.059674426913261414e-02
-5.358131716093339492e-09
3.175493562594056129e-03
-1.636499539017677307e-02
-3.034882480278611183e-03
-2.303602732717990875e-02
-3.141822526231408119e-03
5.330023914575576782e-02
2.979856356978416443e-02
6.125361658632755280e-03
-2.568847357053982705e-10
9.385326877236366272e-03
1.081369910389184952e-02
1.964284665882587433e-02
2.012908272445201874e-02
-1.310985349118709564e-02
-3.667468577623367310e-02
1.395147200673818588e-02
6.527459621429443359e-02
-1.584373787045478821e-02
-1.723634777590632439e-03
-4.538223147392272949e-03
-1.014228351414203644e-02
-1.109685376286506653e-02
8.992468938231468201e-04
2.509623998776078224e-03
3.342434391379356384e-02
-2.578134881332516670e-03
1.869267970323562622e-02
5.601617507636547089e-03
-1.914803497493267059e-02
-3.131924442012490317e-10
4.786799475550651550e-02
-4.382168874144554138e-03
-2.202885784208774567e-02
1.730146817862987518e-02
3.390892595052719116e-02
6.745066959410905838e-03
1.647500357648823410e-05
-3.046804806217551231e-03
3.331571584567427635e-03
9.262576699256896973e-03
-1.238344702869653702e-02
-1.620012708008289337e-02
2.867248468101024628e-02
1.013163710013031960e-03
1.160549093037843704e-02
2.430628985166549683e-02
2.020114473998546600e-02
2.227512188255786896e-02
-6.142965052276849747e-03
3.902583150193095207e-03
-2.622129395604133606e-02
-4.511015024036169052e-03
5.812391266226768494e-02
9.879552759230136871e-03
-1.777357305400073528e-03
2.964316867291927338e-02
-1.679504930507391691e-04
1.719880662858486176e-02
7.159279193729162216e-03
6.620818283408880234e-03
2.299140579998493195e-02
-1.396665005870545428e-08
-2.401215024292469025e-02
5.777470057921618718e-09
1.509634219110012054e-02
-2.116822078824043274e-02
1.948817260563373566e-02
-3.433993831276893616e-02
-2.149581350386142731e-02
-2.719670161604881287e-02
1.916985400021076202e-02
1.417485531419515610e-03
4.786147034252508092e-10
6.816278398036956787e-02
3.468815237283706665e-02
-4.938688129186630249e-03
-3.499739617109298706e-02
4.886605218052864075e-02
1.418142020702362061e-02
3.288462013006210327e-02
7.901805453002452850e-03
-3.606460988521575928e-02
3.528106026351451874e-05
-3.498382866382598877e-03
-9.169308468699455261e-03
3.949135169386863708e-02
-1.225634664297103882e-02
-4.456367343664169312e-03
1.211599260568618774e-02
-1.713701896369457245e-02
8.594532497227191925e-03
1.079782005399465561e-02
9.531379677355289459e-03
3.768188872044220261e-09
2.248909324407577515e-02
-2.087327837944030762e-02
2.418293617665767670e-02
3.231995971873402596e-03
1.647457294166088104e-02
2.416500449180603027e-02
1.106681581586599350e-02
4.308584611862897873e-03
-2.694052644073963165e-02
1.783392392098903656e-02
-1.094902167096734047e-03
-1.797798648476600647e-02
1.193766575306653976e-02
-2.125889761373400688e-03
-5.512445233762264252e-03
-4.113101400434970856e-03
1.280615944415330887e-02
-2.471466735005378723e-02
-2.686902880668640137e-03
1.669564470648765564e-02
8.389401249587535858e-03
7.582700345665216446e-03
3.946820273995399475e-02
7.699254900217056274e-03
-3.568750340491533279e-03
2.360757067799568176e-02
-1.070950645953416824e-02
-1.841657049953937531e-02
4.373946227133274078e-03
1.780371554195880890e-02
-8.850337006151676178e-03
-2.239573326789923158e-08
-3.695839783176779747e-03
-3.054290154125283152e-09
1.057281717658042908e-02
2.421944588422775269e-02
-2.586010843515396118e-02
-6.318998523056507111e-03
4.883199464529752731e-03
1.210115849971771240e-03
3.821288235485553741e-03
-5.325588790583424270e-05
4.049273361061977994e-09
-1.294441614300012589e-02
8.849699050188064575e-03
6.190781947225332260e-03
7.704363204538822174e-03
3.720955923199653625e-02
1.800778321921825409e-02
1.116819866001605988e-02
-4.013576731085777283e-02
-2.613418735563755035e-02
-1.414653658866882324e-02
-6.417334079742431641e-03
-1.183588989078998566e-02
6.126401014626026154e-03
-4.331166297197341919e-02
-3.544313833117485046e-03
-9.788454510271549225e-03
-2.167506329715251923e-02
-3.121905587613582611e-02
-6.361360196024179459e-03
6.910340860486030579e-03
3.157415884302849918e-09
-3.986252471804618835e-02
1.485064742155373096e-03
-4.605494439601898193e-03
-2.371703460812568665e-02
-7.652544416487216949e-03
1.081952732056379318e-02
1.278093550354242325e-02
-2.685386128723621368e-02
-1.048281788825988770e-02
1.933348737657070160e-02
1.752661541104316711e-02
1.044692937284708023e-02
-4.383335355669260025e-03
1.489905454218387604e-02
3.198413550853729248e-02
-2.623050846159458160e-02
9.627155959606170654e-03
2.055739285424351692e-03
4.470367915928363800e-03
-6.833265535533428192e-03
6.722536869347095490e-03
5.289836321026086807e-03
2.788273245096206665e-02
-1.008759345859289169e-02
-2.392781525850296021e-02
1.667022146284580231e-02
-1.388275064527988434e-03
-2.302550524473190308e-02
-3.100253641605377197e-03
-1.281528035178780556e-03
-1.912131905555725098e-02
-3.312866780902368191e-08
1.004075538367033005e-02
-1.092758883380895440e-09
-1.000077184289693832e-02
1.362933544442057610e-03
-1.355028152465820312e-02
-2.584544196724891663e-02
1.333875209093093872e-02
3.316954011097550392e-03
-8.809031918644905090e-03
-1.409651897847652435e-02
1.914021829918510775e-09
-3.708451613783836365e-02
-2.899390459060668945e-02
6.211080588400363922e-03
1.092090853489935398e-03
-1.209845952689647675e-02
-1.639106310904026031e-02
1.658378355205059052e-02
8.808174729347229004e-02
-2.828761003911495209e-02
-2.665422111749649048e-02
5.104327201843261719e-02
-1.045242697000503540e-02
3.991094976663589478e-02
1.343252509832382202e-02
-1.264154259115457535e-02
4.550414904952049255e-02
-1.243383809924125671e-02
-6.871170550584793091e-02
-8.929326198995113373e-03
-7.576559484004974365e-02
2.444954683156197461e-09
-1.675278879702091217e-02
4.356617107987403870e-02
-4.803985729813575745e-02
5.323657533153891563e-04
8.554152213037014008e-03
2.212414052337408066e-03
-5.285651236772537231e-02
-1.103292312473058701e-02
-4.128148406744003296e-02
-3.597617521882057190e-02
-1.333742737770080566e-01
-4.594169557094573975e-02
2.143966499716043472e-03
1.355392187833786011e-01
1.533007174730300903e-01
-3.809872642159461975e-02
-3.587144613265991211e-02
-8.059060573577880859e-02
1.556693110615015030e-02
2.756790257990360260e-02
-2.208284847438335419e-02
-2.695827558636665344e-02
2.667273283004760742e-01
-5.817635357379913330e-02
2.267902903258800507e-02
9.658631682395935059e-02
-2.642242237925529480e-02
-2.554345410317182541e-03
-3.313200082629919052e-03
-3.529720380902290344e-02
-7.318374514579772949e-02
8.111194382820485771e-09
4.678847640752792358e-02
6.543663388924869651e-09
5.348032340407371521e-02
-3.303198516368865967e-02
-1.334704831242561340e-02
5.669872462749481201e-02
-5.693773925304412842e-02
-4.339032620191574097e-02
-6.679167598485946655e-02
1.865413621999323368e-03
-3.725020292222325224e-09
7.203761488199234009e-02
-8.771426975727081299e-02
1.639545336365699768e-02
-2.377351559698581696e-02
-5.469004437327384949e-02
-3.125382959842681885e-02
4.231494292616844177e-02
-2.985749766230583191e-02
-1.683262549340724945e-02
-3.428730741143226624e-02
-1.474712509661912918e-03
-3.776199370622634888e-02
1.830247975885868073e-02
1.390589959919452667e-02
-4.839508794248104095e-03
-4.716942086815834045e-02
-2.675854600965976715e-02
-2.274325676262378693e-02
-1.104158442467451096e-02
-4.006752744317054749e-03
1.234288049545284593e-08
4.295589402318000793e-02
4.537046886980533600e-03
4.504007752984762192e-03
1.454656384885311127e-02
-9.094881825149059296e-03
4.790028091520071030e-03
-4.216068983078002930e-02
-9.984939359128475189e-03
-2.031145431101322174e-02
-1.070215459913015366e-02
-4.694722965359687805e-02
-2.646363340318202972e-02
-1.491261553019285202e-02
2.077382616698741913e-02
-2.691470086574554443e-02
-4.026799649000167847e-02
-3.522622585296630859e-02
-8.677078038454055786e-02
5.207935348153114319e-02
7.429631426930427551e-03
-1.023970358073711395e-02
-2.965275198221206665e-02
2.068324945867061615e-02
-3.782536834478378296e-02
1.980278268456459045e-02
-4.829810000956058502e-03
-1.445122063159942627e-02
4.021073691546916962e-03
-1.524372864514589310e-02
-3.657046705484390259e-02
7.096332032233476639e-03
-1.225427648243737622e-09
1.405234728008508682e-02
1.062529175754889366e-09
1.332608051598072052e-02
-4.124806076288223267e-02
-3.822797536849975586e-02
5.404066294431686401e-02
1.395790092647075653e-02
-2.935344725847244263e-02
-1.319477986544370651e-02
1.590740308165550232e-02
-7.112909566897585023e-11
1.055652182549238205e-02
-1.708097569644451141e-02
-1.522967219352722168e-02
1.466952264308929443e-02
1.861062087118625641e-02
-3.236783668398857117e-02
-1.216572802513837814e-02
-5.570730939507484436e-02
2.076810598373413086e-02
4.143602401018142700e-02
-2.338786423206329346e-02
-1.442249212414026260e-02
3.628564625978469849e-02
3.644982725381851196e-02
5.181817337870597839e-02
-9.647827595472335815e-02
-1.128770876675844193e-02
4.816402867436408997e-02
2.303854003548622131e-02
6.626120954751968384e-02
2.611090454962550211e-09
3.571715950965881348e-02
-1.016285922378301620e-02
2.399431075900793076e-03
-1.860918104648590088e-02
-9.968733415007591248e-03
3.297539951745420694e-04
3.479584679007530212e-02
-3.146870061755180359e-02
3.604126721620559692e-02
3.366478951647877693e-03
2.157145738601684570e-01
6.683876365423202515e-02
-1.703790039755403996e-03
-1.043840050697326660e-01
-6.077936664223670959e-02
5.069599300622940063e-02
4.940278828144073486e-02
1.025823503732681274e-01
7.135748863220214844e-02
6.376741454005241394e-03
3.237696364521980286e-02
3.847086429595947266e-02
-2.492074966430664062e-01
9.771940857172012329e-02
1.203073747456073761e-02
-7.279131561517715454e-02
3.193035349249839783e-02
-1.083820965141057968e-02
-1.875341683626174927e-02
3.220617771148681641e-02
1.113763824105262756e-01
-5.400369040842178947e-09
-7.015404105186462402e-02
3.424572403432080137e-09
-8.606538176536560059e-02
-4.329605493694543839e-03
1.476849708706140518e-02
2.886962518095970154e-02
1.075529605150222778e-01
7.768668234348297119e-02
4.669172689318656921e-02
9.040821343660354614e-03
5.754298149085457226e-10
-1.081889197230339050e-01
6.412878632545471191e-02
2.521393075585365295e-02
7.163308560848236084e-02
5.545607209205627441e-02
-1.925590820610523224e-02
-3.993230313062667847e-02
2.712019346654415131e-02
-5.992286372929811478e-03
5.406359210610389709e-03
4.465886950492858887e-02
7.830527611076831818e-03
-3.815581277012825012e-02
-9.956646710634231567e-03
-4.132185596972703934e-03
1.925776898860931396e-02
-1.499963831156492233e-02
7.750334683805704117e-03
3.874154994264245033e-03
-2.473554760217666626e-02
1.114845216143578455e-09
1.990195177495479584e-02
-3.555191308259963989e-02
1.157726999372243881e-02
-5.661378963850438595e-04
1.953615434467792511e-02
-1.576549373567104340e-02
-3.336160443723201752e-03
-3.105548210442066193e-02
-3.253910923376679420e-03
-1.676690392196178436e-02
1.570774358697235584e-03
1.318343076854944229e-02
1.586949452757835388e-03
5.157886538654565811e-03
-1.832836680114269257e-02
-2.077225409448146820e-02
6.079418119043111801e-03
-1.217151409946382046e-03
-1.254242472350597382e-02
1.917156204581260681e-02
1.521903090178966522e-02
5.474280100315809250e-03
4.036939144134521484e-02
-2.279845438897609711e-02
-5.051839631050825119e-03
-1.453348435461521149e-02
-1.018966827541589737e-02
-6.939765065908432007e-03
1.532886363565921783e-02
1.269640214741230011e-02
1.710593327879905701e-02
-2.378682584236457842e-09
-3.537367656826972961e-02
6.994357981682242098e-09
1.063830684870481491e-02
6.012178026139736176e-03
1.688810065388679504e-02
-1.470323652029037476e-02
-3.060572594404220581e-02
2.894661622121930122e-03
8.012466132640838623e-03
3.339418675750494003e-03
-2.859519843134705752e-10
4.687618091702461243e-02
-1.102603878825902939e-02
2.370651252567768097e-02
-5.902440752834081650e-04
1.759294606745243073e-02
-3.389744553714990616e-03
-1.058726757764816284e-02
-1.542143058031797409e-02
-3.719334304332733154e-02
1.640633679926395416e-02
1.651186496019363403e-02
2.126911887899041176e-03
-1.559292059391736984e-02
6.059000734239816666e-03
1.414333935827016830e-03
4.730451107025146484e-02
-1.961180381476879120e-02
1.969022862613201141e-02
1.576979272067546844e-02
3.262118250131607056e-02
2.065002169260310438e-09
1.111614983528852463e-02
-6.521937437355518341e-03
9.309605695307254791e-03
4.000053741037845612e-03
-3.407753538340330124e-03
4.543488845229148865e-03
4.927780944854021072e-03
-2.646964741870760918e-03
-2.041415683925151825e-02
-1.296246238052845001e-02
2.223981730639934540e-02
1.103923656046390533e-02
-1.279477123171091080e-02
7.204210269264876842e-04
-3.180099651217460632e-02
-1.198933180421590805e-02
1.938888803124427795e-03
-2.934284694492816925e-02
2.820662595331668854e-02
4.137625917792320251e-03
1.272847177460789680e-03
2.580143325030803680e-02
1.757320016622543335e-02
-2.786701777949929237e-03
1.310966629534959793e-02
-2.193091623485088348e-02
-3.516592457890510559e-02
-2.715748734772205353e-02
5.970961879938840866e-03
7.614305708557367325e-03
-1.473122835159301758e-02
-2.976012325461852015e-09
1.757141761481761932e-02
-1.033128360639068433e-09
-2.530358964577317238e-03
3.234493359923362732e-02
-3.510521352291107178e-02
-2.213580347597599030e-02
2.747635357081890106e-03
1.520691998302936554e-02
-1.058363635092973709e-02
1.198850013315677643e-02
-4.154743216133738315e-09
-2.843736205250024796e-03
2.222088165581226349e-02
-1.810242421925067902e-02
1.508901920169591904e-02
6.462435238063335419e-03
1.478898897767066956e-02
2.315626479685306549e-03
-5.501779913902282715e-02
-2.110568620264530182e-02
-1.335973106324672699e-02
-1.393855921924114227e-02
-1.455323211848735809e-02
9.380339644849300385e-03
1.532970834523439407e-02
7.109405007213354111e-03
-3.836290910840034485e-03
-1.502116676419973373e-02
-2.164107747375965118e-02
8.592927828431129456e-03
2.744001522660255432e-02
-4.727317648445250597e-09
-2.573192305862903595e-02
-6.533162202686071396e-03
8.438642136752605438e-03
-3.380785696208477020e-03
-8.039295673370361328e-03
4.592649638652801514e-03
1.002633478492498398e-02
-1.167560555040836334e-02
-2.888762019574642181e-02
-1.813519280403852463e-03
-1.984004862606525421e-03
7.977198809385299683e-03
2.082176879048347473e-02
-1.733225397765636444e-02
7.087936252355575562e-02
8.727330714464187622e-03
1.228056615218520164e-03
1.586588798090815544e-03
-2.045905403792858124e-02
-1.279730070382356644e-02
-4.916071891784667969e-03
8.804400451481342316e-03
-6.069390568882226944e-03
6.457883398979902267e-03
2.333082258701324463e-03
1.928274333477020264e-02
-1.911573810502886772e-03
-3.254350274801254272e-02
2.019168343394994736e-03
-2.877904567867517471e-03
-1.663052663207054138e-02
-1.101204460951521469e-09
2.971442602574825287e-02
-8.271503482149000774e-09
1.330091711133718491e-02
2.341491915285587311e-02
1.115266419947147369e-02
1.150938868522644043e-02
-1.270724646747112274e-02
3.769227117300033569e-02
-1.887365616858005524e-02
-5.466302856802940369e-03
4.697499722539077993e-09
-2.434858493506908417e-02
-2.366948639973998070e-03
-3.409043326973915100e-02
-2.433411031961441040e-02
-3.503644093871116638e-02
2.033756673336029053e-02
5.462061613798141479e-03
-8.233424276113510132e-03
-6.421123165637254715e-03
1.800339482724666595e-02
-1.656803302466869354e-02
2.475819922983646393e-02
-2.266529202461242676e-02
4.652997013181447983e-03
-1.030680444091558456e-02
6.190060637891292572e-03
1.124974433332681656e-02
1.350128185003995895e-02
1.094261999242007732e-03
1.107565686106681824e-02
5.742324837854084763e-09
-8.943574503064155579e-03
1.138048060238361359e-02
2.852631732821464539e-02
5.525160208344459534e-02
2.202303893864154816e-02
2.926508709788322449e-02
-2.274285443127155304e-02
1.751130633056163788e-02
-2.041153982281684875e-02
-1.888227090239524841e-02
-3.889914229512214661e-02
-8.391010574996471405e-03
2.727059880271553993e-03
1.070146914571523666e-02
5.214519798755645752e-02
1.167571544647216797e-02
2.828267402946949005e-02
1.408593263477087021e-02
-1.580467075109481812e-02
-1.175230462104082108e-02
-2.956311218440532684e-02
-1.976503804326057434e-02
8.749135769903659821e-03
4.916921607218682766e-04
-1.258598174899816513e-02
-4.118512943387031555e-02
2.480098046362400055e-02
2.885859273374080658e-02
1.296744123101234436e-02
-8.340778760612010956e-03
-4.867966845631599426e-02
-5.415261838948026707e-08
2.028848044574260712e-02
1.327493337477392288e-09
-6.019612401723861694e-02
3.508694469928741455e-02
-5.308196414262056351e-04
1.107900752685964108e-03
-2.921217493712902069e-02
-2.288391813635826111e-02
3.546642884612083435e-02
1.074290368705987930e-02
-4.798048625076489770e-10
-1.558828284032642841e-03
2.121124602854251862e-02
2.106465958058834076e-02
-2.427322231233119965e-02
2.458267472684383392e-02
1.247242442332208157e-03
2.785362489521503448e-02
2.172694914042949677e-02
-2.252204902470111847e-02
-1.033976767212152481e-02
3.787900134921073914e-02
8.593927137553691864e-03
-1.215490233153104782e-02
3.143132105469703674e-02
-3.711001947522163391e-02
2.125524356961250305e-02
2.079102676361799240e-03
-4.317358136177062988e-02
-1.842647232115268707e-02
-1.807091943919658661e-02
5.534058100664651647e-09
-4.337266087532043457e-02
1.729002804495394230e-03
-2.041510306298732758e-02
1.393698807805776596e-02
-1.244794484227895737e-02
1.571664772927761078e-02
-1.576212421059608459e-02
-6.555710453540086746e-03
-3.942369658034294844e-04
-5.494929850101470947e-03
8.845844306051731110e-03
-1.426570955663919449e-02
2.636344172060489655e-02
5.017486587166786194e-02
1.997371204197406769e-02
-5.077465623617172241e-02
-1.249661669135093689e-02
-1.550893299281597137e-02
2.410229109227657318e-02
-5.698311142623424530e-03
1.045607961714267731e-02
1.985332183539867401e-02
-1.654113526456058025e-03
-1.137757091782987118e-03
9.105780161917209625e-03
1.372663397341966629e-02
-3.731880104169249535e-03
-1.603396842256188393e-03
1.475560571998357773e-02
9.800923056900501251e-03
-4.907511547207832336e-02
4.421241683871812711e-08
7.175350096076726913e-03
-4.317300406064816798e-10
-2.096550911664962769e-02
-2.115992596372961998e-03
2.323332056403160095e-02
1.948883570730686188e-02
-3.430381044745445251e-02
-3.745931386947631836e-02
-3.774155676364898682e-02
-2.348387427628040314e-02
-1.099596858011864242e-09
-2.247243188321590424e-02
7.908259518444538116e-03
1.095413416624069214e-02
3.926878329366445541e-03
3.872036002576351166e-03
-8.527461439371109009e-03
-2.987601794302463531e-03
-3.564743697643280029e-02
-2.625021897256374359e-02
1.072228606790304184e-02
6.907907314598560333e-03
-1.623032987117767334e-02
-3.407523036003112793e-02
2.436167560517787933e-02
1.546884793788194656e-02
2.050382085144519806e-02
1.350879762321710587e-02
2.632535621523857117e-02
1.089216303080320358e-02
-4.615799337625503540e-02
4.670670072925986460e-09
-2.694031782448291779e-02
8.743765950202941895e-02
4.076135344803333282e-03
-2.326831407845020294e-02
-4.349908977746963501e-02
-3.074536100029945374e-03
-1.377124991267919540e-02
-3.615562245249748230e-02
-2.591493353247642517e-02
1.742858439683914185e-02
4.746628925204277039e-02
-3.357095643877983093e-03
2.298977971076965332e-02
-1.856164541095495224e-03
-1.938699558377265930e-02
-5.903233587741851807e-02
-1.833890378475189209e-02
6.504529621452093124e-03
1.913751289248466492e-02
1.564574800431728363e-02
-2.278352715075016022e-02
1.454623881727457047e-02
1.304492913186550140e-02
-1.379861868917942047e-02
2.127785235643386841e-02
4.351954534649848938e-02
3.704835474491119385e-02
3.809892013669013977e-02
-3.070176951587200165e-02
2.458399906754493713e-02
6.673819571733474731e-02
2.108366992104038218e-08
-5.100927082821726799e-04
-4.656234064981390475e-09
2.510200068354606628e-02
1.195249520242214203e-02
1.922789588570594788e-02
-2.768577449023723602e-02
-5.707289278507232666e-02
7.059226185083389282e-02
-5.363006144762039185e-02
-6.209527328610420227e-02
3.418430538637551308e-10
-6.401436030864715576e-02
2.836457639932632446e-02
-1.834832876920700073e-02
-1.613527908921241760e-02
-6.179023161530494690e-02
-1.101108849979937077e-03
-3.213948756456375122e-02
4.523278400301933289e-02
-6.601887196302413940e-02
2.923603355884552002e-02
-5.691855214536190033e-03
-7.223236374557018280e-03
-3.099403344094753265e-02
-3.184203803539276123e-02
-1.671999320387840271e-02
-1.739894039928913116e-02
3.423161571845412254e-03
-1.812689821235835552e-03
5.299091711640357971e-02
3.168107941746711731e-02
-1.440585206680111696e-09
6.860615685582160950e-03
7.164832949638366699e-02
1.740689575672149658e-02
2.894691191613674164e-02
5.675948038697242737e-02
1.988901197910308838e-02
-6.675951927900314331e-02
-1.207841560244560242e-02
-1.104659885168075562e-01
-4.381748661398887634e-02
-1.930599473416805267e-02
-9.991961531341075897e-03
-1.766442321240901947e-02
4.581500589847564697e-02
5.278717726469039917e-03
-1.785867288708686829e-02
-1.803232543170452118e-02
4.987032338976860046e-02
-4.363575950264930725e-02
-4.027167335152626038e-02
-7.258206140249967575e-03
5.345804383978247643e-04
-1.548458635807037354e-02
-1.054738927632570267e-02
1.342113479040563107e-03
3.695717826485633850e-02
3.840577974915504456e-02
-5.372738000005483627e-03
2.407144010066986084e-02
2.861629612743854523e-02
3.651845082640647888e-02
-4.525803021238061774e-08
6.685869768261909485e-03
5.969747807199610179e-09
-3.127899020910263062e-02
-3.741946443915367126e-02
5.901748314499855042e-02
4.599577933549880981e-02
6.573483347892761230e-02
-3.590381890535354614e-02
-4.550919681787490845e-02
-1.821399293839931488e-02
-3.007860627235459106e-09
-1.169350184500217438e-02
2.108227275311946869e-02
1.319237947463989258e-01
-6.520036607980728149e-03
1.655750535428524017e-02
-1.845802739262580872e-02
3.599183261394500732e-02
7.676061242818832397e-03
7.582502812147140503e-02
-5.478936061263084412e-02
9.163707494735717773e-02
-1.163449976593255997e-02
4.517760127782821655e-03
6.500642746686935425e-03
3.537638857960700989e-02
-5.072320345789194107e-03
1.164155453443527222e-02
-1.557534560561180115e-02
-2.692338824272155762e-02
2.352748066186904907e-02
8.266583861882281781e-09
-1.898403838276863098e-02
7.578898966312408447e-02
-2.708110958337783813e-02
-1.358558088541030884e-01
6.971690803766250610e-02
-1.576267182826995850e-02
6.812766939401626587e-02
2.797629125416278839e-02
1.429033130407333374e-01
5.936539918184280396e-02
7.475144416093826294e-02
2.025470696389675140e-02
7.565677911043167114e-02
-9.059196710586547852e-02
8.820286951959133148e-03
3.537556529045104980e-02
1.522532384842634201e-02
2.068524248898029327e-02
2.277600392699241638e-02
-2.179503068327903748e-02
3.568109497427940369e-02
7.805823348462581635e-03
-1.635060831904411316e-02
4.924121499061584473e-02
7.510072737932205200e-02
-2.648605592548847198e-02
-9.733822941780090332e-02
-7.521914690732955933e-02
5.528535321354866028e-02
3.223000559955835342e-03
7.822952419519424438e-02
4.353545079993637046e-08
-3.554879873991012573e-02
-5.471322062078343151e-09
9.222318232059478760e-02
-7.625198364257812500e-02
3.218483179807662964e-02
-7.608834654092788696e-02
-7.552609592676162720e-02
7.404426485300064087e-02
3.600052092224359512e-03
2.473011426627635956e-02
1.698018059492767406e-09
1.750813275575637817e-01
-3.808119893074035645e-02
-1.366516351699829102e-01
3.609460592269897461e-02
2.491642534732818604e-02
-6.380105018615722656e-02
-1.348740756511688232e-01
2.778157591819763184e-02
1.723390817642211914e-02
3.367396816611289978e-02
-2.977235801517963409e-02
8.377113938331604004e-02
7.703419029712677002e-02
-1.410560458898544312e-01
3.157655149698257446e-02
6.664828862994909286e-03
-2.454480901360511780e-02
3.328305855393409729e-02
-5.976815521717071533e-02
-1.240902207791805267e-02
6.076410041799817918e-09
-7.687030825763940811e-03
-9.097646921873092651e-02
-8.052314817905426025e-02
-1.313193887472152710e-01
-1.002665460109710693e-01
3.485416993498802185e-02
1.542008295655250549e-02
-8.573349565267562866e-02
-1.649026274681091309e-01
-2.229704894125461578e-02
-5.226866900920867920e-02
-1.935611478984355927e-02
-5.583664029836654663e-02
1.932442784309387207e-01
4.977968707680702209e-02
-4.687972739338874817e-02
2.097372338175773621e-02
3.997597098350524902e-02
1.415825821459293365e-02
7.375892251729965210e-02
5.078485235571861267e-02
-1.338245463557541370e-03
-3.351897746324539185e-02
-1.584466360509395599e-02
-2.101813443005084991e-02
-1.106017082929611206e-01
-4.022071883082389832e-02
2.988394722342491150e-02
-5.110352486371994019e-02
-5.038614943623542786e-02
1.613865047693252563e-02
4.966780053905495151e-08
2.776394225656986237e-02
-9.179496274214216101e-09
-9.382607787847518921e-02
4.331720247864723206e-02
4.565890133380889893e-02
5.408464744687080383e-02
1.967719942331314087e-01
1.334912143647670746e-02
-3.524518385529518127e-02
-1.193479355424642563e-02
8.516097826927193637e-10
-7.872480154037475586e-02
1.568204164505004883e-02
6.735774129629135132e-02
4.856944456696510315e-02
-4.539900273084640503e-02
2.059751935303211212e-02
1.401259750127792358e-01
-7.537261117249727249e-03
-7.178910076618194580e-02
-8.318103849887847900e-03
-2.509386837482452393e-02
4.373083263635635376e-02
-4.233276471495628357e-02
-5.426355451345443726e-02
-8.768617175519466400e-03
4.161116853356361389e-02
-1.147067081183195114e-02
2.096554450690746307e-02
4.375856742262840271e-02
1.039975322782993317e-02
-1.465445653714425589e-09
-5.572251509875059128e-03
1.838173484429717064e-04
3.372314944863319397e-02
9.906535595655441284e-02
-8.526551537215709686e-04
2.871862053871154785e-02
-4.810998216271400452e-02
-4.551846068352460861e-03
-3.879354568198323250e-03
-4.820833355188369751e-02
6.653504911810159683e-03
1.412427797913551331e-02
-3.301583975553512573e-02
7.194476574659347534e-02
7.324771955609321594e-03
-1.332692522555589676e-02
-3.072493523359298706e-02
3.382312506437301636e-02
8.904136484488844872e-04
2.618050202727317810e-02
1.030551735311746597e-02
-9.127065539360046387e-03
1.296489778906106949e-02
1.206628512591123581e-02
1.914576999843120575e-02
2.447354048490524292e-02
5.058892443776130676e-02
3.755619749426841736e-02
7.857087999582290649e-03
4.252621531486511230e-02
-8.469892293214797974e-02
-7.076728536503651412e-08
2.495259232819080353e-02
1.683439276867204626e-09
-1.996261253952980042e-02
3.082082374021410942e-03
1.674162223935127258e-02
-2.396843768656253815e-02
3.398652002215385437e-02
-1.902613230049610138e-02
2.932464703917503357e-02
-2.014717645943164825e-02
-1.462008514252488567e-09
-5.527573172003030777e-03
-1.124274637550115585e-02
5.905888509005308151e-03
2.823300287127494812e-02
3.660788759589195251e-02
-2.448535710573196411e-02
5.795209482312202454e-02
4.977472126483917236e-02
-3.024247847497463226e-02
-4.401309415698051453e-02
-3.596700355410575867e-02
-1.861337572336196899e-03
1.632507331669330597e-02
6.620732694864273071e-02
-3.383005736395716667e-03
-6.637569516897201538e-03
1.206520129926502705e-03
-5.093703977763652802e-03
9.124404750764369965e-03
-2.225601812824606895e-03
6.411587927246387153e-11
-3.871563822031021118e-02
-2.185587398707866669e-02
3.030548617243766785e-02
6.013041362166404724e-03
2.643237076699733734e-02
1.281313784420490265e-02
-1.273827161639928818e-02
3.278352692723274231e-02
2.982582896947860718e-03
-1.515564601868391037e-02
8.123395964503288269e-03
1.489224284887313843e-02
-3.377124294638633728e-02
2.747827582061290741e-02
2.890558214858174324e-03
-2.332197502255439758e-03
-1.143550127744674683e-02
-2.123501524329185486e-02
-4.875205457210540771e-03
-1.205989904701709747e-02
-4.962535575032234192e-02
1.194926630705595016e-02
1.683648489415645599e-02
-1.589013449847698212e-02
-1.274746749550104141e-02
8.212173730134963989e-02
3.888420388102531433e-02
1.138965133577585220e-02
3.258131816983222961e-02
4.179429262876510620e-03
-7.205522060394287109e-02
-1.438603725034681702e-08
-6.352739408612251282e-03
-5.041608908129546762e-09
5.664037540555000305e-03
6.028187461197376251e-03
6.289281882345676422e-04
4.011778160929679871e-02
-6.612245738506317139e-02
2.232900448143482208e-02
-2.123917080461978912e-02
-3.851894056424498558e-03
1.026029039508102869e-09
-2.336824871599674225e-02
-5.400931090116500854e-02
1.697793044149875641e-02
-3.292113170027732849e-02
2.222931385040283203e-02
-1.059365831315517426e-02
-1.917643845081329346e-02
5.247280932962894440e-03
-6.616951525211334229e-02
-3.408101946115493774e-02
-7.072258740663528442e-02
-2.425218373537063599e-02
2.246924489736557007e-02
1.941774785518646240e-02
3.322339616715908051e-03
3.043757751584053040e-02
-1.331135444343090057e-02
3.076210618019104004e-02
1.918222755193710327e-02
-7.309716194868087769e-03
-8.380264815421867297e-10
-2.239304222166538239e-02
-6.493579596281051636e-02
-7.370438892394304276e-03
7.575228810310363770e-02
6.424118299037218094e-03
2.366120554506778717e-02
-4.305273666977882385e-02
8.981416933238506317e-03
-6.512383371591567993e-02
1.330392155796289444e-02
1.886122487485408783e-02
1.680444367229938507e-02
-5.762419849634170532e-02
-2.557285688817501068e-02
4.911116324365139008e-03
1.098622474819421768e-02
-3.260631114244461060e-03
5.316799879074096680e-02
-4.780817031860351562e-02
1.707690022885799408e-02
-1.415786612778902054e-02
-7.414418738335371017e-03
-2.691262401640415192e-02
-3.052142215892672539e-03
-6.228842586278915405e-02
4.036321304738521576e-03
3.821657598018646240e-02
3.649550303816795349e-02
-9.705752134323120117e-03
-9.705976583063602448e-03
2.770124189555644989e-02
-1.030849272609657419e-08
-2.777349576354026794e-02
6.471598812396450739e-09
2.228178456425666809e-02
1.854054629802703857e-02
3.582213446497917175e-02
1.019717454910278320e-01
1.063172053545713425e-02
-6.256051361560821533e-02
-1.692391466349363327e-03
4.599227756261825562e-02
1.207939217401365894e-11
-1.653095334768295288e-02
1.000615488737821579e-02
-3.087131492793560028e-02
-6.107043102383613586e-02
-2.192384004592895508e-02
4.164205864071846008e-02
4.791377112269401550e-02
-9.642925113439559937e-03
-2.724304609000682831e-02
-2.054083906114101410e-02
3.540900722146034241e-02
5.188249517232179642e-03
5.034063360653817654e-04
4.462707042694091797e-02
3.904972597956657410e-02
-6.841601803898811340e-03
-6.294044200330972672e-03
-5.553600378334522247e-03
2.453880617395043373e-03
-3.976053092628717422e-03
4.421904176155067034e-09
3.306465968489646912e-02
1.761251874268054962e-02
3.604689612984657288e-03
-2.458584867417812347e-02
8.571666665375232697e-03
-8.800395764410495758e-03
6.397431716322898865e-03
-2.187838591635227203e-02
1.583029516041278839e-02
-1.364306733012199402e-02
-2.299595437943935394e-02
-1.728611811995506287e-02
-1.839864440262317657e-02
4.613741766661405563e-03
3.180265054106712341e-02
-2.091794274747371674e-03
1.595407910645008087e-02
3.211850998923182487e-04
4.053411539644002914e-03
1.002094708383083344e-02
7.172768004238605499e-03
-8.051208220422267914e-03
7.401381153613328934e-04
-1.402184367179870605e-02
5.939939990639686584e-02
2.763049118220806122e-02
1.023245044052600861e-02
-5.146792531013488770e-02
-9.612691588699817657e-03
1.121041830629110336e-02
-1.340901572257280350e-02
6.507374195052761934e-08
4.303260892629623413e-02
-6.410573738513392072e-10
-3.785385750234127045e-03
-1.098314858973026276e-02
-3.475777432322502136e-02
4.552881792187690735e-02
1.862793043255805969e-02
1.803853921592235565e-02
-4.803686868399381638e-03
-1.058789249509572983e-02
-3.636521361816136277e-10
-1.738795079290866852e-02
-1.490135793574154377e-03
-5.156149156391620636e-03
4.736725613474845886e-02
1.143326610326766968e-02
-1.823294349014759064e-02
-6.976852309890091419e-04
-1.072523742914199829e-02
-2.670523896813392639e-02
-4.425575025379657745e-03
-2.062804251909255981e-02
-6.304661277681589127e-03
-1.482278946787118912e-02
-4.104354884475469589e-03
6.252681463956832886e-02
-2.724379487335681915e-02
2.957077929750084877e-03
7.200325373560190201e-03
-1.093543693423271179e-02
2.398901386186480522e-03
-4.869631808901431214e-09
-7.914569228887557983e-02
-2.221025992184877396e-03
6.666692439466714859e-03
-8.279992267489433289e-03
-1.675129123032093048e-02
-2.013634890317916870e-02
-1.412197016179561615e-02
-1.708414219319820404e-02
-2.187074162065982819e-02
-3.196575120091438293e-02
8.316680788993835449e-03
2.749405801296234131e-02
-2.446191199123859406e-02
-6.572540104389190674e-02
4.239581897854804993e-02
5.039820820093154907e-02
3.059439593926072121e-03
7.559769600629806519e-02
-4.193081520497798920e-03
1.086111296899616718e-03
-2.769436221569776535e-03
-9.056789800524711609e-03
-3.448846936225891113e-02
6.222686497494578362e-04
2.911910042166709900e-02
-2.147386223077774048e-02
-2.584352716803550720e-02
-4.844307899475097656e-02
-1.836546882987022400e-02
7.357531692832708359e-03
8.588219061493873596e-03
3.308727158923829847e-08
6.990417838096618652e-02
3.676680293551726209e-09
4.337710142135620117e-02
2.548386342823505402e-02
-3.536220267415046692e-02
1.369023043662309647e-02
-9.589554741978645325e-03
2.473180182278156281e-02
3.894608467817306519e-03
1.862005516886711121e-02
-1.065330668126307501e-08
7.354234904050827026e-02
-3.557737218216061592e-03
3.747466206550598145e-02
2.788987383246421814e-02
1.495268475264310837e-02
8.626491762697696686e-03
-3.049262240529060364e-02
1.036168821156024933e-02
8.126837201416492462e-03
1.396190002560615540e-02
2.277053706347942352e-02
1.942031318321824074e-03
1.810264214873313904e-02
3.418004885315895081e-02
2.417439222335815430e-02
-1.630689203739166260e-02
-3.048163605853915215e-03
-1.591909117996692657e-02
-1.094834785908460617e-02
-1.129843108355998993e-02
1.721822018296848000e-09
-1.140680070966482162e-02
2.240958251059055328e-02
-8.821294642984867096e-03
-2.607187721878290176e-03
3.342572972178459167e-02
3.317947732284665108e-03
-5.804759450256824493e-03
2.923928014934062958e-02
2.454876154661178589e-02
-3.537514712661504745e-03
-6.089431233704090118e-03
-2.249895595014095306e-03
3.345449455082416534e-03
-2.313551260158419609e-03
3.354106843471527100e-02
4.172058030962944031e-02
2.438658475875854492e-02
2.396281994879245758e-02
6.217975169420242310e-02
8.232348598539829254e-03
-2.512127719819545746e-02
-1.603100821375846863e-02
-8.205514401197433472e-03
1.814044895581901073e-03
2.601847238838672638e-02
-1.799401827156543732e-02
-1.504677627235651016e-02
-2.625657990574836731e-02
8.414218202233314514e-03
-6.592623889446258545e-03
1.942264661192893982e-02
8.077267210637728567e-08
3.569719195365905762e-02
9.030663328246646415e-09
-8.821656927466392517e-03
5.887391511350870132e-03
-4.137001466006040573e-03
2.829980663955211639e-02
1.526878681033849716e-02
1.433409051969647408e-03
-2.955751493573188782e-02
5.155033245682716370e-02
-2.782541308476993436e-09
-8.565717376768589020e-03
-6.366832647472620010e-03
3.010649420320987701e-02
-2.386655844748020172e-02
1.659037778154015541e-03
-1.949458965100347996e-04
8.585846051573753357e-03
-7.601815462112426758e-02
-2.830888703465461731e-02
-1.753554865717887878e-02
4.859390482306480408e-02
2.896073833107948303e-02
2.899104915559291840e-02
1.172263454645872116e-02
2.220206707715988159e-02
5.997996777296066284e-02
-8.340965956449508667e-03
-2.538536675274372101e-02
2.554635517299175262e-02
6.199956685304641724e-02
7.745868835229430260e-09
3.060081042349338531e-02
2.973474562168121338e-02
2.983184158802032471e-02
1.842399314045906067e-02
9.595116600394248962e-03
-1.155810803174972534e-02
4.387197550386190414e-03
1.443097647279500961e-02
-4.616594873368740082e-03
4.418414086103439331e-02
2.743431925773620605e-02
9.124122880166396499e-05
-2.839901670813560486e-02
-8.856299519538879395e-02
4.655751865357160568e-03
2.907435223460197449e-02
5.547040607780218124e-03
-1.200605090707540512e-02
-1.560013042762875557e-03
4.353390634059906006e-02
4.667544364929199219e-02
2.251927927136421204e-02
4.228319227695465088e-02
-2.189558744430541992e-02
4.134277254343032837e-02
-3.800168633460998535e-03
2.055690390989184380e-03
-6.952802091836929321e-02
2.392674237489700317e-02
-4.501805640757083893e-03
1.849280856549739838e-02
6.678282460370610352e-08
-2.330326661467552185e-02
1.944459038227819292e-09
-5.050095915794372559e-02
5.488170310854911804e-03
-1.327655762434005737e-01
-1.938395947217941284e-02
5.975412670522928238e-03
1.879529096186161041e-02
1.304863691329956055e-01
1.732581108808517456e-02
-3.877564935805821733e-09
5.634640157222747803e-02
-9.644667617976665497e-03
-2.337110787630081177e-02
3.040516562759876251e-02
-6.105525419116020203e-02
5.712190642952919006e-03
-1.543016359210014343e-02
3.093275474384427071e-03
-1.026256307959556580e-01
6.537393201142549515e-04
-1.223202869296073914e-01
-4.718293622136116028e-02
-3.436037525534629822e-02
-3.338771685957908630e-02
1.566318050026893616e-02
-3.135891258716583252e-02
-2.827648632228374481e-02
5.921219289302825928e-02
-2.913904376327991486e-02
-2.261323109269142151e-02
2.386296715783942091e-09
-3.085470758378505707e-02
-5.593514069914817810e-02
-2.000512555241584778e-02
-6.588940974324941635e-03
-9.385721385478973389e-02
1.791470497846603394e-02
3.748873993754386902e-02
-5.910867825150489807e-02
-2.504934556782245636e-03
-1.168318372219800949e-02
1.434119511395692825e-02
5.230326671153306961e-03
1.038302760571241379e-02
3.673552349209785461e-02
2.316948212683200836e-02
-9.496064856648445129e-03
-7.095273584127426147e-02
6.413397938013076782e-02
5.057400558143854141e-03
-1.071327924728393555e-02
5.767767783254384995e-03
5.534875020384788513e-02
-7.832897454500198364e-02
-2.064119279384613037e-02
-5.476770550012588501e-02
-1.395461801439523697e-02
-7.536376267671585083e-02
-3.730637580156326294e-02
7.047704420983791351e-03
-6.505098193883895874e-02
-2.749960497021675110e-02
3.485850275097845952e-09
2.106917090713977814e-02
4.959990640429623454e-09
6.421098113059997559e-02
4.805590584874153137e-02
-2.127837389707565308e-03
4.467723483685404062e-04
2.564348466694355011e-02
-5.081103369593620300e-02
-7.820303738117218018e-02
-1.890911720693111420e-02
-1.011801664674294443e-08
-6.128946784883737564e-03
4.568755626678466797e-02
1.074515283107757568e-02
-2.354287356138229370e-02
5.910269170999526978e-02
6.505555659532546997e-02
3.810031712055206299e-02
-5.420148372650146484e-02
-2.426507510244846344e-02
-5.747509654611349106e-03
4.007250815629959106e-02
2.831364236772060394e-02
2.469376847147941589e-02
-4.644003231078386307e-03
1.182530634105205536e-02
2.044712565839290619e-02
9.986280463635921478e-03
-3.057914972305297852e-02
2.539792098104953766e-02
3.799600899219512939e-02
3.141048754429220935e-09
-2.166665717959403992e-02
5.590668693184852600e-02
4.282677173614501953e-02
4.869528114795684814e-02
4.405205324292182922e-02
6.576869171112775803e-03
-4.780785366892814636e-02
6.327251344919204712e-02
4.148852825164794922e-02
1.675171032547950745e-02
7.541145663708448410e-03
3.552592545747756958e-02
3.317620232701301575e-02
-9.686025977134704590e-02
2.438984997570514679e-02
6.798546761274337769e-02
-1.453329343348741531e-03
2.370899729430675507e-02
-6.222749594599008560e-03
1.838783919811248779e-02
-9.370640851557254791e-03
-2.535553462803363800e-02
1.841493137180805206e-02
-6.661418825387954712e-03
1.150112785398960114e-02
1.466360117774456739e-04
-1.104244962334632874e-02
-5.644580721855163574e-02
3.565941005945205688e-02
-6.032422184944152832e-03
5.567357689142227173e-02
4.402625108923530206e-08
-9.751449339091777802e-03
5.604451125407194922e-09
-2.767863683402538300e-02
-1.032495964318513870e-02
-1.061853766441345215e-01
5.486840847879648209e-03
2.727007959038019180e-03
-3.330586245283484459e-03
1.020307168364524841e-01
2.881805412471294403e-02
-2.822014621983726101e-09
2.603932097554206848e-02
-3.954612463712692261e-02
-1.020304113626480103e-02
3.333336114883422852e-02
-7.889056205749511719e-02
-3.742977511137723923e-03
2.943134494125843048e-02
-9.529090486466884613e-03
-8.494522422552108765e-03
8.235627785325050354e-03
3.751601651310920715e-02
3.021957352757453918e-03
4.661517962813377380e-02
1.971383765339851379e-02
2.532781660556793213e-02
-2.084059873595833778e-03
-1.240129582583904266e-02
-2.920887432992458344e-02
2.590636350214481354e-02
2.603495959192514420e-03
1.601386023786233181e-09
7.349495775997638702e-03
3.424353199079632759e-03
-2.291550487279891968e-02
1.857124455273151398e-02
2.091168798506259918e-02
-1.404993887990713120e-02
-2.593111619353294373e-02
-3.374460851773619652e-03
8.203712292015552521e-03
2.713122405111789703e-02
3.112869570031762123e-03
-1.361011620610952377e-02
-1.049300283193588257e-02
-1.022050157189369202e-02
4.195642843842506409e-02
2.334341406822204590e-02
1.580105745233595371e-03
-4.845840856432914734e-03
4.495809972286224365e-02
1.191299874335527420e-02
8.562215603888034821e-03
1.003165449947118759e-02
3.066441044211387634e-03
-1.946521736681461334e-02
-2.232355996966362000e-02
8.728606626391410828e-03
-1.635644212365150452e-02
-6.229448691010475159e-02
6.869134493172168732e-03
2.026674896478652954e-02
3.344662487506866455e-03
6.467192292802792508e-08
-1.265519578009843826e-02
4.258238650578505258e-09
-2.530951052904129028e-02
7.970308884978294373e-03
-1.536566764116287231e-02
3.175777569413185120e-02
1.015522750094532967e-03
8.095853962004184723e-03
1.440588384866714478e-03
6.989301741123199463e-02
-5.132866576218475529e-09
-2.244627289474010468e-02
-2.420582808554172516e-02
2.092576585710048676e-02
-2.224831841886043549e-02
4.419239237904548645e-03
-9.788994677364826202e-03
1.383024209644645452e-05
-2.468467690050601959e-02
-2.868425473570823669e-02
1.794709078967571259e-02
-2.250310033559799194e-02
-3.069579601287841797e-02
-1.527623459696769714e-02
-3.439310239627957344e-04
6.084406003355979919e-02
-3.614356368780136108e-02
-2.657716162502765656e-03
4.211348667740821838e-02
-1.450777146965265274e-02
-2.272274903953075409e-02
5.419154458508046446e-09
-2.064578467980027199e-03
1.422969391569495201e-03
-1.257911417633295059e-02
