1.699177664704620838e-03
5.038214847445487976e-03
-5.358070135116577148e-03
1.244112104177474976e-02
-8.808145672082901001e-02
4.753196844831109047e-04
-2.465521357953548431e-02
-4.175608977675437927e-02
3.469873685389757156e-03
-2.347919158637523651e-02
6.992692593485116959e-03
-1.078226491808891296e-01
5.350995436310768127e-02
5.705507472157478333e-03
-8.974400162696838379e-02
5.967886373400688171e-02
5.155469290912151337e-03
-4.047736898064613342e-02
-6.034927070140838623e-02
2.965350402519106865e-03
-4.922025650739669800e-02
-2.969182282686233521e-02
-6.309018284082412720e-02
-5.904347822070121765e-02
-5.820080637931823730e-02
-5.761780589818954468e-02
1.997641054913401604e-03
7.950729876756668091e-02
3.980521578341722488e-03
6.496294401586055756e-03
-1.540996786206960678e-02
1.955557614564895630e-03
4.484806209802627563e-03
2.831449965015053749e-03
-6.376564037054777145e-03
4.198797512799501419e-03
9.690525941550731659e-03
8.418973535299301147e-03
2.274721860885620117e-03
3.166224574670195580e-03
-1.883024908602237701e-02
1.636980660259723663e-02
-1.280246526002883911e-01
1.266617607325315475e-02
1.674707513302564621e-03
1.738076284527778625e-02
3.816408105194568634e-03
-7.134174555540084839e-02
7.317770505324006081e-04
7.701120525598526001e-02
8.140039863064885139e-04
5.171865224838256836e-02
1.327966898679733276e-01
-9.583801776170730591e-02
4.524074611254036427e-04
3.505673725157976151e-03
2.711428795009851456e-03
-5.765871610492467880e-03
4.549902863800525665e-03
7.196797057986259460e-03
1.982289133593440056e-03
5.034537985920906067e-03
-4.803351766895502806e-04
3.340389346703886986e-03
-3.381432220339775085e-02
3.595741931349039078e-03
1.587463170289993286e-02
1.962682930752635002e-03
-9.276695549488067627e-02
4.383513703942298889e-03
-4.222302511334419250e-02
6.949468702077865601e-02
-1.059298496693372726e-02
2.423327649012207985e-03
7.582375779747962952e-03
-6.629298906773328781e-03
1.454605758190155029e-01
-5.765380337834358215e-02
1.564736827276647091e-03
-5.167576298117637634e-02
3.427711082622408867e-03
1.566814258694648743e-03
9.001251310110092163e-03
5.790616199374198914e-02
5.880504474043846130e-02
9.846732020378112793e-02
-5.127057060599327087e-02
6.308503448963165283e-02
6.898174062371253967e-03
1.253615170717239380e-01
2.687608357518911362e-03
-7.809597998857498169e-02
3.355510067194700241e-03
-1.688895560801029205e-02
-1.070895642042160034e-01
-5.290040746331214905e-02
6.556751206517219543e-03
-1.662175357341766357e-01
-3.167584072798490524e-03
3.885709494352340698e-02
-8.969452232122421265e-03
7.236342132091522217e-02
-1.216944158077239990e-01
3.006914164870977402e-03
-4.961838573217391968e-02
-6.490727514028549194e-02
-2.507024444639682770e-02
1.595127135515213013e-01
9.695835760794579983e-04
6.219982635229825974e-03
6.825149175710976124e-04
2.549986122176051140e-03
3.004847094416618347e-03
8.562756702303886414e-03
-1.287548542022705078e-01
-3.108362853527069092e-02
8.163542486727237701e-03
7.613501697778701782e-02
-5.571816489100456238e-02
8.284075185656547546e-03
-3.691808134317398071e-02
-1.548637598752975464e-01
-4.246122203767299652e-03
2.086048945784568787e-02
9.804272558540105820e-04
7.900338619947433472e-03
-1.324613392353057861e-01
-6.753235589712858200e-03
1.754099428653717041e-01
-2.115201205015182495e-02
-1.287227571010589600e-01
-4.911668971180915833e-02
-2.826865017414093018e-02
-6.921324878931045532e-02
1.398818939924240112e-01
-1.083923596888780594e-02
-2.148020267486572266e-02
9.054740518331527710e-02
8.303955197334289551e-03
1.152378916740417480e-01
9.425790049135684967e-03
-9.179465268971398473e-05
-5.417509749531745911e-02
-6.912554055452346802e-02
-3.662787750363349915e-02
8.450423367321491241e-03
7.658617105334997177e-03
-1.542567741125822067e-02
-7.097912579774856567e-02
4.207763075828552246e-02
5.166473798453807831e-03
-6.960763782262802124e-02
-7.635819911956787109e-02
9.220095723867416382e-02
4.119256511330604553e-03
-1.395951360464096069e-01
2.376469084993004799e-03
-1.090363189578056335e-01
3.295388305559754372e-03
4.376780241727828979e-03
2.249568933621048927e-03
-4.096898436546325684e-02
7.042188080959022045e-04
6.429469794966280460e-04
-5.030836910009384155e-02
2.566625829786062241e-03
-1.579425036907196045e-01
6.364304106682538986e-03
-5.225512757897377014e-02
-9.340945631265640259e-02
4.224627092480659485e-02
6.904093082994222641e-03
-1.208316385746002197e-01
-2.403787896037101746e-02
-1.782407797873020172e-02
2.594095468521118164e-02
-6.615088880062103271e-02
5.409013479948043823e-03
-7.690317183732986450e-02
-7.196054607629776001e-02
-8.471566438674926758e-02
-5.029410589486360550e-03
-6.661438941955566406e-02
-1.055256426334381104e-01
2.601849846541881561e-03
1.969046890735626221e-01
3.335862420499324799e-03
6.151069700717926025e-02
1.099353469908237457e-02
4.418861120939254761e-03
6.968063767999410629e-03
4.867748823016881943e-03
4.060398321598768234e-03
-2.572952769696712494e-02
8.012385666370391846e-02
2.060260856524109840e-03
-6.662486493587493896e-02
3.313150024041533470e-03
2.005479997023940086e-03
6.794554181396961212e-03
-1.049103774130344391e-02
-7.752098143100738525e-03
1.224243715405464172e-01
4.504699259996414185e-03
-7.174276560544967651e-02
8.594457991421222687e-03
-4.878615587949752808e-02
1.549218744039535522e-01
-3.098351135849952698e-02
2.543340064585208893e-02
-5.054604262113571167e-02
7.095260918140411377e-02
-4.752310737967491150e-02
2.491629682481288910e-03
-9.728772938251495361e-02
1.298104762099683285e-03
-8.580584079027175903e-02
-1.063102334737777710e-01
-6.990151107311248779e-02
-3.414683789014816284e-02
5.291373934596776962e-03
-1.137875840067863464e-01
2.409325912594795227e-02
3.374323714524507523e-03
3.118701977655291557e-03
-6.455635279417037964e-02
3.806785680353641510e-03
2.713922178372740746e-03
4.554457031190395355e-03
6.205399986356496811e-03
-1.204107031226158142e-01
2.667227061465382576e-03
-7.762458641082048416e-03
-1.742827298585325480e-04
3.626062069088220596e-03
6.175732705742120743e-03
-1.683708280324935913e-01
7.074147928506135941e-03
-3.000010177493095398e-02
-2.492040582001209259e-02
-9.548082947731018066e-03
1.175715308636426926e-02
3.385700285434722900e-03
1.030631549656391144e-02
-5.238731950521469116e-02
3.436143742874264717e-03
1.672243140637874603e-02
-1.474463939666748047e-01
3.016698732972145081e-02
-5.587612092494964600e-02
6.010833662003278732e-03
4.321077838540077209e-03
3.444432513788342476e-03
5.292230285704135895e-03
5.173310637474060059e-03
-1.541563272476196289e-01
