-1.599279642105102539e-01
-9.187296032905578613e-02
-1.867704987525939941e-01
-9.680777788162231445e-02
-2.934637665748596191e-02
-1.192797198891639709e-01
-7.660759240388870239e-02
-1.058092191815376282e-01
-6.248337402939796448e-02
8.410213142633438110e-02
-1.555338501930236816e-01
7.076958566904067993e-02
-2.071020305156707764e-01
-1.594028472900390625e-01
-1.094225049018859863e-01
-2.513853460550308228e-02
-7.784269750118255615e-02
9.113505482673645020e-02
-6.940065324306488037e-02
6.639742851257324219e-02
-2.496178820729255676e-02
3.630258142948150635e-02
-1.849021464586257935e-01
7.531338185071945190e-02
-1.482780873775482178e-01
1.161489412188529968e-01
-1.217583417892456055e-01
1.143206879496574402e-01
-1.212864518165588379e-01
-1.672014594078063965e-01
6.534960120916366577e-02
2.049280703067779541e-02
-3.075763769447803497e-02
1.543851848691701889e-02
-1.298902332782745361e-01
4.648815467953681946e-02
8.272375166416168213e-02
-6.526082754135131836e-02
-1.969043314456939697e-01
9.212609380483627319e-02
-8.101700246334075928e-02
8.523914217948913574e-02
-1.422691345214843750e-01
9.514353424310684204e-02
9.464260935783386230e-02
-1.390115916728973389e-01
4.144166782498359680e-02
2.417737618088722229e-02
9.302427619695663452e-02
-1.663118898868560791e-01
-7.836473733186721802e-02
-9.600119292736053467e-02
-1.124076843261718750e-01
-1.654136180877685547e-01
-1.032759472727775574e-01
-2.651785127818584442e-02
-8.208718895912170410e-02
-7.631807029247283936e-02
-8.896669000387191772e-02
-4.880969412624835968e-03
-7.602855563163757324e-02
-1.012829542160034180e-01
-1.024652197957038879e-01
-1.701170802116394043e-01
-1.045119091868400574e-01
-8.198248594999313354e-02
-2.577774226665496826e-01
4.693796113133430481e-02
-1.342857331037521362e-01
6.284231692552566528e-02
-1.717527508735656738e-01
6.178991869091987610e-02
-3.453547134995460510e-02
-6.526193767786026001e-02
6.607654690742492676e-02
-5.717889592051506042e-02
-4.010493308305740356e-02
-1.043049916625022888e-01
-1.746688485145568848e-01
5.281329527497291565e-02
2.232486754655838013e-02
-9.882897138595581055e-02
-1.399485617876052856e-01
-6.767880916595458984e-02
-4.757896810770034790e-02
-1.639218479394912720e-01
-1.152677685022354126e-01
8.308757678605616093e-04
-1.068705171346664429e-01
-2.374718189239501953e-01
-2.319071628153324127e-02
-2.186175622045993805e-02
-1.605775505304336548e-01
2.453123964369297028e-02
2.109644748270511627e-02
-1.167607083916664124e-01
-1.101718023419380188e-01
-1.294438391923904419e-01
-8.657020330429077148e-02
-2.172906100749969482e-01
2.958870679140090942e-02
-9.277153015136718750e-02
-3.381863981485366821e-02
-1.797350309789180756e-02
-1.378669589757919312e-01
1.399145228788256645e-03
-9.561649709939956665e-02
1.094940751791000366e-01
-2.016099393367767334e-01
-1.424316614866256714e-01
-1.553532332181930542e-01
1.598557084798812866e-02
-1.674455106258392334e-01
-7.477983832359313965e-02
-1.505037099123001099e-01
-5.143872275948524475e-02
-1.245415136218070984e-01
-1.390876322984695435e-01
-9.121807664632797241e-02
-1.194006949663162231e-01
-3.035207092761993408e-01
-2.165662348270416260e-01
-1.192233115434646606e-01
4.472281783819198608e-02
-1.236722543835639954e-01
-1.405602395534515381e-01
1.751127652823925018e-02
-2.559228837490081787e-01
