-2.110157534480094910e-02
-4.071338474750518799e-02
-1.119897793978452682e-02
-1.322596818208694458e-01
-1.029977574944496155e-01
-4.203943535685539246e-02
-6.266608089208602905e-02
4.798633977770805359e-02
8.030032366514205933e-02
1.413864642381668091e-01
-1.110980659723281860e-01
-1.917510926723480225e-01
7.861883938312530518e-02
-9.377735853195190430e-02
-1.517536342144012451e-01
8.527401834726333618e-02
-1.569612473249435425e-01
1.497224718332290649e-01
8.680349588394165039e-02
-6.765948981046676636e-02
-5.254618450999259949e-02
1.387600451707839966e-01
7.770957797765731812e-02
-9.859844297170639038e-02
2.223613299429416656e-02
8.003380149602890015e-02
6.341865658760070801e-02
1.235079858452081680e-02
-7.546780258417129517e-02
-1.144210994243621826e-01
7.473856210708618164e-02
-6.259215623140335083e-02
1.636881530284881592e-01
-7.868451625108718872e-02
1.790831834077835083e-01
-8.683440834283828735e-02
1.491062492132186890e-01
-7.570585608482360840e-02
1.054980512708425522e-02
-1.133394762873649597e-01
-6.799270212650299072e-02
5.828564986586570740e-02
-4.097779095172882080e-02
-5.147343501448631287e-02
4.915457591414451599e-02
-7.922542095184326172e-02
-1.329847574234008789e-01
-5.395377799868583679e-02
6.049466878175735474e-02
-1.405478417873382568e-01
-2.106297574937343597e-02
1.586327552795410156e-01
-1.309584528207778931e-01
-8.527861535549163818e-02
-1.872339695692062378e-01
5.259361118078231812e-02
-9.250445663928985596e-02
-5.779088288545608521e-02
7.817745953798294067e-02
-1.039225906133651733e-01
-2.103388682007789612e-02
6.124878302216529846e-02
-1.123291179537773132e-01
-7.811202853918075562e-02
