6.342460401356220245e-03
1.679525710642337799e-03
2.251764386892318726e-02
1.172525715082883835e-02
-1.778049580752849579e-02
-2.558792755007743835e-02
-1.583809964358806610e-02
-2.494825609028339386e-02
-1.404679473489522934e-02
-5.567449610680341721e-03
-2.614855580031871796e-02
-1.089164242148399353e-02
-1.766361668705940247e-02
-1.946572214365005493e-03
-1.454808656126260757e-02
-2.830755198374390602e-03
-2.901691943407058716e-02
-1.590464077889919281e-02
-8.505559526383876801e-03
-1.118764467537403107e-02
3.765751793980598450e-02
-1.410950347781181335e-02
-2.321060001850128174e-02
-2.716685645282268524e-02
3.694911254569888115e-03
-3.648384660482406616e-02
-6.983628845773637295e-04
3.691398538649082184e-03
6.698897574096918106e-03
-8.606208488345146179e-03
-2.906132675707340240e-02
-1.824919134378433228e-02
3.671243321150541306e-03
4.277973494026809931e-04
-4.999623633921146393e-03
-1.113575324416160583e-02
1.373532926663756371e-03
1.467631477862596512e-02
-1.509935967624187469e-02
1.119614898925647140e-04
-2.317131310701370239e-02
1.477124728262424469e-02
-2.348550781607627869e-02
-5.920810997486114502e-02
-3.331217740196734667e-04
-6.733593530952930450e-03
-2.841312065720558167e-02
-1.125530712306499481e-02
5.665996577590703964e-03
7.467679213732481003e-03
-1.283008418977260590e-02
-1.086989045143127441e-02
-2.554571256041526794e-02
-1.496175862848758698e-02
-3.085490688681602478e-02
-1.451544091105461121e-02
-4.477558657526969910e-03
4.510420188307762146e-02
-6.537735462188720703e-03
-3.455961355939507484e-03
-6.346802110783755779e-04
5.413614213466644287e-03
-1.703180186450481415e-02
-1.332890056073665619e-02
-1.880249567329883575e-02
5.320378113538026810e-03
3.756407275795936584e-02
-3.585879225283861160e-03
-7.807239424437284470e-03
-1.964996568858623505e-03
2.275864535477012396e-04
-3.686695825308561325e-03
-2.802385762333869934e-02
-5.752574652433395386e-03
-2.264571003615856171e-02
1.887793070636689663e-03
-5.351193621754646301e-02
-2.765844017267227173e-02
-6.034843157976865768e-03
2.437425777316093445e-03
-2.316769212484359741e-03
2.008154615759849548e-02
-2.172585017979145050e-02
1.303402590565383434e-03
1.756654120981693268e-02
1.037677563726902008e-02
-1.375248190015554428e-03
-4.441042244434356689e-02
3.971580788493156433e-02
4.766996204853057861e-02
3.072081366553902626e-03
8.220758289098739624e-03
9.481440298259258270e-03
1.531144883483648300e-02
-2.534999139606952667e-02
2.345502749085426331e-02
4.070408642292022705e-03
6.689661531709134579e-04
-6.454909685999155045e-03
-6.172062456607818604e-02
-3.940271679311990738e-03
1.777673512697219849e-02
-2.064341679215431213e-03
8.229630999267101288e-03
-6.846584845334291458e-03
-8.033622987568378448e-03
1.372380554676055908e-02
-7.139313500374555588e-03
3.532759612426161766e-03
2.095900289714336395e-02
-5.166898295283317566e-02
-1.635935716331005096e-02
2.711072098463773727e-03
1.346247363835573196e-02
-1.132866367697715759e-02
-1.162262167781591415e-02
7.677479181438684464e-03
-9.117982350289821625e-03
2.969418652355670929e-03
-1.337696705013513565e-02
4.144398029893636703e-03
-3.859366057440638542e-03
5.136177875101566315e-03
-2.359862253069877625e-02
1.786490343511104584e-02
3.564462065696716309e-02
1.989365555346012115e-02
-2.075750008225440979e-02
7.806598674505949020e-03
3.094334853813052177e-03
3.824359551072120667e-02
1.676772721111774445e-02
-7.270273636095225811e-04
-1.201570685952901840e-02
-1.006105635315179825e-02
8.592635858803987503e-04
3.890079096890985966e-04
-1.160321291536092758e-02
-3.871655324473977089e-03
8.324823575094342232e-04
-9.366080164909362793e-03
-1.796093583106994629e-02
-2.732626162469387054e-02
-1.669116690754890442e-02
-1.631556451320648193e-02
3.179910127073526382e-03
1.323497854173183441e-02
9.611468762159347534e-03
1.209597941488027573e-02
-5.877188872545957565e-03
-6.133660674095153809e-03
4.840640351176261902e-03
2.371543645858764648e-02
-1.644115522503852844e-02
-2.676813455764204264e-04
-8.805370889604091644e-03
5.133919417858123779e-03
2.128618769347667694e-03
-1.610085368156433105e-02
7.668382022529840469e-03
2.545759826898574829e-02
2.989305881783366203e-03
3.406938631087541580e-03
-2.573075331747531891e-02
-6.845059804618358612e-03
1.655116793699562550e-03
-6.193626206368207932e-03
2.539997361600399017e-02
-1.335064694285392761e-02
-2.267281059175729752e-03
-1.335929520428180695e-02
-5.099641159176826477e-02
-1.888764835894107819e-02
7.948448881506919861e-03
-2.969921380281448364e-02
1.336018089205026627e-03
5.560968536883592606e-03
3.226135158911347389e-03
8.373823016881942749e-03
-9.328606538474559784e-03
1.035490189678966999e-03
-3.271714970469474792e-02
-8.667000569403171539e-03
-3.056770935654640198e-02
-1.551322359591722488e-02
6.260447204113006592e-02
-1.241073757410049438e-02
-1.245625503361225128e-02
1.227462780661880970e-03
4.609486204572021961e-04
7.054513785988092422e-03
1.201757788658142090e-02
1.033528801053762436e-02
1.629149354994297028e-02
1.620549708604812622e-02
3.326349891722202301e-03
-1.781279593706130981e-02
1.453276816755533218e-02
9.009845554828643799e-03
-1.226951647549867630e-02
-6.824997719377279282e-03
2.440985292196273804e-03
-1.024311408400535583e-02
1.126010809093713760e-02
-8.975345641374588013e-02
-1.159293390810489655e-02
-3.365686628967523575e-03
1.741128973662853241e-02
4.437395185232162476e-02
2.570543624460697174e-02
1.093272701837122440e-03
4.515432752668857574e-03
2.017230726778507233e-02
1.406283769756555557e-02
1.092833653092384338e-02
-1.878435537219047546e-02
4.019549861550331116e-02
1.571816392242908478e-02
1.437857840210199356e-02
-1.636270200833678246e-03
2.116302959620952606e-02
-3.581446595489978790e-03
-2.173141576349735260e-02
5.473157856613397598e-03
4.492342006415128708e-03
1.992248697206377983e-03
7.665576878935098648e-03
-5.410842224955558777e-02
-8.899580570869147778e-04
3.936355060432106256e-04
1.520451810210943222e-02
-1.136452984064817429e-02
1.181960664689540863e-02
1.289322390221059322e-03
2.066651126369833946e-03
-7.519994396716356277e-03
-1.700238138437271118e-02
-5.363321633922168985e-06
-4.691362008452415466e-02
-6.532134953886270523e-03
1.172042638063430786e-02
3.929118812084197998e-02
1.679529994726181030e-02
-9.001482278108596802e-03
1.933030289364978671e-04
-2.692681038752198219e-03
2.170820720493793488e-02
-2.003726549446582794e-02
-1.877112314105033875e-02
-1.939652301371097565e-02
-1.027687825262546539e-02
-1.814891025424003601e-02
2.470088191330432892e-02
6.126793101429939270e-03
1.809979602694511414e-02
1.106340670958161354e-03
-5.998135544359683990e-03
1.670572720468044281e-02
1.878034882247447968e-02
7.210155483335256577e-03
2.564802207052707672e-02
-1.940937712788581848e-03
2.254027174785733223e-03
5.522745661437511444e-03
-1.314722839742898941e-02
-1.770635694265365601e-02
1.044253259897232056e-02
-5.737646017223596573e-03
-7.917285547591745853e-04
-2.177494205534458160e-02
-3.959163557738065720e-03
-1.876695547252893448e-03
-1.327612251043319702e-02
1.067983359098434448e-02
7.377436384558677673e-03
-2.146618440747261047e-03
-1.029630284756422043e-02
-1.348369941115379333e-02
-7.455455604940652847e-03
1.489215157926082611e-02
-5.527548491954803467e-03
1.109022647142410278e-03
-2.574630454182624817e-02
-1.745566911995410919e-02
-6.208418402820825577e-03
-6.403098086593672633e-05
7.529769092798233032e-03
-5.003916565328836441e-03
3.217467665672302246e-02
-2.052384801208972931e-02
1.709950342774391174e-02
-8.874841034412384033e-03
-2.845537289977073669e-02
-2.209204621613025665e-02
1.402533147484064102e-02
8.979797363281250000e-03
-9.256687946617603302e-03
7.880355231463909149e-03
-1.878468319773674011e-02
-5.812123045325279236e-02
-1.164064835757017136e-02
9.873870294541120529e-04
-4.928076639771461487e-02
-4.747076425701379776e-03
3.143223468214273453e-03
-1.237220247276127338e-03
-1.600039424374699593e-03
-1.781711354851722717e-02
1.490460243076086044e-02
-4.079114645719528198e-02
-1.628881879150867462e-02
-2.736512012779712677e-02
-1.288359053432941437e-02
3.368581458926200867e-02
-2.266668714582920074e-02
-2.372818440198898315e-02
-1.728841103613376617e-02
-1.749385148286819458e-02
1.900570839643478394e-02
-4.031053278595209122e-03
1.667504757642745972e-02
7.918667048215866089e-03
1.165919471532106400e-02
8.584178984165191650e-03
-7.244175300002098083e-03
-1.426412258297204971e-02
1.123108062893152237e-02
-2.193484641611576080e-02
-2.695799246430397034e-02
-8.805925026535987854e-03
-1.777011342346668243e-02
-1.575403846800327301e-02
-7.474263757467269897e-02
-6.784772966057062149e-03
-2.007132954895496368e-02
2.133766934275627136e-02
3.810616210103034973e-02
4.254261963069438934e-03
3.059314936399459839e-02
3.371069906279444695e-03
1.342088356614112854e-02
7.315826951526105404e-04
1.475462131202220917e-02
5.748712457716464996e-03
3.744822740554809570e-02
-4.302388522773981094e-03
-5.114985397085547447e-04
2.897977130487561226e-03
1.842576079070568085e-02
6.877991836518049240e-03
-1.950052566826343536e-02
9.715284220874309540e-03
2.586415037512779236e-03
-1.664992771111428738e-03
1.702031679451465607e-02
-5.739231035113334656e-02
-5.684690084308385849e-03
-1.330003514885902405e-02
7.486277725547552109e-03
-6.114010699093341827e-03
-3.834649920463562012e-03
-1.770111732184886932e-02
-1.088105142116546631e-02
-4.416256397962570190e-02
-1.941468939185142517e-02
-1.857692934572696686e-02
-5.055635794997215271e-02
3.147819638252258301e-02
8.180743083357810974e-03
2.097140438854694366e-02
1.597361452877521515e-02
8.250034414231777191e-03
-7.705048774369060993e-04
-6.311848759651184082e-03
-1.429491955786943436e-02
-3.074814565479755402e-02
-1.235622167587280273e-02
-4.379414394497871399e-02
5.467700306326150894e-03
-8.546764031052589417e-03
-1.798179186880588531e-02
-1.504729036241769791e-02
-2.464704215526580811e-02
1.495743170380592346e-02
-3.448746399953961372e-03
1.715821330435574055e-03
1.984602026641368866e-02
3.528458997607231140e-03
-2.564453170634806156e-04
-2.089473977684974670e-02
-1.873116358183324337e-03
2.166123362258076668e-03
-2.195264212787151337e-02
-1.903325505554676056e-02
-7.833081297576427460e-03
-7.259134668856859207e-03
-1.514528319239616394e-02
1.619669049978256226e-02
-6.410578265786170959e-03
-9.714789688587188721e-03
-2.907834202051162720e-02
-7.231605239212512970e-03
1.705454289913177490e-02
-2.745477855205535889e-02
3.003134764730930328e-02
2.394626662135124207e-02
-9.608780965209007263e-03
-8.457111194729804993e-03
-3.230144036933779716e-03
-2.110712602734565735e-02
4.710394889116287231e-03
-1.443885732442140579e-03
-4.107541404664516449e-03
4.451388958841562271e-03
-4.534209519624710083e-02
-5.675125867128372192e-03
-4.981699865311384201e-03
-1.125057507306337357e-02
-9.700536727905273438e-03
-2.138536609709262848e-02
1.523383334279060364e-02
1.324095670133829117e-02
-1.716528087854385376e-02
1.633273437619209290e-02
-1.825684122741222382e-02
6.349857430905103683e-03
-1.258257124572992325e-02
-4.657118394970893860e-02
-4.139253869652748108e-03
-2.941819094121456146e-02
9.549225680530071259e-03
-1.502740941941738129e-02
3.020159667357802391e-03
-5.331372376531362534e-03
-1.806804724037647247e-02
-6.873781792819499969e-03
-1.818024553358554840e-02
-7.309098262339830399e-03
-1.475798990577459335e-02
-3.421483328565955162e-03
-1.001591235399246216e-02
6.778308749198913574e-02
1.118284743279218674e-02
-1.038542669266462326e-02
-1.567621342837810516e-02
-4.822073969990015030e-04
-6.004888564348220825e-04
-6.423930637538433075e-03
-1.834498159587383270e-02
1.735391840338706970e-02
3.303384175524115562e-03
-7.153263781219720840e-03
5.881160963326692581e-03
-1.395781897008419037e-02
-3.543526399880647659e-03
-2.839323133230209351e-03
-5.343616940081119537e-03
2.943476894870400429e-03
-2.018473669886589050e-02
1.008104160428047180e-02
-4.983368888497352600e-02
5.156320985406637192e-03
-2.073301188647747040e-02
9.177221916615962982e-03
3.754920512437820435e-02
6.919739767909049988e-03
-1.609944738447666168e-02
-2.263911627233028412e-02
6.080756429582834244e-03
1.564483717083930969e-02
-4.642038140445947647e-03
-1.307135913521051407e-02
5.450476333498954773e-02
5.252455919981002808e-02
-4.405172076076269150e-03
4.393589682877063751e-03
1.183254737406969070e-02
3.713330626487731934e-02
-1.778483949601650238e-02
4.252702463418245316e-03
-7.664217613637447357e-03
1.604754664003849030e-02
-2.126963576301932335e-03
-5.402496829628944397e-02
9.801924228668212891e-03
4.802375566214323044e-03
1.969718746840953827e-02
1.452661119401454926e-02
-1.711431145668029785e-02
-2.517053857445716858e-02
1.485635153949260712e-02
-4.312461707741022110e-03
1.191648468375205994e-02
1.597812771797180176e-02
-7.333016395568847656e-02
-5.813924130052328110e-03
-2.682853955775499344e-03
-4.713414702564477921e-03
2.813014760613441467e-02
3.356371016707271338e-04
2.034392766654491425e-02
-1.686358265578746796e-02
3.963664919137954712e-02
1.815529912710189819e-02
1.564153097569942474e-02
-2.047890797257423401e-03
-1.528617180883884430e-02
-9.180661290884017944e-03
1.338544860482215881e-02
3.157420456409454346e-02
-5.377719062380492687e-04
-3.669647499918937683e-02
4.761076066642999649e-03
5.471844997373409569e-05
1.410559937357902527e-02
1.033490151166915894e-02
5.653777159750461578e-03
-1.007540430873632431e-02
-2.368540037423372269e-03
1.271716225892305374e-02
-1.941203139722347260e-02
-1.427433546632528305e-02
4.706612322479486465e-03
-1.132943667471408844e-03
-1.248478889465332031e-02
-9.221320040524005890e-03
-8.119785226881504059e-03
-1.599883311428129673e-03
-4.704190883785486221e-03
3.886940423399209976e-03
2.529218606650829315e-02
9.955376386642456055e-03
4.556095227599143982e-04
8.273237384855747223e-03
-6.122475489974021912e-03
1.470024138689041138e-02
3.095024079084396362e-02
-1.369857043027877808e-02
-1.123658288270235062e-02
1.000156626105308533e-02
9.608833119273185730e-03
3.577368566766381264e-03
5.606449674814939499e-03
-1.048137713223695755e-02
1.187914516776800156e-02
-3.457346465438604355e-03
7.847093977034091949e-03
-1.372301857918500900e-02
8.408152498304843903e-03
-5.081414710730314255e-03
-1.216981280595064163e-02
1.982799172401428223e-02
-5.580408032983541489e-03
-9.176241233944892883e-03
4.558223765343427658e-03
-3.317256271839141846e-02
7.077410351485013962e-03
-6.082951091229915619e-03
5.578744690865278244e-03
3.930558916181325912e-03
-8.463891223073005676e-03
-9.000803343951702118e-03
1.408309908583760262e-03
-5.390407051891088486e-03
-4.547518678009510040e-03
-3.034609742462635040e-02
-9.563422761857509613e-03
-5.588621366769075394e-03
-5.260827951133251190e-03
3.167901933193206787e-02
-1.608899049460887909e-02
1.756690558977425098e-03
1.191905234009027481e-02
-1.945349946618080139e-02
2.222385490313172340e-03
1.739063300192356110e-02
-2.743245288729667664e-02
1.410549785941839218e-02
1.553920656442642212e-02
-1.547005586326122284e-02
-5.820452701300382614e-03
-1.622472656890749931e-03
2.934762451332062483e-04
1.566544733941555023e-02
-9.419951587915420532e-03
-6.798498332500457764e-03
-2.539163688197731972e-03
1.231209957040846348e-03
-5.841514840722084045e-02
1.028182171285152435e-02
-7.469263393431901932e-03
1.218152139335870743e-02
2.505556493997573853e-02
1.685671508312225342e-02
-5.043868906795978546e-03
-8.821523748338222504e-03
1.510360371321439743e-02
-1.305123558267951012e-03
-4.635597579181194305e-03
-2.061871066689491272e-02
4.268151149153709412e-02
-1.026082783937454224e-02
1.584845595061779022e-02
-5.948893725872039795e-03
2.436767145991325378e-02
3.210249543190002441e-02
-1.371445227414369583e-02
-1.401170447934418917e-05
1.287916488945484161e-02
-1.196445804089307785e-02
1.905085705220699310e-02
-3.949611261487007141e-02
1.780809368938207626e-03
-2.570014819502830505e-02
1.425202190876007080e-02
-3.737328574061393738e-03
-1.188680902123451233e-02
-5.478527862578630447e-03
1.228140201419591904e-02
-9.575943695381283760e-04
-6.635710597038269043e-03
1.036867126822471619e-02
-5.606224387884140015e-02
-1.200797222554683685e-02
9.799853898584842682e-03
2.569448575377464294e-02
1.662937738001346588e-02
2.850039862096309662e-03
1.130788959562778473e-02
-2.150101214647293091e-02
3.252891451120376587e-02
-9.645918384194374084e-03
-9.997037239372730255e-03
4.689018707722425461e-03
-8.502632379531860352e-03
-4.105158732272684574e-04
4.464522469788789749e-03
-1.904483139514923096e-02
1.098624709993600845e-02
-1.419923827052116394e-02
3.853968577459454536e-03
5.981711670756340027e-03
2.183477394282817841e-02
7.248381618410348892e-03
1.275856420397758484e-02
-4.050345625728368759e-03
-8.496111258864402771e-03
5.974540952593088150e-03
-2.921225130558013916e-02
-1.284003374166786671e-03
1.281470060348510742e-02
3.841484664008021355e-03
2.389865927398204803e-03
-7.806825451552867889e-03
4.731483291834592819e-03
2.127021551132202148e-02
-1.037394627928733826e-02
1.743550784885883331e-02
-1.899048686027526855e-02
1.202117279171943665e-02
-3.635510057210922241e-02
-4.533094819635152817e-03
-2.563715679571032524e-03
2.789581008255481720e-02
-2.830793149769306183e-03
-8.537686429917812347e-03
-5.312299821525812149e-03
-3.138088388368487358e-03
5.324874538928270340e-03
-2.880092710256576538e-03
-1.246306393295526505e-02
8.549742400646209717e-03
4.072307050228118896e-02
-1.759258285164833069e-02
1.113823428750038147e-02
-2.503953687846660614e-02
-3.639183938503265381e-02
2.587155252695083618e-02
-1.602440327405929565e-02
3.335901722311973572e-02
-9.207036346197128296e-03
2.392496680840849876e-03
7.405227981507778168e-03
-5.686816573143005371e-02
-1.432945765554904938e-02
1.129444595426321030e-02
-2.336575835943222046e-02
8.870141580700874329e-03
-2.315298095345497131e-02
2.253878116607666016e-02
-9.899963624775409698e-03
-9.119006572291254997e-04
3.604302927851676941e-02
-5.360061302781105042e-02
5.719534587115049362e-03
-5.703647155314683914e-03
-1.222529448568820953e-02
4.295980185270309448e-02
-2.326572872698307037e-02
-4.436286166310310364e-03
-1.892801374197006226e-02
-1.591293141245841980e-02
-2.644778043031692505e-02
6.530181504786014557e-03
-2.377057680860161781e-03
1.424464490264654160e-02
1.057671941816806793e-02
1.620835065841674805e-02
-2.085412852466106415e-03
-1.182595919817686081e-02
1.491455826908349991e-02
-6.615213118493556976e-03
-1.032115519046783447e-02
-1.709423586726188660e-02
5.456887651234865189e-03
-7.864463143050670624e-03
-7.692012935876846313e-02
2.860763482749462128e-02
-1.179234217852354050e-02
1.250421814620494843e-02
4.318469390273094177e-02
-9.386249817907810211e-03
3.395159170031547546e-02
-1.385364402085542679e-02
-4.080442711710929871e-03
-1.335233170539140701e-02
-9.368235245347023010e-03
-8.803817443549633026e-03
5.449150130152702332e-02
-2.980781905353069305e-02
1.685816794633865356e-02
2.558374777436256409e-03
2.566917613148689270e-02
1.042767148464918137e-02
-2.925123786553740501e-03
-4.957552999258041382e-03
2.532087452709674835e-02
-2.417765092104673386e-03
-4.566998220980167389e-03
-4.821783676743507385e-02
-1.859786547720432281e-02
-2.648720890283584595e-02
1.344953849911689758e-02
6.044477224349975586e-03
-1.474847231293097138e-04
-6.227152887731790543e-03
-1.326969079673290253e-02
-2.249014005064964294e-02
1.041508046910166740e-03
-1.463361177593469620e-02
-7.229422032833099365e-02
4.903358593583106995e-02
3.168223425745964050e-03
5.181544646620750427e-02
5.141811911016702652e-03
1.058678887784481049e-02
-9.645025711506605148e-04
-2.115631662309169769e-02
2.403712831437587738e-02
-2.301902044564485550e-03
-1.971737854182720184e-02
-2.575572207570075989e-02
-8.551621809601783752e-03
-1.444201171398162842e-02
7.410556281683966517e-05
-4.120045900344848633e-02
-1.743527478538453579e-03
1.045594550669193268e-02
2.084581740200519562e-02
-7.767177303321659565e-04
1.942218281328678131e-02
2.566289855167269707e-03
3.635561326518654823e-03
-2.427939325571060181e-02
-2.443451667204499245e-03
-1.320500764995813370e-02
-1.221224945038557053e-02
-1.698509976267814636e-02
-1.262251473963260651e-02
9.878535754978656769e-03
-1.906893216073513031e-02
1.746077439747750759e-03
-1.387934014201164246e-02
-1.803123578429222107e-02
-1.308623887598514557e-02
7.413160987198352814e-03
1.978870108723640442e-02
-1.276114024221897125e-02
2.879070676863193512e-02
1.392566505819559097e-02
-7.074604742228984833e-03
1.251529622822999954e-02
-1.907707890495657921e-03
-1.548021845519542694e-02
6.525297649204730988e-03
-3.887614235281944275e-03
-5.777088925242424011e-03
1.452444354072213173e-03
-2.609139494597911835e-02
-2.019012346863746643e-02
-3.244264796376228333e-02
7.811406161636114120e-03
-1.795137301087379456e-02
-2.786748856306076050e-02
1.275267684832215309e-03
8.160708472132682800e-03
-1.941292919218540192e-02
2.158211357891559601e-02
-2.829533815383911133e-02
-4.429081454873085022e-03
3.082208801060914993e-03
-4.250390082597732544e-02
-1.004963181912899017e-02
-2.533640339970588684e-02
2.564983628690242767e-02
-1.596513763070106506e-02
-1.452771201729774475e-02
-1.701601594686508179e-02
-1.168858353048563004e-02
6.284702569246292114e-03
-1.215831469744443893e-02
-4.480985924601554871e-02
-1.942434161901473999e-02
2.092297421768307686e-03
4.939943086355924606e-03
6.527876853942871094e-02
-1.019990723580121994e-02
-3.729996271431446075e-03
-2.527243271470069885e-02
-1.463485974818468094e-02
-1.721055619418621063e-02
-5.471315234899520874e-04
-8.634909056127071381e-03
5.711264908313751221e-03
-5.960930604487657547e-03
1.461553853005170822e-03
-1.205534860491752625e-02
9.608631953597068787e-03
4.937768448144197464e-03
7.575497962534427643e-03
1.061585824936628342e-02
-5.271884147077798843e-03
3.198587801307439804e-03
-1.019707880914211273e-03
-5.319729819893836975e-02
8.774931542575359344e-03
-8.969206362962722778e-03
-1.389837265014648438e-02
1.857336424291133881e-02
-5.085026379674673080e-03
-2.901149354875087738e-02
-6.788543891161680222e-03
-5.175115074962377548e-03
9.134661406278610229e-03
1.809261925518512726e-02
-1.812508888542652130e-02
6.889425218105316162e-02
2.457313984632492065e-02
-6.544296164065599442e-03
-2.873429562896490097e-03
6.396615412086248398e-03
5.181121826171875000e-02
-1.915010251104831696e-02
-1.090462040156126022e-02
9.940210729837417603e-04
1.744328183121979237e-04
-1.992975594475865364e-03
-4.897478595376014709e-02
6.671102164546027780e-05
-1.044938899576663971e-02
2.084054052829742432e-03
5.155887920409440994e-03
-2.349445596337318420e-02
-8.851941674947738647e-03
8.565470576286315918e-03
-1.542030717246234417e-03
1.089748926460742950e-02
2.196391113102436066e-02
-5.521529540419578552e-02
-9.849504567682743073e-03
-1.803816878236830235e-03
-7.139689289033412933e-03
4.048523679375648499e-02
-1.041588932275772095e-02
1.350336242467164993e-02
-2.279567532241344452e-02
3.933991119265556335e-02
-1.186628825962543488e-02
8.694298565387725830e-03
-1.886541210114955902e-02
-1.869510486721992493e-02
-4.049053881317377090e-03
2.488579042255878448e-02
2.807907760143280029e-02
2.406617999076843262e-02
-2.800533547997474670e-02
1.821561483666300774e-03
-5.293263122439384460e-03
1.219356153160333633e-02
8.181046694517135620e-03
1.222635339945554733e-02
3.173171775415539742e-03
6.589051801711320877e-03
-3.795327851548790932e-03
-4.607826471328735352e-03
-1.161049120128154755e-02
-6.021763198077678680e-03
-3.177237696945667267e-03
-1.042286772280931473e-02
-2.309785038232803345e-02
-1.111176796257495880e-02
-1.003453321754932404e-02
6.597165949642658234e-03
-7.561464793980121613e-03
6.329208146780729294e-03
8.205985650420188904e-03
-2.002559369429945946e-03
2.613343112170696259e-02
1.021671487251296639e-04
2.604792453348636627e-02
3.017783164978027344e-02
-4.787178710103034973e-03
3.260823432356119156e-03
1.812126673758029938e-02
1.510903588496148586e-03
-7.041315548121929169e-03
-2.897350676357746124e-02
1.438186969608068466e-02
2.447887696325778961e-02
6.951116374693810940e-04
8.200884796679019928e-03
-9.108026511967182159e-03
-1.161251682788133621e-02
1.605331082828342915e-03
-8.947024121880531311e-03
2.455452270805835724e-02
-1.314364001154899597e-02
-1.291441731154918671e-02
1.219348050653934479e-02
-3.859208151698112488e-02
-1.150464266538619995e-02
-3.265978069975972176e-03
2.053505554795265198e-02
-2.493461128324270248e-03
-1.136233005672693253e-02
9.612382389605045319e-03
-2.274437993764877319e-02
3.889233572408556938e-03
3.074724227190017700e-02
-5.337408185005187988e-02
8.397453464567661285e-03
-2.699432335793972015e-02
-6.451543886214494705e-03
5.915676802396774292e-02
-2.783386781811714172e-02
-4.967561457306146622e-03
-2.323394641280174255e-02
-1.836639642715454102e-02
1.739627332426607609e-03
1.053328532725572586e-02
6.822019815444946289e-03
-1.375897508114576340e-02
6.471099331974983215e-03
-3.424244001507759094e-03
-1.567015051841735840e-02
-2.207048982381820679e-02
-2.927740861196070910e-04
7.244189269840717316e-03
7.293650996871292591e-04
5.995878949761390686e-03
-4.767291713505983353e-03
4.718505777418613434e-03
-8.209060132503509521e-02
-3.238226985558867455e-03
-8.477548137307167053e-03
-2.021773345768451691e-02
3.023294731974601746e-02
6.673259194940328598e-03
3.296539559960365295e-02
8.675265125930309296e-03
6.311635952442884445e-03
-1.056564142345450819e-04
-9.295190102420747280e-04
-1.422165054827928543e-02
5.907813087105751038e-02
1.390703301876783371e-02
2.537489123642444611e-02
6.575508974492549896e-03
1.870421320199966431e-02
4.679843410849571228e-02
-1.731374301016330719e-02
2.888136543333530426e-03
1.200470980256795883e-02
8.114024996757507324e-03
2.726687677204608917e-02
-4.815226048231124878e-02
-2.400190196931362152e-02
1.743461005389690399e-02
-7.318771909922361374e-03
1.545598730444908142e-03
-8.054830133914947510e-03
-7.653337088413536549e-04
3.084544790908694267e-03
-2.255372516810894012e-02
-1.105195842683315277e-02
1.318232156336307526e-02
-4.633083194494247437e-02
1.234125345945358276e-03
1.878976263105869293e-02
4.904804378747940063e-02
1.909244060516357422e-02
-1.476674433797597885e-02
1.122766733169555664e-02
-1.456531416624784470e-02
5.890566855669021606e-02
3.363964846357703209e-03
-4.883037414401769638e-03
-1.792623847723007202e-02
-4.944924730807542801e-03
-6.368886679410934448e-03
1.367609295994043350e-02
-5.686129443347454071e-03
2.086776494979858398e-02
5.478353705257177353e-03
-6.144595099613070488e-04
8.927850052714347839e-03
1.069007324986159801e-03
1.602039672434329987e-02
3.094353340566158295e-02
5.990855861455202103e-03
5.666169337928295135e-03
1.679304637946188450e-03
-1.303923688828945160e-02
-1.340911909937858582e-02
1.353057753294706345e-02
-1.231920719146728516e-02
-5.937776062637567520e-03
-2.514196559786796570e-02
-1.677686581388115883e-03
-3.072408493608236313e-03
-1.430451683700084686e-02
-2.878332277759909630e-03
-9.310676716268062592e-03
-1.759030274115502834e-04
-1.844454742968082428e-02
1.922570541501045227e-02
-4.685081948991864920e-04
3.077961876988410950e-02
3.830433124676346779e-04
-1.734358817338943481e-02
-1.789146475493907928e-02
6.346633192151784897e-03
3.401777474209666252e-03
-1.367294928058981895e-03
9.905674494802951813e-03
1.754967682063579559e-02
5.345495045185089111e-02
-1.059067342430353165e-02
-1.183708850294351578e-02
-2.287173457443714142e-02
-3.299570456147193909e-02
-3.129240125417709351e-03
-1.968444697558879852e-02
2.274877950549125671e-02
-1.888160221278667450e-02
1.543594710528850555e-02
-1.333170570433139801e-03
-5.508485808968544006e-02
-2.638349542394280434e-04
2.742284908890724182e-03
-1.167232403531670570e-03
-1.398480497300624847e-02
-7.181697059422731400e-03
2.315995469689369202e-02
-3.340797964483499527e-03
1.419532764703035355e-02
3.409901261329650879e-02
-6.046331673860549927e-02
-8.652102202177047729e-03
-2.096860110759735107e-02
1.271272450685501099e-02
4.274385049939155579e-02
3.694120794534683228e-03
-1.244037412106990814e-02
-2.044149860739707947e-02
-4.222277551889419556e-02
-1.289089955389499664e-02
8.714755065739154816e-03
3.514502942562103271e-02
-9.056965820491313934e-03
1.086368504911661148e-02
2.145080827176570892e-02
-2.450634352862834930e-02
7.236961741000413895e-03
1.750596612691879272e-02
-1.544563006609678268e-02
-1.084664743393659592e-02
-4.269579891115427017e-03
-7.642305921763181686e-03
-6.356336642056703568e-03
-7.937292754650115967e-02
-9.233129210770130157e-03
-2.097272500395774841e-02
1.980985980480909348e-03
4.142281785607337952e-02
3.619363531470298767e-03
3.785362839698791504e-02
-8.106968365609645844e-03
-1.002247724682092667e-02
-3.301330655813217163e-02
-6.519632413983345032e-03
-1.304840669035911560e-03
6.192059069871902466e-02
-1.863276585936546326e-02
1.890578679740428925e-02
-8.255261927843093872e-04
2.987546101212501526e-02
4.068815708160400391e-02
-1.113970391452312469e-02
5.066082812845706940e-03
2.273140661418437958e-02
3.351894207298755646e-03
5.990763194859027863e-03
-4.773096367716789246e-02
-2.105798572301864624e-03
-1.692251116037368774e-02
1.286417432129383087e-02
2.239643363282084465e-03
-1.605783216655254364e-02
-2.212551236152648926e-02
-2.122608013451099396e-02
-3.944151476025581360e-02
-2.312067523598670959e-02
1.840732619166374207e-02
-6.118101626634597778e-02
3.354743868112564087e-02
5.659716669470071793e-03
6.400897353887557983e-02
5.501870764419436455e-04
1.130003147409297526e-04
1.294765155762434006e-03
-1.851634494960308075e-02
7.791999960318207741e-04
8.945873938500881195e-03
-2.485102973878383636e-02
-3.263213858008384705e-02
-1.246691588312387466e-02
-1.757231657393276691e-03
6.270278245210647583e-03
-3.063172101974487305e-02
-2.331486530601978302e-02
3.338014334440231323e-02
2.102411119267344475e-03
-4.857782274484634399e-03
-1.796142011880874634e-02
1.026256196200847626e-02
7.640205789357423782e-03
-3.744367510080337524e-02
-1.396151259541511536e-02
-7.818531244993209839e-03
-4.331757780164480209e-03
-2.246554754674434662e-02
-5.352088250219821930e-03
-2.865276485681533813e-02
2.043559588491916656e-02
2.215257473289966583e-02
9.278399869799613953e-03
3.733799979090690613e-02
1.665179990231990814e-02
1.794850453734397888e-02
5.300173070281744003e-03
-1.544812321662902832e-02
-1.012622844427824020e-02
-1.517976634204387665e-02
3.016630187630653381e-02
3.031352721154689789e-02
-2.379453741014003754e-03
1.861809054389595985e-03
-2.569963037967681885e-02
-2.784900926053524017e-02
-1.167975179851055145e-02
-1.354126632213592529e-02
1.455152407288551331e-03
3.502783132717013359e-03
4.704285413026809692e-03
-2.317518182098865509e-02
-1.748772524297237396e-02
-1.149728149175643921e-02
-9.804839268326759338e-03
-5.787146277725696564e-03
-3.144641593098640442e-02
5.141646601259708405e-03
-6.373353768140077591e-03
2.125440724194049835e-02
-5.340384319424629211e-03
9.195516817271709442e-03
2.108463644981384277e-02
-2.214672788977622986e-02
-2.168076112866401672e-02
2.453700453042984009e-02
-1.528542116284370422e-02
5.280158948153257370e-04
1.031627040356397629e-02
-5.349966231733560562e-03
-2.863598987460136414e-03
2.566497959196567535e-02
-3.153144568204879761e-02
-9.735288098454475403e-03
-7.655696943402290344e-03
2.288328018039464951e-03
6.473999004811048508e-03
1.608980074524879456e-02
-1.573708653450012207e-02
-2.475250139832496643e-02
-6.322261178866028786e-04
1.141535677015781403e-02
-8.941286243498325348e-03
-7.174498867243528366e-03
2.414892427623271942e-02
-3.066973946988582611e-02
5.334398895502090454e-02
-1.016399264335632324e-02
-1.256494969129562378e-02
1.009424123913049698e-02
4.652962833642959595e-02
2.244670130312442780e-02
-1.394495926797389984e-02
1.530017610639333725e-02
-3.501742705702781677e-02
-8.865364827215671539e-03
-2.447002753615379333e-02
-1.817075349390506744e-02
1.107049547135829926e-02
-7.830095477402210236e-03
-3.024407103657722473e-02
-3.551036352291703224e-03
-7.642607088200747967e-04
6.249545142054557800e-03
-3.372984007000923157e-02
-1.084817945957183838e-02
1.130914688110351562e-02
-1.316524203866720200e-02
-2.383573167026042938e-02
-2.320922352373600006e-02
1.100600790232419968e-02
2.483781054615974426e-02
-1.192245818674564362e-02
2.909669885411858559e-03
8.927447721362113953e-03
4.509993363171815872e-03
1.514725759625434875e-02
-9.492571552982553840e-05
-3.338680835440754890e-03
-3.825744148343801498e-03
-2.524286136031150818e-02
-2.902302145957946777e-02
-1.946745254099369049e-02
3.615253139287233353e-03
-2.066671848297119141e-02
-2.134617883712053299e-03
-3.212631680071353912e-03
2.095698844641447067e-03
7.848734036087989807e-03
-4.882516805082559586e-03
1.380584901198744774e-03
-2.163218520581722260e-02
3.982497751712799072e-02
1.454462949186563492e-02
1.178138982504606247e-02
8.156378753483295441e-03
2.805999480187892914e-03
-3.808253258466720581e-02
1.349404081702232361e-02
1.852436177432537079e-02
2.154287416487932205e-03
4.518240690231323242e-03
7.295717485249042511e-03
3.011187911033630371e-02
1.031558960676193237e-02
-2.327534928917884827e-02
2.497514709830284119e-02
-1.535544544458389282e-02
-1.729510352015495300e-02
2.935450896620750427e-02
-3.643917664885520935e-02
1.158880628645420074e-02
-1.097479462623596191e-02
7.213760633021593094e-03
7.886192761361598969e-03
8.834253996610641479e-03
-2.526645176112651825e-02
8.487526327371597290e-03
3.659914061427116394e-02
-2.486999612301588058e-03
-3.110434114933013916e-02
-1.228905562311410904e-02
-3.352555632591247559e-02
-1.674569025635719299e-02
-2.021293342113494873e-02
-6.975171621888875961e-03
-7.644547615200281143e-03
-1.357553154230117798e-02
-2.930608578026294708e-02
-8.704708889126777649e-03
7.018245756626129150e-02
3.717680647969245911e-02
-4.484473541378974915e-02
-1.976011320948600769e-02
-1.716083660721778870e-02
-6.193545414134860039e-04
-2.649154886603355408e-02
8.642463013529777527e-03
-8.877551183104515076e-03
-1.742296107113361359e-02
6.364145781844854355e-03
3.063430637121200562e-02
-3.571069985628128052e-02
-2.118381299078464508e-02
1.035410724580287933e-02
1.298107486218214035e-02
3.490157052874565125e-02
4.958451166749000549e-02
-2.328146249055862427e-02
1.227349415421485901e-02
-1.695987954735755920e-02
1.606422476470470428e-02
3.020131401717662811e-02
-8.080323226749897003e-03
-1.660022325813770294e-02
5.914053181186318398e-04
-3.986768424510955811e-02
-9.652436710894107819e-03
-2.150744758546352386e-02
1.461022719740867615e-02
1.512998249381780624e-02
-1.305549591779708862e-02
-2.307588933035731316e-03
6.165670696645975113e-03
9.577287361025810242e-03
-1.764873228967189789e-02
-2.900416031479835510e-02
5.107035976834595203e-04
-6.985127925872802734e-02
-2.176146581768989563e-02
-1.784467697143554688e-02
-1.755491271615028381e-02
-1.646931655704975128e-02
1.155356876552104950e-02
-2.899617329239845276e-02
-1.796118915081024170e-02
6.271901074796915054e-03
-1.582480408251285553e-02
-1.261479966342449188e-02
8.490417152643203735e-02
5.502935033291578293e-03
1.793269813060760498e-02
3.771414514631032944e-03
-6.501920288428664207e-04
5.646415520459413528e-03
5.216838326305150986e-04
4.886855836957693100e-03
5.230208486318588257e-02
2.872433979064226151e-03
1.942516537383198738e-03
2.104660309851169586e-02
3.303663060069084167e-02
-2.356398478150367737e-02
-1.566534861922264099e-02
4.202960059046745300e-02
-9.788360446691513062e-03
1.905706129036843777e-03
-3.680545836687088013e-03
2.096444368362426758e-02
6.506422162055969238e-02
1.564014516770839691e-02
-2.658654563128948212e-02
4.103463515639305115e-02
2.162781171500682831e-02
4.778244718909263611e-02
1.375489588826894760e-02
1.463414519093930721e-03
2.114458568394184113e-02
-6.118154269643127918e-04
-1.879500923678278923e-03
4.690263886004686356e-03
-5.392396822571754456e-02
1.020589750260114670e-02
2.364436350762844086e-02
7.459028158336877823e-03
1.672194688580930233e-03
7.426429074257612228e-03
2.898864040616899729e-04
7.149692624807357788e-03
5.370238330215215683e-03
-2.992206998169422150e-02
2.548226527869701385e-02
2.278854511678218842e-02
5.731567740440368652e-02
3.068866673856973648e-03
-1.589295081794261932e-02
2.545074000954627991e-02
1.925546862185001373e-02
-4.933069646358489990e-02
-4.421146120876073837e-03
1.982215791940689087e-02
2.401813119649887085e-02
1.159549783915281296e-02
-3.160069137811660767e-02
2.712094038724899292e-02
2.439050190150737762e-02
-3.534070402383804321e-02
1.565854065120220184e-02
-1.720448397099971771e-02
-3.182986751198768616e-02
-1.073112990707159042e-02
-3.039846429601311684e-03
-9.188754484057426453e-03
1.530828187242150307e-03
1.377828046679496765e-02
-2.628422155976295471e-02
6.910423748195171356e-03
-4.310880787670612335e-03
7.270463276654481888e-03
-2.484443364664912224e-03
1.465050410479307175e-02
2.395897917449474335e-02
3.316836059093475342e-02
1.185879018157720566e-02
7.016363553702831268e-03
-6.960104219615459442e-03
-1.273175328969955444e-02
6.830755621194839478e-03
4.666595533490180969e-02
2.211369015276432037e-02
1.137953877332620323e-04
-3.432367695495486259e-03
-2.624298445880413055e-02
4.887124523520469666e-03
3.618587274104356766e-03
-1.233915053308010101e-02
8.279873989522457123e-03
3.527970984578132629e-02
1.150032877922058105e-02
3.495949134230613708e-02
-6.372255086898803711e-02
2.086382126435637474e-03
4.320602398365736008e-03
7.456850260496139526e-03
-6.314799189567565918e-03
1.654085330665111542e-02
1.842770871007815003e-04
1.011981908231973648e-02
-1.635910477489233017e-03
4.554825369268655777e-03
8.893819525837898254e-03
-9.574332274496555328e-03
-1.009018719196319580e-02
2.652384107932448387e-03
3.557562129572033882e-03
7.776763290166854858e-03
-1.902970112860202789e-02
1.710592955350875854e-02
2.572368644177913666e-02
-7.814061827957630157e-03
1.914943754673004150e-02
-1.775613985955715179e-02
2.470137551426887512e-02
-3.828301327303051949e-03
-4.085123538970947266e-02
-1.337990909814834595e-02
-3.626618999987840652e-04
-5.420784931629896164e-03
8.600035682320594788e-03
-7.456857711076736450e-03
-5.706132855266332626e-03
-2.371744997799396515e-02
3.134380280971527100e-02
-2.019969373941421509e-02
2.058637328445911407e-02
4.078477795701473951e-04
-3.381396643817424774e-03
3.117747232317924500e-02
2.094448916614055634e-02
2.509753778576850891e-02
-1.160565298050642014e-02
8.866760879755020142e-03
1.021554041653871536e-02
-8.425647392868995667e-03
-1.390299201011657715e-02
2.276452258229255676e-02
1.367097906768321991e-02
-1.702584140002727509e-02
4.948307760059833527e-03
1.568312197923660278e-02
4.091426264494657516e-03
-1.452447031624615192e-04
5.446866527199745178e-02
1.332151517271995544e-02
1.576019637286663055e-02
9.750275872647762299e-03
3.585736732929944992e-03
3.329232707619667053e-02
2.973113907501101494e-03
-2.106796018779277802e-02
7.908966392278671265e-03
-2.457514964044094086e-02
1.176630239933729172e-02
1.092697214335203171e-02
-7.301872596144676208e-03
2.422964759171009064e-02
1.011984702199697495e-02
-1.987430453300476074e-02
-1.520728133618831635e-02
-6.666460633277893066e-02
-6.266634445637464523e-03
-1.528512453660368919e-03
2.026196941733360291e-02
-9.607232175767421722e-03
4.111637547612190247e-02
-8.532600477337837219e-03
1.768911257386207581e-02
7.170404773205518723e-03
-2.001534961163997650e-02
2.489090897142887115e-02
1.561394892632961273e-02
1.692623645067214966e-02
1.491293869912624359e-02
2.327865175902843475e-02
2.401054836809635162e-02
-4.286931827664375305e-03
-3.155465424060821533e-02
3.451045975089073181e-02
2.332860790193080902e-02
-1.083332672715187073e-02
9.777354076504707336e-03
-3.332507237792015076e-02
4.188970196992158890e-03
7.578556891530752182e-03
5.923974514007568359e-02
-1.033789850771427155e-02
5.445601046085357666e-02
-1.496910117566585541e-02
2.975244261324405670e-02
-1.084957085549831390e-02
2.760419063270092010e-02
-1.455963123589754105e-02
7.930219726404175162e-05
-3.429690003395080566e-02
6.185506354086101055e-04
3.496387228369712830e-02
-1.065343432128429413e-02
2.984997257590293884e-02
1.499592978507280350e-02
3.818182274699211121e-02
5.949612334370613098e-02
4.086278378963470459e-03
-1.582159288227558136e-02
-2.285713702440261841e-02
-7.280957419425249100e-03
-8.277376182377338409e-03
-4.503918439149856567e-02
-7.296084892004728317e-03
8.304489892907440662e-04
-1.152898836880922318e-02
5.092704202979803085e-03
-1.056601386517286301e-02
-5.596535746008157730e-03
3.213790059089660645e-02
-1.707016862928867340e-02
1.339234318584203720e-02
6.265626754611730576e-03
5.186833441257476807e-03
6.156811490654945374e-03
1.030071079730987549e-02
1.522596273571252823e-02
7.629789877682924271e-03
-3.530147671699523926e-02
2.461340837180614471e-02
-4.616824444383382797e-03
-1.851054653525352478e-02
8.122693747282028198e-03
1.413015648722648621e-03
-1.272943336516618729e-02
2.107550390064716339e-03
1.746477000415325165e-02
-1.001351326704025269e-02
1.098788436502218246e-02
-4.121988546103239059e-03
2.603342942893505096e-02
8.513019420206546783e-03
-2.343308925628662109e-02
1.029001455754041672e-02
-1.284691598266363144e-02
-1.121865026652812958e-02
-2.144291996955871582e-02
-8.411245420575141907e-03
4.457434173673391342e-03
-1.924886740744113922e-02
6.507921218872070312e-02
-4.701673518866300583e-03
6.713997572660446167e-03
-1.740270666778087616e-02
-8.002100512385368347e-03
-2.499701455235481262e-02
6.769467727281153202e-04
5.903532262891530991e-03
-2.668531797826290131e-02
1.354318298399448395e-02
4.525074362754821777e-02
-2.791122347116470337e-02
-2.477948367595672607e-02
-2.351756207644939423e-02
-3.083038888871669769e-02
-1.143538299947977066e-02
-1.160641550086438656e-03
-1.465384848415851593e-02
1.304485555738210678e-02
-4.607171192765235901e-02
4.852421581745147705e-03
-1.275091152638196945e-02
-7.268192712217569351e-03
-4.594212770462036133e-02
2.615747507661581039e-04
1.397463772445917130e-02
2.467638114467263222e-03
-3.891495242714881897e-02
-5.317967385053634644e-03
-2.158039622008800507e-02
8.603548631072044373e-03
1.006575534120202065e-03
4.072226118296384811e-03
1.075185276567935944e-02
3.365802019834518433e-02
-1.830763649195432663e-03
-1.026177499443292618e-02
-1.907312683761119843e-02
-1.251124590635299683e-02
-1.282957009971141815e-02
1.595681905746459961e-02
-2.795418724417686462e-02
-2.510414272546768188e-02
2.765322336927056313e-03
1.593507453799247742e-02
-2.717500366270542145e-02
1.181376446038484573e-02
3.627446480095386505e-03
-8.966952562332153320e-03
2.720439806580543518e-02
3.311997745186090469e-03
2.359772566705942154e-03
2.699095010757446289e-02
-1.778993010520935059e-02
9.228643961250782013e-03
4.499431233853101730e-03
-1.203718408942222595e-02
-4.645406454801559448e-02
6.665836088359355927e-03
3.381197899580001831e-02
2.450414560735225677e-02
6.756877060979604721e-03
-4.345822334289550781e-02
1.653502136468887329e-02
1.125064771622419357e-02
-7.123486604541540146e-03
-1.563102193176746368e-02
-3.454413637518882751e-02
-2.009639889001846313e-02
5.146258696913719177e-02
-2.719993516802787781e-02
3.528599068522453308e-02
4.217843338847160339e-02
3.061896935105323792e-02
-8.454170078039169312e-03
-2.402782673016190529e-03
2.449883520603179932e-02
2.928946167230606079e-02
5.352010577917098999e-02
-3.842276334762573242e-02
9.614167734980583191e-03
-6.254903227090835571e-02
-5.938626825809478760e-03
-5.087666213512420654e-03
-2.877258695662021637e-02
1.956968009471893311e-02
-2.632625401020050049e-02
-1.275082305073738098e-02
1.610503159463405609e-02
-5.158775299787521362e-02
-1.589281298220157623e-02
-4.766807705163955688e-02
-3.308785706758499146e-02
-1.608164608478546143e-02
-1.481130067259073257e-02
-4.253621678799390793e-03
3.392531536519527435e-03
1.602810807526111603e-02
-7.822501938790082932e-04
-6.656963378190994263e-02
4.606407508254051208e-02
-1.967765763401985168e-02
4.368468653410673141e-03
1.618251204490661621e-02
1.839938387274742126e-02
-1.313881948590278625e-02
-1.153893023729324341e-02
9.709278494119644165e-02
-3.305796906352043152e-02
-1.056898618116974831e-03
-3.488629311323165894e-02
-1.413065847009420395e-02
3.208246454596519470e-02
-4.729889705777168274e-02
-9.560784325003623962e-03
7.601175457239151001e-03
5.621495191007852554e-03
-1.232454646378755569e-02
5.713161453604698181e-02
-2.293008379638195038e-02
-2.566567249596118927e-02
-1.982944831252098083e-02
-1.841215603053569794e-02
-2.387669496238231659e-02
-1.290401164442300797e-02
2.912167226895689964e-03
7.525414228439331055e-03
-1.798565126955509186e-02
-3.973671793937683105e-02
-1.514335046522319317e-03
8.552185259759426117e-03
-1.771793514490127563e-02
4.977428819984197617e-03
3.659875318408012390e-02
-3.889204189181327820e-02
-5.034742876887321472e-02
-7.450197590515017509e-04
1.036584842950105667e-02
-3.935534134507179260e-02
4.219229519367218018e-02
-1.036092638969421387e-02
-1.252382248640060425e-02
1.585877384059131145e-03
1.061086449772119522e-02
2.281644847244024277e-03
1.592398504726588726e-03
1.285250415094196796e-03
-8.055546320974826813e-03
-4.935300908982753754e-03
2.803344046697020531e-03
-1.106376200914382935e-02
2.355664223432540894e-02
1.841328665614128113e-02
2.709966897964477539e-02
1.943134516477584839e-02
-6.148009095340967178e-03
1.806246861815452576e-02
1.652599312365055084e-02
-6.580679211765527725e-03
7.050440181046724319e-03
2.974031725898385048e-03
3.566189855337142944e-02
-1.633637771010398865e-02
-8.487256243824958801e-03
2.704551629722118378e-02
1.378934830427169800e-02
4.371979832649230957e-02
-1.450157375074923038e-03
2.602404728531837463e-02
-3.219858184456825256e-02
-3.394643077626824379e-03
-2.690742723643779755e-03
-1.752642542123794556e-02
-2.687482535839080811e-02
1.203538267873227596e-03
8.230123668909072876e-03
-3.186987480148673058e-03
2.567563764750957489e-02
4.414685815572738647e-02
-3.158518671989440918e-02
-1.563964225351810455e-02
-7.494985591620206833e-03
2.773705497384071350e-02
3.589882701635360718e-02
4.219411686062812805e-02
-2.123628556728363037e-02
5.200827866792678833e-02
2.550559677183628082e-02
5.867074057459831238e-02
7.357783761108294129e-05
8.497337810695171356e-03
1.088960561901330948e-02
-2.383784390985965729e-02
-3.859622776508331299e-02
4.678027238696813583e-03
3.720017895102500916e-02
-2.583926729857921600e-02
3.492998331785202026e-02
-2.219326235353946686e-02
-2.037242427468299866e-02
6.982405669987201691e-03
-9.659543633460998535e-03
-9.255163371562957764e-03
-1.179093815153464675e-04
6.935100071132183075e-03
7.718822918832302094e-03
3.590743988752365112e-02
-3.800478531047701836e-03
-2.708471193909645081e-02
-1.136937364935874939e-02
3.399413451552391052e-02
-1.383757777512073517e-02
6.389144808053970337e-03
1.927341800183057785e-03
-1.733463071286678314e-02
-3.047399967908859253e-02
2.312353067100048065e-02
-2.889472804963588715e-02
2.704832144081592560e-02
1.414764020591974258e-02
-8.499247953295707703e-03
-1.349062379449605942e-02
-1.554846391081809998e-02
1.979666296392679214e-03
-1.374957989901304245e-02
1.372434291988611221e-02
-1.252304669469594955e-02
3.286632522940635681e-02
3.675845637917518616e-02
1.809039711952209473e-02
-2.560008689761161804e-02
-2.015748247504234314e-02
6.227972451597452164e-03
2.170191146433353424e-02
5.725869443267583847e-03
3.347615152597427368e-02
1.038176286965608597e-02
-8.193688699975609779e-04
6.382914725691080093e-03
2.174853580072522163e-03
1.215759478509426117e-02
-2.011692896485328674e-02
8.093897253274917603e-03
2.981815114617347717e-02
4.961802158504724503e-03
4.226634919177740812e-04
-1.473504491150379181e-02
-1.770982705056667328e-02
2.692157402634620667e-02
2.956517739221453667e-03
5.408572498708963394e-03
-1.091861445456743240e-02
-7.992186583578586578e-03
-1.198622118681669235e-02
-3.747024759650230408e-02
-1.858877204358577728e-02
-5.460344627499580383e-02
8.287718519568443298e-04
1.979175023734569550e-02
-4.424578044563531876e-03
-3.909621760249137878e-02
1.604296825826168060e-02
-4.031193628907203674e-02
-2.010662719840183854e-04
4.460140690207481384e-02
-1.507106237113475800e-02
-2.765758335590362549e-02
5.677303671836853027e-02
-6.804071017540991306e-05
-3.287623869255185127e-03
-3.256535390391945839e-03
1.053003687411546707e-02
5.091009195894002914e-03
-2.489885687828063965e-02
-1.595713198184967041e-02
2.640928700566291809e-02
-7.289754226803779602e-03
5.860739387571811676e-03
2.587556280195713043e-02
4.056081548333168030e-02
-2.299934159964323044e-03
-3.469479829072952271e-02
3.340654447674751282e-02
3.871007636189460754e-02
5.794964265078306198e-03
-5.703795468434691429e-04
9.213827550411224365e-03
3.960295021533966064e-02
3.260906785726547241e-02
-7.621609419584274292e-02
1.203975360840559006e-02
-3.391979634761810303e-02
-2.615149831399321556e-03
9.116333909332752228e-03
-2.473436295986175537e-02
3.000688739120960236e-02
-1.144132576882839203e-02
2.666996419429779053e-02
2.185028232634067535e-02
1.226901914924383163e-02
3.008637391030788422e-02
-5.940981674939393997e-03
2.602638117969036102e-02
-5.769019015133380890e-03
4.653256386518478394e-02
-1.521556265652179718e-02
6.220502313226461411e-03
7.435728795826435089e-03
-1.633048988878726959e-02
-4.293619189411401749e-03
-1.518388744443655014e-03
1.953868940472602844e-02
-7.946426980197429657e-03
6.025461480021476746e-02
1.809852756559848785e-02
-8.930432610213756561e-03
-1.937030698172748089e-03
1.423720084130764008e-02
2.473969478160142899e-03
5.168124102056026459e-03
5.201773252338171005e-03
4.801383707672357559e-03
1.573104970157146454e-02
2.840478718280792236e-02
2.011942863464355469e-02
-3.800723329186439514e-02
5.930577963590621948e-02
3.575749695301055908e-02
-5.759734194725751877e-03
-1.630478724837303162e-02
2.966913580894470215e-02
-3.722214698791503906e-02
-7.212959695607423782e-03
-1.955483807250857353e-03
4.169124586042016745e-04
-2.685032226145267487e-02
-8.591511868871748447e-04
1.078831125050783157e-02
5.218294449150562286e-03
1.631364598870277405e-02
4.403866454958915710e-02
1.268530357629060745e-02
6.517729256302118301e-03
8.353885263204574585e-03
-1.462618540972471237e-02
1.783088967204093933e-02
1.263866294175386429e-02
-3.299173666164278984e-03
-1.016442663967609406e-02
-1.463277079164981842e-02
1.456357911229133606e-02
-1.640603691339492798e-02
-2.740026265382766724e-02
-2.044555358588695526e-02
3.792236559092998505e-03
5.663475394248962402e-02
2.641726052388548851e-03
5.107428412884473801e-03
3.964221850037574768e-02
-4.783547017723321915e-03
-1.610728539526462555e-02
-7.603301666676998138e-03
2.347063273191452026e-02
-2.554298005998134613e-02
2.341195195913314819e-02
7.700802292674779892e-03
-3.270758315920829773e-02
3.979335539042949677e-03
-1.741488277912139893e-02
-1.631057821214199066e-02
4.628229513764381409e-02
-6.577515508979558945e-03
5.851315334439277649e-03
-3.093363018706440926e-03
8.594844490289688110e-03
-6.750517524778842926e-03
-1.303524430841207504e-02
4.742442071437835693e-02
-8.567631448386237025e-05
-1.598511706106364727e-03
-3.529433533549308777e-02
3.814492607489228249e-03
-2.687134407460689545e-02
8.952359668910503387e-03
-1.537734549492597580e-02
-1.336935628205537796e-02
-9.588367305696010590e-03
1.701223105192184448e-02
-2.645022980868816376e-02
-1.421510824002325535e-03
-2.725035301409661770e-04
2.273289114236831665e-02
-1.738271093927323818e-03
8.581133559346199036e-03
-9.717900305986404419e-03
-4.704698920249938965e-02
-5.671161925420165062e-04
-2.599575743079185486e-02
-2.958742715418338776e-02
-1.564391329884529114e-02
-9.181784465909004211e-03
9.556666947901248932e-03
8.661711588501930237e-03
-1.746722869575023651e-02
-1.760600320994853973e-02
-1.610050909221172333e-02
-1.939889229834079742e-02
-3.998906165361404419e-02
-3.123674541711807251e-02
1.523983571678400040e-02
-1.212651096284389496e-02
-2.670788671821355820e-03
1.286486815661191940e-02
-7.354438770562410355e-03
-1.706237904727458954e-03
2.170332148671150208e-02
1.331525109708309174e-02
1.058949995785951614e-02
4.791516344994306564e-03
1.603095047175884247e-02
-1.909973286092281342e-02
-2.863461617380380630e-03
1.632025116123259068e-03
-4.652591794729232788e-02
-1.067477930337190628e-02
1.517615653574466705e-02
-2.167537249624729156e-02
5.084514990448951721e-02
6.022769026458263397e-03
-1.222699414938688278e-02
1.109900046139955521e-02
1.229060627520084381e-02
-1.232631388120353222e-03
7.920495234429836273e-03
-1.501145120710134506e-02
2.903264388442039490e-02
-3.266222774982452393e-02
-5.878095515072345734e-03
-4.388081841170787811e-03
-8.887610398232936859e-03
6.837186403572559357e-03
2.290312433615326881e-03
-3.028396703302860260e-02
2.699452918022871017e-03
2.922447770833969116e-02
-2.429128810763359070e-02
-3.441354632377624512e-02
6.196929607540369034e-03
2.004973217844963074e-02
2.692876756191253662e-02
-1.132549066096544266e-02
2.889261022210121155e-02
9.479643404483795166e-02
-4.218158870935440063e-02
-3.373620333150029182e-03
-5.733182653784751892e-03
-9.190839715301990509e-03
1.063842209987342358e-03
2.542499452829360962e-02
-3.038867190480232239e-02
8.001951500773429871e-03
-1.309814746491611004e-03
-3.102960251271724701e-02
2.313485136255621910e-03
3.765299916267395020e-02
-3.048828430473804474e-02
4.320755600929260254e-03
1.533637102693319321e-02
1.196882724761962891e-01
3.357465565204620361e-02
-9.224492125213146210e-03
-1.436583977192640305e-02
2.741966582834720612e-02
-2.057760581374168396e-02
1.757297292351722717e-02
-2.295656688511371613e-02
2.452805824577808380e-02
4.733412060886621475e-03
1.298261154443025589e-02
-1.016705390065908432e-02
-3.192569687962532043e-02
-2.871078066527843475e-02
8.625491522252559662e-03
3.088770993053913116e-02
2.711561741307377815e-03
-1.130084227770566940e-02
-7.329439278692007065e-03
-1.440437324345111847e-02
-1.318703591823577881e-02
-1.161068957298994064e-02
7.979443296790122986e-03
2.941796369850635529e-02
2.728675119578838348e-02
-1.480027101933956146e-03
2.335543371737003326e-02
-3.391895443201065063e-02
-3.278804570436477661e-02
6.503787636756896973e-02
-1.062478125095367432e-02
-1.456936914473772049e-02
5.663758609443902969e-03
-2.873340621590614319e-02
2.262398041784763336e-02
1.850976608693599701e-02
1.487272419035434723e-02
3.613440319895744324e-02
5.931742489337921143e-04
2.188836596906185150e-02
-1.765532232820987701e-02
1.624417118728160858e-02
-3.260968253016471863e-02
-1.069778855890035629e-02
8.435060590272769332e-05
3.265112405642867088e-03
-3.206170722842216492e-02
2.589515037834644318e-02
1.096688024699687958e-02
-1.443570293486118317e-02
8.419036865234375000e-02
-4.372744355350732803e-03
-2.960204146802425385e-02
1.156567968428134918e-02
8.644589036703109741e-02
-9.584526997059583664e-04
-1.092689018696546555e-02
-1.974631287157535553e-02
-1.482962816953659058e-02
-2.883574739098548889e-02
3.365363460034132004e-03
-1.267690677195787430e-02
-2.638733480125665665e-03
-1.619856245815753937e-02
-2.921492606401443481e-02
-6.225213408470153809e-03
-1.778214354999363422e-03
-1.735747419297695160e-02
-2.243426442146301270e-02
8.444380015134811401e-03
-5.687401071190834045e-02
-3.334119915962219238e-02
1.739348098635673523e-02
-1.345409825444221497e-02
-6.045460700988769531e-03
-5.376808810979127884e-03
-5.412537232041358948e-02
3.657646849751472473e-02
-2.937173843383789062e-02
-1.532174833118915558e-02
-8.286144002340734005e-04
-2.685546875000000000e-02
2.193954400718212128e-02
-3.141092881560325623e-02
-1.310736406594514847e-03
3.617676440626382828e-03
-4.861481860280036926e-02
3.840320277959108353e-03
1.916857319884002209e-03
-3.210197016596794128e-02
-2.413155976682901382e-03
-4.183671437203884125e-03
-2.738253585994243622e-02
1.058009825646877289e-02
1.241134665906429291e-02
1.439906749874353409e-02
4.724830761551856995e-02
-6.825836841017007828e-03
7.797064608894288540e-04
-6.668207701295614243e-03
1.286921469727531075e-04
6.051642354577779770e-03
3.646917641162872314e-02
1.025410275906324387e-02
3.337810048833489418e-03
1.525788940489292145e-02
-4.159466177225112915e-02
-2.872968278825283051e-02
-1.546413637697696686e-02
2.794102206826210022e-02
-3.764826059341430664e-02
1.814361102879047394e-02
4.886672273278236389e-02
1.442684046924114227e-02
-2.203945629298686981e-02
4.289076197892427444e-03
7.459462620317935944e-03
1.020797807723283768e-02
-1.820919476449489594e-02
-2.048691175878047943e-02
5.556158255785703659e-03
-1.764802262187004089e-02
-6.479342002421617508e-03
-3.455837443470954895e-02
4.075242206454277039e-03
-2.274226024746894836e-02
8.778591640293598175e-03
-2.622780762612819672e-02
8.760122209787368774e-02
7.921184413135051727e-03
-2.187740989029407501e-02
-2.199931256473064423e-02
-9.032766683958470821e-04
-1.143858861178159714e-02
2.681148983538150787e-02
-4.745481070131063461e-03
-9.215423837304115295e-03
1.585809141397476196e-02
4.078138619661331177e-02
-3.724209219217300415e-02
6.725551560521125793e-03
-1.179151795804500580e-02
-5.439421162009239197e-03
4.870549961924552917e-02
3.738448768854141235e-02
1.471804338507354259e-03
-2.302167005836963654e-02
-3.055836260318756104e-02
1.345326425507664680e-03
-3.470985591411590576e-02
-1.821532100439071655e-02
2.891073003411293030e-02
9.480184875428676605e-03
-2.105077728629112244e-02
-3.636711463332176208e-02
-9.272266179323196411e-04
-7.226504385471343994e-05
-1.182186417281627655e-02
-4.184549208730459213e-03
-1.434962358325719833e-02
1.667212508618831635e-02
-3.509124368429183960e-02
-6.827993318438529968e-03
-2.113841660320758820e-02
-2.926179440692067146e-03
-1.222706213593482971e-02
-3.150561079382896423e-02
-3.848702181130647659e-03
-1.341988891363143921e-02
1.104443892836570740e-02
4.432990681380033493e-03
3.917956724762916565e-03
5.511040240526199341e-02
-7.060574833303689957e-03
9.124691132456064224e-04
1.828738860785961151e-02
-1.388956978917121887e-02
-2.966375835239887238e-02
-3.478778526186943054e-02
2.008995413780212402e-02
-9.140870533883571625e-03
-5.561505910009145737e-03
5.041827633976936340e-02
1.500251796096563339e-02
9.531714022159576416e-03
-2.529696188867092133e-02
9.200224652886390686e-03
-1.160248275846242905e-02
-4.539293050765991211e-02
-2.953599579632282257e-02
-3.034012392163276672e-03
1.772489122231490910e-05
-1.867322064936161041e-02
3.122350573539733887e-02
-2.734225057065486908e-02
-2.518594264984130859e-03
-3.047273494303226471e-02
-4.580951295793056488e-03
-2.975358255207538605e-02
-6.012928788550198078e-04
-2.955147437751293182e-02
1.078029349446296692e-02
9.013785980641841888e-03
-5.845182575285434723e-03
-3.787785023450851440e-02
-8.935050573199987411e-04
-3.647678717970848083e-02
-9.300584904849529266e-03
5.497008678503334522e-04
-1.078127697110176086e-02
1.329076290130615234e-02
9.870695648714900017e-04
-1.899167522788047791e-02
2.463362924754619598e-02
3.481448162347078323e-03
-1.160771306604146957e-02
-6.106785498559474945e-03
-6.109504029154777527e-03
-2.788398228585720062e-02
-2.144637331366539001e-02
-3.374935360625386238e-03
-5.101440008729696274e-03
-1.854211208410561085e-03
-2.095657959580421448e-02
7.485997863113880157e-03
-7.715645711869001389e-03
1.202353090047836304e-02
4.501376301050186157e-03
-2.343178028240799904e-03
3.087572380900382996e-02
2.327759005129337311e-02
3.553794813342392445e-04
9.721501730382442474e-03
-5.137563683092594147e-03
-9.773345664143562317e-03
-2.564360573887825012e-02
-4.734444618225097656e-02
1.247198879718780518e-02
-2.679042518138885498e-03
7.614919915795326233e-03
2.036749012768268585e-02
-7.191161625087261200e-03
-4.848804092034697533e-04
-1.449471618980169296e-02
-2.195753157138824463e-02
-1.414738874882459641e-02
3.899334697052836418e-03
4.102203249931335449e-02
-1.427338551729917526e-02
-5.360568407922983170e-03
-1.914682332426309586e-03
-4.826577060157433152e-05
-6.050575058907270432e-03
1.262548286467790604e-02
4.628186114132404327e-03
3.000106895342469215e-03
-4.701250698417425156e-03
8.692237315699458122e-04
1.103468984365463257e-02
1.146038435399532318e-02
-1.803769543766975403e-02
-1.002762559801340103e-02
1.331254653632640839e-02
-3.031426109373569489e-02
1.257537049241364002e-03
5.894686328247189522e-04
-1.520434580743312836e-02
1.490619033575057983e-02
-1.273118890821933746e-02
1.591977477073669434e-02
-2.257604338228702545e-02
-2.448949590325355530e-02
-2.166753448545932770e-02
1.683007925748825073e-02
-1.566246151924133301e-03
-1.342213712632656097e-02
1.074971910566091537e-02
-1.689225807785987854e-02
2.172585576772689819e-02
-1.188670471310615540e-02
1.083546131849288940e-02
-5.266735795885324478e-03
2.708525629714131355e-03
1.421183906495571136e-02
5.036706104874610901e-03
-3.347017103806138039e-03
-4.950000904500484467e-03
2.447480708360671997e-02
-1.255039684474468231e-02
-1.837120763957500458e-02
-7.444188464432954788e-03
1.543740835040807724e-02
-6.500703748315572739e-03
2.646538196131587029e-03
-8.926694281399250031e-03
2.015047473832964897e-03
1.575609296560287476e-02
1.916773617267608643e-02
1.533770700916647911e-03
-1.378855574876070023e-02
-1.537735108286142349e-02
-1.425019185990095139e-02
2.838575653731822968e-02
2.809639088809490204e-02
2.194193378090858459e-02
-1.985887996852397919e-02
-3.559699514880776405e-03
-1.306352298706769943e-02
8.365109562873840332e-03
-2.076011337339878082e-02
-2.017749473452568054e-02
-1.628725603222846985e-02
-2.091571222990751266e-03
9.125312790274620056e-03
-3.702665120363235474e-02
2.347884885966777802e-02
-9.165484458208084106e-03
5.369875580072402954e-03
-1.286560203880071640e-02
2.241567941382527351e-03
2.128598745912313461e-03
-1.119016483426094055e-02
-2.383466996252536774e-02
-3.196153789758682251e-03
-1.835092715919017792e-02
2.449247054755687714e-02
-9.207868017256259918e-03
-5.946441553533077240e-03
-6.286791525781154633e-03
-3.473675996065139771e-02
5.274638067930936813e-03
-1.470596250146627426e-02
2.323445677757263184e-02
1.358800381422042847e-02
-1.251274626702070236e-02
-4.675723612308502197e-03
-1.606640592217445374e-02
-1.563335023820400238e-02
1.572763361036777496e-02
1.380902994424104691e-02
1.476612687110900879e-02
6.918633356690406799e-03
1.119913253933191299e-02
3.314935136586427689e-03
-2.442976459860801697e-02
3.175697289407253265e-03
3.218064783141016960e-03
-6.459735333919525146e-03
-4.616481252014636993e-03
3.325797384604811668e-03
1.541213970631361008e-02
5.130294710397720337e-03
-4.206976387649774551e-03
5.073367618024349213e-03
-9.045783430337905884e-03
6.744215264916419983e-03
2.856551110744476318e-02
-2.231661695986986160e-03
-1.256554853171110153e-03
1.570769771933555603e-02
-1.540114171802997589e-02
-2.518237754702568054e-02
2.408976666629314423e-02
-1.379194576293230057e-02
-1.330073084682226181e-02
-3.544792765751481056e-03
-7.806905545294284821e-03
2.306816400960087776e-03
-1.403772085905075073e-02
2.129576727747917175e-02
-7.012649439275264740e-03
-1.831214129924774170e-02
-2.447055652737617493e-02
4.932765383273363113e-03
-1.021851133555173874e-02
2.816238813102245331e-02
-2.367807924747467041e-02
-3.064414486289024353e-02
-1.365015195915475488e-04
4.419791046530008316e-03
-1.105384808033704758e-02
1.603183569386601448e-03
4.246261902153491974e-03
8.083989843726158142e-03
-2.105009276419878006e-03
-2.431339956820011139e-02
4.142839461565017700e-03
3.590428736060857773e-03
-3.739268751814961433e-03
-2.271681278944015503e-02
7.481220643967390060e-03
-5.769427865743637085e-03
-4.130946937948465347e-03
-1.127881370484828949e-02
-2.223690040409564972e-02
2.431888878345489502e-02
-1.563212089240550995e-02
2.003030665218830109e-02
-1.561313122510910034e-02
-1.677088439464569092e-03
-1.583116687834262848e-02
1.322047412395477295e-02
-8.358928374946117401e-03
-3.024188801646232605e-03
-6.246371660381555557e-03
-1.189745590090751648e-02
-1.356948167085647583e-02
-9.167375974357128143e-03
-9.564671665430068970e-03
-5.282975689624436200e-05
2.528968453407287598e-02
1.518912706524133682e-02
1.615567319095134735e-02
-7.736473344266414642e-03
2.827154530677944422e-04
-1.046593394130468369e-02
4.918159451335668564e-03
9.143095812760293484e-04
-3.943108487874269485e-03
-7.694054860621690750e-03
-1.104293577373027802e-02
8.847720921039581299e-03
-1.898465212434530258e-03
-1.714403741061687469e-02
2.102219965308904648e-03
1.007713563740253448e-02
-8.653939701616764069e-03
-1.302909199148416519e-02
-1.467601116746664047e-02
-1.710180565714836121e-02
3.974698949605226517e-03
1.539407577365636826e-02
1.214751787483692169e-02
-1.476120483130216599e-02
-1.393307000398635864e-02
-2.440289780497550964e-02
1.384126022458076477e-02
-2.128333225846290588e-02
-9.458650834858417511e-03
4.300422966480255127e-03
-2.174469456076622009e-02
6.660718005150556564e-03
-3.555860742926597595e-02
1.456945482641458511e-02
-1.146909873932600021e-02
5.119424778968095779e-03
-2.566916681826114655e-02
-3.664971329271793365e-03
-3.390314988791942596e-03
-1.366250449791550636e-03
-2.119349548593163490e-03
3.708943491801619530e-03
1.195222698152065277e-02
1.570580527186393738e-02
-1.794027350842952728e-02
2.872374095022678375e-02
-1.484756544232368469e-02
-2.709798980504274368e-03
4.970628768205642700e-03
3.451313590630888939e-03
6.600026041269302368e-03
-4.932652227580547333e-03
-9.698183275759220123e-03
-1.888982206583023071e-02
1.683815382421016693e-02
-2.390772104263305664e-02
-8.839000016450881958e-03
5.567410495132207870e-03
4.978256765753030777e-03
4.801986739039421082e-03
2.392217144370079041e-02
4.186861682683229446e-03
-1.031075883656740189e-02
2.346209483221173286e-03
9.191684657707810402e-04
-3.349085105583071709e-03
2.007927186787128448e-02
-1.486008986830711365e-02
2.739892527461051941e-02
-1.144659705460071564e-02
1.189721096307039261e-02
2.365759341046214104e-03
-5.403909366577863693e-03
-1.864668913185596466e-02
1.852729939855635166e-03
-1.428153552114963531e-02
-1.247801631689071655e-02
-5.548104178160429001e-03
-2.737853489816188812e-02
-2.104289643466472626e-02
-2.284842310473322868e-03
5.007551517337560654e-03
-1.612030528485774994e-02
-5.404125899076461792e-03
1.569699309766292572e-02
-3.142719622701406479e-03
-1.484967116266489029e-02
-2.317217877134680748e-03
1.424604910425841808e-03
-7.828489877283573151e-03
-8.769351989030838013e-03
2.693124581128358841e-03
1.157212071120738983e-03
6.270331796258687973e-03
-1.153186056762933731e-02
-1.932805404067039490e-02
1.166857685893774033e-02
1.695645786821842194e-02
1.405708771198987961e-02
-1.201550383120775223e-02
-1.480643078684806824e-02
-1.225683093070983887e-02
-2.214974025264382362e-03
3.829925553873181343e-03
-6.037695799022912979e-03
-7.528938353061676025e-03
-2.657925942912697792e-03
-1.648036763072013855e-02
9.363310411572456360e-03
-1.648787874728441238e-03
-1.861895550973713398e-03
-4.857175983488559723e-03
-2.347704209387302399e-02
1.960420981049537659e-02
-2.020054683089256287e-02
2.998434752225875854e-02
-2.142199501395225525e-02
-2.975635044276714325e-02
-1.793909235857427120e-03
2.325899666175246239e-03
-5.781426094472408295e-03
1.232702285051345825e-02
1.147030293941497803e-02
-3.366622840985655785e-03
-2.000774256885051727e-03
9.393613785505294800e-03
-1.054086815565824509e-02
1.493798289448022842e-02
1.294501824304461479e-03
6.555278785526752472e-03
7.815440185368061066e-03
-2.482975833117961884e-03
3.974232356995344162e-03
-1.765315304510295391e-03
1.474285218864679337e-02
-1.212600897997617722e-02
-5.009870976209640503e-03
2.719663549214601517e-03
-2.755990484729409218e-03
2.125879377126693726e-02
-1.245046686381101608e-02
-1.012054271996021271e-02
1.194718014448881149e-02
1.232787314802408218e-02
5.814182222820818424e-04
-1.097101252526044846e-03
-1.464029867202043533e-02
8.814146742224693298e-03
1.433867588639259338e-02
1.452680863440036774e-02
3.348216414451599121e-02
-8.512035012245178223e-03
-9.669561870396137238e-03
-3.056504949927330017e-02
3.179818764328956604e-02
-3.429976478219032288e-02
-1.903144828975200653e-02
-7.685968186706304550e-03
-3.113408107310533524e-03
1.028953469358384609e-03
-1.577632315456867218e-02
1.012745033949613571e-02
-4.522467963397502899e-03
6.957535631954669952e-03
-2.070957981050014496e-02
8.950815536081790924e-03
-1.158626005053520203e-02
2.659519203007221222e-03
-1.538541167974472046e-03
1.922925352118909359e-03
1.294682081788778305e-02
-8.687455207109451294e-03
-1.077392604202032089e-02
8.884681388735771179e-03
-3.520732279866933823e-03
1.225177105516195297e-02
-2.517880313098430634e-02
-4.518396686762571335e-03
-8.029021322727203369e-03
1.956547982990741730e-02
-2.159762429073452950e-03
-3.591010681702755392e-05
-2.772867213934659958e-03
-1.600625738501548767e-02
1.633558049798011780e-02
1.325825881212949753e-02
-1.360097713768482208e-02
9.522230247966945171e-04
7.076086942106485367e-03
3.274166258051991463e-03
-1.877023372799158096e-03
-3.092579310759902000e-03
-4.396803677082061768e-03
-1.331923715770244598e-02
-4.234884399920701981e-03
1.874032616615295410e-02
2.073456346988677979e-02
5.081147886812686920e-03
1.424395944923162460e-02
-3.109542885795235634e-03
-7.521403487771749496e-03
7.839043624699115753e-03
2.200022427132353187e-04
-7.071264553815126419e-03
-1.859342912212014198e-03
3.384078620001673698e-03
-1.281972322613000870e-02
-1.911832019686698914e-03
-6.847291719168424606e-03
9.459438733756542206e-04
-2.127943001687526703e-02
-2.290540561079978943e-02
-9.281679987907409668e-03
-2.659443579614162445e-02
7.003232836723327637e-03
-2.495298348367214203e-02
-4.271531943231821060e-03
-4.498684033751487732e-02
6.262239534407854080e-03
-1.239060331135988235e-02
-6.247440818697214127e-03
1.576460339128971100e-02
1.530199311673641205e-03
4.235258698463439941e-02
1.867806073278188705e-03
-4.331430047750473022e-02
1.091661769896745682e-02
-1.352071412838995457e-03
-1.894177868962287903e-02
-1.634627580642700195e-03
-6.518672220408916473e-03
4.226563498377799988e-02
3.311129286885261536e-02
1.112457364797592163e-02
-1.654520817101001740e-02
-2.529808133840560913e-02
1.796657103113830090e-03
-4.314906895160675049e-03
7.979489862918853760e-03
5.305356811732053757e-03
2.213093265891075134e-02
-1.018690224736928940e-02
-5.407094024121761322e-03
-2.718031592667102814e-02
-6.104803644120693207e-03
-1.145056635141372681e-02
-6.210163235664367676e-03
3.853847505524754524e-03
-1.615755632519721985e-02
-3.572131320834159851e-02
-2.951280027627944946e-02
-2.576659061014652252e-02
1.291162520647048950e-02
6.759027950465679169e-03
-3.901419416069984436e-02
6.720453966408967972e-03
1.039600092917680740e-02
-6.435887888073921204e-03
2.843431755900382996e-02
8.896429091691970825e-03
-2.011907286942005157e-02
4.519924521446228027e-03
-2.538639493286609650e-02
-6.000974215567111969e-03
5.130091682076454163e-03
9.738742373883724213e-03
-2.339387312531471252e-03
-4.747009277343750000e-02
-1.112784259021282196e-02
4.182454571127891541e-02
1.316872797906398773e-02
8.185830898582935333e-03
-2.970810979604721069e-03
-2.072698436677455902e-02
-2.838032878935337067e-02
-3.833739459514617920e-02
-8.554523810744285583e-03
9.702471084892749786e-03
1.883909106254577637e-02
2.100074104964733124e-02
3.952933475375175476e-03
-2.279142849147319794e-02
-5.940233170986175537e-02
1.295438501983880997e-02
-1.037174183875322342e-02
-2.726768329739570618e-02
1.792438328266143799e-02
-1.463751541450619698e-03
5.581880453974008560e-03
-3.000427223742008209e-02
-2.086601406335830688e-02
1.734116859734058380e-02
4.004526510834693909e-02
1.566107571125030518e-02
3.058344312012195587e-02
1.480948645621538162e-03
-5.894393846392631531e-02
-2.364456094801425934e-02
-1.625970192253589630e-02
9.080762043595314026e-03
-7.381117437034845352e-03
-2.141126058995723724e-02
-3.071359591558575630e-03
-3.372580185532569885e-02
-1.087365206331014633e-02
-2.144779078662395477e-03
1.785813271999359131e-02
1.171865127980709076e-02
-1.302474737167358398e-02
-4.455239977687597275e-03
4.251925740391016006e-03
1.285104517592117190e-04
-2.488121017813682556e-02
-1.121557783335447311e-02
-2.222839556634426117e-02
4.266288597136735916e-03
-1.900446042418479919e-02
-2.509519085288047791e-02
2.513199811801314354e-03
2.243568189442157745e-02
9.921735152602195740e-03
-4.286152124404907227e-02
-3.834081068634986877e-02
-1.280286465771496296e-03
4.686269443482160568e-03
5.137081816792488098e-02
-2.325120940804481506e-02
7.363385986536741257e-03
1.879940368235111237e-02
1.964052394032478333e-02
1.692232303321361542e-02
3.072916530072689056e-03
3.433918207883834839e-02
3.044941835105419159e-02
4.130445886403322220e-03
2.075033029541373253e-03
5.118642002344131470e-02
-7.090142928063869476e-03
4.870211333036422729e-02
-1.758654788136482239e-02
-3.135888651013374329e-02
-5.735890474170446396e-03
-9.124609641730785370e-04
2.898794226348400116e-02
7.054771762341260910e-03
-6.804942619055509567e-03
3.991299308836460114e-03
4.989014938473701477e-03
2.135368995368480682e-02
1.583252847194671631e-02
1.021055225282907486e-02
2.105181105434894562e-02
3.160358592867851257e-02
-3.284277394413948059e-02
7.687889039516448975e-03
-1.623501069843769073e-02
-2.166303806006908417e-02
-1.406020298600196838e-02
2.675306168384850025e-04
-1.631766557693481445e-02
3.183467686176300049e-02
4.997778218239545822e-03
1.566085033118724823e-02
-2.244045771658420563e-02
-1.549323834478855133e-02
-7.474988698959350586e-03
6.851017475128173828e-03
1.516173593699932098e-03
1.160382851958274841e-02
-5.831309128552675247e-03
-1.458055246621370316e-02
-2.917109429836273193e-02
1.231610774993896484e-02
1.154825184494256973e-02
-1.236666832119226456e-02
4.209645092487335205e-03
9.459448978304862976e-03
-1.192496623843908310e-02
-3.750034421682357788e-02
-1.089571136981248856e-02
-1.001193188130855560e-02
6.808192003518342972e-03
-3.614617884159088135e-02
2.568696066737174988e-02
2.289647050201892853e-02
-2.634662203490734100e-03
3.080215677618980408e-02
-2.420586720108985901e-02
8.657323196530342102e-03
-1.243254356086254120e-02
-6.354222074151039124e-03
-1.074914447963237762e-02
1.946752704679965973e-02
5.037209019064903259e-03
1.540459413081407547e-02
-2.404896542429924011e-02
1.276178564876317978e-02
4.584477096796035767e-02
-2.328476123511791229e-02
6.921633612364530563e-03
-4.905659705400466919e-02
-9.406019933521747589e-03
-2.653159201145172119e-02
4.082501400262117386e-03
-2.731486037373542786e-02
5.563977640122175217e-03
-1.215070602484047413e-03
2.937558852136135101e-02
-1.138978172093629837e-02
-1.020356212393380702e-04
-2.169656381011009216e-02
4.946159198880195618e-03
3.446390852332115173e-03
-9.830051101744174957e-03
-6.371696945279836655e-03
-5.002852063626050949e-03
7.325665792450308800e-04
-4.326241090893745422e-02
-2.175456285476684570e-02
3.447836264967918396e-03
1.955660805106163025e-02
1.474216487258672714e-02
1.741627603769302368e-02
1.040518004447221756e-02
-1.449782308191061020e-02
-3.208144567906856537e-03
-5.821546539664268494e-03
-8.563599549233913422e-03
-1.365121803246438503e-03
3.316659852862358093e-02
1.482955180108547211e-03
-1.238159276545047760e-02
1.223150547593832016e-02
3.477553278207778931e-02
-1.062699477188289165e-03
2.949441550299525261e-03
-1.685789041221141815e-02
-1.298389770090579987e-02
2.464350312948226929e-02
-1.168304309248924255e-02
-2.193246036767959595e-02
-1.789527386426925659e-02
5.638866219669580460e-03
1.630548969842493534e-03
-8.372378069907426834e-04
-1.398951280862092972e-02
-2.905174857005476952e-03
9.360210970044136047e-03
-9.028330445289611816e-03
-7.160859648138284683e-03
3.183937817811965942e-02
-1.189423538744449615e-02
1.135408692061901093e-02
1.797946169972419739e-02
-1.484720967710018158e-02
-7.186710136011242867e-04
1.637260615825653076e-02
-2.068500034511089325e-03
-7.336067035794258118e-03
-8.610882796347141266e-03
-7.141997106373310089e-03
1.193521893583238125e-03
1.918492466211318970e-02
1.789134740829467773e-02
1.616449095308780670e-02
-3.770974697545170784e-03
1.527623739093542099e-02
-6.190596148371696472e-03
-1.801137253642082214e-02
3.942493814975023270e-03
-6.776165217161178589e-03
-1.121719554066658020e-02
1.651636883616447449e-02
-1.285293139517307281e-02
8.131095208227634430e-03
1.398543640971183777e-02
7.977263070642948151e-03
-1.056343317031860352e-02
1.440211292356252670e-02
2.075051888823509216e-02
4.745494574308395386e-03
1.843909267336130142e-03
3.882851824164390564e-02
-2.577801793813705444e-02
-2.892039902508258820e-02
9.660196490585803986e-03
1.611135900020599365e-02
9.853049414232373238e-04
1.660355599597096443e-03
1.635874807834625244e-02
-2.829450648277997971e-03
-1.761723682284355164e-02
-1.466498337686061859e-02
1.239871699362993240e-02
-6.731792353093624115e-03
-5.939458962529897690e-03
2.679290436208248138e-02
-1.802495680749416351e-02
2.224515378475189209e-02
-3.129884228110313416e-02
2.089748159050941467e-02
-1.035672146826982498e-03
2.878072112798690796e-02
-4.933689720928668976e-03
-2.777259796857833862e-03
3.065512981265783310e-03
-1.190586760640144348e-02
-1.264588627964258194e-02
-1.014230493456125259e-02
1.280957274138927460e-02
-2.300005778670310974e-02
3.098910674452781677e-02
2.606684714555740356e-02
9.670591913163661957e-03
-2.024091221392154694e-02
-4.936633631587028503e-03
-5.133830010890960693e-03
-3.259421512484550476e-02
1.514153461903333664e-02
2.045898512005805969e-02
2.270508185029029846e-02
1.338355825282633305e-03
-2.263628179207444191e-03
-9.351295884698629379e-04
2.284826897084712982e-02
-1.884697936475276947e-02
-2.582583576440811157e-02
-6.057399325072765350e-03
-2.375939302146434784e-02
4.261747933924198151e-03
1.406257785856723785e-02
-2.996495226398110390e-03
-3.518718481063842773e-02
-1.051528099924325943e-02
1.539407949894666672e-02
1.318459957838058472e-02
-7.714673411101102829e-04
-1.005299389362335205e-02
-2.748867264017462730e-03
7.605076534673571587e-04
-7.098967209458351135e-03
9.364998899400234222e-03
-1.632587239146232605e-02
-1.632984541356563568e-02
4.116910696029663086e-02
-4.709604009985923767e-02
-2.421100251376628876e-02
-4.949559923261404037e-03
1.296912785619497299e-02
-2.048413082957267761e-02
2.469423040747642517e-02
1.292127463966608047e-02
-1.000359375029802322e-02
7.575532421469688416e-03
1.238230033777654171e-04
-3.141735121607780457e-02
-6.598340813070535660e-03
4.818922653794288635e-02
3.185908542945981026e-03
3.556647524237632751e-02
-3.076490759849548340e-02
2.272620052099227905e-02
-2.610738947987556458e-02
3.788344562053680420e-03
-6.658111233264207840e-03
-2.446036413311958313e-02
-8.951590396463871002e-03
-1.037552673369646072e-02
-1.768292859196662903e-02
-2.055905573070049286e-02
-2.448126487433910370e-02
-8.585602045059204102e-03
-1.564370654523372650e-02
-2.188744582235813141e-02
-3.810657653957605362e-03
-1.675190590322017670e-02
2.999747171998023987e-03
2.562266401946544647e-02
-1.357023045420646667e-02
-6.173295900225639343e-03
1.158581767231225967e-02
2.480203472077846527e-02
-5.398123990744352341e-03
-1.100188679993152618e-02
1.321586780250072479e-02
1.355378981679677963e-02
-1.491557620465755463e-02
9.048563428223133087e-03
1.987442933022975922e-02
-1.127320621162652969e-02
1.189221907407045364e-02
4.378706589341163635e-02
-2.115660160779953003e-02
-2.132030017673969269e-02
-3.607105091214179993e-02
6.852613762021064758e-03
-7.442865986377000809e-03
-1.805659011006355286e-02
1.264214888215065002e-02
9.403822943568229675e-03
7.789875962771475315e-04
8.555560372769832611e-03
-1.859423518180847168e-02
-5.934909917414188385e-03
-3.201439604163169861e-02
-1.654635928571224213e-02
4.747957922518253326e-03
-6.029222276993095875e-04
-2.341288514435291290e-02
-9.034865070134401321e-04
-2.115517668426036835e-02
1.618660986423492432e-02
-1.782518811523914337e-02
-2.227518893778324127e-02
-3.134450176730751991e-03
1.969537325203418732e-02
-1.440186705440282822e-02
1.007275190204381943e-02
3.163827350363135338e-03
6.865474395453929901e-03
9.449829347431659698e-03
4.583289474248886108e-02
2.538930624723434448e-03
-1.038931868970394135e-02
4.768121056258678436e-03
1.975776161998510361e-03
3.027374669909477234e-02
-5.976735148578882217e-03
1.814786344766616821e-02
1.652693934738636017e-02
-3.021381795406341553e-02
-8.636416867375373840e-03
7.394136046059429646e-04
-6.781363859772682190e-03
-1.832895539700984955e-02
-2.458494389429688454e-03
2.935450524091720581e-02
-6.696072407066822052e-03
4.235915094614028931e-02
-2.478468790650367737e-02
-1.307502482086420059e-02
1.906641526147723198e-03
-2.374267950654029846e-02
5.078005138784646988e-03
-1.891433633863925934e-02
-1.371429674327373505e-02
4.009956121444702148e-02
4.048584401607513428e-02
-1.995251886546611786e-02
-2.076405473053455353e-02
-1.075176987797021866e-02
3.809369867667555809e-03
2.868253365159034729e-02
-1.335298456251621246e-02
2.251839265227317810e-02
-1.634360849857330322e-02
4.145014286041259766e-02
-7.269338238984346390e-03
2.427943982183933258e-04
1.351142860949039459e-02
-4.014994576573371887e-02
-1.020260341465473175e-02
-2.340703085064888000e-02
6.731787696480751038e-03
2.640800084918737411e-03
6.013349629938602448e-03
-1.759271509945392609e-02
1.397589594125747681e-02
-7.917612791061401367e-03
3.458015248179435730e-02
3.405883908271789551e-03
-1.106243394315242767e-02
7.329848594963550568e-03
-1.964484527707099915e-02
-9.345944970846176147e-03
7.151913363486528397e-03
-1.330939587205648422e-02
1.004728581756353378e-02
-1.480021746829152107e-03
-2.181681059300899506e-02
-1.051189564168453217e-02
2.449052780866622925e-02
1.436541602015495300e-02
-4.645331948995590210e-02
-2.976464666426181793e-02
1.618497818708419800e-02
7.976881228387355804e-03
2.384969405829906464e-02
-6.652886513620615005e-03
3.103946219198405743e-04
5.258277058601379395e-03
-4.477909300476312637e-03
1.265804562717676163e-02
-1.242782268673181534e-02
1.400289125740528107e-02
1.049358025193214417e-02
-2.946010604500770569e-02
-1.899477839469909668e-02
-5.692542064934968948e-03
3.159242495894432068e-02
-2.406505867838859558e-03
8.132535032927989960e-03
-5.166292339708888903e-06
-1.201918814331293106e-03
-1.406031940132379532e-02
1.727094314992427826e-02
-3.480227664113044739e-02
-1.859409734606742859e-02
1.208857446908950806e-02
-1.737415790557861328e-02
-4.236506298184394836e-03
-4.845949355512857437e-03
-2.244561165571212769e-02
-5.075177177786827087e-03
-1.264493633061647415e-02
6.480305641889572144e-02
1.291802991181612015e-02
5.207926733419299126e-04
-1.422186382114887238e-02
-6.982826162129640579e-03
-2.625959739089012146e-02
-1.919479295611381531e-02
8.601200534030795097e-04
1.951766200363636017e-02
-9.868097491562366486e-03
-1.674126833677291870e-02
3.007424622774124146e-02
3.855185583233833313e-02
-1.915722340345382690e-02
3.310130909085273743e-02
-1.980691961944103241e-02
-5.921026691794395447e-03
-4.064093902707099915e-02
-7.001931779086589813e-03
1.274301111698150635e-02
-8.162132464349269867e-03
6.998644676059484482e-03
1.911845058202743530e-02
-2.004814147949218750e-02
3.339275950565934181e-03
-3.573096357285976410e-03
-2.899088151752948761e-02
-8.270744234323501587e-03
2.364042960107326508e-02
9.398994036018848419e-03
1.786406897008419037e-02
-1.204384583979845047e-02
4.364421963691711426e-02
-4.871565382927656174e-03
5.171316489577293396e-02
-1.214748527854681015e-02
-1.477266848087310791e-02
4.300310742110013962e-03
-9.652419947087764740e-03
2.047743275761604309e-02
-1.159173436462879181e-02
1.401688065379858017e-02
1.179992407560348511e-02
-2.822091616690158844e-02
-2.035656012594699860e-02
-1.651534927077591419e-03
1.925430260598659515e-02
-2.227718010544776917e-02
-1.694363169372081757e-02
-1.505573932081460953e-02
-4.924362991005182266e-03
6.145908311009407043e-02
2.063106745481491089e-03
2.089028432965278625e-02
1.883966661989688873e-02
-2.874658256769180298e-02
2.743697725236415863e-02
-4.931985866278409958e-03
-1.549965701997280121e-02
4.286253079771995544e-02
4.058877006173133850e-02
-1.523893326520919800e-02
-2.462804503738880157e-02
-1.700057834386825562e-02
1.548570021986961365e-02
1.207272522151470184e-02
2.097546122968196869e-03
-4.208918195217847824e-03
-1.742348261177539825e-02
4.967139288783073425e-02
-1.895911805331707001e-02
-1.264229416847229004e-02
4.419779777526855469e-02
-4.220411553978919983e-02
-4.427358799148350954e-04
-3.415589034557342529e-02
-5.322658456861972809e-03
5.939329974353313446e-03
1.743511110544204712e-02
4.402276128530502319e-03
2.271206676959991455e-02
8.576777763664722443e-03
4.369916394352912903e-02
1.377455331385135651e-02
-2.694735117256641388e-02
1.802535355091094971e-02
-2.802157076075673103e-03
-7.463194895535707474e-03
-4.827483557164669037e-03
-2.700018137693405151e-02
3.073595697060227394e-03
-2.749564871191978455e-02
-2.869681455194950104e-03
-8.066480979323387146e-03
1.811365410685539246e-02
6.525843404233455658e-03
-2.410246431827545166e-02
-6.167727522552013397e-03
5.722215399146080017e-03
-7.408537901937961578e-03
1.650554873049259186e-02
2.152827940881252289e-02
7.018561940640211105e-03
8.805899880826473236e-03
2.122671809047460556e-03
-6.772267632186412811e-03
-3.095171786844730377e-02
1.257848925888538361e-02
3.005163557827472687e-02
-4.461612924933433533e-02
-3.103167191147804260e-02
-1.410874724388122559e-02
-2.020742511376738548e-03
1.486765313893556595e-02
2.468493394553661346e-02
-5.963333882391452789e-03
1.695949956774711609e-02
3.499346086755394936e-03
1.686093769967556000e-02
-1.377879828214645386e-02
-1.403822284191846848e-02
1.090284530073404312e-02
-4.568636044859886169e-02
3.682669484987854958e-03
-6.872417405247688293e-03
-2.914911881089210510e-02
-2.771402709186077118e-02
1.683568395674228668e-02
8.513661101460456848e-03
-6.176054943352937698e-03
2.096603997051715851e-02
-2.079006843268871307e-02
-5.116861313581466675e-03
-1.647281274199485779e-02
5.030823871493339539e-03
6.269397679716348648e-03
2.411982975900173187e-02
-4.826993681490421295e-03
-2.062699757516384125e-02
3.201891481876373291e-02
-2.126826345920562744e-02
-1.632408425211906433e-02
2.490370301529765129e-03
-1.215939503163099289e-02
-1.974535407498478889e-03
-5.154307559132575989e-02
-1.626816205680370331e-02
6.814317312091588974e-03
2.404147945344448090e-02
-7.708659861236810684e-03
-3.568741027265787125e-03
-1.350380387157201767e-02
2.161195501685142517e-02
-1.878129318356513977e-02
-2.015372924506664276e-02
-9.876924566924571991e-03
4.202689230442047119e-02
1.894833706319332123e-02
3.048107586801052094e-02
1.860617846250534058e-02
5.215996876358985901e-02
-1.297336537390947342e-02
5.835062637925148010e-02
-1.246998179703950882e-02
-1.364500541239976883e-02
-1.767454552464187145e-03
-1.736905425786972046e-02
9.580829180777072906e-03
-1.720004156231880188e-02
1.234776433557271957e-02
-4.596956539899110794e-03
7.091551553457975388e-03
-9.796284139156341553e-03
1.229847501963376999e-02
-1.156518515199422836e-02
-2.156199142336845398e-02
-4.924327135086059570e-03
-1.319176796823740005e-02
-2.414690330624580383e-02
5.164045095443725586e-02
-6.218444323167204857e-04
-2.720730844885110855e-03
-5.482300184667110443e-03
-3.374868631362915039e-02
6.305027008056640625e-02
-4.157715477049350739e-03
-2.682516537606716156e-02
9.378407150506973267e-03
2.527052164077758789e-02
-1.160281896591186523e-02
-2.733018249273300171e-02
-1.249749585986137390e-02
2.079138718545436859e-02
2.482769545167684555e-03
1.913951151072978973e-02
-7.897386967670172453e-05
-3.067477047443389893e-02
4.156056046485900879e-02
-5.515754688531160355e-03
1.741124689579010010e-02
1.670097932219505310e-02
-3.521184250712394714e-02
-6.397095276042819023e-04
-1.680244319140911102e-02
4.901238251477479935e-03
3.587505966424942017e-02
-3.983640577644109726e-03
-5.141599103808403015e-03
-4.748865030705928802e-03
5.323605611920356750e-02
3.502087295055389404e-02
1.807848602766171098e-04
-1.795135065913200378e-02
3.355578705668449402e-02
-1.658369321376085281e-03
-9.649464860558509827e-03
-4.935135599225759506e-03
-1.561060082167387009e-02
-2.239447832107543945e-02
-1.079847011715173721e-02
-3.072704002261161804e-02
3.307349281385540962e-03
1.930399425327777863e-02
-5.437385290861129761e-03
6.441628793254494667e-04
-1.543979888083413243e-04
-5.954316351562738419e-03
7.140413392335176468e-03
2.593635953962802887e-02
4.488807916641235352e-02
-1.883821375668048859e-02
-5.706931930035352707e-03
1.553073991090059280e-02
-4.612768243532627821e-04
-1.205953489989042282e-02
2.967866603285074234e-03
2.187083475291728973e-02
-6.859799381345510483e-03
-3.303642198443412781e-02
-1.484289951622486115e-02
-9.104934521019458771e-03
-5.722844973206520081e-03
1.068232301622629166e-02
-2.110428409650921822e-03
-5.554872564971446991e-03
1.750756055116653442e-02
6.419457029551267624e-03
-2.867392078042030334e-02
1.357013825327157974e-02
1.245635375380516052e-02
-3.840548172593116760e-02
4.889333620667457581e-03
6.940193939954042435e-03
-1.698887534439563751e-02
-1.006476022303104401e-02
1.157627440989017487e-03
-2.540446119382977486e-03
-1.183069311082363129e-02
3.353844583034515381e-02
1.334397308528423309e-02
-2.053473144769668579e-03
-1.316646113991737366e-02
2.080910280346870422e-02
2.297489903867244720e-02
2.807854115962982178e-02
-2.365528792142868042e-02
-1.720017939805984497e-02
1.604989543557167053e-02
-9.767822921276092529e-03
4.351940006017684937e-03
-1.307127065956592560e-02
1.073883846402168274e-02
-9.048284962773323059e-03
-8.292546495795249939e-03
9.046800434589385986e-03
-1.431680284440517426e-02
2.992549538612365723e-02
2.239444851875305176e-02
-3.573646768927574158e-03
1.410809345543384552e-02
-2.755589783191680908e-02
1.013634726405143738e-02
-2.749951556324958801e-02
-2.134942077100276947e-02
2.940125064924359322e-03
2.589185908436775208e-02
1.160282082855701447e-02
8.496848167851567268e-04
2.757226489484310150e-02
-4.660658887587487698e-04
-3.635159227997064590e-03
-8.176451083272695541e-04
2.944932086393237114e-03
3.201777115464210510e-02
-4.010483622550964355e-03
-2.920935489237308502e-02
-6.802838179282844067e-04
-6.823837757110595703e-03
-2.683491038624197245e-04
-2.716422313824295998e-03
1.277109957300126553e-03
1.564014144241809845e-02
-2.665008045732975006e-02
2.577769570052623749e-02
1.036904635839164257e-03
4.641008097678422928e-03
-9.972619824111461639e-03
2.787865698337554932e-02
1.744278939440846443e-03
2.096588537096977234e-02
1.987228728830814362e-02
-2.107917331159114838e-03
9.555501863360404968e-03
3.230505064129829407e-02
3.390899300575256348e-02
-4.506320133805274963e-02
-9.081328287720680237e-03
4.989893175661563873e-03
-1.467906590551137924e-02
4.216311033815145493e-03
-9.349398314952850342e-04
5.066068843007087708e-02
9.752229787409305573e-03
2.211030386388301849e-02
-1.279701362363994122e-03
1.191021688282489777e-02
8.380770683288574219e-03
-4.475590959191322327e-02
-2.049875259399414062e-02
-8.125364780426025391e-03
-9.642905206419527531e-05
2.140094293281435966e-03
-1.012333482503890991e-02
-4.395709838718175888e-03
3.764643799513578415e-03
8.304922841489315033e-03
-1.032410841435194016e-02
-1.643029600381851196e-02
-1.158274710178375244e-02
3.363906219601631165e-02
2.316243480890989304e-03
2.399411238729953766e-02
-3.246979322284460068e-03
4.064034204930067062e-03
1.501222047954797745e-02
-1.176357385702431202e-03
2.633159607648849487e-02
2.218739688396453857e-02
-2.850068360567092896e-02
1.981819421052932739e-02
-1.834119111299514771e-02
-1.221670489758253098e-02
1.482218690216541290e-02
-2.018928155303001404e-02
9.342141565866768360e-04
7.509280461817979813e-03
3.530653193593025208e-03
1.429466623812913895e-02
-4.057755693793296814e-03
-1.975374529138207436e-03
2.693987265229225159e-02
-9.731489233672618866e-03
1.130560645833611488e-03
1.296176924370229244e-03
1.232720725238323212e-02
-1.557209901511669159e-02
1.628746837377548218e-02
-2.647835761308670044e-02
2.187538519501686096e-02
-8.619727566838264465e-03
2.330487780272960663e-02
-1.735427416861057281e-02
3.512859717011451721e-02
-5.402272101491689682e-03
1.797609846107661724e-03
4.722588229924440384e-03
3.866799175739288330e-03
1.321804616600275040e-02
-9.892898611724376678e-03
-4.686522297561168671e-03
-7.767525967210531235e-03
7.725341711193323135e-03
1.144848205149173737e-02
1.116904080845415592e-03
-3.506286069750785828e-02
-4.732887260615825653e-03
5.611368454992771149e-03
1.020343601703643799e-02
-1.074585504829883575e-02
4.080910980701446533e-02
-1.264146994799375534e-02
1.046175044029951096e-02
3.643079847097396851e-02
-1.633790135383605957e-02
-3.954786807298660278e-02
2.443803241476416588e-03
-6.387950852513313293e-03
-1.244588848203420639e-02
-2.059599012136459351e-02
1.764423772692680359e-02
-3.282682970166206360e-03
-1.023392286151647568e-02
1.563153346069157124e-03
-1.226794719696044922e-02
1.907290890812873840e-02
6.588304881006479263e-03
-5.433278530836105347e-02
-1.162257231771945953e-02
-3.729310259222984314e-02
-8.380277082324028015e-03
1.729827001690864563e-02
1.363737508654594421e-02
2.864627749659121037e-04
5.048846825957298279e-03
-4.611195065081119537e-03
-2.434581145644187927e-02
1.885235123336315155e-02
-1.394337974488735199e-02
-1.238688547164201736e-02
-1.993376389145851135e-02
-8.126140572130680084e-03
-2.335935086011886597e-02
-2.026415802538394928e-02
-1.975610665977001190e-02
-2.358913980424404144e-02
-2.665059408172965050e-03
-8.523012511432170868e-03
-2.320043556392192841e-02
1.204934343695640564e-02
-2.179571799933910370e-02
-3.500567376613616943e-02
-2.709052991122007370e-03
-3.318404033780097961e-02
-1.326179783791303635e-02
2.469795290380716324e-03
-1.116406638175249100e-02
-1.287582051008939743e-02
-2.009357698261737823e-02
-1.394676696509122849e-02
2.690219553187489510e-03
3.106995718553662300e-03
1.329112052917480469e-02
-5.036444868892431259e-03
-2.323081716895103455e-02
-5.044470075517892838e-03
-6.316220853477716446e-03
3.666779666673392057e-04
1.639304496347904205e-02
-7.153834681957960129e-03
1.873774826526641846e-02
-4.009836819022893906e-03
-1.677717827260494232e-02
-1.892456039786338806e-02
-3.129523247480392456e-03
-9.780540131032466888e-04
-1.550340838730335236e-02
-3.378531709313392639e-02
-2.991576679050922394e-02
1.790618896484375000e-02
-3.050779551267623901e-02
1.392739359289407730e-02
-2.364738099277019501e-02
-1.349513884633779526e-02
8.616851642727851868e-03
-5.085146985948085785e-03
1.077063474804162979e-02
-2.117020823061466217e-02
1.428062468767166138e-02
-9.676552377641201019e-03
5.328244064003229141e-03
-2.599528990685939789e-02
1.202648133039474487e-02
1.439164020121097565e-02
-2.195606753230094910e-02
-7.371041458100080490e-03
-1.092094182968139648e-02
-6.132938899099826813e-03
-4.562411457300186157e-03
-1.510204561054706573e-02
1.819111406803131104e-02
8.659022860229015350e-03
8.344280533492565155e-03
4.688916262239217758e-03
-2.715941518545150757e-02
-2.670989604666829109e-03
5.373375490307807922e-03
-1.148054562509059906e-02
-5.771188531070947647e-03
-2.971902024000883102e-03
-2.451709471642971039e-02
-2.210296131670475006e-02
3.394133644178509712e-03
-9.200463071465492249e-03
1.130602322518825531e-02
4.333108197897672653e-03
-1.439588889479637146e-02
1.269145868718624115e-02
-6.656857294728979468e-05
-1.494049746543169022e-02
-9.771679760888218880e-04
5.626010242849588394e-03
3.879906143993139267e-04
9.773895144462585449e-03
1.644878648221492767e-02
-7.673421408981084824e-03
9.025348350405693054e-03
-3.122481517493724823e-02
-4.734589532017707825e-02
-1.737893745303153992e-02
5.949805025011301041e-03
4.888928015134297311e-05
-5.468839779496192932e-03
-1.106852944940328598e-02
-1.573866792023181915e-02
6.410330999642610550e-03
1.748108118772506714e-02
-1.111724041402339935e-02
7.324613980017602444e-04
-2.829799894243478775e-03
1.765777915716171265e-02
6.199478637427091599e-03
-2.339549921452999115e-02
-2.276134118437767029e-02
-1.338102854788303375e-02
2.242838777601718903e-02
-9.277517907321453094e-03
-7.078398484736680984e-03
1.400713995099067688e-02
-4.391018673777580261e-02
-8.434786461293697357e-03
4.242556635290384293e-03
2.486075460910797119e-02
9.496885351836681366e-03
-5.817872006446123123e-03
3.585241036489605904e-03
-7.862444035708904266e-03
-9.602854028344154358e-03
-1.547829248011112213e-02
-1.950345933437347412e-03
4.244322888553142548e-03
2.911141375079751015e-03
-3.470191732048988342e-02
-1.461250334978103638e-02
-1.726145483553409576e-02
4.223743919283151627e-03
4.993373528122901917e-03
9.040801785886287689e-03
1.288283523172140121e-02
-2.307998016476631165e-03
7.497085025534033775e-04
1.636162027716636658e-02
6.012062542140483856e-03
-2.621985413134098053e-02
-2.071698941290378571e-02
-1.759717240929603577e-02
-1.128308661282062531e-02
1.969711668789386749e-02
-1.399856433272361755e-02
-1.620381325483322144e-02
-1.561916340142488480e-02
-3.559189662337303162e-02
-5.879791453480720520e-03
7.836022414267063141e-03
5.754955112934112549e-03
-2.087251469492912292e-02
-7.264168001711368561e-03
-1.085641048848628998e-02
-2.539302967488765717e-02
-2.190943807363510132e-02
1.745497807860374451e-02
-2.534115687012672424e-02
1.742653176188468933e-02
-3.134826943278312683e-02
3.281996818259358406e-03
1.669386960566043854e-02
-9.280762169510126114e-04
5.687074735760688782e-03
8.888890966773033142e-03
-7.012857589870691299e-03
1.152857765555381775e-02
1.138928229920566082e-03
2.673920057713985443e-02
-1.826093648560345173e-03
7.223034743219614029e-03
1.862600818276405334e-02
-1.257739961147308350e-02
1.911208266392350197e-03
-1.377344969660043716e-02
-1.748578809201717377e-02
-2.498791925609111786e-02
-1.188342180103063583e-02
1.612422615289688110e-02
6.224698852747678757e-03
-4.163167253136634827e-02
-6.583187729120254517e-03
-1.094178389757871628e-02
6.356636993587017059e-03
-2.341923862695693970e-02
-8.888306096196174622e-03
4.610659088939428329e-03
4.809066653251647949e-02
-3.945771232247352600e-02
1.012081466615200043e-02
-1.827197521924972534e-02
-1.502367295324802399e-02
-2.862410852685570717e-03
2.161501161754131317e-02
-7.174127735197544098e-03
-5.424870550632476807e-02
-5.780365783721208572e-03
2.962667495012283325e-03
-1.405899971723556519e-02
1.829028013162314892e-03
-3.680347930639982224e-03
1.219145860522985458e-02
-6.557035725563764572e-03
-3.111461922526359558e-02
-1.399955246597528458e-02
2.628182759508490562e-03
-1.545608881860971451e-02
-7.561641745269298553e-03
2.097760885953903198e-02
2.150237374007701874e-02
9.173030033707618713e-03
8.243451826274394989e-03
5.182084161788225174e-03
-2.146301791071891785e-03
-4.686122294515371323e-03
-7.589428685605525970e-03
-2.724564634263515472e-02
7.317559793591499329e-03
-9.373974055051803589e-03
-7.414272055029869080e-03
3.412811085581779480e-03
7.175681646913290024e-03
-2.488347934558987617e-03
9.419659152626991272e-03
1.634628511965274811e-02
-3.072327468544244766e-03
-2.197218686342239380e-02
-1.879260689020156860e-02
-8.846052922308444977e-03
-3.113064914941787720e-03
5.211193580180406570e-03
-1.908061839640140533e-02
-1.478978991508483887e-02
-2.620376180857419968e-03
2.445685211569070816e-03
-1.056372653692960739e-02
-2.881758287549018860e-02
-5.217725038528442383e-02
-7.048419862985610962e-02
2.587756142020225525e-02
-7.288675755262374878e-03
-2.998907305300235748e-02
2.123712562024593353e-03
5.471659824252128601e-02
-7.109186053276062012e-02
-2.158488519489765167e-02
1.070010885596275330e-01
8.335972577333450317e-02
2.414412098005414009e-03
-2.140258066356182098e-02
-4.160943254828453064e-02
-1.001184992492198944e-02
-1.388576067984104156e-02
1.663843542337417603e-02
7.976010441780090332e-03
1.229332201182842255e-02
-4.437225870788097382e-03
9.370642714202404022e-03
1.131383888423442841e-02
-1.385262468829751015e-03
1.637595240026712418e-03
2.790438197553157806e-02
7.818421348929405212e-03
-1.472451537847518921e-02
3.217398747801780701e-02
-8.085038512945175171e-03
3.020998276770114899e-02
-4.139856994152069092e-02
-6.724683940410614014e-02
2.139451727271080017e-02
-3.048983169719576836e-03
4.448621999472379684e-03
-1.070317625999450684e-02
3.814353793859481812e-02
-9.528702124953269958e-03
1.261533424258232117e-02
1.920612528920173645e-02
-1.072407793253660202e-02
2.007604809477925301e-03
-8.515046909451484680e-03
-9.064888581633567810e-03
3.064621239900588989e-02
3.083784505724906921e-02
-2.551371790468692780e-02
1.583205536007881165e-02
-2.513917349278926849e-02
6.476876139640808105e-02
1.273350790143013000e-02
4.548258706927299500e-02
-8.827709592878818512e-03
-1.251504849642515182e-02
-5.140226706862449646e-02
7.932096719741821289e-02
-5.465887486934661865e-03
3.055669926106929779e-02
-1.260861288756132126e-02
2.455630339682102203e-03
9.979206137359142303e-03
-5.565527454018592834e-02
-6.380773149430751801e-03
1.536324992775917053e-02
-4.762272350490093231e-03
-1.780771464109420776e-02
-1.212794799357652664e-02
7.879117503762245178e-03
2.312400843948125839e-03
-2.954997122287750244e-02
1.336095854640007019e-02
-1.849051937460899353e-02
3.736211732029914856e-02
1.843479648232460022e-02
