3.309600427746772766e-02
2.076245285570621490e-02
1.129296142607927322e-02
1.460007485002279282e-02
1.162438467144966125e-02
-1.623153313994407654e-02
-1.640789443626999855e-03
3.292928636074066162e-02
5.081155523657798767e-02
-1.470526959747076035e-02
2.290780283510684967e-02
7.146608084440231323e-03
5.163928493857383728e-02
-8.148213848471641541e-03
-5.253444425761699677e-03
-3.239709883928298950e-02
9.504146873950958252e-04
-1.588096655905246735e-02
-1.333164703100919724e-02
7.162642199546098709e-03
3.298737108707427979e-02
7.653460837900638580e-03
-5.073588341474533081e-03
1.475553680211305618e-02
3.182762302458286285e-03
4.035994037985801697e-02
-1.256710477173328400e-02
-8.330554701387882233e-03
-3.752393648028373718e-02
-1.294855307787656784e-02
2.396659366786479950e-02
1.300434395670890808e-02
5.402504932135343552e-03
1.300388202071189880e-02
-3.019528649747371674e-02
2.528823167085647583e-02
-1.654952764511108398e-02
-1.014362182468175888e-02
-1.716731674969196320e-02
2.421889454126358032e-02
-4.886087495833635330e-03
-8.395689539611339569e-03
1.970095373690128326e-02
-1.583991758525371552e-02
2.725725993514060974e-02
-6.857470609247684479e-03
2.470227330923080444e-02
1.111637894064188004e-02
-2.626852365210652351e-03
1.225956901907920837e-02
6.377656478434801102e-03
5.622621625661849976e-03
-6.294544786214828491e-02
-1.894330605864524841e-02
1.570305414497852325e-02
-7.698707282543182373e-02
7.303738500922918320e-03
4.468945786356925964e-03
-9.447761811316013336e-03
5.974823608994483948e-03
2.439778111875057220e-02
1.366122905164957047e-02
-4.232565313577651978e-02
3.107519121840596199e-03
-2.283717971295118332e-03
-6.075201556086540222e-02
4.291118122637271881e-03
1.141146849840879440e-02
-7.355218287557363510e-03
-4.581890255212783813e-02
-4.811713472008705139e-03
3.164102509617805481e-02
-9.201706387102603912e-03
1.414746046066284180e-02
2.750365063548088074e-02
2.901703584939241409e-03
-3.050198033452033997e-02
-2.289785631000995636e-02
1.432741340249776840e-02
-2.655838429927825928e-02
-1.393358036875724792e-02
2.114437893033027649e-02
-4.454927518963813782e-02
-1.162393670529127121e-02
5.130099877715110779e-02
1.882232539355754852e-02
1.478336285799741745e-02
6.372527685016393661e-03
3.262055292725563049e-02
3.930531674996018410e-04
3.484145551919937134e-02
3.495427221059799194e-02
-3.455651924014091492e-02
2.288893982768058777e-02
-1.582620106637477875e-02
9.598125703632831573e-03
-8.344214409589767456e-03
-6.820545531809329987e-03
5.988595262169837952e-02
4.403623193502426147e-02
-3.987557813525199890e-02
1.279012858867645264e-02
1.675486005842685699e-02
-7.955253124237060547e-03
1.527837384492158890e-02
2.594693377614021301e-02
-3.446659818291664124e-02
1.886822097003459930e-02
-2.841002866625785828e-02
2.158027607947587967e-03
-1.146435644477605820e-02
-1.405428443104028702e-02
9.757470339536666870e-03
4.423179849982261658e-02
1.315836887806653976e-02
-6.436612922698259354e-03
6.499681156128644943e-03
-1.209722645580768585e-02
6.940073799341917038e-03
-1.531549636274576187e-02
-2.424745075404644012e-02
-1.668868586421012878e-02
2.098975144326686859e-02
6.283801048994064331e-03
-7.590854074805974960e-03
-1.220876350998878479e-02
5.569370929151773453e-03
-7.904658094048500061e-03
-2.605951949954032898e-02
1.771058514714241028e-02
2.079127170145511627e-02
2.327692229300737381e-03
8.079679682850837708e-04
3.059941902756690979e-02
2.549806144088506699e-03
-2.003861591219902039e-02
-7.989575155079364777e-03
-4.106944426894187927e-02
7.658467628061771393e-03
-9.836290962994098663e-03
2.941549010574817657e-02
-6.137943826615810394e-03
2.809021621942520142e-03
3.860147297382354736e-02
-4.505631048232316971e-03
-9.464199538342654705e-04
1.938611268997192383e-02
-2.972687594592571259e-03
2.198679186403751373e-02
-1.581264473497867584e-02
4.495263472199440002e-02
-1.713473536074161530e-02
-7.898354530334472656e-02
-3.590021282434463501e-02
-3.010673075914382935e-02
8.948690257966518402e-03
1.186073664575815201e-02
-2.410980500280857086e-02
2.871983312070369720e-02
-2.606336027383804321e-02
2.132268709829077125e-04
-2.671451307833194733e-02
-2.666841633617877960e-02
-1.585119217634201050e-02
-1.944461464881896973e-02
-4.388643056154251099e-02
3.627035021781921387e-02
2.879134612157940865e-03
5.997482221573591232e-03
-4.085905104875564575e-02
-1.134885195642709732e-02
5.506132147274911404e-04
6.441784650087356567e-02
1.413092110306024551e-02
3.115984238684177399e-02
-1.054151449352502823e-03
-2.537534385919570923e-02
8.108406327664852142e-03
-3.835016104858368635e-04
3.313702763989567757e-03
-2.519579604268074036e-02
-2.420683391392230988e-02
-1.602606615051627159e-03
6.020911037921905518e-02
-6.246418226510286331e-03
-6.534467916935682297e-03
-1.617091149091720581e-02
-1.523849926888942719e-02
1.467211171984672546e-02
-4.665717482566833496e-03
1.066130958497524261e-02
-2.532509155571460724e-02
-1.888838480226695538e-03
2.233127132058143616e-02
-2.340085804462432861e-03
3.125523682683706284e-03
5.846303422003984451e-03
-4.295893013477325439e-03
-2.566546574234962463e-02
3.479355573654174805e-02
3.906234353780746460e-02
-3.157241642475128174e-02
1.979264616966247559e-02
-4.556939937174320221e-03
-2.297825366258621216e-02
2.782336063683032990e-02
-1.341325137764215469e-02
-9.471599012613296509e-02
5.250999704003334045e-03
4.931490402668714523e-03
5.007239058613777161e-02
1.914853230118751526e-02
2.619677223265171051e-02
3.186169639229774475e-02
6.751103699207305908e-02
-9.000415913760662079e-03
-3.317536087706685066e-03
1.007714793086051941e-01
5.753053352236747742e-03
2.112582512199878693e-02
3.426802530884742737e-02
-9.129934944212436676e-03
7.275488227605819702e-03
3.427262976765632629e-02
2.073530107736587524e-02
1.433785352855920792e-02
-1.280402881093323231e-03
-8.882335969246923923e-04
-3.902203589677810669e-02
1.465861685574054718e-02
-3.312819078564643860e-02
3.563236817717552185e-02
-8.320323191583156586e-03
-4.203185066580772400e-02
2.338146977126598358e-02
3.638883121311664581e-03
1.207210356369614601e-03
-4.419231787323951721e-03
5.020943284034729004e-02
-1.058208756148815155e-02
1.308814994990825653e-02
2.257257141172885895e-02
-6.421023048460483551e-03
5.142192356288433075e-03
-1.256646309047937393e-02
-2.260415814816951752e-02
-3.842619713395833969e-03
-9.374754130840301514e-02
-1.300888881087303162e-02
3.876278642565011978e-03
-1.085256878286600113e-02
5.734521523118019104e-02
2.808822691440582275e-02
-3.296143142506480217e-03
-4.740892723202705383e-02
8.535888046026229858e-03
-1.413653604686260223e-02
-5.316784605383872986e-02
-1.769346185028553009e-02
5.272865295410156250e-03
1.575249619781970978e-02
-4.111040011048316956e-02
-1.700349501334130764e-03
-6.095986068248748779e-02
-6.003212928771972656e-02
8.880227059125900269e-02
3.107805503532290459e-03
-7.325266487896442413e-03
-6.376381218433380127e-02
-7.594871520996093750e-02
2.035536430776119232e-02
5.521863698959350586e-02
1.947345328517258167e-03
-3.527556313201785088e-03
-1.323497593402862549e-01
-3.026377782225608826e-02
4.327034577727317810e-03
-7.055895030498504639e-02
-5.671985819935798645e-02
-4.818793386220932007e-02
-1.873842813074588776e-02
-5.720362067222595215e-02
9.438257664442062378e-02
3.336073458194732666e-02
-4.029979184269905090e-02
2.768649533390998840e-02
6.021153647452592850e-03
-1.883984357118606567e-02
-5.022772029042243958e-02
-2.169211953878402710e-02
4.612345620989799500e-02
-8.365422254428267479e-04
1.751463487744331360e-02
-9.754020720720291138e-03
2.463422901928424835e-02
-1.911403238773345947e-02
1.057748310267925262e-02
3.081005066633224487e-02
-1.607657410204410553e-02
1.485407236032187939e-03
-2.575223892927169800e-02
2.412757463753223419e-02
-2.245743013918399811e-02
-1.503352355211973190e-02
-3.700140863656997681e-02
4.609023779630661011e-02
3.058967553079128265e-02
-7.658862974494695663e-03
3.167437016963958740e-02
1.289971452206373215e-02
-2.492150990292429924e-03
1.327843815088272095e-01
-1.909055933356285095e-02
-5.787028349004685879e-04
5.299906805157661438e-02
-3.735313564538955688e-02
-2.488398924469947815e-02
-3.794440068304538727e-03
3.777636960148811340e-02
-6.732617970556020737e-03
-7.597263436764478683e-03
2.727347798645496368e-02
1.817847788333892822e-02
-7.597281597554683685e-03
-3.990663588047027588e-02
-8.682669140398502350e-03
3.339405637234449387e-03
-4.221421107649803162e-02
4.331765323877334595e-02
-8.945439755916595459e-02
-4.996091499924659729e-02
-2.773913554847240448e-02
5.960980802774429321e-02
2.075847797095775604e-02
-5.006392672657966614e-02
1.188150257803499699e-03
8.878875523805618286e-03
-2.502613700926303864e-02
1.168379858136177063e-01
7.507983129471540451e-03
-4.277164489030838013e-02
1.864796690642833710e-02
1.730227656662464142e-02
1.068407949060201645e-02
-9.384279255755245686e-04
-1.590639166533946991e-02
-4.572570323944091797e-02
-3.147060796618461609e-02
4.745348170399665833e-02
-2.229627594351768494e-02
1.138063892722129822e-02
-4.472284018993377686e-02
1.179622393101453781e-02
2.381218969821929932e-02
-3.495734557509422302e-02
-3.139160200953483582e-02
-1.752885436872020364e-04
-3.157268092036247253e-02
2.253174595534801483e-02
1.085777883417904377e-03
3.722212975844740868e-03
2.850193344056606293e-02
5.939606577157974243e-02
-3.578695701435208321e-03
1.110548246651887894e-02
6.358666811138391495e-03
6.610956788063049316e-02
-1.110497768968343735e-02
1.852981559932231903e-02
1.281181350350379944e-02
-4.525823984295129776e-03
1.671360922046005726e-03
-3.564030630514025688e-03
-2.175091020762920380e-02
1.304585766047239304e-02
-1.516260206699371338e-02
-5.955499596893787384e-03
2.673801593482494354e-02
-4.286351054906845093e-02
-2.026115730404853821e-02
2.155525609850883484e-02
-2.173616550862789154e-02
2.125617861747741699e-02
-1.278895884752273560e-02
-4.955570399761199951e-02
-1.858815364539623260e-02
-5.982185713946819305e-03
-8.477460592985153198e-03
-7.264182786457240582e-04
6.165107712149620056e-03
-1.541494764387607574e-02
5.725786089897155762e-03
-2.123310789465904236e-02
-8.839814923703670502e-03
5.599567200988531113e-03
2.034466713666915894e-02
-5.674358829855918884e-02
-4.377876393846236169e-05
-2.555554732680320740e-02
-5.025031045079231262e-02
-3.284659236669540405e-03
1.353980973362922668e-02
1.766106300055980682e-02
3.251107409596443176e-02
6.422584410756826401e-03
-1.088077784515917301e-03
6.343072652816772461e-02
-1.768553256988525391e-02
-1.184375118464231491e-02
4.712317138910293579e-02
3.217872232198715210e-02
4.431383684277534485e-02
9.064662735909223557e-04
-1.435461733490228653e-02
5.670200102031230927e-03
2.440543286502361298e-02
1.384900510311126709e-02
-2.951152808964252472e-02
1.469999551773071289e-02
-8.038398227654397488e-04
-4.026564769446849823e-03
-2.033305168151855469e-02
1.158158853650093079e-02
-1.353581319563090801e-04
4.419262986630201340e-03
-6.132482364773750305e-02
-2.591732889413833618e-03
-4.054156132042407990e-03
-2.526614116504788399e-04
4.111254587769508362e-03
1.269091479480266571e-02
-4.411932453513145447e-02
1.082636695355176926e-02
3.165370598435401917e-02
-5.464035551995038986e-03
6.161120254546403885e-04
-8.854102343320846558e-04
7.099799811840057373e-03
-1.299754902720451355e-02
-1.029571425169706345e-02
-2.366070263087749481e-02
4.262368194758892059e-03
2.975816605612635612e-03
2.672913251444697380e-03
6.082550156861543655e-03
-2.466205880045890808e-02
-9.483713656663894653e-03
7.257978431880474091e-03
2.854697406291961670e-02
7.260441780090332031e-03
-9.615181945264339447e-03
-6.737265357514843345e-05
-2.449542842805385590e-02
-3.193844854831695557e-02
-6.095809396356344223e-03
-6.348979473114013672e-02
6.843701004981994629e-03
-9.385476820170879364e-03
1.517668459564447403e-02
1.493788883090019226e-02
8.316593244671821594e-03
-3.088748082518577576e-02
-1.637057028710842133e-02
8.489335328340530396e-02
3.714071586728096008e-02
-3.189574927091598511e-03
-5.246367305517196655e-02
2.598641812801361084e-02
-1.298636430874466896e-03
-3.133115544915199280e-02
-8.304435014724731445e-02
-5.474859476089477539e-02
1.252772938460111618e-02
-4.875588417053222656e-02
4.699970036745071411e-02
-1.667469157837331295e-03
-4.164956975728273392e-03
3.577173873782157898e-02
1.150668319314718246e-02
6.470477674156427383e-03
-3.308428078889846802e-02
3.296678885817527771e-03
-1.097870618104934692e-02
-2.215887978672981262e-02
1.983644627034664154e-02
7.632504682987928391e-03
4.105230793356895447e-03
-1.074065268039703369e-02
1.155185792595148087e-02
9.526289254426956177e-02
1.480657421052455902e-02
-1.494995038956403732e-02
8.164062164723873138e-03
1.022314000874757767e-02
-3.268852084875106812e-02
2.067214809358119965e-02
-5.563147366046905518e-02
4.836318641901016235e-02
1.801734231412410736e-02
3.279715031385421753e-02
-4.299485590308904648e-03
-2.641182625666260719e-03
1.319402270019054413e-02
4.879688471555709839e-02
-8.723556995391845703e-03
-3.207503119483590126e-03
2.147892490029335022e-02
-4.061158001422882080e-02
-8.844643831253051758e-03
2.398617379367351532e-02
1.173335593193769455e-02
-1.679485291242599487e-02
-1.201920397579669952e-02
-4.454516805708408356e-03
8.138595148921012878e-03
-3.837984753772616386e-03
-3.271107003092765808e-02
6.697871256619691849e-03
-8.919591084122657776e-03
4.701752960681915283e-02
1.703849621117115021e-02
-2.147843502461910248e-02
-6.830387748777866364e-03
-6.416476680897176266e-04
4.538059234619140625e-02
1.637782528996467590e-02
-1.275251992046833038e-02
-2.713062986731529236e-02
6.556563079357147217e-03
-1.836402155458927155e-02
3.237685933709144592e-02
7.190747652202844620e-03
-8.005540817975997925e-03
3.595661744475364685e-02
2.021237835288047791e-02
4.303681850433349609e-02
7.944504171609878540e-02
3.823770210146903992e-02
-7.644382119178771973e-02
-6.408251821994781494e-02
-9.502111934125423431e-03
-3.756117075681686401e-02
-2.050781156867742538e-03
-1.322317682206630707e-02
2.947212196886539459e-02
2.890378423035144806e-02
2.405224926769733429e-02
2.479154383763670921e-03
-1.994305476546287537e-02
-2.361503662541508675e-03
6.875871215015649796e-03
2.180777810281142592e-04
2.246664604172110558e-03
1.989435637369751930e-03
2.329639391973614693e-03
1.903662830591201782e-02
-4.151361808180809021e-02
-5.653436295688152313e-03
2.717115730047225952e-02
-1.495324727147817612e-02
2.939898148179054260e-02
-9.806631132960319519e-03
2.281085401773452759e-02
1.602641423232853413e-03
2.502913353964686394e-03
-5.976168904453516006e-03
-9.576039155945181847e-04
-5.727127939462661743e-02
-1.923219859600067139e-02
-8.318270556628704071e-03
-2.179695107042789459e-02
3.475420235190540552e-04
8.853567764163017273e-03
-1.578461565077304840e-02
-6.171677261590957642e-03
-7.637453265488147736e-03
2.100643329322338104e-02
-3.722291812300682068e-02
2.987765520811080933e-02
8.616119157522916794e-04
-2.362209558486938477e-02
-6.038517877459526062e-02
-7.761900778859853745e-03
3.208097815513610840e-02
4.895924590528011322e-03
-8.261232823133468628e-02
2.951432764530181885e-02
-1.396321132779121399e-02
-3.588779072742909193e-04
2.992815338075160980e-03
1.647721417248249054e-02
-4.163795709609985352e-02
-1.072432007640600204e-02
7.481053471565246582e-02
4.075192660093307495e-02
-4.482340067625045776e-02
5.234436690807342529e-02
2.854585275053977966e-02
5.720834061503410339e-02
-4.867425188422203064e-03
2.984371222555637360e-02
4.903721436858177185e-02
-9.613417088985443115e-03
2.968371100723743439e-02
8.924227207899093628e-03
-1.252068858593702316e-02
4.413165524601936340e-02
3.881778940558433533e-02
9.534305892884731293e-03
8.832012303173542023e-03
1.986534707248210907e-02
2.526070363819599152e-02
-3.236856311559677124e-02
2.354475297033786774e-02
-3.171691298484802246e-02
3.197990730404853821e-02
-7.198615465313196182e-03
2.827768586575984955e-02
-6.941153854131698608e-02
2.350179292261600494e-02
6.203958764672279358e-03
-1.575035159476101398e-03
1.227248739451169968e-02
-2.106089144945144653e-02
-2.913560904562473297e-02
-1.870939508080482483e-02
-1.161015965044498444e-02
-4.387276712805032730e-03
-3.106994368135929108e-02
-2.329209074378013611e-02
3.267061663791537285e-03
-9.891278110444545746e-03
-1.382340025156736374e-02
-1.761527545750141144e-02
-2.279054187238216400e-02
3.563611209392547607e-02
4.462812095880508423e-03
-1.803583465516567230e-02
6.195364519953727722e-03
-1.482120994478464127e-02
-1.989092677831649780e-02
6.794864684343338013e-02
-5.399569403380155563e-03
1.935100555419921875e-02
-2.685893792659044266e-03
2.109436318278312683e-02
6.806088611483573914e-03
-8.371270447969436646e-02
-7.947783172130584717e-02
7.371453195810317993e-02
-1.306973677128553391e-02
-2.193657128373160958e-04
-4.849588871002197266e-02
-3.846146166324615479e-02
3.271184116601943970e-02
6.851954013109207153e-02
3.783131763339042664e-02
7.546577835455536842e-04
-7.903030514717102051e-02
2.676871791481971741e-02
1.600630767643451691e-02
-5.335569009184837341e-02
-1.381648052483797073e-02
-7.381578441709280014e-03
-5.369429662823677063e-02
1.945411437191069126e-03
-5.993948876857757568e-02
3.484228625893592834e-02
-2.069815993309020996e-02
-4.118644283153116703e-04
-1.680183783173561096e-02
1.424669940024614334e-02
-5.410708859562873840e-02
1.564128696918487549e-02
-3.559516742825508118e-02
3.838998824357986450e-02
4.655425250530242920e-02
-3.014456667006015778e-02
-2.974621951580047607e-03
-9.941358119249343872e-03
-3.479054663330316544e-03
3.309014067053794861e-02
1.233467925339937210e-02
-1.834528706967830658e-02
-1.415065955370664597e-02
-2.709618303924798965e-03
6.151809357106685638e-03
9.839779697358608246e-03
3.492266312241554260e-02
-1.514642126858234406e-02
1.741567812860012054e-02
5.055544432252645493e-03
3.619767958298325539e-03
-5.405254196375608444e-03
-6.826466415077447891e-04
2.737482264637947083e-02
-3.537958487868309021e-02
2.365040779113769531e-02
1.560914143919944763e-02
-2.492829598486423492e-02
-6.990720331668853760e-02
2.420889772474765778e-02
-1.954334788024425507e-02
1.666648499667644501e-02
-2.532016485929489136e-02
-3.383585065603256226e-02
9.822471067309379578e-03
7.703217677772045135e-03
1.685208640992641449e-02
3.775696828961372375e-02
1.546221226453781128e-02
6.617364939302206039e-03
2.301025018095970154e-02
-6.733914837241172791e-03
-1.474186126142740250e-02
-6.021405570209026337e-03
2.611860074102878571e-02
3.834980726242065430e-02
-2.659218013286590576e-02
2.163421362638473511e-02
4.712969239335507154e-04
-4.394570365548133850e-02
2.558534964919090271e-02
5.277037620544433594e-03
-3.100406564772129059e-02
3.435733728110790253e-03
1.246421597898006439e-03
3.371275588870048523e-02
-5.867873504757881165e-02
-3.905467689037322998e-02
-2.642082236707210541e-02
-2.142357267439365387e-02
8.268330246210098267e-03
-9.357921779155731201e-03
-2.857262454926967621e-02
6.291294936090707779e-03
3.184959664940834045e-02
-3.186948969960212708e-02
-5.338845402002334595e-02
-3.237104043364524841e-02
-2.179583162069320679e-02
-1.677264273166656494e-02
-3.049996495246887207e-02
2.295832149684429169e-03
1.242099702358245850e-02
-3.628051653504371643e-02
-2.205842174589633942e-02
-4.086320102214813232e-02
3.060930222272872925e-02
-9.330539032816886902e-03
3.863082081079483032e-02
-5.308953579515218735e-03
2.161172404885292053e-02
-1.155409030616283417e-03
-1.517630368471145630e-02
-5.143012851476669312e-02
1.591955870389938354e-02
1.189034339040517807e-02
-4.859682172536849976e-03
-1.215238310396671295e-02
-1.526520005427300930e-03
3.081224299967288971e-02
1.077909115701913834e-02
1.030086074024438858e-02
5.217901617288589478e-02
7.940269075334072113e-03
-1.275497395545244217e-02
-3.138310834765434265e-02
-3.349934995640069246e-04
-5.478435754776000977e-02
-3.443487687036395073e-03
-4.169399384409189224e-03
2.672399021685123444e-02
-2.235419303178787231e-02
-2.646703738719224930e-03
2.026243368163704872e-03
-1.145391836762428284e-01
-7.833445444703102112e-03
1.013341452926397324e-02
3.177957842126488686e-03
-5.639072135090827942e-02
-6.997407227754592896e-02
2.275800704956054688e-02
-1.335235964506864548e-02
-3.561377897858619690e-02
8.274268358945846558e-02
-1.841774955391883850e-02
-3.060193266719579697e-03
9.770195931196212769e-03
2.188363857567310333e-02
1.413304917514324188e-02
2.140437811613082886e-02
1.061425893567502499e-03
7.178632169961929321e-02
1.446507032960653305e-02
5.326969176530838013e-02
-3.876746818423271179e-02
-4.169906023889780045e-03
2.889055758714675903e-02
4.048262536525726318e-02
1.364775374531745911e-02
-2.093705348670482635e-02
9.689714014530181885e-02
1.638712920248508453e-02
7.867208682000637054e-03
-1.453411765396595001e-02
4.843384958803653717e-03
1.141303312033414841e-02
-2.786753175314515829e-04
4.738652613013982773e-03
-3.969959914684295654e-02
1.456869579851627350e-02
-3.697917982935905457e-02
2.645125798881053925e-02
6.213848292827606201e-02
-3.075565211474895477e-02
-1.938784867525100708e-02
-3.058566153049468994e-02
1.631163619458675385e-02
-3.881352767348289490e-02
-2.656812034547328949e-02
-2.272695116698741913e-02
-6.060744076967239380e-02
4.731382802128791809e-02
-1.759435050189495087e-02
-2.067953348159790039e-02
1.222530379891395569e-02
2.939464524388313293e-02
-2.549200691282749176e-02
-8.661941625177860260e-03
1.848443597555160522e-02
-9.535414574202150106e-05
1.961802877485752106e-02
6.334079802036285400e-02
1.186995999887585640e-03
2.115835621953010559e-02
1.847003819420933723e-03
1.466890238225460052e-02
-1.730305142700672150e-02
-1.001079976558685303e-01
8.987431973218917847e-02
7.717842608690261841e-02
-5.761629343032836914e-02
4.440661054104566574e-03
1.341695245355367661e-02
7.361833006143569946e-02
-3.041058778762817383e-02
9.311364591121673584e-02
1.000045761466026306e-01
-9.997421503067016602e-02
1.746867597103118896e-02
6.879910361021757126e-03
-4.696624353528022766e-02
-1.216865181922912598e-01
-8.893498033285140991e-02
-2.179690264165401459e-02
-1.641169190406799316e-02
-9.361752122640609741e-02
-4.390607401728630066e-02
-5.222139880061149597e-02
4.230543971061706543e-02
-4.527836572378873825e-03
-1.917494460940361023e-02
-1.753512583673000336e-02
-7.340020686388015747e-02
2.303626574575901031e-02
-1.946552246809005737e-01
-3.307582437992095947e-02
3.189368918538093567e-02
6.634475197643041611e-03
2.375883795320987701e-02
-2.010248228907585144e-02
1.222926657646894455e-03
1.264892797917127609e-02
5.685078352689743042e-02
3.538063261657953262e-03
5.644176527857780457e-02
-3.774095093831419945e-04
-3.028794191777706146e-02
5.414198711514472961e-02
2.367301471531391144e-02
5.903901183046400547e-04
6.962264329195022583e-02
3.960872069001197815e-02
3.184904158115386963e-02
8.046896196901798248e-03
1.062469035387039185e-01
6.142593175172805786e-02
-2.066030912101268768e-02
-4.027570132166147232e-03
7.375349849462509155e-02
-6.355663388967514038e-02
3.930665180087089539e-02
2.157019637525081635e-02
-1.342472620308399200e-02
2.746499516069889069e-02
-2.049507759511470795e-02
-3.236485645174980164e-02
-4.566646646708250046e-03
-1.488854992203414440e-03
2.695618383586406708e-02
2.002370171248912811e-02
4.098709207028150558e-03
5.137704312801361084e-02
-4.273412004113197327e-02
-4.146392643451690674e-02
5.984034854918718338e-03
1.373312249779701233e-02
1.833060942590236664e-02
-3.800434246659278870e-02
6.464010104537010193e-03
-4.578828439116477966e-02
-4.773668572306632996e-02
-4.044112283736467361e-03
4.289010912179946899e-02
3.250110149383544922e-02
-9.252193383872509003e-03
9.410279244184494019e-02
4.751605913043022156e-02
1.729829236865043640e-02
6.739930808544158936e-02
1.490989327430725098e-02
-8.905009366571903229e-03
-8.450594730675220490e-03
2.056556008756160736e-02
-4.530804231762886047e-03
1.206793170422315598e-02
-3.288059681653976440e-02
7.454829663038253784e-02
-2.852734364569187164e-02
1.070386767387390137e-01
1.155382301658391953e-02
-1.140616368502378464e-02
-4.172867164015769958e-02
3.567309118807315826e-03
3.201685100793838501e-02
3.526111133396625519e-03
-2.842069230973720551e-02
1.583307795226573944e-02
-4.472775384783744812e-03
-3.533463180065155029e-02
-4.205689765512943268e-03
2.539319731295108795e-02
1.860464923083782196e-02
-1.698678918182849884e-02
-1.935141161084175110e-02
-7.054193317890167236e-02
-1.948580704629421234e-02
1.419033948332071304e-02
-1.267103198915719986e-02
-6.298130005598068237e-02
-9.562706202268600464e-02
1.648474484682083130e-02
4.295899998396635056e-03
-2.631998248398303986e-02
6.583774089813232422e-02
2.716135419905185699e-02
-6.481152493506669998e-03
2.413271067780442536e-05
2.495619468390941620e-02
4.627192765474319458e-02
-5.340381059795618057e-03
-5.392776336520910263e-03
7.866638712584972382e-03
-2.669637091457843781e-02
-1.623951457440853119e-02
-2.768908627331256866e-03
-5.450340732932090759e-02
1.456584129482507706e-02
3.315331414341926575e-02
4.883246496319770813e-03
5.969195626676082611e-03
2.798590285237878561e-04
2.404019236564636230e-03
2.376499772071838379e-02
2.250453643500804901e-02
1.601316407322883606e-02
1.333897467702627182e-02
-6.390203535556793213e-02
1.773327961564064026e-02
2.493431419134140015e-02
1.100246980786323547e-02
-1.050731725990772247e-02
1.997037045657634735e-02
3.982637077569961548e-02
-2.298137545585632324e-02
-3.639314323663711548e-02
7.769462652504444122e-03
-1.387880556285381317e-02
2.181099355220794678e-02
-5.826499778777360916e-03
3.942568972706794739e-02
-2.295080572366714478e-03
-3.166671469807624817e-02
-1.209338102489709854e-02
-3.496968420222401619e-03
-2.486352063715457916e-02
3.232374042272567749e-02
-4.254220426082611084e-02
-1.280292402952909470e-02
4.924882203340530396e-03
4.239714890718460083e-02
-5.639064311981201172e-02
4.009323194622993469e-02
-1.643033139407634735e-02
5.482400301843881607e-03
-5.057839676737785339e-03
1.928177475929260254e-02
9.694562293589115143e-03
-2.066909521818161011e-02
3.852478927001357079e-03
-1.272536441683769226e-02
-4.135026782751083374e-02
2.874447219073772430e-02
-1.893402263522148132e-02
3.185094520449638367e-02
-2.158919535577297211e-02
-5.083683133125305176e-02
2.870635874569416046e-02
-1.583717390894889832e-02
6.597631610929965973e-03
-2.265388146042823792e-02
1.782695529982447624e-03
7.741170935332775116e-03
7.720953226089477539e-02
-1.113460399210453033e-02
-9.069426916539669037e-03
9.339869022369384766e-03
-4.004581272602081299e-02
1.257877703756093979e-02
3.284806618466973305e-03
-1.324067916721105576e-02
-3.187592374160885811e-03
-1.323931515216827393e-01
2.116964757442474365e-02
1.050423365086317062e-02
5.666859820485115051e-02
2.549389004707336426e-02
2.167728729546070099e-02
-3.748041763901710510e-02
1.185933407396078110e-02
-6.300076842308044434e-02
9.616498649120330811e-02
-3.830385953187942505e-02
-2.592737227678298950e-02
-1.852410286664962769e-02
-3.142093867063522339e-02
6.621857173740863800e-03
6.352277100086212158e-02
7.983207702636718750e-03
-1.102753635495901108e-02
-7.419168204069137573e-02
2.152480743825435638e-02
-2.542836591601371765e-02
1.999338157474994659e-02
-1.157895941287279129e-02
5.209173541516065598e-03
1.284022908657789230e-02
-1.230620034039020538e-02
2.689938060939311981e-02
3.198080882430076599e-02
-1.075539505109190941e-03
1.943605393171310425e-02
-2.419702336192131042e-02
3.978735767304897308e-03
-2.157099917531013489e-02
4.867504537105560303e-02
2.592905238270759583e-02
1.471001189202070236e-02
-1.262411475181579590e-02
-3.881791606545448303e-02
1.445997506380081177e-02
1.826529577374458313e-02
-1.366191729903221130e-02
2.902632392942905426e-02
2.461520396173000336e-02
3.308674320578575134e-02
-5.298650357872247696e-03
-2.000350505113601685e-02
-6.847345083951950073e-02
-2.408668026328086853e-02
-1.959072612226009369e-02
2.567657502368092537e-03
-1.038478338159620762e-03
5.562759190797805786e-02
8.903330191969871521e-03
-5.464980378746986389e-03
2.597925253212451935e-03
-5.535962060093879700e-02
-7.899399497546255589e-04
3.119552740827202797e-03
-3.852691734209656715e-04
3.584439307451248169e-02
7.136046141386032104e-02
2.521896502003073692e-03
5.097766220569610596e-02
-6.904677301645278931e-02
8.929364383220672607e-02
2.605642890557646751e-03
1.185074076056480408e-02
-1.354926358908414841e-02
-6.068016961216926575e-02
6.012312322854995728e-02
1.280104462057352066e-02
-3.130835294723510742e-02
3.987485915422439575e-02
-1.065551787614822388e-01
-7.994957268238067627e-03
1.361639425158500671e-02
3.514086594805121422e-03
-1.006696652621030807e-02
8.349119685590267181e-03
-2.504865452647209167e-02
-8.079204708337783813e-04
7.924781739711761475e-02
4.664878547191619873e-02
-5.937417224049568176e-02
4.035603255033493042e-03
1.514624711126089096e-02
6.560075096786022186e-03
5.270288325846195221e-03
-3.238907456398010254e-02
1.385651063174009323e-02
5.355722084641456604e-02
1.381660252809524536e-02
1.770047005265951157e-03
6.034486927092075348e-03
2.480302751064300537e-02
-1.684910990297794342e-02
-3.136026486754417419e-02
-1.308975159190595150e-03
-3.507364168763160706e-02
-1.961024291813373566e-02
1.261771284043788910e-02
-3.358251228928565979e-02
5.518026882782578468e-04
-2.834684215486049652e-03
-3.132551535964012146e-02
-6.154971197247505188e-02
-3.682306781411170959e-02
-3.595404699444770813e-02
3.280831035226583481e-03
1.106863608583807945e-03
1.768928952515125275e-02
-9.589103050529956818e-03
2.619691006839275360e-02
-1.233482360839843750e-02
3.059796756133437157e-03
-4.483305290341377258e-02
2.219523489475250244e-02
3.110310994088649750e-02
-2.160093188285827637e-02
-1.407900918275117874e-02
8.960532024502754211e-03
1.244181115180253983e-02
-3.008071333169937134e-02
-8.946749381721019745e-03
-1.221508812159299850e-02
-1.875354163348674774e-02
3.296269848942756653e-02
1.040516328066587448e-02
-9.785400703549385071e-03
-1.607106626033782959e-02
-1.375596597790718079e-02
4.883369430899620056e-02
1.210644468665122986e-02
2.889006771147251129e-02
9.880417957901954651e-03
2.106166066369041800e-04
3.432851657271385193e-02
-1.469153648940846324e-04
-5.839698482304811478e-03
-2.493154257535934448e-02
-2.552806772291660309e-02
-1.855492964386940002e-02
5.619732197374105453e-03
-1.080963294953107834e-02
1.842725276947021484e-02
7.687328383326530457e-03
-5.825842171907424927e-02
-2.901986427605152130e-02
1.305720955133438110e-02
1.467263139784336090e-02
-5.706553347408771515e-03
1.361195743083953857e-02
4.245965275913476944e-03
-6.302776746451854706e-03
2.108717802911996841e-03
1.084622272173874080e-04
5.455097183585166931e-03
8.294011466205120087e-03
4.761006683111190796e-03
3.905276535078883171e-04
-9.965141303837299347e-03
-3.543779999017715454e-02
2.093188278377056122e-02
-8.310184930451214314e-04
-1.335544046014547348e-02
-2.673227898776531219e-02
-5.471778567880392075e-04
2.451672591269016266e-02
-2.820305712521076202e-02
-7.845485582947731018e-03
2.574685961008071899e-02
5.991090089082717896e-03
1.136955246329307556e-02
5.226532812230288982e-04
-1.527719758450984955e-02
-1.117969583719968796e-02
2.244032220914959908e-03
3.514220565557479858e-02
-3.026210935786366463e-03
2.718226425349712372e-02
-1.401405781507492065e-02
-1.200146158225834370e-03
-1.622771145775914192e-03
8.038059808313846588e-03
1.118576899170875549e-02
5.247578024864196777e-03
-1.369831711053848267e-02
3.399569168686866760e-02
-7.885461673140525818e-03
-3.923621843568980694e-04
-3.843180462718009949e-02
-3.856032341718673706e-02
-1.347344834357500076e-02
3.105302155017852783e-02
1.806174404919147491e-02
2.213237062096595764e-02
1.581990718841552734e-02
-2.626838721334934235e-02
2.871991135179996490e-02
-3.089381568133831024e-02
2.745400182902812958e-02
3.121397923678159714e-03
3.356639295816421509e-02
4.052056744694709778e-02
1.902168878586962819e-04
-2.589127235114574432e-02
-5.030293390154838562e-02
-2.676689065992832184e-03
1.342056598514318466e-02
-1.697203144431114197e-02
-1.012876396998763084e-03
-4.652448371052742004e-02
6.340002175420522690e-03
2.222617343068122864e-02
1.915827952325344086e-02
1.793187693692743778e-03
-4.288924112915992737e-02
3.685198258608579636e-03
-3.892933577299118042e-02
-6.336301565170288086e-02
1.222840882837772369e-02
8.636439219117164612e-03
2.811225689947605133e-02
-1.686966791749000549e-02
-1.364101842045783997e-02
3.794052451848983765e-02
6.417167931795120239e-02
1.599057950079441071e-02
6.742549594491720200e-03
-1.502320449799299240e-02
3.683291003108024597e-02
-7.475544512271881104e-02
-2.058202587068080902e-02
-3.362435102462768555e-02
3.140710666775703430e-02
-3.992673940956592560e-03
1.147160958498716354e-02
-1.704115769825875759e-03
2.551266225054860115e-03
-4.755124449729919434e-03
-2.764572203159332275e-02
-4.403588175773620605e-02
1.254252623766660690e-02
-1.232620701193809509e-02
2.151367999613285065e-02
-2.267997153103351593e-02
1.987177319824695587e-02
-1.712478138506412506e-02
2.775378525257110596e-02
-5.928268190473318100e-03
-1.708533032797276974e-03
-2.978263050317764282e-02
-8.867963217198848724e-03
-8.425261825323104858e-03
4.411185625940561295e-03
-1.499969745054841042e-03
4.093076288700103760e-02
1.276633702218532562e-02
-4.592023789882659912e-03
-3.192754089832305908e-02
-1.474093832075595856e-02
-1.471428107470273972e-02
-1.046313066035509109e-02
1.910647377371788025e-02
-7.141496241092681885e-02
-1.481285784393548965e-02
4.140802845358848572e-02
-8.502841927111148834e-03
5.283850431442260742e-02
1.769922673702239990e-02
2.369577251374721527e-02
5.129155144095420837e-02
1.766516268253326416e-02
-8.116813749074935913e-02
-2.899925783276557922e-02
-2.209343202412128448e-02
-5.193321034312248230e-03
-3.056106530129909515e-02
-4.632194712758064270e-02
-1.364387385547161102e-02
3.668111562728881836e-02
-6.180103868246078491e-02
-7.665905286557972431e-04
1.850153692066669464e-02
-2.518578805029392242e-02
-1.255693938583135605e-02
-1.182383857667446136e-02
-4.760545212775468826e-03
-3.114410489797592163e-02
1.956103183329105377e-02
-6.165800150483846664e-03
2.339278347790241241e-02
-2.099235728383064270e-02
1.314032450318336487e-02
3.872661292552947998e-02
5.558178946375846863e-02
3.243915736675262451e-02
1.715168543159961700e-02
-4.792339727282524109e-02
8.148702327162027359e-04
4.594365134835243225e-02
-5.689224693924188614e-03
1.445646863430738449e-03
1.691308687441051006e-03
-1.587276160717010498e-02
-1.238570362329483032e-02
1.233962457627058029e-02
-5.534518137574195862e-02
5.028695240616798401e-02
-7.846761494874954224e-03
-5.916890222579240799e-03
3.821424674242734909e-03
3.428338794037699699e-03
1.463142503052949905e-02
-8.384237997233867645e-03
-2.010772237554192543e-03
2.444633282721042633e-02
-2.032274007797241211e-02
-8.423393592238426208e-03
2.398205921053886414e-02
6.718953140079975128e-03
3.260789811611175537e-02
-2.467192150652408600e-02
4.989611357450485229e-02
-3.233095258474349976e-02
3.852393478155136108e-02
-6.700193881988525391e-02
3.763532638549804688e-02
-5.033772066235542297e-02
3.711515339091420174e-03
-2.365188673138618469e-02
-2.981879562139511108e-02
6.038695108145475388e-03
3.281568735837936401e-02
2.033353596925735474e-02
-1.393566280603408813e-02
-5.758408457040786743e-02
3.724000416696071625e-03
1.701268553733825684e-02
5.253235343843698502e-03
-1.465176581405103207e-03
-1.216934341937303543e-02
-1.626951992511749268e-02
-3.650569543242454529e-02
1.489592832513153553e-03
-3.114399872720241547e-02
3.988438472151756287e-02
4.791461676359176636e-02
-1.887210644781589508e-02
-1.227432396262884140e-02
-2.061603032052516937e-02
-1.001584809273481369e-03
9.563116356730461121e-03
-6.026380509138107300e-02
-1.740261912345886230e-02
-1.512710843235254288e-02
-3.060812130570411682e-02
2.621147409081459045e-02
-1.236162334680557251e-02
4.105035215616226196e-02
-2.560511603951454163e-02
-3.014117293059825897e-02
-3.855858463793992996e-03
-1.840787567198276520e-02
2.238211221992969513e-03
3.517791163176298141e-03
-5.401488393545150757e-02
-1.775830425322055817e-02
2.267396077513694763e-02
7.065432518720626831e-02
-2.191195450723171234e-02
3.110658377408981323e-02
-6.980030983686447144e-02
-3.341658413410186768e-02
9.861550293862819672e-03
-2.495182491838932037e-02
-6.616439670324325562e-02
-1.237383671104907990e-02
-3.501468524336814880e-02
3.754108445718884468e-03
-1.421161089092493057e-02
3.023882769048213959e-02
1.395212393254041672e-02
-6.858621537685394287e-02
-7.475037872791290283e-02
3.748597577214241028e-02
-6.796768866479396820e-05
-1.171550154685974121e-02
-2.040229551494121552e-02
2.483838982880115509e-02
1.077922806143760681e-02
-3.901757299900054932e-02
9.827233105897903442e-02
-8.118567615747451782e-02
-1.523824967443943024e-02
5.980555433779954910e-03
-9.664492309093475342e-02
-4.356255754828453064e-02
1.358054485172033310e-02
-6.527885794639587402e-02
2.377481199800968170e-02
5.306972190737724304e-02
-1.915662363171577454e-02
-3.869293257594108582e-02
2.091983892023563385e-02
7.470452785491943359e-02
4.380640387535095215e-02
6.414537876844406128e-02
-4.224931821227073669e-02
8.084642887115478516e-02
-1.006618235260248184e-02
-3.714687889441847801e-03
-1.679377816617488861e-02
7.597953546792268753e-03
7.845662534236907959e-02
1.300393696874380112e-02
1.862844079732894897e-02
-3.222942352294921875e-02
2.263634465634822845e-02
9.189770556986331940e-03
9.122692048549652100e-03
-1.105928700417280197e-02
-2.471030317246913910e-02
-1.358096767216920853e-02
-6.906736642122268677e-03
4.313733894377946854e-03
7.074045133776962757e-04
-2.840877883136272430e-02
1.270829886198043823e-02
-2.376731485128402710e-02
6.570452358573675156e-03
-2.715825475752353668e-02
2.202672697603702545e-02
-2.208532020449638367e-02
-1.716893282718956470e-03
1.441459637135267258e-02
-8.558608591556549072e-03
2.958890423178672791e-02
-4.380936734378337860e-03
-2.699318528175354004e-02
2.567754872143268585e-02
-2.812688238918781281e-03
-1.373098231852054596e-02
2.236071415245532990e-02
-2.364031039178371429e-02
-1.740171574056148529e-02
-3.986204043030738831e-02
-5.902609787881374359e-03
-1.128447335213422775e-02
2.903914428316056728e-04
1.506026717834174633e-03
3.967569395899772644e-02
4.862899426370859146e-03
-2.549342624843120575e-02
3.080345503985881805e-02
-1.886050403118133545e-02
-3.806542232632637024e-02
3.080575494095683098e-03
5.724667757749557495e-02
1.017794106155633926e-02
1.185404881834983826e-02
-1.608664402738213539e-03
-5.577872972935438156e-03
1.312287244945764542e-02
6.958995759487152100e-02
1.708297245204448700e-02
1.957990601658821106e-02
-1.935341395437717438e-02
-1.921402290463447571e-02
5.409377068281173706e-02
3.127304464578628540e-02
-1.951909624040126801e-02
1.122078206390142441e-02
-1.751628518104553223e-02
-1.240660902112722397e-02
-8.817233890295028687e-02
-1.437810622155666351e-02
-1.001228019595146179e-02
6.850551348179578781e-03
-1.853736862540245056e-02
-3.816663846373558044e-02
4.475338384509086609e-02
-1.334414258599281311e-02
-2.341395244002342224e-02
2.155385911464691162e-03
6.007938645780086517e-03
4.267338290810585022e-02
3.105569630861282349e-03
1.065432652831077576e-02
-4.279785975813865662e-02
4.800735786557197571e-02
-2.278297021985054016e-02
-1.598959602415561676e-02
1.137016434222459793e-02
-2.240641228854656219e-02
7.515019737184047699e-03
-4.459968209266662598e-02
-3.499775007367134094e-02
-3.369370847940444946e-02
-5.060138180851936340e-02
2.690995112061500549e-02
-8.386421948671340942e-02
1.392687112092971802e-02
2.884957566857337952e-02
3.745175898075103760e-02
-8.146188338287174702e-04
2.542085712775588036e-04
-4.823644179850816727e-03
5.075275152921676636e-02
1.515430957078933716e-02
-2.279540710151195526e-02
3.311760351061820984e-02
4.989637434482574463e-02
-2.383499033749103546e-02
-1.061639189720153809e-02
1.575385779142379761e-02
-2.464440651237964630e-02
-3.362266719341278076e-02
-4.504255205392837524e-02
-7.911710999906063080e-03
2.685223892331123352e-02
2.718498371541500092e-02
1.587126217782497406e-02
1.992077566683292389e-02
2.728414162993431091e-02
1.321902684867382050e-02
-1.673080585896968842e-02
-2.252367697656154633e-02
-2.512620948255062103e-02
-1.000221259891986847e-02
2.346457222301978618e-05
-9.855910902842879295e-04
5.723875761032104492e-02
-3.517376631498336792e-02
-1.841102354228496552e-02
-8.694430813193321228e-03
5.497055128216743469e-03
-2.454592613503336906e-03
-4.236590489745140076e-02
3.677061200141906738e-02
8.475209586322307587e-03
-2.613193728029727936e-02
-1.417628116905689240e-02
7.917323149740695953e-03
-2.589517459273338318e-02
1.704637706279754639e-02
2.188874222338199615e-02
-1.126016140915453434e-03
-2.733609639108181000e-02
-1.033038483001291752e-03
1.124873757362365723e-02
-1.235787756741046906e-02
-3.802775591611862183e-02
-3.553002607077360153e-03
-5.504455417394638062e-02
1.939899870194494724e-03
1.299567800015211105e-02
2.280848659574985504e-02
-3.034842899069190025e-03
2.594566904008388519e-03
-8.807349018752574921e-03
1.168738678097724915e-02
-1.606980711221694946e-02
-2.216855064034461975e-02
-4.779022559523582458e-02
-1.224238332360982895e-02
-5.047982558608055115e-03
1.903220824897289276e-02
-2.124075964093208313e-02
-2.549648517742753029e-03
-1.262626983225345612e-02
-2.138622477650642395e-02
-8.853229228407144547e-04
1.127521973103284836e-02
-9.489371441304683685e-03
4.676843807101249695e-02
3.765328973531723022e-02
3.065371327102184296e-02
1.059838011860847473e-02
-2.097295410931110382e-02
-3.457349911332130432e-02
5.591351538896560669e-02
-6.490867584943771362e-02
-2.304484602063894272e-03
-9.897066652774810791e-02
-1.336579956114292145e-02
-6.533998996019363403e-02
-9.347559884190559387e-03
-1.200399361550807953e-02
-9.584760293364524841e-03
7.864522188901901245e-02
1.248673885129392147e-03
-5.940808355808258057e-02
-5.478923395276069641e-02
-8.063217625021934509e-03
1.918875798583030701e-02
-2.529926411807537079e-02
-4.933469742536544800e-02
-3.929861262440681458e-02
-4.861386120319366455e-02
3.652091324329376221e-02
-1.938832178711891174e-02
3.732300922274589539e-02
5.330728739500045776e-02
1.447747927159070969e-02
-2.950352244079113007e-02
-3.466521948575973511e-02
7.878160104155540466e-03
-1.975104771554470062e-02
-5.462087690830230713e-02
1.405311189591884613e-02
1.250332966446876526e-02
-2.340949513018131256e-02
1.987658813595771790e-02
-3.220972418785095215e-02
6.846565753221511841e-02
3.278509248048067093e-03
6.514631211757659912e-02
-3.862938284873962402e-02
-1.309586875140666962e-02
8.186911046504974365e-02
-2.272187732160091400e-02
-3.004161641001701355e-02
-1.439694128930568695e-02
-3.120998106896877289e-02
2.980537340044975281e-02
3.144710510969161987e-02
4.155672341585159302e-02
-6.627511233091354370e-02
2.247038856148719788e-02
2.111020497977733612e-02
-8.672732859849929810e-03
-2.838290296494960785e-02
-6.670585833489894867e-03
-3.345695137977600098e-02
2.676961245015263557e-03
-3.074383176863193512e-02
-1.935918070375919342e-02
6.372891366481781006e-03
-2.015802450478076935e-02
-5.031118635088205338e-03
2.428305335342884064e-02
1.063147466629743576e-02
5.391667410731315613e-02
1.402161456644535065e-02
-6.830107886344194412e-03
-2.711530961096286774e-02
-1.991407014429569244e-02
6.783586740493774414e-02
-7.205227389931678772e-03
4.580909851938486099e-03
-3.127668797969818115e-02
-4.783669859170913696e-02
-1.773623935878276825e-02
-3.529021143913269043e-02
-6.526608485728502274e-03
4.336358234286308289e-02
7.356680929660797119e-02
1.330175530165433884e-02
1.543978974223136902e-02
1.745702698826789856e-03
4.766198992729187012e-02
3.121605329215526581e-02
1.141304895281791687e-02
-1.057562604546546936e-02
-6.460472010076045990e-03
-3.042507730424404144e-02
-2.772513777017593384e-02
-4.096810519695281982e-02
3.680424764752388000e-02
1.473547238856554031e-02
-1.185453403741121292e-02
2.994208596646785736e-02
1.446205563843250275e-02
-2.284482866525650024e-02
-1.625866256654262543e-02
-5.073196953162550926e-04
-2.369312383234500885e-02
-3.375102533027529716e-03
-3.050883859395980835e-02
5.743820220232009888e-03
-1.881724968552589417e-02
6.081776693463325500e-02
-2.380824415013194084e-03
-2.938981540501117706e-02
6.742917466908693314e-03
1.360812783241271973e-02
-2.472788281738758087e-02
2.604980580508708954e-02
-2.993791364133358002e-02
-8.241184055805206299e-03
-2.151188254356384277e-02
3.543282672762870789e-02
8.258160203695297241e-03
-2.336999401450157166e-03
1.968032866716384888e-02
-1.642514765262603760e-02
2.871588058769702911e-02
-7.673059590160846710e-03
1.201902888715267181e-02
-8.268623612821102142e-03
-1.081494335085153580e-02
-8.658526465296745300e-03
2.089327014982700348e-02
2.539151161909103394e-02
-8.113422431051731110e-03
-1.790190488100051880e-02
-1.099011045880615711e-03
3.610043227672576904e-02
2.680028323084115982e-03
-2.102980948984622955e-02
-1.293776929378509521e-02
-2.511179773136973381e-03
1.923457346856594086e-02
2.578755374997854233e-03
4.659755900502204895e-02
2.854433283209800720e-02
3.462134674191474915e-02
-3.893738240003585815e-02
-4.796907305717468262e-03
4.727225750684738159e-02
-1.550454087555408478e-02
3.949832543730735779e-02
1.570287276990711689e-03
3.828096017241477966e-02
-1.948664337396621704e-02
2.423421293497085571e-02
1.881972514092922211e-02
5.320658674463629723e-04
2.496811561286449432e-02
8.198319934308528900e-03
-3.669558838009834290e-02
-1.434843149036169052e-02
6.159789394587278366e-03
9.934577159583568573e-03
7.913527078926563263e-03
3.659719228744506836e-02
-1.315504033118486404e-02
1.325882598757743835e-02
-1.585131324827671051e-02
5.921379663050174713e-03
-2.617985755205154419e-02
-1.186378858983516693e-02
-1.467137597501277924e-02
9.938270784914493561e-03
3.308643028140068054e-02
-4.262649267911911011e-02
-3.800756530836224556e-04
-2.382096368819475174e-03
3.163197636604309082e-02
2.659858204424381256e-02
-1.238256320357322693e-02
2.206948585808277130e-02
-3.129206225275993347e-02
-2.858909033238887787e-02
-4.409946501255035400e-03
6.443611346185207367e-03
2.647470682859420776e-02
-1.205853093415498734e-02
6.311378628015518188e-02
-2.560756355524063110e-02
1.637941785156726837e-02
1.443185191601514816e-02
2.752017462626099586e-03
-6.820189766585826874e-03
-1.367047149688005447e-02
-3.183107823133468628e-02
-3.043388202786445618e-02
2.922036871314048767e-02
-2.677399478852748871e-02
-1.569536514580249786e-02
-1.685573533177375793e-02
-5.378840491175651550e-02
-4.125536605715751648e-02
-2.926885895431041718e-02
-1.916249096393585205e-02
3.672206029295921326e-02
-4.729253426194190979e-02
-3.291633725166320801e-02
4.701264202594757080e-03
-3.738231584429740906e-02
-7.323157787322998047e-02
-2.197909541428089142e-02
-1.619830541312694550e-02
-4.760054405778646469e-03
7.260689744725823402e-04
-2.439147792756557465e-03
-4.780588671565055847e-02
2.354396320879459381e-02
-5.911514908075332642e-02
-8.762454614043235779e-03
2.608359605073928833e-02
-1.215231325477361679e-02
1.244852691888809204e-02
-9.710656479001045227e-03
1.524421758949756622e-02
-6.051949039101600647e-02
-1.691781729459762573e-02
2.753513492643833160e-02
7.093222346156835556e-03
9.499301761388778687e-02
-3.045557253062725067e-02
2.026417851448059082e-02
-3.887574747204780579e-02
1.795891486108303070e-02
6.360380351543426514e-02
-7.284443825483322144e-03
-1.413124799728393555e-02
3.377209850441431627e-06
5.804550275206565857e-02
3.581183264032006264e-03
-7.850185967981815338e-03
-2.074568159878253937e-02
-3.096910007297992706e-02
4.852310568094253540e-02
-1.365535892546176910e-02
2.250526100397109985e-02
-1.888792030513286591e-02
1.303679682314395905e-02
4.902305081486701965e-02
1.243793964385986328e-02
9.857688099145889282e-03
4.622044041752815247e-02
4.393561277538537979e-03
1.254603639245033264e-02
1.734287291765213013e-02
6.444781087338924408e-03
2.042401954531669617e-02
3.925653174519538879e-02
-1.776408776640892029e-02
-1.717377826571464539e-02
1.496707554906606674e-02
2.970393374562263489e-02
-2.197755267843604088e-03
-1.856756047345697880e-03
-4.717578366398811340e-02
-1.984012499451637268e-02
-1.357954181730747223e-02
2.189462259411811829e-02
-5.770782008767127991e-03
3.884647414088249207e-02
-1.277642324566841125e-02
-1.908004097640514374e-02
1.543544139713048935e-02
-3.973459079861640930e-02
-3.893547877669334412e-02
-1.520863175392150879e-02
-4.996134340763092041e-02
-4.164119809865951538e-02
-1.885255984961986542e-02
-1.128178648650646210e-02
-4.324574396014213562e-02
2.812445908784866333e-02
-6.255828309804201126e-03
-2.847144939005374908e-02
-3.284992650151252747e-03
1.539182849228382111e-02
2.316376008093357086e-02
2.795592509210109711e-02
1.116929226554930210e-03
-4.070770740509033203e-02
-1.746744289994239807e-02
-5.284701008349657059e-03
-1.083205919712781906e-02
2.702531032264232635e-02
-7.792104501277208328e-03
-1.238506101071834564e-02
4.606369137763977051e-02
3.823719453066587448e-03
4.077243804931640625e-02
1.385230291634798050e-02
-1.385113131254911423e-02
9.071544744074344635e-03
-2.428097091615200043e-02
1.287667173892259598e-02
1.623997278511524200e-02
-1.043719798326492310e-02
-3.423693031072616577e-02
5.945273488759994507e-02
-2.075815759599208832e-02
-5.116251297295093536e-03
1.251765154302120209e-02
8.100291714072227478e-03
2.291573182446882129e-04
-2.603127853944897652e-03
8.698341436684131622e-03
1.671861298382282257e-02
3.650784119963645935e-02
1.585861109197139740e-02
1.188379712402820587e-03
-2.526663057506084442e-02
1.661886088550090790e-02
1.593636348843574524e-02
-1.288280542939901352e-02
3.155479952692985535e-02
-1.680191420018672943e-02
-2.435709349811077118e-02
7.757617626339197159e-03
-2.030523493885993958e-02
5.052077397704124451e-02
-2.616098895668983459e-02
6.312511116266250610e-02
6.625648238696157932e-04
2.448403090238571167e-02
1.223891321569681168e-02
-1.914729177951812744e-02
2.504764497280120850e-02
1.808827277272939682e-03
-4.390813037753105164e-02
-2.761730551719665527e-02
-9.112049825489521027e-03
2.691820496693253517e-03
-3.924386575818061829e-03
-5.244094505906105042e-02
-5.820624157786369324e-02
1.855752989649772644e-02
5.364587064832448959e-03
3.593531623482704163e-02
-1.745712012052536011e-02
3.930287063121795654e-02
-2.692048996686935425e-02
-2.482083998620510101e-02
2.415068075060844421e-02
1.510414294898509979e-02
-4.159724712371826172e-02
3.275517374277114868e-02
6.481277290731668472e-03
-3.058557165786623955e-03
-3.469056263566017151e-02
-8.946964517235755920e-03
3.452847898006439209e-02
-1.870831940323114395e-03
-1.141064148396253586e-02
-5.302744731307029724e-02
2.382128499448299408e-02
1.507263537496328354e-02
7.449218071997165680e-03
-5.314113572239875793e-03
3.784389793872833252e-02
-9.151631034910678864e-03
1.455719769001007080e-02
1.811702549457550049e-02
4.575222730636596680e-03
-9.751710109412670135e-03
-1.048133894801139832e-02
-1.362830121070146561e-02
-6.545861717313528061e-03
1.642349548637866974e-02
-6.569659803062677383e-03
2.032180130481719971e-02
2.268548682332038879e-02
-5.116496235132217407e-02
4.116274788975715637e-02
-5.738730542361736298e-03
-5.200522951781749725e-03
6.933925207704305649e-03
8.111543208360671997e-02
1.099853683263063431e-02
5.386411771178245544e-02
1.080660335719585419e-02
-7.549344748258590698e-02
1.135660242289304733e-02
-3.507186891511082649e-03
-4.997285548597574234e-03
5.786230042576789856e-02
-1.704811118543148041e-02
-5.642081052064895630e-02
3.781962767243385315e-02
-4.636154696345329285e-02
-1.758569665253162384e-02
1.282669021748006344e-03
-1.729804836213588715e-02
-1.891525089740753174e-02
1.780902892351150513e-01
6.070679053664207458e-03
-2.929706126451492310e-02
6.693007424473762512e-03
-3.310387954115867615e-02
-9.345387667417526245e-02
7.903752475976943970e-02
-5.863630771636962891e-02
8.421807736158370972e-02
4.788261651992797852e-02
1.929498836398124695e-02
-3.765290603041648865e-02
-4.946578666567802429e-02
-2.130966447293758392e-02
-3.062164597213268280e-02
1.596048660576343536e-02
-1.787847839295864105e-02
5.942656192928552628e-03
-7.973898202180862427e-03
-1.660183966159820557e-01
4.036414995789527893e-02
1.175452116876840591e-02
4.402762651443481445e-02
-4.034165292978286743e-02
-4.759689047932624817e-02
-1.115214312449097633e-03
-7.309332024306058884e-03
-9.593879804015159607e-03
-4.645889997482299805e-02
4.439942538738250732e-02
4.727880936115980148e-03
-1.983287930488586426e-02
2.245215699076652527e-02
-4.763648658990859985e-02
-1.179257314652204514e-02
-2.514316141605377197e-02
-1.637893612496554852e-03
1.005327142775058746e-02
7.904685102403163910e-03
-3.573863580822944641e-02
-3.351492062211036682e-02
4.587993491441011429e-03
-2.928103692829608917e-02
-1.925429143011569977e-02
3.463704604655504227e-03
1.478887046687304974e-03
-6.112278439104557037e-03
1.070351246744394302e-02
-1.243279781192541122e-02
7.343114167451858521e-02
-2.263790369033813477e-02
-4.769759252667427063e-02
2.350774779915809631e-02
6.021733395755290985e-03
-1.674109883606433868e-02
5.465082824230194092e-02
1.915029436349868774e-02
-1.902042515575885773e-02
3.225715458393096924e-02
-2.675727568566799164e-02
4.375803843140602112e-02
3.899273276329040527e-02
4.422745667397975922e-03
6.444161385297775269e-02
7.057961076498031616e-02
8.633197285234928131e-03
4.811299592256546021e-02
3.596093878149986267e-02
-3.524154424667358398e-02
-3.667477145791053772e-02
1.277749543078243732e-03
-3.335029631853103638e-02
1.659621670842170715e-02
1.664035953581333160e-02
1.056291908025741577e-02
-1.173116080462932587e-02
-1.703538745641708374e-02
2.456221031025052071e-03
-5.192840099334716797e-02
2.315118536353111267e-02
1.771065220236778259e-02
-1.187185849994421005e-02
-1.509942393749952316e-02
-1.106273978948593140e-01
3.944348543882369995e-02
-2.337797544896602631e-03
-3.655437752604484558e-02
-4.280762746930122375e-02
-4.597505182027816772e-02
-1.875582337379455566e-02
9.973349981009960175e-03
-7.664526812732219696e-03
-4.515498131513595581e-02
-2.086927182972431183e-02
3.501687198877334595e-02
-3.058601915836334229e-02
3.271824447438120842e-03
-5.780950188636779785e-02
2.161040203645825386e-03
-1.217646710574626923e-02
3.908340353518724442e-03
-1.045485865324735641e-02
-2.783831395208835602e-02
-1.177660096436738968e-02
1.699396036565303802e-02
-4.093848541378974915e-02
1.488241087645292282e-02
3.963193390518426895e-03
2.852801978588104248e-02
-1.466546393930912018e-02
9.620616212487220764e-03
6.573238410055637360e-03
-4.348746500909328461e-03
7.993787527084350586e-03
4.538395255804061890e-02
2.581902593374252319e-02
7.359595037996768951e-03
6.578587926924228668e-03
-1.374958455562591553e-02
4.702565073966979980e-02
-4.279606416821479797e-02
1.219132542610168457e-02
-2.329012006521224976e-02
-1.494252681732177734e-02
2.842117659747600555e-02
-2.628007531166076660e-02
-3.378725051879882812e-02
9.915431030094623566e-03
-1.445505674928426743e-02
-1.877716393209993839e-03
1.268628519028425217e-03
-3.276994824409484863e-02
4.808190464973449707e-02
1.183936279267072678e-02
1.835289970040321350e-02
-9.233077056705951691e-03
-3.761321678757667542e-02
3.185205860063433647e-03
-3.186235576868057251e-02
-1.119844615459442139e-02
2.292736433446407318e-02
-6.432043854147195816e-03
-9.384811855852603912e-03
-2.798041328787803650e-02
6.783347344025969505e-04
4.734480753540992737e-03
-1.320288050919771194e-03
9.898988064378499985e-04
-2.762956731021404266e-02
-7.406149990856647491e-03
-9.058875963091850281e-03
-5.351949948817491531e-03
4.336318932473659515e-03
-4.996393341571092606e-03
-4.173248074948787689e-03
7.521767634898424149e-03
-3.198919445276260376e-02
-3.840323537588119507e-02
5.336333066225051880e-02
2.709894906729459763e-03
-1.122228056192398071e-02
3.403170499950647354e-03
2.064049430191516876e-02
-7.507156115025281906e-03
2.360041067004203796e-02
5.388700962066650391e-02
3.102513030171394348e-03
-3.657860308885574341e-02
1.690989302005618811e-04
-2.623040042817592621e-02
-2.186920493841171265e-03
4.529613535851240158e-03
1.401510369032621384e-02
1.967606507241725922e-02
1.138354185968637466e-02
-4.252342134714126587e-02
1.590721774846315384e-03
-4.133705049753189087e-02
6.916612852364778519e-03
3.627883642911911011e-02
1.898763817735016346e-03
-4.174533300101757050e-03
1.851676218211650848e-02
1.076007029041647911e-03
-5.849305912852287292e-02
8.087749779224395752e-02
-4.408201947808265686e-02
3.212949633598327637e-02
1.852159947156906128e-02
3.545675426721572876e-02
-7.499337662011384964e-03
7.521102577447891235e-02
-7.999042421579360962e-02
3.610415011644363403e-02
1.616536453366279602e-02
-1.906738802790641785e-02
4.401694983243942261e-02
3.609473258256912231e-02
-3.876014798879623413e-02
9.693612344563007355e-03
-3.495699167251586914e-02
-2.109258249402046204e-02
-4.516324028372764587e-02
6.257103383541107178e-02
-2.968759648501873016e-02
1.174449175596237183e-02
6.114457175135612488e-02
2.679332625120878220e-03
-8.474185131490230560e-03
-8.064101450145244598e-03
-5.379812791943550110e-03
8.544264733791351318e-02
6.421926664188504219e-04
-1.906132139265537262e-02
-3.999438881874084473e-02
-7.857485674321651459e-03
8.759122341871261597e-02
4.480798263102769852e-03
2.965997904539108276e-02
-1.338220085017383099e-03
-2.600842528045177460e-02
-6.662149727344512939e-02
5.505140870809555054e-02
-2.203178592026233673e-02
-3.445157781243324280e-02
-1.083908043801784515e-02
7.129038870334625244e-02
-1.420056354254484177e-02
-5.839065182954072952e-03
-2.744075842201709747e-03
-2.920484356582164764e-02
-6.812540348619222641e-03
-1.678273268043994904e-02
-2.968917600810527802e-02
3.611233830451965332e-02
-7.413511164486408234e-03
1.389132440090179443e-02
1.395006943494081497e-02
-1.286391634494066238e-02
-4.511907324194908142e-02
-2.723111957311630249e-02
-1.429011765867471695e-02
-2.008034288883209229e-02
-1.773319905623793602e-03
1.941650547087192535e-02
-3.691021818667650223e-03
2.618527039885520935e-02
-2.935439161956310272e-02
1.437745708972215652e-02
5.115672573447227478e-02
-1.950689777731895447e-02
-3.114128112792968750e-02
-2.681145071983337402e-02
1.673958450555801392e-02
-1.942488830536603928e-03
-1.455695484764873981e-03
-9.748594462871551514e-02
3.404303686693310738e-03
-2.731573209166526794e-02
5.947695113718509674e-03
4.328037053346633911e-02
2.172178030014038086e-02
-5.116245150566101074e-02
-1.503700390458106995e-03
-1.088971551507711411e-02
-3.746760636568069458e-02
-7.138492539525032043e-03
1.191157847642898560e-02
-1.983643509447574615e-02
3.685374185442924500e-02
1.784649305045604706e-02
-2.704658173024654388e-02
2.497922070324420929e-02
-1.162245869636535645e-02
-1.684002391993999481e-02
5.525654181838035583e-02
-1.489568501710891724e-02
5.498780403286218643e-03
7.010942324995994568e-03
-2.318858169019222260e-02
1.206070650368928909e-02
1.113951485604047775e-02
1.053794845938682556e-02
5.260115489363670349e-03
3.611693158745765686e-02
4.511921200901269913e-03
-4.808053374290466309e-03
1.747012324631214142e-02
-3.958356752991676331e-02
-8.474805392324924469e-03
4.449714347720146179e-02
9.430033154785633087e-03
-1.121081877499818802e-02
-4.763916134834289551e-03
4.981444403529167175e-02
3.019577264785766602e-02
8.772378787398338318e-03
-2.032777108252048492e-02
-2.482025302015244961e-04
-4.252355545759201050e-02
2.881351299583911896e-02
-1.535316929221153259e-02
-8.008725009858608246e-03
-3.911104984581470490e-03
1.442295033484697342e-02
-3.035704419016838074e-02
5.958663672208786011e-02
-4.516932368278503418e-02
2.285415492951869965e-02
-3.254393523093312979e-04
-1.451149769127368927e-02
3.024938143789768219e-02
2.757079666480422020e-03
5.118058249354362488e-02
-4.890409111976623535e-02
3.122321143746376038e-02
-1.499296911060810089e-02
-5.056965723633766174e-02
9.333859779872000217e-04
8.356258273124694824e-03
2.272712765261530876e-03
-2.417236380279064178e-02
3.870300948619842529e-02
4.557748883962631226e-02
-1.167310494929552078e-02
-4.208997357636690140e-03
1.879116520285606384e-02
3.675457090139389038e-03
1.593029871582984924e-02
9.333818219602108002e-03
-2.666552551090717316e-02
1.098542008548974991e-02
6.409566849470138550e-02
4.063906893134117126e-02
-8.235390298068523407e-03
-1.258114259690046310e-02
2.081278711557388306e-02
2.318676002323627472e-02
3.154935315251350403e-03
7.907926337793469429e-04
-3.237491473555564880e-02
2.900548093020915985e-02
3.690995648503303528e-02
5.667028483003377914e-03
2.485977858304977417e-02
-2.826657518744468689e-02
-6.149146705865859985e-02
-1.296849828213453293e-02
-2.519304305315017700e-02
1.067493017762899399e-02
-7.385570090264081955e-03
8.296641521155834198e-03
2.539870329201221466e-02
5.248580127954483032e-02
-5.756099242717027664e-03
-2.246055193245410919e-02
-4.140684753656387329e-02
1.889665238559246063e-02
1.965963281691074371e-03
-7.726447191089391708e-03
1.794164441525936127e-02
1.282830629497766495e-02
-2.708523347973823547e-02
4.216564353555440903e-03
3.959836903959512711e-03
1.099022477865219116e-02
2.079540491104125977e-02
2.638555690646171570e-02
8.977446123026311398e-04
-5.839320365339517593e-03
-5.004110932350158691e-02
9.356976486742496490e-03
-1.307169254869222641e-02
1.995142176747322083e-02
-1.501060836017131805e-02
-1.506803371012210846e-02
-3.509561531245708466e-03
7.220017723739147186e-03
3.680709376931190491e-02
-2.836400177329778671e-03
-5.076487082988023758e-03
4.087046533823013306e-02
-2.976454561576247215e-03
-1.947553642094135284e-02
2.849341370165348053e-03
7.633367087692022324e-03
-2.950615994632244110e-02
9.598428383469581604e-03
-4.269221425056457520e-02
2.181329391896724701e-02
-4.986529797315597534e-02
-5.789212882518768311e-03
-7.027099840342998505e-03
2.857991261407732964e-03
-1.613419153727591038e-03
-7.268528919667005539e-03
-3.711524233222007751e-02
2.525660581886768341e-02
-3.615805180743336678e-03
5.566757917404174805e-02
4.888598807156085968e-03
-7.038543699309229851e-04
-1.157855521887540817e-02
-5.894255358725786209e-03
3.335593268275260925e-02
-2.614551782608032227e-02
1.340533513575792313e-02
6.256352644413709641e-03
4.730991553515195847e-03
-1.595094986259937286e-02
-2.561121946200728416e-03
-2.404416352510452271e-02
-1.953973434865474701e-02
9.766190312802791595e-03
-1.308848429471254349e-02
-4.878187924623489380e-02
-5.787016451358795166e-02
-1.039980165660381317e-02
-8.850910700857639313e-03
2.773507265374064445e-03
2.843007817864418030e-02
-1.466754451394081116e-02
-4.178639873862266541e-02
2.957140840590000153e-02
-3.187788184732198715e-03
-9.124097414314746857e-03
-5.015631765127182007e-02
-1.465800963342189789e-02
-5.290849134325981140e-03
1.846164837479591370e-02
1.607900857925415039e-02
-1.227615121752023697e-02
-2.112144604325294495e-03
3.192229568958282471e-02
1.529825851321220398e-02
-2.676095813512802124e-02
1.886672922410070896e-03
9.474844671785831451e-03
3.831572365015745163e-03
-2.631770214065909386e-03
5.879487376660108566e-03
-4.047641530632972717e-02
2.499485015869140625e-02
-8.792120032012462616e-03
-3.815578762441873550e-03
7.237869780510663986e-03
-2.066905423998832703e-02
-2.047835104167461395e-02
-1.806849241256713867e-02
-2.960601635277271271e-02
3.533323062583804131e-03
-3.880527243018150330e-02
-1.966688036918640137e-02
-1.792646758258342743e-02
-2.276076003909111023e-02
1.449649222195148468e-03
-5.284559726715087891e-02
-2.729570865631103516e-02
3.835064917802810669e-02
-4.262217134237289429e-02
-8.039171225391328335e-04
-9.961090981960296631e-03
-4.470940306782722473e-02
-3.105275891721248627e-02
-5.462449043989181519e-03
1.711667887866497040e-02
-8.357102982699871063e-03
-1.700877957046031952e-02
-2.242995239794254303e-02
-1.118483301252126694e-02
-2.627073042094707489e-02
3.280471079051494598e-03
1.040623616427183151e-02
1.193768461234867573e-03
-9.236533660441637039e-04
-1.454007346183061600e-02
-2.148341014981269836e-02
-1.373389083892107010e-02
-6.442504934966564178e-03
5.234911106526851654e-03
6.896739942021667957e-04
-3.241640701889991760e-02
2.177536720409989357e-03
2.859280072152614594e-02
1.370907016098499298e-02
6.023904308676719666e-03
1.585959084331989288e-02
-3.022809047251939774e-03
2.324291504919528961e-02
-2.724116435274481773e-03
-4.622433800250291824e-03
-3.071569092571735382e-02
1.712121628224849701e-02
-2.390103600919246674e-02
-1.400795020163059235e-02
-7.758506573736667633e-03
2.414524368941783905e-02
-3.032636642456054688e-02
2.537300065159797668e-02
-3.662314265966415405e-02
1.440357975661754608e-02
-3.272805595770478249e-03
-1.442014984786510468e-02
4.238455090671777725e-03
1.411856245249509811e-02
6.247949600219726562e-02
-7.998479902744293213e-02
1.538952160626649857e-02
-3.848108649253845215e-02
-4.843714460730552673e-02
-1.922616362571716309e-02
4.000278934836387634e-02
4.003631323575973511e-02
-6.311061326414346695e-03
2.700415439903736115e-03
8.030496537685394287e-02
1.493804156780242920e-02
-3.005548613145947456e-03
3.700001537799835205e-02
-3.825486451387405396e-02
2.454254031181335449e-02
4.277512803673744202e-02
-2.717818319797515869e-02
2.483622357249259949e-02
9.594127535820007324e-02
9.230372495949268341e-03
-1.711037941277027130e-03
-5.127697717398405075e-03
1.198499184101819992e-02
2.312618866562843323e-02
-4.281748551875352859e-03
-1.752365939319133759e-02
-2.638517878949642181e-02
4.932620562613010406e-03
3.267703205347061157e-02
8.400526829063892365e-03
3.462456911802291870e-02
-8.642759174108505249e-03
-4.612836614251136780e-02
1.291182590648531914e-03
4.387027118355035782e-03
-2.655543573200702667e-02
-1.778133772313594818e-02
2.049088105559349060e-02
4.606496077030897141e-03
4.379764199256896973e-02
7.125998381525278091e-03
-3.549919929355382919e-03
-4.400603100657463074e-02
9.401208721101284027e-03
4.113584756851196289e-03
-1.712378486990928650e-02
1.732428744435310364e-02
1.392944622784852982e-02
1.630374975502490997e-02
2.653239108622074127e-02
1.593134924769401550e-02
2.281208895146846771e-02
-6.218308117240667343e-03
1.611823029816150665e-02
-7.058429531753063202e-03
-3.564984723925590515e-02
-4.371538758277893066e-02
8.231321722269058228e-02
5.360216367989778519e-03
1.855581067502498627e-02
-3.577249823138117790e-03
1.249727234244346619e-02
-9.025255218148231506e-03
-4.440054297447204590e-02
7.039573043584823608e-02
-1.157152745872735977e-02
3.523935750126838684e-02
3.816570341587066650e-02
1.858338154852390289e-02
-1.345814112573862076e-02
9.742744266986846924e-03
1.751486398279666901e-02
-3.326290845870971680e-02
-2.291793748736381531e-02
-3.239344060420989990e-02
1.580565795302391052e-02
-1.639636233448982239e-02
9.182550013065338135e-03
2.338193589821457863e-03
3.446682170033454895e-02
-4.868264775723218918e-03
-1.426070090383291245e-02
-1.058005392551422119e-01
1.006567664444446564e-02
-1.173667330294847488e-02
1.386883016675710678e-02
-6.408308399841189384e-04
-1.087950915098190308e-02
-2.411030232906341553e-02
1.503455732017755508e-02
4.351309314370155334e-02
-1.621269853785634041e-03
8.408212102949619293e-03
7.882618345320224762e-03
-9.505871683359146118e-03
1.278126426041126251e-02
-4.926077555865049362e-03
6.280651688575744629e-02
-3.162273438647389412e-03
-1.228339225053787231e-02
-6.461788900196552277e-03
-3.553069382905960083e-02
-5.836119875311851501e-02
2.686517080292105675e-03
-2.153592370450496674e-02
-1.838929951190948486e-02
5.386927351355552673e-02
-3.258470818400382996e-02
-3.143855556845664978e-02
8.951788768172264099e-04
-4.542685300111770630e-02
-2.218949794769287109e-02
1.726408954709768295e-03
1.345553901046514511e-02
-1.003547385334968567e-02
2.391989715397357941e-02
-6.433885573642328382e-05
-8.973550051450729370e-03
8.106771856546401978e-03
-1.836340175941586494e-03
-1.458836253732442856e-02
-2.314518950879573822e-02
-3.136834595352411270e-03
-1.892983168363571167e-02
-2.986942604184150696e-02
-2.465838566422462463e-02
-4.189137369394302368e-02
-3.947602957487106323e-02
1.828420720994472504e-02
-5.476244911551475525e-02
3.601700067520141602e-03
1.135432394221425056e-03
-2.007719874382019043e-02
9.917177259922027588e-03
-4.349587485194206238e-02
4.771670792251825333e-03
1.795899122953414917e-03
-5.544282495975494385e-02
-2.848103828728199005e-02
-4.221099987626075745e-02
7.366803474724292755e-03
-7.797061931341886520e-03
-3.894356265664100647e-02
-3.203333169221878052e-02
3.495863080024719238e-02
-4.052619636058807373e-02
-2.671918645501136780e-02
-2.443579956889152527e-02
-2.521646767854690552e-02
-5.684969201683998108e-02
-8.686367422342300415e-03
1.430315990000963211e-02
-7.907376624643802643e-03
2.796396799385547638e-02
-3.508190438151359558e-02
1.755354925990104675e-03
1.098072249442338943e-02
4.205588717013597488e-03
-2.721056574955582619e-03
-7.962657138705253601e-03
2.636213041841983795e-02
1.118372008204460144e-02
4.923381283879280090e-02
-1.009675767272710800e-02
-1.223830040544271469e-02
2.310174517333507538e-02
-3.575729951262474060e-02
-4.991968348622322083e-02
1.569749903865158558e-03
4.061535373330116272e-02
-1.831990107893943787e-02
1.371339056640863419e-02
1.079114247113466263e-02
-1.428315043449401855e-02
-1.312268059700727463e-02
1.812108978629112244e-02
-2.702676877379417419e-02
-5.558624863624572754e-02
8.286670781672000885e-03
-1.230718451552093029e-03
-1.879017800092697144e-03
1.680991053581237793e-02
7.938202470541000366e-03
-7.171580102294683456e-03
-6.630979944020509720e-03
-6.292856484651565552e-02
2.804112248122692108e-02
6.103254389017820358e-03
-3.433173894882202148e-02
1.033547520637512207e-02
2.760531194508075714e-02
6.805769354104995728e-02
-4.256648942828178406e-02
2.748584002256393433e-02
-5.515340343117713928e-02
-2.750847954303026199e-03
-2.576651982963085175e-02
3.897489234805107117e-02
3.495398163795471191e-02
5.764802452176809311e-03
-1.011290587484836578e-02
3.144267946481704712e-02
6.031810306012630463e-03
-1.190272346138954163e-02
1.557550486177206039e-02
-2.162717469036579132e-02
-1.841762801632285118e-03
5.197018012404441833e-02
1.285339053720235825e-02
2.325273491442203522e-02
8.097260445356369019e-02
4.556950926780700684e-02
5.800810083746910095e-02
-1.865587197244167328e-02
1.657108962535858154e-02
2.291259355843067169e-02
4.722312092781066895e-03
-2.098247967660427094e-02
-2.569699473679065704e-02
-1.716881617903709412e-02
5.959938280284404755e-03
-6.303045898675918579e-03
3.061491064727306366e-02
-9.141623042523860931e-03
-3.378673642873764038e-02
-7.863295264542102814e-03
-1.706179603934288025e-02
-6.619353592395782471e-02
-1.725662872195243835e-02
2.391126565635204315e-02
2.513936907052993774e-02
4.931573942303657532e-02
2.923469990491867065e-03
9.565780870616436005e-03
-1.856119744479656219e-02
1.361411297693848610e-03
-7.537571247667074203e-03
-2.925949543714523315e-02
1.871855556964874268e-02
1.824710145592689514e-02
5.562399700284004211e-02
6.832011044025421143e-02
1.234966609627008438e-02
3.193984925746917725e-02
1.610755920410156250e-02
9.981726296246051788e-03
-4.451612476259469986e-03
-3.336169198155403137e-02
-8.199432864785194397e-03
3.918075934052467346e-02
2.281851693987846375e-02
9.530030190944671631e-03
-3.088194504380226135e-02
2.477831766009330750e-02
-4.475337639451026917e-02
-3.124036267399787903e-02
7.072669267654418945e-02
7.148423232138156891e-03
1.497632544487714767e-02
1.642024517059326172e-02
6.113460659980773926e-02
-3.189121559262275696e-02
-1.429732219548895955e-04
2.132781408727169037e-02
1.170986238867044449e-02
-1.411540526896715164e-02
-4.159294813871383667e-02
-1.162950042635202408e-02
-3.307979181408882141e-02
2.076470665633678436e-02
-2.555670775473117828e-02
3.295125439763069153e-02
9.280429221689701080e-03
3.695926070213317871e-02
-4.471869766712188721e-02
5.412300815805792809e-04
-1.949864625930786133e-02
2.608626522123813629e-02
7.929180748760700226e-03
1.068306993693113327e-02
-1.652711443603038788e-02
4.473376274108886719e-02
3.065702505409717560e-02
4.102124273777008057e-02
-1.552491355687379837e-02
-1.815553172491490841e-03
-2.651507779955863953e-02
1.126787438988685608e-02
-1.915348693728446960e-02
2.619578875601291656e-02
-1.152457017451524734e-02
1.390267908573150635e-02
-1.663563959300518036e-02
-3.398800641298294067e-02
-2.175134606659412384e-02
-1.235890574753284454e-02
-3.583573177456855774e-02
-1.905411109328269958e-02
5.151094496250152588e-02
-2.696997672319412231e-02
2.486945362761616707e-03
-2.219074219465255737e-02
-4.309169575572013855e-02
-1.480119675397872925e-02
2.638112753629684448e-02
2.790018217638134956e-03
5.300124175846576691e-03
3.897539339959621429e-03
-9.646467864513397217e-03
-5.920918774791061878e-04
-1.094099506735801697e-02
-2.858007885515689850e-02
-2.699970640242099762e-02
-4.131613671779632568e-02
9.177055209875106812e-03
-7.858910597860813141e-03
-1.206590235233306885e-02
-1.637283898890018463e-02
-4.630996286869049072e-02
-2.148455567657947540e-02
-1.512780971825122833e-02
-6.601874530315399170e-02
-7.972599007189273834e-03
3.501822007820010185e-03
-1.097480114549398422e-02
-3.559160232543945312e-02
-2.819496393203735352e-02
2.371528744697570801e-02
1.612324267625808716e-02
-5.921055376529693604e-02
-2.020446397364139557e-02
-2.690355107188224792e-02
1.331066153943538666e-02
1.404348295181989670e-03
-2.925737760961055756e-02
-2.025980688631534576e-02
3.810953348875045776e-02
-3.039468638598918915e-02
-2.073516324162483215e-02
1.254248805344104767e-02
-9.512224234640598297e-03
-1.338430866599082947e-02
-4.056873917579650879e-02
8.706971071660518646e-03
-1.272932859137654305e-04
6.941079348325729370e-02
-2.543800510466098785e-02
1.039678789675235748e-02
-2.288490347564220428e-02
2.037686482071876526e-02
-7.743831258267164230e-03
-9.277060627937316895e-03
2.329521626234054565e-02
-2.422580122947692871e-02
4.462459310889244080e-02
3.117649815976619720e-02
-4.745886847376823425e-02
2.735966630280017853e-02
-3.847323730587959290e-02
-4.327455163002014160e-02
-2.954362425953149796e-03
4.620108753442764282e-02
-1.362399011850357056e-02
-1.050318032503128052e-02
4.676563199609518051e-03
1.731854863464832306e-02
-1.631814753636717796e-03
1.008961629122495651e-02
-2.792456746101379395e-02
7.151344791054725647e-03
1.838947273790836334e-02
-4.219651222229003906e-03
-7.942391559481620789e-03
1.498350966721773148e-02
-4.853400867432355881e-03
1.316664647310972214e-02
-2.710369788110256195e-02
-2.791149355471134186e-02
-4.120593518018722534e-02
3.154068253934383392e-03
6.576978415250778198e-02
-2.054698206484317780e-02
1.534262485802173615e-02
-3.758605197072029114e-02
1.521560549736022949e-02
-2.491687610745429993e-02
-1.207537949085235596e-03
1.910973154008388519e-02
-4.981939867138862610e-02
1.406407915055751801e-03
-1.087548770010471344e-02
-2.668949402868747711e-02
2.158232964575290680e-03
-1.659646071493625641e-02
2.258516289293766022e-02
-2.400394156575202942e-02
9.054744616150856018e-03
7.818955928087234497e-03
-4.449217580258846283e-03
3.736535320058465004e-03
-2.295703813433647156e-02
-3.718383610248565674e-03
-2.046215347945690155e-02
1.576244272291660309e-02
2.104557119309902191e-02
-1.100249588489532471e-02
1.499243732541799545e-02
-2.078597992658615112e-02
2.213755808770656586e-02
-4.271150752902030945e-02
-5.547617329284548759e-04
-5.310692265629768372e-02
-2.989145927131175995e-02
-5.303688813000917435e-03
8.984257467091083527e-03
-1.735891588032245636e-02
2.873796597123146057e-02
1.423268951475620270e-02
-9.653761051595211029e-03
-5.284662544727325439e-02
1.240901835262775421e-02
2.211969345808029175e-02
-1.026654895395040512e-02
9.619474876672029495e-04
2.061142213642597198e-02
4.133129864931106567e-02
1.013170629739761353e-01
1.030976418405771255e-04
-1.865208521485328674e-02
-3.523552045226097107e-02
2.025076001882553101e-02
-8.446379564702510834e-03
-4.721977747976779938e-03
3.139343112707138062e-02
2.312110178172588348e-02
-9.416551329195499420e-03
-9.052095934748649597e-03
2.489410713315010071e-02
8.504119701683521271e-03
1.688781008124351501e-02
-3.245627507567405701e-03
-4.006042331457138062e-02
-3.855632245540618896e-02
1.858111657202243805e-02
2.765032835304737091e-02
-1.915594190359115601e-02
8.530683815479278564e-03
-2.363035455346107483e-02
1.182353869080543518e-02
4.673275351524353027e-02
7.077055517584085464e-03
-5.407489091157913208e-02
-9.435614570975303650e-03
-1.701796799898147583e-02
-6.262176204472780228e-03
1.708939857780933380e-02
1.817898638546466827e-02
2.696634270250797272e-02
4.954122379422187805e-02
-7.357530295848846436e-03
3.934380947612226009e-04
3.015017509460449219e-02
-7.427118252962827682e-03
1.600847020745277405e-02
-4.458222165703773499e-02
2.943973056972026825e-02
4.755120258778333664e-03
3.446579724550247192e-02
2.182746492326259613e-02
-2.831215783953666687e-02
-1.327521260827779770e-02
-1.453593280166387558e-02
1.165117695927619934e-02
-7.626131176948547363e-03
-1.741899736225605011e-02
2.156572788953781128e-02
-1.209002546966075897e-02
-1.328800804913043976e-02
6.985066458582878113e-03
-3.909701481461524963e-02
3.175731003284454346e-02
2.603990584611892700e-02
-2.406213991343975067e-02
-6.114762276411056519e-02
-8.369933813810348511e-03
4.074265807867050171e-02
3.470441093668341637e-03
4.590512439608573914e-02
1.869560033082962036e-02
3.603778034448623657e-02
5.595472827553749084e-02
1.607546024024486542e-02
-8.980122394859790802e-03
-8.650241792201995850e-02
6.475680321455001831e-02
-1.085318531841039658e-02
5.325829610228538513e-02
-2.778717316687107086e-03
3.289622068405151367e-02
1.231341063976287842e-02
-8.756058290600776672e-03
-1.928578317165374756e-02
1.791035942733287811e-02
-1.213474664837121964e-02
8.952964097261428833e-03
4.996996745467185974e-02
-1.928089186549186707e-02
-8.980336599051952362e-03
4.719624668359756470e-02
3.892532736063003540e-02
-3.601152449846267700e-02
-5.329753458499908447e-02
-3.234100714325904846e-02
2.706698700785636902e-02
2.847731113433837891e-02
-2.735067531466484070e-02
4.311884567141532898e-02
-1.387135311961174011e-02
-1.639968156814575195e-02
1.427301298826932907e-02
2.627189829945564270e-02
-3.472203388810157776e-03
2.684024721384048462e-02
9.238049387931823730e-03
-1.544457161799073219e-03
1.106983143836259842e-02
1.182122714817523956e-02
5.308789759874343872e-02
2.366374805569648743e-02
2.885326370596885681e-02
5.470179021358489990e-02
-1.936567574739456177e-02
-3.641920909285545349e-02
-8.375744335353374481e-03
-1.388750784099102020e-02
3.617351874709129333e-02
2.394272200763225555e-02
2.762304805219173431e-02
1.259657740592956543e-02
4.789032414555549622e-02
3.002869710326194763e-02
-1.441604178398847580e-02
-5.684988200664520264e-02
-3.962467890232801437e-03
-2.701581455767154694e-02
-1.060026511549949646e-02
-1.791566610336303711e-02
6.145226955413818359e-02
1.359520852565765381e-02
-2.278736606240272522e-02
3.079918771982192993e-02
1.800346374511718750e-02
2.333589456975460052e-02
-1.547997351735830307e-03
-2.586250938475131989e-02
-1.391513971611857414e-03
2.949222922325134277e-02
-5.798364803194999695e-02
-1.267157495021820068e-02
6.198058649897575378e-02
-5.725635681301355362e-03
3.787758527323603630e-03
1.611892692744731903e-02
-1.309780869632959366e-02
3.817908233031630516e-03
5.640928633511066437e-03
6.301984190940856934e-03
-2.132791094481945038e-03
-1.217812485992908478e-02
4.038648307323455811e-02
5.678742192685604095e-03
-8.835505694150924683e-03
-5.079244077205657959e-02
2.627838589251041412e-02
-4.960663616657257080e-02
2.172533236443996429e-02
-3.843811526894569397e-02
2.268195897340774536e-02
1.876670122146606445e-02
4.294212162494659424e-02
2.721486613154411316e-02
4.266640916466712952e-02
1.691869646310806274e-02
-3.870827611535787582e-03
-4.119948670268058777e-02
-1.507057342678308487e-02
-1.342283561825752258e-02
5.169485695660114288e-03
-6.980319973081350327e-03
1.510914508253335953e-02
1.327646337449550629e-02
2.698043920099735260e-02
5.188411846756935120e-02
-3.298776922747492790e-03
3.329331800341606140e-02
-4.012534767389297485e-02
-2.663558535277843475e-02
2.466375939548015594e-02
1.724856905639171600e-02
7.782584428787231445e-02
1.462624687701463699e-02
1.730742491781711578e-02
6.918995641171932220e-03
-2.898968383669853210e-02
1.656351424753665924e-02
-1.627856492996215820e-02
-2.248817309737205505e-02
-7.554642856121063232e-03
1.600091718137264252e-02
-1.282817218452692032e-02
1.883459649980068207e-02
-8.264689706265926361e-03
-1.252524647861719131e-02
-5.147065035998821259e-03
5.119944456964731216e-03
-7.954251021146774292e-03
1.996675040572881699e-03
3.014460578560829163e-02
-4.635115712881088257e-02
1.127865072339773178e-02
-3.275915607810020447e-02
6.336449831724166870e-02
-7.613429427146911621e-02
-5.607245489954948425e-02
-7.224678248167037964e-02
-1.809483394026756287e-02
1.524017006158828735e-02
-2.723141387104988098e-02
-1.380017679184675217e-02
5.014068912714719772e-03
-1.060144696384668350e-02
7.266574352979660034e-02
-2.688493952155113220e-02
-1.399671938270330429e-02
1.799183897674083710e-02
1.914478838443756104e-02
-3.254739940166473389e-02
-2.462199330329895020e-02
3.204265236854553223e-02
1.115905935876071453e-03
2.863082475960254669e-02
4.089427739381790161e-02
-8.982392027974128723e-03
-3.223235532641410828e-02
1.255765091627836227e-02
-3.853491973131895065e-03
4.241917282342910767e-03
-4.035368561744689941e-03
-7.750625163316726685e-02
5.255882162600755692e-03
2.120861224830150604e-02
9.411713108420372009e-03
-3.472132980823516846e-02
6.521728634834289551e-02
-1.224846672266721725e-02
-4.458413273096084595e-02
1.611523702740669250e-02
-1.258380617946386337e-02
-5.495416931807994843e-03
4.364562407135963440e-02
-8.556512184441089630e-03
-8.837383240461349487e-03
9.955012053251266479e-02
-2.731688087806105614e-03
4.337119869887828827e-03
-4.559598118066787720e-02
2.225467190146446228e-02
-1.041083317250013351e-02
-1.015953533351421356e-02
-1.108528394252061844e-02
1.605634926818311214e-03
-9.840392507612705231e-03
1.697733812034130096e-02
2.211388386785984039e-02
5.650648381561040878e-03
-1.168774887919425964e-01
-4.564916889648884535e-04
-5.846146494150161743e-03
-7.617454510182142258e-03
3.549612313508987427e-02
-1.715849526226520538e-02
3.186147660017013550e-02
5.928175523877143860e-04
2.318553999066352844e-02
-5.446977168321609497e-02
-1.978415623307228088e-02
1.009488292038440704e-02
-6.828396022319793701e-02
-3.067345358431339264e-02
-3.900059685111045837e-02
2.277052775025367737e-02
-1.989019103348255157e-02
-1.645002164877951145e-03
-1.286003272980451584e-02
-3.198175877332687378e-02
7.254853844642639160e-03
2.646586298942565918e-02
-1.232572714798152447e-03
2.764667756855487823e-02
-4.968290217220783234e-03
-1.117006409913301468e-02
2.077226527035236359e-03
9.449556469917297363e-03
-2.806949429214000702e-02
1.832321286201477051e-02
2.704622037708759308e-02
-6.283605005592107773e-03
-7.260262221097946167e-02
8.063536882400512695e-02
-2.277446910738945007e-02
-1.358757819980382919e-02
-2.644919557496905327e-03
-5.304281413555145264e-02
-1.140082627534866333e-02
-5.211983621120452881e-02
-2.790225856006145477e-02
-7.601204793900251389e-03
3.972708806395530701e-02
-2.322169207036495209e-02
1.119498535990715027e-02
-5.454472824931144714e-02
-2.194812893867492676e-02
-2.447438985109329224e-02
1.338714081794023514e-02
-2.554591931402683258e-02
-1.616008952260017395e-02
1.454397290945053101e-02
-3.553227335214614868e-02
-1.103638485074043274e-02
-4.413982387632131577e-03
-2.611713018268346786e-03
5.634038522839546204e-02
-2.565366402268409729e-02
-2.434205263853073120e-02
4.273115843534469604e-02
-2.016109600663185120e-02
-1.816809526644647121e-03
1.586090400815010071e-02
-7.562029175460338593e-03
-1.169231534004211426e-01
-9.404577314853668213e-03
-7.210574578493833542e-03
-3.521696105599403381e-02
3.607839345932006836e-02
6.925466470420360565e-03
-6.401029974222183228e-02
9.119275957345962524e-02
-5.224593728780746460e-02
-5.268788430839776993e-03
-7.298774272203445435e-02
5.542385950684547424e-02
-4.071103408932685852e-02
3.856645897030830383e-02
1.494497153908014297e-02
2.480091340839862823e-02
1.300129340961575508e-03
3.861289704218506813e-03
3.463075682520866394e-02
-3.126572072505950928e-02
-4.191885888576507568e-02
-2.714432962238788605e-02
-1.898553338833153248e-03
1.857116702012717724e-03
-1.116830110549926758e-02
1.303699333220720291e-02
-5.325521342456340790e-03
6.473506987094879150e-02
-3.400862589478492737e-02
-8.786390535533428192e-03
-6.299713160842657089e-03
1.605817087693139911e-04
2.745357900857925415e-02
-4.495066605159081519e-05
-8.547313511371612549e-03
-5.713666789233684540e-03
1.832667179405689240e-02
4.604519531130790710e-02
-2.091922797262668610e-02
-4.029772430658340454e-02
1.723015308380126953e-02
-4.725658521056175232e-02
-7.166349142789840698e-02
3.932992368936538696e-02
1.035096775740385056e-02
2.214123122394084930e-02
1.038671471178531647e-02
-6.268171966075897217e-02
1.490015350282192230e-02
3.070360422134399414e-02
-1.034482009708881378e-02
-2.609946392476558685e-02
2.700559422373771667e-02
-4.650493618100881577e-03
5.164493247866630554e-02
-1.523714419454336166e-02
1.201489940285682678e-03
-4.684911109507083893e-03
-6.557974033057689667e-03
3.175681829452514648e-02
-1.049088872969150543e-02
3.597540315240621567e-03
-3.580418881028890610e-03
-1.185908727347850800e-02
8.371933549642562866e-02
-9.118251502513885498e-03
3.205285407602787018e-03
-4.185761883854866028e-02
1.647710986435413361e-02
3.708801465108990669e-03
-3.083025850355625153e-02
4.411111120134592056e-03
-2.219671197235584259e-02
1.441948674619197845e-02
3.454584628343582153e-02
-3.907922655344009399e-03
4.237316176295280457e-02
-2.348406985402107239e-02
-3.022238845005631447e-03
-1.504923915490508080e-03
-1.502816285938024521e-02
-1.880387659184634686e-03
5.146464705467224121e-02
-5.252067930996417999e-03
-4.195408895611763000e-02
4.204312711954116821e-02
1.257085474207997322e-03
-2.776368521153926849e-02
2.166398055851459503e-02
-1.869066245853900909e-02
5.020996928215026855e-02
-1.157293003052473068e-02
3.196322917938232422e-02
-3.222987055778503418e-02
-6.788741052150726318e-02
4.332589358091354370e-02
8.532017469406127930e-02
-3.894049301743507385e-02
-4.328146576881408691e-03
5.731064826250076294e-03
-9.009329951368272305e-04
5.660299584269523621e-02
-1.948227733373641968e-02
-9.612621739506721497e-03
-2.884546760469675064e-03
-1.712445728480815887e-02
-6.797698140144348145e-02
-1.603418379090726376e-03
1.075451821088790894e-02
2.961744740605354309e-02
3.907591477036476135e-02
-1.001044362783432007e-02
-6.512475013732910156e-02
-4.100097715854644775e-02
5.038100760430097580e-03
-3.180330619215965271e-02
5.388239771127700806e-02
1.467114081606268883e-03
4.157046228647232056e-02
-3.602716326713562012e-02
-2.971656061708927155e-02
5.589396879076957703e-02
1.404745224863290787e-02
-2.475197799503803253e-02
-2.083132416009902954e-02
-1.764813438057899475e-02
-1.245290506631135941e-02
-1.014530891552567482e-03
1.133793443441390991e-01
1.941306330263614655e-02
-1.690533012151718140e-02
-1.117441523820161819e-02
-3.097042441368103027e-02
1.595207676291465759e-02
5.563919246196746826e-02
-5.078011751174926758e-02
4.906442482024431229e-03
4.186930879950523376e-02
1.086448356509208679e-01
6.170541979372501373e-03
3.042229078710079193e-02
-2.559380978345870972e-02
8.027934469282627106e-03
1.619231654331088066e-03
-2.699126303195953369e-02
-4.379089549183845520e-02
1.837729127146303654e-03
1.068218052387237549e-02
-2.071229182183742523e-02
6.344604189507663250e-04
-1.846131123602390289e-02
-4.487178102135658264e-02
9.698139503598213196e-03
-1.364196371287107468e-02
2.224657870829105377e-02
2.894186601042747498e-02
5.976613983511924744e-02
8.132888935506343842e-03
-4.150284454226493835e-03
-5.373712163418531418e-03
2.063098736107349396e-02
-1.458804029971361160e-02
2.143661119043827057e-02
2.885917574167251587e-02
1.095473300665616989e-02
-9.759045206010341644e-03
2.984599396586418152e-02
1.980570331215858459e-02
-1.718916371464729309e-02
-1.265891734510660172e-02
2.917624544352293015e-03
3.442544862627983093e-02
1.253830827772617340e-02
-3.731598844751715660e-03
1.588880270719528198e-02
1.291717495769262314e-02
2.055915817618370056e-02
1.592453196644783020e-02
3.952751308679580688e-02
-1.011045835912227631e-02
2.410145103931427002e-02
2.042392268776893616e-03
-9.522825479507446289e-03
3.703061491250991821e-03
-2.133064158260822296e-02
2.287521399557590485e-02
-6.629389710724353790e-03
-3.470208123326301575e-02
-2.867087163031101227e-02
-1.881792768836021423e-02
-1.146681699901819229e-02
-9.829088114202022552e-03
1.599588803946971893e-02
6.357402307912707329e-04
-2.569760754704475403e-02
-1.999360509216785431e-02
1.103960350155830383e-02
1.484575448557734489e-03
-1.355314534157514572e-02
-1.558695640414953232e-02
-2.852640487253665924e-02
-1.630955561995506287e-02
5.291537195444107056e-02
8.924029767513275146e-03
1.854100637137889862e-02
-1.312647480517625809e-02
2.365164272487163544e-02
-2.493042871356010437e-02
1.711260899901390076e-02
-2.121804282069206238e-02
-1.807820610702037811e-02
-5.387713201344013214e-03
3.827660577371716499e-03
-2.300226874649524689e-02
3.751581162214279175e-02
1.037169713526964188e-02
7.771423086524009705e-03
7.820329628884792328e-03
-1.189077366143465042e-02
2.113031223416328430e-02
-1.275839190930128098e-02
-2.609886229038238525e-02
-9.936133027076721191e-02
6.833948660641908646e-03
4.346861969679594040e-04
-1.671082153916358948e-02
2.258482575416564941e-02
2.689473330974578857e-02
7.936504669487476349e-03
-8.304556831717491150e-03
-4.186547547578811646e-02
-6.681722123175859451e-03
4.928487911820411682e-02
9.188160300254821777e-03
-2.942385151982307434e-02
-3.034067712724208832e-02
-1.522888429462909698e-02
-3.500126302242279053e-02
1.135219540446996689e-02
-4.590544477105140686e-02
2.799677103757858276e-02
2.129193628206849098e-03
2.499943599104881287e-02
-8.502064272761344910e-03
-8.528501726686954498e-03
-9.350254549644887447e-04
5.830680602230131626e-04
2.387577481567859650e-02
-5.615841597318649292e-03
2.812065929174423218e-02
-1.795779541134834290e-02
1.637584716081619263e-02
-1.418142020702362061e-02
2.851518802344799042e-02
-6.335254758596420288e-02
-1.316255703568458557e-02
-3.496055956929922104e-03
-9.578491561114788055e-03
-1.869200915098190308e-02
-1.948823034763336182e-02
-5.010190606117248535e-02
2.529043518006801605e-02
4.906369373202323914e-03
3.374508349224925041e-03
2.562166191637516022e-02
6.597022991627454758e-03
1.754573022481054068e-04
-1.100075989961624146e-02
2.848999388515949249e-02
4.057141765952110291e-02
-2.782426960766315460e-02
7.008076179772615433e-03
-1.153947785496711731e-02
1.203364226967096329e-03
-3.982073813676834106e-02
-1.852081902325153351e-02
-1.834969781339168549e-02
3.643061593174934387e-02
-4.669121466577053070e-03
-1.430175732821226120e-02
2.260029315948486328e-03
-2.389930747449398041e-02
3.971865400671958923e-02
-3.315909206867218018e-02
-4.743049852550029755e-03
-1.511335372924804688e-02
-9.384408593177795410e-03
1.481022965162992477e-02
-2.116834186017513275e-02
-8.309813216328620911e-03
-5.346373189240694046e-03
6.254353094846010208e-03
1.224184967577457428e-02
-6.514691747725009918e-03
4.397448617964982986e-03
2.394613251090049744e-02
-4.389595985412597656e-02
7.320788223296403885e-03
-1.667890930548310280e-03
-1.746740192174911499e-02
1.703930087387561798e-02
2.046304382383823395e-02
8.304815739393234253e-03
5.035552754998207092e-02
-2.244111523032188416e-02
-1.249754894524812698e-02
3.058855421841144562e-02
1.080711185932159424e-02
1.685293391346931458e-02
1.311838510446250439e-03
1.702925562858581543e-02
-3.104430995881557465e-02
3.155536949634552002e-02
-5.031224340200424194e-03
-3.074449114501476288e-02
-2.091797441244125366e-02
-3.472990170121192932e-02
9.555892756907269359e-05
-3.586187958717346191e-02
2.646994218230247498e-02
6.221919786185026169e-03
2.369084209203720093e-02
-2.249410562217235565e-02
2.454307675361633301e-02
5.031128879636526108e-03
2.188874594867229462e-02
-8.031812496483325958e-03
-1.829111017286777496e-02
-2.638766309246420860e-03
1.444896589964628220e-02
-4.379288852214813232e-02
4.187074024230241776e-03
7.529354188591241837e-03
2.965703420341014862e-02
1.747757755219936371e-02
1.423896010965108871e-02
-2.064430899918079376e-02
-4.553762730211019516e-03
-1.177584845572710037e-02
-3.428773209452629089e-02
3.682387468870729208e-04
-2.314694412052631378e-02
2.441747114062309265e-03
-2.819280140101909637e-02
1.646314933896064758e-02
8.221228606998920441e-03
-4.235685989260673523e-02
2.005893550813198090e-02
1.740860193967819214e-02
3.005367144942283630e-02
8.530409075319766998e-03
-2.190548367798328400e-02
2.900322340428829193e-02
2.438341267406940460e-03
-1.500656176358461380e-02
4.011479765176773071e-02
-9.864807128906250000e-03
-1.929709687829017639e-02
2.272613532841205597e-02
2.023617736995220184e-02
2.143525145947933197e-02
-1.593279838562011719e-02
-6.767902988940477371e-03
1.203230768442153931e-02
1.754420064389705658e-02
1.389808487147092819e-02
-2.110660821199417114e-02
-1.622443832457065582e-02
1.570441387593746185e-02
1.672619208693504333e-02
-1.522279717028141022e-02
8.849056437611579895e-03
-7.542333099991083145e-03
-3.363137075211852789e-04
1.357274781912565231e-02
7.597071584314107895e-03
2.989003248512744904e-02
-2.575630880892276764e-02
-1.764854975044727325e-02
1.244612131267786026e-02
1.916427724063396454e-02
-1.315572950989007950e-02
7.168689742684364319e-03
-3.446727246046066284e-02
4.025798290967941284e-02
-4.874727129936218262e-02
-2.419172041118144989e-02
8.653881028294563293e-03
-3.142400877550244331e-03
-1.384855341166257858e-02
-1.528454385697841644e-02
-2.728548599407076836e-03
-2.200900577008724213e-02
-1.717832311987876892e-02
-2.067287638783454895e-02
-2.951388433575630188e-02
2.412994764745235443e-02
-2.169368322938680649e-03
4.334048554301261902e-02
4.073500633239746094e-03
7.084855809807777405e-03
4.032179713249206543e-03
6.110520102083683014e-03
2.967502921819686890e-02
2.389111556112766266e-03
4.234084486961364746e-02
2.533225528895854950e-02
2.040896797552704811e-03
-1.121727097779512405e-02
2.913578413426876068e-02
2.737724967300891876e-02
3.496935218572616577e-02
-5.548757314682006836e-02
-1.022660639137029648e-02
-8.051322400569915771e-02
2.488478459417819977e-02
-6.374516990035772324e-03
-2.384082041680812836e-02
4.534411802887916565e-02
3.966762498021125793e-02
1.534839440137147903e-02
-6.616432219743728638e-04
-4.072518646717071533e-02
9.706635028123855591e-03
3.336189314723014832e-02
4.868203774094581604e-02
-1.238292176276445389e-02
-4.947443678975105286e-02
4.759480711072683334e-03
-6.400096416473388672e-02
6.544662173837423325e-03
-6.535365432500839233e-02
1.944069191813468933e-02
4.011576995253562927e-02
5.097439140081405640e-02
-9.811332449316978455e-03
-2.368159824982285500e-03
-3.066728822886943817e-03
-4.394905641674995422e-02
5.203035473823547363e-02
4.247704055160284042e-03
4.112450405955314636e-02
-2.109315991401672363e-02
3.044467978179454803e-02
-3.526599612087011337e-03
3.456938266754150391e-02
-5.845555290579795837e-02
-5.159873049706220627e-03
-4.405714571475982666e-02
-6.432660389691591263e-03
-8.089807233773171902e-04
4.253133758902549744e-02
-4.825768619775772095e-02
1.813803915865719318e-03
1.710198447108268738e-02
4.896511882543563843e-02
1.577738299965858459e-02
1.089436002075672150e-03
-1.969987712800502777e-02
-3.606083244085311890e-02
1.818854920566082001e-02
-6.397266872227191925e-03
-2.083261497318744659e-02
8.244235068559646606e-03
-1.165413111448287964e-02
-4.917557351291179657e-03
-2.477484056726098061e-03
2.033498510718345642e-02
-1.635195687413215637e-02
-1.273495843634009361e-03
-1.349103171378374100e-02
-3.591715544462203979e-02
-1.093850750476121902e-02
-5.893047153949737549e-02
-1.750602270476520061e-03
-1.915513165295124054e-02
4.157484974712133408e-03
-4.732875525951385498e-02
-1.364763081073760986e-02
-7.399218156933784485e-03
-7.086963392794132233e-03
-6.384514737874269485e-03
-1.966877840459346771e-02
-2.978107146918773651e-02
4.845481365919113159e-02
1.183783402666449547e-03
7.162590045481920242e-03
3.322065249085426331e-02
-1.707112975418567657e-02
-2.842148765921592712e-02
-1.109253149479627609e-02
1.124330237507820129e-02
7.965801283717155457e-03
2.996012382209300995e-02
2.615892514586448669e-02
1.104467436671257019e-01
-1.387876551598310471e-02
-4.324214998632669449e-03
1.740691252052783966e-03
-1.137862354516983032e-02
1.923687011003494263e-02
2.167162718251347542e-03
1.293128356337547302e-02
-3.035435453057289124e-02
-4.011746030300855637e-03
5.432310514152050018e-03
7.496742182411253452e-04
-2.058569714426994324e-02
-4.201102629303932190e-02
1.015662960708141327e-02
-2.182979322969913483e-02
4.514080472290515900e-03
-2.326285233721137047e-03
6.450920365750789642e-03
1.750161312520503998e-02
-1.025030016899108887e-02
-7.459148764610290527e-04
2.752435160800814629e-03
-9.686325676739215851e-03
-5.196958035230636597e-02
-1.998239755630493164e-02
3.911720588803291321e-02
-1.852710545063018799e-02
1.746714860200881958e-02
-1.809385977685451508e-02
6.369720213115215302e-03
4.318001866340637207e-02
3.268169611692428589e-02
-2.096460945904254913e-02
-1.418972946703433990e-02
1.346588693559169769e-02
-4.382256045937538147e-02
-2.005318237934261560e-04
-5.702044814825057983e-02
-7.496901322156190872e-03
-2.680473960936069489e-02
5.477049387991428375e-03
4.789377748966217041e-02
-4.506506025791168213e-02
-4.251382499933242798e-02
1.638665609061717987e-02
3.678944334387779236e-02
6.285747885704040527e-02
-2.555855549871921539e-02
1.479391194880008698e-02
2.728048525750637054e-02
-6.521360576152801514e-02
8.843293413519859314e-03
-3.917924314737319946e-02
-5.458218604326248169e-02
3.315319493412971497e-02
5.196768790483474731e-02
3.093936480581760406e-02
-9.057429269887506962e-04
6.408601999282836914e-03
3.261061757802963257e-02
-4.034801095258444548e-04
1.550885150209069252e-03
-5.358986090868711472e-03
-2.267371490597724915e-02
2.020309120416641235e-02
-6.720555573701858521e-02
-6.074592098593711853e-02
3.028503432869911194e-02
2.677759155631065369e-02
-1.763609983026981354e-02
2.290742844343185425e-02
1.945798099040985107e-02
-2.186077274382114410e-02
-5.571979284286499023e-02
2.729002013802528381e-02
1.415091846138238907e-02
1.700629293918609619e-02
-3.683788701891899109e-02
2.843466214835643768e-02
-5.259738862514495850e-02
4.106836393475532532e-02
-4.766025021672248840e-02
-1.241382118314504623e-02
3.039865288883447647e-03
8.926458656787872314e-02
-4.212426953017711639e-03
1.397256646305322647e-02
-2.986920997500419617e-02
-5.345369875431060791e-02
-4.443950578570365906e-02
-1.919831149280071259e-02
-5.610486119985580444e-02
3.309474792331457138e-03
7.902341894805431366e-03
3.331279009580612183e-02
1.076606661081314087e-02
-4.456912633031606674e-03
8.661323226988315582e-03
-2.354133874177932739e-02
1.715070381760597229e-02
3.902174299582839012e-03
2.899266220629215240e-02
4.727071896195411682e-02
-8.045069873332977295e-03
1.964916475117206573e-03
2.529311552643775940e-02
1.477252412587404251e-02
2.832350879907608032e-02
-7.251032441854476929e-02
-2.509724721312522888e-02
-1.221480779349803925e-03
1.359369978308677673e-02
-2.947807498276233673e-02
-1.858443138189613819e-03
3.505792468786239624e-02
-3.860396973323076963e-04
-1.338933128863573074e-02
-8.178873918950557709e-03
-2.180898934602737427e-02
-2.052629599347710609e-03
-1.119313202798366547e-02
3.167343512177467346e-02
7.854060269892215729e-03
-4.348703846335411072e-02
-7.706580800004303455e-04
-3.054325841367244720e-02
-1.143976673483848572e-02
-4.562812298536300659e-02
-1.586317829787731171e-02
2.722143195569515228e-02
3.075448982417583466e-02
9.561732411384582520e-03
-9.804634377360343933e-03
6.428332999348640442e-04
-1.691447757184505463e-02
1.240047067403793335e-02
6.276529282331466675e-03
-9.211818687617778778e-03
-2.418613061308860779e-02
4.949323367327451706e-03
9.050777181982994080e-03
2.734204987064003944e-03
-6.463057547807693481e-02
-1.825655438005924225e-02
-4.506027698516845703e-02
-1.650178991258144379e-02
-7.508690468966960907e-03
3.572938963770866394e-02
-1.325463037937879562e-02
-8.694098331034183502e-03
-2.137282490730285645e-02
1.055274903774261475e-02
-9.287424385547637939e-03
5.091584753245115280e-03
-3.489945828914642334e-02
-3.631981089711189270e-02
1.370235625654459000e-02
-3.350385650992393494e-02
-2.595595270395278931e-02
7.791081443428993225e-03
-1.729161851108074188e-02
4.156002774834632874e-03
6.859965156763792038e-03
-1.180673949420452118e-03
1.929366402328014374e-02
-6.828707456588745117e-02
-3.611212968826293945e-02
-9.634508751332759857e-03
5.394470412284135818e-03
-2.281120046973228455e-02
-3.826097026467323303e-02
2.815433219075202942e-02
