5.714844446629285812e-03
-5.908934865146875381e-03
6.503116805106401443e-03
4.546489566564559937e-03
3.853091970086097717e-02
-1.028323546051979065e-02
-9.955184068530797958e-04
5.952735897153615952e-03
-1.763767749071121216e-02
-1.683810167014598846e-02
-2.024420537054538727e-02
-1.665896922349929810e-02
-4.251862701494246721e-04
2.396360412240028381e-02
9.807102615013718605e-04
-1.500471495091915131e-02
-1.568863168358802795e-03
-1.470990758389234543e-02
4.735584370791912079e-03
-8.029173128306865692e-03
3.512031584978103638e-02
-1.083870010916143656e-04
5.358114838600158691e-03
-1.675690151751041412e-02
-1.797758601605892181e-02
4.602606873959302902e-03
8.201037533581256866e-03
1.098289154469966888e-02
3.834474459290504456e-02
-2.278720587491989136e-02
-1.167209167033433914e-02
-2.000312320888042450e-02
3.574551083147525787e-04
-6.581811234354972839e-03
-1.843913272023200989e-02
-1.306188572198152542e-02
-6.958579178899526596e-03
1.124871801584959030e-02
-2.072259318083524704e-03
-9.193245321512222290e-03
-1.455023419111967087e-02
-1.647467166185379028e-02
-4.904407076537609100e-03
3.240680554881691933e-03
4.589713644236326218e-03
3.225469961762428284e-03
1.170293521136045456e-02
-1.013644319027662277e-02
-3.680922091007232666e-02
-2.183958422392606735e-03
9.361843578517436981e-03
-7.938889786601066589e-03
-7.542440202087163925e-03
1.647283672355115414e-03
-3.645142714958637953e-04
-1.017042621970176697e-02
1.221720967441797256e-02
4.494144115597009659e-03
-2.736595273017883301e-02
-3.718057647347450256e-02
-8.365964516997337341e-03
1.627061329782009125e-02
6.403097882866859436e-03
-5.408867727965116501e-03
-1.072553079575300217e-02
-1.201406237669289112e-03
1.894799433648586273e-02
-7.575574796646833420e-03
-5.409150850027799606e-03
-2.779356203973293304e-02
-1.505718007683753967e-02
-2.672878326848149300e-03
-5.646781995892524719e-03
3.139130771160125732e-03
-1.216566935181617737e-02
-1.988578774034976959e-02
-3.457342460751533508e-02
1.639734767377376556e-02
-5.555562674999237061e-03
2.204954065382480621e-02
-2.371570281684398651e-02
1.246397197246551514e-02
7.369167869910597801e-04
5.229859147220849991e-03
4.605473950505256653e-02
1.000474486500024796e-02
-3.163035959005355835e-03
-1.392922131344676018e-03
-1.570327021181583405e-02
9.158661123365163803e-04
1.477439142763614655e-02
-1.467977277934551239e-02
-3.894856199622154236e-03
1.054655760526657104e-02
9.412243962287902832e-03
-2.863059984520077705e-03
1.513416413217782974e-02
1.116791926324367523e-02
1.577016711235046387e-02
4.104054067283868790e-03
-7.018781732767820358e-03
7.985084317624568939e-03
2.192797325551509857e-02
-5.704108253121376038e-02
-9.506450966000556946e-03
1.993730477988719940e-02
5.628068465739488602e-03
3.026413498446345329e-03
2.422295324504375458e-02
-7.195732556283473969e-03
-1.598400250077247620e-02
-2.320884168148040771e-02
-5.119575187563896179e-03
-9.113651700317859650e-03
-1.422876771539449692e-02
1.616444811224937439e-02
-1.176161458715796471e-03
1.745743211358785629e-03
-1.456164661794900894e-02
-1.107997074723243713e-02
2.469564974308013916e-02
-2.120607718825340271e-02
-1.687108166515827179e-02
-1.264150813221931458e-02
4.803969990462064743e-03
-8.977883495390415192e-03
-4.611750319600105286e-02
-8.552857325412333012e-04
5.415254272520542145e-03
-2.705822139978408813e-02
-1.236353069543838501e-02
-8.909794501960277557e-03
2.208764851093292236e-02
-1.381020527333021164e-02
-2.540651708841323853e-03
5.328588187694549561e-03
1.114520616829395294e-02
-2.347348630428314209e-02
-8.633529767394065857e-03
-8.051768876612186432e-03
6.912737153470516205e-04
2.320655994117259979e-02
1.303250435739755630e-02
-2.124628424644470215e-02
1.905602775514125824e-02
1.091826893389225006e-02
-8.082545362412929535e-03
-5.593048874288797379e-03
8.738834410905838013e-03
5.677403137087821960e-02
-1.344311982393264771e-02
-1.574029028415679932e-02
-7.428722921758890152e-03
6.264276802539825439e-03
-2.970084547996520996e-02
-1.032213307917118073e-02
4.813610389828681946e-02
-1.148183736950159073e-02
-3.111852565780282021e-03
-2.751806937158107758e-02
-1.377907861024141312e-02
-5.939763970673084259e-03
-3.425566852092742920e-02
-1.910553313791751862e-02
7.721813395619392395e-03
-1.020078826695680618e-02
-6.418047007173299789e-03
1.886803191155195236e-03
-3.775556758046150208e-02
-3.756868420168757439e-03
-1.788601838052272797e-02
3.663878422230482101e-03
2.199276350438594818e-02
-1.182314101606607437e-02
-9.072502725757658482e-04
3.219943260774016380e-03
-2.156868577003479004e-02
1.179469563066959381e-02
1.879569701850414276e-02
-8.122541941702365875e-03
-2.355018071830272675e-02
1.243465580046176910e-03
-6.296306848526000977e-03
-7.778620813041925430e-03
1.482476573437452316e-02
1.972601935267448425e-02
-1.958693936467170715e-02
-6.018747016787528992e-02
-2.599086798727512360e-02
1.869715377688407898e-02
2.541150897741317749e-02
-6.021524313837289810e-03
-5.262683331966400146e-02
-9.259204380214214325e-03
1.029632333666086197e-02
1.029001642018556595e-02
-8.038362488150596619e-03
-4.959888383746147156e-02
-4.418055992573499680e-03
-6.361632840707898140e-04
-2.147698961198329926e-02
2.075695898383855820e-03
-2.547005936503410339e-02
-1.293174177408218384e-02
-5.225595086812973022e-02
-4.494014196097850800e-03
1.098044682294130325e-02
1.446007099002599716e-02
-1.935807522386312485e-03
-3.075910499319434166e-03
-2.543278224766254425e-02
-1.160539966076612473e-02
5.316018685698509216e-02
4.527191445231437683e-02
-2.016341499984264374e-02
-4.128656815737485886e-03
-1.976492255926132202e-02
1.531631220132112503e-02
-5.033378489315509796e-03
-1.774402707815170288e-02
-4.941229708492755890e-03
2.114529162645339966e-02
2.673287317156791687e-02
1.598306559026241302e-02
3.216579183936119080e-02
3.508309274911880493e-02
1.578303985297679901e-02
-3.724845359101891518e-03
-2.532085217535495758e-02
1.135695260018110275e-02
3.119726665318012238e-03
-6.707926094532012939e-02
-8.348152972757816315e-03
4.115258157253265381e-02
1.416906528174877167e-02
2.339175343513488770e-02
5.905464757233858109e-03
-8.594046346843242645e-03
-3.161025699228048325e-03
6.426770240068435669e-03
-1.917058951221406460e-03
-9.422832168638706207e-03
-8.144143037497997284e-03
3.645831719040870667e-02
-1.575061492621898651e-02
4.815381951630115509e-03
-3.445313125848770142e-02
-3.483857586979866028e-02
3.067968785762786865e-02
-2.682002633810043335e-02
-1.662477105855941772e-02
6.217846181243658066e-03
-9.295996278524398804e-03
-9.871651418507099152e-03
-2.834988012909889221e-02
-1.394564518705010414e-03
6.966965273022651672e-03
-2.009553089737892151e-02
3.687141230329871178e-03
-7.724672555923461914e-03
3.177022794261574745e-03
1.423025038093328476e-03
3.256418183445930481e-02
3.271455410867929459e-03
1.234604977071285248e-02
-3.505992144346237183e-02
-2.298971079289913177e-02
-1.090884394943714142e-02
-4.035690333694219589e-03
1.499143335968255997e-02
1.097031962126493454e-02
-1.032295078039169312e-02
1.634928025305271149e-02
6.974453572183847427e-03
-1.694704964756965637e-02
1.389268971979618073e-02
4.791466053575277328e-03
4.254190996289253235e-02
6.537174340337514877e-03
-1.530918385833501816e-02
5.645621567964553833e-03
1.666396856307983398e-02
-2.991664968430995941e-02
-1.740605197846889496e-02
2.319057658314704895e-02
-2.380186319351196289e-02
-1.313455123454332352e-02
-1.791953854262828827e-02
-8.950877003371715546e-03
-1.619087532162666321e-02
-3.152525797486305237e-02
-2.514439448714256287e-02
1.537409331649541855e-02
-3.763819346204400063e-03
-3.248608112335205078e-02
1.262414734810590744e-02
-3.349459171295166016e-02
-1.540879369713366032e-03
2.305973554030060768e-03
5.549271125346422195e-03
2.629149705171585083e-02
-1.091272104531526566e-02
-2.189205959439277649e-02
-3.613667795434594154e-03
-1.644551381468772888e-02
1.804025610908865929e-03
4.571621492505073547e-02
-5.854728166013956070e-03
-2.246692404150962830e-02
-1.110410969704389572e-02
-1.357539463788270950e-02
-1.534734945744276047e-02
9.225065819919109344e-03
3.792354837059974670e-02
-2.464499697089195251e-02
-4.676633700728416443e-02
-1.722578704357147217e-02
2.790394984185695648e-02
2.000537887215614319e-02
-1.753667742013931274e-02
-3.248611092567443848e-02
-2.017882093787193298e-02
-1.013155910186469555e-03
1.131414528936147690e-02
-1.144435070455074310e-02
-3.909130766987800598e-02
-1.554958615452051163e-02
-1.036644726991653442e-02
-2.980841882526874542e-02
-3.915906709153205156e-04
-8.384969085454940796e-03
-1.415306329727172852e-02
-5.922253802418708801e-02
-2.431941591203212738e-02
-2.664080588147044182e-03
3.231281042098999023e-02
-4.087868728674948215e-04
-3.674376755952835083e-03
-2.936730906367301941e-02
-2.510096877813339233e-02
3.856408223509788513e-02
2.328406274318695068e-02
-2.090048417448997498e-02
-5.035528447479009628e-03
-1.866579870693385601e-03
1.783012412488460541e-02
-4.865009803324937820e-03
-1.484842505306005478e-02
-1.124425139278173447e-02
6.047408562153577805e-03
2.127014473080635071e-02
1.874689362011849880e-03
9.707549586892127991e-03
9.939095936715602875e-03
4.683072213083505630e-03
7.993747480213642120e-03
-2.464181510731577873e-03
2.711040712893009186e-02
-2.770341234281659126e-03
-2.931918203830718994e-02
1.865533180534839630e-02
2.073897607624530792e-02
2.480537816882133484e-02
1.181736215949058533e-02
-7.290741894394159317e-03
-6.739767268300056458e-03
-6.807177793234586716e-03
-2.421672921627759933e-03
7.823115214705467224e-03
-1.600276492536067963e-02
2.433959022164344788e-02
5.768330022692680359e-02
-1.514643244445323944e-02
6.114806048572063446e-03
-2.754057012498378754e-02
-3.529180586338043213e-02
1.491693407297134399e-02
-1.915443688631057739e-02
-1.650180434808135033e-03
3.839168464764952660e-03
-1.489374134689569473e-02
-1.443711575120687485e-02
-1.673552766442298889e-02
-1.431940030306577682e-02
-1.490715891122817993e-03
8.478430099785327911e-03
-4.083892796188592911e-03
-5.387179553508758545e-03
4.503265023231506348e-02
4.883130080997943878e-03
-1.624673791229724884e-02
-9.049444459378719330e-03
-6.672475486993789673e-03
-1.444480195641517639e-02
-3.381672548130154610e-03
-8.009117096662521362e-03
-6.514729000627994537e-03
8.012697100639343262e-03
-1.137859653681516647e-02
-1.316588185727596283e-02
2.376404963433742523e-02
-2.690844982862472534e-02
7.106312084943056107e-03
-1.664601825177669525e-02
9.010976180434226990e-03
-7.686350028961896896e-03
1.212798058986663818e-03
-1.006065774708986282e-02
4.579073283821344376e-03
-1.348029449582099915e-02
-4.981523379683494568e-03
1.784713380038738251e-02
2.837836509570479393e-03
-9.788805618882179260e-03
-3.644360229372978210e-02
1.814694330096244812e-02
-5.654837936162948608e-03
-1.890040934085845947e-03
-1.412958465516567230e-02
-1.548435539007186890e-03
-1.683779060840606689e-02
3.580024093389511108e-02
-1.610713079571723938e-02
1.702522113919258118e-02
-1.127199083566665649e-02
-1.067790295928716660e-02
2.330226637423038483e-02
-2.634702064096927643e-02
-8.186328224837779999e-03
-1.488713896833360195e-03
8.149714209139347076e-03
1.828946545720100403e-02
-3.911215811967849731e-02
9.308255277574062347e-03
-1.315016020089387894e-02
-1.207364443689584732e-02
-3.763307631015777588e-02
1.407105941325426102e-03
4.387424793094396591e-03
8.216353133320808411e-03
-4.312150552868843079e-02
-4.410449042916297913e-02
1.612445339560508728e-02
3.159548854455351830e-03
-5.163363181054592133e-03
-2.233202941715717316e-02
9.948062710464000702e-03
5.178056191653013229e-03
-8.111506700515747070e-03
3.356307744979858398e-02
1.856885477900505066e-02
5.057874135673046112e-03
1.254978962242603302e-02
-1.634051650762557983e-02
2.309781499207019806e-03
2.195006050169467926e-02
2.220401167869567871e-02
1.570063084363937378e-02
-3.849128494039177895e-03
-2.710069157183170319e-02
-1.931152120232582092e-02
-5.752016231417655945e-02
-2.724577113986015320e-02
-3.537523746490478516e-02
3.407364012673497200e-03
1.946862437762320042e-03
9.466637857258319855e-03
-6.012617610394954681e-03
4.255237057805061340e-02
4.516281560063362122e-02
8.217708207666873932e-03
1.948482240550220013e-03
-2.168093249201774597e-02
-1.609157770872116089e-02
1.193010900169610977e-02
2.616634359583258629e-03
2.619990380480885506e-03
1.976679451763629913e-02
-5.319801159203052521e-03
1.472941692918539047e-02
-1.535846479237079620e-02
-1.679864153265953064e-02
9.728663600981235504e-03
1.040976587682962418e-02
-3.355723619461059570e-02
3.127720579504966736e-02
2.966670505702495575e-02
-3.854786977171897888e-02
-2.866249345242977142e-02
8.433491922914981842e-03
-1.482430007308721542e-02
3.055123053491115570e-02
3.490059170871973038e-03
1.291594654321670532e-02
-9.190781973302364349e-03
-3.624672535806894302e-03
-4.823540337383747101e-03
1.554640103131532669e-02
-2.242946811020374298e-02
-4.132334608584642410e-03
-2.480237372219562531e-02
-3.427612828090786934e-03
-5.674235057085752487e-03
-1.868713460862636566e-02
-2.727854810655117035e-02
-4.595487378537654877e-03
-2.808266784995794296e-03
9.829060873016715050e-04
-1.542024500668048859e-02
-9.000114165246486664e-03
-2.860180102288722992e-02
1.107563264667987823e-02
8.554621599614620209e-03
1.218662131577730179e-02
-7.528136949986219406e-03
-1.744644949212670326e-03
-4.863463807851076126e-03
8.398808538913726807e-03
1.843811623984947801e-04
5.771590862423181534e-03
-1.978018879890441895e-02
-2.011418342590332031e-02
-4.106460884213447571e-02
1.248817332088947296e-02
-1.470998954027891159e-02
2.845939807593822479e-02
-4.449307452887296677e-03
-2.255630679428577423e-03
-9.219529601978138089e-05
-2.323624305427074432e-02
2.883468382060527802e-02
-1.729458384215831757e-02
3.227135911583900452e-02
-7.640173658728599548e-03
-1.744056865572929382e-02
-9.795757010579109192e-03
-1.012917514890432358e-02
6.852965801954269409e-03
-4.298156592994928360e-03
-9.790944168344140053e-04
3.649955149739980698e-03
4.255940672010183334e-03
2.477822825312614441e-03
-1.161758555099368095e-03
3.581303870305418968e-03
8.913934230804443359e-03
1.622725650668144226e-02
-5.853660870343446732e-03
-2.093836478888988495e-02
2.790994010865688324e-02
-1.328140124678611755e-02
2.761688828468322754e-02
-5.291994661092758179e-02
1.063028164207935333e-02
-3.466085717082023621e-02
-1.822998933494091034e-02
1.759317703545093536e-02
8.454669266939163208e-03
1.579758152365684509e-02
2.133820205926895142e-02
-9.319687262177467346e-03
-5.443400703370571136e-03
-1.911846548318862915e-02
-1.579504460096359253e-02
-4.206898808479309082e-02
1.794685982167720795e-02
-4.683884035330265760e-04
2.015577629208564758e-02
-1.022125408053398132e-01
-4.600510373711585999e-02
1.679119840264320374e-02
2.292274124920368195e-02
2.962967846542596817e-03
-3.221790120005607605e-02
-4.700872115790843964e-03
9.200472413795068860e-05
-7.302057463675737381e-03
2.276689931750297546e-02
2.317050844430923462e-02
9.775252081453800201e-03
9.399293921887874603e-03
-2.634454518556594849e-02
2.067789249122142792e-02
-6.177946925163269043e-03
2.698066830635070801e-02
1.831093803048133850e-02
1.352699007838964462e-02
-3.083810769021511078e-02
3.711860917974263430e-04
-3.189581632614135742e-02
-1.225440390408039093e-02
-4.599123075604438782e-02
-3.119956469163298607e-03
-4.649046808481216431e-03
2.192316390573978424e-02
-1.193249714560806751e-03
6.016275659203529358e-02
1.166157983243465424e-02
2.423707023262977600e-02
-1.241928059607744217e-02
1.822412386536598206e-02
4.564250819385051727e-03
2.436827402561903000e-03
-9.516293182969093323e-03
-7.279185112565755844e-03
-8.531506173312664032e-03
-4.350914154201745987e-03
9.560534730553627014e-03
-1.313566043972969055e-02
-6.844500894658267498e-04
6.652729352936148643e-04
1.449990272521972656e-02
-2.586909011006355286e-02
2.715730294585227966e-02
-4.005805589258670807e-03
-5.075474455952644348e-02
-7.151588331907987595e-03
7.806074805557727814e-03
-1.711466349661350250e-02
-1.534238923341035843e-03
4.634261503815650940e-02
2.046690136194229126e-02
-1.929101534187793732e-02
1.361633883789181709e-03
-4.449307452887296677e-03
2.600385993719100952e-02
-3.175154700875282288e-02
-2.701406832784414291e-03
-2.966234833002090454e-02
4.603164270520210266e-03
-8.902522735297679901e-03
-3.842471912503242493e-02
-7.262127473950386047e-03
-8.439880795776844025e-03
-2.192470245063304901e-03
-1.610242389142513275e-02
1.751186512410640717e-02
1.967225922271609306e-03
-4.627030342817306519e-03
1.838018884882330894e-03
1.257073413580656052e-02
1.041918061673641205e-02
-3.634258173406124115e-03
-1.632716879248619080e-02
2.698449231684207916e-02
1.812441833317279816e-02
1.684934273362159729e-02
2.105311024934053421e-03
2.163486897188704461e-05
-3.423825651407241821e-02
-1.450060307979583740e-02
1.351837534457445145e-02
-1.596008427441120148e-02
2.522582933306694031e-02
3.261427395045757294e-03
-8.376842364668846130e-03
1.807211339473724365e-02
-5.189362168312072754e-02
1.620966196060180664e-02
-2.111090905964374542e-02
3.887493908405303955e-02
-5.002026446163654327e-03
-2.138378843665122986e-02
-2.205292135477066040e-02
2.152906917035579681e-02
4.141858778893947601e-03
1.345863752067089081e-02
3.506106149870902300e-04
1.866689883172512054e-02
-2.548902854323387146e-02
-1.066189352422952652e-02
1.395471766591072083e-02
-5.163166206330060959e-03
-2.129718195647001266e-03
1.737116649746894836e-02
7.454828592017292976e-04
-2.220210619270801544e-02
2.094845287501811981e-02
-9.815400466322898865e-03
6.524709612131118774e-02
-5.135900527238845825e-02
2.407901221886277199e-03
1.132735400460660458e-03
-2.486637420952320099e-02
3.032646141946315765e-02
-4.258543718606233597e-03
-4.276848398149013519e-03
7.148979231715202332e-03
-5.643628165125846863e-02
2.314266515895724297e-03
7.801470928825438023e-04
7.500779349356889725e-03
-2.512540668249130249e-02
-4.405698738992214203e-03
-1.068370882421731949e-03
2.323918044567108154e-03
-8.675736933946609497e-02
-3.924221172928810120e-02
-7.619886193424463272e-03
1.978988572955131531e-02
2.589844865724444389e-03
-3.464375808835029602e-02
1.436307327821850777e-03
7.154447492212057114e-03
1.441396120935678482e-02
2.109241858124732971e-02
3.693093312904238701e-03
2.872698567807674408e-02
1.728142728097736835e-03
-2.273501083254814148e-02
-3.930010367184877396e-03
2.148536406457424164e-02
3.019519150257110596e-02
3.330545732751488686e-03
5.666461074724793434e-04
-4.282225389033555984e-03
1.366825029253959656e-02
-3.317015990614891052e-02
-2.306965738534927368e-02
-4.978346079587936401e-02
-1.589426212012767792e-02
-2.152533084154129028e-02
9.165027178823947906e-03
3.548654494807124138e-03
5.454498529434204102e-02
2.440163120627403259e-02
3.511561453342437744e-02
-8.168723434209823608e-03
-1.940855756402015686e-03
-2.330970746697857976e-04
-3.340398252476006746e-04
-2.246066182851791382e-02
-2.168250968679785728e-03
1.283137220889329910e-02
-6.713652983307838440e-03
2.164585283026099205e-03
-2.640959806740283966e-02
-4.291219636797904968e-03
1.193479541689157486e-02
1.918137259781360626e-02
-5.603455752134323120e-02
3.010723739862442017e-02
7.153801154345273972e-03
-7.508082687854766846e-02
1.420830097049474716e-02
8.024863898754119873e-03
-5.048354621976613998e-03
1.685220748186111450e-02
4.060449451208114624e-02
2.002649381756782532e-02
-1.490262453444302082e-03
-1.563167758285999298e-02
1.271644234657287598e-02
1.810005307197570801e-02
-1.995641551911830902e-02
1.276578288525342941e-02
-1.871675439178943634e-02
1.736908592283725739e-02
1.599609106779098511e-02
-5.089002475142478943e-02
4.319244064390659332e-03
-1.494480948895215988e-02
7.194584701210260391e-03
-1.119581703096628189e-02
1.507348846644163132e-02
-3.588894847780466080e-03
-1.892514340579509735e-02
-1.567520946264266968e-02
5.933879874646663666e-03
1.446492504328489304e-02
1.231739483773708344e-02
1.217289478518068790e-03
1.295815035700798035e-02
-2.229122444987297058e-02
-4.351868852972984314e-02
7.772140204906463623e-03
-1.622031815350055695e-02
-1.365676801651716232e-02
1.114721037447452545e-02
5.202161613851785660e-03
1.265360973775386810e-02
-7.580054923892021179e-03
-1.683531142771244049e-02
3.383335657417774200e-03
1.630002632737159729e-02
-1.560249179601669312e-02
6.473541725426912308e-03
-1.997311785817146301e-02
-1.595955900847911835e-02
-3.055942617356777191e-02
2.725944854319095612e-03
9.658540948294103146e-04
-1.427078153938055038e-02
-7.708733901381492615e-03
1.308553386479616165e-02
1.262700930237770081e-02
-6.151142530143260956e-03
-5.606736056506633759e-03
-3.866963461041450500e-02
1.020899042487144470e-02
6.061769090592861176e-03
1.545095164328813553e-02
-1.957555301487445831e-03
2.189090475440025330e-02
-2.862930670380592346e-02
3.465702012181282043e-02
3.703194111585617065e-02
-3.647566586732864380e-02
1.590368337929248810e-02
-1.339278649538755417e-02
-7.910649292171001434e-03
8.716892334632575512e-04
-1.024189870804548264e-02
6.284119561314582825e-03
-2.940119709819555283e-03
-1.949977315962314606e-02
7.917368784546852112e-03
-2.225990872830152512e-03
-2.630076371133327484e-02
9.439428336918354034e-03
5.328005179762840271e-03
1.535866688936948776e-02
4.661872517317533493e-03
1.885558664798736572e-02
-2.811541547998785973e-03
-4.354287311434745789e-02
2.220097370445728302e-02
3.319445252418518066e-02
-1.496036630123853683e-02
6.283547263592481613e-03
-1.559835020452737808e-02
2.461136085912585258e-03
1.040722150355577469e-02
7.925529032945632935e-03
2.892453409731388092e-02
-1.418181322515010834e-02
-8.944459259510040283e-03
-1.383670885115861893e-02
-1.672410778701305389e-02
3.871755674481391907e-03
1.952353678643703461e-02
3.253453876823186874e-03
-2.887554546759929508e-05
-2.997044241055846214e-03
9.906592778861522675e-03
-2.787013724446296692e-02
-1.721170358359813690e-02
-8.752781897783279419e-03
-3.471643431112170219e-03
1.452846825122833252e-02
-6.475729867815971375e-03
1.183061394840478897e-02
1.746827550232410431e-02
1.252483949065208435e-02
1.557382382452487946e-02
3.419274091720581055e-02
-3.001821972429752350e-02
-8.525889366865158081e-03
4.275013634469360113e-04
9.612677618861198425e-03
3.875353140756487846e-03
-3.274434804916381836e-02
1.760628260672092438e-02
2.527406066656112671e-02
7.225377485156059265e-03
-1.529310084879398346e-02
1.288799382746219635e-02
6.034179590642452240e-03
7.024361286312341690e-03
8.919999003410339355e-03
-7.980753667652606964e-03
1.599270105361938477e-02
9.194587357342243195e-03
-2.736829966306686401e-02
5.982508882880210876e-03
4.890249576419591904e-03
7.836092845536768436e-05
1.245108782313764095e-03
-2.932935254648327827e-03
-2.835756167769432068e-03
6.152914371341466904e-03
1.016140915453433990e-02
9.130982682108879089e-03
-3.980770707130432129e-02
-8.553171530365943909e-03
-3.059801412746310234e-03
-2.426053024828433990e-02
-2.256547473371028900e-02
-7.531964685767889023e-03
-1.746598398312926292e-03
-1.717108418233692646e-03
8.069191128015518188e-03
-1.842737197875976562e-02
-3.835654351860284805e-03
-2.698176912963390350e-02
-5.858295131474733353e-03
1.939332112669944763e-02
2.354627847671508789e-02
4.968924913555383682e-03
-2.439353847876191139e-03
-3.375392407178878784e-04
-1.569649763405323029e-02
-3.594182431697845459e-02
1.696744747459888458e-02
-9.495289996266365051e-03
1.400101277977228165e-02
2.863249741494655609e-02
1.707870326936244965e-02
-7.235374301671981812e-03
-1.500476896762847900e-02
1.180769223719835281e-02
2.444831840693950653e-02
-3.682608250528573990e-03
7.303041871637105942e-03
1.260707713663578033e-02
-1.415017899125814438e-02
-3.674628213047981262e-03
-5.486919358372688293e-02
-2.569974958896636963e-02
1.403990574181079865e-02
-1.077088341116905212e-02
-1.723985769785940647e-03
3.401143942028284073e-03
5.794103257358074188e-03
-8.065158501267433167e-03
-1.434900704771280289e-02
-3.829914703965187073e-02
1.639097370207309723e-02
8.775907568633556366e-03
1.377110183238983154e-02
4.892592132091522217e-02
2.738426066935062408e-02
-3.770075738430023193e-02
6.438474520109593868e-04
2.371498197317123413e-02
-2.096479572355747223e-02
-2.162319235503673553e-02
-3.925369121134281158e-03
-2.753560803830623627e-02
2.317157341167330742e-03
-1.742895133793354034e-02
-2.479778788983821869e-02
-1.051916927099227905e-02
-1.420691027306020260e-03
1.679535768926143646e-02
-1.435457495972514153e-03
-2.448759227991104126e-02
-1.214055158197879791e-02
1.210648007690906525e-02
-2.315637422725558281e-03
-1.837392803281545639e-03
2.118349075317382812e-02
-1.832888461649417877e-02
-5.049351975321769714e-02
-4.683808423578739166e-03
6.172712147235870361e-02
2.504467032849788666e-02
-8.425402455031871796e-03
-1.902633532881736755e-02
2.546735107898712158e-02
1.546434406191110611e-02
1.662092166952788830e-03
2.547615393996238708e-02
1.810683682560920715e-02
1.488176640123128891e-02
3.025011532008647919e-02
-3.280559787526726723e-03
1.610209117643535137e-03
3.656442835927009583e-02
1.243692263960838318e-02
1.123414142057299614e-03
-6.801840849220752716e-03
4.549559205770492554e-02
-4.062306508421897888e-02
-1.173857692629098892e-02
-1.196165196597576141e-02
-4.575381171889603138e-05
1.179313054308295250e-03
1.798189431428909302e-02
1.686672680079936981e-02
-2.329885214567184448e-02
-1.824778690934181213e-02
5.491117015480995178e-02
3.110371157526969910e-02
-5.873939953744411469e-03
4.023798275738954544e-03
-1.904476433992385864e-02
7.220202591270208359e-03
-7.590600289404392242e-03
-1.495466753840446472e-02
-1.219593267887830734e-02
-1.639945060014724731e-02
-2.096596732735633850e-02
-4.577834531664848328e-02
-2.042632363736629486e-02
-1.721466891467571259e-02
-7.155837491154670715e-03
-3.489951137453317642e-03
-4.301895946264266968e-02
6.612035632133483887e-02
2.479713596403598785e-02
-3.208921477198600769e-02
-1.829377375543117523e-02
-2.357629686594009399e-02
-5.374803673475980759e-03
-2.747322432696819305e-03
-4.115059506148099899e-03
-2.970030345022678375e-02
-1.246434450149536133e-02
1.863734051585197449e-02
-5.537463584914803505e-04
-4.405639320611953735e-02
3.804229572415351868e-02
1.036726403981447220e-02
-9.196493774652481079e-03
-3.107285127043724060e-02
4.019492771476507187e-03
-2.102463273331522942e-03
-9.232982061803340912e-03
1.172594958916306496e-03
-3.502955660223960876e-03
-1.440575718879699707e-02
2.764557721093297005e-04
-2.306427806615829468e-02
2.323789522051811218e-02
3.622759878635406494e-02
4.713985603302717209e-03
-1.637778617441654205e-02
-1.017183158546686172e-02
6.809392012655735016e-03
-2.453308738768100739e-02
1.602834649384021759e-02
1.069560088217258453e-02
1.353635545819997787e-02
5.308628454804420471e-02
1.422594301402568817e-02
-6.841017398983240128e-03
1.406698394566774368e-02
-7.922956719994544983e-03
2.111802063882350922e-02
3.609804902225732803e-03
5.097291432321071625e-03
1.006651320494711399e-03
1.858839392662048340e-02
-3.844147548079490662e-03
-4.454349726438522339e-02
-3.702732175588607788e-02
9.498387575149536133e-03
-7.456367602571845055e-04
1.098305452615022659e-02
-1.348962634801864624e-02
-1.028407085686922073e-02
-5.257883574813604355e-03
-2.030367590487003326e-02
-6.391781382262706757e-03
2.061824873089790344e-02
-3.358241869136691093e-03
1.480840053409337997e-02
4.750654473900794983e-02
4.442232474684715271e-02
-2.723157964646816254e-02
-1.125509291887283325e-02
4.263283312320709229e-02
1.134380511939525604e-02
-3.810605779290199280e-02
-1.686032675206661224e-02
-2.161016128957271576e-02
3.448639297857880592e-03
-1.289312541484832764e-02
-2.151568606495857239e-02
-1.489694975316524506e-02
-1.274312939494848251e-02
1.704640313982963562e-02
-1.087813545018434525e-02
-3.226122632622718811e-02
-2.199170924723148346e-02
1.949513144791126251e-02
-1.964111579582095146e-03
3.780885599553585052e-04
-2.416700357571244240e-03
1.424837950617074966e-02
-5.983864888548851013e-02
8.289277902804315090e-04
8.363773673772811890e-02
4.003777354955673218e-02
6.853833794593811035e-03
-1.953517459332942963e-02
3.492526710033416748e-02
3.084710612893104553e-02
8.692946285009384155e-03
2.339000068604946136e-02
2.548719942569732666e-02
1.549496408551931381e-02
5.364111438393592834e-02
1.254123728722333908e-02
1.621454581618309021e-02
3.283261880278587341e-02
-1.402057707309722900e-02
-2.560169203206896782e-03
1.247908081859350204e-02
8.501441776752471924e-02
-2.624268084764480591e-02
1.809606765164062381e-04
3.177789272740483284e-03
-1.211535837501287460e-02
5.118003115057945251e-03
1.838877610862255096e-02
1.812906004488468170e-02
-1.207221765071153641e-02
-2.865609014406800270e-03
2.973837405443191528e-02
3.659899532794952393e-02
-3.392266342416405678e-03
1.122750900685787201e-02
-5.805746652185916901e-03
1.084078755229711533e-02
-1.147811487317085266e-02
1.605347380973398685e-03
-1.101632323116064072e-02
-2.565122582018375397e-02
-2.364216372370719910e-02
-4.816171154379844666e-02
-1.456534769386053085e-02
-1.647298410534858704e-02
-1.220060791820287704e-02
-2.701822202652692795e-03
-5.569702014327049255e-02
7.215628772974014282e-02
3.753191232681274414e-02
-1.530092582106590271e-02
-9.734869934618473053e-03
-3.571285679936408997e-02
-6.524914875626564026e-03
-7.438745349645614624e-03
-6.418803706765174866e-03
-1.518710795789957047e-02
-8.766559767536818981e-04
-9.429240599274635315e-03
-1.783976517617702484e-02
-1.749705150723457336e-02
1.611910946667194366e-02
-9.984665550291538239e-03
1.793302968144416809e-02
-2.250488288700580597e-02
2.376235648989677429e-02
-2.316645160317420959e-02
-1.539450488053262234e-03
-2.602105028927326202e-03
1.523362006992101669e-02
1.805874519050121307e-02
2.498258836567401886e-02
-1.712169311940670013e-02
3.126431629061698914e-02
2.021789550781250000e-03
-6.229859776794910431e-03
2.349128387868404388e-02
3.353254124522209167e-02
-2.599948644638061523e-02
-2.772263064980506897e-02
-9.071536362171173096e-03
1.463506184518337250e-02
-1.571586728096008301e-02
4.024909064173698425e-02
2.701326739042997360e-03
8.774666115641593933e-03
-7.006181403994560242e-03
1.043541077524423599e-02
-1.284473668783903122e-02
-5.405722651630640030e-03
-1.357501558959484100e-02
-1.070434786379337311e-02
1.877920143306255341e-02
-5.403468012809753418e-02
1.731604896485805511e-02
-6.911125499755144119e-03
-7.258999627083539963e-03
-9.537080302834510803e-03
1.357644051313400269e-02
3.563832258805632591e-03
-2.273360267281532288e-03
-4.823040962219238281e-02
1.295566093176603317e-02
1.512948237359523773e-02
-1.236603502184152603e-02
-1.161919324658811092e-03
1.159630343317985535e-02
-2.018704637885093689e-02
1.115559041500091553e-02
3.463602392002940178e-03
-6.854295730590820312e-03
-1.024404261261224747e-02
7.377843838185071945e-03
1.106332521885633469e-02
2.386179380118846893e-02
4.558567423373460770e-03
-2.107637934386730194e-02
1.773992739617824554e-02
-8.675577118992805481e-03
-1.377452258020639420e-02
8.041127002798020840e-04
2.154020778834819794e-02
1.655339822173118591e-02
-2.464060857892036438e-02
1.554342731833457947e-02
-6.202388904057443142e-04
9.380916133522987366e-03
4.345829132944345474e-03
8.020462468266487122e-03
4.643243737518787384e-03
-2.762317471206188202e-02
-1.896175742149353027e-02
-3.531645610928535461e-02
1.716084033250808716e-02
-1.927046338096261024e-03
1.726283133029937744e-02
6.988265085965394974e-04
2.830873476341366768e-03
-1.050471235066652298e-02
2.769905887544155121e-02
6.638415623456239700e-03
-4.329142160713672638e-03
9.691128507256507874e-03
3.402638807892799377e-02
2.891621179878711700e-02
2.893792698159813881e-03
1.780911162495613098e-02
-1.301918737590312958e-02
-1.094785635359585285e-03
-3.287049382925033569e-02
1.520813815295696259e-02
1.600489951670169830e-02
8.141432888805866241e-03
-2.345628105103969574e-03
-2.216766215860843658e-02
5.464125424623489380e-03
-2.072136849164962769e-03
-2.438464015722274780e-02
1.130325440317392349e-02
-1.356152072548866272e-02
5.862857680767774582e-03
-9.576450102031230927e-03
3.763657435774803162e-02
1.377978455275297165e-02
-9.262559004127979279e-03
1.995961181819438934e-02
1.073713321238756180e-02
-3.886453807353973389e-02
-2.124816179275512695e-02
-1.734769716858863831e-02
6.230199709534645081e-03
2.626836067065596581e-04
-2.658015117049217224e-02
-6.069394294172525406e-03
1.208657585084438324e-02
-1.070358231663703918e-02
4.610112309455871582e-02
7.824379019439220428e-03
-9.964849799871444702e-03
-9.866327047348022461e-03
2.221150882542133331e-02
-1.841564849019050598e-02
-2.210243605077266693e-02
-1.988989487290382385e-02
7.533544674515724182e-03
-2.436561323702335358e-02
-1.441648136824369431e-02
2.041995758190751076e-03
-7.788120768964290619e-03
4.560143686830997467e-03
-1.823926344513893127e-02
-3.115223255008459091e-03
-5.259083583950996399e-03
2.840293571352958679e-02
-1.614566706120967865e-02
-9.653468616306781769e-03
9.231060743331909180e-03
3.504129126667976379e-03
-1.440018415451049805e-03
2.649250812828540802e-02
1.874191686511039734e-02
1.407628599554300308e-02
9.596838615834712982e-03
-2.063743025064468384e-02
5.691959988325834274e-03
2.160752005875110626e-02
-2.635499276220798492e-02
-1.270324457436800003e-02
-1.976737938821315765e-02
1.066933665424585342e-02
-1.293074991554021835e-02
2.059619314968585968e-02
-1.445373613387346268e-02
1.587756909430027008e-02
-1.943781413137912750e-02
-8.839497342705726624e-03
-1.827613450586795807e-02
-2.089380845427513123e-02
-5.193190649151802063e-03
-1.675805635750293732e-02
1.303571090102195740e-02
-4.019150137901306152e-02
1.024091057479381561e-02
-1.329276524484157562e-02
1.821364276111125946e-04
6.617666687816381454e-03
-2.577373059466481209e-03
1.508955005556344986e-02
2.020626887679100037e-02
-8.637350052595138550e-02
1.738469861447811127e-02
-2.725602360442280769e-03
-1.614233292639255524e-02
-1.441182009875774384e-02
2.083823084831237793e-02
3.163050394505262375e-03
1.083193905651569366e-02
-1.914805918931961060e-02
-1.025818567723035812e-02
-3.704509511590003967e-02
2.275714650750160217e-03
1.780673977918922901e-03
1.866998337209224701e-02
-1.958378776907920837e-02
-1.726828888058662415e-02
3.816250246018171310e-03
-1.091638696379959583e-04
-2.118286490440368652e-02
7.323588710278272629e-03
4.397426266223192215e-03
5.557759199291467667e-03
-3.512064367532730103e-02
2.509924955666065216e-02
-1.315726153552532196e-02
2.919367747381329536e-03
6.411784794181585312e-03
1.036570593714714050e-02
3.759656334295868874e-03
-2.836453169584274292e-02
-3.365971520543098450e-02
-3.319729492068290710e-02
1.145422365516424179e-02
-2.165440702810883522e-03
1.339236088097095490e-02
7.915046066045761108e-03
-2.876819297671318054e-02
-1.798410527408123016e-02
3.043995797634124756e-02
-2.893206197768449783e-03
-5.239513702690601349e-03
7.270124740898609161e-03
4.940561950206756592e-02
3.455914184451103210e-02
3.887767903506755829e-03
2.295907400548458099e-02
-2.215330861508846283e-02
-2.135621849447488785e-03
-1.673599891364574432e-02
3.042299672961235046e-02
7.082223892211914062e-03
8.072454482316970825e-03
-6.192558910697698593e-03
-3.626324981451034546e-02
2.042389474809169769e-03
-1.040501883835531771e-04
8.411483722738921642e-04
1.449641399085521698e-02
1.929281745105981827e-03
-1.555746886879205704e-03
-1.828044303692877293e-03
4.267444834113121033e-02
8.485657162964344025e-03
-6.535928696393966675e-03
1.627891510725021362e-02
1.385766267776489258e-02
-7.240206003189086914e-02
-1.261599827557802200e-02
-3.049959242343902588e-02
-6.750153377652168274e-03
1.478018239140510559e-02
-2.799219824373722076e-02
2.213456854224205017e-02
3.889949526637792587e-03
5.793183110654354095e-03
4.556205496191978455e-02
7.274684961885213852e-03
-2.175120450556278229e-02
-7.434430066496133804e-03
1.307201106101274490e-03
-2.614311873912811279e-02
-1.184095721691846848e-02
-1.998283155262470245e-02
-5.494881886988878250e-03
-1.877022720873355865e-02
-6.617421284317970276e-03
9.017255157232284546e-03
-3.271610289812088013e-02
5.365523975342512131e-03
-1.151210255920886993e-02
-1.823699683882296085e-03
-1.607738994061946869e-02
8.724667131900787354e-03
-2.824540622532367706e-02
-1.702772802673280239e-03
1.156530994921922684e-02
3.418204141780734062e-03
-2.987186424434185028e-02
3.515619412064552307e-02
2.433607541024684906e-02
1.391454972326755524e-02
-9.386072866618633270e-03
2.567993104457855225e-02
3.403625451028347015e-03
2.209555171430110931e-02
-1.045064441859722137e-02
5.953096784651279449e-03
-7.996378466486930847e-03
-2.799653680995106697e-03
-1.775708794593811035e-02
5.446211900562047958e-03
1.701712841168045998e-03
2.433629147708415985e-02
-1.269607711583375931e-02
-7.800446823239326477e-03
-1.143004652112722397e-02
-1.249030325561761856e-02
-1.296570524573326111e-03
-9.452579542994499207e-03
-2.034773584455251694e-03
-1.397397648543119431e-02
-1.570587977766990662e-02
1.862953067757189274e-03
-2.036724239587783813e-03
2.360348822548985481e-03
-1.817256584763526917e-02
3.736389044206589460e-05
-1.895656809210777283e-02
-6.283070147037506104e-02
2.000100910663604736e-02
-1.320234593003988266e-02
-7.207059767097234726e-03
-1.526825129985809326e-02
1.311098132282495499e-02
1.553804147988557816e-03
2.017232030630111694e-02
-4.395966231822967529e-02
-1.469261944293975830e-02
-2.935252524912357330e-02
6.482393946498632431e-03
1.567260734736919403e-02
9.464171598665416241e-04
1.023476826958358288e-03
-3.175419569015502930e-02
2.398374723270535469e-03
-1.007065642625093460e-03
-1.426910143345594406e-02
4.636225756257772446e-03
7.682938128709793091e-03
1.766584254801273346e-02
-2.469201572239398956e-02
1.291622966527938843e-02
-6.630857940763235092e-03
1.566862128674983978e-02
7.361128926277160645e-03
1.667975075542926788e-02
1.659231819212436676e-02
-4.143981728702783585e-03
-1.069032307714223862e-02
-1.686752401292324066e-02
4.249079618602991104e-03
2.678528800606727600e-02
7.254584226757287979e-03
1.749535463750362396e-02
-4.291933961212635040e-03
1.233092881739139557e-02
3.263121470808982849e-02
6.066452711820602417e-03
-7.965344935655593872e-03
1.421668846160173416e-02
4.791137576103210449e-02
2.750432863831520081e-02
1.005037035793066025e-02
3.249375522136688232e-02
-3.189168637618422508e-03
-1.482792547903954983e-03
5.108510609716176987e-03
1.998347789049148560e-02
1.649732887744903564e-02
1.586826704442501068e-02
-1.733229262754321098e-03
-1.905927062034606934e-02
2.510618045926094055e-02
7.883072830736637115e-03
-4.120469093322753906e-03
2.611064165830612183e-02
1.852394826710224152e-02
1.338595408014953136e-03
1.390851102769374847e-02
2.636128105223178864e-02
1.029130350798368454e-02
2.620785264298319817e-03
2.923555439338088036e-03
1.201049517840147018e-02
-6.850316375494003296e-02
-1.692131045274436474e-03
-1.510171126574277878e-02
-1.407699310220777988e-03
2.526473999023437500e-02
2.753642911557108164e-04
1.620338857173919678e-02
-1.371890399605035782e-02
-2.194771310314536095e-03
5.569281801581382751e-02
4.464570805430412292e-02
-1.988584361970424652e-02
-8.409253787249326706e-04
-1.354659534990787506e-02
1.456654514186084270e-03
-4.069454502314329147e-03
-7.987517863512039185e-03
8.664170280098915100e-03
-1.144411042332649231e-02
1.380427461117506027e-02
-1.364440284669399261e-02
-1.518064085394144058e-02
2.922490611672401428e-02
-6.166741717606782913e-03
-5.079744732938706875e-04
2.435744274407625198e-03
2.022645249962806702e-02
-1.470354571938514709e-02
1.587398536503314972e-02
2.138095209375023842e-03
2.542545832693576813e-02
-2.671849541366100311e-02
2.789062820374965668e-02
8.519598632119596004e-04
1.769914664328098297e-02
-1.037399563938379288e-02
-1.386530045419931412e-02
-1.164723839610815048e-02
5.350254848599433899e-02
-7.749200332909822464e-03
1.694709248840808868e-02
-3.977300133556127548e-03
6.142772268503904343e-03
-1.925413310527801514e-02
3.661440312862396240e-02
1.310173515230417252e-02
-2.048446424305438995e-02
-1.525864750146865845e-02
-1.290076505392789841e-02
-1.375998184084892273e-02
-2.769039757549762726e-02
-2.827582135796546936e-02
8.000051602721214294e-03
2.102984674274921417e-02
-5.297215282917022705e-02
-2.065328136086463928e-02
-9.848274290561676025e-03
-1.209804974496364594e-02
-1.056585274636745453e-02
-1.973686181008815765e-02
4.322987049818038940e-03
-7.272474933415651321e-03
-8.081003278493881226e-02
1.315915025770664215e-02
7.424758747220039368e-03
-1.996886543929576874e-02
-2.393689379096031189e-02
1.997129991650581360e-02
-8.969526737928390503e-03
2.948157675564289093e-02
-4.041356965899467468e-02
-1.713950745761394501e-02
-2.951215766370296478e-02
4.534122534096240997e-03
9.342475794255733490e-03
7.874955423176288605e-03
-7.740451255813241005e-04
-4.303970187902450562e-02
1.806413929443806410e-04
-1.852324977517127991e-02
1.200241036713123322e-03
1.608300395309925079e-02
-2.036872692406177521e-02
-1.849121297709643841e-03
-4.977461323142051697e-02
-1.632261439226567745e-03
-5.603882018476724625e-03
-1.886772736907005310e-02
-4.270703066140413284e-03
2.274578064680099487e-02
-8.403080515563488007e-03
-6.462703645229339600e-02
-3.994908928871154785e-02
-2.210030518472194672e-02
1.215062569826841354e-03
-1.514878822490572929e-04
6.197458133101463318e-03
5.820952821522951126e-03
-1.814518310129642487e-02
-2.097332850098609924e-02
9.883630089461803436e-03
-1.036731153726577759e-02
-3.269867738708853722e-03
2.736339345574378967e-02
3.629186004400253296e-02
2.845839969813823700e-02
2.386425621807575226e-03
2.507499605417251587e-02
-2.782574668526649475e-02
-1.938776671886444092e-02
-2.180719003081321716e-02
1.874336972832679749e-02
1.850222609937191010e-02
-1.684426702558994293e-02
2.574870176613330841e-02
-5.504349246621131897e-02
2.174741774797439575e-02
9.885575622320175171e-03
-3.300201147794723511e-02
1.741854101419448853e-02
-2.024680748581886292e-02
6.263783667236566544e-03
-2.557804808020591736e-02
3.425112366676330566e-02
1.457264460623264313e-02
1.696323277428746223e-03
1.553217042237520218e-02
1.444938778877258301e-02
-7.881280779838562012e-02
-1.564851589500904083e-02
-4.584630578756332397e-02
-1.180960237979888916e-02
2.086710184812545776e-02
-3.296845406293869019e-02
-4.960494115948677063e-03
-2.345435693860054016e-02
4.491102416068315506e-03
2.980145625770092010e-02
-1.833929913118481636e-03
-1.693358831107616425e-02
-3.597978875041007996e-02
2.719456888735294342e-02
5.513188894838094711e-03
6.852766498923301697e-03
-3.335449099540710449e-02
-2.314025722444057465e-02
-3.974868729710578918e-02
-9.440289577469229698e-04
-1.000857446342706680e-02
-3.238513320684432983e-02
-1.092279236763715744e-02
-7.614316418766975403e-03
-1.178029272705316544e-02
-2.140957862138748169e-02
3.443092852830886841e-02
-3.358279913663864136e-02
-1.538184192031621933e-02
1.543731428682804108e-03
2.195073291659355164e-03
-2.518266998231410980e-02
1.854521781206130981e-02
2.920992858707904816e-02
2.303029783070087433e-02
-9.165930096060037613e-04
-2.114722505211830139e-03
6.410375703126192093e-03
-4.585650563240051270e-02
4.435345763340592384e-04
8.180049248039722443e-03
1.860777288675308228e-02
-8.838868699967861176e-03
3.666937723755836487e-02
6.990405730903148651e-03
-4.209558013826608658e-03
-1.551186898723244667e-03
-2.690696157515048981e-02
-2.476405119523406029e-03
-3.471988812088966370e-02
-3.217251598834991455e-02
8.887380361557006836e-03
1.144512556493282318e-02
-1.856548362411558628e-03
-2.283679135143756866e-02
-1.114630978554487228e-02
-7.781987544149160385e-03
6.950342096388339996e-03
-9.003064595162868500e-03
2.643132023513317108e-02
-1.217687595635652542e-02
1.836288720369338989e-02
-1.557013392448425293e-01
1.523637957870960236e-02
1.512262690812349319e-02
-2.282672002911567688e-02
6.551286787725985050e-04
4.172411281615495682e-03
2.791577577590942383e-02
3.188422997482120991e-04
3.527002176269888878e-03
-1.967355608940124512e-02
-7.860954850912094116e-02
-3.019522130489349365e-02
-1.552193704992532730e-02
-9.918389841914176941e-03
-4.264718736521899700e-04
2.783217653632164001e-02
-2.086634375154972076e-02
4.737547598779201508e-03
-2.851256914436817169e-02
-3.002400975674390793e-03
-4.631706047803163528e-03
5.882242112420499325e-04
-4.062942415475845337e-02
-2.152577787637710571e-02
3.895449219271540642e-03
-8.704357605893164873e-05
-9.755287319421768188e-03
2.353533357381820679e-02
-5.966721847653388977e-02
-1.957080326974391937e-02
-1.995251700282096863e-02
-1.862483844161033630e-02
-2.118794247508049011e-03
-2.022621594369411469e-02
-1.299395971000194550e-02
1.702408865094184875e-02
1.159352343529462814e-02
-1.013121940195560455e-02
4.170283302664756775e-02
1.762293092906475067e-02
1.527798827737569809e-02
-5.840233992785215378e-03
4.294377565383911133e-02
-3.714267909526824951e-02
5.724979098886251450e-03
3.229331923648715019e-04
2.482343465089797974e-03
-4.008054360747337341e-02
2.728405781090259552e-02
1.989173702895641327e-02
-1.801610365509986877e-02
-1.473487634211778641e-02
-3.906069090589880943e-03
-2.646951936185359955e-02
1.818662509322166443e-02
2.244808245450258255e-03
3.647304326295852661e-02
-4.523344803601503372e-03
2.977533079683780670e-02
2.382082119584083557e-02
-1.775279990397393703e-03
6.940835155546665192e-04
-1.064409129321575165e-02
-1.604223996400833130e-02
6.510037463158369064e-03
-3.242270555347204208e-03
-3.472260013222694397e-02
-1.144539192318916321e-02
-4.054263234138488770e-02
-1.347871404141187668e-02
1.127736363559961319e-02
-1.802014559507369995e-02
1.658592000603675842e-02
-1.082737464457750320e-02
-1.726520247757434845e-02
3.337294608354568481e-02
2.861323393881320953e-02
-1.733731850981712341e-02
-2.385557256639003754e-02
-5.229326710104942322e-02
8.090796880424022675e-03
1.958742551505565643e-02
-2.534490078687667847e-02
-2.288160473108291626e-02
-7.804412394762039185e-03
1.434426568448543549e-02
4.592687357217073441e-03
-2.699795924127101898e-02
-7.208400405943393707e-03
8.970210328698158264e-03
-4.752765875309705734e-03
-2.081009000539779663e-02
2.578423824161291122e-03
-2.805789001286029816e-02
3.012683708220720291e-03
9.869668632745742798e-03
1.664609275758266449e-02
-2.015941590070724487e-02
-3.741552820429205894e-03
3.997639566659927368e-02
3.125806897878646851e-02
-6.304968148469924927e-03
1.147751696407794952e-02
1.467370055615901947e-02
7.173605263233184814e-02
-1.312736887484788895e-02
1.451507583260536194e-02
2.791878767311573029e-03
8.935282938182353973e-03
-2.544344775378704071e-02
2.371017262339591980e-02
1.314613316208124161e-02
8.887815056368708611e-04
-2.062861621379852295e-02
-3.320306912064552307e-02
-1.386716589331626892e-02
-4.744600504636764526e-02
-2.105615846812725067e-02
2.154164388775825500e-02
1.566183869726955891e-03
-4.954157397150993347e-02
-2.420520596206188202e-02
-4.655266180634498596e-03
5.052026826888322830e-03
1.556314178742468357e-03
-3.928280994296073914e-02
2.139096520841121674e-02
-1.391567289829254150e-02
-1.071473881602287292e-01
3.516105934977531433e-02
-2.120190532878041267e-03
5.077369045466184616e-03
-1.685320585966110229e-02
1.920061931014060974e-02
-4.570805933326482773e-03
2.872245386242866516e-02
-5.667569860816001892e-02
-1.354583445936441422e-02
-5.544874444603919983e-02
1.553564239293336868e-02
-1.535643264651298523e-02
1.141027733683586121e-02
1.167045813053846359e-02
-4.060562700033187866e-02
1.019162870943546295e-02
-1.314348913729190826e-02
1.518916245549917221e-02
9.829180315136909485e-03
3.234958508983254433e-03
-1.545540988445281982e-03
-6.585409492254257202e-02
3.389587393030524254e-03
6.419354584068059921e-03
9.808650240302085876e-03
1.320774434134364128e-03
5.240254849195480347e-02
-1.267823670059442520e-02
-5.935347825288772583e-02
-1.995418593287467957e-02
-1.001625228673219681e-02
-2.149200811982154846e-02
-4.828533274121582508e-04
6.200099829584360123e-03
2.048858208581805229e-03
-2.676096372306346893e-02
2.300359867513179779e-02
3.170943260192871094e-02
-2.299748547375202179e-02
-1.322558242827653885e-02
3.119936212897300720e-02
3.240981325507164001e-02
4.947006702423095703e-02
-6.937799043953418732e-03
4.879568889737129211e-02
-3.480652580037713051e-03
-2.142591215670108795e-02
-2.282222174108028412e-02
3.492462635040283203e-02
6.419779732823371887e-03
-1.038707513362169266e-02
2.329753711819648743e-02
-2.036858163774013519e-02
2.133106626570224762e-02
1.690534688532352448e-02
-1.853721030056476593e-02
4.290661774575710297e-03
1.557015813887119293e-03
-2.184454724192619324e-02
1.544004864990711212e-02
3.847760334610939026e-02
3.340445458889007568e-02
8.822337724268436432e-03
1.596256159245967865e-02
8.089712820947170258e-03
-8.485160022974014282e-02
9.196000173687934875e-03
-4.716761410236358643e-02
-1.339100860059261322e-02
2.426615357398986816e-02
-1.336477883160114288e-02
6.836205720901489258e-04
-3.984171524643898010e-02
1.581312529742717743e-02
3.334630280733108521e-02
2.776582352817058563e-02
-3.517838194966316223e-02
8.610159275121986866e-04
2.086641453206539154e-02
1.037028804421424866e-02
8.508583530783653259e-03
-1.609655283391475677e-02
-6.464400794357061386e-03
-2.268886007368564606e-02
7.078679744154214859e-03
2.662091050297021866e-03
-8.311551809310913086e-02
1.363544445484876633e-02
3.642400261014699936e-04
-3.019077517092227936e-02
-6.015467806719243526e-04
4.140757396817207336e-02
-2.379491738975048065e-02
1.611688174307346344e-02
-3.109537065029144287e-03
8.248855592682957649e-04
-2.666160091757774353e-02
2.565865218639373779e-02
2.587974630296230316e-02
1.274085324257612228e-02
4.432366695255041122e-03
-2.154061011970043182e-02
-7.357968483120203018e-03
5.344344303011894226e-02
-1.925915107131004333e-02
6.823943462222814560e-03
-1.601806096732616425e-02
-1.234733150340616703e-03
-4.293727874755859375e-02
2.559624984860420227e-02
1.191247999668121338e-02
-1.079266238957643509e-02
-1.498284190893173218e-02
-2.150162309408187866e-02
3.104372182860970497e-03
-1.769725978374481201e-02
-1.845257356762886047e-02
-1.191555615514516830e-02
3.067101584747433662e-03
-3.535261750221252441e-02
-2.856814116239547729e-02
2.052557654678821564e-03
-5.022709257900714874e-03
-2.193996496498584747e-02
-2.767026983201503754e-02
9.814775548875331879e-03
-2.882637828588485718e-02
-4.200016334652900696e-02
6.182438228279352188e-03
-1.904773525893688202e-02
-3.880017623305320740e-02
2.555020153522491455e-03
9.849380701780319214e-03
-4.495658504310995340e-05
1.673266664147377014e-02
-3.685493767261505127e-02
5.322162061929702759e-03
-7.815307006239891052e-03
9.377268142998218536e-03
-1.287177111953496933e-02
1.285020541399717331e-02
2.583573572337627411e-02
-6.500832736492156982e-02
5.195437464863061905e-03
-8.809141581878066063e-04
1.679084263741970062e-02
2.193264290690422058e-02
-2.204510010778903961e-02
2.508631150703877211e-04
-3.863327205181121826e-02
2.909903600811958313e-02
-5.991378799080848694e-03
-6.298715248703956604e-03
-5.076962057501077652e-03
6.336781196296215057e-03
-3.791160648688673973e-03
-3.690766915678977966e-02
8.145624306052923203e-04
1.263340655714273453e-02
2.262274175882339478e-02
-2.261539362370967865e-02
1.095028873533010483e-02
2.497392706573009491e-02
1.593416556715965271e-03
9.349823929369449615e-03
8.134971372783184052e-03
2.231076592579483986e-03
-7.645428646355867386e-03
1.249126158654689789e-02
3.807815909385681152e-02
1.944484189152717590e-02
7.217721082270145416e-03
3.525620698928833008e-02
-2.110653556883335114e-03
-7.615995127707719803e-03
1.026544021442532539e-03
2.005023509263992310e-02
-1.895616878755390644e-03
-2.115740440785884857e-02
2.644029445946216583e-02
-1.183912623673677444e-02
1.401742640882730484e-02
2.407831884920597076e-02
-3.098220005631446838e-02
2.955725602805614471e-02
1.047774590551853180e-02
-2.203180192736908793e-04
-4.413367435336112976e-02
2.403000369668006897e-02
1.483784057199954987e-02
9.072654880583286285e-03
1.861836574971675873e-02
1.567483879625797272e-02
-7.381529361009597778e-02
-1.609009876847267151e-02
-2.572061680257320404e-02
-1.829891279339790344e-02
3.178229555487632751e-02
-3.017020411789417267e-02
7.718007545918226242e-03
-2.916897088289260864e-02
2.932174690067768097e-02
2.996790967881679535e-02
-1.640702364966273308e-03
-1.277189701795578003e-02
-1.505182962864637375e-02
3.094944544136524200e-02
9.844713844358921051e-03
2.091294340789318085e-02
-3.473551943898200989e-02
-1.331319659948348999e-02
-2.257200889289379120e-02
1.213787961751222610e-02
-2.421100810170173645e-02
-4.072543606162071228e-02
-9.222357533872127533e-03
-1.066529937088489532e-02
1.448412309400737286e-03
-9.179065935313701630e-03
1.714911125600337982e-02
-1.391223073005676270e-02
-1.161722652614116669e-02
-5.593196954578161240e-03
-1.076052803546190262e-02
-2.251224406063556671e-02
3.064575232565402985e-02
1.700982265174388885e-02
1.867135614156723022e-02
6.624124478548765182e-03
-6.060702726244926453e-03
1.429584529250860214e-02
5.777779594063758850e-02
-1.588350348174571991e-02
2.827155590057373047e-02
-2.409961447119712830e-02
8.604329079389572144e-03
-2.940731868147850037e-02
3.084081597626209259e-02
1.448433566838502884e-02
1.384908333420753479e-02
-3.671208769083023071e-02
-2.243710681796073914e-02
-2.550056204199790955e-02
-4.668686166405677795e-02
-4.712721798568964005e-03
7.257372140884399414e-03
4.299410618841648102e-03
-6.459297239780426025e-02
-3.884750232100486755e-02
-9.946021251380443573e-03
1.195990946143865585e-02
-6.012478377670049667e-03
-1.959712617099285126e-02
5.704065784811973572e-03
1.634759828448295593e-02
-9.837000072002410889e-02
2.244908176362514496e-02
1.257252693176269531e-02
-3.381533175706863403e-02
4.511378065217286348e-04
4.311137832701206207e-03
5.438111722469329834e-03
2.562016434967517853e-02
-2.773343399167060852e-02
1.870325580239295959e-02
-5.160588771104812622e-02
-1.087457290850579739e-03
-1.894053258001804352e-02
2.554128877818584442e-02
1.387379597872495651e-02
-3.055219911038875580e-02
-3.335565561428666115e-03
-1.199015043675899506e-02
2.000631392002105713e-02
2.396922186017036438e-02
4.813633859157562256e-03
-2.315258840098977089e-03
-7.540812343358993530e-02
2.984638325870037079e-02
3.084547119215130806e-03
-1.213856390677392483e-03
-2.955656498670578003e-03
2.894965186715126038e-02
-1.068231090903282166e-02
-3.525265678763389587e-02
-2.349853888154029846e-02
-6.679501384496688843e-03
1.446249149739742279e-02
-2.276883646845817566e-02
1.564827561378479004e-02
1.502427272498607635e-02
-3.658872097730636597e-03
1.497674267739057541e-02
1.655191555619239807e-02
6.815235596150159836e-03
7.876357063651084900e-03
1.112060993909835815e-02
4.502815380692481995e-02
3.875305503606796265e-02
-1.183955185115337372e-02
5.347212776541709900e-02
1.642622612416744232e-02
-1.832728460431098938e-02
-2.749652974307537079e-02
3.073562309145927429e-02
8.300635963678359985e-03
-2.643271349370479584e-02
3.629012405872344971e-02
-1.056276354938745499e-02
6.993285380303859711e-03
2.583033405244350433e-03
-1.865221746265888214e-02
3.606798127293586731e-03
4.039981868118047714e-03
-1.220505405217409134e-02
-3.845256287604570389e-03
3.534509614109992981e-02
2.286083437502384186e-02
7.435379084199666977e-03
2.150234952569007874e-02
1.067723613232374191e-02
-8.291063457727432251e-02
-2.707169018685817719e-02
-5.990802496671676636e-02
-4.713506437838077545e-03
1.555304974317550659e-02
-2.459359541535377502e-02
7.705199532210826874e-04
-3.792188689112663269e-02
3.202529624104499817e-02
3.574924170970916748e-02
5.655017215758562088e-03
-2.017462439835071564e-02
-1.841345801949501038e-02
2.037788555026054382e-02
1.156123075634241104e-02
1.150150690227746964e-02
-2.289993502199649811e-02
-7.906720973551273346e-03
5.627993959933519363e-04
-2.318310318514704704e-03
-3.554511442780494690e-02
-7.267212867736816406e-02
7.512127194786444306e-05
-1.371029298752546310e-02
8.650699630379676819e-03
1.125321141444146633e-03
2.949463203549385071e-02
-4.919519647955894470e-02
-2.229835605248808861e-03
4.852173733524978161e-04
-4.146666266024112701e-03
-2.298494800925254822e-02
4.192978888750076294e-02
3.606604039669036865e-02
6.951938383281230927e-03
-1.759673096239566803e-02
1.543418411165475845e-02
1.906181871891021729e-02
6.590890884399414062e-02
-1.939107105135917664e-02
1.183813344687223434e-02
-2.806138806045055389e-02
2.207063138484954834e-02
-4.150410369038581848e-02
2.051238343119621277e-02
2.306716330349445343e-02
1.001158822327852249e-02
-1.553868129849433899e-02
-3.801437094807624817e-02
1.241067657247185707e-03
-4.431426525115966797e-02
-1.800001040101051331e-02
2.956566773355007172e-02
-2.481601200997829437e-03
-5.545341223478317261e-02
-3.535174578428268433e-02
-1.801872439682483673e-02
-1.157759502530097961e-02
5.522295366972684860e-03
-3.092626295983791351e-02
3.653110191226005554e-02
-5.273082759231328964e-03
-7.572989165782928467e-02
2.314066700637340546e-02
2.532649552449584007e-03
2.100345678627490997e-03
-1.183974184095859528e-02
3.335133567452430725e-02
-5.293810740113258362e-03
3.064230456948280334e-02
-4.386196285486221313e-02
8.400810882449150085e-03
-4.564053565263748169e-02
3.052239678800106049e-02
-5.038740858435630798e-02
1.351029239594936371e-02
-3.382008289918303490e-03
-4.359426721930503845e-02
1.956898905336856842e-02
1.505117584019899368e-02
2.028118073940277100e-02
2.433270961046218872e-02
5.620205774903297424e-04
9.593937546014785767e-03
-5.148972198367118835e-02
3.019753471016883850e-02
-6.570511963218450546e-03
1.441892515867948532e-02
6.941773928701877594e-03
2.940700948238372803e-02
-1.974266581237316132e-02
-3.221997991204261780e-02
9.698214707896113396e-04
-1.429570652544498444e-02
8.803964592516422272e-03
-5.374131724238395691e-03
1.826568879187107086e-02
-9.662798605859279633e-03
-5.557330325245857239e-03
1.638514176011085510e-02
2.434021420776844025e-02
-4.200031049549579620e-03
-5.561294965445995331e-04
1.317145861685276031e-02
4.968388006091117859e-02
5.969159677624702454e-02
5.968128796666860580e-03
6.385622918605804443e-02
1.019262149930000305e-02
-1.918493583798408508e-02
-1.827445439994335175e-02
2.997072786092758179e-02
-5.860445555299520493e-03
-2.096159616485238075e-03
3.132626041769981384e-02
-1.688404940068721771e-02
7.354251574724912643e-03
5.140298046171665192e-03
-2.867358736693859100e-02
5.792695563286542892e-03
3.787826513871550560e-03
-4.791635647416114807e-02
-9.230185300111770630e-03
4.253172501921653748e-02
3.470962494611740112e-02
7.033884059637784958e-03
2.712594531476497650e-02
-1.195633201859891415e-03
-7.139578461647033691e-02
-9.389553219079971313e-03
-4.115258157253265381e-02
6.297883810475468636e-04
2.885412238538265228e-02
-1.833093469031155109e-03
9.634307585656642914e-03
-2.358669787645339966e-02
4.124899208545684814e-02
2.488223835825920105e-02
1.443142350763082504e-02
-1.443827152252197266e-02
9.188011288642883301e-03
2.179485931992530823e-02
1.336032617837190628e-02
1.245387736707925797e-02
-1.820961199700832367e-02
-5.148686002939939499e-03
-1.538892183452844620e-02
-6.572198588401079178e-03
-3.765473514795303345e-02
-8.094693720340728760e-02
2.775351889431476593e-02
-1.571051031351089478e-02
-6.404740270227193832e-03
-5.027121398597955704e-03
4.819273203611373901e-02
-1.397659443318843842e-02
1.993562839925289154e-02
-3.046718612313270569e-02
-6.139275501482188702e-04
-1.424858625978231430e-02
3.647494688630104065e-02
1.338157523423433304e-02
1.247353758662939072e-02
-8.431909605860710144e-03
-2.639587968587875366e-02
2.025651186704635620e-02
1.864877529442310333e-02
1.187096443027257919e-02
-1.604141481220722198e-02
2.006666921079158783e-02
-6.008361931890249252e-03
1.529621891677379608e-02
-9.527162648737430573e-03
1.489483471959829330e-02
-1.792301656678318977e-03
4.565542563796043396e-03
-1.175815425813198090e-02
-8.276923326775431633e-04
2.206065505743026733e-02
-1.231474615633487701e-02
-1.521413400769233704e-02
1.097081601619720459e-02
-2.683334238827228546e-02
2.990029379725456238e-02
5.011451896280050278e-03
-1.646110671572387218e-03
4.601687192916870117e-03
-1.917113084346055984e-03
-1.524933613836765289e-02
-1.392981503158807755e-02
1.980653777718544006e-02
-3.056500479578971863e-02
2.733489125967025757e-02
2.260035835206508636e-02
-5.759200081229209900e-03
-6.685780590487411246e-06
-1.683036983013153076e-02
-7.187761366367340088e-03
2.155391126871109009e-02
6.290634628385305405e-04
-1.686634682118892670e-02
-2.710693515837192535e-02
2.151941589545458555e-04
-5.243828985840082169e-03
2.643568441271781921e-03
1.076024305075407028e-02
2.059508673846721649e-02
-1.411842531524598598e-03
2.238759770989418030e-02
2.216174267232418060e-02
2.533394843339920044e-02
7.695114472880959511e-04
4.205298144370317459e-03
-2.170733734965324402e-02
3.294334746897220612e-04
6.313633173704147339e-03
-2.562601352110505104e-03
-1.279168669134378433e-02
-2.516636066138744354e-02
2.983036451041698456e-03
1.886872225441038609e-03
-3.201233223080635071e-02
2.985547762364149094e-03
-1.250334270298480988e-02
3.338423743844032288e-02
5.522063933312892914e-03
-7.411295082420110703e-03
-9.947702055796980858e-04
1.772036775946617126e-02
-1.868925243616104126e-02
1.668591983616352081e-02
2.697616815567016602e-02
1.868560165166854858e-02
3.612767159938812256e-02
5.011351779103279114e-03
1.393734384328126907e-02
5.453045596368610859e-04
-1.209773495793342590e-02
-3.698027878999710083e-02
1.382508687674999237e-02
1.462954794988036156e-03
1.509742578491568565e-03
1.183375343680381775e-02
-1.527766883373260498e-02
-1.381671428680419922e-02
-2.546075172722339630e-02
-1.733741024509072304e-03
7.154146209359169006e-03
2.325343713164329529e-02
-6.987713277339935303e-03
-3.835849696770310402e-03
-1.171918213367462158e-02
-1.306480541825294495e-02
7.546270266175270081e-03
-3.754585981369018555e-03
-2.723532915115356445e-02
-1.342357881367206573e-02
-1.880432292819023132e-02
3.339160233736038208e-02
1.431978307664394379e-02
-7.073331624269485474e-03
-4.276418592780828476e-03
-1.376725966110825539e-03
-2.977343276143074036e-03
3.816552227362990379e-03
-2.713504992425441742e-02
3.460364788770675659e-02
2.672812156379222870e-02
4.756065551191568375e-03
3.100573457777500153e-02
1.408484857529401779e-02
-1.374381314963102341e-02
-8.742103353142738342e-03
1.698139123618602753e-02
1.348400674760341644e-02
1.324719004333019257e-02
-2.327155135571956635e-02
1.535451225936412811e-02
3.081674687564373016e-02
-7.461440283805131912e-03
-2.057730033993721008e-02
3.019652701914310455e-02
-1.537962933070957661e-03
5.811196751892566681e-03
-1.272388268262147903e-02
-5.957573885098099709e-04
2.249124925583600998e-03
-1.579347066581249237e-02
4.751549661159515381e-02
-1.154347136616706848e-02
-1.804728806018829346e-02
-9.722707793116569519e-03
1.114882435649633408e-02
-9.445625357329845428e-03
8.964350447058677673e-03
-9.882562793791294098e-03
7.869593799114227295e-03
-7.266473490744829178e-03
-8.452720940113067627e-03
4.611872602254152298e-03
-2.134162560105323792e-02
3.685172181576490402e-03
1.896673999726772308e-02
6.468271370977163315e-03
-3.658167645335197449e-02
-2.082167007029056549e-02
1.043448690325021744e-02
8.349793031811714172e-03
-3.601002693176269531e-02
9.679351933300495148e-03
-3.622308745980262756e-02
4.236401990056037903e-02
-1.462938077747821808e-02
-1.106899790465831757e-02
2.410458773374557495e-02
5.550978239625692368e-03
-2.603715658187866211e-02
-3.040449507534503937e-02
2.104631066322326660e-02
-1.054145116358995438e-02
-2.181048132479190826e-02
4.131911322474479675e-03
-2.340929955244064331e-02
6.380644626915454865e-03
-2.454813756048679352e-02
-7.518438156694173813e-03
2.269132994115352631e-02
-4.115976393222808838e-03
-1.409978140145540237e-02
-2.901493199169635773e-02
5.337246507406234741e-02
-7.964124903082847595e-03
5.929297767579555511e-03
-1.220065169036388397e-03
-1.638064719736576080e-02
-2.759882993996143341e-02
4.127564374357461929e-03
-8.165956474840641022e-03
2.429770771414041519e-03
3.292857855558395386e-02
-2.063285559415817261e-02
-8.983899839222431183e-03
2.320137433707714081e-02
-5.506341811269521713e-03
-1.085314340889453888e-02
1.142023317515850067e-02
-2.631725557148456573e-02
-2.044477313756942749e-02
4.324849229305982590e-03
-4.916863981634378433e-03
4.819912370294332504e-03
3.531132126227021217e-03
2.117287553846836090e-02
-9.602801874279975891e-03
-1.341459993273019791e-02
2.457818947732448578e-02
1.675483025610446930e-02
-7.926208898425102234e-03
1.166364084929227829e-02
8.089023642241954803e-03
1.492333784699440002e-02
9.538569487631320953e-03
-2.000547572970390320e-02
6.094799377024173737e-03
-9.782821871340274811e-03
-9.383114986121654510e-03
1.973754959180951118e-03
-1.358591858297586441e-02
-5.030178278684616089e-02
-3.740136977285146713e-03
6.956002674996852875e-03
1.528167352080345154e-02
-2.040147222578525543e-02
-3.342522680759429932e-02
9.653077460825443268e-03
1.717920042574405670e-02
3.578173369169235229e-02
-8.962491527199745178e-03
-3.142070490866899490e-03
-3.835821757093071938e-03
8.565686643123626709e-03
3.073319792747497559e-03
-1.018960261717438698e-03
-1.220549806021153927e-03
-2.008110750466585159e-03
4.591674543917179108e-03
2.102065831422805786e-02
6.927719223313033581e-04
-8.817942813038825989e-03
9.806272573769092560e-03
-8.045708527788519859e-04
1.823682524263858795e-02
2.008326910436153412e-02
5.642475094646215439e-03
6.211860477924346924e-02
4.005640000104904175e-02
1.627016253769397736e-02
1.186632364988327026e-02
3.980387933552265167e-03
1.661856309510767460e-03
-6.649781018495559692e-03
3.312257304787635803e-02
2.036678977310657501e-02
-1.382574066519737244e-02
-2.794417925179004669e-02
-1.027885638177394867e-02
4.759586974978446960e-02
-2.116169966757297516e-02
7.337545510381460190e-03
3.513190895318984985e-02
-1.030724961310625076e-02
2.166088204830884933e-03
2.564139291644096375e-02
6.955923978239297867e-03
3.441983833909034729e-02
-2.792435931041836739e-03
4.020848870277404785e-02
-1.812242716550827026e-02
-4.625999927520751953e-02
1.651367917656898499e-02
3.683024272322654724e-02
1.188659761101007462e-02
1.038910588249564171e-03
-1.205790881067514420e-02
1.261495240032672882e-02
-2.815290354192256927e-03
-1.116225961595773697e-02
-2.820336446166038513e-02
-1.397442538291215897e-03
2.400188148021697998e-02
-7.805486209690570831e-03
1.722622895613312721e-03
-7.901328615844249725e-03
-5.333222448825836182e-03
-7.966560311615467072e-03
2.334066852927207947e-02
-2.713191322982311249e-02
-9.580851532518863678e-03
-5.368132609874010086e-03
-2.066580392420291901e-02
-3.187811002135276794e-03
-8.688529022037982941e-03
2.303156442940235138e-02
7.383300457149744034e-03
-4.640908446162939072e-03
3.809669287875294685e-03
3.055728971958160400e-03
1.384555827826261520e-02
-8.551874198019504547e-03
-6.128356908448040485e-04
-2.151819207938387990e-04
-1.072891522198915482e-02
-1.292378269135951996e-02
-3.122613299638032913e-03
-1.993416808545589447e-02
4.001362621784210205e-02
-4.023641347885131836e-03
-3.620957024395465851e-03
5.982691049575805664e-02
1.100467331707477570e-02
1.796012627892196178e-03
-3.839850798249244690e-02
-4.745350778102874756e-02
2.959913946688175201e-02
-1.771840266883373260e-02
1.424708496779203415e-02
-2.536454983055591583e-02
8.416934870183467865e-03
2.942008152604103088e-02
-1.292114611715078354e-02
2.248775027692317963e-02
3.522351011633872986e-02
-1.430250797420740128e-02
3.341501578688621521e-02
9.553036652505397797e-03
-2.313587348908185959e-03
1.637226901948451996e-02
1.771388202905654907e-02
-8.284881711006164551e-03
2.880513109266757965e-02
-2.342570945620536804e-02
2.580579929053783417e-02
5.657119210809469223e-03
1.703278906643390656e-02
2.298595383763313293e-02
8.117972873151302338e-03
-1.139847282320261002e-02
1.753128878772258759e-02
6.468934006989002228e-03
-2.198876440525054932e-02
-1.071267668157815933e-02
3.486654534935951233e-02
-1.672559231519699097e-02
2.299705334007740021e-02
-1.024545263499021530e-02
8.634783327579498291e-03
-3.356510773301124573e-02
2.160813100636005402e-02
-1.559927361086010933e-03
1.905154995620250702e-02
2.975206449627876282e-02
1.760941557586193085e-02
2.076722681522369385e-02
-6.035522557795047760e-03
2.078039385378360748e-02
-3.390209004282951355e-02
3.350544720888137817e-02
2.210839465260505676e-02
1.288366969674825668e-02
-3.770423121750354767e-03
-1.837302371859550476e-02
-9.113880805671215057e-03
8.744564256630837917e-04
-5.145877599716186523e-03
4.991376772522926331e-02
-1.680577546358108521e-02
3.416972979903221130e-02
1.198538206517696381e-02
-1.165191549807786942e-02
6.360825616866350174e-03
2.923841029405593872e-02
5.538456141948699951e-03
1.774124242365360260e-02
-6.061256397515535355e-03
-2.377277938649058342e-03
-2.685763128101825714e-02
1.230007037520408630e-02
-1.323644258081912994e-02
-1.259022625163197517e-03
2.372510358691215515e-02
1.401945203542709351e-02
2.698834985494613647e-02
-7.033688947558403015e-03
8.096639998257160187e-03
1.987616065889596939e-03
-9.373660577693954110e-05
2.039939165115356445e-02
8.674183482071384788e-05
2.175241708755493164e-02
6.426386069506406784e-03
3.814035654067993164e-02
-2.935837954282760620e-02
4.852196574211120605e-02
1.073316670954227448e-02
1.095322985202074051e-02
-3.740795701742172241e-02
2.956791035830974579e-02
-1.397470594383776188e-03
-2.083708159625530243e-02
-5.542263854295015335e-03
3.865723684430122375e-02
-9.415965527296066284e-03
2.194948261603713036e-03
4.824151284992694855e-03
-1.399211492389440536e-02
1.553773134946823120e-02
9.545927867293357849e-03
1.237360853701829910e-02
5.072836764156818390e-03
1.417671982198953629e-02
-3.194761229678988457e-03
-4.139072261750698090e-03
-7.706409669481217861e-04
9.380587376654148102e-03
-3.427487611770629883e-02
1.985261030495166779e-02
-2.123765833675861359e-02
3.768231347203254700e-02
-6.274938117712736130e-03
-1.442895364016294479e-02
-5.750011652708053589e-03
-7.472289726138114929e-03
-1.345169451087713242e-02
-4.047090560197830200e-02
-8.720659650862216949e-03
-3.953830897808074951e-02
4.402840882539749146e-02
3.696720674633979797e-02
-1.785246096551418304e-02
-5.010039079934358597e-03
-2.287362515926361084e-02
1.082766521722078323e-02
4.655757918953895569e-02
-1.620730943977832794e-02
-1.862829178571701050e-02
-4.304081201553344727e-02
2.185122855007648468e-02
-5.876901559531688690e-03
-3.119122935459017754e-03
2.255090139806270599e-02
4.322411119937896729e-02
8.421066217124462128e-03
2.675561793148517609e-02
2.220157347619533539e-02
3.569661825895309448e-02
8.089589537121355534e-04
-4.255238547921180725e-02
-1.430392172187566757e-02
3.540922189131379128e-03
1.619360037147998810e-02
6.455955561250448227e-03
-2.344336174428462982e-02
-1.717573218047618866e-02
-1.827525347471237183e-02
-2.548813074827194214e-02
-3.103901259601116180e-02
-5.019238684326410294e-03
5.208195070736110210e-04
2.603295445442199707e-02
1.331461709924042225e-03
-6.147536914795637131e-03
-1.326294150203466415e-02
-7.388633210211992264e-03
4.293344449251890182e-03
-1.455559278838336468e-03
2.737790904939174652e-02
1.268338412046432495e-02
4.490138962864875793e-02
2.889491245150566101e-02
-5.996597465127706528e-04
-1.798857375979423523e-02
-3.143171221017837524e-02
-9.948655962944030762e-03
7.086647674441337585e-03
2.681780140846967697e-03
6.402723025530576706e-03
2.435510791838169098e-02
-3.432913124561309814e-02
-3.300421312451362610e-02
-1.944337412714958191e-02
-2.830714918673038483e-02
6.819117115810513496e-04
8.322245441377162933e-03
1.208386151120066643e-03
-5.657147150486707687e-03
-2.961185993626713753e-03
-6.629801820963621140e-03
8.346933871507644653e-03
-5.876368959434330463e-04
-9.191502816975116730e-03
-2.225360460579395294e-02
-1.128616835922002792e-02
2.847941778600215912e-02
1.578497141599655151e-02
-1.641526632010936737e-02
-1.612365432083606720e-02
-1.404214184731245041e-02
-1.817947812378406525e-02
-1.522046234458684921e-02
-9.015289135277271271e-03
3.347783163189888000e-02
3.935342654585838318e-02
3.397752763703465462e-03
4.486948251724243164e-02
-1.465763803571462631e-02
-1.451463159173727036e-02
-8.268271572887897491e-03
2.352128922939300537e-02
1.285774819552898407e-02
3.566733095794916153e-03
-2.134186588227748871e-02
-8.145054802298545837e-03
3.861533477902412415e-02
-1.103196106851100922e-02
-1.545567438006401062e-02
1.692354120314121246e-02
-3.833096940070390701e-03
-1.227705460041761398e-02
-1.914526335895061493e-02
2.761636674404144287e-02
-1.589031890034675598e-02
1.493994519114494324e-02
2.398067899048328400e-02
-2.304967027157545090e-03
3.434104844927787781e-03
4.413530230522155762e-03
4.721261095255613327e-03
-1.731717772781848907e-02
3.795003518462181091e-02
-1.349582243710756302e-02
1.896361005492508411e-03
-3.977189771831035614e-03
-2.343519032001495361e-02
2.874060347676277161e-02
-2.350515685975551605e-02
-1.762438751757144928e-02
2.843958698213100433e-02
-1.869752444326877594e-02
-3.651501983404159546e-02
-2.629480883479118347e-02
-9.496969170868396759e-03
-8.949660696089267731e-03
-2.486869134008884430e-02
-1.066844328306615353e-03
-1.751344278454780579e-02
1.714011467993259430e-02
3.158508101478219032e-03
-2.798487804830074310e-02
1.592037826776504517e-02
1.427467446774244308e-03
-1.123831141740083694e-02
1.051695202477276325e-03
3.770161187276244164e-03
-3.988347575068473816e-02
3.941965289413928986e-03
-2.312606573104858398e-02
-1.363172288984060287e-02
1.309366663917899132e-03
-6.984927691519260406e-03
-5.559052806347608566e-03
1.572243124246597290e-02
-1.797162741422653198e-02
-5.156644620001316071e-03
-1.495999097824096680e-02
5.498810112476348877e-02
-2.159803843824192882e-04
1.503256987780332565e-02
3.061611205339431763e-02
1.162895187735557556e-02
-9.676818735897541046e-03
3.258314356207847595e-02
-2.068980038166046143e-02
-6.850473582744598389e-03
7.662560325115919113e-03
-7.415194995701313019e-03
-1.059652399271726608e-02
-8.680380880832672119e-03
9.289857698604464531e-04
-6.865089293569326401e-03
-1.549747306853532791e-02
-2.754109539091587067e-02
-2.558812685310840607e-02
2.078700996935367584e-02
-2.457830309867858887e-02
5.501761334016919136e-04
-7.857424207031726837e-03
-1.233810093253850937e-02
-5.839217454195022583e-03
-3.097551409155130386e-03
-9.827971225604414940e-04
2.134241349995136261e-02
2.242544665932655334e-02
2.193204127252101898e-03
-2.712443936616182327e-03
-8.100432343780994415e-03
3.497310727834701538e-02
1.878157816827297211e-02
-2.810960821807384491e-02
3.715815022587776184e-03
-2.415128611028194427e-02
-2.713548950850963593e-02
2.504390897229313850e-03
-3.552612662315368652e-02
-1.831122115254402161e-02
-5.042463541030883789e-03
1.334291696548461914e-02
-3.288923203945159912e-02
-3.030671551823616028e-02
4.335537378210574389e-04
2.406873041763901711e-03
1.236563664861023426e-03
-8.781824144534766674e-04
-2.752236789092421532e-03
-2.096854895353317261e-02
7.645625155419111252e-03
-4.692211747169494629e-03
3.108995733782649040e-03
-6.167923565953969955e-03
1.867697574198246002e-02
-4.973609466105699539e-03
2.274752035737037659e-02
7.481229025870561600e-03
-1.192472036927938461e-02
-2.808342687785625458e-03
-2.326080389320850372e-02
-4.617618396878242493e-03
-2.756077796220779419e-02
-2.988082356750965118e-02
4.583983495831489563e-02
-2.431706991046667099e-03
2.398526296019554138e-02
2.517941035330295563e-02
-2.690329402685165405e-02
-4.365698993206024170e-02
-2.228742837905883789e-02
1.015000045299530029e-02
7.006324362009763718e-03
-2.333116345107555389e-02
-1.060313638299703598e-02
-1.553926616907119751e-02
3.827174007892608643e-02
-4.003279376775026321e-03
-7.426331285387277603e-03
4.552220925688743591e-03
-1.839954778552055359e-02
-1.640315540134906769e-02
-1.649649813771247864e-02
3.528080414980649948e-03
-4.712709633167833090e-04
-1.613154192455112934e-03
3.233985975384712219e-03
-1.018842030316591263e-02
-2.996047958731651306e-02
1.874358276836574078e-03
3.583585470914840698e-02
-4.175050649791955948e-03
-2.968978835269808769e-03
-1.410297676920890808e-02
-3.300765156745910645e-02
7.860065437853336334e-03
-1.358238328248262405e-02
-4.673715308308601379e-02
-2.699848078191280365e-02
1.180487126111984253e-02
-3.800630941987037659e-02
5.946933757513761520e-03
-3.916692361235618591e-02
8.231047540903091431e-03
4.425762221217155457e-03
9.434306994080543518e-03
-2.421870641410350800e-02
-4.621927160769701004e-03
4.896161612123250961e-03
-4.238984361290931702e-02
-5.218191444873809814e-02
-3.602152457460761070e-03
3.332256525754928589e-02
-1.506126369349658489e-03
-1.979867368936538696e-02
1.791189797222614288e-02
-8.833427913486957550e-03
1.845517382025718689e-02
-4.469133540987968445e-02
-3.252134844660758972e-02
-3.153254278004169464e-03
7.733958307653665543e-03
-9.538832819089293480e-04
-1.702952868072316051e-04
-4.696484282612800598e-02
2.319377288222312927e-02
-6.807771511375904083e-03
-4.185926169157028198e-03
6.164805591106414795e-02
3.248040005564689636e-02
1.445437595248222351e-02
-4.174222797155380249e-02
-9.523759037256240845e-02
8.066820912063121796e-03
-3.794742375612258911e-02
-3.228816203773021698e-03
-2.833125554025173187e-02
-7.526475237682461739e-04
6.889604497700929642e-03
-7.572188042104244232e-03
3.524220362305641174e-02
5.583466216921806335e-02
-1.887860894203186035e-02
1.948080211877822876e-02
-1.873508561402559280e-03
-1.914575137197971344e-02
4.217828810214996338e-02
3.708334639668464661e-02
1.377613898512208834e-05
2.410918660461902618e-02
-5.217818543314933777e-02
1.225785631686449051e-02
1.792046613991260529e-02
1.475727465003728867e-02
4.612373188138008118e-02
1.009647618047893047e-03
-8.202185854315757751e-03
1.935067586600780487e-02
-4.642089188564568758e-04
-8.306685835123062134e-02
-3.082545287907123566e-02
3.973061591386795044e-02
-3.384676575660705566e-02
3.458315506577491760e-02
2.103347890079021454e-02
4.005868360400199890e-02
-3.931589424610137939e-02
3.556711599230766296e-02
-3.129022568464279175e-02
2.296340093016624451e-02
2.411366440355777740e-02
3.992610052227973938e-02
1.760367490351200104e-02
-1.830649562180042267e-02
5.403090640902519226e-02
-2.800070866942405701e-02
3.994484245777130127e-02
9.251605952158570290e-04
7.013007532805204391e-03
-2.702306769788265228e-02
-3.343399986624717712e-02
-1.258611213415861130e-03
-1.991861872375011444e-02
6.270521320402622223e-03
7.201920449733734131e-02
-2.825616858899593353e-03
2.387026324868202209e-02
1.228239573538303375e-02
-2.729466184973716736e-02
-1.687530055642127991e-02
2.264262922108173370e-02
1.010982133448123932e-02
5.759580060839653015e-02
-4.663140326738357544e-02
-4.094595555216073990e-03
-5.253442749381065369e-02
1.916552707552909851e-02
-1.715929992496967316e-02
7.118080276995897293e-03
3.012766130268573761e-03
1.956627704203128815e-02
4.178837686777114868e-02
-3.359059989452362061e-02
-1.340166386216878891e-02
1.094803400337696075e-02
1.267358101904392242e-02
1.737762801349163055e-02
-8.312839083373546600e-03
1.960434205830097198e-02
6.833351682871580124e-03
4.972252622246742249e-02
-6.917896121740341187e-02
5.584653094410896301e-02
1.685279072262346745e-03
7.932139560580253601e-04
-4.552669450640678406e-02
1.643214374780654907e-02
3.707130381371825933e-04
-3.299060091376304626e-02
-1.200798153877258301e-02
1.702849939465522766e-02
-2.079979330301284790e-02
-6.213138811290264130e-03
4.948921035975217819e-03
-2.070122584700584412e-02
-1.382115576416254044e-02
1.810671389102935791e-02
2.183103933930397034e-03
1.006396301090717316e-02
2.334363758563995361e-02
-2.070831321179866791e-02
-1.756270043551921844e-02
-2.591408230364322662e-02
8.259098976850509644e-03
-3.918778896331787109e-02
2.604708634316921234e-02
1.130542624741792679e-02
2.107426710426807404e-02
-7.487643742933869362e-04
4.124891944229602814e-03
-3.129164688289165497e-03
1.286515616811811924e-03
-1.942712254822254181e-02
-4.345013201236724854e-02
1.207247283309698105e-02
-1.443832460790872574e-02
3.379666432738304138e-02
1.705754734575748444e-02
-5.116555839776992798e-03
7.146566640585660934e-03
-9.280200116336345673e-03
2.174687385559082031e-02
3.685376048088073730e-02
1.162403356283903122e-02
-2.910639625042676926e-03
-4.316389933228492737e-02
3.736032173037528992e-02
-1.543828286230564117e-02
1.306286454200744629e-02
-1.531516946852207184e-02
4.094970971345901489e-02
8.409677073359489441e-03
3.502855077385902405e-02
1.995329558849334717e-02
2.103237202391028404e-04
-2.301160991191864014e-02
-2.747347205877304077e-02
-2.767486870288848877e-02
1.523113157600164413e-02
-9.593673981726169586e-03
5.293380003422498703e-03
-4.351714160293340683e-03
-1.140563003718852997e-02
-1.820196583867073059e-02
-9.578821249306201935e-03
-1.041890028864145279e-02
2.207219135016202927e-03
6.016544997692108154e-03
2.434223331511020660e-02
7.236089440993964672e-04
-1.795142702758312225e-02
1.227880711667239666e-03
-5.592909641563892365e-03
7.844900712370872498e-03
-3.025806043297052383e-03
1.756706088781356812e-02
9.920224547386169434e-03
3.689567372202873230e-02
1.467392966151237488e-02
-1.005984283983707428e-02
-1.959170028567314148e-02
-4.497631639242172241e-02
-1.130275614559650421e-02
-7.093328516930341721e-03
-1.430297270417213440e-02
1.054279599338769913e-02
1.566307805478572845e-02
-1.064353343099355698e-02
-2.405341714620590210e-02
-8.381701074540615082e-03
-2.192442491650581360e-02
1.042866241186857224e-02
-9.230581112205982208e-03
1.211912278085947037e-02
-1.146892644464969635e-02
1.939077512361109257e-03
1.644677482545375824e-02
7.571208756417036057e-03
-2.580361906439065933e-03
-3.674875199794769287e-02
-3.854801505804061890e-02
-2.630681265145540237e-03
8.197104558348655701e-03
2.110397256910800934e-02
-4.147383198142051697e-02
-3.990004304796457291e-03
-1.377539988607168198e-02
5.553938914090394974e-03
1.939817145466804504e-02
-1.298632845282554626e-02
3.677415475249290466e-02
3.564636781811714172e-02
1.055595185607671738e-02
1.980621740221977234e-02
-1.524944044649600983e-02
-2.577022463083267212e-02
-4.292792081832885742e-02
2.283025160431861877e-02
3.215243108570575714e-03
9.016342461109161377e-03
4.804471507668495178e-03
-2.115064114332199097e-02
3.568920865654945374e-02
-9.927948005497455597e-03
-1.381633989512920380e-02
-6.060737650841474533e-03
-2.202051691710948944e-03
1.697448780760169029e-03
2.510253572836518288e-03
2.737319096922874451e-02
-3.003778122365474701e-02
1.071826671250164509e-03
1.260867714881896973e-02
-1.350142620503902435e-02
-8.808718994259834290e-03
-9.338848292827606201e-03
-1.663764193654060364e-02
1.054690312594175339e-02
1.355523057281970978e-02
-2.551998384296894073e-02
-2.191481180489063263e-02
-2.472832426428794861e-02
-5.859877448529005051e-03
2.195060439407825470e-02
1.184583455324172974e-02
2.226707898080348969e-02
4.709462448954582214e-02
-1.825590804219245911e-02
-3.997669741511344910e-02
-1.768664270639419556e-02
-1.461071521043777466e-02
2.070390246808528900e-02
-3.246602043509483337e-02
2.275879727676510811e-03
-1.961116120219230652e-02
3.343549370765686035e-02
-2.240763418376445770e-02
2.076390013098716736e-02
3.646345809102058411e-02
-2.762718824669718742e-03
-2.120852097868919373e-02
-2.939606830477714539e-02
9.052062407135963440e-03
9.882652200758457184e-03
1.193040143698453903e-02
-1.363094523549079895e-02
-4.135767929255962372e-03
3.228360787034034729e-02
8.424011990427970886e-03
3.443322703242301941e-02
4.492892697453498840e-02
1.453600008971989155e-03
-9.228964336216449738e-03
-2.574344351887702942e-02
3.049548529088497162e-02
1.143733412027359009e-02
2.234847657382488251e-02
9.668405167758464813e-03
-8.362112566828727722e-03
-3.937610983848571777e-02
2.406432852149009705e-02
-8.354872465133666992e-03
1.735916361212730408e-03
2.880201302468776703e-02
3.421112895011901855e-03
-8.707967586815357208e-03
-3.696226282045245171e-03
-8.504373952746391296e-03
-2.643204294145107269e-03
-7.337667047977447510e-03
4.762034863233566284e-03
-2.217461727559566498e-02
1.025242172181606293e-02
-3.234412893652915955e-02
6.332775577902793884e-03
-1.701921597123146057e-02
2.762359334155917168e-03
-2.812570706009864807e-02
-2.370102098211646080e-03
3.886854648590087891e-02
1.846176385879516602e-02
-5.611242726445198059e-03
1.323334593325853348e-02
3.418315947055816650e-02
8.527667261660099030e-03
-7.035195012576878071e-04
8.536125533282756805e-03
8.551643230020999908e-03
-9.577621705830097198e-03
-3.013976104557514191e-02
-2.968116104602813721e-02
-2.019409090280532837e-03
-3.976712748408317566e-02
2.049815095961093903e-02
-1.916980370879173279e-02
4.634760692715644836e-02
-1.164294965565204620e-02
-1.891623996198177338e-02
9.381061419844627380e-03
-5.370900500565767288e-03
-4.055880010128021240e-03
-2.125786617398262024e-02
1.345081347972154617e-02
3.321373369544744492e-03
2.769706770777702332e-02
2.074733935296535492e-02
-1.372183905914425850e-03
1.202175021171569824e-02
-2.239358797669410706e-02
-2.523784060031175613e-03
3.332264721393585205e-02
2.022187411785125732e-02
-2.277515083551406860e-02
7.655310444533824921e-03
-8.843539282679557800e-03
-1.112743094563484192e-02
-1.808874867856502533e-02
-3.918737918138504028e-02
7.403087615966796875e-02
3.644801303744316101e-02
2.338515827432274818e-03
3.075215220451354980e-02
-3.331843297928571701e-03
-3.882948681712150574e-02
-2.248853072524070740e-02
3.287317603826522827e-02
1.210539229214191437e-02
-3.325447440147399902e-03
-3.344949334859848022e-02
-6.777407601475715637e-03
5.312491580843925476e-02
-8.273706771433353424e-03
-2.284586802124977112e-02
3.863274306058883667e-02
-1.089965645223855972e-02
2.472235076129436493e-02
5.006865411996841431e-02
1.355276093818247318e-03
-2.252793125808238983e-02
-1.748302578926086426e-02
3.789984807372093201e-02
-2.786572836339473724e-02
-2.749852091073989868e-02
1.863426878117024899e-03
1.772998459637165070e-02
3.568683983758091927e-03
3.464867826551198959e-03
-5.904396995902061462e-03
-4.442259296774864197e-02
-1.275647431612014771e-02
-3.157772868871688843e-02
-4.671478271484375000e-02
-2.008031681180000305e-02
1.467215456068515778e-02
-3.066009655594825745e-02
3.721967339515686035e-02
-2.747662924230098724e-02
7.342411205172538757e-03
5.785900633782148361e-03
1.107502914965152740e-02
-2.195214852690696716e-03
-2.220208384096622467e-02
1.677194959484040737e-03
-2.180394344031810760e-02
-5.116156861186027527e-02
-2.366427564993500710e-03
2.874789014458656311e-02
-7.761423010379076004e-03
-3.703933954238891602e-02
1.426936686038970947e-02
-6.123994011431932449e-03
2.385587990283966064e-02
-5.754616111516952515e-02
-7.353487424552440643e-03
-1.689060241915285587e-03
7.142471615225076675e-03
-5.401934962719678879e-03
1.474563777446746826e-02
-3.910939022898674011e-02
2.247425168752670288e-02
1.631380109756719321e-05
-1.091825775802135468e-02
3.546374291181564331e-02
4.217768833041191101e-02
2.936800010502338409e-02
-1.865215785801410675e-02
-8.666212111711502075e-02
-1.476300507783889771e-02
-4.896206408739089966e-02
-2.327728271484375000e-02
-7.540354505181312561e-03
2.501553669571876526e-02
7.317317184060811996e-03
1.817510277032852173e-02
3.515835851430892944e-02
5.875607207417488098e-02
-1.374877244234085083e-02
2.614143118262290955e-02
1.139739062637090683e-02
-1.949600130319595337e-02
4.379749670624732971e-02
2.924378030002117157e-02
-5.432436009868979454e-04
1.269346475601196289e-02
-3.615567460656166077e-02
7.072910200804471970e-03
3.015293553471565247e-02
2.522415667772293091e-02
5.101217329502105713e-02
-6.363230757415294647e-03
2.801131084561347961e-02
1.799798943102359772e-02
1.519048493355512619e-02
-5.329339951276779175e-02
-3.337668627500534058e-02
5.314946919679641724e-02
-2.430669032037258148e-03
5.639234185218811035e-02
4.220073670148849487e-02
2.712618559598922729e-02
-3.091876767575740814e-02
2.531416900455951691e-02
-3.456134721636772156e-02
9.591821581125259399e-03
5.565915256738662720e-03
1.471725106239318848e-02
3.047299385070800781e-02
-2.884469926357269287e-02
4.365773126482963562e-02
-3.910211846232414246e-02
2.586128190159797668e-02
7.648899918422102928e-05
-2.070454414933919907e-03
-3.338671848177909851e-02
-3.182642534375190735e-02
-6.264630239456892014e-03
-1.118746027350425720e-02
1.673395279794931412e-03
3.439453244209289551e-02
4.343360662460327148e-02
2.488550730049610138e-02
-7.941204123198986053e-03
-7.761739194393157959e-03
-1.348048634827136993e-02
1.515517476946115494e-02
2.843962237238883972e-02
5.498336255550384521e-02
-1.710878126323223114e-02
8.563769370084628463e-06
-2.913768403232097626e-02
4.279590025544166565e-02
-2.514386549592018127e-02
2.169956080615520477e-02
1.517748739570379257e-02
2.763783000409603119e-02
5.115886777639389038e-02
-2.956600487232208252e-02
5.202819127589464188e-03
2.418308146297931671e-02
-3.647653153166174889e-03
1.572984270751476288e-02
1.969130337238311768e-02
2.221989445388317108e-02
8.806226542219519615e-04
1.566154882311820984e-02
-4.776468500494956970e-02
4.613960534334182739e-02
3.194207092747092247e-03
-1.804337720386683941e-03
-4.315956309437751770e-02
1.132295466959476471e-02
1.320005115121603012e-02
-8.232857100665569305e-03
-6.701283622533082962e-03
1.600334979593753815e-02
1.565887220203876495e-02
-4.009232216048985720e-04
-6.300775799900293350e-03
7.530446629971265793e-03
-7.071289699524641037e-03
4.149200860410928726e-03
1.442567352205514908e-02
-1.212224015034735203e-03
-1.268734596669673920e-02
3.206970915198326111e-02
-3.710696473717689514e-02
-4.175629466772079468e-02
-5.381473456509411335e-04
6.368991453200578690e-03
-6.801543640904128551e-04
4.339060932397842407e-02
-1.586310379207134247e-02
-1.633385755121707916e-02
1.655225455760955811e-02
-2.516597043722867966e-03
-4.398506134748458862e-03
1.578223519027233124e-02
-1.976685365661978722e-03
-2.394922822713851929e-02
-1.950566470623016357e-02
1.003312598913908005e-02
2.502538263797760010e-02
3.143179696053266525e-03
1.526472187833860517e-04
2.584156172815710306e-04
2.447457611560821533e-02
8.144671097397804260e-03
8.587792515754699707e-02
2.896743640303611755e-02
-9.281809441745281219e-03
3.551674773916602135e-03
4.396717064082622528e-03
1.740225777029991150e-02
-9.529540315270423889e-03
-2.527134306728839874e-02
-1.526793232187628746e-03
5.083249881863594055e-02
3.673244267702102661e-02
1.692963647656142712e-03
4.963191691786050797e-03
1.624582149088382721e-02
1.810853253118693829e-03
1.125799678266048431e-02
5.421988666057586670e-03
5.038027651607990265e-03
1.990454830229282379e-02
-3.994454815983772278e-02
1.111350208520889282e-02
2.460788749158382416e-02
4.169713333249092102e-02
2.069627307355403900e-02
7.131984457373619080e-04
2.409732155501842499e-02
7.620684802532196045e-03
-3.969892859458923340e-03
-1.743127591907978058e-02
1.619612798094749451e-02
1.613286882638931274e-02
-1.511014066636562347e-02
1.653861626982688904e-02
-1.190649229101836681e-03
1.263825781643390656e-02
3.152436017990112305e-02
-2.922823838889598846e-02
-1.611271686851978302e-02
-7.098696380853652954e-02
-1.563053764402866364e-02
1.112657412886619568e-02
5.393770989030599594e-03
-3.085089381784200668e-03
3.287728503346443176e-02
-3.435727208852767944e-03
1.818131655454635620e-02
2.477677166461944580e-02
-2.302728034555912018e-02
2.229206264019012451e-03
-1.100150216370820999e-02
-3.042285889387130737e-02
-4.443495534360408783e-03
-6.382200866937637329e-03
2.317627519369125366e-02
-1.057315617799758911e-02
9.435547515749931335e-03
-9.642780758440494537e-03
-1.332739461213350296e-02
-2.316335216164588928e-02
9.251685813069343567e-03
1.870445534586906433e-02
-1.180342212319374084e-02
-6.075137760490179062e-03
-3.958547022193670273e-03
-9.927502833306789398e-03
4.987251013517379761e-02
-1.657437533140182495e-02
-1.720792427659034729e-02
1.305459067225456238e-02
-1.308269426226615906e-02
-5.849640816450119019e-02
1.104960497468709946e-02
-6.624566391110420227e-03
1.460139872506260872e-03
-2.677394077181816101e-02
1.560816820710897446e-02
2.787068486213684082e-02
5.985911935567855835e-03
-2.160758012905716896e-03
1.873642392456531525e-02
1.852475665509700775e-02
6.236339453607797623e-03
3.565204795449972153e-03
3.402701986487954855e-04
9.865510277450084686e-03
-1.192068681120872498e-03
-3.348127007484436035e-02
1.533987931907176971e-02
-2.331289462745189667e-02
-1.955214655026793480e-03
-7.978888228535652161e-03
8.471975103020668030e-03
2.343107387423515320e-02
1.035447232425212860e-02
-2.087497897446155548e-02
1.156593672931194305e-02
1.987859234213829041e-02
-2.064205519855022430e-02
1.348227378912270069e-03
7.085272576659917831e-03
-2.447608485817909241e-02
-4.416293464601039886e-03
9.564980864524841309e-04
9.405602701008319855e-03
-9.441441856324672699e-03
4.593224730342626572e-03
-3.385507268831133842e-03
-1.397651713341474533e-02
-2.186121046543121338e-02
8.481667377054691315e-03
-2.722695237025618553e-03
2.379214577376842499e-02
-7.846197113394737244e-03
-6.218815222382545471e-03
1.308903750032186508e-02
2.886770991608500481e-03
-6.865739356726408005e-03
1.188110373914241791e-02
4.210884496569633484e-02
-4.737148433923721313e-02
-3.295581042766571045e-02
8.856134489178657532e-03
3.591406391933560371e-03
1.490814890712499619e-02
-9.570481255650520325e-03
-3.295360505580902100e-02
1.531418785452842712e-02
-9.216471808031201363e-04
2.385265566408634186e-02
-1.058147847652435303e-02
7.538158912211656570e-03
-4.228955507278442383e-02
-1.188272144645452499e-02
1.054858509451150894e-02
-6.979026366025209427e-03
-1.960758678615093231e-02
-1.551003754138946533e-02
1.507840491831302643e-02
1.706412248313426971e-02
-1.873615011572837830e-02
1.312851533293724060e-02
5.113834980875253677e-03
1.760784722864627838e-02
9.277443401515483856e-03
-8.924132212996482849e-03
-3.251937916502356529e-03
1.175348553806543350e-02
-1.102507021278142929e-02
1.764309778809547424e-02
-2.100100181996822357e-02
-2.752323448657989502e-02
1.612637937068939209e-02
7.310879416763782501e-03
2.886113338172435760e-02
-1.573885977268218994e-02
-5.593996029347181320e-03
-9.785712696611881256e-03
-5.486334674060344696e-03
-4.946417175233364105e-03
-9.257520548999309540e-03
-4.984860774129629135e-03
4.500170052051544189e-02
1.392458751797676086e-02
-2.340967766940593719e-02
5.378396064043045044e-02
2.789699845016002655e-02
1.165506523102521896e-02
-2.422461472451686859e-02
2.544829435646533966e-02
5.425113718956708908e-03
1.069629751145839691e-02
1.820009574294090271e-02
-1.471877470612525940e-02
3.267608582973480225e-02
2.702494710683822632e-02
-5.919634178280830383e-02
-6.020826287567615509e-03
-2.327436581254005432e-02
-3.077818453311920166e-02
-9.882800281047821045e-03
2.303322218358516693e-02
1.800858229398727417e-02
-9.047229774296283722e-03
6.365978624671697617e-03
-6.672213319689035416e-03
-3.090166486799716949e-02
1.630729995667934418e-02
-1.540295593440532684e-02
1.289823278784751892e-02
7.432873360812664032e-03
-1.480478513985872269e-02
5.081309005618095398e-03
1.609869214007630944e-04
5.699817091226577759e-02
-2.157021872699260712e-02
-2.564549446105957031e-02
7.792820688337087631e-03
-8.474809117615222931e-03
1.772121712565422058e-02
1.351230777800083160e-02
1.933764852583408356e-02
-2.677691727876663208e-02
-2.159392833709716797e-02
1.066754572093486786e-03
5.687665194272994995e-03
-1.098517607897520065e-02
-3.700009733438491821e-02
1.348745729774236679e-02
2.070682495832443237e-02
-6.261235103011131287e-03
4.630789160728454590e-03
2.407388389110565186e-02
2.979025710374116898e-03
-4.546851385384798050e-03
-7.350090891122817993e-03
-1.822529360651969910e-02
-2.553849108517169952e-02
-1.184588018804788589e-02
-2.626240253448486328e-03
2.068243687972426414e-03
1.935287844389677048e-03
-1.773310266435146332e-02
-2.373510226607322693e-02
1.211185357533395290e-03
5.705366842448711395e-03
-3.026069328188896179e-02
6.156175862997770309e-03
1.421575620770454407e-02
-2.853399841114878654e-03
-2.841620706021785736e-03
-6.866818293929100037e-03
1.653803698718547821e-02
6.335187237709760666e-03
-1.817662641406059265e-02
2.434672042727470398e-02
6.526395678520202637e-02
-3.374257311224937439e-02
-6.775972433388233185e-03
3.010719455778598785e-02
-3.022524714469909668e-02
1.967563852667808533e-02
-1.457853801548480988e-02
3.966356161981821060e-03
-1.503142528235912323e-02
-1.357965404167771339e-03
6.183023215271532536e-04
-1.646495983004570007e-02
6.560218753293156624e-04
-3.350237384438514709e-02
-3.297051880508661270e-03
-1.666454039514064789e-02
1.140680350363254547e-02
1.139035262167453766e-02
-2.354700304567813873e-02
1.117385178804397583e-02
6.744985934346914291e-03
-6.675142049789428711e-02
-3.351420536637306213e-02
-9.802118875086307526e-04
-1.147616002708673477e-02
-1.587323285639286041e-02
1.141655817627906799e-02
1.421189587563276291e-02
2.908593043684959412e-03
-7.563310675323009491e-03
-3.013738244771957397e-02
-2.654769644141197205e-02
1.142340619117021561e-02
2.055745013058185577e-02
-1.104997284710407257e-02
2.842616848647594452e-02
3.171227639541029930e-03
1.197007950395345688e-02
-4.497191403061151505e-03
1.164859998971223831e-02
-1.694208383560180664e-02
-1.995082758367061615e-02
-2.087626606225967407e-02
-4.895120859146118164e-02
-4.325247835367918015e-03
-3.362602367997169495e-02
8.515065535902976990e-03
-3.713382873684167862e-03
5.527550820261240005e-03
8.284543640911579132e-03
3.562004538252949715e-03
-2.101066336035728455e-02
-5.178371444344520569e-03
-1.128450967371463776e-02
1.482087466865777969e-02
-9.684002026915550232e-03
-1.276059076189994812e-02
3.836501017212867737e-02
2.771472558379173279e-02
9.594816714525222778e-02
6.657709833234548569e-03
1.229841355234384537e-02
9.430719539523124695e-03
7.111845538020133972e-03
5.424502771347761154e-03
-6.273689679801464081e-03
-8.961230516433715820e-03
6.172982975840568542e-03
-2.170882932841777802e-02
1.692074909806251526e-02
6.082151085138320923e-03
-7.717493455857038498e-03
-5.790471099317073822e-03
-1.068151928484439850e-02
1.275058370083570480e-02
6.476572598330676556e-04
4.606686532497406006e-03
2.057974226772785187e-02
-1.317617390304803848e-02
2.016351791098713875e-03
-6.203867495059967041e-03
1.481671701185405254e-03
-1.521976944059133530e-02
1.295483484864234924e-02
-4.306148737668991089e-03
2.081454731523990631e-02
-4.972264170646667480e-02
-1.249640481546521187e-03
-1.074494887143373489e-02
-1.415156642906367779e-03
1.756408438086509705e-02
6.272345781326293945e-02
-9.020416066050529480e-03
5.074449349194765091e-03
6.163231562823057175e-03
2.222109586000442505e-02
-1.719311065971851349e-02
1.308702025562524796e-02
1.731505733914673328e-03
1.066159456968307495e-02
2.315618284046649933e-02
-9.409755468368530273e-03
-1.121469866484403610e-02
1.555835269391536713e-02
5.956916138529777527e-03
8.407230488955974579e-03
4.028828814625740051e-03
2.891895174980163574e-02
-2.483526803553104401e-02
-1.962610706686973572e-02
-2.014068653807044029e-03
7.297816686332225800e-03
2.298208512365818024e-02
-1.012336835265159607e-02
3.083713119849562645e-03
-9.968331083655357361e-03
1.683202385902404785e-02
2.707098610699176788e-02
7.687173201702535152e-04
-3.664830466732382774e-03
-1.592383719980716705e-03
-7.435524836182594299e-03
-2.410046942532062531e-02
1.065270416438579559e-02
-8.864616043865680695e-03
-1.516295596957206726e-02
2.122539281845092773e-02
-6.799183040857315063e-02
-7.320195436477661133e-02
-4.643371794372797012e-03
-1.762863434851169586e-02
-1.247355993837118149e-02
5.627250298857688904e-02
-3.828475996851921082e-02
-7.007688283920288086e-03
1.964701153337955475e-02
-7.246932480484247208e-03
1.510190032422542572e-02
1.831414736807346344e-02
1.548054721206426620e-02
-4.229117929935455322e-02
-3.122109686955809593e-03
1.671025715768337250e-02
1.851889118552207947e-02
-3.421947127208113670e-03
-1.911229081451892853e-02
-3.471598029136657715e-02
2.953673340380191803e-02
-6.537924520671367645e-03
9.074683487415313721e-02
4.263205453753471375e-03
-7.656019646674394608e-03
-1.829473674297332764e-02
8.019164204597473145e-03
4.097963869571685791e-02
-4.293708130717277527e-03
-4.079818353056907654e-02
-4.411049652844667435e-03
6.655119359493255615e-02
5.432924628257751465e-02
-6.288317963480949402e-03
-6.482084747403860092e-03
1.456604711711406708e-02
1.162948086857795715e-02
-1.322482619434595108e-02
-2.164509380236268044e-03
4.334939585532993078e-04
1.542643178254365921e-02
-2.775026112794876099e-02
3.215340897440910339e-02
6.684756372123956680e-03
1.549605187028646469e-02
2.308066375553607941e-02
1.191628724336624146e-02
9.289020672440528870e-03
-2.617957070469856262e-04
-7.840349338948726654e-03
-2.740928903222084045e-02
-1.608555391430854797e-02
2.453788369894027710e-02
-4.563956987112760544e-03
2.520243404433131218e-03
-1.036754716187715530e-02
1.976794004440307617e-02
2.260019071400165558e-02
3.589260391891002655e-03
1.066632755100727081e-02
-1.356602609157562256e-01
-3.265824168920516968e-02
1.554113440215587616e-02
2.864218084141612053e-03
