-6.824059039354324341e-02
-8.513387292623519897e-02
-3.914193063974380493e-02
-3.506482020020484924e-02
-8.964718878269195557e-02
1.120488643646240234e-01
-1.100382804870605469e-01
-7.995039224624633789e-02
-2.344228774309158325e-01
-9.838460385799407959e-02
-3.083274513483047485e-02
-3.539301156997680664e-01
-3.349969908595085144e-02
-4.366966336965560913e-02
-5.206622555851936340e-02
-7.318994496017694473e-03
-1.572151109576225281e-02
-5.166052654385566711e-02
-7.110507041215896606e-02
-6.705246120691299438e-02
-6.586077809333801270e-02
-8.824821561574935913e-02
-9.128291904926300049e-02
-7.223697006702423096e-02
-7.839830219745635986e-02
9.248095564544200897e-03
-6.708703190088272095e-02
-1.510523259639739990e-02
-3.270555138587951660e-01
-6.657215207815170288e-02
8.874674141407012939e-02
-8.236636966466903687e-02
-8.527815341949462891e-02
-9.691309183835983276e-02
-8.778659254312515259e-02
8.351406455039978027e-02
-1.453511789441108704e-02
-4.681072756648063660e-02
-6.969983130693435669e-02
-1.084567606449127197e-01
-4.476990550756454468e-02
-6.671020388603210449e-02
-8.885248005390167236e-02
-8.635526150465011597e-02
-9.763229638338088989e-02
-1.195823997259140015e-01
-9.930489212274551392e-02
-1.718134880065917969e-01
-1.017616465687751770e-01
3.403323143720626831e-02
4.498521611094474792e-02
-9.123303741216659546e-02
-5.459840223193168640e-02
-3.428856283426284790e-02
-9.626239538192749023e-02
-3.842974603176116943e-01
-1.074218526482582092e-01
-1.240621432662010193e-01
3.275301423855125904e-04
-1.124532986432313919e-02
-9.814767539501190186e-02
6.416659057140350342e-02
1.017144042998552322e-02
-2.687867172062397003e-02
-1.398182660341262817e-01
-9.410531073808670044e-02
1.073441933840513229e-02
-1.160722784698009491e-02
2.332925423979759216e-02
-5.215474218130111694e-02
1.253784354776144028e-02
-9.860212355852127075e-02
-8.232358843088150024e-02
-2.313287928700447083e-02
-1.279514133930206299e-01
-3.968692198395729065e-02
-6.302119698375463486e-03
7.870904356241226196e-02
-2.604449912905693054e-02
6.222083047032356262e-02
-4.078544303774833679e-02
-3.905085846781730652e-02
-8.170696347951889038e-02
1.688743010163307190e-02
-1.823945641517639160e-01
-1.397532504051923752e-02
7.177972793579101562e-02
-1.179792433977127075e-01
-9.293382614850997925e-02
5.624797195196151733e-02
-6.650616228580474854e-02
-1.821595430374145508e-01
-1.039069443941116333e-01
4.121219366788864136e-02
4.741635546088218689e-02
-9.590800106525421143e-02
-1.025183349847793579e-01
-1.062865853309631348e-01
-6.064090132713317871e-02
-8.699001744389533997e-03
-7.683981209993362427e-02
-6.498503684997558594e-02
-9.054697304964065552e-02
-8.617724478244781494e-02
-1.084907501935958862e-01
-1.113139763474464417e-01
-9.623621404170989990e-02
-3.257817402482032776e-02
-1.588990092277526855e-01
-4.896052554249763489e-02
8.619958534836769104e-03
-7.400389015674591064e-02
-1.154971495270729065e-01
-9.478972852230072021e-02
2.798121608793735504e-02
-6.448861211538314819e-02
1.358308643102645874e-01
1.967242956161499023e-01
2.919409051537513733e-02
-3.701156750321388245e-02
-4.519480094313621521e-02
-4.633615911006927490e-02
-1.758215017616748810e-02
-8.049195259809494019e-02
2.574404515326023102e-02
-2.904553711414337158e-01
-8.052665740251541138e-02
-1.201964989304542542e-01
9.801036864519119263e-02
-1.286509335041046143e-01
-1.120406016707420349e-01
-7.232053577899932861e-02
-1.050591543316841125e-01
-1.411735415458679199e-01
-5.186396837234497070e-02
-5.828219279646873474e-02
-3.147163242101669312e-02
-2.445727288722991943e-01
-3.786468878388404846e-02
-4.528291523456573486e-02
3.960682079195976257e-03
1.513706743717193604e-01
-4.980915039777755737e-02
-6.378389149904251099e-02
3.829799359664320946e-03
5.376650393009185791e-02
-9.152808785438537598e-02
-7.600334286689758301e-02
3.024129755795001984e-02
-8.890942484140396118e-02
-2.628023363649845123e-02
-8.747553080320358276e-02
1.578576490283012390e-02
-5.894196406006813049e-02
-3.574855625629425049e-02
-5.687401071190834045e-02
6.340175122022628784e-02
1.047726254910230637e-02
-7.033564615994691849e-03
6.267094612121582031e-02
-7.578998804092407227e-02
8.632069826126098633e-02
-2.153466045856475830e-01
-8.095686882734298706e-02
-7.375745475292205811e-02
-1.313278824090957642e-01
-5.703615769743919373e-02
-1.886279433965682983e-01
6.184165552258491516e-02
-8.123874664306640625e-02
-4.711557179689407349e-02
-3.381598740816116333e-02
-3.877410665154457092e-02
-1.501580234616994858e-02
-7.095152139663696289e-02
-1.072498932480812073e-01
-1.244233995676040649e-01
5.840843543410301208e-02
-3.440438956022262573e-02
-2.785536646842956543e-02
-6.445194035768508911e-02
-9.127449244260787964e-03
-4.964792355895042419e-02
-8.571801334619522095e-02
-1.132252961397171021e-01
-1.535040289163589478e-01
-8.622912690043449402e-03
-8.659294992685317993e-02
-1.754361018538475037e-02
1.136053446680307388e-02
1.743648201227188110e-01
-2.577693387866020203e-02
-1.124840676784515381e-01
-2.453764155507087708e-02
-3.305390477180480957e-02
-5.034500360488891602e-02
-1.194620206952095032e-01
2.778843976557254791e-02
6.848738342523574829e-02
1.036302223801612854e-01
-8.323379606008529663e-02
-1.361671686172485352e-01
-1.124511957168579102e-01
-8.561751246452331543e-02
-1.362929306924343109e-02
-6.383602321147918701e-02
-6.703817099332809448e-02
1.592038013041019440e-02
-1.076199710369110107e-01
-1.329260617494583130e-01
-8.983252942562103271e-02
-5.349901691079139709e-02
-8.878199011087417603e-02
-1.126681193709373474e-01
-1.037909761071205139e-01
-8.937759697437286377e-02
-8.153970539569854736e-02
3.545005246996879578e-02
-9.720692783594131470e-02
5.922512710094451904e-02
1.172721292823553085e-02
-9.925936907529830933e-02
-5.674097687005996704e-02
5.831517744809389114e-03
-9.144248813390731812e-02
-7.831077277660369873e-02
8.915307000279426575e-03
-1.392232328653335571e-01
-7.822926342487335205e-02
-1.043644100427627563e-01
-6.954427808523178101e-02
-2.274409495294094086e-02
9.681209921836853027e-02
-7.416512817144393921e-02
-8.673980087041854858e-02
-9.211134165525436401e-02
-9.209628403186798096e-02
-6.667333841323852539e-02
-9.568011015653610229e-02
-8.748082816600799561e-02
5.403484404087066650e-02
-7.909804582595825195e-03
-3.446080163121223450e-02
7.371247280389070511e-03
-1.009213253855705261e-01
7.368341833353042603e-02
-7.669865153729915619e-03
-2.297064848244190216e-02
-7.903673499822616577e-02
-5.595346540212631226e-02
-8.974618464708328247e-02
-1.554931849241256714e-01
2.938737347722053528e-02
-2.282207310199737549e-01
-9.633016586303710938e-02
-1.057969555258750916e-01
