1.374538093805313110e-01
2.253532223403453827e-02
-7.716461271047592163e-02
1.906234771013259888e-02
9.655541181564331055e-02
4.949309676885604858e-02
-3.095958009362220764e-02
6.327848136425018311e-02
-9.681039303541183472e-02
8.175898343324661255e-02
-7.515529543161392212e-02
-2.526257745921611786e-02
-4.119686782360076904e-02
3.083775192499160767e-02
-1.369448099285364151e-02
2.679936587810516357e-01
6.222897022962570190e-02
-2.865818794816732407e-03
6.976655870676040649e-02
-5.198883265256881714e-02
4.823743924498558044e-02
-2.257095649838447571e-02
-8.428031578660011292e-03
-7.438826560974121094e-02
-8.675352483987808228e-02
-6.516671925783157349e-02
3.994888812303543091e-02
5.120143294334411621e-02
2.360024675726890564e-02
9.332164376974105835e-02
-2.980957180261611938e-02
8.812872692942619324e-03
2.353971637785434723e-02
2.861502952873706818e-02
5.836323276162147522e-02
1.792047172784805298e-01
7.353660464286804199e-02
1.293272972106933594e-01
-1.163314729928970337e-01
2.136472612619400024e-01
-1.088810637593269348e-01
-5.534520745277404785e-02
3.834598138928413391e-02
1.602457463741302490e-02
-7.202340662479400635e-02
-4.214423894882202148e-02
-5.870509147644042969e-02
3.762404248118400574e-02
6.211042776703834534e-02
-3.261823579668998718e-02
2.251359075307846069e-02
-2.687755972146987915e-02
3.934458643198013306e-02
-5.300636403262615204e-03
-3.477355465292930603e-02
3.171681985259056091e-02
1.576370373368263245e-02
4.367245733737945557e-02
-4.420639947056770325e-02
-1.677223015576601028e-03
7.453283667564392090e-02
7.269084453582763672e-02
-4.542578384280204773e-02
-7.215689867734909058e-02
2.365087158977985382e-02
-4.215028882026672363e-02
-3.199135884642601013e-02
-7.180273532867431641e-02
-2.612238004803657532e-02
5.090532824397087097e-02
-7.684167474508285522e-02
7.819351740181446075e-03
2.534985244274139404e-01
5.084332451224327087e-02
-2.020030021667480469e-01
1.587910205125808716e-02
-6.413384526968002319e-02
-3.086861409246921539e-02
-4.798755794763565063e-02
-2.621838636696338654e-02
2.702455967664718628e-02
9.271625429391860962e-03
-1.490177004598081112e-03
-8.981598168611526489e-02
1.029159291647374630e-03
2.764023467898368835e-02
5.275341123342514038e-02
-5.553497374057769775e-02
4.158778116106987000e-02
-9.572095237672328949e-03
-6.050686538219451904e-02
8.352445065975189209e-02
9.304481744766235352e-02
4.075502231717109680e-02
3.330646455287933350e-02
-1.522312406450510025e-02
-2.232081815600395203e-02
7.661344110965728760e-02
-1.065518334507942200e-01
-6.929156184196472168e-02
3.443189710378646851e-02
9.126292914152145386e-02
-1.198752149939537048e-01
-5.616375803947448730e-02
-1.033668890595436096e-01
-7.694729417562484741e-02
7.066804915666580200e-02
-8.055950514972209930e-03
-7.897900044918060303e-02
5.620523355901241302e-03
2.457698341459035873e-03
-2.152346447110176086e-02
-3.095215559005737305e-02
6.483235396444797516e-03
-1.540670916438102722e-02
-4.763882234692573547e-02
1.120972260832786560e-01
3.818160295486450195e-02
-4.735239967703819275e-02
4.900241270661354065e-02
-3.863626345992088318e-02
1.574799045920372009e-02
-1.337979584932327271e-01
5.948308389633893967e-04
-1.198196113109588623e-01
7.928439229726791382e-02
4.438163340091705322e-02
1.845549419522285461e-02
