-1.430255770683288574e-01
-4.135862365365028381e-02
9.634464234113693237e-02
-1.724990666843950748e-03
-6.355872005224227905e-02
2.489763498306274414e-02
4.331899341195821762e-03
-1.198086589574813843e-01
-9.880929440259933472e-02
7.820361852645874023e-02
-6.386754661798477173e-02
-1.485254336148500443e-02
-2.207119204103946686e-02
-6.839063763618469238e-02
1.301017403602600098e-02
-3.591232933104038239e-03
5.324697121977806091e-03
-6.294167134910821915e-03
-2.571068517863750458e-02
-2.904177643358707428e-02
1.271854038350284100e-03
-3.571525961160659790e-02
1.199649088084697723e-02
5.538643151521682739e-02
1.593411155045032501e-02
-1.483452226966619492e-02
-8.474478125572204590e-02
5.421936511993408203e-02
3.127577155828475952e-02
2.329489216208457947e-03
-2.917059883475303650e-02
-7.670303434133529663e-02
7.905791513621807098e-03
-1.702678389847278595e-02
-9.728142619132995605e-02
-2.048409357666969299e-02
1.195352897047996521e-02
4.729057196527719498e-03
-7.395932916551828384e-03
1.773206703364849091e-02
-9.021979756653308868e-03
8.961663979789591394e-07
-4.167463257908821106e-02
-9.924998879432678223e-02
-3.870690986514091492e-02
-4.052954167127609253e-02
-1.338569968938827515e-01
-1.089250016957521439e-02
1.138873281888663769e-03
-4.745770711451768875e-03
-6.204137951135635376e-02
-3.008771920576691628e-03
4.079513251781463623e-02
1.873788191005587578e-03
-1.935161501169204712e-01
-2.036271616816520691e-03
3.328771516680717468e-02
-4.484900087118148804e-02
-3.522607032209634781e-03
5.527111515402793884e-02
-7.421549409627914429e-02
-2.486080490052700043e-02
-1.078866794705390930e-02
-1.090295463800430298e-01
-1.646828837692737579e-02
-2.558326534926891327e-02
-1.521934419870376587e-01
8.919585496187210083e-03
-3.753894707188010216e-04
1.631733146496117115e-03
1.232571667060256004e-03
-3.086045151576399803e-03
-2.754573151469230652e-02
-3.763215616345405579e-02
-8.851555176079273224e-03
-3.065264411270618439e-02
-5.902753211557865143e-03
6.162637728266417980e-04
-8.105099946260452271e-02
-4.392173513770103455e-02
-9.510590694844722748e-03
-8.985607884824275970e-03
-3.195616602897644043e-02
-1.265024649910628796e-03
-1.019066665321588516e-02
-2.331134630367159843e-03
4.302540619391947985e-04
2.710918895900249481e-02
-4.602644965052604675e-02
-2.373488061130046844e-02
1.598206348717212677e-02
-1.607119478285312653e-02
-2.766923047602176666e-02
-9.096176922321319580e-02
3.401878476142883301e-02
-1.171354018151760101e-02
9.002958424389362335e-03
-8.505720645189285278e-02
2.681011566892266273e-03
8.929465711116790771e-02
-8.921648561954498291e-02
-3.318612277507781982e-02
-6.357689946889877319e-02
-7.663501310162246227e-04
-6.941432505846023560e-02
1.007595062255859375e-01
3.063723910599946976e-03
-1.479635760188102722e-02
1.129213441163301468e-02
4.258248209953308105e-02
8.554972708225250244e-03
-6.427924148738384247e-03
1.209135819226503372e-02
-4.908072575926780701e-02
-9.727864712476730347e-02
-2.200429793447256088e-03
-1.281227683648467064e-03
-2.218682493548840284e-04
1.067745406180620193e-02
-4.278191551566123962e-02
-9.097511880099773407e-03
-3.451536968350410461e-02
-7.885225117206573486e-02
-8.630017749965190887e-03
-4.560067504644393921e-02
-1.500364691019058228e-01
-2.510175341740250587e-03
-8.409954607486724854e-02
-1.581452228128910065e-02
-6.739466916769742966e-03
-2.323810383677482605e-02
-1.029415242373943329e-02
-2.145125158131122589e-02
1.215120106935501099e-01
-1.058826805092394352e-03
-1.689244620501995087e-02
-4.818025045096874237e-03
-5.203258246183395386e-03
1.439888309687376022e-02
-2.275831438601016998e-02
-2.246102085337042809e-03
3.000909928232431412e-03
-1.438127015717327595e-03
-9.541146457195281982e-03
4.823572933673858643e-02
-1.025378927588462830e-01
-1.706531643867492676e-01
-8.865809999406337738e-03
4.836111620534211397e-04
-2.564904093742370605e-02
-6.047591567039489746e-03
9.298892837250605226e-05
-9.238280355930328369e-03
7.380883907899260521e-04
-8.624578267335891724e-02
-1.325613074004650116e-02
-1.595113873481750488e-01
-3.109177201986312866e-02
-3.851382061839103699e-03
-3.074994683265686035e-02
1.544632576406002045e-02
-1.693048514425754547e-03
-7.071399595588445663e-04
-3.216032683849334717e-02
1.001530885696411133e-02
6.449288874864578247e-02
-5.243154615163803101e-02
-5.137385800480842590e-02
-1.809089072048664093e-02
7.493421901017427444e-03
-6.174180656671524048e-03
3.841769648715853691e-03
1.577091962099075317e-02
8.214519359171390533e-03
8.818361163139343262e-02
-6.636830046772956848e-03
-8.016806095838546753e-02
-2.036152640357613564e-03
-2.999483235180377960e-02
-2.660879306495189667e-02
-3.439747542142868042e-02
-1.728122495114803314e-02
2.038392121903598309e-04
7.904019206762313843e-03
-5.718074273318052292e-03
-1.865039020776748657e-01
6.784753501415252686e-02
-1.884602941572666168e-02
-1.331066638231277466e-01
1.557601541280746460e-01
-4.090931639075279236e-02
-7.075038272887468338e-03
-5.776225402951240540e-02
-2.798710716888308525e-03
-6.764663010835647583e-02
5.765907117165625095e-04
3.720450215041637421e-03
-1.026047021150588989e-02
-5.211457982659339905e-02
7.875162363052368164e-02
-8.876932042767293751e-06
-3.904754528775811195e-03
6.728034932166337967e-03
-6.535514444112777710e-02
8.218658715486526489e-02
-3.932337090373039246e-02
9.324453771114349365e-03
1.818495802581310272e-02
2.218130044639110565e-03
-1.614280790090560913e-02
-1.875182054936885834e-02
3.057678462937474251e-03
2.402231562882661819e-03
5.261816084384918213e-02
2.948348410427570343e-02
4.474740475416183472e-03
-2.692023850977420807e-02
-7.986374944448471069e-02
3.281673789024353027e-02
3.999309148639440536e-03
-5.550964921712875366e-02
-1.606695167720317841e-02
3.440000116825103760e-02
-2.622514963150024414e-02
3.214283846318721771e-03
-2.508336212486028671e-03
-3.110552206635475159e-03
-1.294857710599899292e-01
3.090666141360998154e-03
-1.668679877184331417e-03
-8.969573304057121277e-03
-9.709979058243334293e-04
1.010018289089202881e-01
1.879989053122699261e-03
4.421675950288772583e-02
1.909663528203964233e-02
1.448964793235063553e-02
8.718585595488548279e-03
5.122563452459871769e-04
1.017233356833457947e-03
8.306216448545455933e-02
-1.442951411008834839e-01
-8.241942152380943298e-03
-1.013104990124702454e-01
-1.013533771038055420e-02
-3.076398372650146484e-02
-1.201129481196403503e-01
-7.308722939342260361e-03
-1.496020890772342682e-02
6.747200340032577515e-02
1.004510093480348587e-02
-1.347891539335250854e-01
-2.135920803993940353e-03
-5.575181916356086731e-03
-6.777790375053882599e-03
-1.451455354690551758e-01
4.444830119609832764e-03
-1.498275063931941986e-02
1.670961454510688782e-02
1.223333552479743958e-02
-3.935745358467102051e-02
3.925552126020193100e-03
-9.134010411798954010e-03
-9.275110065937042236e-02
-1.727024093270301819e-03
-1.206328198313713074e-01
1.621254906058311462e-02
-1.202031224966049194e-01
-8.289768546819686890e-02
-8.852659910917282104e-02
1.071425974369049072e-01
-4.581608250737190247e-02
6.181153655052185059e-02
-7.389838248491287231e-02
2.148277824744582176e-03
6.295785307884216309e-02
-5.074226111173629761e-02
-4.775548004545271397e-04
-1.545863226056098938e-02
-2.232453972101211548e-02
-2.124439226463437080e-03
-7.840371876955032349e-02
-1.056625600904226303e-02
-3.824096545577049255e-02
-3.625168278813362122e-02
2.369203232228755951e-02
-1.363127958029508591e-02
-2.348407916724681854e-02
-2.429010532796382904e-02
-3.833940252661705017e-02
1.070948764681816101e-01
2.352363988757133484e-02
-2.447485923767089844e-03
-2.775917062535881996e-03
-4.469303414225578308e-02
-4.138295073062181473e-03
1.248524896800518036e-02
5.562411621212959290e-02
-9.540382772684097290e-02
-1.805763226002454758e-03
-1.219555921852588654e-02
-5.640577059239149094e-03
-1.140398532152175903e-02
-5.607874132692813873e-03
-2.294512698426842690e-03
8.615435101091861725e-03
-4.679220914840698242e-02
2.059146761894226074e-02
1.560096163302659988e-02
-1.639306396245956421e-01
-8.765488746576011181e-04
8.397326618432998657e-02
6.598006933927536011e-02
1.922247745096683502e-02
-6.471166014671325684e-02
-8.940558880567550659e-03
-1.730037666857242584e-02
-2.383564561605453491e-01
3.730103746056556702e-02
-1.211698749102652073e-03
8.747174404561519623e-03
-2.032955549657344818e-02
1.022742912173271179e-01
-5.230047553777694702e-02
1.177914440631866455e-02
1.124531477689743042e-01
-9.621462225914001465e-02
2.578452495072269812e-06
-4.319591447710990906e-03
-2.585821226239204407e-02
8.918421342968940735e-03
-8.774269372224807739e-03
4.633418843150138855e-02
-1.639059484004974365e-01
-1.705130189657211304e-02
-7.140395045280456543e-02
-5.955440457910299301e-03
-1.714843213558197021e-01
-2.955867210403084755e-03
-1.974083669483661652e-02
-1.076783463358879089e-01
-2.966413041576743126e-03
-1.689858138561248779e-01
-2.123037911951541901e-02
-6.608337163925170898e-02
-1.275861263275146484e-02
4.196580499410629272e-02
-4.087539762258529663e-02
4.997448995709419250e-02
-1.244573816657066345e-01
-5.577722098678350449e-03
8.018777519464492798e-02
3.467418486252427101e-03
-6.778172403573989868e-02
-1.112438440322875977e-01
3.479228587821125984e-03
-1.772266626358032227e-02
-9.641866385936737061e-02
-7.139267399907112122e-03
-1.789196580648422241e-02
-2.188226953148841858e-02
1.229883171617984772e-02
-2.186103165149688721e-02
-1.203584447503089905e-01
-2.405788004398345947e-02
1.136444229632616043e-02
9.092491865158081055e-02
-1.796640455722808838e-02
4.796288907527923584e-03
-9.160044719465076923e-04
2.105009928345680237e-02
-1.078888773918151855e-01
5.452502984553575516e-03
-6.988830864429473877e-03
6.491510197520256042e-03
-5.886271595954895020e-03
-4.294362291693687439e-02
-1.101826434023678303e-03
-1.856872625648975372e-02
-2.762605249881744385e-02
-8.763414807617664337e-03
2.816353458911180496e-03
-9.108094125986099243e-02
-4.399337805807590485e-03
-2.235712483525276184e-02
-5.475570447742938995e-03
1.700596883893013000e-03
-1.282100081443786621e-01
1.088987290859222412e-01
-4.257058259099721909e-03
-1.044529024511575699e-03
-5.018348339945077896e-03
-3.527273610234260559e-02
-6.615246087312698364e-02
-3.557725623250007629e-02
-7.348246127367019653e-02
-1.648907363414764404e-01
-3.373656049370765686e-02
-8.672324009239673615e-03
-2.376882918179035187e-02
4.391981661319732666e-02
9.293676167726516724e-02
-1.907588557514827698e-05
2.122806152328848839e-03
-1.623548120260238647e-01
-5.307994410395622253e-02
-7.737658917903900146e-02
1.592926122248172760e-02
-4.275714978575706482e-02
3.067850880324840546e-02
-1.104731764644384384e-02
-4.106006119400262833e-03
2.602862194180488586e-03
-1.107123307883739471e-02
-4.553499817848205566e-02
-1.454984117299318314e-02
-5.960393324494361877e-02
-1.328428182750940323e-02
-7.529913634061813354e-02
3.685406409204006195e-04
-1.285285130143165588e-02
-1.346715376712381840e-03
-1.340157352387905121e-02
-2.070847153663635254e-02
-6.136536970734596252e-02
-1.076373178511857986e-02
-6.189584266394376755e-03
-3.004189813509583473e-03
-1.208212878555059433e-02
-1.002495060674846172e-03
1.599362306296825409e-02
4.541759192943572998e-02
3.236043266952037811e-04
1.077688671648502350e-02
-9.029106795787811279e-02
-1.473927870392799377e-02
-1.913021132349967957e-02
-1.367921661585569382e-02
1.217421330511569977e-02
7.636333815753459930e-03
-5.439717322587966919e-03
-1.521904170513153076e-01
-1.036912724375724792e-01
-1.110038757324218750e-01
2.235714159905910492e-02
2.553205937147140503e-02
4.545894265174865723e-02
5.413582082837820053e-03
5.954950116574764252e-03
-3.895039483904838562e-02
-8.233553916215896606e-02
-7.521083171013742685e-05
7.175109535455703735e-02
8.074262179434299469e-03
2.734152227640151978e-02
-4.900169000029563904e-02
9.557532030157744884e-04
-7.582117337733507156e-03
-4.272041097283363342e-02
-1.519395038485527039e-03
-5.997741129249334335e-03
6.520951166749000549e-03
-2.763739600777626038e-02
-1.645086519420146942e-02
-1.869768947362899780e-01
2.447052160277962685e-03
-2.915472723543643951e-02
4.542285576462745667e-02
-7.842344790697097778e-02
-8.475244976580142975e-03
-3.467087447643280029e-02
-1.074098870158195496e-01
5.144954845309257507e-02
-1.209150850772857666e-01
-4.667095839977264404e-02
-2.742632059380412102e-03
-5.708840861916542053e-02
-8.717571198940277100e-02
2.278963476419448853e-02
-1.240018848329782486e-02
-3.155929967761039734e-02
5.830740556120872498e-03
4.007431492209434509e-02
-8.527076803147792816e-03
3.385978634469211102e-04
-7.449883222579956055e-02
6.032858975231647491e-03
7.907893159426748753e-04
-5.213930830359458923e-02
-2.603490650653839111e-02
-4.813055042177438736e-03
1.425549834966659546e-01
-5.657134205102920532e-02
1.621415466070175171e-02
-1.881189793348312378e-01
-1.454143822193145752e-01
-7.401619106531143188e-03
3.806178644299507141e-02
-1.976811513304710388e-02
3.540503676049411297e-04
-7.815604656934738159e-02
7.252415269613265991e-02
-1.710026152431964874e-02
-1.913197524845600128e-02
-1.678290194831788540e-03
-1.794722825288772583e-01
-1.288637816905975342e-01
-6.487325578927993774e-02
-1.925923489034175873e-02
9.742256253957748413e-02
5.221633240580558777e-03
-1.347547173500061035e-01
