-1.208137199282646179e-01
-8.261576294898986816e-03
-1.049974933266639709e-01
4.420602321624755859e-02
-8.805578202009201050e-02
-4.299606382846832275e-02
1.995275355875492096e-02
2.515193074941635132e-02
5.494507029652595520e-02
-1.147997379302978516e-01
2.458364516496658325e-02
1.923429779708385468e-02
5.517686158418655396e-02
-1.162256225943565369e-01
1.110714226961135864e-01
-1.053311154246330261e-01
-5.607547238469123840e-02
-1.035367250442504883e-01
-1.617354005575180054e-01
-6.596933305263519287e-02
2.717638760805130005e-02
1.922183856368064880e-02
-7.605476677417755127e-02
-9.975326806306838989e-02
-1.419057324528694153e-02
-2.160554006695747375e-02
-4.810512438416481018e-02
-4.644345864653587341e-02
9.495425224304199219e-02
-1.267124861478805542e-01
-5.929809063673019409e-02
-4.778162389993667603e-02
2.458446251694113016e-04
-9.914863109588623047e-02
3.353392705321311951e-02
2.376715280115604401e-02
-9.795802645385265350e-03
-8.709361404180526733e-02
2.154863066971302032e-02
-1.557102501392364502e-01
3.754782304167747498e-02
-2.180355191230773926e-01
-5.066848918795585632e-02
6.252112239599227905e-02
-5.634669959545135498e-02
-4.666522517800331116e-02
4.175089299678802490e-02
-3.438087180256843567e-02
-1.916765794157981873e-02
-7.315516471862792969e-02
-3.537096083164215088e-02
-1.445853989571332932e-02
-9.330172836780548096e-02
2.651707828044891357e-02
-6.316240411251783371e-03
-1.134178601205348969e-02
-3.833900438621640205e-03
5.139729753136634827e-02
-1.111314147710800171e-01
7.625714689493179321e-02
-5.585179477930068970e-02
1.670642383396625519e-02
-1.314057558774948120e-01
4.330452159047126770e-02
5.024071782827377319e-02
-3.966661170125007629e-02
-4.315558820962905884e-02
6.347393151372671127e-03
-1.221466958522796631e-01
-1.016912087798118591e-01
-2.519518323242664337e-02
1.951362472027540207e-03
-1.009189784526824951e-01
2.192145027220249176e-02
-1.026317030191421509e-01
-1.271715387701988220e-02
3.823704272508621216e-02
7.024335861206054688e-02
-3.306273370981216431e-02
-1.166923195123672485e-01
1.100551411509513855e-01
5.284335091710090637e-02
1.014112085103988647e-01
3.948906064033508301e-02
3.306612372398376465e-02
3.882275521755218506e-02
-3.692157194018363953e-02
-2.106572315096855164e-02
2.879721485078334808e-02
1.757691614329814911e-02
3.091328032314777374e-02
-1.166206672787666321e-01
-3.501908387988805771e-03
-1.114851608872413635e-02
4.831961914896965027e-02
-7.578861713409423828e-02
-6.475837528705596924e-02
-8.086755126714706421e-02
-1.003405302762985229e-01
-2.914921613410115242e-03
-2.747625671327114105e-02
-3.835375187918543816e-03
-7.948140799999237061e-02
-1.248702481389045715e-01
2.982250787317752838e-02
-7.222861796617507935e-02
2.919725142419338226e-02
-5.783995729871094227e-04
5.617037042975425720e-02
-7.343685720115900040e-03
2.399698272347450256e-02
-3.826696425676345825e-02
-8.895376324653625488e-02
6.267657736316323280e-04
-1.483193039894104004e-01
-6.492061167955398560e-02
-2.345808148384094238e-01
1.301554776728153229e-02
3.895238786935806274e-02
-1.281330287456512451e-01
-1.263447105884552002e-01
-2.022343501448631287e-02
-8.384363353252410889e-02
6.088618189096450806e-02
6.477201730012893677e-02
4.769677668809890747e-02
2.923375868704169989e-04
-5.834678933024406433e-02
