-4.752144683152437210e-03
7.338158041238784790e-02
2.988117933273315430e-02
5.424950271844863892e-02
-4.210235923528671265e-02
4.574824869632720947e-02
7.044437527656555176e-02
1.361202001571655273e-01
9.597022831439971924e-02
8.680242300033569336e-02
4.658795148134231567e-02
8.787877857685089111e-03
-5.563045386224985123e-03
3.559235855937004089e-02
6.024495884776115417e-02
2.949654124677181244e-02
1.148695573210716248e-01
1.002243459224700928e-01
-7.056525349617004395e-02
5.785278603434562683e-02
5.913390591740608215e-02
3.198552504181861877e-02
-2.064637101284461096e-06
-1.117367744996045076e-07
9.547373652458190918e-02
-1.214282470755279064e-03
-1.064487099647521973e-01
-7.664743345230817795e-03
4.326858744025230408e-02
1.015652436763048172e-02
3.329752013087272644e-02
1.068168506026268005e-02
5.050525814294815063e-02
-2.517348900437355042e-02
5.800232663750648499e-02
-3.950974717736244202e-02
2.433412522077560425e-02
2.460142597556114197e-02
1.913620531558990479e-02
8.743112534284591675e-02
-1.080951560288667679e-02
4.612203687429428101e-02
-2.816920168697834015e-03
6.688535958528518677e-02
3.951762989163398743e-02
-4.450921915122307837e-05
4.493803158402442932e-02
1.774808950722217560e-02
-1.175050735473632812e-01
3.782327845692634583e-02
1.149446368217468262e-01
1.170706748962402344e-01
-3.607077871947694803e-07
3.722606599330902100e-02
-4.090767726302146912e-02
8.156236261129379272e-02
1.448739171028137207e-01
5.980941001325845718e-03
2.417300455272197723e-02
-1.358856167644262314e-02
-5.166941508650779724e-02
5.479834228754043579e-02
4.633734375238418579e-02
2.227086201310157776e-02
-1.479041600305208704e-07
4.164379835128784180e-02
3.862497629597783089e-03
2.160299010574817657e-02
-8.672868832945823669e-03
9.429229795932769775e-02
-4.436926543712615967e-02
-6.029392807249678299e-07
2.165208458900451660e-01
8.955137431621551514e-02
1.870692893862724304e-02
2.066666074097156525e-02
-2.958909142762422562e-03
-2.168722599744796753e-01
5.025992542505264282e-02
3.847349807620048523e-02
5.913452804088592529e-02
3.610345348715782166e-02
9.949747473001480103e-02
-2.067747846012935042e-05
1.425278335809707642e-01
1.907201111316680908e-01
3.804179280996322632e-02
-1.260508383893466089e-06
-5.354784894734621048e-03
-2.008227511396398768e-06
9.859747439622879028e-02
-9.422265738248825073e-02
-4.134288430213928223e-02
-8.267126977443695068e-03
-2.883325517177581787e-02
1.067415773868560791e-01
1.555695980787277222e-01
2.790349908173084259e-02
5.313860625028610229e-02
-3.120618313550949097e-02
3.948323801159858704e-02
-7.753652084829809610e-07
3.003661986440420151e-03
3.551828861236572266e-02
7.985997945070266724e-02
2.379291504621505737e-02
-1.298115998506546021e-01
-1.351105879621172789e-06
-6.724625080823898315e-02
1.733768284320831299e-01
9.578259289264678955e-02
9.183879941701889038e-02
-4.320159927010536194e-02
7.840199023485183716e-02
-6.347543967422097921e-05
5.403552204370498657e-02
4.696925356984138489e-02
-2.441022672883264022e-07
1.570901870727539062e-01
2.927234210073947906e-02
3.075755387544631958e-02
-1.507225185632705688e-01
9.304725378751754761e-02
-7.624005957040935755e-05
1.116981059312820435e-01
1.553340815007686615e-02
6.091359257698059082e-02
-5.986996693536639214e-04
2.636600472033023834e-02
5.260094255208969116e-02
1.660057902336120605e-01
-3.978510200977325439e-02
5.763257294893264771e-02
-2.704501184780383483e-06
-3.370836793692433275e-06
1.154600232839584351e-01
4.918815940618515015e-02
-1.488276012241840363e-02
4.442753642797470093e-02
-3.114988654851913452e-02
-2.365293353796005249e-02
6.577868759632110596e-02
6.705598533153533936e-02
9.838975965976715088e-02
-2.378483265638351440e-01
3.303544968366622925e-02
1.901722699403762817e-01
1.632387936115264893e-02
-3.073806166648864746e-01
3.118695132434368134e-02
-2.164158970117568970e-01
1.185331307351589203e-02
-4.242498427629470825e-03
5.629585590213537216e-03
-7.531545311212539673e-02
1.318926643580198288e-02
2.179819904267787933e-02
6.325141293928027153e-04
4.870769567787647247e-03
-5.790575966238975525e-02
5.189419537782669067e-02
1.334385573863983154e-01
-1.595204323530197144e-02
1.653209924697875977e-01
-2.830518409609794617e-02
4.051220603287220001e-03
2.760055474936962128e-02
1.281324401497840881e-02
-1.549844862893223763e-03
2.950212545692920685e-02
8.631475269794464111e-02
-4.082113876938819885e-02
-3.262948617339134216e-02
-1.539631746709346771e-02
-1.882938886410556734e-05
1.055896095931529999e-02
3.541629761457443237e-02
1.241508722305297852e-01
7.768668234348297119e-02
-1.110471598803997040e-02
1.896120235323905945e-02
-5.844179913401603699e-02
-1.724740117788314819e-02
-4.915381222963333130e-02
1.155326329171657562e-02
-2.080977537843864411e-06
1.387179829180240631e-02
1.084582805633544922e-01
6.853119283914566040e-02
1.767155975103378296e-01
3.563438728451728821e-02
-4.029383882880210876e-02
4.616303369402885437e-02
3.349798917770385742e-02
2.228251285851001740e-02
4.668863490223884583e-02
2.924929745495319366e-02
1.037992909550666809e-01
2.798693813383579254e-02
-4.731332955998368561e-05
8.360669761896133423e-02
7.962843030691146851e-02
-2.053980779237463139e-06
1.276462972164154053e-01
-2.433689303416031180e-07
1.128082051873207092e-01
-1.035794895142316818e-02
-4.993204958736896515e-03
9.127929806709289551e-02
5.016630887985229492e-02
-1.949726417660713196e-02
-3.388783661648631096e-04
-3.016146086156368256e-02
7.711645215749740601e-02
-2.971559297293424606e-06
7.070470601320266724e-02
2.364690229296684265e-02
3.575507551431655884e-02
-6.367831677198410034e-02
1.049070134758949280e-01
1.138259544968605042e-01
1.306892372667789459e-03
-4.913520067930221558e-02
1.153837144374847412e-01
-6.022655218839645386e-02
9.939168812707066536e-04
6.478056311607360840e-02
7.637874782085418701e-02
5.985283106565475464e-02
1.196118965744972229e-01
-5.167054012417793274e-02
5.280301347374916077e-02
2.714375779032707214e-02
5.199931189417839050e-02
1.907363533973693848e-01
1.714294776320457458e-02
5.517752096056938171e-02
1.257185041904449463e-01
-2.675401279702782631e-03
-3.127598389983177185e-02
4.706941172480583191e-02
5.169007927179336548e-02
-5.947506520897150040e-03
2.963337861001491547e-02
1.912195831537246704e-01
1.400086469948291779e-02
-4.088515706826001406e-04
2.392383664846420288e-02
-3.661159053444862366e-02
3.517797961831092834e-02
8.261482417583465576e-02
6.921420991420745850e-02
1.178090795874595642e-01
3.433194383978843689e-02
1.947279870510101318e-01
3.274790570139884949e-02
